svm_type c_svc
kernel_type rbf
gamma 0.09
nr_class 2
total_sv 21
rho -0.246616
label 130010401 130010402
probA -3.41859
probB 0.0284639
nr_sv 9 12
SV
4.186562713431073 1:0.30686775 2:0.55913079 3:0.22367358 4:1 5:0.26460832 6:0.72384584 7:0.51569569 8:0.29971254 9:0.22050662 10:0.79818565 11:0.21596354 12:1 13:0.16456111 14:0.9362973 15:0.54849046 
0.3466681246133245 1:0.67447442 2:0.55920398 3:0.04801606 4:0.0096213166 5:0.42754459 6:0.59729493 7:0.69923466 8:0.69369388 9:0.48194802 10:0.53929979 11:0.054821879 12:0.92582762 13:0.20947301 14:1 15:0.59346581 
5.883523135616286 1:0.63620043 2:0.8949303 3:0.84291446 4:0.16019744 5:0.75729817 6:0.53234881 7:0.99673343 8:0.47459409 9:0.4275457 10:0.46100855 11:0.4166857 12:0.46854442 13:0.6467216 14:0.27886346 15:0.8096264 
2.265947457460444 1:0.53626418 2:7.6885567e-16 3:0.23366097 4:0.6041981 5:0.35998043 6:4.7106927e-16 7:0.94173741 8:0.68386692 9:0.37131706 10:2.7878237e-16 11:1 12:0.33827412 13:0.42590967 14:0.55598623 15:0.60833049 
3.928470134077075 1:0.22249363 2:0.39308268 3:5.913227e-16 4:0.29193318 5:1 6:0.38866395 7:0.79136175 8:0.50555998 9:0.45220423 10:0.56938648 11:0.60702896 12:0.54934299 13:0.58733517 14:0.22555113 15:0.81059021 
0.8656022781867846 1:0.20820519 2:0.47855964 3:1 4:0 5:0.35013634 6:0.29083028 7:0.79361057 8:0.590792 9:0.85111761 10:0.79388732 11:0.26677406 12:0.78541178 13:0.38559908 14:0.57670349 15:0.73087806 
1.375926232927349 1:0.31384906 2:0.51230091 3:0.90627337 4:0.66361457 5:0.76291192 6:1 7:1 8:0.95520675 9:0.44695303 10:0.64787012 11:0.23237798 12:0.46377259 13:0.38984528 14:0.23351158 15:0.91106826 
3.852067889421547 1:0.58291727 2:0.70128143 3:0.47673905 4:0.67119801 5:0.2969543 6:0.47335002 7:0.74454969 8:0.076998577 9:0.37891477 10:0.87965375 11:0.52914435 12:0.57365036 13:0.19863136 14:0.04657406 15:0.8087225 
3.437280916669372 1:0.1121998 2:0.37099269 3:0.11652488 4:0.37549484 5:0.63821405 6:0.5093919 7:0.62984198 8:0.43564531 9:0.0027633409 10:0.6347416 11:0.33769268 12:0.64845926 13:0.073545195 14:0.14134884 15:0.79192263 
-0.1567109605908566 1:0.49585465 2:0.43718785 3:0.90460938 4:0.16826637 5:0.28747246 6:0.60281593 7:0.77370209 8:0.7063247 9:0.20596866 10:0.60757095 11:0.61033463 12:1.0952444e-15 13:0.3393822 14:0.21865752 15:0.10692422 
-0.06730285254662632 1:0.37055784 2:0.24842423 3:0.37692511 4:0.34197155 5:0.087400205 6:0.93857878 7:0.91428763 8:0.57248569 9:0.36891666 10:0.4334968 11:0.45765358 12:0.73820341 13:0.44947097 14:0.18564585 15:0.057901215 
-0.2005093363893223 1:0.1877616 2:0.51088291 3:0.55828029 4:0.51684475 5:0.91239363 6:0.57530427 7:0.98707032 8:0 9:0 10:0.62890673 11:0.26152205 12:0.33307141 13:0.47207317 14:0.25419191 15:0.11794014 
-0.1425204914398784 1:0.25355929 2:0.85363615 3:0.40490118 4:0.53601152 5:0.43669483 6:0.38958603 7:0.80511624 8:1 9:0.25548321 10:0.47382113 11:0.29033366 12:0.83879912 13:0.2462609 14:0.094116427 15:0.036325779 
-1.738572804583727 1:0.49585465 2:0.43718785 3:0.90460938 4:0.16826637 5:0.28747246 6:0.60281593 7:0.77370209 8:0.7063247 9:0.20596866 10:0.60757095 11:0.61033463 12:1.0952444e-15 13:0.3393822 14:0.21865752 15:0.10692422 
-1.181075311713568 1:0.37055784 2:0.24842423 3:0.37692511 4:0.34197155 5:0.087400205 6:0.93857878 7:0.91428763 8:0.57248569 9:0.36891666 10:0.4334968 11:0.45765358 12:0.73820341 13:0.44947097 14:0.18564585 15:0.057901215 
-4.475332100538788 1:0.63044393 2:0.55555314 3:0.37785929 4:0.47282368 5:0.63556468 6:0.61295879 7:0.91914594 8:0.2302006 9:1 10:0.71214145 11:0.32074237 12:0.45324531 13:0.42583379 14:0.21721339 15:0.14031316 
-4.496036950048135 1:0.45140129 2:0.44693431 3:0.17632882 4:0.4197596 5:0.69493049 6:0.67868358 7:0 8:0.42785957 9:0.66211075 10:0.70572275 11:0.76140159 12:0.58178675 13:0.54104209 14:0.185259 15:0.14442843 
-6.930890945905411 1:0.1877616 2:0.51088291 3:0.55828029 4:0.51684475 5:0.91239363 6:0.57530427 7:0.98707032 8:0 9:0 10:0.62890673 11:0.26152205 12:0.33307141 13:0.47207317 14:0.25419191 15:0.11794014 
-5.676296662445877 1:0.25355929 2:0.85363615 3:0.40490118 4:0.53601152 5:0.43669483 6:0.38958603 7:0.80511624 8:1 9:0.25548321 10:0.47382113 11:0.29033366 12:0.83879912 13:0.2462609 14:0.094116427 15:0.036325779 
-0.1315177550141459 1:0 2:0.54397452 3:0.19255468 4:0.45677918 5:0.072162785 6:0.55974752 7:0.81400508 8:0.84866798 9:0.48332727 10:0.8824563 11:0.47622049 12:0.1602474 13:0.27647209 14:0.21011956 15:0.099323198 
-0.9452827111869224 1:1 2:0.15642455 3:0.10800947 4:0.55375582 5:0.41900587 6:0.58948433 7:0.99116862 8:0.496941 9:0.39528388 10:0.61251545 11:0.16725063 12:0.52673411 13:0.42342812 14:0.14492738 15:0.064372435 
