svm_type c_svc
kernel_type rbf
gamma 0.09
nr_class 3
total_sv 7
rho -0.125437 0.0571844 0.196752
label 130010104 130010105 130010106
probA -2.35796 -2.21612 -2.26891
probB 0.0371499 -0.061347 -0.127127
nr_sv 3 2 2
SV
6.255387842059825 0.3086206808357882 1:0.19588611 2:0.12643158 3:0.95012677 
0 10 1:0.15390639 2:0.14098328 3:0.9748131 
7.10628189031174 2.818040658324244 1:0.84714031 2:0.13114993 3:0.89644223 
-3.429255068495443 2.831815604142588 1:0.46870548 2:0 3:0 
-9.93241466387612 9.126308107691981 1:0.46870548 2:0 3:0 
-3.126661339160032 -5.215497996210805 1:0.89800751 2:0.95687824 3:0.36244708 
-10 -6.742625715623766 1:0.025881533 2:0.87413502 3:0.40684342 
