svm_type c_svc
kernel_type rbf
gamma 0.09
nr_class 2
total_sv 12
rho 0.310942
label 130470102 130470104
probA -2.92986
probB 0.359285
nr_sv 3 9
SV
4.212384333206002 1:0.29351243 2:0.47989967 3:0.28691143 4:0.48157591 5:0.58271432 6:0.27712873 7:0 8:0.30758622 9:0.30376306 10:1 11:0.63732725 12:0.39471358 13:0.9620235 
4.262974576605777 1:0.71632749 2:0.63180053 3:0.14009207 4:0.55006325 5:0.641945 6:0.86061537 7:0.71101248 8:0.23013599 9:0.26627952 10:0.2503964 11:0.99582624 12:0.41962796 13:0.98904586 
7.639511095932586 1:0.10563343 2:0.62348044 3:0.46156105 4:0.43383902 5:0.47916144 6:0.51424193 7:0.72051352 8:0.41288626 9:0.39625639 10:0 11:1 12:0.38301206 13:0.99470609 
-5.212603258617581 1:0.31518525 2:0.84653181 3:0.20078306 4:0.47756109 5:0.66159546 6:0.41524258 7:0.67782927 8:0.35030493 9:0.18380249 10:0.33949041 11:0.89210099 12:0.18723363 13:0.099019371 
-1.641687556497816 1:0.072879262 2:3.5489749e-16 3:0.44518444 4:0.60635769 5:0.53519362 6:0.76697505 7:0.17386334 8:0.19832334 9:0.26064444 10:0.13618715 11:0.67463654 12:0 13:0.088963553 
-0.2123535928817077 1:0.16970682 2:0.40880635 3:0.2818867 4:0.18199125 5:0.45286268 6:1 7:0.038089078 8:1 9:0.28074998 10:0.25170296 11:0.92026949 12:0.3951925 13:0.040910337 
-1.585801418722356 1:0.62431949 2:0.63841498 3:0.42582676 4:0.57726425 5:0.53893423 6:0.53883594 7:0.51634789 8:0.81839216 9:0.46059397 10:0.35836101 11:0.93034333 12:0.21032812 13:0.075240314 
-0.5484298185355073 1:1 2:0.27938554 3:0.3606846 4:0.65558064 5:0.33413747 6:0.58364099 7:0.68425882 8:0.49354702 9:0.30668497 10:0.36429879 11:0.853459 12:0.096554987 13:0.088524468 
-0.8475421016138089 1:0.22860077 2:0.56142867 3:0.54349482 4:0.65450346 5:0.88012338 6:0.78770107 7:0.73918885 8:0.25778058 9:0.1158381 10:0.40853155 11:0.92196083 12:0.97871679 13:0.096340857 
-1.601693616360564 1:0.25037041 2:0.83459538 3:0.1999553 4:0.011210898 5:6.5511926e-16 6:0.44766837 7:0.19280468 8:0 9:0.26245821 10:0.12457421 11:0.84229499 12:0.86792386 13:0.079739124 
-2.409206935546685 1:0.0048541711 2:0.057267118 3:0.41187376 4:0.54133046 5:0.45903024 6:0.65281963 7:0.92077547 8:0.14171366 9:0.74073356 10:0.50369984 11:0.96820015 12:0.93372566 13:0.16422436 
-2.055551706968344 1:0.36532581 2:0.77760988 3:0.33226863 4:0.28876865 5:0.54905838 6:0.72603756 7:1 8:0.44240901 9:0.68308765 10:0.20264232 11:5.0462597e-16 12:0.34653744 13:0.30452475 
