svm_type c_svc
kernel_type rbf
gamma 0.09
nr_class 2
total_sv 27
rho -0.241045
label 130060101 130060102
probA -4.0857
probB 0.00989818
nr_sv 16 11
SV
0.7304640622086525 1:0.27894723 2:0.24010368 3:0.92196995 4:0.70180786 5:0.085079201 6:0.054768529 7:0.73825043 8:0.85276431 9:0.63325518 10:0.4373326 11:0.76719558 12:0.19836833 13:0.92034221 14:0.88160384 
10 1:0.43087998 2:0.73733586 3:0.55444157 4:0.89864969 5:0.24452737 6:0.5885815 7:0.79516059 8:0.85760623 9:0.48330662 10:0.46093252 11:0.71657622 12:0.101244 13:0.88702238 14:0.78241962 
10 1:0.80932713 2:0.30914116 3:0.11806303 4:0 5:0.41928351 6:0.68462366 7:0.48739997 8:0.58756995 9:0.84238183 10:0.28851408 11:0.92066759 12:0.66523188 13:0.7698642 14:0.7111758 
4.25897587037855 1:0.16488121 2:0.70474023 3:0.76267332 4:0.52304244 5:0.82189035 6:0.75683522 7:0.17477228 8:0.42560941 9:0.57262915 10:0.46254402 11:0.89358085 12:0.058976367 13:0.78643847 14:0.86626101 
4.221858105321376 1:0.4036018 2:0.66578442 3:0.47671658 4:0.92464709 5:0.25060472 6:0.57884967 7:0.73980981 8:0.80427915 9:0.42318466 10:0.46257296 11:0.74836266 12:0.099327952 13:0.92891759 14:0.79528552 
0.425687637151576 1:0.3179698 2:0.93475497 3:0.17740612 4:0.76727289 5:0.5480994 6:0.54811138 7:0.46379831 8:0.51239043 9:0.3273209 10:0.5045045 11:0.7885955 12:0.17865659 13:0.94204688 14:0.85195261 
0.000801296374630342 1:0.26549524 2:0.34875715 3:0.10256906 4:0.47633591 5:0.33851591 6:0.55217355 7:0.47410819 8:0.73912293 9:0.42063478 10:0.97037417 11:0.76272565 12:0.47637826 13:0.55736792 14:0.95268774 
5.503213197009442 1:0.9106853 2:0.70603722 3:0.39805111 4:0.62442446 5:0.40300483 6:0.50034368 7:0.92875481 8:0.50237811 9:0.62562591 10:0.61688715 11:0.69851452 12:0.29701138 13:0.6590566 14:0.79556882 
0.0005512493784098737 1:0.11483427 2:0.82833874 3:0.43780482 4:0.60800445 5:0.31101742 6:0.66120964 7:0.82614237 8:0.019885167 9:0.62135649 10:0.82366014 11:0.58357066 12:0.34169474 13:0.60115427 14:0.86018288 
10 1:0.38961259 2:0.76688439 3:0.66313344 4:0.79393685 5:0.69988263 6:0.48275739 7:0.7759161 8:0.45755482 9:0.5303719 10:0.64387423 11:0.43313631 12:0.36819944 13:0.46913469 14:0.63515705 
5.255752437816835 1:0.46279126 2:0.82412547 3:0.83001578 4:0.85159248 5:0.19390231 6:0.63332295 7:0.27097026 8:0.73751098 9:0.57382733 10:0.96293831 11:0.77627468 12:0.45894417 13:0.51404631 14:0.97209811 
1.114924242120087 1:0.26549524 2:0.34875715 3:0.10256906 4:0.47633591 5:0.33851591 6:0.55217355 7:0.47410819 8:0.73912293 9:0.42063478 10:0.97037417 11:0.76272565 12:0.47637826 13:0.55736792 14:0.95268774 
6.5678054807216 1:0.11483427 2:0.82833874 3:0.43780482 4:0.60800445 5:0.31101742 6:0.66120964 7:0.82614237 8:0.019885167 9:0.62135649 10:0.82366014 11:0.58357066 12:0.34169474 13:0.60115427 14:0.86018288 
5.377411088542412 1:0.3115187 2:0.17998211 3:0.32974219 4:1 5:0.13861445 6:0.77598763 7:0.66223085 8:0 9:0.84762383 10:0.78741527 11:0.68897682 12:0.2702533 13:0.54989409 14:0.8722083 
0.002638890729921172 1:0.43828908 2:0.58344716 3:0.43070245 4:0.68337351 5:0.35711843 6:0.58934653 7:0.42767766 8:0.64415514 9:0.59301555 10:0.52775848 11:6.9418744e-16 12:0.35311523 13:0.55075216 14:0.81523675 
1.09751235661433 1:0.43828908 2:0.58344716 3:0.43070245 4:0.68337351 5:0.35711843 6:0.58934653 7:0.42767766 8:0.64415514 9:0.59301555 10:0.52775848 11:6.9418744e-16 12:0.35311523 13:0.55075216 14:0.81523675 
-0.001096458563754401 1:0.41397461 2:0.56966448 3:0.46959573 4:0.69006217 5:0.34008491 6:0.58808845 7:0.48163819 8:0.57865733 9:0.59240341 10:0.71491688 11:0.62438518 12:0.36566868 13:0.85816193 14:6.2632972e-16 
-4.613181665813545 1:0.41397461 2:0.56966448 3:0.46959573 4:0.69006217 5:0.34008491 6:0.58808845 7:0.48163819 8:0.57865733 9:0.59240341 10:0.71491688 11:0.62438518 12:0.36566868 13:0.85816193 14:6.2632972e-16 
-10 1:0.37769625 2:0.61147565 3:0.22715525 4:0.65922064 5:0.41846314 6:0.35757214 7:0.23461846 8:0.16740906 9:0.16601522 10:0.56677222 11:0.87924659 12:0.14497148 13:0.32775742 14:0.72790629 
-10 1:0.40603399 2:0.68962723 3:0.47871339 4:0.85832089 5:0.38311735 6:0.51516885 7:0.72443283 8:0.36210775 9:0.055439483 10:0.57617724 11:0.74501115 12:0.20356408 13:0.50636828 14:0.71389443 
-3.658347440125923 1:0.33688644 2:0.71207035 3:0.46097612 4:0.42787901 5:0.29143411 6:0.62230915 7:0.86812615 8:0.86051393 9:1 10:0.655985 11:0.62496197 12:0.21181549 13:0.26256746 14:0.34492421 
-10 1:0.57800186 2:0.56230843 3:0.61609721 4:0.67169404 5:0.55368555 6:0.71287155 7:0.86157501 8:0.50844908 9:0.72358638 10:0.66990697 11:0.7228477 12:0.32540861 13:0.35345533 14:0.32549837 
-4.102080853407736 1:0.50795478 2:0.93765992 3:0.40687227 4:0.61612839 5:0.22977941 6:0.6327185 7:0.67544442 8:0.73172802 9:0.95247042 10:0.54213375 11:0.7363044 12:0.16029792 13:0.40103674 14:0.33305424 
-5.000463784533173 1:0.29997379 2:0.63351202 3:0.71183872 4:0.50612837 5:0.31541416 6:0.69736218 7:1 8:0.8028875 9:0.8535912 10:0.65386605 11:0.59627104 12:0.24979909 13:0.29207674 14:0.33266652 
-1.1988146675718 1:0.48970413 2:0.74197268 3:0.4527227 4:0.82683617 5:0.81066632 6:0.48965308 7:0.62848967 8:0.37503356 9:0.58427286 10:0.61777353 11:0.81045938 12:0.29579261 13:0.27372172 14:0.45494449 
-5.983611044351899 1:0.30624104 2:0.59371948 3:0.50100785 4:0.69766623 5:0.21970791 6:0.59152651 7:0.51487523 8:0.68258023 9:0.79922801 10:0.0069793733 11:0.95745277 12:0.93651062 13:0.74713868 14:0.75569242 
-10 1:0.35620856 2:0.61099827 3:0.4967891 4:0.75243914 5:0.23058228 6:0.6480875 7:0.56798279 8:0.59580588 9:0.75895125 10:0.021818267 11:0.92223138 12:0.93513721 13:0.76601744 14:0.76153255 
