svm_type c_svc
kernel_type rbf
gamma 0.09
nr_class 2
total_sv 6
rho -0.0307539
label 130790101 130790102
probA -2.16849
probB 0.0918595
nr_sv 3 3
SV
3.454984558335359 1:0.67096579 2:0.67016095 3:0.48601851 4:1 5:0.75212467 6:0.13990551 
7.096795624151024 1:0.45112833 2:0.69660163 3:0.93539739 4:0.29701436 5:0 6:0.15709823 
9.144336699463254 1:0.45322448 2:0.40179712 3:0 4:0.24701141 5:0.74828309 6:0.097903609 
-5.105946122082322 1:0.31746182 2:0.6709311 3:1 4:0.23868369 5:1 6:0.86437303 
-6.433981674117769 1:0.36735988 2:0 3:0.32293764 4:0.30440223 5:0.36861768 6:0.91256005 
-8.156189085749553 1:0.37921897 2:0.94978017 3:0.10764928 4:0.53026503 5:0.37093818 6:0.89413667 
