svm_type c_svc
kernel_type rbf
gamma 0.09
nr_class 8
total_sv 464
rho -0.135918 -0.422786 0.166576 -0.27297 0.00707874 0.260556 0.417744 -0.000976731 0.308988 -0.0315613 -0.0723883 0.587017 0.563415 0.2124 -0.185482 -0.243747 0.0264816 0.515997 -0.510138 -0.270607 0.103367 -0.0967182 -0.035295 0.748618 0.458101 0.572927 0.578276 0.0178919
label 2003 2003657 2020 2020657 2051 2051657 2071 2071657
probA -4.35524 -4.30879 -4.38165 -4.74048 -4.72187 -4.17685 -4.36765 -4.52985 -4.29011 -4.80025 -4.79087 -4.38021 -4.32643 -4.58407 -4.93537 -4.88955 -4.53971 -4.5462 -4.78939 -4.8412 -4.49707 -4.37658 -5.29456 -4.84354 -4.84855 -4.81055 -4.8446 -4.30889
probB -0.0197058 0.309365 0.124404 0.498871 0.572433 0.127089 0.167175 0.0162215 0.0847827 0.479354 0.465367 0.0653725 0.0836903 -0.101763 0.275659 0.183407 -0.0262221 -0.0712051 0.355235 0.326152 -0.0305363 -0.0365078 -0.033121 -0.410884 -0.395524 -0.396526 -0.34724 0.04019
nr_sv 36 36 73 60 77 73 52 57
SV
0 0.294883773976813 0 0 0 0 0 1:0.43672997 2:0.5156759 3:0.21470594 4:0.43487439 5:0.45553544 6:0.77434945 7:0.60977173 8:0.53343529 9:0.41161212 10:0.34242302 11:0.36031544 12:0.54395479 13:0.5984413 14:0.59986269 15:0.33490503 16:0.6631732 17:0.5140776 18:0.64893866 19:0.61170173 20:0.41963992 21:0.60221565 22:0.59223384 23:0.59295779 24:0.71119916 25:0.42362112 26:0.6408295 27:0.67580694 28:0.50644791 29:0.53532404 30:0.50895911 31:0.3506282 32:0.448634 33:0.76291132 34:0.36414734 35:0.59164917 36:0.39749852 37:0.41122019 38:0.35832059 39:0.54839778 40:0.43759778 41:0.43481946 42:0.42733064 43:0.34877735 44:0.47687763 45:0.62296885 46:0.79141968 47:0.30795717 48:0.62363958 49:0.192853 50:0.2161433 51:0.77192515 52:0.6278345 53:0.33278823 54:0.75351042 55:0.84472734 56:0.60110241 
1.161660720416161 4.824572338936797 0 0 0 0 0.9972319510138246 1:0.17324696 2:0.51860142 3:0.33653048 4:0.38886175 5:0.47086355 6:0.90178484 7:0.65028399 8:0.54721624 9:0.35897321 10:0.42401323 11:0.41952565 12:0.48015341 13:0.49567929 14:0.56756634 15:0.45489782 16:0.68595713 17:0.48404387 18:0.54872954 19:0.67511976 20:0.41014367 21:0.61602855 22:0.68235397 23:0.61208582 24:0.65410763 25:0.44148695 26:0.64716482 27:0.70743704 28:0.56949276 29:0.47477585 30:0.50245893 31:0.38199371 32:0.43894175 33:0.76386148 34:0.32883155 35:0.53563529 36:0.39646438 37:0.43497515 38:0.34653619 39:0.5914064 40:0.56575626 41:0.40516114 42:0.46589649 43:0.33836034 44:0.4626286 45:0.61334616 46:0.73292941 47:0.24761263 48:0.59969872 49:0.22961152 50:0.22184193 51:0.76862371 52:0.58424711 53:0.36965764 54:0.74355698 55:0.88234603 56:0.63001382 
0 0.3380297824579176 0 0.4993087525962562 0 0 0 1:0.66866595 2:0.31274813 3:0.72559446 4:0.49949232 5:0.74176806 6:0.29760066 7:0.63364822 8:0.45698276 9:0.56998283 10:0.44602659 11:0.2883518 12:0.48542881 13:0.30311602 14:0.6577031 15:0.6748668 16:0.37091157 17:0.47068915 18:0.52959794 19:0.42856273 20:0.59296227 21:0.37854114 22:0.35683265 23:0.55759698 24:0.0085951304 25:0.11062085 26:0.52769065 27:0.37204152 28:0.80203694 29:0.71181846 30:0.76763201 31:0.26903602 32:0.31312203 33:0.49343106 34:0.77564448 35:0.56838679 36:0.80510598 37:0.43329686 38:0.52856314 39:0.8228882 40:0.43032166 41:0.29703167 42:0.47226536 43:0.53293353 44:0.62639022 45:0.39918795 46:0.6096043 47:0.72999048 48:0.45849094 49:0.58039725 50:0.31389618 51:0.77851588 52:0.38844809 53:0.27852672 54:0.67086762 55:0.81498134 56:0.5792616 
0 4.026821108100011 0 0 0 0 0 1:0.43867543 2:0.42224076 3:0.83134824 4:0.32230467 5:0.83788842 6:0.1595735 7:0.47654021 8:0.22839381 9:0.45217091 10:0.63148588 11:0.56058645 12:0.57510406 13:0.36469987 14:0.71503675 15:0.57593566 16:0.63116169 17:0.38797891 18:0.38378125 19:0.27717021 20:0.23575845 21:0.1898852 22:0.38885242 23:0.7727803 24:0.11040276 25:0.021637568 26:0.3405304 27:0.53454006 28:0.94977516 29:0.61610854 30:0.72399724 31:0.16541171 32:0.18956949 33:0.39091691 34:0.74139088 35:0.48580015 36:0.81208783 37:0.22160845 38:0.59002477 39:0.680556 40:0.40154991 41:0.36383384 42:0.47587088 43:0.64138186 44:0.60818434 45:0.57609212 46:0.62786663 47:0.70923007 48:0.36525127 49:0.6048395 50:0.2896775 51:0.68400103 52:0.37733078 53:0.34419408 54:0.70431936 55:0.71647167 56:0.56648034 
2.128827970645299 1.432236004535123 0 0 0 0 0 1:0.48519349 2:0.495332 3:0.45129475 4:0.53253371 5:0.658858 6:0.62428468 7:0.58363754 8:0.61175239 9:0.48882788 10:0.40831318 11:0.51125312 12:0.50172633 13:0.57275468 14:0.66822684 15:0.56857067 16:0.3298465 17:0.50747454 18:0.40518615 19:0.34306222 20:0.67534846 21:0.50360495 22:0.52964377 23:0.82590002 24:0.54564661 25:0.61268497 26:0.4963775 27:0.59833473 28:0.39528376 29:0.56837392 30:0.46061787 31:0.76781881 32:3.0046892e-16 33:0.55871713 34:0.55088919 35:0.29583162 36:0.64630562 37:0.20456919 38:0.6210447 39:0.18960714 40:0.3699978 41:0.51602513 42:0.63592911 43:0.53401035 44:0.69822431 45:0.68460947 46:0.71273446 47:0.58162004 48:0.42898083 49:0.12262426 50:0.14207146 51:0.92319965 52:0.48940375 53:0.44739777 54:0.66161895 55:0.72049934 56:0.52733052 
0 1.551824419316418 0 0 0 0 0 1:0.38009912 2:0.43461958 3:0.74782884 4:0.29483414 5:0.28921762 6:0.63259959 7:0.66547948 8:0.69128555 9:0.43360773 10:0.53967202 11:0.69462311 12:0.67876178 13:0.39053702 14:0.5804162 15:0.82830614 16:0.29104143 17:0.76824361 18:0.38085184 19:0.39228973 20:0.46723327 21:0.53717065 22:0.50340331 23:0.5629766 24:0.48191285 25:0.52276909 26:0.61460006 27:0.4211849 28:0.50659364 29:0.48085186 30:0.43511787 31:0.75265712 32:0.26656649 33:0.14505807 34:0.51653856 35:0.32880598 36:0.83498961 37:0.27809337 38:0.67999619 39:0.14226234 40:0.33508894 41:0.553837 42:0.58649158 43:0.85821122 44:0.60248172 45:0.73898989 46:0.58265167 47:0.68958348 48:0.46345738 49:0.16050988 50:0.12924573 51:0.88586521 52:0.43227485 53:0.4066304 54:0.75895602 55:0.73240346 56:0.57168406 
0.2082890272729832 0 2.174552827187943 0 0 0.2890852348942524 0.2176718128446205 1:0.72876585 2:0.30798808 3:0.35535321 4:0.56989068 5:0.57494009 6:0.38765866 7:0.4088307 8:0.63006592 9:0.64238644 10:0.98004514 11:0.43417117 12:0.38168564 13:0.32744583 14:0.29143921 15:0.38708711 16:0.12906367 17:0.47873452 18:0.13563719 19:0.45728078 20:0.46261981 21:0.15425347 22:0.41901931 23:0.72261685 24:0.48770237 25:0.3916584 26:0.44143015 27:0.43496263 28:0.67800885 29:0.50199378 30:0.48843506 31:0.15707543 32:0.43738353 33:0.90408063 34:0.4639537 35:0.3757886 36:0.5293662 37:0.50385767 38:0.55868882 39:0.820319 40:0.21494719 41:0.3713837 42:0.36199546 43:0.46921003 44:0.61510503 45:0.57380223 46:0.91412139 47:0.2281431 48:0.77500099 49:0.14440219 50:0.15906972 51:0.58258468 52:0.52064574 53:0.2177517 54:0.63259977 55:0.83856678 56:0.63064623 
3.859524199581825 4.261794270789062 2.911011999019535 2.52282674588729 4.725194884364346 4.000528514918019 1.777796087696344 1:0.66275573 2:0.52220827 3:0.56422418 4:0.62867349 5:0.32809597 6:0.63293409 7:0.42601821 8:0.57941204 9:0.59279096 10:0.40312001 11:0.53478026 12:0.46923772 13:0.4949061 14:0.46845943 15:0.56844181 16:0.47490969 17:0.49588975 18:0.47216246 19:0.38440225 20:0.73303968 21:0.6228739 22:0.29252151 23:0.35796881 24:0.68192083 25:0.39052787 26:0.67585778 27:0.55998379 28:0.38786772 29:0.80588323 30:0.54324329 31:0.82501215 32:0.53107876 33:0.63102323 34:0.55713421 35:0.46783474 36:0.48781365 37:0.53678221 38:0.54349339 39:0.45234469 40:0.39861351 41:0.42579612 42:0.48769557 43:0.59798706 44:0.83626485 45:0.47236124 46:0.80348718 47:0.59796846 48:0.72918832 49:0.15585726 50:0.18989845 51:0.85563296 52:0.53799367 53:0.44225937 54:0.65102154 55:0.76554626 56:0.5445888 
2.285180339247138 5.508590989111626 3.342437996029439 3.639108646690584 2.341728840313597 3.722641385928676 1.942140435811107 1:0.54675049 2:0.31372628 3:0.26173314 4:0.27523366 5:0.61278737 6:0.10303838 7:0.38611737 8:0.18535747 9:0.70203531 10:0.11304795 11:0.23468672 12:0.56006688 13:0.57596582 14:0.62398654 15:0.31298739 16:0.39290833 17:0.56202698 18:0.62374467 19:0.44150704 20:0.57086778 21:0.59574771 22:0.43524146 23:0.50953865 24:0.168456 25:0.53271204 26:0.34361359 27:0.29665101 28:0.84883064 29:0.54622549 30:0.4134891 31:0.13827246 32:0.58735782 33:0.2650758 34:0.68926299 35:0.60306495 36:0.69052052 37:0.24422902 38:0.55325896 39:1 40:0.5212146 41:0.37186125 42:0.41573393 43:0.4840014 44:0.62606192 45:0.46531302 46:0.51081985 47:0.3311139 48:0.68583202 49:0.61400038 50:0.54737961 51:0.63582927 52:0.55871755 53:0.36895216 54:0.74356276 55:0.84066528 56:0.57972682 
0 0 0 1.572420641896117 0 3.133608063627066 0.2296287212414429 1:0.32178625 2:0.51184064 3:0.18042389 4:0.74061257 5:0.65921026 6:0.41338697 7:0.62708491 8:0.45372611 9:0.51282603 10:0.86776364 11:0.46899998 12:0.20170023 13:0.32322526 14:0.30901301 15:0.22578755 16:0.14851485 17:0.64947051 18:0.30594543 19:0.33261368 20:0.50083798 21:0.57857764 22:0.32068202 23:0.69538265 24:0.44057196 25:0.32229781 26:0.70951521 27:0.59359753 28:0.37023047 29:0.47595802 30:0.66777998 31:0.21188751 32:0.60595238 33:1 34:0.59519017 35:0.24874565 36:0.53032273 37:0.47840878 38:0.37601495 39:0.92610055 40:0.37664297 41:0.31897044 42:0.29639077 43:0.17785506 44:0.77843571 45:0.49693841 46:0.99333352 47:0.42908722 48:0.74343324 49:0.24692817 50:0.042555608 51:0.61319727 52:0.49565598 53:0.30004251 54:0.68316513 55:0.82947183 56:0.6510424 
0 0 1.700243455506216 0 0.2274865290092895 0.6896996806799375 0 1:0.16986968 2:0.51998436 3:0.33823225 4:0.37939516 5:0.48455158 6:0.89477271 7:0.65553653 8:0.54653364 9:0.35896111 10:0.42137232 11:0.41381994 12:0.47478002 13:0.50485456 14:0.56765294 15:0.44844049 16:0.69721574 17:0.48286313 18:0.54138601 19:0.6768083 20:0.41381228 21:0.62746543 22:0.6863026 23:0.61415648 24:0.6547451 25:0.43233377 26:0.64323986 27:0.70531732 28:0.56603074 29:0.48039076 30:0.50560302 31:0.39384082 32:0.44402817 33:0.76000857 34:0.32773566 35:0.53399765 36:0.39798188 37:0.42873654 38:0.3446213 39:0.59163839 40:0.56684476 41:0.40208444 42:0.46692061 43:0.3418996 44:0.46582058 45:0.61643857 46:0.73485094 47:0.24619572 48:0.59640414 49:0.2296519 50:0.22372246 51:0.76595068 52:0.5838328 53:0.37063518 54:0.74378037 55:0.8791182 56:0.63023388 
1.919121243292959 0 1.3171966116756 3.111133419037116 2.769587359362175 2.945408708700211 2.136967960877032 1:0.43091711 2:0.42161429 3:0.84076196 4:0.31951794 5:0.82834786 6:0.153262 7:0.47392431 8:0.23353693 9:0.44909671 10:0.63283378 11:0.56586653 12:0.57860595 13:0.37546739 14:0.70818013 15:0.57680142 16:0.64133167 17:0.38425881 18:0.38266966 19:0.28283092 20:0.23681556 21:0.1923064 22:0.39329872 23:0.77445364 24:0.10377046 25:0.023509711 26:0.33957711 27:0.53511691 28:0.95151728 29:0.62271273 30:0.71569055 31:0.16807665 32:0.19297472 33:0.39658982 34:0.74496883 35:0.49047115 36:0.80850303 37:0.22482847 38:0.59680629 39:0.68476456 40:0.39742091 41:0.35779643 42:0.47966576 43:0.63795954 44:0.61139959 45:0.57737643 46:0.62986052 47:0.70490634 48:0.36513805 49:0.60678273 50:0.2907362 51:0.68239874 52:0.37675369 53:0.34676445 54:0.70112449 55:0.71459919 56:0.56472814 
0 0 0.1050072482623096 2.464940928331402 1.868555793736851 1.861519602884976 2.834904639151775 1:0.483316 2:0.49571517 3:0.45497361 4:0.52058965 5:0.66234082 6:0.62352145 7:0.57435393 8:0.60650289 9:0.48658168 10:0.40989918 11:0.5055415 12:0.50651664 13:0.57716703 14:0.65989059 15:0.56371313 16:0.33056426 17:0.50920016 18:0.40774065 19:0.35086289 20:0.67945451 21:0.51019281 22:0.52495128 23:0.83099431 24:0.54488844 25:0.61743581 26:0.49798313 27:0.59937674 28:0.3947342 29:0.56949943 30:0.45918721 31:0.765324 32:0.0012191089 33:0.55898649 34:0.55015361 35:0.29576766 36:0.64712006 37:0.20653556 38:0.61993021 39:0.19407551 40:0.36694589 41:0.51567626 42:0.63443536 43:0.53848809 44:0.69654608 45:0.68850142 46:0.71429318 47:0.57977569 48:0.4286772 49:0.12237413 50:0.14392363 51:0.92029238 52:0.4878023 53:0.45053542 54:0.65992528 55:0.71795863 56:0.52703124 
0 0 1.519941251095738 0.5608328250668365 0.3598227125827696 2.754862314883717 0 1:0.38290834 2:0.43648279 3:0.75390059 4:0.29781708 5:0.30049434 6:0.63220698 7:0.6671598 8:0.6911146 9:0.42534879 10:0.53455776 11:0.68941694 12:0.68209112 13:0.39586529 14:0.57566249 15:0.83448827 16:0.29853296 17:0.7677182 18:0.38752484 19:0.39065921 20:0.46851295 21:0.53919274 22:0.50459552 23:0.55966789 24:0.48344171 25:0.51748472 26:0.61339015 27:0.42471519 28:0.50679457 29:0.48334366 30:0.44329867 31:0.75894874 32:0.26878503 33:0.14481112 34:0.51620954 35:0.33017024 36:0.83542782 37:0.27945647 38:0.67798895 39:0.14681284 40:0.33946523 41:0.55493182 42:0.58862638 43:0.85662365 44:0.59947211 45:0.73666799 46:0.58339858 47:0.69072926 48:0.46068445 49:0.15916374 50:0.13042875 51:0.88498998 52:0.43139747 53:0.4082064 54:0.75697935 55:0.73161185 56:0.57082903 
0.5002252389039089 0.4570422770544588 0.4832135120319451 1.366436932157374 0.7188298915777579 0 0.1495137969287677 1:0.37777039 2:0.43665403 3:0.67403638 4:0.83150446 5:0.49996519 6:0.37576547 7:0.7189365 8:0.41536668 9:0.66132998 10:0.44028065 11:0.84882599 12:0.54280412 13:0.39136541 14:0.42006123 15:0.71765345 16:0.26551765 17:0.56485724 18:0.46571672 19:0.13556236 20:0.4638409 21:0.53102314 22:0.35660261 23:0.40711853 24:0.58875453 25:0.40343261 26:0.87311947 27:0.46575704 28:0.50598216 29:0.86113137 30:0.50958717 31:0.52321935 32:0.31060162 33:0.42162591 34:0.49066356 35:0.16023117 36:0.53742039 37:0.54090285 38:0.72282428 39:0.19383454 40:0.090535715 41:0.35939586 42:0.54999006 43:0.51300198 44:0.65756238 45:0.78930235 46:0.72507596 47:0.62972796 48:0.54715872 49:0.16495028 50:0.091200031 51:0.88118547 52:0.4650358 53:0.35792792 54:0.68372869 55:0.71764773 56:0.50574005 
0 0 0 0.0319428008629639 0 0 0 1:0.72963166 2:0.31915721 3:0.35001871 4:0.5695557 5:0.56958377 6:0.38979045 7:0.41095707 8:0.62778759 9:0.63943028 10:0.9796204 11:0.43675345 12:0.38356259 13:0.34597605 14:0.29064661 15:0.39335471 16:0.13359253 17:0.47415745 18:0.1460343 19:0.46168453 20:0.46565455 21:0.1553224 22:0.41685998 23:0.72885501 24:0.48747006 25:0.3925454 26:0.44146362 27:0.43594721 28:0.68110698 29:0.51621759 30:0.49459326 31:0.16243674 32:0.44265851 33:0.91379845 34:0.47059485 35:0.3798573 36:0.52869922 37:0.50462186 38:0.5553599 39:0.82585263 40:0.21114039 41:0.36982861 42:0.36355644 43:0.46839815 44:0.61520112 45:0.56516588 46:0.91445088 47:0.23392814 48:0.77078265 49:0.14414087 50:0.15601677 51:0.58374965 52:0.51873749 53:0.2206268 54:0.63208449 55:0.83426726 56:0.63058412 
2.504123057015194 0 1.572043338227139 2.977287119622416 0.5931348018246797 3.288751026339361 1.299849702384763 1:0.47378784 2:0.50430709 3:0.45413914 4:0.30511057 5:0.32820833 6:0.60352474 7:0.64569879 8:0.61067569 9:0.60706437 10:0.59811348 11:0.43213221 12:0.36765918 13:0.53586215 14:0.36597946 15:0.60248226 16:0.6628862 17:0.61209053 18:0.5956288 19:0.67247421 20:0.56479204 21:0.6733585 22:0.52174038 23:0.55254346 24:0.80413365 25:0.53773016 26:0.60812324 27:0.44010815 28:0.56887877 29:0.42979363 30:0.35699603 31:0.53392112 32:0.54361385 33:0.66584533 34:0.31350034 35:0.63633674 36:0.42985827 37:0.51700538 38:0.29148895 39:0.56898904 40:0.52277315 41:0.40079245 42:0.47090754 43:0.41434571 44:0.52702862 45:0.34543791 46:0.80048782 47:0.23431905 48:0.54084146 49:0.20790908 50:0.250202 51:0.74509972 52:0.63967162 53:0.47930425 54:0.74145687 55:0.82751197 56:0.60990626 
0.322426177991577 0 0.2938721223226387 0 0 0 0 1:0.46350285 2:0.25171375 3:0.85984027 4:0.19416805 5:0.83623201 6:0.43788502 7:0.52415013 8:0.19303885 9:0.48893392 10:0.53305447 11:5.5357028e-16 12:0.66530353 13:0.38138583 14:0.58261931 15:0.68251473 16:0.52755374 17:0.23521863 18:0.24041142 19:0.45217106 20:0.34199247 21:0.4482753 22:0.46393591 23:0.49405757 24:0.12402902 25:0.20504411 26:0.37589023 27:0.36360249 28:0.71376061 29:0.74617827 30:0.7181899 31:0.27617478 32:0.30647698 33:0.24016434 34:0.76416147 35:0.39295855 36:0.86539912 37:0.33885607 38:0.64738798 39:0.68935794 40:0.34447613 41:0.3221153 42:0.53979236 43:0.48884425 44:0.69586551 45:0.49980065 46:0.62964058 47:0.72292691 48:0.40772218 49:0.49178833 50:0.30125099 51:0.76641411 52:0.37180763 53:0.32699731 54:0.68061739 55:0.82271397 56:0.58168757 
0.5313512996781686 0.07637115890928792 2.352717600290174 0 3.85065308354728 0 1.196216914723681 1:0.5516355 2:0.59536684 3:0.54782903 4:0.49617505 5:0.55926317 6:0.46596676 7:0.35834807 8:0.68779516 9:0.53601176 10:0.51384622 11:0.3509233 12:0.49588409 13:0.41422418 14:0.44743598 15:0.5425778 16:0.33087075 17:0.70573968 18:0.68078578 19:0.55299294 20:0.43133923 21:0.39919412 22:0.41161054 23:0.57903785 24:0.37624443 25:0.44530147 26:0.54693532 27:0.52619576 28:0.61424875 29:0.46236473 30:0.69589013 31:0.45670232 32:0.51957339 33:0.33907127 34:0.623303 35:0.30342892 36:0.57499796 37:0.49174741 38:0.50128496 39:0.56125832 40:0.4334785 41:0.67394274 42:0.62237501 43:0.43760851 44:0.39676797 45:0.28513077 46:0.48199761 47:0.6051957 48:0.76156938 49:0.13389221 50:0.32144469 51:0.92249638 52:0.58054698 53:0.44044572 54:0.64836943 55:0.86115241 56:0.47779661 
0 2.551233208781952 0 0 0 0 0 1:0.39150858 2:0.44358751 3:0.29806826 4:0.43666685 5:0.3154656 6:0.50825816 7:0.45705622 8:0.45635682 9:0.57619834 10:0.4470776 11:0.40671611 12:0.37027445 13:0.5566957 14:0.49884316 15:0.66952759 16:0.45740479 17:0.63916594 18:0.5483197 19:0.52563149 20:0.38839096 21:0.31043831 22:0.40669319 23:0.56317806 24:0.57344735 25:0.43894953 26:0.51911002 27:0.65576416 28:0.5196681 29:0.55042666 30:0.5558784 31:0.54730457 32:0.52781713 33:0.45467976 34:0.52251023 35:0.33773062 36:0.52124631 37:0.5840686 38:0.37603271 39:0.45856389 40:0.37718064 41:0.71417212 42:0.59795284 43:0.51453501 44:0.40984961 45:0.27454978 46:0.58083719 47:0.41465467 48:0.78262025 49:0.14008945 50:0.27298686 51:0.85016775 52:0.59979564 53:0.29467019 54:0.71056932 55:0.92203057 56:0.58302784 
0.8821170901582673 2.144896122618071 0.8313154948288345 1.084388488716436 2.541154054489162 2.671517968825625 1.554808807744944 1:0.40302092 2:0.3756637 3:0.32090765 4:0.48392913 5:0.5871762 6:0.57757044 7:0.39463678 8:0.50213993 9:0.49910209 10:0.42573768 11:0.41522491 12:0.32323563 13:0.67109072 14:0.55270821 15:0.57864374 16:0.55611116 17:0.66113877 18:0.74668324 19:0.51154393 20:0.464286 21:0.39545262 22:0.40578315 23:0.57450849 24:0.64787555 25:0.38560978 26:0.57124966 27:0.61901194 28:0.54933596 29:0.29778826 30:0.75902843 31:0.47929472 32:0.60577208 33:0.3115561 34:0.53077412 35:0.20977008 36:0.47264233 37:0.49522984 38:0.43728432 39:0.37959561 40:0.34971189 41:0.64049953 42:0.64945447 43:0.34418586 44:0.32783511 45:0.21372318 46:0.57609969 47:0.25089872 48:0.53790385 49:0.33546418 50:0.26454505 51:0.89129275 52:0.6365422 53:0.29487804 54:0.75535041 55:0.8914423 56:0.58183014 
0 0 0.3767112422878949 0 0 0 0 1:0.59818608 2:0.60163403 3:0.55370063 4:0.45823595 5:0.53771627 6:0.49527305 7:0.31210271 8:0.61769629 9:0.56418675 10:0.57717735 11:0.47646847 12:0.57687867 13:0.47195223 14:0.47566843 15:0.65426499 16:0.3653757 17:0.61331356 18:0.68878442 19:0.56470954 20:0.40511668 21:0.39222613 22:0.46764055 23:0.61720824 24:0.34583035 25:0.48259789 26:0.51407731 27:0.49435303 28:0.57363462 29:0.51529688 30:0.67749667 31:0.47424614 32:0.53977573 33:0.32479671 34:0.62581837 35:0.30454987 36:0.57407242 37:0.49788678 38:0.50020999 39:0.5678857 40:0.33584437 41:0.66423762 42:0.64977807 43:0.44013697 44:0.38800701 45:0.26782581 46:0.46435294 47:0.6001274 48:0.68739629 49:0.13463645 50:0.31664407 51:0.92152882 52:0.56026953 53:0.42582902 54:0.66236269 55:0.88011414 56:0.50142956 
0 0 0 0 0 3.004514362141784 0 1:0.44389421 2:0.43291631 3:0.39662299 4:0.41303539 5:0.41322914 6:0.22208346 7:0.45925033 8:0.45349079 9:0.47508949 10:0.66551262 11:0.4156926 12:0.43998542 13:0.50116056 14:0.46994102 15:0.56605196 16:0.65075463 17:0.59272259 18:0.41270909 19:0.54884541 20:0.54894811 21:0.6569972 22:0.56972104 23:0.43788514 24:0.72881091 25:0.53372687 26:0.50574869 27:0.58140206 28:0.58338153 29:0.36038089 30:0.56343925 31:0.43965238 32:0.6793493 33:0.42204607 34:0.61584443 35:0.38761458 36:0.52247441 37:0.44258621 38:0.41644222 39:0.42468464 40:0.52334487 41:0.6352337 42:0.60095483 43:0.28353935 44:0.29877308 45:0.27322033 46:0.59303302 47:0.25172073 48:0.48838574 49:0.29162118 50:0.26189846 51:0.90518779 52:0.69102859 53:0.4059875 54:0.78072685 55:0.89005232 56:0.61365157 
0.4329990960029009 0 0.2863940170496849 0 0 0.7917608550077154 1.929900883625082 1:0.43559054 2:0.66116214 3:0.68414509 4:0.54932624 5:0.36575922 6:0.35514709 7:0.38482681 8:0.41066918 9:0.5447098 10:0.68914175 11:0.31400481 12:0.50642526 13:0.56362426 14:0.35122323 15:0.80272216 16:0.65633154 17:0.54862201 18:0.46108046 19:0.49791834 20:0.6629076 21:0.61319691 22:0.46383864 23:0.53322786 24:0.53173971 25:0.60013002 26:0.42631871 27:0.55160725 28:0.51459706 29:0.54635251 30:0.57969135 31:0.59030384 32:0.62435126 33:0.32208049 34:0.67058969 35:0.3126083 36:0.60388142 37:0.51244497 38:0.48798934 39:0.49166587 40:0.4540405 41:0.66190511 42:0.59865582 43:0.443674 44:0.47965428 45:0.34443909 46:0.51860255 47:0.66091645 48:0.54173726 49:0.11648311 50:0.31299326 51:0.94541186 52:0.59341979 53:0.53833693 54:0.69449657 55:0.89454418 56:0.51439357 
0 0 0 2.169954241544564 1.339929457077963 0 0 1:0.46751943 2:0.45455742 3:0.42292663 4:0.39908826 5:0.38581908 6:0.22630213 7:0.47597814 8:0.46213803 9:0.44790718 10:0.64081788 11:0.38246569 12:0.46375072 13:0.50766784 14:0.46452969 15:0.56005573 16:0.6374597 17:0.59915632 18:0.3865203 19:0.5858503 20:0.53601444 21:0.66106081 22:0.56504065 23:0.41476613 24:0.71036607 25:0.53670466 26:0.49066243 27:0.58446062 28:0.60061449 29:0.33608872 30:0.56653851 31:0.44387981 32:0.65441722 33:0.42255694 34:0.60933465 35:0.4098075 36:0.48889512 37:0.43251762 38:0.42772746 39:0.43074518 40:0.52659833 41:0.65804416 42:0.61685187 43:0.27114385 44:0.29386085 45:0.28187093 46:0.58058816 47:0.25452128 48:0.48185927 49:0.29040307 50:0.26170117 51:0.90990508 52:0.69090563 53:0.4079839 54:0.7809763 55:0.88268995 56:0.61308098 
0 0 0 0 0 0.4061665049396643 1.081749336512506 1:0.48964784 2:0.4811191 3:0.49753672 4:0.61689365 5:0.50674736 6:0.49801648 7:0.39625028 8:0.30105966 9:0.65361816 10:0.24137895 11:0.56096882 12:0.44914094 13:0.60445142 14:0.73912102 15:0.56927598 16:0.44693956 17:0.56296372 18:0.77372235 19:0.5172103 20:0.42996642 21:0.40459684 22:0.32330605 23:0.43905732 24:0.43517461 25:0.30707735 26:0.67289835 27:0.54177827 28:0.53733712 29:0.45672899 30:0.45721415 31:0.51884055 32:0.62049878 33:0.56380296 34:0.3647587 35:0.42465025 36:0.6020174 37:0.36644754 38:0.40669629 39:0.64527184 40:0.30964702 41:0.68065399 42:0.56124932 43:0.32663462 44:0.24029443 45:0.28046295 46:0.57882071 47:0.40730584 48:0.44493547 49:0.31971282 50:0.24389528 51:0.92765498 52:0.57494617 53:0.50237584 54:0.76398778 55:0.93013585 56:0.56549358 
1.800729276193178 4.582824598190603 2.653731818563326 0.1067870877586658 0 3.65615626335496 1.753617613028622 1:0.51115423 2:0.57370478 3:0.77712762 4:0.56664848 5:0.46748537 6:0.19400206 7:0.4066627 8:0.38198906 9:0.58369964 10:0.67685091 11:0.63297439 12:0.58798677 13:0.30073726 14:0.54662222 15:0.71756488 16:0.54786521 17:0.43311563 18:0.44149679 19:0.531205 20:0.51421475 21:0.33481941 22:0.54263669 23:0.52559531 24:0.52177304 25:0.38443127 26:0.60332429 27:0.64528602 28:0.51144856 29:0.52562267 30:0.51697671 31:0.50105476 32:0.93726552 33:0.68049204 34:0.39629269 35:0.53329653 36:0.73095042 37:0.30168295 38:0.26535335 39:0.54618782 40:0.48127022 41:0.56411445 42:0.62248033 43:0.34952945 44:0.296758 45:0.41997993 46:0.50084281 47:0.57911557 48:0.31145686 49:0.20366295 50:0.20129469 51:0.95901781 52:0.55729461 53:0.54321522 54:0.77159303 55:0.8838864 56:0.54409957 
0 0 0 0.3182170224647343 1.574381565177569 0 0 1:0.5357669 2:0.51146919 3:0.64136374 4:0.48174861 5:0.58932656 6:0.20152521 7:0.39002106 8:0.34868163 9:0.61758292 10:0.65968549 11:0.4561927 12:0.4620508 13:0.3764126 14:0.53300178 15:0.58689356 16:0.76199144 17:0.45781755 18:0.43490213 19:0.61580557 20:0.62623239 21:0.47980699 22:0.49908051 23:0.54387879 24:0.61974704 25:0.53958327 26:0.51390105 27:0.43758672 28:0.60790437 29:0.34703213 30:0.55844617 31:0.54044396 32:0.87527508 33:0.58974952 34:0.34474143 35:0.5689401 36:0.67236692 37:0.20702426 38:0.34199846 39:0.58767313 40:0.52081954 41:0.52995306 42:0.54359031 43:0.28680122 44:0.30435035 45:0.42829791 46:0.57303685 47:0.42155358 48:0.23685899 49:0.21540682 50:0.25310948 51:0.96603316 52:0.63261187 53:0.58094591 54:0.78206784 55:0.83368874 56:0.54229289 
0.05020670148020041 0 0 0 0 0 0 1:0.50892323 2:0.521626 3:0.49574876 4:0.36145455 5:0.4713324 6:0.49929962 7:0.60756922 8:0.46691421 9:0.56115741 10:0.44716811 11:0.34700868 12:0.50580674 13:0.66022074 14:0.52611345 15:0.60420972 16:0.49087092 17:0.63830656 18:0.77000439 19:0.44049346 20:0.45853871 21:0.48242202 22:0.46316308 23:0.51358229 24:0.46577308 25:0.31758648 26:0.65554017 27:0.48575431 28:0.56347823 29:0.64557445 30:0.63309073 31:0.52573025 32:0.75614327 33:0.44348642 34:0.6866824 35:0.16111727 36:0.51242989 37:0.38096318 38:0.53220385 39:0.41411152 40:0.43691713 41:0.56314981 42:0.70244581 43:0.50766152 44:0.67833346 45:0.28164223 46:0.71227181 47:0.45683691 48:0.74363208 49:0.077020481 50:0.12860262 51:0.84635293 52:0.53796393 53:0.27859375 54:0.67530346 55:0.88643801 56:0.53128785 
0 0 0.6215410468130055 0 0 0 0 1:0.39088002 2:0.25489923 3:0.49750626 4:0.39525872 5:0.41479632 6:0.59804165 7:0.45488906 8:0.52463841 9:0.62314105 10:0.5961163 11:0.37631005 12:0.28691244 13:0.58992743 14:0.51322335 15:0.66999948 16:0.54173386 17:0.65699041 18:0.43322927 19:0.44084641 20:0.35850403 21:0.54983664 22:0.33605203 23:0.65226609 24:0.53966039 25:0.29453909 26:0.50766325 27:0.58143419 28:0.45589107 29:0.40588754 30:0.80411536 31:0.3991732 32:0.37076777 33:0.26477072 34:0.61226815 35:0.33937535 36:0.45049533 37:0.46845776 38:0.58017737 39:0.48522285 40:0.31126654 41:0.645078 42:0.63565052 43:0.52837843 44:0.66469693 45:0.25656793 46:0.68471146 47:0.37608609 48:0.79750162 49:0.073601723 50:0.20848623 51:0.76840007 52:0.48195907 53:0.10628699 54:0.61672837 55:0.85611457 56:0.62355113 
0.5371068275638006 0 1.445601787015161 0 0 0 0.9816088458761553 1:0.32134333 2:0.45605034 3:0.69590968 4:0.48258969 5:0.44435489 6:0.45561948 7:0.52237302 8:0.38489732 9:0.53898484 10:0.36234745 11:0.53131741 12:0.43368894 13:0.56527644 14:0.66429538 15:0.68945062 16:0.23317309 17:0.71091497 18:0.68222505 19:0.44469625 20:0.54028332 21:0.47809035 22:0.5159381 23:0.51590347 24:0.29653916 25:0.46238625 26:0.52364707 27:0.50038445 28:0.4855524 29:0.49431106 30:0.54469031 31:0.55954158 32:0.51122397 33:0.23077206 34:0.58991629 35:0.25782523 36:0.51928467 37:0.37809834 38:0.60896456 39:0.38495204 40:0.50599223 41:0.68593293 42:0.60251057 43:0.36610219 44:0.34334973 45:0.18206991 46:0.49972761 47:0.28284457 48:0.66903824 49:0.24967369 50:0.23930679 51:0.91237652 52:0.58984339 53:0.21271276 54:0.6608637 55:0.94360131 56:0.56830502 
0 0 0.9058602553249461 2.063528071294103 0 0 0 1:0.45501214 2:0.47470012 3:0.3063305 4:0.43814343 5:0.55742788 6:0.39127272 7:0.55170965 8:0.64549482 9:0.57496893 10:0.50777739 11:0.34934616 12:0.4380748 13:0.59039456 14:0.5163064 15:0.52542776 16:0.52137411 17:0.57239223 18:0.38187742 19:0.54846245 20:0.47080484 21:0.46291828 22:0.41715878 23:0.52613705 24:0.60336709 25:0.39609125 26:0.64428699 27:0.70370609 28:0.51171768 29:0.45990679 30:0.68536907 31:0.3689875 32:0.49329513 33:0.39373347 34:0.45580044 35:0.37301102 36:0.39987975 37:0.55967224 38:0.45398077 39:0.38288358 40:0.2942256 41:0.66575456 42:0.64021403 43:0.44702044 44:0.48423174 45:0.26239792 46:0.68210286 47:0.26561499 48:0.71934468 49:0.19302501 50:0.23862298 51:0.84812659 52:0.64425468 53:0.27963662 54:0.72048533 55:0.85570055 56:0.63694113 
2.225927385353893 3.130858407911092 1.498748743058804 0 0 0 2.080330088266543 1:0.41044658 2:0.36221242 3:0.5047242 4:0.42022035 5:0.49044034 6:0.35299775 7:0.27212879 8:0.61555654 9:0.72707087 10:0.64065826 11:0.39331907 12:0.23874345 13:0.44473088 14:0.31123015 15:0.48084906 16:0.24757406 17:0.62494916 18:0.36448669 19:0.53073668 20:0.41098782 21:0.43701243 22:0.46752244 23:0.55517793 24:0.27844977 25:0.26665881 26:0.51284808 27:0.50959378 28:0.7031312 29:0.47010699 30:0.79537058 31:0.23569661 32:0.32429966 33:0.53090233 34:0.6937024 35:0.40019277 36:0.5576852 37:0.43779045 38:0.57967573 39:0.74338961 40:0.60419929 41:0.40712744 42:0.43333137 43:0.33970731 44:0.53124082 45:0.35636371 46:0.72388887 47:0.23169416 48:0.86290592 49:0.2436907 50:0.27377236 51:0.60178995 52:0.54172635 53:0.1205726 54:0.56579107 55:0.91351807 56:0.62485516 
0 0 0 0 0.3040793693768455 0 0 1:0.40208197 2:0.26011387 3:0.58223718 4:0.56279027 5:0.48046166 6:0.61709636 7:0.48111811 8:0.65954685 9:0.66402364 10:0.66876364 11:0.22114626 12:0.44754466 13:0.4702386 14:0.42593393 15:0.80859715 16:0.36591947 17:0.60651654 18:0.50305057 19:0.41917109 20:0.64335865 21:0.4988851 22:0.51891994 23:0.45461997 24:0.45785698 25:0.43524989 26:0.56416124 27:0.34446129 28:0.53272539 29:0.58667028 30:0.70491481 31:0.34144434 32:0.49148414 33:0.47478002 34:0.82773435 35:0.26948059 36:0.65913761 37:0.30793947 38:0.57585818 39:0.87498063 40:0.56963962 41:0.37361631 42:0.61677188 43:0.35459584 44:0.75033486 45:0.38806316 46:0.75461537 47:0.34135923 48:0.82429147 49:0.2143705 50:0.15854363 51:0.71130455 52:0.46066052 53:0.14271514 54:0.58188796 55:0.8734954 56:0.6220423 
0 2.604167475304329 0.3610080104572383 1.076932852622732 0 0 0 1:0.33570826 2:0.53935212 3:0.87226868 4:0.40224385 5:0.3897768 6:0.34349775 7:0.55557913 8:0.43273088 9:0.49709788 10:0.61203575 11:0.46274331 12:0.29994103 13:0.47640198 14:0.48514792 15:0.77170599 16:0.47726738 17:0.64662707 18:0.369542 19:0.48297507 20:0.56344295 21:0.51739079 22:0.57088459 23:0.57168657 24:0.46321702 25:0.5058766 26:0.4573963 27:0.47496232 28:0.41679025 29:0.40179059 30:0.53825098 31:0.65860116 32:0.62259448 33:0.18894623 34:0.62155515 35:0.43328702 36:0.60072827 37:0.32254335 38:0.55194473 39:0.35963318 40:0.527174 41:0.61402839 42:0.54974854 43:0.52730805 44:0.35375455 45:0.26390746 46:0.45211625 47:0.50987399 48:0.53643966 49:0.23262787 50:0.26564208 51:0.96250468 52:0.5750109 53:0.29644811 54:0.71687049 55:0.90143305 56:0.63102716 
0.9427592665229479 0 0 0 0 0 0 1:0.3562896 2:0.41683406 3:0.73565567 4:0.40982068 5:0.44589129 6:0.22641356 7:0.4509061 8:0.19939823 9:0.56877577 10:0.47693145 11:0.34581777 12:0.48791495 13:0.50462633 14:0.56445158 15:0.51809567 16:0.74643588 17:0.42273998 18:0.36737993 19:0.52186596 20:0.47245878 21:0.51365727 22:0.60706085 23:0.45899627 24:0.67417645 25:0.60488588 26:0.59866709 27:0.49668476 28:0.56377715 29:0.55548084 30:0.62635535 31:0.7011463 32:0.80809897 33:0.43630794 34:0.42661366 35:0.37788311 36:0.57982785 37:0.24934009 38:0.35811424 39:0.47085029 40:0.63371676 41:0.5727759 42:0.68120313 43:0.26844075 44:0.58328676 45:0.50172853 46:0.70947021 47:0.32785523 48:0.48790959 49:0.14042582 50:0.1807483 51:0.92844099 52:0.57760775 53:0.43010998 54:0.71963012 55:0.85866833 56:0.59166741 
-0 0.5587536135118102 2.320290363260429 0.6970430375380732 0 0 0 1:0.6808933 2:0.62537783 3:0.52503246 4:0.60701096 5:0.70344847 6:0.79747516 7:0.34877047 8:0.59023207 9:0.58324647 10:0.57189393 11:0.23987319 12:0.4556638 13:0.40175304 14:0.46250367 15:0.5310244 16:0.87515897 17:0.43366009 18:0.52809143 19:0.36120498 20:0.39982939 21:0.51730508 22:0.38365549 23:0.78352493 24:0.57695937 25:0.39778101 26:0.71557772 27:0.29366922 28:0.58972591 29:0.38712451 30:0.29107162 31:0.56247693 32:0.20957881 33:0.67149234 34:0.42993391 35:0.67398643 36:0.65965623 37:0.2839548 38:0.48371631 39:0.65521514 40:0.37126333 41:0.47178242 42:0.47332636 43:0.61632437 44:0.58766598 45:0.60617602 46:0.33227816 47:0.64754796 48:0.30981761 49:0.44315195 50:0.22858943 51:0.62472475 52:0.76149207 53:0.53488016 54:0.12721159 55:0.86097378 56:0.39753181 
-0.06168077108143806 0 0 0 0.704540786134615 0 3.975525732254166 1:0.59988159 2:0.25846425 3:0.56737483 4:0.80416977 5:0.19026347 6:0.37617257 7:0.15183252 8:0.31078571 9:0.52278733 10:0.60658908 11:0.41138315 12:0.33297092 13:0.16507199 14:0.40257564 15:0.56431097 16:0.5465827 17:0.35089883 18:0.93395966 19:0.52717817 20:0.46251997 21:0.41125888 22:0.36388978 23:0.38452569 24:0.45361623 25:0.63945502 26:0.809241 27:0.17892358 28:0.3578473 29:0.3932966 30:0.14881356 31:0.44430473 32:0.33484432 33:0.77882022 34:0.47510481 35:0.44364604 36:0.59121078 37:0.63267964 38:0.27109814 39:0.61610729 40:0.6870051 41:0.51523721 42:0.45347071 43:0.37909621 44:0.74860579 45:0.37459436 46:0.33490798 47:0.68760526 48:0.051652659 49:0.34225407 50:0.24199988 51:0.56214082 52:0.60342616 53:0.51257902 54:0.19081166 55:0.84192884 56:0.32485199 
-2.306853542493102 0.5267122565750213 2.235833843244415 0 0 2.182658687155718 1.441570907624972 1:0.62618244 2:0.5388751 3:0.50303966 4:0.4518328 5:0.71910489 6:0.86332011 7:0.30806103 8:0.56730264 9:0.64058048 10:0.54782605 11:0.063075267 12:0.57911354 13:0.48923334 14:0.51120788 15:0.49102965 16:0.64773411 17:0.45566028 18:0.45620808 19:0.38047111 20:0.45130348 21:0.50815308 22:0.36047232 23:0.80662757 24:0.60477573 25:0.29365817 26:0.77736992 27:0.47825176 28:0.57685429 29:0.4304654 30:0.39084446 31:0.47383994 32:0.17403011 33:0.6049487 34:0.56807983 35:0.40008083 36:0.56524569 37:0.34468365 38:0.5108915 39:0.4575372 40:0.39611897 41:0.40462601 42:0.53177029 43:0.59458935 44:0.65795588 45:0.64784157 46:0.40889281 47:0.55389667 48:0.32007509 49:0.46210319 50:0.25659955 51:0.58232039 52:0.75088435 53:0.50889784 54:0.19192785 55:0.88649994 56:0.37859759 
-0.7687637980060632 0.5004001081826643 2.256227562706164 0 0.422392673972786 1.981140748861699 0 1:0.4508816 2:0.52845764 3:0.46428138 4:0.46957177 5:0.16575792 6:0.20506641 7:0.45175463 8:0.51867521 9:0.66835743 10:0.63296348 11:0.57932967 12:0.64078969 13:0.5977267 14:0.60779989 15:0.71268302 16:0.35219473 17:0.4671846 18:0.36011231 19:0.59970111 20:0.42627069 21:0.27071881 22:0.42784199 23:0.10543623 24:0.30834416 25:0.39374039 26:0.59178054 27:0.24777344 28:0.48122731 29:1 30:0.35285944 31:0.57202923 32:0.54089963 33:0.77823007 34:0.42608914 35:0.47191173 36:0.30334377 37:0.47146657 38:0.43854693 39:0.53165418 40:0.7769739 41:0.45947152 42:0.43629554 43:0.26501969 44:0.56959176 45:0.48571306 46:0.52360064 47:0.38718596 48:0.5167346 49:0.26474115 50:0.54178768 51:0.38423386 52:0.68462628 53:0.28721774 54:0.19641456 55:0.86787522 56:0.41757131 
-2.069703100996796 4.257296000810363 8.248427245051873 3.964965051065621 4.360689489811739 2.617449389300913 3.59359198897524 1:0.56698394 2:0.33841553 3:0.41817811 4:0.41558725 5:0.1947487 6:0.32896832 7:0.39549634 8:0.6300211 9:0.71701616 10:0.62810963 11:0.46296701 12:0.79701865 13:0.38986784 14:0.70719159 15:0.79004556 16:0.35688403 17:0.51474267 18:0.45679989 19:0.75664216 20:0.68594742 21:0.20181578 22:0.39470083 23:0.15349567 24:0.53774655 25:0.3246136 26:0.7130571 27:0.355598 28:0.72672153 29:0.95294893 30:0.35172623 31:0.55782032 32:0.43784016 33:0.55112886 34:0.20266747 35:0.43331769 36:0.39747578 37:0.53259504 38:0.45112285 39:0.3551662 40:0.55346054 41:0.49344862 42:0.47982612 43:0.40515271 44:0.5160501 45:0.66803938 46:0.48536286 47:0.39004961 48:0.50979358 49:0.26782906 50:0.52981114 51:0.44862756 52:0.59557253 53:0.34728473 54:0.23152971 55:0.75410753 56:0.41835153 
-0.6253877565122418 0 0 0.2391299237568914 0 2.018308148037888 0 1:0.40351194 2:0.40801567 3:0.55309737 4:0.34484416 5:0.3724536 6:0.61079526 7:0.42041817 8:0.48948029 9:0.48868445 10:0.45326826 11:0.51523566 12:0.26671404 13:0.48626894 14:0.75021464 15:0.62457007 16:0.59132719 17:0.49790901 18:0.63819647 19:0.57024574 20:0.39563122 21:0.2906841 22:0.5329653 23:0.63659906 24:0.54259008 25:0.26836407 26:0.89838779 27:0.69594175 28:0.49895781 29:0.53359801 30:0.50770444 31:0.89564508 32:0.15726499 33:0.60378081 34:0.46624419 35:0.36259982 36:0.64767307 37:0.32666796 38:0.58308154 39:0.16732885 40:0.34225661 41:0.61205494 42:0.6458618 43:0.55811781 44:0.74137121 45:0.63736165 46:0.61033589 47:0.29240248 48:0.47446874 49:0.4627434 50:0.12929705 51:0.50822896 52:0.87208027 53:0.37671918 54:0.23280522 55:0.80037344 56:0.48278791 
-0 0.5904912502733541 0 0 0 0 2.68313767053532 1:0.061269045 2:0.49180245 3:0.6487329 4:0.45069557 5:0.51738715 6:0.60764229 7:0.37925801 8:0.53438348 9:0.60026127 10:0.4355717 11:0.37796924 12:0.31341282 13:0.64634299 14:0.90131003 15:0.49373573 16:0.40326118 17:0.55952144 18:0.64892024 19:0.4427909 20:0.46389744 21:0.25303403 22:0.51697785 23:0.73236293 24:0.36296174 25:0.40538567 26:0.79073334 27:0.74072754 28:0.6794551 29:0.7124247 30:0.56140816 31:0.65329522 32:0.40317234 33:0.72800857 34:0.4390476 35:0.20129292 36:0.5396508 37:0.19654252 38:0.70652723 39:0.098922908 40:0.54932952 41:0.63394874 42:0.5492053 43:0.76646972 44:0.74990398 45:0.81384534 46:0.61135709 47:0.29554129 48:0.69001466 49:0.3844991 50:0.2017957 51:0.42217106 52:0.81599879 53:0.44830823 54:0.12920028 55:0.78827643 56:0.41432139 
-1.709592342923684 0.974089956913512 0.7415525777589522 2.157015913085745 1.342949126806967 0 0 1:0.54102916 2:0.39705986 3:0.49010882 4:0.60721248 5:0.37862468 6:0.25500858 7:0.46642429 8:0.38564536 9:0.44633797 10:0.52857 11:0.4530583 12:0.079833493 13:0.56771535 14:0.70240682 15:0.46434847 16:0.54066724 17:0.5872618 18:0.87503928 19:0.29063329 20:0.59363037 21:0.51768154 22:0.3995235 23:0.77896422 24:0.47802842 25:0.4710235 26:0.86540473 27:0.57150722 28:0.59968913 29:0.64917403 30:0.347592 31:0.63547176 32:0.15841869 33:0.59994763 34:0.6692307 35:0.46096203 36:0.77787977 37:0.14630523 38:0.51343822 39:0.41957933 40:0.75796402 41:0.60709333 42:0.61667538 43:0.78276658 44:0.82262653 45:0.66023719 46:0.51710147 47:0.34457859 48:0.48956701 49:0.37980181 50:0.23727509 51:0.53844053 52:0.88280052 53:0.51319122 54:0.20926268 55:0.73462051 56:0.49242401 
-0 0.404024958554596 0 0 0 0.3170479054924275 0 1:0.59054452 2:0.54150468 3:0.36393794 4:0.62667203 5:0.41585138 6:0.40367576 7:0.18077283 8:0.34877989 9:0.39078611 10:0.64635503 11:0.25187629 12:0.53959525 13:0.11354113 14:0.2794618 15:0.78336209 16:0.63983476 17:0.36718976 18:0.68906337 19:0.65654248 20:0.55194676 21:0.16473451 22:0.42840654 23:0.39050376 24:0.35293499 25:0.20044813 26:0.70440412 27:0.34069309 28:0.63228285 29:0.5114367 30:0.26425433 31:0.33800888 32:0.20366189 33:0.60543573 34:0.47032088 35:0.59096718 36:0.59651524 37:0.55053222 38:0.27099231 39:0.49171147 40:0.70870292 41:0.65616214 42:0.34467044 43:0.45491016 44:0.63817877 45:0.62576807 46:0.30243206 47:0.7450965 48:0.11594892 49:0.4045639 50:0.19304724 51:0.58608961 52:0.62546921 53:0.46068591 54:0.23090076 55:0.88108325 56:0.34413782 
-0.3318050290839832 1.147056590829854 0 0.8973253428937842 3.412417946043722 0 3.60599219003132 1:0.28328803 2:0.38937455 3:0.51045263 4:0.49075395 5:0.48656732 6:0.63935584 7:0.4696489 8:0.52659947 9:0.47172496 10:0.4272531 11:0.15388741 12:0.22167653 13:0.47725162 14:0.41868934 15:0.56015378 16:0.74157745 17:0.34794441 18:0.43462074 19:0.18676409 20:0.33923173 21:0.45168039 22:0.51476932 23:0.68684274 24:0.61055553 25:0.14740524 26:0.56454164 27:0.50377363 28:0.5260902 29:0.49493527 30:0.50549471 31:0.33284983 32:0.22179633 33:0.7267096 34:0.48799706 35:0.55629694 36:0.65813887 37:0.28302875 38:0.65127289 39:0.50234026 40:0.46594539 41:0.46169207 42:0.3260805 43:0.27399266 44:0.55558062 45:0.52718216 46:0.27185488 47:0.68700999 48:0.34763354 49:0.49000159 50:0.11015213 51:0.60865438 52:0.67453581 53:0.50209355 54:0.15160212 55:0.88744283 56:0.37426507 
-1.134135345048354 0 0.3926873370327544 0 2.053763785998347 0.4848761147172395 0.4859748942775007 1:0.38658673 2:0.55730313 3:0.36729735 4:0.085878387 5:0.19692653 6:0.35782847 7:0.58814806 8:0.6965428 9:0.56663293 10:0.75477725 11:0.23774037 12:0.63667631 13:0.42819697 14:0.59143251 15:0.52550805 16:0.47093508 17:0.54188603 18:0.41871458 19:0.7676217 20:0.68826741 21:0.38954219 22:0.36726645 23:0.23892587 24:0.42306587 25:0.28649238 26:0.62745291 27:0.2496867 28:0.63473344 29:0.91302896 30:0.48558396 31:0.47040051 32:0.51061875 33:0.72928095 34:0.39042041 35:0.43603227 36:0.37811008 37:0.43906111 38:0.35557982 39:0.45076278 40:0.78127611 41:0.47191224 42:0.47965962 43:0.34816116 44:0.6521703 45:0.51124108 46:0.5384596 47:0.31128559 48:0.51030684 49:0.3317892 50:0.52926648 51:0.42463535 52:0.66099167 53:0.33908421 54:0.24069975 55:0.84029186 56:0.37976024 
-2.64611799372787 2.346390683480924 2.241027268702623 2.66469311201919 1.561120339083775 1.704198883921008 0 1:0.55023181 2:0.28901228 3:0.70334804 4:0.3280212 5:0.57277882 6:0.424261 7:0.63676769 8:0.42937407 9:0.35643229 10:0.5732407 11:0.53264302 12:0.36413544 13:0.41407233 14:0.40958789 15:0.6164636 16:0.87571204 17:0.28659084 18:0.77717406 19:0.23048167 20:0.48715121 21:0.40891877 22:0.42847568 23:0.52795535 24:0.6048972 25:0.39254132 26:0.60614055 27:0.50245672 28:0.5498504 29:0.76449603 30:0.46223304 31:0.66061956 32:0.41027984 33:0.86944479 34:0.7593773 35:0.45767114 36:0.81793499 37:0.19462299 38:0.48003751 39:0.29297769 40:0.5252316 41:0.36935616 42:0.64693469 43:0.52868539 44:0.84930843 45:0.50181776 46:0.53431278 47:0.51383322 48:0.48460409 49:0.34538847 50:0.11109473 51:0.49948233 52:0.77796763 53:0.35277331 54:0.18120393 55:0.81310236 56:0.44708928 
-1.563000202261022 2.532182180906139 0.4584162028917643 3.638125272283358 0.4077737174266644 0.6312051470662059 0 1:0.5159964 2:0.55396086 3:0.22673902 4:0.40606701 5:0.48236081 6:0.46610942 7:0.5312686 8:0.53061616 9:0.58000791 10:0.57156014 11:0.5207333 12:0.46452406 13:0.50141519 14:0.43569911 15:0.53874117 16:0.34140581 17:0.64489633 18:0.38097003 19:0.56063473 20:0.40429366 21:0.34075725 22:0.40083864 23:0.40128094 24:0.50601482 25:0.41432494 26:0.58359396 27:0.48702028 28:0.50406677 29:0.60220987 30:0.3523047 31:0.51784426 32:0.44692412 33:0.49886915 34:0.49017805 35:0.32360348 36:0.60748768 37:0.36579314 38:0.54091322 39:0.48510537 40:0.48796162 41:0.62742084 42:0.68517637 43:0.33200231 44:0.3529191 45:0.31454036 46:0.30338088 47:0.37294021 48:0.50744987 49:0.6666916 50:0.26444465 51:0.56328368 52:0.91820925 53:0.38058642 54:0.21720356 55:0.92480856 56:0.49709707 
-0 0.4133958735967691 4.273957909951944 0 0 1.051592547466672 0 1:0.75842482 2:0.49972123 3:0.36228833 4:0.40914199 5:0.54977524 6:0.5625633 7:0.65583581 8:0.57287902 9:0.54222679 10:0.58089375 11:0.4414663 12:0.31069517 13:0.61827958 14:0.41999736 15:0.53266245 16:0.38090166 17:0.67708266 18:0.33509666 19:0.30223235 20:0.43806413 21:0.48143363 22:0.32150647 23:0.5024454 24:0.60804331 25:0.47852021 26:0.60982853 27:0.65032476 28:0.45420226 29:0.43434834 30:0.49555814 31:0.58331847 32:0.28412786 33:0.56489027 34:0.51828057 35:0.29209158 36:0.70158798 37:0.29458436 38:0.64712644 39:0.4075577 40:0.51924157 41:0.62201214 42:0.69367087 43:0.30853698 44:0.45361301 45:0.49605078 46:0.28322247 47:0.57825559 48:0.38305998 49:0.51408917 50:0.18849592 51:0.56098062 52:0.85073858 53:0.41299894 54:0.11713084 55:0.94563377 56:0.39086139 
-0 1.906039881731281 0 0 0 0 0 1:0.40885842 2:0.5137406 3:0.19190605 4:0.46482933 5:0.55007058 6:0.47800127 7:0.56244981 8:0.56283808 9:0.54165459 10:0.52387321 11:0.40010592 12:0.39165181 13:0.47440609 14:0.51318622 15:0.42616069 16:0.35051414 17:0.69619304 18:0.36525869 19:0.55340022 20:0.39442131 21:0.40848097 22:0.45268303 23:0.42484748 24:0.51620042 25:0.33007082 26:0.59034181 27:0.49383715 28:0.53194976 29:0.5963797 30:0.42460731 31:0.47816202 32:0.3952356 33:0.5547893 34:0.50141275 35:0.36722896 36:0.59531635 37:0.3345516 38:0.5410735 39:0.51187003 40:0.52598268 41:0.67032516 42:0.63401824 43:0.30785716 44:0.35892335 45:0.38040119 46:0.30661044 47:0.37186646 48:0.53669935 49:0.66996318 50:0.26000759 51:0.55814421 52:0.90314734 53:0.37771881 54:0.20898852 55:0.93761855 56:0.48119175 
-0 2.28161074543068 0 0 0 3.188044914336962 1.508293233917845 1:0.29006451 2:0.51226568 3:0.59766001 4:0.40656325 5:0.38354743 6:0.34930944 7:0.5324465 8:0.50599962 9:0.48494804 10:0.58540231 11:0.28988981 12:0.46573573 13:0.34441513 14:0.62119275 15:0.4585284 16:0.57041597 17:0.5369482 18:0.56001168 19:0.37020582 20:0.57623297 21:0.51508415 22:0.51897556 23:0.50033152 24:0.69722533 25:0.27258196 26:0.47462162 27:0.51486993 28:0.56461209 29:0.51943547 30:0.65838426 31:0.55812699 32:0.75208151 33:0.51656485 34:0.56728226 35:0.27084023 36:0.57634461 37:0.3983922 38:0.59407592 39:0.41812685 40:0.46868876 41:0.63351578 42:0.55798882 43:0.28363016 44:0.47399667 45:0.36411509 46:0.37797257 47:0.26963821 48:0.51176608 49:0.67393678 50:0.22290266 51:0.56823909 52:0.93034178 53:0.40315676 54:0.20789126 55:0.9649725 56:0.47067824 
-0 0 0 0 0 0 0.6739059176635189 1:0.51773208 2:0.49635029 3:0.63866568 4:0.54409879 5:0.54683584 6:0.48895788 7:0.4019427 8:0.53768861 9:0.54488617 10:0.57603347 11:0.25726646 12:0.55349243 13:0.40777391 14:0.55395526 15:0.52579534 16:0.66186351 17:0.51408577 18:0.58835089 19:0.2340716 20:0.62677157 21:0.5678283 22:0.44857657 23:0.72192496 24:0.5897122 25:0.33221126 26:0.44570374 27:0.51466256 28:0.52097547 29:0.39124811 30:0.59172875 31:0.43342194 32:0.63772911 33:0.4636752 34:0.55934262 35:0.39226824 36:0.58192968 37:0.48725104 38:0.70694172 39:0.57718074 40:0.35013726 41:0.64825702 42:0.45142019 43:0.39224911 44:0.52002662 45:0.48709404 46:0.30472437 47:0.56826997 48:0.60408223 49:0.51411027 50:0.22527957 51:0.62552589 52:0.90212047 53:0.55283129 54:0.095800377 55:0.93858856 56:0.37541318 
-0 0 0 0 0 0.4009493961778713 0 1:0.77076888 2:0.53319603 3:0.23969987 4:0.2554093 5:0.69383591 6:0.21885215 7:0.48919323 8:0.59897459 9:0.6544348 10:0.53061271 11:0.52186406 12:0.28963804 13:0.48975006 14:0.64150161 15:0.5819602 16:0.31975368 17:0.61438882 18:0.27824637 19:0.43693101 20:0.40535933 21:0.54031533 22:0.48533458 23:0.51075321 24:0.59394884 25:0.34793785 26:0.75075984 27:0.57955903 28:0.52623439 29:0.61428517 30:0.42764986 31:0.6623624 32:0.15076326 33:0.75130081 34:0.51574641 35:0.36054561 36:0.77005726 37:0.20661871 38:0.55080831 39:0.36707351 40:0.54621971 41:0.60000265 42:0.74443024 43:0.2699067 44:0.48038319 45:0.56904531 46:0.35416317 47:0.50925905 48:0.26600981 49:0.56374097 50:0.080223531 51:0.49632335 52:0.86882985 53:0.44540557 54:0.15847108 55:0.92915815 56:0.41660321 
-0 0 0 0 1.350752303270016 0 0 1:0.46274441 2:0.4624911 3:0.31020051 4:0.50587845 5:0.58858144 6:0.39115167 7:0.6085732 8:0.69669938 9:0.57411432 10:0.63344693 11:0.52431709 12:0.3125174 13:0.57206577 14:0.48128971 15:0.5304268 16:0.31988236 17:0.66802418 18:0.37514284 19:0.27813026 20:0.49018186 21:0.53525579 22:0.37207749 23:0.5149616 24:0.19375338 25:0.52547383 26:0.65497953 27:0.47904459 28:0.49231577 29:0.63510412 30:0.37254965 31:0.59129995 32:0.38980821 33:0.81237161 34:0.4872286 35:0.43593419 36:0.69560432 37:0.36426187 38:0.53294516 39:0.47147003 40:0.48443773 41:0.66737682 42:0.58386546 43:0.3286677 44:0.4113816 45:0.3152115 46:0.28250825 47:0.44477546 48:0.68868774 49:0.41058052 50:0.14382634 51:0.4658221 52:0.84454018 53:0.37786004 54:0.11218015 55:0.98569232 56:0.41939703 
-0 0 0 0 0 0 4.013555148678644 1:0.49430341 2:0.42074478 3:0.39779148 4:0.53208184 5:0.55493104 6:0.42665467 7:0.63470441 8:0.62304604 9:0.57242388 10:0.64528871 11:0.49477449 12:0.30292431 13:0.57982898 14:0.45435265 15:0.53951341 16:0.3004728 17:0.65326309 18:0.41162738 19:0.30553573 20:0.49728361 21:0.48991457 22:0.37557176 23:0.53609073 24:0.2106986 25:0.52770841 26:0.65446317 27:0.48589715 28:0.4786354 29:0.59567499 30:0.36912483 31:0.61714214 32:0.34248781 33:0.78435045 34:0.44271922 35:0.40517494 36:0.69806743 37:0.36069536 38:0.52489996 39:0.47522697 40:0.50182366 41:0.73378778 42:0.577824 43:0.33844459 44:0.39851359 45:0.34240347 46:0.27874467 47:0.42943019 48:0.67852652 49:0.41547975 50:0.16690817 51:0.48177144 52:0.84321249 53:0.39206275 54:0.11613372 55:0.97808647 56:0.42645109 
-2.942981621085502 2.615375705286736 5.854755390581365 1.542850613201443 0.8203281937130046 1.448069205434783 0.995633335578472 1:0.3081229 2:0.17654313 3:0.46753392 4:0.57801002 5:0.43874645 6:0.36287791 7:0.50530756 8:0.42509162 9:0.52035868 10:0.42280248 11:0.34884256 12:0.48862126 13:0.35596475 14:0.59043539 15:0.51032162 16:0.35392141 17:0.4122422 18:0.5119338 19:0.28538489 20:0.72511297 21:0.39671314 22:0.56227666 23:0.80076277 24:0.21549079 25:0.52725708 26:0.52256846 27:0.56636918 28:0.54145861 29:0.54390061 30:0.65137994 31:0.6953454 32:0.77399802 33:0.68246835 34:0.39617243 35:0.4834888 36:0.54008764 37:0.45286253 38:0.63853693 39:0.55866742 40:0.35599393 41:0.74162626 42:0.41265506 43:0.51794314 44:0.5652914 45:0.35018072 46:0.43158877 47:0.4113763 48:0.84808832 49:0.36325696 50:0.026302343 51:0.44711244 52:0.84220558 53:0.33129078 54:0.089448065 55:0.94305426 56:0.45302129 
-0 0 0.5732183220476793 0 2.893604799670429 0 0 1:0.60067838 2:0.45411855 3:0.62356669 4:0.50122261 5:0.6443429 6:0.57097393 7:0.39139387 8:0.5086118 9:0.50096035 10:0.47606719 11:0.47011566 12:0.52226728 13:0.45640573 14:0.5314734 15:0.42911062 16:0.56349742 17:0.57562166 18:0.46106735 19:0.45749781 20:0.4251852 21:0.61852038 22:0.5567919 23:0.60646278 24:0.69077551 25:0.64641339 26:0.36637014 27:0.4159106 28:0.52615863 29:0.26677102 30:0.7385301 31:0.36459225 32:0.68580818 33:0.19836779 34:0.5964399 35:0.42185616 36:0.40307415 37:0.40531391 38:0.58984178 39:0.49127916 40:0.46991622 41:0.58757156 42:0.5335331 43:0.28275129 44:0.70399755 45:0.56668115 46:0.46728259 47:0.5170455 48:0.60876918 49:0.44742313 50:0.26959798 51:0.55478716 52:0.96127367 53:0.61811644 54:0.070727766 55:0.8800593 56:0.34718505 
-0 0 0 2.475882244058069 0 0 0 1:0.45416075 2:0.57774264 3:0.56194121 4:0.52455592 5:0.65300226 6:0.49802071 7:0.46048555 8:0.59209162 9:0.45335585 10:0.51812458 11:0.65356123 12:0.65093988 13:0.50427699 14:0.42167681 15:0.63427061 16:0.48952773 17:0.52514279 18:0.50113362 19:0.42443913 20:0.37600359 21:0.56007594 22:0.58501577 23:0.5828194 24:0.5123359 25:0.65574294 26:0.39406747 27:0.40031484 28:0.52158099 29:0.32677051 30:0.70644915 31:0.40421346 32:0.71697342 33:0.28022915 34:0.59590149 35:0.35988119 36:0.43832427 37:0.46033165 38:0.58758479 39:0.48571742 40:0.50457847 41:0.64905739 42:0.58487344 43:0.32046154 44:0.63965625 45:0.48109704 46:0.39489484 47:0.60909975 48:0.64771163 49:0.43827781 50:0.22500874 51:0.58881623 52:0.9613809 53:0.58537865 54:0.046584606 55:0.90356791 56:0.41305444 
-0 0.2082153425912722 1.309660917309907 0 0 0 0 1:0.62813717 2:0.44959113 3:0.55431187 4:0.42803484 5:0.5406639 6:0.49630952 7:0.51754946 8:0.4355005 9:0.57686174 10:0.60763562 11:0.56463605 12:0.59980232 13:0.53332323 14:0.63024503 15:0.50076169 16:0.6534096 17:0.42698315 18:0.50057471 19:0.51163393 20:0.40510195 21:0.56610239 22:0.50078005 23:0.66225684 24:0.60271442 25:0.30388144 26:0.49820623 27:0.41550943 28:0.49238589 29:0.34239018 30:0.75101548 31:0.37503937 32:0.7249217 33:0.14238113 34:0.57296056 35:0.3787972 36:0.50300121 37:0.44691724 38:0.51317465 39:0.45257261 40:0.46974635 41:0.63643563 42:0.59196299 43:0.29592872 44:0.53069043 45:0.47199166 46:0.43754813 47:0.4468039 48:0.61687672 49:0.49143496 50:0.29038286 51:0.55860424 52:0.92601317 53:0.52347469 54:0.071699336 55:0.93480265 56:0.3945598 
-0 0 0 0 0.1261161683762193 0.8083449907601129 3.208693192326627 1:0.60019737 2:0.48756796 3:0.52154666 4:0.43974978 5:0.48883411 6:0.54025126 7:0.44521931 8:0.27449554 9:0.55356455 10:0.54428583 11:0.57566667 12:0.56843269 13:0.48995423 14:0.63442934 15:0.61084026 16:0.62174922 17:0.4994244 18:0.53798217 19:0.44151303 20:0.48238811 21:0.64860237 22:0.54214209 23:0.59333217 24:0.69453508 25:0.32348457 26:0.43960702 27:0.40595472 28:0.51238787 29:0.29048118 30:0.82143164 31:0.39527971 32:0.78304267 33:0.12315388 34:0.59899873 35:0.36973929 36:0.46455842 37:0.47605342 38:0.5346064 39:0.43443289 40:0.4535245 41:0.59844214 42:0.61385572 43:0.26572695 44:0.59434837 45:0.52446848 46:0.41308117 47:0.46797892 48:0.57671845 49:0.49682283 50:0.26233864 51:0.57529497 52:0.93253988 53:0.57375109 54:0.098403811 55:0.9250921 56:0.39775914 
-0.1040861163251139 0.1113624373265534 2.440335124177027 0 0 0 0 1:0.43670389 2:0.52392888 3:0.57758301 4:0.4212414 5:0.61146945 6:0.5228067 7:0.35810652 8:0.39328736 9:0.60942477 10:0.51186067 11:0.40227881 12:0.3833856 13:0.58368778 14:0.56299341 15:0.51145118 16:0.57031816 17:0.60121536 18:0.50006604 19:0.39323166 20:0.51633471 21:0.6929611 22:0.49439657 23:0.44734398 24:0.66373414 25:0.39235997 26:0.43789306 27:0.56485945 28:0.56861454 29:0.2978394 30:0.82399988 31:0.31159908 32:0.74713314 33:0.13423127 34:0.52518785 35:0.37821352 36:0.43772683 37:0.49929968 38:0.48013574 39:0.45602682 40:0.53422409 41:0.4446373 42:0.5659371 43:0.33781525 44:0.69612944 45:0.56034243 46:0.45078436 47:0.5157758 48:0.60151219 49:0.4577547 50:0.25764936 51:0.61739641 52:0.96711111 53:0.57863498 54:0.089381367 55:0.91610426 56:0.39805892 
-0 0.4966715001629802 0 0 0 0 0 1:0.50832254 2:0.58013314 3:0.69918031 4:0.62679791 5:0.63118154 6:0.48450723 7:0.53438091 8:0.64598548 9:0.41295716 10:0.59384876 11:0.59286857 12:0.60821807 13:0.48693934 14:0.37807918 15:0.71365666 16:0.39080295 17:0.48325861 18:0.42498061 19:0.39712274 20:0.42994609 21:0.4680807 22:0.5915435 23:0.62173438 24:0.49790871 25:0.56762636 26:0.40613693 27:0.55723655 28:0.50789571 29:0.37523603 30:0.75274599 31:0.28933594 32:0.66055787 33:0.38380319 34:0.4600279 35:0.41835123 36:0.52248371 37:0.50243151 38:0.42633408 39:0.49839365 40:0.4676002 41:0.66716075 42:0.48971769 43:0.28537732 44:0.54030657 45:0.48711976 46:0.38224974 47:0.54434139 48:0.58185589 49:0.5221132 50:0.17612971 51:0.58890933 52:0.97224259 53:0.56120551 54:0.038161054 55:0.93239051 56:0.40446138 
-0 0 0 0 0 2.168063722707225 0 1:0.42913553 2:0.66377926 3:0.63894641 4:0.51141238 5:0.53263873 6:0.49690458 7:0.49224374 8:0.51918042 9:0.59997696 10:0.59864283 11:0.48225933 12:0.55562907 13:0.56301314 14:0.5699935 15:0.49282694 16:0.55688602 17:0.54165626 18:0.37673122 19:0.53229421 20:0.44171569 21:0.63919765 22:0.49422029 23:0.70773065 24:0.64569801 25:0.45559794 26:0.41035727 27:0.53881073 28:0.5137676 29:0.42043045 30:0.88730794 31:0.39868689 32:0.81578189 33:0.26060677 34:0.54886252 35:0.34028986 36:0.48636687 37:0.50987804 38:0.46937302 39:0.45882645 40:0.45517761 41:0.59727418 42:0.56628138 43:0.28459266 44:0.69390082 45:0.55984777 46:0.52182931 47:0.51150805 48:0.60744578 49:0.48067239 50:0.19691664 51:0.54431599 52:0.97297591 53:0.64539117 54:0.081367016 55:0.92215741 56:0.39392897 
-3.812005481894503 1.458965202467946 0 3.236194731874402 2.000339298529885 0 0 1:0.53129005 2:0.48561487 3:0.68177271 4:0.52706659 5:0.61193585 6:0.56353813 7:0.39578915 8:0.47250649 9:0.67600185 10:0.55573374 11:0.39767095 12:0.43408504 13:0.67025369 14:0.52773482 15:0.54434812 16:0.59177476 17:0.59804726 18:0.46478105 19:0.36571184 20:0.45164087 21:0.72588557 22:0.48928097 23:0.48290712 24:0.65838718 25:0.29475725 26:0.40024325 27:0.52249002 28:0.55452257 29:0.26688731 30:0.77638692 31:0.35923591 32:0.79402149 33:0.18550006 34:0.43862948 35:0.47559583 36:0.43160561 37:0.44627872 38:0.51050258 39:0.56576294 40:0.52354938 41:0.42702869 42:0.51217842 43:0.30610153 44:0.71828574 45:0.62178272 46:0.46597624 47:0.56250924 48:0.50606763 49:0.48876035 50:0.26548856 51:0.6433472 52:0.94887704 53:0.67167819 54:0.10962162 55:0.88660485 56:0.38724822 
-0 0 0.3238856136860644 0 0.9224237851376162 0 3.303228801505961 1:0.45505902 2:0.469762 3:0.67747188 4:0.56130528 5:0.50393659 6:0.54979694 7:0.59166259 8:0.60283178 9:0.43747216 10:0.50851971 11:0.50964278 12:0.52412111 13:0.53404808 14:0.59497899 15:0.36880574 16:0.60889733 17:0.44659451 18:0.42994383 19:0.45672652 20:0.41997281 21:0.62479901 22:0.52309966 23:0.68633217 24:0.59103543 25:0.52820301 26:0.36918861 27:0.51747453 28:0.51772308 29:0.2731781 30:0.79000491 31:0.38518819 32:0.74611169 33:0.34457904 34:0.55197626 35:0.55804092 36:0.45166278 37:0.41396305 38:0.45863947 39:0.50601667 40:0.52260661 41:0.56945384 42:0.46103621 43:0.20612119 44:0.6109606 45:0.55943096 46:0.50488204 47:0.44252023 48:0.64866143 49:0.43595818 50:0.25369033 51:0.54382747 52:0.94015443 53:0.58111525 54:0.033385087 55:0.91094822 56:0.35007468 
-0 1.019409754443721 2.762297882972061 0 1.007299250115734 0 0 1:0.59369534 2:0.48691502 3:0.56907111 4:0.49211529 5:0.52962881 6:0.43092138 7:0.43746278 8:0.49732196 9:0.50683254 10:0.50573099 11:0.4502956 12:0.68374699 13:0.65126616 14:0.55109489 15:0.56469524 16:0.57068223 17:0.55210221 18:0.56034684 19:0.47593975 20:0.36968711 21:0.69327295 22:0.55588347 23:0.69332582 24:0.66737765 25:0.36486807 26:0.49590588 27:0.45192242 28:0.53406376 29:0.30387154 30:0.75455993 31:0.39522436 32:0.86570561 33:0.15232939 34:0.5849247 35:0.43616536 36:0.53783303 37:0.46421838 38:0.44004923 39:0.52572089 40:0.46531615 41:0.56872791 42:0.59747666 43:0.38228363 44:0.7248382 45:0.65213311 46:0.47025502 47:0.65998352 48:0.59867573 49:0.44945481 50:0.23696975 51:0.5808664 52:0.89845294 53:0.67746001 54:0.063879721 55:0.90354693 56:0.35876459 
-0.9197531374907079 0 0 0 0 0.4568452768051352 0 1:0.48559391 2:0.52924085 3:0.36100709 4:0.4092688 5:0.33777454 6:0.56969911 7:0.42847294 8:0.53520316 9:0.45373496 10:0.53716749 11:0.52535015 12:0.66002184 13:0.36400035 14:0.58542049 15:0.48683405 16:0.38893917 17:0.46149993 18:0.38407466 19:0.50977641 20:0.49468428 21:0.38926902 22:0.57147241 23:0.78068036 24:0.49229527 25:0.48757899 26:0.48435816 27:0.52971113 28:0.66628313 29:0.53221154 30:0.84147519 31:0.41504031 32:0.77812022 33:0.36117569 34:0.51408672 35:0.43628347 36:0.5304547 37:0.37884256 38:0.47876242 39:0.55839115 40:0.44431618 41:0.59997326 42:0.5899297 43:0.27263319 44:0.53976232 45:0.62727475 46:0.48230323 47:0.44456816 48:0.5729835 49:0.47538108 50:0.29757032 51:0.57951266 52:0.9473967 53:0.61746591 54:0.13540873 55:0.89874279 56:0.42495713 
-0.2441461436362803 1.378854140987812 1.554940999029349 0.7277343766100687 1.182009172107644 0.6842204192122844 0 1:0.21968824 2:0.16070819 3:0.19577862 4:0.67361778 5:0.45055619 6:0.29059362 7:0.22038561 8:0.098748319 9:0.64581817 10:0.60603708 11:0.67063338 12:0.42857656 13:0.40690863 14:0.84419292 15:0.44959986 16:0.51070315 17:0.65494418 18:0.53983861 19:0.65460825 20:0.5296964 21:0.37944731 22:0.57257932 23:0.30674955 24:0.33975559 25:0.92786258 26:0.67550665 27:0.38016498 28:0.50651753 29:0.76173556 30:0.50396293 31:0.42841768 32:0.7518571 33:0.76872379 34:0.32570234 35:0.16752067 36:0.18211097 37:0.58229667 38:0.28413266 39:0.4273375 40:0.83986497 41:0.25889561 42:0.73280269 43:0.50316614 44:1 45:0.61171788 46:0.54361922 47:0.70205849 48:0.65453166 49:0.1555212 50:0.42263439 51:0.31961492 52:0.70949906 53:0.42963338 54:0.1861501 55:0.78027046 56:0.33179277 
-1.052562534753742 0.5780172460557181 0 0 0 0.1759677173991631 1.943696567609198 1:0.49493846 2:0.64846665 3:0.33160618 4:0.32040992 5:0.4539313 6:0.20697758 7:0.53756696 8:0.067088097 9:0.57998008 10:0.53898913 11:0.56973642 12:0.57176667 13:0.4677479 14:0.25288299 15:0.83101469 16:0.3544679 17:0.50558585 18:0.67015189 19:0.83412874 20:0.39863059 21:0.16931777 22:0.42816359 23:0.29378629 24:0.55534655 25:0.36854148 26:0.59533852 27:0.22049376 28:0.55307829 29:0.73840362 30:0.33260134 31:0.3590422 32:0.30973461 33:0.46461701 34:0.41840723 35:0.4094753 36:0.3834427 37:0.59758836 38:0.41644335 39:0.35871384 40:0.74699563 41:0.37503091 42:0.51960772 43:0.41157112 44:0.60426694 45:0.5572868 46:0.45921525 47:0.5518024 48:0.30602896 49:0.50192475 50:0.37978002 51:0.52691746 52:0.71954441 53:0.40971741 54:0.23108476 55:0.91442823 56:0.39580786 
-0 0.203861752674508 0.4261363593336904 0 0 0 0 1:0.40934765 2:0.30734566 3:0.76260704 4:0.64110887 5:0.27208281 6:0.50973153 7:0.68534845 8:0.43995094 9:0.42034411 10:0.54586244 11:0.42383647 12:0.47471038 13:0.48261246 14:0.58170772 15:0.52442533 16:0.4487195 17:0.49469522 18:0.49375135 19:0.4498789 20:0.55123854 21:0.34385318 22:0.57384431 23:0.70362604 24:0.44660741 25:0.39811313 26:0.53064233 27:0.61207098 28:0.5330472 29:0.53045738 30:0.72929889 31:0.52145189 32:0.64231193 33:0.67571461 34:0.5324834 35:0.35468554 36:0.63036448 37:0.35460138 38:0.72286993 39:0.4055317 40:0.44484434 41:0.50162733 42:0.57841343 43:0.47067484 44:0.58857632 45:0.52142733 46:0.41115361 47:0.46182761 48:0.74409175 49:0.49106267 50:0.2760953 51:0.56366867 52:0.9365834 53:0.46589547 54:0.11627357 55:0.92505652 56:0.335581 
-0 0.07282479383296087 0 0 0 0 0 1:0.49067283 2:0.25114852 3:0.69308639 4:0.56486493 5:0.49864331 6:0.4408094 7:0.47678536 8:0.52709663 9:0.55041635 10:0.52835083 11:0.1059728 12:0.60858464 13:0.4453043 14:0.42593527 15:0.41408008 16:0.75122142 17:0.40437835 18:0.51631653 19:0.28100994 20:0.52385437 21:0.51638657 22:0.59377944 23:0.58047158 24:0.55872601 25:0.22059113 26:0.52456903 27:0.50825626 28:0.47226709 29:0.53374642 30:0.59237242 31:0.35188136 32:0.52030194 33:0.47698498 34:0.50471103 35:0.57633466 36:0.56685275 37:0.41115695 38:0.72119939 39:0.50414634 40:0.34236416 41:0.61017597 42:0.42909902 43:0.4244262 44:0.61317635 45:0.46995637 46:0.33271724 47:0.54259652 48:0.66947103 49:0.53015184 50:0.14287634 51:0.59984607 52:0.86768484 53:0.43069297 54:0.13321956 55:0.94079083 56:0.42822957 
-0.2768256633875413 -0 3.731196725624122 1.964991867756 0 1.528775502346075 0 1:0.54857332 2:0.50967622 3:0.38876194 4:0.51829463 5:0.58988559 6:0.40599602 7:0.66094142 8:0.42129803 9:0.43314847 10:0.65570825 11:0.34865084 12:0.58538425 13:0.43226895 14:0.62870467 15:0.74544191 16:0.54802227 17:0.78767604 18:0.50831956 19:0.5288471 20:0.4719404 21:0.50395685 22:0.34754193 23:0.59551483 24:0.51334047 25:0.45708117 26:0.36542922 27:0.45276752 28:0.64898252 29:0.33363253 30:0.50212437 31:0.50600028 32:0.51889884 33:0.47524026 34:0.46063188 35:0.32335174 36:0.55466664 37:0.4831956 38:0.55039662 39:0.38393682 40:0.21331662 41:0.62991744 42:0.53642321 43:0.21682021 44:0.34662783 45:0.070384562 46:0.48436081 47:0.5450207 48:0.65695721 49:0.96234465 50:0.51166683 51:0.53315562 52:0.53631485 53:0.0608477 54:0.58943868 55:0.80251628 56:0.579696 
-0 -0 2.409551337308072 0 1.557560541101018 0 0 1:0.56284422 2:0.34969568 3:0.54612249 4:0.66263455 5:0.59669429 6:0.36566514 7:0.3447738 8:0.56160116 9:0.63530779 10:0.43426192 11:0.46928492 12:0.25677299 13:0.43138233 14:0.50604397 15:0.3503252 16:0.55830425 17:0.63257134 18:0.2894592 19:0.25713071 20:0.30789685 21:0.5133459 22:0.35024112 23:0.78284931 24:0.47901636 25:0.39072859 26:0.63151067 27:0.51698536 28:0.56533694 29:0.50337893 30:0.68957084 31:0.72002822 32:0.69257087 33:0.43332109 34:0.38687715 35:0.3238169 36:0.40659833 37:0.45011526 38:0.74918979 39:0.45473498 40:0.32887563 41:0.41454384 42:0.77659565 43:0.37673271 44:0.53850067 45:0.76724672 46:0 47:0.56363541 48:0.75909269 49:0.23106945 50:0.40500137 51:0.58157736 52:0.37636197 53:0.15274362 54:0.59531367 55:0.7715742 56:0.35048941 
-0 -0.001549949800737229 0 0 0 0 0 1:0.3733606 2:0.59764528 3:0.75277412 4:0.68676209 5:0.28378654 6:0.37142816 7:0.60520226 8:0.47777089 9:0.52460694 10:0.50361651 11:0.64322954 12:0.52044451 13:0.58087671 14:0.37535125 15:0.4264279 16:0.54185003 17:0.34095374 18:0.57971841 19:0.47670439 20:0.8616603 21:0.45413777 22:0.34610066 23:0.59626937 24:0.70025533 25:0.51819366 26:0.40372899 27:0.40078893 28:0.48508242 29:0.57140285 30:0.41691899 31:0.52404505 32:0.6138674 33:0.47979385 34:0.54959792 35:0.23934169 36:0.60817701 37:0.38566455 38:0.3569324 39:0.34049353 40:0.54555094 41:0.55710495 42:0.64649916 43:0.50597733 44:0.55400515 45:0.076028861 46:0.54006767 47:0.44592533 48:0.86231029 49:0.89816761 50:0.47164604 51:0.45981434 52:0.50753653 53:0.10170688 54:0.55658185 55:0.70871931 56:0.6121949 
-0 -0.0802740089131436 0 0 2.368554551137394 0 0 1:0.3733606 2:0.59764528 3:0.75277412 4:0.68676209 5:0.28378654 6:0.37142816 7:0.60520226 8:0.47777089 9:0.52460694 10:0.50361651 11:0.64322954 12:0.52044451 13:0.58087671 14:0.37535125 15:0.4264279 16:0.54185003 17:0.34095374 18:0.57971841 19:0.47670439 20:0.8616603 21:0.45413777 22:0.34610066 23:0.59626937 24:0.70025533 25:0.51819366 26:0.40372899 27:0.40078893 28:0.48508242 29:0.57140285 30:0.41691899 31:0.52404505 32:0.6138674 33:0.47979385 34:0.54959792 35:0.23934169 36:0.60817701 37:0.38566455 38:0.3569324 39:0.34049353 40:0.54555094 41:0.55710495 42:0.64649916 43:0.50597733 44:0.55400515 45:0.076028861 46:0.54006767 47:0.44592533 48:0.86231029 49:0.89816761 50:0.47164604 51:0.45981434 52:0.50753653 53:0.10170688 54:0.55658185 55:0.70871931 56:0.6121949 
-2.049771989535115 -0 3.764016428764619 0 2.177803211459808 0 0 1:0.46483344 2:0.44773296 3:0.5008828 4:0.37662745 5:0.37317351 6:0.43542397 7:0.59130275 8:0.52596581 9:0.66720951 10:0.68054479 11:0.88992262 12:0.48794568 13:0.26421887 14:0.89629048 15:0.50370538 16:0.42550272 17:0.59992719 18:0.50535238 19:0.32474193 20:0.58874285 21:0.68530631 22:0.45077917 23:0.60932684 24:0.35528728 25:0.45943674 26:0.30239615 27:0.51820183 28:0.58898801 29:0.38227648 30:0.36096042 31:0.70158756 32:0.59004349 33:0.39555937 34:0.58302075 35:0.38751614 36:0.5215199 37:0.51429808 38:0.60577637 39:0.49040562 40:0.35950321 41:0.32621282 42:0.73947215 43:0.35338122 44:0.43827018 45:0.81430471 46:0.082715899 47:0.61036718 48:0.80071616 49:0.22250283 50:0.41240442 51:0.55658108 52:0.3556467 53:0.23436899 54:0.56698006 55:0.87576407 56:0.35379821 
-0 -0 0 1.637291929341548 0 0 0 1:0.37242815 2:0.58686447 3:0.55507094 4:0.39679083 5:0.16369438 6:0.45953432 7:0.45872623 8:0.41936556 9:0.74657702 10:0.5680716 11:0.74413562 12:0.43914381 13:0.38032779 14:0.58809644 15:0.43036634 16:0.56186193 17:0.62178475 18:0.38844436 19:0.29882795 20:0.56093848 21:0.57915366 22:0.58862674 23:0.67809004 24:0.27413422 25:0.39638507 26:0.43401113 27:0.50711983 28:0.52616185 29:0.4851459 30:0.34620249 31:0.51346868 32:0.56195664 33:0.42574605 34:0.52984637 35:0.46455774 36:0.5360927 37:0.50397146 38:0.58622134 39:0.53698617 40:0.36822474 41:0.37246421 42:0.86717439 43:0.28481957 44:0.5783056 45:0.87111044 46:0.098359101 47:0.631868 48:0.863931 49:0.24405302 50:0.43001053 51:0.59132117 52:0.33262292 53:0.23499052 54:0.55328935 55:0.8165074 56:0.42093784 
-4.377998802185698 -4.58100189159129 0 0 0.9546680206438234 0 0 1:0.536726 2:0.61658031 3:0.49210769 4:0.3501491 5:0.38478568 6:0.40824708 7:0.43779859 8:0.37574852 9:0.45714021 10:0.44170967 11:0.3678956 12:0.41331083 13:0.48525715 14:0.5624671 15:0.44010201 16:0.50570637 17:0.51344776 18:0.64190632 19:0.52721143 20:0.6542989 21:0.27795488 22:0.54773772 23:0.54208446 24:0.42904139 25:0.50245738 26:0.59726161 27:0.6182701 28:0.67188931 29:0.60737187 30:0.53598696 31:0.42024708 32:0.42331836 33:0.62924063 34:0.41025755 35:0.70811665 36:0.46313301 37:0.47986794 38:0.6399042 39:0.51965481 40:0.41415375 41:0.37866917 42:0.88919342 43:0.22975795 44:0.57530069 45:0.75113845 46:0.23833482 47:0.37373939 48:0.68382913 49:0.36897731 50:0.37895998 51:0.57443637 52:0.40718949 53:0.19818103 54:0.6417833 55:0.88452375 56:0.45009127 
-0 -0 0 0 0 0 1.975985283695379 1:0.51872444 2:0.72399354 3:0.41268748 4:0.40808931 5:0.52409518 6:0.54668295 7:0.35628769 8:0.275166 9:0.47678953 10:0.29847887 11:0.38922217 12:0.42963678 13:0.4939498 14:0.58101517 15:0.47262305 16:0.44727179 17:0.44866499 18:0.68779051 19:0.58250248 20:0.6977219 21:0.34163776 22:0.69960749 23:0.60865551 24:0.53362435 25:0.58296072 26:0.52621984 27:0.46299356 28:0.64974016 29:0.52316391 30:0.46668565 31:0.47541621 32:0.57503319 33:0.67104769 34:0.41044137 35:0.70038384 36:0.46854866 37:0.46051615 38:0.47930536 39:0.58727849 40:0.45213321 41:0.4117873 42:0.80644894 43:0.27654472 44:0.58493495 45:0.88599944 46:0.24422525 47:0.39094621 48:0.74773681 49:0.34512907 50:0.42395774 51:0.56524622 52:0.39705914 53:0.2739124 54:0.59772015 55:0.90801883 56:0.47573361 
-0 -0 0 2.317059878600397 0 0 0 1:0.48522514 2:0.5792098 3:0.28321669 4:0.30745292 5:0.57480031 6:0.38243386 7:0.74024856 8:0.59644884 9:0.45883551 10:0.69073385 11:0.40266174 12:0.50738305 13:0.38353184 14:0.74541759 15:0.59142417 16:0.4245955 17:0.61689049 18:0.51914585 19:0.37501696 20:0.52920455 21:0.66332579 22:0.50508869 23:0.46501485 24:0.53102934 25:0.36764938 26:0.44691277 27:0.65542233 28:0.61742723 29:0.43724412 30:0.45904747 31:0.55490357 32:0.59504592 33:0.49499252 34:0.490403 35:0.57374358 36:0.55863339 37:0.43800786 38:0.52844727 39:0.48069093 40:0.45147443 41:0.27075696 42:0.75627297 43:0.27290022 44:0.48990238 45:0.87757832 46:0.15541524 47:0.40059224 48:0.7702632 49:0.34919712 50:0.43854573 51:0.63485062 52:0.44300517 53:0.20850542 54:0.67525941 55:0.8770051 56:0.45315233 
-0 -0 0 0.08105725535758079 0 0 0 1:0.51747668 2:0.57297975 3:0.4095954 4:0.47680876 5:0.41677627 6:0.51184469 7:0.38424164 8:0.43323553 9:0.55920035 10:0.64503664 11:0.31729865 12:0.60110611 13:0.65175474 14:0.39526618 15:0.54594648 16:0.58276916 17:0.49629763 18:0.60085714 19:0.31179076 20:0.63849789 21:0.61932099 22:0.6037218 23:0.5966568 24:0.63347977 25:0.54204386 26:0.57606512 27:0.60204649 28:0.53512919 29:0.37140289 30:0.47209436 31:0.31829491 32:0.76474708 33:0.5609569 34:0.5166114 35:0.48566902 36:0.46652398 37:0.27156374 38:0.65845478 39:0.42122555 40:0.35662445 41:0.21068726 42:0.93821144 43:0.25298116 44:0.75338864 45:0.75791717 46:0.22050722 47:0.24529219 48:0.67278624 49:0.42166504 50:0.32413742 51:0.53373337 52:0.34403479 53:0.070847265 54:0.71920592 55:0.80170733 56:0.53369212 
-0 -0 0 0.2658862507679033 0.3894728116358401 0 0 1:0.55920911 2:0.40876988 3:0.81265742 4:0.38158512 5:0.52888161 6:0.39396673 7:0.35500637 8:0.56104082 9:0.50043935 10:0.55590373 11:0.73539442 12:0.46403879 13:0.32011738 14:0.47212175 15:0.49074751 16:0.43239748 17:0.36021936 18:0.68100655 19:0.62766856 20:0.67326069 21:0.54774982 22:0.40912595 23:0.62986624 24:0.48096734 25:0.43901175 26:0.64122748 27:0.68865699 28:0.43002498 29:0.45555162 30:0.6470139 31:0.52070695 32:0.4256801 33:0.56442064 34:0.42219126 35:0.47283781 36:0.52625537 37:0.42779717 38:0.53364682 39:0.17396212 40:0.1772792 41:0.47848314 42:0.4710533 43:0.27111095 44:0.57871413 45:0.33908671 46:0.69596189 47:0.86545032 48:0.54285908 49:0.76753086 50:0.32362917 51:0.57162553 52:0.33683655 53:0.113107 54:0.51157439 55:0.70222741 56:0.51498872 
-0 -1.963580484366946 2.353230232596688 0 0 0 0 1:0.37470573 2:0.51287973 3:0.66057509 4:0.40556839 5:0.4156383 6:0.3466022 7:0.28229257 8:0.52541369 9:0.38932478 10:0.62894493 11:0.59388071 12:0.50705075 13:0.42175531 14:0.49109176 15:0.48205459 16:0.43978727 17:0.46168047 18:0.60024196 19:0.48903972 20:0.72714919 21:0.46435302 22:0.45693684 23:0.58370572 24:0.53922105 25:0.51787215 26:0.57235861 27:0.5810352 28:0.57351673 29:0.48289639 30:0.509565 31:0.72099912 32:0.47786215 33:0.56675434 34:0.4545137 35:0.62950784 36:0.62002993 37:0.42033082 38:0.31463751 39:0.4370048 40:0.44428602 41:0.49056846 42:0.56684357 43:0.30643919 44:0.4472324 45:0.31638297 46:0.68257409 47:0.6766122 48:0.70698035 49:0.82370961 50:0.43060297 51:0.57199645 52:0.49919283 53:0.20258412 54:0.53952879 55:0.79454839 56:0.52856463 
-0.5657546623294519 -0 0 0 0 0 0 1:0.50791216 2:0.34952277 3:0.71234703 4:0.53800976 5:0.70259672 6:0.47727829 7:0.53148139 8:0.66198176 9:0.49444309 10:0.36461836 11:0.55362272 12:0.32879433 13:0.49953118 14:0.49034107 15:0.62455148 16:0.48871338 17:0.48026586 18:0.48960412 19:0.38025939 20:0.45721781 21:0.55863899 22:0.56697083 23:0.63877892 24:0.57951105 25:0.33037704 26:0.52597308 27:0.45576456 28:0.59560144 29:0.50158411 30:0.66988599 31:0.53371435 32:0.52475214 33:0.41350442 34:0.56665492 35:0.53564894 36:0.49421459 37:0.43918201 38:0.61646324 39:0.57366931 40:0.26423296 41:0.27121437 42:0.84516746 43:0.26028469 44:0.59834802 45:0.86128986 46:0.072849855 47:0.53446019 48:0.66265446 49:0.32740822 50:0.33526766 51:0.55791867 52:0.2428605 53:0.21987589 54:0.57705045 55:0.83620721 56:0.40466738 
-1.252927881570469 -0 3.484207756867082 0 0 2.98371828017633 0 1:0.48748878 2:0.50224572 3:0.76034433 4:0.56045502 5:0.76997072 6:0.52051961 7:0.45908919 8:0.82724988 9:0.71793455 10:0.094688289 11:0.61151046 12:0.50631446 13:0.90899092 14:0.29298237 15:0.5655002 16:0.99955428 17:0.32971624 18:0.39622691 19:0.33296782 20:0.45617765 21:0.31125942 22:0.78261983 23:0.24603589 24:0.55794513 25:0.14381751 26:0.94720721 27:0.80540448 28:0.3468577 29:0.43212968 30:0.60373127 31:0.39970854 32:0.80793774 33:0.43290171 34:0.46125057 35:0.54072487 36:0.68868178 37:0.31746945 38:0.31351158 39:0.59743881 40:0.35679731 41:0.75145209 42:0.74201512 43:0.34201449 44:0.54197186 45:0.52687383 46:0.32861933 47:0.93936896 48:0.61337793 49:0.44184926 50:0.26225939 51:0.62315381 52:0.402293 53:0.2557649 54:0.52816093 55:0.70671684 56:0.42236629 
-2.14158715689579 -3.119631054748543 0.5005755523328227 0 0.7124211711360907 0 0 1:0.42375606 2:0.5628953 3:0.66235667 4:0.67607945 5:0.68514907 6:0.44734922 7:0.4412671 8:0.68617219 9:0.69008893 10:0.22208321 11:0.56709099 12:0.56269729 13:0.75105739 14:0.43453312 15:0.64324707 16:0.72679996 17:0.46235335 18:0.44540024 19:0.46417075 20:0.38993269 21:0.20796987 22:0.70599598 23:0.23823686 24:0.44385967 25:0.13297729 26:0.92402524 27:0.69535995 28:0.51599544 29:0.50843 30:0.5909633 31:0.31856889 32:0.64621317 33:0.51552963 34:0.43009338 35:0.40611163 36:0.65777689 37:0.2668871 38:0.28100833 39:0.48309132 40:0.45623714 41:0.72679168 42:0.71710515 43:0.28739306 44:0.41277483 45:0.54951364 46:0.40659055 47:0.65065938 48:0.69463664 49:0.55815071 50:0.34309992 51:0.61890602 52:0.53569925 53:0.16250324 54:0.5674358 55:0.76558697 56:0.44162977 
-0 -0 0.2052340865568721 0 0 0 0 1:0.67121166 2:0.54714936 3:0.70091045 4:0.44128874 5:0.82657224 6:0.63069367 7:0.47529039 8:0.84852672 9:0.67070252 10:0.077755235 11:0.71671557 12:0.45843747 13:0.88541245 14:0.54783219 15:0.5419057 16:0.63813376 17:0.42213267 18:0.3001996 19:0.45925471 20:0.31206596 21:0.28688765 22:0.74785912 23:0.36054891 24:0.50508255 25:0.30387947 26:0.89620185 27:0.6633411 28:0.63845545 29:0.40127227 30:0.37862307 31:0.3113898 32:0.73937279 33:0.66078246 34:0.43924272 35:0.27065381 36:0.75676817 37:0.22021121 38:0.25589088 39:0.56585735 40:0.50578618 41:0.75956804 42:0.65538824 43:0.29227984 44:0.48086107 45:0.38197732 46:0.3423734 47:0.60719025 48:0.73602712 49:0.59375083 50:0.36485633 51:0.63402426 52:0.48603961 53:0.18487495 54:0.58520192 55:0.70423508 56:0.44083038 
-0 -2.43973173251592 0 2.07911498346558 0 0 1.665354742251034 1:0.57691979 2:0.41753903 3:0.47842059 4:0.3325589 5:0.53444278 6:0.36139467 7:0.34463748 8:0.48120755 9:0.53171003 10:0.58795536 11:0.44977543 12:0.42213434 13:0.45309728 14:0.57383311 15:0.54744172 16:0.47862238 17:0.67479318 18:0.39479843 19:0.29502693 20:0.26773244 21:0.31098559 22:0.41643667 23:0.6494481 24:0.31473747 25:0.49229738 26:0.49176353 27:0.48377642 28:0.72552192 29:0.55345571 30:0.57162243 31:0.59761256 32:0.6356799 33:0.47686782 34:0.54493284 35:0.53705698 36:0.63918662 37:0.45063648 38:0.34630501 39:0.47484207 40:0.55644715 41:0.49495584 42:0.56056571 43:0.25597909 44:0.47130778 45:0.28411925 46:0.70069832 47:0.64776492 48:0.70309591 49:0.88664705 50:0.45547134 51:0.54956442 52:0.56795824 53:0.17494586 54:0.52776694 55:0.73298931 56:0.52691072 
-0 -0 0.7287059444757521 0.5148134145930775 0 0 0 1:0.58486348 2:0.39332673 3:0.74470145 4:0.40438735 5:0.3526063 6:0.21752794 7:0.48497927 8:0.67482817 9:0.49156031 10:0.7053594 11:0.62402749 12:0.39354438 13:0.3659085 14:0.51193786 15:0.65130633 16:0.61893541 17:0.47433662 18:0.56403643 19:0.53970516 20:0.31781584 21:0.49979922 22:0.36616474 23:0.60295826 24:0.23092149 25:0.42314556 26:0.51689249 27:0.66580826 28:0.61033905 29:0.34360731 30:0.7596069 31:0.53470576 32:0.59556466 33:0.49602818 34:0.5134517 35:0.65727919 36:0.61936688 37:0.45956662 38:0.45593399 39:0.33436134 40:0.35479358 41:0.56615949 42:0.59907854 43:0.20275706 44:0.52327019 45:0.31519103 46:0.68377495 47:0.94317085 48:0.50271356 49:0.8287465 50:0.34005198 51:0.59027094 52:0.39144373 53:0.14240439 54:0.47166505 55:0.70104516 56:0.50269324 
-0 -1.349021360601626 1.274145150025323 0 0 0 0 1:0.50509316 2:0.55321574 3:0.47057927 4:0.42467564 5:0.47673103 6:0.29398513 7:0.77789187 8:0.44431761 9:0.37258878 10:0.64213312 11:0.0102493 12:0.47211194 13:0.43365368 14:0.61269116 15:0.64033341 16:0.62507719 17:0.64565879 18:0.39785975 19:0.43401998 20:0.41897666 21:0.65732878 22:0.38537163 23:0.55785894 24:0.59352571 25:0.57941633 26:0.3653509 27:0.43719724 28:0.62204987 29:0.44722989 30:0.60643959 31:0.67631674 32:0.61011684 33:0.55272853 34:0.43099353 35:0.42394072 36:0.49840337 37:0.46769959 38:0.40920448 39:0.41204122 40:0.44587854 41:0.54566443 42:0.43084437 43:0.10110478 44:0.47090346 45:0.13457033 46:0.57869184 47:0.37492144 48:0.7331152 49:0.89530128 50:0.487167 51:0.42758718 52:0.54802281 53:0.0021790392 54:0.57976598 55:0.85015804 56:0.60159642 
-0 -0.108711766045597 0 0 0 0 0 1:0.55274481 2:0.51188475 3:0.38330591 4:0.52094501 5:0.58103448 6:0.40199807 7:0.66296059 8:0.41656399 9:0.4288978 10:0.66203463 11:0.3451362 12:0.58848882 13:0.43713918 14:0.64111739 15:0.73468584 16:0.54799396 17:0.78779519 18:0.50764841 19:0.52947634 20:0.46627802 21:0.50420904 22:0.34467205 23:0.5933913 24:0.51789677 25:0.45687503 26:0.36200577 27:0.45409286 28:0.64648342 29:0.33678731 30:0.49927661 31:0.50789863 32:0.51115227 33:0.48036623 34:0.46586621 35:0.32193884 36:0.55275196 37:0.47915226 38:0.54762709 39:0.38662854 40:0.21095093 41:0.62444061 42:0.53555995 43:0.21294275 44:0.35104361 45:0.067983627 46:0.47916088 47:0.54382187 48:0.65351892 49:0.96021515 50:0.5132184 51:0.53302598 52:0.53349894 53:0.058502845 54:0.59102756 55:0.80475509 56:0.57774353 
-0 -0 0 0.7032758823682866 0 0.6869005541145742 0 1:0.63142347 2:0.37762177 3:0.45016274 4:0.43337506 5:0.62933511 6:0.54584879 7:0.23011734 8:0.46478841 9:0.39988443 10:0.5305717 11:0.37947026 12:0.47401381 13:0.52822381 14:0.46010882 15:0.57908887 16:0.60690337 17:0.63895428 18:0.53968161 19:0.62235707 20:0.45204583 21:0.62984759 22:0.55695093 23:0.51590592 24:0.50948739 25:0.57761681 26:0.56135285 27:0.58351099 28:0.50682169 29:0.49263045 30:0.58817071 31:0.61744702 32:0.57608747 33:0.4228774 34:0.37613636 35:0.55662125 36:0.38089609 37:0.50505447 38:0.48709229 39:0.36078498 40:0.33389062 41:0.42734906 42:0.40158013 43:0.25414521 44:0.49769422 45:0.35493937 46:0.61327666 47:0.70338953 48:0.7319048 49:0.8486529 50:0.45398924 51:0.55409455 52:0.55749291 53:0.20992053 54:0.58027256 55:0.77669543 56:0.5678196 
-0 -0 0 0 0 0.3993586868596332 0 1:0.59182888 2:0.39430103 3:0.41385946 4:0.4923296 5:0.71790773 6:0.36743984 7:0.5196625 8:0.53074396 9:0.36202791 10:0.5959962 11:0.082275495 12:0.56442988 13:0.49938318 14:0.53761864 15:0.59717935 16:0.53334135 17:0.68151599 18:0.4477441 19:0.40260831 20:0.45996559 21:0.56979209 22:0.36828113 23:0.62148118 24:0.58938861 25:0.61939573 26:0.51307869 27:0.39970431 28:0.64619333 29:0.44887125 30:0.54885113 31:0.72346765 32:0.68162644 33:0.49059236 34:0.50522572 35:0.3122403 36:0.51872092 37:0.42890403 38:0.41638938 39:0.41759455 40:0.42405507 41:0.50541657 42:0.40278143 43:0.10581192 44:0.59427017 45:0.20286421 46:0.62522608 47:0.54248804 48:0.74903476 49:0.91364634 50:0.41691223 51:0.45822737 52:0.50906909 53:0.075892195 54:0.61237752 55:0.82670426 56:0.59441406 
-0 -0 0 0.01236038491250481 0 0 0 1:0.58643919 2:0.52846503 3:0.58545125 4:0.44105712 5:0.59164208 6:0.35024211 7:0.66355163 8:0.38391161 9:0.50640965 10:0.49352583 11:0.1188761 12:0.3622103 13:0.51995188 14:0.62076777 15:0.72191495 16:0.59752268 17:0.69578815 18:0.47829008 19:0.4594371 20:0.37441701 21:0.75661594 22:0.50024468 23:0.56151009 24:0.69680238 25:0.69459087 26:0.54258782 27:0.43260998 28:0.55605811 29:0.55023479 30:0.6155811 31:0.76154119 32:0.66845661 33:0.57581753 34:0.4455404 35:0.27530482 36:0.50863886 37:0.4201003 38:0.46018156 39:0.32235777 40:0.35906008 41:0.48613131 42:0.50602853 43:0.19222243 44:0.66730183 45:0.24360269 46:0.65113813 47:0.56308442 48:0.72461516 49:0.94949675 50:0.42503726 51:0.48780784 52:0.45820677 53:0.094914265 54:0.6033625 55:0.77122593 56:0.60482776 
-0 -0 0 0 0.02174020846210996 0 0 1:0.56066489 2:0.3728534 3:0.53497249 4:0.64328843 5:0.5947091 6:0.36430913 7:0.34706405 8:0.55749404 9:0.6274066 10:0.43723762 11:0.48034576 12:0.26556969 13:0.42398489 14:0.50241834 15:0.36558789 16:0.56992793 17:0.62128955 18:0.30077207 19:0.26078916 20:0.29999822 21:0.51906729 22:0.37305352 23:0.79083014 24:0.47314206 25:0.38617492 26:0.6349802 27:0.50564605 28:0.56415004 29:0.50044739 30:0.68470401 31:0.73168772 32:0.69023335 33:0.43302238 34:0.38731632 35:0.32680851 36:0.4120717 37:0.45308885 38:0.74721944 39:0.46247599 40:0.3374036 41:0.40833503 42:0.77298939 43:0.38129878 44:0.54056317 45:0.77574879 46:0.010347785 47:0.56207418 48:0.75419408 49:0.23507373 50:0.40472487 51:0.57969004 52:0.37614262 53:0.15454769 54:0.59600985 55:0.77524102 56:0.35265779 
-0 -0 0 0 1.277443848252912 0 0 1:0.56066489 2:0.3728534 3:0.53497249 4:0.64328843 5:0.5947091 6:0.36430913 7:0.34706405 8:0.55749404 9:0.6274066 10:0.43723762 11:0.48034576 12:0.26556969 13:0.42398489 14:0.50241834 15:0.36558789 16:0.56992793 17:0.62128955 18:0.30077207 19:0.26078916 20:0.29999822 21:0.51906729 22:0.37305352 23:0.79083014 24:0.47314206 25:0.38617492 26:0.6349802 27:0.50564605 28:0.56415004 29:0.50044739 30:0.68470401 31:0.73168772 32:0.69023335 33:0.43302238 34:0.38731632 35:0.32680851 36:0.4120717 37:0.45308885 38:0.74721944 39:0.46247599 40:0.3374036 41:0.40833503 42:0.77298939 43:0.38129878 44:0.54056317 45:0.77574879 46:0.010347785 47:0.56207418 48:0.75419408 49:0.23507373 50:0.40472487 51:0.57969004 52:0.37614262 53:0.15454769 54:0.59600985 55:0.77524102 56:0.35265779 
-0 -0 0 0 0 0.004741414241853986 0.001014454874084052 1:0.37888813 2:0.60520273 3:0.76514471 4:0.67189473 5:0.26693794 6:0.36771092 7:0.60367662 8:0.48009646 9:0.52644771 10:0.50740027 11:0.6589154 12:0.50899333 13:0.58098543 14:0.38606045 15:0.44106331 16:0.54240143 17:0.32888395 18:0.57276666 19:0.48308355 20:0.85336548 21:0.44406393 22:0.34449703 23:0.60836554 24:0.68177134 25:0.50490069 26:0.40480843 27:0.40254042 28:0.49840572 29:0.59292454 30:0.41639802 31:0.52132052 32:0.62793821 33:0.49113333 34:0.56079489 35:0.23808722 36:0.60104173 37:0.3913123 38:0.36493903 39:0.35212785 40:0.53362048 41:0.55949467 42:0.65076518 43:0.51059788 44:0.5511775 45:0.076738015 46:0.53578246 47:0.44445935 48:0.85669184 49:0.89376175 50:0.47092119 51:0.45772025 52:0.50198489 53:0.10495395 54:0.55724692 55:0.71127802 56:0.61581129 
-0 -0 2.204814962917496 2.309257122722276 0 0.3433955105709384 1.372515461230308 1:0.37888813 2:0.60520273 3:0.76514471 4:0.67189473 5:0.26693794 6:0.36771092 7:0.60367662 8:0.48009646 9:0.52644771 10:0.50740027 11:0.6589154 12:0.50899333 13:0.58098543 14:0.38606045 15:0.44106331 16:0.54240143 17:0.32888395 18:0.57276666 19:0.48308355 20:0.85336548 21:0.44406393 22:0.34449703 23:0.60836554 24:0.68177134 25:0.50490069 26:0.40480843 27:0.40254042 28:0.49840572 29:0.59292454 30:0.41639802 31:0.52132052 32:0.62793821 33:0.49113333 34:0.56079489 35:0.23808722 36:0.60104173 37:0.3913123 38:0.36493903 39:0.35212785 40:0.53362048 41:0.55949467 42:0.65076518 43:0.51059788 44:0.5511775 45:0.076738015 46:0.53578246 47:0.44445935 48:0.85669184 49:0.89376175 50:0.47092119 51:0.45772025 52:0.50198489 53:0.10495395 54:0.55724692 55:0.71127802 56:0.61581129 
-0 -0 0 0 0 0.004087569526273302 0 1:0.48119804 2:0.43582237 3:0.51841247 4:0.37361729 5:0.38446176 6:0.42805365 7:0.59496588 8:0.52963114 9:0.6765815 10:0.65031248 11:0.87678707 12:0.48829365 13:0.26164961 14:0.89882982 15:0.51640379 16:0.40748721 17:0.59533197 18:0.51299417 19:0.31572956 20:0.583763 21:0.67123681 22:0.45645273 23:0.60633487 24:0.349502 25:0.44730461 26:0.29849505 27:0.52010667 28:0.59466749 29:0.39340788 30:0.34923634 31:0.70415813 32:0.60362649 33:0.39312175 34:0.58753771 35:0.38545024 36:0.509556 37:0.51261187 38:0.60138386 39:0.49022543 40:0.34643418 41:0.33082983 42:0.73210615 43:0.36314484 44:0.43627217 45:0.81846994 46:0.085149631 47:0.61636889 48:0.79857618 49:0.22707896 50:0.4073931 51:0.55173725 52:0.35185447 53:0.23829155 54:0.56195343 55:0.87845469 56:0.35676274 
-0 -1.936799899849848 0 0 0 3.338749246072105 2.931862234500563 1:0.48119804 2:0.43582237 3:0.51841247 4:0.37361729 5:0.38446176 6:0.42805365 7:0.59496588 8:0.52963114 9:0.6765815 10:0.65031248 11:0.87678707 12:0.48829365 13:0.26164961 14:0.89882982 15:0.51640379 16:0.40748721 17:0.59533197 18:0.51299417 19:0.31572956 20:0.583763 21:0.67123681 22:0.45645273 23:0.60633487 24:0.349502 25:0.44730461 26:0.29849505 27:0.52010667 28:0.59466749 29:0.39340788 30:0.34923634 31:0.70415813 32:0.60362649 33:0.39312175 34:0.58753771 35:0.38545024 36:0.509556 37:0.51261187 38:0.60138386 39:0.49022543 40:0.34643418 41:0.33082983 42:0.73210615 43:0.36314484 44:0.43627217 45:0.81846994 46:0.085149631 47:0.61636889 48:0.79857618 49:0.22707896 50:0.4073931 51:0.55173725 52:0.35185447 53:0.23829155 54:0.56195343 55:0.87845469 56:0.35676274 
-0 -0.004701146882518244 0 0 0 0 0 1:0.52693862 2:0.32872826 3:0.57359338 4:0.63682801 5:0.81422663 6:0.55042857 7:0.38649702 8:0.7158792 9:0.33199006 10:0.5982489 11:0.37108612 12:0.4538002 13:0.48017192 14:0.40167931 15:0.86091179 16:0.45920578 17:0.3667728 18:0.62006748 19:0.75589907 20:0.59255481 21:0.32101893 22:0.35250852 23:0.6496743 24:0.62788343 25:0.45918226 26:0.63838029 27:0.37500685 28:0.47055525 29:0.63701361 30:0.46740296 31:0.42707074 32:0.59888649 33:0.29064748 34:0.60272908 35:0.37902567 36:0.53261042 37:0.4266991 38:0.58386028 39:0.46903488 40:0.41022545 41:0.45553333 42:0.94072574 43:0.22485013 44:0.52824205 45:0.55625737 46:0.09424378 47:0.12902513 48:0.75193042 49:0.52498811 50:0.38316679 51:0.46587291 52:0.40901524 53:0.076363541 54:0.67339247 55:0.92244548 56:0.51553249 
-0 -1.321474614832103 0 0 0 0 0 1:0.52693862 2:0.32872826 3:0.57359338 4:0.63682801 5:0.81422663 6:0.55042857 7:0.38649702 8:0.7158792 9:0.33199006 10:0.5982489 11:0.37108612 12:0.4538002 13:0.48017192 14:0.40167931 15:0.86091179 16:0.45920578 17:0.3667728 18:0.62006748 19:0.75589907 20:0.59255481 21:0.32101893 22:0.35250852 23:0.6496743 24:0.62788343 25:0.45918226 26:0.63838029 27:0.37500685 28:0.47055525 29:0.63701361 30:0.46740296 31:0.42707074 32:0.59888649 33:0.29064748 34:0.60272908 35:0.37902567 36:0.53261042 37:0.4266991 38:0.58386028 39:0.46903488 40:0.41022545 41:0.45553333 42:0.94072574 43:0.22485013 44:0.52824205 45:0.55625737 46:0.09424378 47:0.12902513 48:0.75193042 49:0.52498811 50:0.38316679 51:0.46587291 52:0.40901524 53:0.076363541 54:0.67339247 55:0.92244548 56:0.51553249 
-0 -0 0 0 0.9496367467278373 0.9547731576863628 0 1:0.68526632 2:0.24182987 3:0.30196264 4:0.66884798 5:0.64821929 6:0.27313077 7:0.34151861 8:0.58764923 9:0.35833484 10:0.59983969 11:0.33216354 12:0.61411196 13:0.4385736 14:0.30405176 15:0.61531305 16:0.668531 17:0.53989953 18:0.5722394 19:0.44543332 20:0.23675537 21:0.61877692 22:0.42475778 23:0.76906025 24:0.78499037 25:0.46565869 26:0.77723008 27:0.56499344 28:0.46094304 29:0.35503641 30:0.70219803 31:0.68939859 32:0.80153435 33:0.48049495 34:0.49393931 35:0.30646852 36:0.34509671 37:0.34920654 38:0.64732713 39:0.36028326 40:0.4122805 41:0.35347515 42:0.83802229 43:0.33277288 44:0.7744723 45:0.66818929 46:0.12629031 47:0.20979369 48:0.5952546 49:0.40342021 50:0.25645271 51:0.50890923 52:0.33495995 53:0.043464992 54:0.72362012 55:0.81740141 56:0.53314489 
-0 -0 1.371159141021845 0.9154753847562622 0 0 0 1:0.65409726 2:0.24422213 3:0.42847383 4:0.51752901 5:0.61219543 6:0.49541819 7:0.3518112 8:0.43089461 9:0.31638014 10:0.52646869 11:0.38237187 12:0.52486497 13:0.55521804 14:0.35346311 15:0.58208454 16:0.75581247 17:0.31973031 18:0.67452997 19:0.56146586 20:0.66283596 21:0.36663821 22:0.55015612 23:0.52988452 24:0.70211732 25:0.46877098 26:0.69711393 27:0.52806216 28:0.53786415 29:0.51657826 30:0.59937638 31:0.41214114 32:0.70492387 33:0.58598447 34:0.47771034 35:0.49632716 36:0.42793158 37:0.36665413 38:0.62531894 39:0.4258818 40:0.29945293 41:0.31068411 42:0.973113 43:0.25646973 44:0.68401843 45:0.65085459 46:0.24808766 47:0.22539209 48:0.50780261 49:0.43502915 50:0.28885877 51:0.49318597 52:0.29886982 53:0.050820053 54:0.69171262 55:0.85634834 56:0.54729128 
-3.733049540239439 -0 2.715231726563089 0 0 1.065831037284986 0.281886494818655 1:0.53229743 2:0.60941917 3:0.51159334 4:0.35254514 5:0.40828174 6:0.3941299 7:0.44613352 8:0.36503682 9:0.4606984 10:0.44208378 11:0.36223337 12:0.42631987 13:0.48758161 14:0.54809386 15:0.4462513 16:0.5106436 17:0.50437891 18:0.63678652 19:0.5175764 20:0.63563198 21:0.28363395 22:0.53517002 23:0.54480529 24:0.43611395 25:0.49691063 26:0.59443659 27:0.6186024 28:0.66424501 29:0.61164474 30:0.54821718 31:0.42777619 32:0.42953119 33:0.63675803 34:0.41121373 35:0.69780344 36:0.46362072 37:0.48059803 38:0.63891673 39:0.52867508 40:0.40989041 41:0.38080961 42:0.89281988 43:0.23135279 44:0.57692659 45:0.76151931 46:0.24048311 47:0.37158927 48:0.67909628 49:0.37264654 50:0.37604785 51:0.56957471 52:0.40131399 53:0.19745199 54:0.63976067 55:0.8875497 56:0.44829419 
-0 -0 0 0.04408324036051439 0 0 0 1:0.51796281 2:0.73017573 3:0.42324051 4:0.41440156 5:0.52439696 6:0.53093904 7:0.35312259 8:0.27529922 9:0.49168625 10:0.29307839 11:0.38262218 12:0.42005697 13:0.48133099 14:0.58638966 15:0.4978151 16:0.43105635 17:0.43214083 18:0.69305235 19:0.59181565 20:0.70127624 21:0.33454043 22:0.69294816 23:0.60816228 24:0.53076607 25:0.57480037 26:0.52778268 27:0.47341007 28:0.64889556 29:0.53317958 30:0.48214751 31:0.47653368 32:0.58191746 33:0.65869141 34:0.40371358 35:0.69639981 36:0.46648267 37:0.46086523 38:0.47231123 39:0.57895672 40:0.4470222 41:0.41031024 42:0.80892688 43:0.27942979 44:0.58157128 45:0.89224869 46:0.24888858 47:0.39238545 48:0.73878723 49:0.34970942 50:0.42020079 51:0.56483841 52:0.39169809 53:0.27462924 54:0.597682 55:0.90249848 56:0.47776365 
-0 -0 0 0 0 0.4233123456618916 0.1042447411160587 1:0.67922318 2:0.28991047 3:0.48658532 4:0.50386047 5:0.59327233 6:0.50971305 7:0.52028501 8:0.62302172 9:0.44696227 10:0.55566508 11:0.55891639 12:0.42043167 13:0.4101992 14:0.43855798 15:0.68127906 16:0.70285672 17:0.62235957 18:0.65564311 19:0.63231707 20:0.45958406 21:0.62949508 22:0.50519526 23:0.70003361 24:0.38200191 25:0.51322597 26:0.61863518 27:0.62606674 28:0.45114738 29:0.40807468 30:0.73925239 31:0.7893706 32:0.60155195 33:0.50238162 34:0.41563898 35:0.4963305 36:0.46381617 37:0.52752 38:0.55488718 39:0.26624262 40:0.170765 41:0.39469492 42:0.38938195 43:0.18516973 44:0.58046931 45:0.35151112 46:0.62622792 47:0.94927651 48:0.52387494 49:0.80210239 50:0.33432677 51:0.54047751 52:0.37649611 53:0.15393841 54:0.52345693 55:0.75483274 56:0.46129912 
-0 -0 0 0 0.7640697758711591 0 0 1:0.46338174 2:0.59580755 3:0.3092995 4:0.3011767 5:0.57714361 6:0.38693571 7:0.73017013 8:0.60676008 9:0.445952 10:0.69187111 11:0.39270169 12:0.52057141 13:0.38693112 14:0.72695339 15:0.58380598 16:0.42918026 17:0.61092168 18:0.51009095 19:0.36469725 20:0.52521694 21:0.66099614 22:0.51001173 23:0.46513042 24:0.54063535 25:0.37066281 26:0.45014045 27:0.65888852 28:0.61165327 29:0.42140108 30:0.46787816 31:0.55370051 32:0.59581339 33:0.49052435 34:0.47870916 35:0.5792073 36:0.55996573 37:0.44023368 38:0.5324741 39:0.48030329 40:0.44877523 41:0.26763338 42:0.76270145 43:0.28026566 44:0.49555224 45:0.881437 46:0.15960929 47:0.40348226 48:0.77113461 49:0.35081235 50:0.44470075 51:0.62915182 52:0.44327283 53:0.20904027 54:0.67417783 55:0.87338746 56:0.45552701 
-0 -0 0 0 0.4840061709510434 0 0 1:0.53026628 2:0.56728196 3:0.38926682 4:0.49302527 5:0.42558125 6:0.52871561 7:0.39571795 8:0.43920776 9:0.54673821 10:0.6527828 11:0.29602131 12:0.59729928 13:0.64655453 14:0.39313468 15:0.55489552 16:0.59097666 17:0.4891308 18:0.59330171 19:0.31448933 20:0.63074678 21:0.6228776 22:0.61583376 23:0.59541214 24:0.63026243 25:0.54361206 26:0.57366854 27:0.59488904 28:0.54516965 29:0.37125537 30:0.47514924 31:0.32194287 32:0.77423084 33:0.56126219 34:0.5253734 35:0.49339494 36:0.46618029 37:0.2700268 38:0.65720278 39:0.41844824 40:0.34764299 41:0.21203834 42:0.93955696 43:0.24484743 44:0.75764507 45:0.76349682 46:0.22014031 47:0.25063983 48:0.66624004 49:0.41944209 50:0.3238658 51:0.53252363 52:0.34390798 53:0.07273066 54:0.71773791 55:0.80760688 56:0.53093576 
-0 -0 0 1.589352870426092 0 0 0 1:0.52026856 2:0.6162352 3:0.49930954 4:0.55218488 5:0.70314825 6:0.50258487 7:0.43538347 8:0.50727898 9:0.53582937 10:0.56722349 11:0.29394209 12:0.5890336 13:0.44575921 14:0.60369301 15:0.56068301 16:0.48009685 17:0.52128142 18:0.46876988 19:0.35438502 20:0.71093553 21:0.60485095 22:0.47129765 23:0.61028457 24:0.49525779 25:0.55633867 26:0.57159233 27:0.50873309 28:0.68024057 29:0.5450334 30:0.54818577 31:0.40959457 32:0.55995089 33:0.56206775 34:0.45911932 35:0.52744746 36:0.53279662 37:0.36015707 38:0.64833254 39:0.43506613 40:0.31895542 41:0.20600632 42:0.87113905 43:0.20312987 44:0.53277391 45:0.92970067 46:0.18918845 47:0.36684564 48:0.7617231 49:0.39249921 50:0.42990413 51:0.58822703 52:0.39429694 53:0.19460899 54:0.65334094 55:0.81674016 56:0.45222744 
-0.5808696743516468 -0 0 0 0 0 0.7656681721718074 1:0.53397125 2:0.39843038 3:0.81339079 4:0.37984487 5:0.53155088 6:0.38806841 7:0.34541363 8:0.56602937 9:0.51237828 10:0.54078203 11:0.73705345 12:0.46457255 13:0.31851453 14:0.46157837 15:0.49634215 16:0.44650313 17:0.33834901 18:0.6664651 19:0.64789718 20:0.68323964 21:0.53898412 22:0.4164778 23:0.64296436 24:0.46464813 25:0.40869802 26:0.64551044 27:0.6812734 28:0.43072492 29:0.46201912 30:0.65353227 31:0.54295373 32:0.42698112 33:0.55834728 34:0.42462412 35:0.48361537 36:0.52840286 37:0.43583512 38:0.51968116 39:0.19223881 40:0.17639595 41:0.48133814 42:0.47124937 43:0.27150503 44:0.5788933 45:0.34554672 46:0.68795711 47:0.863518 48:0.5350436 49:0.77027303 50:0.32513204 51:0.57016909 52:0.33208683 53:0.11319397 54:0.51238376 55:0.70751852 56:0.51754212 
-2.584401123975937 -0 0 0 0 2.706310972411473 4.326270855918227 1:0.38684967 2:0.50044864 3:0.66879898 4:0.39605123 5:0.43744558 6:0.36356044 7:0.2801103 8:0.51901865 9:0.38634032 10:0.64440465 11:0.59390169 12:0.50437361 13:0.42456824 14:0.50964773 15:0.46511102 16:0.44399396 17:0.45984635 18:0.58240891 19:0.48785228 20:0.71700615 21:0.46152332 22:0.46642104 23:0.60018128 24:0.52321923 25:0.50395656 26:0.57413793 27:0.58030617 28:0.57649487 29:0.48799011 30:0.52882737 31:0.70965725 32:0.4823755 33:0.57284838 34:0.46163598 35:0.62510949 36:0.62201542 37:0.42011479 38:0.31904814 39:0.4429341 40:0.44055474 41:0.49051523 42:0.56090117 43:0.30193734 44:0.4534542 45:0.31451705 46:0.68100572 47:0.67155635 48:0.7053867 49:0.81828845 50:0.42324305 51:0.57316715 52:0.49778292 53:0.20627689 54:0.5426172 55:0.79913139 56:0.52789676 
-0 -0 0 0 0 1.185840002364337 2.617726743171676 1:0.35247967 2:0.41145208 3:0.66311818 4:0.5753175 5:0.61802173 6:0.47794017 7:0.5838539 8:0.51136452 9:0.39071408 10:0.41176796 11:0.38690281 12:0.42457625 13:0.49621323 14:0.51861137 15:0.74764293 16:0.47211832 17:0.55740583 18:0.61266404 19:0.49372885 20:0.53138673 21:0.50087619 22:0.4666602 23:0.62594658 24:0.57481813 25:0.39060226 26:0.53660285 27:0.40779626 28:0.55153006 29:0.6189332 30:0.63183695 31:0.62223661 32:0.44371873 33:0.38667971 34:0.39616951 35:0.57130045 36:0.43182477 37:0.53859019 38:0.5775699 39:0.54462296 40:0.46890661 41:0.36535913 42:0.80259144 43:0.23351099 44:0.55151153 45:0.86384487 46:0.10047029 47:0.29412696 48:0.76741368 49:0.41261271 50:0.43176839 51:0.52632284 52:0.35362765 53:0.21671946 54:0.60771626 55:0.89497602 56:0.47626156 
-0 -0 0 1.560192049638791 2.819215213371864 0 2.209843969190565 1:0.48757502 2:0.49658859 3:0.75523973 4:0.55821568 5:0.76026487 6:0.52733409 7:0.46453047 8:0.81768346 9:0.72550392 10:0.10060293 11:0.60227931 12:0.51361877 13:0.91363043 14:0.30757916 15:0.56821883 16:1 17:0.31717962 18:0.39854872 19:0.33131495 20:0.44360161 21:0.32038051 22:0.78490126 23:0.25266036 24:0.57869774 25:0.14890176 26:0.94921553 27:0.80112618 28:0.34824282 29:0.42795533 30:0.60804898 31:0.39651155 32:0.80378562 33:0.43135485 34:0.46333629 35:0.52943635 36:0.68444812 37:0.3110669 38:0.31484094 39:0.59644127 40:0.34946039 41:0.75953078 42:0.73809308 43:0.34214547 44:0.53750032 45:0.53371412 46:0.32788104 47:0.94042718 48:0.60500842 49:0.4414593 50:0.26032141 51:0.62175745 52:0.39828962 53:0.25305998 54:0.52949435 55:0.70156991 56:0.4190979 
-0 -0 0 0 0 0.6113312677217363 0 1:0.43153599 2:0.54613239 3:0.67267728 4:0.68055761 5:0.6748817 6:0.432648 7:0.44680715 8:0.70527011 9:0.68765676 10:0.21230023 11:0.58788455 12:0.56578392 13:0.7444368 14:0.42317393 15:0.59790319 16:0.74671829 17:0.47806048 18:0.45394313 19:0.47011852 20:0.37766123 21:0.21399723 22:0.70121491 23:0.23857135 24:0.44757146 25:0.14226289 26:0.92695409 27:0.70983976 28:0.51473963 29:0.49774826 30:0.57307339 31:0.32502583 32:0.64022684 33:0.51633722 34:0.42379767 35:0.42211506 36:0.65123492 37:0.26077542 38:0.28446078 39:0.48307815 40:0.45930833 41:0.72805512 42:0.71136415 43:0.29141086 44:0.4122026 45:0.55328673 46:0.40103418 47:0.65478665 48:0.69142765 49:0.56247854 50:0.33881515 51:0.6153596 52:0.53402638 53:0.1672994 54:0.5628497 55:0.76655048 56:0.44227773 
-0 -0 0 0.1755495109911502 0 0 0 1:0.66925156 2:0.53947175 3:0.69511068 4:0.4475894 5:0.81342602 6:0.64213276 7:0.47497779 8:0.85708696 9:0.6669656 10:0.086221576 11:0.73288888 12:0.45765504 13:0.88448536 14:0.54830056 15:0.53056842 16:0.64179617 17:0.42645821 18:0.30047104 19:0.45090586 20:0.30680722 21:0.30192381 22:0.74618441 23:0.36073896 24:0.51142073 25:0.30142078 26:0.88850534 27:0.65607584 28:0.64128435 29:0.41012332 30:0.3742815 31:0.30588111 32:0.74187267 33:0.65620697 34:0.43459597 35:0.2731503 36:0.75212353 37:0.22498713 38:0.26728603 39:0.56496483 40:0.49085316 41:0.7607758 42:0.64648974 43:0.29501823 44:0.48198289 45:0.38428634 46:0.33559221 47:0.61228085 48:0.74021715 49:0.59245604 50:0.36576292 51:0.63343889 52:0.48752075 53:0.19013081 54:0.58567613 55:0.7006973 56:0.44076082 
-0 -0 0 0 0 3.428684059275362 0 1:0.99500358 2:0.44400853 3:0.29375929 4:0.41374403 5:0.55679095 6:0.34828702 7:0.55728817 8:0.44426617 9:0.46917927 10:0.61771971 11:0.50506371 12:0.39549378 13:0.65699798 14:0.17881611 15:0.62653124 16:0.54092151 17:0.37184814 18:0.50202572 19:0.65792549 20:0.31093976 21:0.5556708 22:0.6688782 23:0.4626888 24:0.7566703 25:0.23096007 26:0.61147296 27:0.62262565 28:0.5806976 29:0.35417843 30:0.53578013 31:0.29849303 32:0.86273485 33:0.44027445 34:0.71974719 35:0.10589318 36:0.64449924 37:0.1972142 38:0.51609868 39:0.44016975 40:0.6792919 41:0.45171791 42:0.37170008 43:0.58223093 44:0.70250833 45:0.45380819 46:0.22711827 47:0.2812891 48:0.47317973 49:0.61118245 50:0.29724082 51:0.48517555 52:0.41646212 53:0.066868708 54:0.74301666 55:0.86814308 56:0.5965566 
-0 -0 0 0.9932284344949217 0 1.835149541057394 0 1:0.39319867 2:0.43418097 3:0.53798223 4:0.31737861 5:0.57291234 6:0.52892774 7:0.3467814 8:0.52095562 9:0.35622093 10:0.50164807 11:0.45096385 12:0.37148735 13:0.67523932 14:0.49538857 15:0.54357702 16:0.63779056 17:0.52076089 18:0.41330543 19:0.37254232 20:0.34792387 21:0.62744832 22:0.6382516 23:0.71182173 24:0.51142824 25:0.63090283 26:0.54685408 27:0.54250735 28:0.56337368 29:0.51318634 30:0.53952968 31:0.52030551 32:0.46233425 33:0.55767918 34:0.47924134 35:0.53673285 36:0.5387314 37:0.46968904 38:0.52334648 39:0.33210537 40:0.39677569 41:0.70435745 42:0.48330095 43:0.32738578 44:0.49204341 45:0.37564078 46:0.67043352 47:0.65110409 48:0.65936691 49:0.84877378 50:0.42470175 51:0.5408358 52:0.52329731 53:0.20725904 54:0.61969763 55:0.71687818 56:0.53759986 
