svm_type c_svc
kernel_type rbf
gamma 0.09
nr_class 2
total_sv 55
rho -0.236572
label 130280102 130280103
probA -4.39724
probB -0.0314168
nr_sv 25 30
SV
3.929958429674041 1:0.50772262 2:0.61847329 3:0.66917253 4:0.12657413 5:0.48708084 6:0.70004922 7:0.75993603 8:0.57174331 9:0.85239106 10:0.78444934 11:0.0067252857 12:0.31238121 13:0.57924664 14:0.37106037 15:0.73325747 16:0.54599059 17:0.50287575 18:0.58326197 19:0.18977192 20:0.57170838 21:0.65800989 22:0.71919781 23:0.69919598 24:0.80431294 25:0.29354236 26:0.29297745 27:0.27543816 28:0.43255529 29:0.39995423 30:0.16194454 31:0.2103046 32:0.3493762 33:0.82858443 34:0.48447832 
3.528504712399981 1:0.40010965 2:0.43089762 3:0.42153713 4:0.49880707 5:0.21072084 6:0.88780028 7:0.86541623 8:0.69944155 9:0.203476 10:0.52178568 11:0 12:0.44034705 13:0.4435429 14:0.33974159 15:0.89128661 16:0.79046065 17:0.26817372 18:0.58198524 19:0.57035041 20:0.51063722 21:0.57588708 22:0.82277858 23:0.39864069 24:0.48149267 25:0.77620828 26:0.41836441 27:0.30619061 28:0.54952437 29:0.51040268 30:0.28311637 31:0.36200526 32:0.36210519 33:0.79255146 34:0.5001331 
3.801603013028971 1:0.62093502 2:0.40248802 3:0.57017344 4:0.53397226 5:0.25081819 6:0.65513289 7:0.64405578 8:0.30785701 9:0.4044466 10:0.58707422 11:0.25457597 12:0.33219633 13:0.55987775 14:0.32442948 15:0.78527683 16:0.26832846 17:0.28103885 18:0.14055157 19:0.54981303 20:0.63834071 21:0.57529038 22:0.67189991 23:0.57620168 24:0.64413983 25:0.5761556 26:0.34330416 27:0.23010524 28:0.36179057 29:0.40074608 30:0.47643107 31:0.17623252 32:0.55030519 33:0.91769528 34:0.62660587 
3.021240176177381 1:0.64215541 2:0.65234345 3:0.54585284 4:0.38100007 5:0.67815983 6:0.37020203 7:0.62937939 8:0.26293907 9:0.44526678 10:0.50081766 11:0.21013576 12:0.91094667 13:0.68229204 14:0.28246099 15:0.46552497 16:0.51585656 17:0.69911838 18:0.33429798 19:0.72049117 20:0.48089457 21:0.42028585 22:0.54370791 23:0.0091572497 24:0.64252293 25:0.26708907 26:0.50976551 27:0.15241562 28:0.41404319 29:0.035634615 30:0.10016891 31:0.75969648 32:0.62025511 33:0.5224008 34:0.2736792 
0.01636120031166261 1:0.94650292 2:0.20557107 3:0.73497719 4:0.5898326 5:0.42344835 6:0.38657969 7:0.49780193 8:0.17830926 9:0.57837015 10:0.33407477 11:0.28519782 12:0.44283763 13:0.83338344 14:0.39350745 15:0.50036049 16:0.39052692 17:0.41343495 18:0.42363879 19:0.083651885 20:0.21081586 21:0.51162171 22:0.27479619 23:0.6375826 24:0.36208132 25:0.88579398 26:0.20061994 27:0.49648058 28:0.54588312 29:0.570346 30:0.53737885 31:0.55556017 32:0.49530214 33:0.33863664 34:0.18448702 
10 1:0.53060234 2:0.79764992 3:0.37715253 4:0.45102459 5:0.51631778 6:0.63284707 7:0.82182986 8:0.13712071 9:0.59473306 10:0.57132959 11:0.44074592 12:0.66840291 13:0.45416927 14:0.43660501 15:0.6574111 16:0.48876274 17:0.80458266 18:0.3109878 19:0.72564131 20:0.50749516 21:0.66072619 22:0.55423617 23:0.5307948 24:0.8421343 25:0.73785573 26:0.61983848 27:0.69954544 28:0.42888871 29:0.64224708 30:0.71550339 31:0.72335964 32:0.47275734 33:0.23747605 34:0.30968598 
3.525931561573641 1:0.56906146 2:0.34418869 3:0.56434929 4:0.37240559 5:0.28015006 6:0.21073784 7:0.54705524 8:0.43809417 9:0.68644553 10:0.34400505 11:0.55747914 12:0.54535669 13:0.66568047 14:0.35214892 15:0.47769231 16:0.44759092 17:0.48786917 18:0.7051124 19:0.58102477 20:0.59153676 21:0.28791347 22:0.58137649 23:0.21262206 24:0.53401184 25:0.72197819 26:0.72361714 27:0.63096452 28:0.41217121 29:1 30:0.58162779 31:0.56471407 32:0.6886633 33:0.50377917 34:0.42579123 
5.136017565378074 1:0.74480486 2:0.32487115 3:0.17928353 4:0.67276877 5:0.70328629 6:0.33987257 7:0.75326645 8:0.51913488 9:0.80643409 10:0.27235726 11:0.57546741 12:0.23185341 13:0.40319902 14:0.15071121 15:0.26912791 16:0.45780233 17:0.59174263 18:0.8094151 19:0.47178462 20:0.3738378 21:0.60608745 22:0.80708027 23:0.35496286 24:0.54180002 25:0.87868524 26:0.66003138 27:0.38083753 28:0.61432785 29:0.94763047 30:0.33241925 31:0.68129945 32:0.67489755 33:0.51660675 34:0.49543986 
2.775579783442696 1:0.53765833 2:0.73892498 3:1 4:0.64168638 5:0.22937323 6:0.42424744 7:0.25504562 8:0.37406439 9:0.59086591 10:0.31265992 11:0.14344166 12:0.4511739 13:0.2868979 14:0.77169871 15:0.3140693 16:0.8133018 17:0.61793208 18:0.34620982 19:0.35208207 20:0.40888095 21:0.50158179 22:0.77847165 23:0.61178255 24:0.4447464 25:0.46590489 26:0.43033409 27:0.41980106 28:1 29:0.4703308 30:0.58417213 31:0.5756371 32:0.18826957 33:0.46693566 34:0.16719583 
0.9696035796691633 1:0.44103318 2:0.18463761 3:0.26958248 4:0.46515098 5:0.79687577 6:0.50203586 7:0.65685266 8:0.52593404 9:0.46862704 10:0.67796266 11:0.71591359 12:0.35527164 13:0.47633106 14:0.22677465 15:0.54773164 16:0.3002882 17:0.39889303 18:1 19:0.49016818 20:0.58916348 21:0.62721503 22:0.54109192 23:0.74387825 24:0.35582215 25:0.24938351 26:1 27:0.45065022 28:0.34692383 29:0.85689926 30:0.44045863 31:0.78319317 32:0.82317746 33:0.44867939 34:0.5926218 
0.6581505397095554 1:0.60121506 2:0.38638073 3:0.679501 4:0.4802866 5:0.66783369 6:1 7:0.46212327 8:0.47725877 9:0.83329004 10:0.42847267 11:0.60021818 12:0.64013249 13:0.49083903 14:0.35645676 15:0.61560285 16:0.63288146 17:0.84091091 18:0.78696781 19:0.68871826 20:0.63538861 21:0.66636622 22:0.49280843 23:0.56223083 24:0.26952246 25:0.98152494 26:0.61056226 27:0.55833638 28:0.5357219 29:0.6033504 30:0.46253887 31:0.80476099 32:0.57162666 33:0.32290941 34:0.28211436 
10 1:0.23122221 2:0.53207785 3:0.529697 4:0.48510087 5:0.69273198 6:0.21497241 7:0.52573049 8:0.21697173 9:0.53442758 10:0.74839598 11:0.44196701 12:0.65281022 13:0.7302379 14:0.6019122 15:0.65065932 16:0.4261539 17:0.381156 18:0.76682198 19:0.70670623 20:0.33062142 21:0.58998978 22:0.72175044 23:0.51344907 24:0.57793564 25:0.43639284 26:0.46403173 27:0.38142213 28:0.50462043 29:0.6665566 30:0.83516198 31:0.2923272 32:0.42324799 33:0.47219062 34:0.39050144 
10 1:0.49986511 2:0.70732111 3:0.60201865 4:0.17992608 5:0.38324803 6:0.46700493 7:0.51535964 8:0.71713966 9:0.91322339 10:0.47351927 11:0.28566739 12:0.75566763 13:0.62821585 14:0.42386243 15:0.62157053 16:0.87113494 17:0.4820779 18:0.76684022 19:0.59460771 20:0.4403685 21:0.28997514 22:0.40396196 23:0.5859915 24:0.5528487 25:0.4201138 26:0.23277271 27:0.65833944 28:0.3730785 29:0.64770168 30:0.54740804 31:0.39562136 32:0.58340067 33:0.38266149 34:0.22367883 
0.7024906882863341 1:0.39705285 2:0.827227 3:0.25775096 4:0.58635128 5:0.63759571 6:0.44127268 7:0.70558029 8:0.57166952 9:0.62893784 10:0.37391117 11:0.32988787 12:0.67314768 13:0.46115354 14:0.28932953 15:0.40901291 16:0.6255706 17:0.2143116 18:0.68222547 19:0.70086598 20:0.37022823 21:0.41812116 22:0.88187027 23:0.45245633 24:0.80395764 25:0.48335552 26:0.64277333 27:0.27559379 28:0.54267669 29:0.79290926 30:0.95474029 31:0.40084234 32:0.51663399 33:0.38693342 34:0.37078768 
1.077604555308694 1:1 2:0.43230799 3:0.49094459 4:0.91891181 5:0.18081817 6:0.26048189 7:0.51069587 8:0.50192028 9:0.1692095 10:0.52308333 11:0.51303941 12:1 13:0.59712899 14:0.50949049 15:0.8472172 16:0.39684975 17:0.83631921 18:0.38055325 19:0.42553309 20:0.36846325 21:0.50107896 22:0.72346538 23:0.4083358 24:0.18572821 25:0.33626291 26:0.31850332 27:0.14364906 28:0.18962328 29:0.60806215 30:0.49873737 31:0.43370274 32:0.7916224 33:0.62719578 34:0.41728705 
2.607188298796313 1:0.28999752 2:0.37857017 3:0.1581165 4:0.22338946 5:0.2788586 6:0.52883112 7:0.54411924 8:0.38268837 9:0.79948628 10:0.20382579 11:0.44042781 12:0.15308689 13:0.46137837 14:0.56553626 15:0.54318434 16:0.90923494 17:0.6713044 18:0.47299457 19:0.5181064 20:0.46319801 21:0.4361648 22:0.60480285 23:0.40098819 24:0.34434715 25:0.3877326 26:0.69006515 27:0.27285463 28:0.45452324 29:0.7086786 30:0.40499175 31:0.81539148 32:0.74966937 33:0.65208495 34:0.55898923 
2.142986901337551 1:0.44852549 2:0.60127491 3:0.39054257 4:0.68161625 5:0.35906717 6:0.51484853 7:0.43195492 8:0.082774632 9:0.92507493 10:0.37614807 11:0.33642974 12:0.35828906 13:0.51404822 14:0.73196274 15:0.56108505 16:0.9458515 17:0.56338078 18:0.1631273 19:0.70398545 20:0.42778736 21:0.60898048 22:0.98388004 23:0.43351528 24:0.39469665 25:0.38712457 26:0.40491375 27:0.50470626 28:0.30444866 29:0.33121544 30:0.63507432 31:0.23749925 32:0.71150196 33:0.66751224 34:0.33611205 
2.9317744617515 1:0.54632109 2:0.88014734 3:0 4:0.77562249 5:0.35645026 6:0.62819463 7:0.64180642 8:0.22896643 9:0.54412043 10:0.55384606 11:0.3825734 12:0.54963702 13:0.48750302 14:0.30692744 15:0.90063751 16:0.22974543 17:0.73051929 18:0.50627744 19:0.33399823 20:0.50656056 21:0.58645427 22:0.68865645 23:0.41245484 24:0.27352309 25:0.66028261 26:0.17428474 27:0.45343116 28:0.31664002 29:0.36143607 30:0.62022138 31:0.50833321 32:0.86846781 33:0.30465198 34:0.23978056 
6.517695659968059 1:0.72037172 2:0.58694237 3:0.37624073 4:0.82870239 5:0.12265527 6:0.67937851 7:0.45018557 8:0.21503307 9:0.27169842 10:0.59820402 11:0.57180905 12:0.85096169 13:0.48599818 14:0.23089364 15:0.44926521 16:0.3228732 17:0.65966314 18:0.5238995 19:0.46014726 20:0.50804335 21:0.61885929 22:0.58598268 23:0.60279876 24:0.32885775 25:0.45028153 26:0.28311035 27:0.38122776 28:0.16028532 29:0.24697939 30:0.57308066 31:0.59678012 32:0.88257629 33:0.33529344 34:0.27806121 
0.6815761924492886 1:0.56579405 2:0.63979369 3:0.23904292 4:0.60619247 5:0.59571177 6:0.55856752 7:0.55520374 8:0.20817469 9:0.86413842 10:0.56259453 11:0.19017074 12:0.31640518 13:0.74652565 14:0.6100015 15:0.66668725 16:0.59702486 17:0.23364997 18:0.41556591 19:0.72518563 20:0.26291609 21:0.62129426 22:0.7239846 23:0.42502674 24:0.58947855 25:0.54231197 26:0.4929795 27:0.69680226 28:0.31556237 29:0.11920919 30:0.39009333 31:0.39388552 32:0.80232489 33:0.31584966 34:0.1852171 
1.801145795636127 1:0.39877251 2:0.56959927 3:0.44835183 4:0.65013695 5:0.27595681 6:0.72530609 7:0.99535817 8:0.60925639 9:0.57650268 10:0.56687617 11:0.55576569 12:0.61527598 13:0.29329458 14:0.7142418 15:0.48784828 16:0.52517682 17:0.75710416 18:0.42869037 19:0.38663936 20:0.39320707 21:0.46826494 22:0.5338251 23:0.40103218 24:0.6531539 25:0.41422516 26:0.48733652 27:0.56867892 28:0.24514261 29:0.28112057 30:0.51137286 31:0.43059731 32:0.79326797 33:0.20035769 34:0.23867044 
3.117693483294711 1:0.51545256 2:0.2114871 3:0.49483591 4:0.81506962 5:0.50607848 6:0.62136149 7:0.54801166 8:0.24106985 9:0.725748 10:0.91698259 11:0.38589737 12:0.47682551 13:0.64492065 14:0.55909008 15:0.16802664 16:0.42276201 17:0.30737603 18:0.41365966 19:0.39459652 20:0.5848369 21:0.63572711 22:0.51766908 23:0.41981751 24:0.53495592 25:0.62206614 26:0.63241798 27:0.75538903 28:0.3733108 29:0.33763844 30:0.63840878 31:0.23359078 32:0.64728022 33:0.16963993 34:0.20349124 
0.8269980701398226 1:0.60525125 2:0.50554091 3:0.43810055 4:0.42703474 5:0.32800326 6:0.27933353 7:0.84509522 8:0.40288547 9:0.62849444 10:0.54847324 11:0.48541498 12:0.66132915 13:0.51074499 14:0.56924558 15:0.5593946 16:0.550354 17:0.45684803 18:0.6673885 19:0.67621708 20:0.59690648 21:0.44012392 22:0.46906486 23:0.42305598 24:0.85599017 25:0.50748414 26:0.20845385 27:0.48654431 28:0.48018017 29:0.54875523 30:0.73114705 31:0.44453728 32:0.65676349 33:0.25792843 34:0.2349793 
1.120422619805063 1:0.6911906 2:0.46843231 3:0.53124303 4:0.0051326007 5:0.38845024 6:0.66866887 7:0.50245702 8:0.38725704 9:0.61364949 10:0.1643469 11:0.14441913 12:0.88800871 13:0.57633734 14:0.37123856 15:0.46836054 16:0.75321651 17:0.29038858 18:0.4438847 19:0.47853953 20:0.34688893 21:0.19828004 22:0.73757726 23:0.46040702 24:0.55542427 25:0.10375196 26:0.52405256 27:0.65076244 28:0.3093794 29:0.77607805 30:0.57450747 31:0.20606749 32:0.87719941 33:0.60654205 34:0.42118642 
1.74938481225609 1:0 2:0 3:0.41590849 4:0.33925736 5:0.10329276 6:0.309778 7:0.41184586 8:0.24814731 9:0 10:0.4186469 11:0.58949494 12:0.6484772 13:0.88936329 14:0.41616887 15:0.61107165 16:0.29658696 17:0.574745 18:0.46407232 19:0.54899514 20:0.30018196 21:0.50144255 22:0.78462565 23:0.59027964 24:0.54076338 25:0 26:0.40272564 27:0.64147043 28:0.10213365 29:0.33429858 30:0.52568018 31:0.35685435 32:0.94942302 33:0.6754511 34:0.55031323 
-7.224902382438686 1:0.66896766 2:0.79701948 3:0.81329226 4:0.4272542 5:0.21027049 6:0.42814201 7:0.87286872 8:0.56658465 9:0.41860676 10:0.70232469 11:0.4615548 12:0.4906821 13:0.64353395 14:0.27754629 15:0.55849797 16:0.5864951 17:0.68302041 18:0.45097706 19:0.48751816 20:0.53108084 21:0.38357908 22:0.95703495 23:0.6506272 24:0.35252786 25:0.50632447 26:0.671615 27:0.91298926 28:0 29:0.62025994 30:0.52262276 31:1 32:0.52020383 33:0.19482349 34:0.46769461 
-3.136416865904539 1:0.34318763 2:0.72290236 3:0.36473688 4:0.55175889 5:0.34165186 6:0.51155627 7:0.77318168 8:0.55445302 9:0.6947431 10:0.19065623 11:0.50200212 12:0.74382406 13:0.6272797 14:0.36805257 15:0.67471951 16:0.45332056 17:0.4830786 18:0.72999692 19:0.58256739 20:0.42970875 21:0.54911512 22:0.84984094 23:0.5725643 24:0.71305442 25:0.50321519 26:0.27645394 27:0.8374629 28:0.58594662 29:0.19445719 30:0.50929928 31:0.29118472 32:0.64084429 33:0.53677279 34:0.87617731 
-0.004721119504381712 1:0.45519507 2:0.6514383 3:0.59647936 4:0.31708544 5:0.33814731 6:0.53363806 7:0.55936414 8:0.46951941 9:0.56891835 10:0.56925058 11:0.31407955 12:0.72549832 13:0.47515553 14:0.65201646 15:0.54152346 16:0.45277318 17:0.44607517 18:0.15033001 19:0.61209071 20:0.48773366 21:0.95582074 22:0.592435 23:0.36010459 24:0.43474728 25:0.55536425 26:0.23891801 27:0.61205244 28:0.29056519 29:0.63133472 30:0.65762126 31:0.58582926 32:0.81492674 33:0.69577682 34:0.97119105 
-1.138872469043187 1:0.45519507 2:0.6514383 3:0.59647936 4:0.31708544 5:0.33814731 6:0.53363806 7:0.55936414 8:0.46951941 9:0.56891835 10:0.56925058 11:0.31407955 12:0.72549832 13:0.47515553 14:0.65201646 15:0.54152346 16:0.45277318 17:0.44607517 18:0.15033001 19:0.61209071 20:0.48773366 21:0.95582074 22:0.592435 23:0.36010459 24:0.43474728 25:0.55536425 26:0.23891801 27:0.61205244 28:0.29056519 29:0.63133472 30:0.65762126 31:0.58582926 32:0.81492674 33:0.69577682 34:0.97119105 
-0.0217763629033124 1:0.50989896 2:0.33965591 3:0.40067858 4:0.47017819 5:0.52590692 6:0.28350398 7:0.6050365 8:0.47380206 9:0.65621597 10:0.53996223 11:0.22693013 12:0.74756753 13:0.46673906 14:0.47303295 15:0.44974557 16:0.51467788 17:0.36484089 18:0.32117724 19:0.4010649 20:0.51501441 21:0.82853585 22:0.48455477 23:0.44229189 24:0.61026293 25:0.61330289 26:0.39829782 27:0.46552253 28:0.29179573 29:0.63427597 30:0.72720528 31:0.62320614 32:0.65350878 33:0.55715495 34:0.96988869 
-6.616269692790717 1:0.50989896 2:0.33965591 3:0.40067858 4:0.47017819 5:0.52590692 6:0.28350398 7:0.6050365 8:0.47380206 9:0.65621597 10:0.53996223 11:0.22693013 12:0.74756753 13:0.46673906 14:0.47303295 15:0.44974557 16:0.51467788 17:0.36484089 18:0.32117724 19:0.4010649 20:0.51501441 21:0.82853585 22:0.48455477 23:0.44229189 24:0.61026293 25:0.61330289 26:0.39829782 27:0.46552253 28:0.29179573 29:0.63427597 30:0.72720528 31:0.62320614 32:0.65350878 33:0.55715495 34:0.96988869 
-0.02193874390739746 1:0.42547008 2:0.67379093 3:0.51760012 4:0.62803817 5:0.67812055 6:0.45067814 7:0.57937151 8:0.45247501 9:0.72593778 10:0.55923831 11:0.38136014 12:0.51198637 13:0.66347611 14:0.30590904 15:0.83358526 16:0.61696768 17:0.67301005 18:0.50444651 19:0.45354748 20:0.34754968 21:0.46642455 22:0.64710438 23:0.59292018 24:0.52150327 25:0.65027595 26:0.34419221 27:0.61445487 28:0.51626766 29:0.3806318 30:0.65704447 31:0.5160358 32:0.562262 33:0.57174903 34:0.93875134 
-6.202131785741446 1:0.42547008 2:0.67379093 3:0.51760012 4:0.62803817 5:0.67812055 6:0.45067814 7:0.57937151 8:0.45247501 9:0.72593778 10:0.55923831 11:0.38136014 12:0.51198637 13:0.66347611 14:0.30590904 15:0.83358526 16:0.61696768 17:0.67301005 18:0.50444651 19:0.45354748 20:0.34754968 21:0.46642455 22:0.64710438 23:0.59292018 24:0.52150327 25:0.65027595 26:0.34419221 27:0.61445487 28:0.51626766 29:0.3806318 30:0.65704447 31:0.5160358 32:0.562262 33:0.57174903 34:0.93875134 
-0.004476814949571151 1:0.25460917 2:0.78291351 3:0.32954696 4:0.65859342 5:0.38130081 6:0.48556551 7:0.61370784 8:0.21384962 9:0.47470695 10:0.3276974 11:0.26368603 12:0.75832546 13:0.70000875 14:0.68172342 15:0.53446883 16:0.37909833 17:0.24864706 18:0.54436755 19:0.47807166 20:0.10525167 21:0.67599356 22:0.35334921 23:0.83943093 24:0.66653639 25:0.21209949 26:0.86420596 27:0.71623689 28:0.62430537 29:0.57342255 30:0.40231678 31:0.83577532 32:0.25102177 33:0.41465414 34:0.90047687 
-2.790839307698637 1:0.25460917 2:0.78291351 3:0.32954696 4:0.65859342 5:0.38130081 6:0.48556551 7:0.61370784 8:0.21384962 9:0.47470695 10:0.3276974 11:0.26368603 12:0.75832546 13:0.70000875 14:0.68172342 15:0.53446883 16:0.37909833 17:0.24864706 18:0.54436755 19:0.47807166 20:0.10525167 21:0.67599356 22:0.35334921 23:0.83943093 24:0.66653639 25:0.21209949 26:0.86420596 27:0.71623689 28:0.62430537 29:0.57342255 30:0.40231678 31:0.83577532 32:0.25102177 33:0.41465414 34:0.90047687 
-0.04924177266025664 1:0.8029424 2:0.59692127 3:0.21639772 4:0.20879197 5:0.19530173 6:0.45464128 7:0.18412443 8:0.5143503 9:0.82593644 10:0.43711248 11:0.57039171 12:0.61490029 13:0.83249289 14:0.269398 15:0.68169171 16:0.55755228 17:0.55994791 18:0.2893042 19:1 20:0.37339035 21:0.74643451 22:0.65974885 23:0.83259445 24:0.30999005 25:0.40058267 26:0.30819604 27:2.7379705e-16 28:0.4187001 29:0.41892478 30:0.75631511 31:0.66041744 32:0.37006068 33:0.077123903 34:0.62856948 
-0.8390787942928918 1:0.8029424 2:0.59692127 3:0.21639772 4:0.20879197 5:0.19530173 6:0.45464128 7:0.18412443 8:0.5143503 9:0.82593644 10:0.43711248 11:0.57039171 12:0.61490029 13:0.83249289 14:0.269398 15:0.68169171 16:0.55755228 17:0.55994791 18:0.2893042 19:1 20:0.37339035 21:0.74643451 22:0.65974885 23:0.83259445 24:0.30999005 25:0.40058267 26:0.30819604 27:2.7379705e-16 28:0.4187001 29:0.41892478 30:0.75631511 31:0.66041744 32:0.37006068 33:0.077123903 34:0.62856948 
-2.17682071331701 1:0.42955258 2:0.66938573 3:0.4463301 4:0.50265408 5:0.43921775 6:0.61767095 7:0.63265795 8:0.46814474 9:0.28317642 10:0.70026982 11:0.67681682 12:0.92011112 13:0.50092959 14:0.71017832 15:0.51707214 16:0.53637916 17:0.089878939 18:0.28200057 19:0.44189668 20:0.69489372 21:0.5595687 22:0.56615973 23:0.27962485 24:0.00081779389 25:0.54390085 26:1.2594179e-15 27:0.46789569 28:0.88842911 29:0.69503647 30:0.27151498 31:0.6024816 32:0.2257189 33:0.22049728 34:0.48662984 
-7.003738867366924 1:0.6791293 2:0.47079849 3:0.46860918 4:0.42053059 5:0.42543158 6:0.69238555 7:0.77535278 8:0.27975005 9:0.50943738 10:0.27858385 11:0.13243636 12:0.36261857 13:0.51767188 14:0.49586394 15:0.62007928 16:0.49810213 17:1 18:0.42953297 19:0.63572001 20:0.86421937 21:0.73800498 22:0.56990665 23:0.7897054 24:0.45611507 25:0.42066744 26:0.25052774 27:0.16712703 28:0.46961918 29:0.59706879 30:0.82006836 31:0.43667734 32:0.40779546 33:0.079389453 34:0.55057251 
-0.04669001455509912 1:0.63297212 2:0.68783146 3:0.58720386 4:0.55350882 5:0.46048069 6:0.31562254 7:0.40566093 8:0.12062857 9:0.66731185 10:0.76319772 11:0.44484684 12:0.28997958 13:0.30962309 14:0.57587469 15:0.46781525 16:0.68512332 17:0.59114677 18:0.71122831 19:0.65335476 20:0.4118104 21:0.2565257 22:0.79101235 23:0.24044204 24:0.62507206 25:0.43439975 26:0.3703019 27:0.3068288 28:0.27547863 29:0.78740537 30:0.37743771 31:0.41967279 32:0.50706643 33:0.41529053 34:0.62784719 
-2.325538756168583 1:0.63297212 2:0.68783146 3:0.58720386 4:0.55350882 5:0.46048069 6:0.31562254 7:0.40566093 8:0.12062857 9:0.66731185 10:0.76319772 11:0.44484684 12:0.28997958 13:0.30962309 14:0.57587469 15:0.46781525 16:0.68512332 17:0.59114677 18:0.71122831 19:0.65335476 20:0.4118104 21:0.2565257 22:0.79101235 23:0.24044204 24:0.62507206 25:0.43439975 26:0.3703019 27:0.3068288 28:0.27547863 29:0.78740537 30:0.37743771 31:0.41967279 32:0.50706643 33:0.41529053 34:0.62784719 
-10 1:0.63297212 2:0.68783146 3:0.58720386 4:0.55350882 5:0.46048069 6:0.31562254 7:0.40566093 8:0.12062857 9:0.66731185 10:0.76319772 11:0.44484684 12:0.28997958 13:0.30962309 14:0.57587469 15:0.46781525 16:0.68512332 17:0.59114677 18:0.71122831 19:0.65335476 20:0.4118104 21:0.2565257 22:0.79101235 23:0.24044204 24:0.62507206 25:0.43439975 26:0.3703019 27:0.3068288 28:0.27547863 29:0.78740537 30:0.37743771 31:0.41967279 32:0.50706643 33:0.41529053 34:0.62784719 
-0.001329230954667149 1:0.20417683 2:0.44827235 3:0.79545468 4:0.52020049 5:0.44701114 6:0.61054635 7:0.80439502 8:0.515284 9:0.92177552 10:0.76805234 11:0.37804067 12:0.90368235 13:0.4175818 14:0.54449403 15:0.29708755 16:0.36337715 17:0.79016137 18:0.58412373 19:0.77685672 20:0.15994568 21:0.42143968 22:0.50041586 23:0.64936513 24:0.26307091 25:0.60692602 26:0.1540314 27:0.36657706 28:0.22242841 29:0.72039998 30:0.44950566 31:0.29464343 32:0.59374636 33:0.34355471 34:0.71877396 
-0.1379431257760474 1:0.20417683 2:0.44827235 3:0.79545468 4:0.52020049 5:0.44701114 6:0.61054635 7:0.80439502 8:0.515284 9:0.92177552 10:0.76805234 11:0.37804067 12:0.90368235 13:0.4175818 14:0.54449403 15:0.29708755 16:0.36337715 17:0.79016137 18:0.58412373 19:0.77685672 20:0.15994568 21:0.42143968 22:0.50041586 23:0.64936513 24:0.26307091 25:0.60692602 26:0.1540314 27:0.36657706 28:0.22242841 29:0.72039998 30:0.44950566 31:0.29464343 32:0.59374636 33:0.34355471 34:0.71877396 
-0.002371769508947463 1:0.85025072 2:0.48158303 3:0.54892045 4:0.4379057 5:0.49908394 6:0.43011412 7:0.66269934 8:0.26620442 9:0.59795785 10:0.21270776 11:0.58106118 12:0.81963998 13:0.71812195 14:0.668374 15:0.61950827 16:0.31868932 17:0.51699138 18:0.94843507 19:0.47887677 20:0.10421531 21:0.78373998 22:0.91532737 23:0.42155004 24:0.63799554 25:0.78406018 26:0.3091602 27:0.48728257 28:0.4966166 29:0.4974151 30:0.29022565 31:0.27471843 32:0.47918707 33:0.094594598 34:0.5349738 
-5.738752442992845 1:0.85025072 2:0.48158303 3:0.54892045 4:0.4379057 5:0.49908394 6:0.43011412 7:0.66269934 8:0.26620442 9:0.59795785 10:0.21270776 11:0.58106118 12:0.81963998 13:0.71812195 14:0.668374 15:0.61950827 16:0.31868932 17:0.51699138 18:0.94843507 19:0.47887677 20:0.10421531 21:0.78373998 22:0.91532737 23:0.42155004 24:0.63799554 25:0.78406018 26:0.3091602 27:0.48728257 28:0.4966166 29:0.4974151 30:0.29022565 31:0.27471843 32:0.47918707 33:0.094594598 34:0.5349738 
-7.592340881314839 1:0.3024568 2:0.53078371 3:0.26466545 4:0.74611187 5:0.37321758 6:0.88702148 7:0.43622759 8:0.43732181 9:0.52838421 10:0.45313495 11:0.3175211 12:0.67033356 13:0.70638335 14:0.27007103 15:0.34779114 16:0.58545005 17:0.45522454 18:0.38810074 19:0.43340975 20:0.48043907 21:0.30963817 22:0.66198605 23:0.40761718 24:0.80712616 25:0.59159517 26:0.038146954 27:0.47964093 28:0.032033842 29:0.46101612 30:0.48671585 31:0.60038304 32:0.4998273 33:0.098535098 34:0.38793564 
-0.02340680959936727 1:0.34148344 2:0.51825935 3:0.54893947 4:0.082010694 5:0.59267956 6:0.51087248 7:0.38146013 8:0.42818564 9:0.39131832 10:0.27311906 11:0.1917485 12:0.740587 13:0.75077426 14:0.92260998 15:0.39496362 16:0.34135514 17:0.48346692 18:0.38543978 19:0.71465641 20:1 21:0.41383529 22:1 23:0.66377091 24:0.77640909 25:0.9033848 26:0.58404398 27:0.5137769 28:0.31067562 29:0.34240663 30:0.45139417 31:0.46233088 32:0.47240639 33:0.099041842 34:0.52614141 
-2.067980311826993 1:0.34148344 2:0.51825935 3:0.54893947 4:0.082010694 5:0.59267956 6:0.51087248 7:0.38146013 8:0.42818564 9:0.39131832 10:0.27311906 11:0.1917485 12:0.740587 13:0.75077426 14:0.92260998 15:0.39496362 16:0.34135514 17:0.48346692 18:0.38543978 19:0.71465641 20:1 21:0.41383529 22:1 23:0.66377091 24:0.77640909 25:0.9033848 26:0.58404398 27:0.5137769 28:0.31067562 29:0.34240663 30:0.45139417 31:0.46233088 32:0.47240639 33:0.099041842 34:0.52614141 
-1.58902383149177 1:0.21344686 2:0.62949246 3:0.27096191 4:0.11319994 5:0.44276369 6:0.34741458 7:0.64250118 8:0.37332994 9:0.31305021 10:0.38463065 11:0.46939334 12:0.64918214 13:0.61657298 14:0.12579718 15:0.57272875 16:0.7456162 17:0.93955767 18:0.33870453 19:0.25566959 20:0.49778378 21:0.72542268 22:0.43129465 23:0.43641055 24:0.42225561 25:0.63215512 26:0.51189095 27:0.36436012 28:0.32981655 29:0.54564697 30:0.32585835 31:0.16279201 32:0.54041767 33:0.14068234 34:0.74524254 
-7.728450937733521 1:0.27753586 2:0.62246877 3:0.38157672 4:0.39312258 5:0.44050291 6:0.62650859 7:0.49285409 8:0.39010605 9:0.6671499 10:0.65422356 11:0.17406444 12:0.58467048 13:0.36911568 14:0.21645392 15:0.68546152 16:0.32852742 17:0.51322192 18:0.75908327 19:0.86271888 20:0.52103972 21:0.39754802 22:0.59843624 23:0.15737888 24:0.51641297 25:0.10313017 26:0.36995125 27:0.5301773 28:0.55372471 29:0.70457381 30:0.56991708 31:0.3356736 32:0.45151943 33:0.17414138 34:0.55929971 
-0.009567344234011515 1:0.69889671 2:0.58855778 3:0.54708272 4:0.60663658 5:0.50862342 6:0.51189268 7:0.77109903 8:0.25277677 9:0.81277114 10:0.27506664 11:0.10767895 12:0.97409791 13:0.64725995 14:0.16051799 15:0.46840033 16:0.61037612 17:0.13285182 18:0.21424499 19:0.86895818 20:0.35228106 21:0.49588054 22:0.46090743 23:0.52267987 24:0 25:0.7288869 26:0.59425223 27:0.43916941 28:0.25735378 29:0.4108803 30:0.27883822 31:0.12593639 32:0.63984811 33:0.28463426 34:0.65585774 
-3.807940537696361 1:0.69889671 2:0.58855778 3:0.54708272 4:0.60663658 5:0.50862342 6:0.51189268 7:0.77109903 8:0.25277677 9:0.81277114 10:0.27506664 11:0.10767895 12:0.97409791 13:0.64725995 14:0.16051799 15:0.46840033 16:0.61037612 17:0.13285182 18:0.21424499 19:0.86895818 20:0.35228106 21:0.49588054 22:0.46090743 23:0.52267987 24:0 25:0.7288869 26:0.59425223 27:0.43916941 28:0.25735378 29:0.4108803 30:0.27883822 31:0.12593639 32:0.63984811 33:0.28463426 34:0.65585774 
-0.05429275513740211 1:0.46584737 2:0.3159951 3:0.576276 4:0.47505793 5:0.28837603 6:0.46184325 7:0.71492428 8:0.48372591 9:0.84780198 10:0.62129021 11:0.50540477 12:0.25558013 13:0.70703101 14:0.51693523 15:0.69327712 16:0.8378787 17:0.2774913 18:0.73786128 19:0.5239343 20:0.75926799 21:0.74529749 22:0.48605624 23:0.35604924 24:0.43612379 25:0.36637563 26:0.37895566 27:0.79045635 28:0.41294333 29:0.24004826 30:0.37646702 31:0.2969605 32:0.55845779 33:0.021211751 34:0.49206451 
-4.283057658885305 1:0.46584737 2:0.3159951 3:0.576276 4:0.47505793 5:0.28837603 6:0.46184325 7:0.71492428 8:0.48372591 9:0.84780198 10:0.62129021 11:0.50540477 12:0.25558013 13:0.70703101 14:0.51693523 15:0.69327712 16:0.8378787 17:0.2774913 18:0.73786128 19:0.5239343 20:0.75926799 21:0.74529749 22:0.48605624 23:0.35604924 24:0.43612379 25:0.36637563 26:0.37895566 27:0.79045635 28:0.41294333 29:0.24004826 30:0.37646702 31:0.2969605 32:0.55845779 33:0.021211751 34:0.49206451 
