svm_type c_svc
kernel_type rbf
gamma 0.09
nr_class 3
total_sv 56
rho 0.00103415 -0.194622 0.226845
label 130010201 130010202 130010203
probA -3.5439 -3.57785 -3.56169
probB -0.136116 0.0637892 0.0969605
nr_sv 18 19 19
SV
0.7876853235610074 2.516977862775989 1:0.3040455 2:0.74058527 3:0.54419965 4:0.055244412 5:0.58898449 6:0.80743068 7:0.60194421 8:0.85034335 9:0.63404465 10:1 11:0.38801458 12:0.48729435 13:0.31598231 14:0.60442883 15:0.66789657 16:0.27443621 17:0.37850052 18:0.18614291 19:0.36141023 20:0.66064733 21:0.31567281 22:0.26313153 23:0.75159872 
0 1.645092109054629 1:0.76729774 2:0.54486227 3:0.38594115 4:0.65201223 5:0.29672551 6:0.52541953 7:6.2276594e-16 8:0.58438021 9:0.50242144 10:0.5365898 11:0.78660738 12:0.63477176 13:0.63874 14:0.48461756 15:0.20877112 16:0.35801631 17:0.77157027 18:0.27078462 19:0.48018187 20:0.50238526 21:0.31933603 22:0.12638305 23:0.66075689 
2.2452889977684 0 1:0.48275101 2:0.84479415 3:0.21239166 4:0.72804689 5:0.28548297 6:0.60136348 7:0.48103091 8:0.025079273 9:0.67755371 10:0.25093424 11:0.48911691 12:0.28131887 13:0.37695131 14:0.41625136 15:0.33345321 16:0.060757846 17:0.55230659 18:0.28247252 19:0.49092147 20:0.45658031 21:0.047078453 22:0.064534403 23:0.71716279 
0 5.186764850229293 1:0.87504709 2:1 3:0.34093246 4:0.49413893 5:0.41804731 6:0.79134107 7:0.51583868 8:0.27857673 9:0.39335832 10:0.3914769 11:0.72905272 12:0.55373728 13:0.39056635 14:1 15:0.69861633 16:0.036169004 17:0.21414255 18:0.28524739 19:0.53480059 20:0.49278301 21:0.34411147 22:0.1547628 23:0.72588396 
0 1.487174314264273 1:0.69552404 2:0.30713633 3:0.19904231 4:0.64644367 5:0.81945789 6:0.47042376 7:0.37827089 8:0.25079316 9:0.35245043 10:0.40196905 11:0.44393626 12:0.73756009 13:0.47754487 14:0.58613908 15:0.62226176 16:0.59633338 17:0.62888008 18:0.43672609 19:0.42925259 20:0.39371178 21:0.20679277 22:0.18333079 23:0.7182886 
1.021291021830822 2.087034811417443 1:0.79254651 2:0.47854343 3:0.15443258 4:0.55324942 5:0.38302246 6:0.31403711 7:0.43394238 8:0.7610656 9:0.65703958 10:0.43231478 11:0.58324116 12:0.94854194 13:0.67433494 14:0.52928859 15:0.35408083 16:0.93523139 17:0.24305394 18:0.13198264 19:1 20:0.49915889 21:0.62256724 22:0.24106318 23:0.51023024 
0 3.630204363671556 1:0.53067052 2:0.81936389 3:0.86832458 4:0.25911656 5:0 6:0.96194744 7:0.28090847 8:0.2682952 9:0.70867765 10:0.59224844 11:0.55559415 12:0.64471799 13:0.51907688 14:0.41519603 15:0.10678779 16:0.34933317 17:0.58198005 18:0.28525954 19:0.43514982 20:0.58473426 21:0.23327135 22:0.18403152 23:0.74281651 
2.379861650319565 0 1:0.58476222 2:0.46048424 3:0.69915634 4:0.57027233 5:0.13885915 6:0.83434397 7:0.60155261 8:0.69122767 9:0.80652982 10:0.21819203 11:0.69758666 12:0.45407656 13:0.88505304 14:0.60242146 15:0.42180058 16:0.044446908 17:0.48478997 18:1.2435643e-16 19:0.49747324 20:0.33788723 21:1 22:0.20399922 23:0.36679956 
0 5.119052088659028 1:0.86154485 2:0.43660286 3:0.63048786 4:0.67152774 5:0.73556715 6:0.64985973 7:0.47130367 8:0.50400811 9:0.65985727 10:0.69909966 11:0.40342411 12:0.64618939 13:0.67519379 14:0.65923661 15:0.554371 16:0.48962206 17:0.65513992 18:0.30240858 19:0.33357558 20:0.406703 21:0.12170956 22:0.19146781 23:0.68649137 
2.65578708790484 0 1:0.41983312 2:0.10302514 3:0.43857875 4:0.95574063 5:0.46980315 6:0.60801333 7:0.38418233 8:0.33940056 9:0.58446503 10:0.63045967 11:0.73741424 12:0.33535916 13:0.56589448 14:0.68879503 15:0.50313926 16:0.25612491 17:0.6429897 18:0.26401451 19:0.6221332 20:0.5800603 21:0.054550137 22:0.085494705 23:0.66270363 
6.167291678854717 0 1:0.70125204 2:0.45834136 3:0.42699748 4:0.3220906 5:0.40685108 6:0.3445093 7:0.57485586 8:0.26881325 9:0.93198603 10:0.40683302 11:0.50313038 12:0.3025417 13:0.43603498 14:0.42317772 15:0.29972419 16:0.42516851 17:0.63293731 18:0.040792931 19:0.48506919 20:0.32315871 21:0.40553993 22:0.17723621 23:0.53421932 
0.6184201019634241 4.185003735143257 1:0.78847635 2:0.44178814 3:0.43332201 4:0.29482222 5:0.24340899 6:0.50351602 7:0.5350945 8:0.24079116 9:0.74826717 10:0.67170864 11:0.45073143 12:0.046371974 13:0.32578862 14:7.0013044e-17 15:0.06701386 16:0.41007155 17:0.41690254 18:0.32190868 19:0.56960291 20:0.6757217 21:0.22431962 22:0.14534618 23:0.70360005 
0 1.396086339063555 1:0.37525517 2:0.74406636 3:0.66353482 4:0.8453927 5:0.18909052 6:0.62533706 7:0.29868951 8:0.24896288 9:0.73791981 10:0.56726205 11:0.51099956 12:0.96010983 13:0.36461323 14:0.46816343 15:0.12850983 16:0.68704003 17:0.20487642 18:0.24684364 19:0.86214864 20:0.4219031 21:0.14776026 22:0.16888906 23:0.70081931 
5.422295469775601 2.63483264380085 1:0.43417048 2:0.29438019 3:0.36467263 4:0.46607298 5:0.61663443 6:0.66771233 7:0.41565579 8:0.09218356 9:0.088021152 10:0.28868908 11:1 12:0.94240588 13:0.83266562 14:0.18617505 15:0.7110728 16:0.70180625 17:0.49803674 18:0.15684173 19:0.53315759 20:0 21:0.71405059 22:0.35088858 23:0.35313001 
0.9295550057950592 0.182284963125172 1:0.75096351 2:0.21097793 3:0.26084083 4:0.26300856 5:0.32684329 6:0.55077368 7:0.41660771 8:0.55835533 9:0.57226819 10:0.55121052 11:0.47378832 12:0.42356488 13:0.89255548 14:0.70096534 15:0.58568943 16:0.83586067 17:0.87212777 18:0.40687466 19:0.70098382 20:0.55450439 21:0.093264192 22:0.17628878 23:0.6956495 
1.4032960330053 0 1:0.58873641 2:0.5745095 3:0.55569142 4:0.39961332 5:0.51245385 6:0.69910991 7:0.62176287 8:0.91654307 9:0.37004414 10:0.4410502 11:0.61643052 12:0.36614028 13:0.28271046 14:0.50211215 15:0.84538895 16:0.63835084 17:0.4046464 18:0.42369604 19:0.17729566 20:0.52707362 21:0.35060546 22:0.22820765 23:0.65185535 
4.227193688260499 0.3339139522594337 1:0.20473954 2:0.69919568 3:0.61830503 4:0.51522529 5:0.4218117 6:0.68135333 7:0.34008083 8:0.72605217 9:0.82448852 10:0.54748267 11:0.62027961 12:0.29543966 13:0.31198835 14:0.4054783 15:0.58404517 16:0.64936793 17:0.62910801 18:0.41400224 19:0.30441588 20:0.40259689 21:0.26366714 22:0.2400402 23:0.63385171 
0 5.187690739079613 1:0.050353635 2:0.60068411 3:0.63179439 4:0.5390898 5:0.88868952 6:0.66797215 7:0.65757132 8:0.49659652 9:0.88909054 10:0.50134867 11:0.63312936 12:0.40470365 13:0.50373721 14:0.67683232 15:0.67535931 16:0.31145063 17:0.1641245 18:0.30539176 19:0.29949164 20:0.38935235 21:0.29762441 22:0.24176578 23:0.6870417 
-0.1546620894150906 0 1:0.46724349 2:0.57887733 3:0.30926475 4:0.41918528 5:0.39537153 6:0.49275276 7:1 8:0.10280219 9:0.60146457 10:0.3809669 11:0.51265758 12:0.30955765 13:0.27781674 14:0.47989079 15:0.41078973 16:0.4483217 17:0.84301323 18:0.18968685 19:0.94027907 20:0.36640608 21:0.4412556 22:0.59146339 23:0.10526108 
-0.008149946084791772 0 1:0.53145587 2:0.36843237 3:0.45403939 4:0.31939802 5:0.046263169 6:0.50095564 7:0.22222371 8:1 9:0.067787163 10:0.48296234 11:0.55833822 12:0.54193628 13:0 14:0.6623345 15:0.51541615 16:0 17:0.35076067 18:0.17040265 19:0.74971539 20:0.58970839 21:0.40795347 22:0.61614066 23:0.11535066 
-0.05906517885583187 0 1:0.60607803 2:0.99880528 3:0.33884853 4:0.68943459 5:0.63925695 6:0.58742136 7:0.40668675 8:0.54644156 9:0.082640685 10:0.49863821 11:0.5545786 12:0 13:0.91505229 14:0.45723101 15:0.30837926 16:0.61771059 17:0.28762406 18:0.19227931 19:0.27369186 20:0.63626027 21:0.19445173 22:0.59365004 23:0 
-0.3815415508659743 0 1:0.50050503 2:0.55530959 3:0.45273873 4:0.54063994 5:0.07562162 6:0.46493343 7:0.40769142 8:0.92542905 9:0.92775482 10:0.48908812 11:0.83794278 12:0.54703277 13:0.46579525 14:0.35477585 15:0.61664993 16:0.56750798 17:0.50485253 18:0.24376455 19:0.072358705 20:0.45276749 21:0.11995394 22:0.60779744 23:0.02266054 
-0.19199939104234 0 1:0.77834719 2:0 3:0.51092166 4:0.29072154 5:0.75832278 6:0.66904682 7:0.23437761 8:4.6755186e-16 9:0.33236402 10:0.45875615 11:0.83095288 12:0.4403438 13:0.34629792 14:0.36097941 15:0.55366898 16:0.21057416 17:0.405 18:0.29298639 19:0.60354972 20:0.55780166 21:0.16055451 22:0.62802607 23:0.063218243 
-0.1734296323524156 0 1:0.74895895 2:0.46016341 3:0.91345125 4:0.58070344 5:0.55546671 6:0.33826205 7:0.49939105 8:0.40652043 9:0.90165037 10:0.32218811 11:0.78242838 12:0.41350925 13:0.55826193 14:0.49802449 15:0.35592952 16:0.51472795 17:0.26827171 18:0.26807487 19:0.28246468 20:0.49343365 21:0.084058717 22:0.59057635 23:0.0053764037 
-0 0.2141103944166112 1:0.82231194 2:0.64196193 3:1 4:0.42574966 5:0.51870823 6:0.65966862 7:0.37939182 8:0.52458006 9:0.5647794 10:0.32785401 11:0.22397162 12:0.50683481 13:0.46442005 14:0.70903069 15:0.30959973 16:0.51652628 17:0.77072859 18:0.31381238 19:0.76684099 20:0.52654445 21:0.28416264 22:0.65327799 23:0.098149016 
-6.788628908971273 2.756247937639755 1:0.46724349 2:0.57887733 3:0.30926475 4:0.41918528 5:0.39537153 6:0.49275276 7:1 8:0.10280219 9:0.60146457 10:0.3809669 11:0.51265758 12:0.30955765 13:0.27781674 14:0.47989079 15:0.41078973 16:0.4483217 17:0.84301323 18:0.18968685 19:0.94027907 20:0.36640608 21:0.4412556 22:0.59146339 23:0.10526108 
-2.425854213639838 3.57656792490991 1:0.39378199 2:0.44311446 3:0.54981965 4:0.55342084 5:0.56129313 6:0.46093103 7:0.38776243 8:0.70255291 9:0.68941689 10:0.43655577 11:0.64799887 12:0.74102938 13:0.3694869 14:0.17808551 15:0.68060619 16:0.017506974 17:0.79787409 18:0.35056743 19:0.2530359 20:0.51182449 21:0.20558366 22:0.6641854 23:0.13825087 
-3.094202517834351 2.309707626754312 1:0.22395787 2:0.45554948 3:0.3839727 4:0.638322 5:0.34103543 6:0.81000203 7:0.26214692 8:0.56386238 9:0.43101102 10:0.22327194 11:0 12:0.5832271 13:0.82827801 14:0.41924471 15:0.4309935 16:0.63298607 17:1 18:0.097856365 19:0.21126428 20:0.55517066 21:0.28874761 22:0.72170174 23:0.13376258 
-1.089527590292464 2.607416843228058 1:0.53145587 2:0.36843237 3:0.45403939 4:0.31939802 5:0.046263169 6:0.50095564 7:0.22222371 8:1 9:0.067787163 10:0.48296234 11:0.55833822 12:0.54193628 13:0 14:0.6623345 15:0.51541615 16:0 17:0.35076067 18:0.17040265 19:0.74971539 20:0.58970839 21:0.40795347 22:0.61614066 23:0.11535066 
-2.236819461653894 0 1:0.59254616 2:0.69909966 3:0.39612037 4:0.46964961 5:0.37712818 6:0.84317452 7:0.29380715 8:0.77060103 9:0.7310707 10:0.40890327 11:0.9971056 12:0.49556816 13:0.91979581 14:0.36831906 15:0.4498938 16:0.14467126 17:0.73133457 18:0.45446116 19:0.61428154 20:0.37842435 21:0.10621054 22:0.64403325 23:0.072790548 
-0.0537083785769738 1.209414291330976 1:0.60607803 2:0.99880528 3:0.33884853 4:0.68943459 5:0.63925695 6:0.58742136 7:0.40668675 8:0.54644156 9:0.082640685 10:0.49863821 11:0.5545786 12:0 13:0.91505229 14:0.45723101 15:0.30837926 16:0.61771059 17:0.28762406 18:0.19227931 19:0.27369186 20:0.63626027 21:0.19445173 22:0.59365004 23:0 
-3.615057794511156 3.559285201402076 1:0.27900013 2:0.49717498 3:0.46574542 4:0.59408587 5:0.07867945 6:0.40737298 7:0.52823675 8:0.27492031 9:0.74563253 10:0.5116725 11:0.84986818 12:0.27753869 13:0.86372179 14:0.71138841 15:0.52670169 16:0.65032411 17:0.14522989 18:0.2536172 19:0.48337623 20:0.41210648 21:0.11683024 22:0.60531992 23:0.035827994 
-0 1.246953188051139 1:0.47932127 2:0.62735105 3:0.48637524 4:0.58994198 5:0.14751989 6:0.80491209 7:0.62867695 8:0.37052342 9:0.81631136 10:0.80684078 11:0.68504918 12:0.46748596 13:0.45887637 14:0.72290272 15:0.46058172 16:0.42929393 17:0.95761687 18:0.39473087 19:0.78783953 20:0.41150111 21:0.20444304 22:0.63995945 23:0.098778628 
-1.244652753277109 0 1:0.50050503 2:0.55530959 3:0.45273873 4:0.54063994 5:0.07562162 6:0.46493343 7:0.40769142 8:0.92542905 9:0.92775482 10:0.48908812 11:0.83794278 12:0.54703277 13:0.46579525 14:0.35477585 15:0.61664993 16:0.56750798 17:0.50485253 18:0.24376455 19:0.072358705 20:0.45276749 21:0.11995394 22:0.60779744 23:0.02266054 
-2.821300920027954 2.231808657748573 1:0.77834719 2:0 3:0.51092166 4:0.29072154 5:0.75832278 6:0.66904682 7:0.23437761 8:4.6755186e-16 9:0.33236402 10:0.45875615 11:0.83095288 12:0.4403438 13:0.34629792 14:0.36097941 15:0.55366898 16:0.21057416 17:0.405 18:0.29298639 19:0.60354972 20:0.55780166 21:0.16055451 22:0.62802607 23:0.063218243 
-1.4690602441275 0 1:0.74895895 2:0.46016341 3:0.91345125 4:0.58070344 5:0.55546671 6:0.33826205 7:0.49939105 8:0.40652043 9:0.90165037 10:0.32218811 11:0.78242838 12:0.41350925 13:0.55826193 14:0.49802449 15:0.35592952 16:0.51472795 17:0.26827171 18:0.26807487 19:0.28246468 20:0.49343365 21:0.084058717 22:0.59057635 23:0.0053764037 
-2.050305487510273 3.006758083710912 1:0.84134543 2:0.75349492 3:0.31711936 4:0.70986086 5:0.38867697 6:0.76906598 7:0.39200741 8:0.38162622 9:0.54377371 10:0.62077343 11:0.51422727 12:0.63644075 13:0.27665609 14:0.36507115 15:0.56976032 16:0.67624474 17:0.28568733 18:0.15536988 19:0.14700525 20:0.58411384 21:0.24387513 22:0.60775584 23:0.016108194 
-0.898350663014199 -1.432911460954829 1:0.044962876 2:0.3458581 3:0.51096272 4:0.64163935 5:0.33865854 6:0.47989103 7:0.1033895 8:0.060119018 9:0.51349765 10:0.60559338 11:0.096844323 12:0.68470299 13:0.55920488 14:0.55448949 15:0.13155402 16:0.23087724 17:0 18:1 19:0.11356851 20:0.39521214 21:0.80789816 22:1 23:0.55979824 
-4.148707935807824 -0 1:0.63486654 2:0.54538566 3:0.84172034 4:0.50094938 5:0.42764872 6:0.90885651 7:0.68905818 8:0.38376963 9:0.61291039 10:0.55173594 11:0.73379618 12:0.49871528 13:0.55119216 14:0.29092041 15:0.17946665 16:0.77820641 17:0.52188706 18:0.36917529 19:0.40452111 20:0.44614139 21:0.25156933 22:0.76804751 23:0.90723747 
-1.839345493596842 -0 1:0.46120232 2:0.56754941 3:0.45407826 4:0.66462284 5:0.45323691 6:0.41542041 7:0.7374751 8:0.51860106 9:0.27849808 10:0.60677058 11:0.53515041 12:0.55817127 13:0.5737409 14:0.3584266 15:0.33980829 16:0.5034135 17:0.4278771 18:0.15451258 19:0.27586642 20:0.38190383 21:0.10851379 22:0.76922935 23:0.86999059 
-1.244964301198693 -3.67442571392926 1:0.80559301 2:0.50859571 3:0.41354966 4:0.48068962 5:0.52595037 6:0 7:0.67216355 8:0.6212756 9:0.82835567 10:0.34893364 11:0.6012159 12:0.45068735 13:0.23521237 14:0.39458409 15:0.54084039 16:0.36047825 17:0.50280523 18:0.22376987 19:0.46834147 20:0.66664797 21:0.49642777 22:0.84199059 23:0.79828978 
-3.190679918304582 -3.400720248233716 1:0.68466818 2:0.86557186 3:0.42548782 4:0.53534442 5:0.44657832 6:0.93415642 7:0.24478924 8:0.024131835 9:0.71696544 10:0.93240094 11:0.98288155 12:0.35104841 13:0.4680106 14:0.46268651 15:0.70515102 16:0.71719223 17:0.62873566 18:0.15905513 19:0.2425433 20:0.32304922 21:0.97403598 22:0.86419153 23:0.58108276 
-0 -0.9371169333273464 1:0.42491296 2:0.37712696 3:0.42789033 4:0.050340723 5:0.29154819 6:0.80181253 7:0.21978492 8:0.63604504 9:0.60765445 10:0.21821545 11:0.789316 12:0.13015635 13:0.13678412 14:0.53668898 15:0.43664095 16:0.75622517 17:0.52556926 18:0.32644722 19:0.26366216 20:0.14031859 21:0.21753499 22:0.81702763 23:0.86925226 
-0 -1.362105495269973 1:0.66245157 2:0.4323729 3:0.029802762 4:0.63116002 5:0.28195399 6:0.67165864 7:0.059405722 8:0.47403687 9:0.85255021 10:0.43843535 11:0.53200459 12:0.14500371 13:0.43493727 14:0.56809545 15:0.41493559 16:0.30883229 17:0.70557833 18:0.17676741 19:0.24812429 20:0.61375177 21:0.40136936 22:0.79077011 23:0.80635273 
-0.5081625554473447 -0.8189353318825847 1:1 2:0.6630044 3:5.7877454e-16 4:0.26248664 5:0.065358594 6:0.42221794 7:0.93344373 8:0.48969921 9:0.65557557 10:0.61834979 11:0.54916739 12:0.67780089 13:0.79963732 14:0.29464257 15:0.1241584 16:0.11513435 17:0.46990669 18:0.6106348 19:0.048728865 20:0.5024097 21:0.52705169 22:0.93365604 23:0.70982534 
-4.287315890043132 -0 1:0.59392565 2:0.5826202 3:0.49935091 4:0.41779739 5:0.43105868 6:0.66030765 7:0.40888119 8:0.12461219 9:0.43474096 10:0.37767836 11:0.89073986 12:0.65421772 13:0.45301953 14:0.72929633 15:0.36833358 16:0.55617839 17:0.67485172 18:0.21368375 19:0.15835562 20:0.99341476 21:0.34639108 22:0.72311676 23:0.8896873 
-1.931371733525086 -0 1:0.66543657 2:0.65397567 3:0.54062432 4:0.50194705 5:0.2967498 6:0.6766721 7:0.28048426 8:0.28673562 9:0.88075131 10:0.49569255 11:0.3897627 12:0.46063221 13:0.76457518 14:0.11125199 15:0.96380895 16:0.31808865 17:0.35595766 18:0.2384654 19:0.86601919 20:0.65970784 21:0.21757853 22:0.81001788 23:0.99632174 
-0.9863095600227153 -0.4954824712678274 1:0.69809276 2:0.65687639 3:0.45600775 4:0.99022543 5:0.1777472 6:0.63732219 7:0.69427013 8:0.52103335 9:0.22586404 10:3.0049089e-16 11:0.7887575 12:0.082896613 13:0.23127122 14:0.55547053 15:0.7275399 16:0.40299755 17:0.49972239 18:0.51722336 19:0.60500318 20:0.53399205 21:0.23145923 22:0.75330687 23:0.9155919 
-0 -0.5466188482495681 1:1.8433523e-16 2:0.79591048 3:0.46255532 4:0.62524194 5:1 6:0.62389052 7:0.51963359 8:0.65596223 9:0.71662295 10:0.12713562 11:0.71253037 12:0.53930712 13:0.42741126 14:0.34645137 15:0.23315515 16:0.3857168 17:0.68679881 18:0.35221905 19:0.56582981 20:0.51553315 21:0.35633409 22:0.83059925 23:0.8794378 
-10 -0.6295287269651821 1:0.72522306 2:0.79478502 3:0.3995873 4:0.27039844 5:0.80636454 6:0.67795211 7:0.3051852 8:0.54899317 9:0.72587866 10:0.46428567 11:0.46338588 12:0.59812307 13:0.54613853 14:0.83252549 15:0.42257717 16:0.21692926 17:0.23182234 18:0.10380282 19:0.6379813 20:0.36984584 21:0.095763937 22:0.70223361 23:0.87534767 
-0 -3.254946273232194 1:0.48312232 2:0.30305961 3:0.66637486 4:0.40872413 5:0.20514806 6:0.67375773 7:0.5645566 8:0.13688165 9:0.30354321 10:0.4472073 11:0.61441159 12:0.68106264 13:0.80816883 14:0.34992522 15:0.45850334 16:0.53522283 17:0.37231639 18:0.18542784 19:0.68192989 20:0.47111258 21:2.2501128e-16 22:0.8259899 23:0.88951147 
-1.11442111780824 -0 1:0.22670284 2:0.53456205 3:0.57185906 4:0.5574342 5:0.36389863 6:0.49233696 7:0.56285459 8:0.43581051 9:0.41325235 10:0.66198885 11:0.79774445 12:0.837125 13:0.30577317 14:0.42748386 15:0.30827662 16:0.40131465 17:0.48293653 18:0.11529938 19:0.46286374 20:0.32477033 21:0.048663367 22:0.79178107 23:0.921507 
-0 -3.614357130804458 1:0.2387975 2:0.5962742 3:0.4201766 4:0.80882531 5:0.36869201 6:0.38896924 7:0.39669839 8:0.48222056 9:0.014236681 10:0.63087362 11:0.68117368 12:0.73398876 13:0.27802813 14:0.5725621 15:0.34315228 16:0.23192775 17:0.64303821 18:0.05948196 19:0.44667536 20:0.32933572 21:0.077491038 22:0.85492492 23:0.80026847 
-4.525935669626566 -1.89326061727202 1:0.54875088 2:0.16223 3:0.3508212 4:1 5:0.37410104 6:0.75259286 7:0.24052094 8:0.55962479 9:0.62010002 10:0.65180445 11:0.33734226 12:0.18170102 13:0.51575887 14:0.66356689 15:0.16833259 16:0.27115759 17:0.21791667 18:0.16851324 19:0.64967847 20:0.26511642 21:0.20563127 22:0.6511789 23:0.80090719 
-0 -0.6578608978033671 1:0.6297574 2:0.602727 3:0.50910294 4:0.68545699 5:0.1974083 6:0.72297472 7:0.60115182 8:0.72598439 9:0.12403513 10:0.31926098 11:0.50043863 12:0.31142753 13:1 14:0.47123477 15:0.91205209 16:0.49452189 17:0.51230496 18:0.3281244 19:0.56063855 20:0.47384015 21:0.23835954 22:0.91782373 23:0.90968812 
-0.9165479341488679 -0 1:0.44451353 2:0.41718775 3:0.63124621 4:0.59012091 5:0.21280445 6:0.57126743 7:0.73705041 8:0.41974711 9:0.019347111 10:0.71290302 11:0.70038736 12:0.73473847 13:0.68796456 14:0.27544388 15:0.49996394 16:0.46647954 17:0.69767481 18:0.12868449 19:0.37126464 20:0.55591309 21:0.15465319 22:0.82712543 23:0.89450163 
