svm_type c_svc
kernel_type rbf
gamma 0.09
nr_class 2
total_sv 37
rho -1.2733
label 130180101 130180102
probA -4.31503
probB 0.0653251
nr_sv 16 21
SV
6.671647050656884 1:0.92455584 2:0.53272158 3:0.76435697 4:0.4471384 5:0.44129255 6:0.56028897 7:0.41033682 8:0.43292162 9:0.34040093 10:0.61306185 11:0.086237028 12:0.43308046 13:0.36642861 14:0.099962838 15:0.79042184 16:0.79237306 17:0.81896222 18:1 19:0.49763745 20:2.3558959e-16 21:0.5788883 22:0.39395609 23:0.76253992 24:0.62542552 
1.008122310910528 1:0.43778276 2:0.11159097 3:0.42706487 4:0.76295125 5:0.066082336 6:0.36395001 7:0.39618778 8:0.53508586 9:0.44044295 10:0.21512629 11:0.44309476 12:0.55798835 13:0.34787765 14:0.27875626 15:9.2011379e-16 16:0.69022214 17:0.34451947 18:0.88358706 19:0.47733331 20:0.30414119 21:0.57005602 22:0.3321262 23:0 24:0.29518336 
4.540496801199373 1:0.21962564 2:0.45418945 3:0.40285054 4:0.46709567 5:0.47290656 6:0.59674513 7:0.48471045 8:1 9:0.41258982 10:0.80411506 11:0.060629696 12:0.5354256 13:0.26003277 14:0.50867468 15:0.65364659 16:0 17:0.37711456 18:0.63079858 19:0.17546216 20:0.44752944 21:0.65310895 22:0.2781553 23:0.25861642 24:0.23673537 
4.18729227965877 1:0.77860385 2:0.43417725 3:0.40246332 4:0.70858115 5:0.3138923 6:0.34418005 7:0.16571797 8:0.20137365 9:0.092653327 10:0.84887046 11:0.48175257 12:0.86606205 13:0.13896473 14:0.43287143 15:1 16:0.39979401 17:0.21328574 18:0.45044607 19:0.37901413 20:0.72188491 21:0.76816356 22:0.37897336 23:0.1358896 24:0.22490329 
1.868253886112665 1:0.55188036 2:0.81245786 3:0.49267006 4:0.48632443 5:0.8596524 6:0.2063664 7:0.45881116 8:0.59135801 9:0.97418672 10:0.69221324 11:0.32421926 12:0.41437408 13:0.17491868 14:0.31548709 15:0.52841711 16:1 17:0.38070634 18:0.24313059 19:0.25093564 20:0.39546296 21:0.28261808 22:0.24451447 23:0.056971807 24:0.26900896 
3.175764584427306 1:0.35111389 2:0.76131958 3:0.5592497 4:0.36972836 5:0.89782822 6:0.19483565 7:0.540326 8:0 9:0.48656738 10:0.13151032 11:0.86962295 12:1 13:0.38519165 14:0.27988091 15:0.46229333 16:0.20252773 17:0.68349969 18:0.60537243 19:0.39853233 20:0.43933526 21:0.83342141 22:0.22018485 23:0.22214046 24:0.34320211 
4.446051208239253 1:0.58360791 2:0.64222991 3:0.14946011 4:0.2846477 5:0.23887436 6:0.95963633 7:0.82344466 8:0.60221833 9:0.82200122 10:0.3043291 11:0.97276169 12:0.29545882 13:0.27774262 14:0.44310617 15:0.92644387 16:0.32906207 17:0.43915159 18:0.7354874 19:0.45692816 20:0.15597755 21:0.39057487 22:0.24791218 23:0.21380581 24:0.30041379 
0.8073536347098998 1:0.39960679 2:0.56441617 3:0.42473027 4:0.32279432 5:0.44301555 6:0.56866986 7:0.79011184 8:0.4977738 9:0.13576421 10:0.66998297 11:0.72371656 12:0 13:0.13739103 14:0.24125016 15:0.29182237 16:0.64784473 17:0.49306056 18:0.27843979 19:0.72967988 20:0.91128677 21:1 22:0.34229034 23:0.84744489 24:0.014030309 
1.934878153197723 1:0.65304935 2:0.37389511 3:0.44133329 4:0.3825047 5:0.63800561 6:0.32704389 7:0.67364234 8:0.5740397 9:7.0925854e-16 10:0.43587264 11:0.31677535 12:0.71189249 13:0.28766367 14:0.35421917 15:0.42304131 16:0.32693946 17:0.59810394 18:0.42008269 19:0.49632308 20:0.27302632 21:6.6970655e-16 22:0.10522511 23:0.83302623 24:0.026089739 
3.470526481095281 1:0.56693804 2:0.64501256 3:0.35736579 4:0.62420881 5:0.21423991 6:0.50774288 7:0.32079434 8:0.54286802 9:0.43636569 10:0 11:0.11132737 12:0.68828112 13:0.046269316 14:0.14572071 15:0.71451414 16:0.45617989 17:0.63672739 18:0 19:0.1762297 20:0.68012947 21:0.19626918 22:0.21485014 23:0.79496306 24:0.092016831 
0.4836300701007807 1:0.075969726 2:0.16340975 3:0.79183435 4:0.73938084 5:0.48230973 6:0.575414 7:0.042560078 8:0.21168776 9:0.74998486 10:0.50551981 11:0.82988936 12:0.1992425 13:0.12834738 14:0.31144193 15:0.79382735 16:0.34497365 17:0.45221943 18:0.5671922 19:0.62528533 20:0.36571681 21:0.21493454 22:0.2872633 23:0.8810764 24:2.598237e-16 
5.174962650478638 1:0.56025153 2:0.1484718 3:0.43919465 4:0.32257888 5:0.63379228 6:0.54532421 7:0.77278286 8:0.15721488 9:0.65975404 10:0.48848587 11:0.10738368 12:0.66395777 13:0.30790731 14:1 15:0.6150865 16:0.6003173 17:0.35256779 18:0.48681441 19:0.42575076 20:0.6400879 21:0.46572024 22:0.55855173 23:0.91881812 24:0.83202851 
3.139575512337013 1:0.52463233 2:0.59498185 3:0.40284094 4:0.54117674 5:0.54160857 6:0.39088911 7:0.4627043 8:0.69749182 9:0.49068543 10:0.45916742 11:0.67910254 12:0.71611249 13:0.25104308 14:0.1194406 15:0.51359391 16:0.33893636 17:0.23907705 18:0.57080865 19:0.49205092 20:0.67527622 21:0.33810854 22:0.95902425 23:0.67835188 24:0.72778505 
9.890965464121489 1:0.52463233 2:0.59498185 3:0.40284094 4:0.54117674 5:0.54160857 6:0.39088911 7:0.4627043 8:0.69749182 9:0.49068543 10:0.45916742 11:0.67910254 12:0.71611249 13:0.25104308 14:0.1194406 15:0.51359391 16:0.33893636 17:0.23907705 18:0.57080865 19:0.49205092 20:0.67527622 21:0.33810854 22:0.95902425 23:0.67835188 24:0.72778505 
6.837618605978017 1:0.51405442 2:0.75056398 3:0.29371738 4:0.76792318 5:0.55135125 6:0.77068508 7:0 8:0.76733875 9:0.62467927 10:0.58319992 11:0.58025903 12:0.857463 13:0.0020016707 14:0.78159094 15:0.236534 16:0.38366091 17:0.97653842 18:0.58010668 19:0.66565049 20:0.35260502 21:0.65123379 22:0.36053294 23:0.74551994 24:0.63325554 
7.788740458435361 1:0.37750754 2:0.61693716 3:0.43677226 4:0.5113886 5:0.26000038 6:0.33385095 7:0.1662147 8:0.58114427 9:0.26964363 10:0.4630805 11:0.80322337 12:0.28274468 13:1 14:0.60845935 15:0.55035812 16:0.53817296 17:0.64154118 18:0.050020184 19:0.093470961 20:0.25319692 21:0.49489027 22:0.5119068 23:0.61344045 24:0.72938848 
-0.04280594767376852 1:0.46156818 2:0.8184309 3:0.53066069 4:0.72659773 5:0.50643814 6:0.44093621 7:0.63937008 8:0.58651924 9:0.29861662 10:0.62875861 11:0.65662116 12:0.44252041 13:0.16092585 14:0.071281679 15:0.72925842 16:0.34965074 17:0.5488199 18:0.6734429 19:0.19545016 20:0.51494801 21:0.48633575 22:0.33517596 23:0.60170168 24:0.8049987 
-0.243982068892981 1:0.46156818 2:0.8184309 3:0.53066069 4:0.72659773 5:0.50643814 6:0.44093621 7:0.63937008 8:0.58651924 9:0.29861662 10:0.62875861 11:0.65662116 12:0.44252041 13:0.16092585 14:0.071281679 15:0.72925842 16:0.34965074 17:0.5488199 18:0.6734429 19:0.19545016 20:0.51494801 21:0.48633575 22:0.33517596 23:0.60170168 24:0.8049987 
-2.441099525053788 1:0.25851607 2:0.49662429 3:0.7064327 4:0.39590943 5:0.34161609 6:0.70381469 7:0.2283884 8:0.69200206 9:0.37244844 10:0.39899105 11:0.73573339 12:0.88723421 13:0.39535603 14:0.39358091 15:0.75947064 16:0.70491308 17:0.43551129 18:0.65128207 19:0.29627877 20:0.62775373 21:0.47410119 22:0.12857652 23:0.7033931 24:0.76826203 
-9.724352995314103 1:0.25851607 2:0.49662429 3:0.7064327 4:0.39590943 5:0.34161609 6:0.70381469 7:0.2283884 8:0.69200206 9:0.37244844 10:0.39899105 11:0.73573339 12:0.88723421 13:0.39535603 14:0.39358091 15:0.75947064 16:0.70491308 17:0.43551129 18:0.65128207 19:0.29627877 20:0.62775373 21:0.47410119 22:0.12857652 23:0.7033931 24:0.76826203 
-6.081783003251758 1:0.13954306 2:0.35113055 3:0.21540163 4:0.87840182 5:0.62635726 6:0.3035973 7:0.72309911 8:0.52316648 9:0.65496051 10:0.4738028 11:0.55186313 12:0.68733287 13:0.27687716 14:0.30954322 15:0.81975937 16:0.50497252 17:0.20994148 18:0.41760254 19:0.53615117 20:0.43700874 21:0.69363445 22:0.13832843 23:0.86021292 24:0.93298739 
-1.658547834488543 1:0.6308893 2:0.78067344 3:0.18842196 4:0.25904655 5:0.62356621 6:0.7738241 7:0.0082242507 8:0.36089993 9:0.29605556 10:0.58289981 11:0.56753427 12:0.34781069 13:0.20595388 14:0.13218547 15:0.33625141 16:0.53782082 17:0.33923584 18:0.51454479 19:0.30903614 20:0.38828614 21:0.42376417 22:0.25097662 23:0.64242321 24:0.77006167 
-10 1:0.6308893 2:0.78067344 3:0.18842196 4:0.25904655 5:0.62356621 6:0.7738241 7:0.0082242507 8:0.36089993 9:0.29605556 10:0.58289981 11:0.56753427 12:0.34781069 13:0.20595388 14:0.13218547 15:0.33625141 16:0.53782082 17:0.33923584 18:0.51454479 19:0.30903614 20:0.38828614 21:0.42376417 22:0.25097662 23:0.64242321 24:0.77006167 
-0.002584085647755529 1:0.83871293 2:0.70806468 3:0.82538456 4:0.574875 5:0.063107654 6:0.32207915 7:0.68062639 8:0.42616048 9:0.5303809 10:0.66830522 11:0.34654215 12:0.61326712 13:0.26175082 14:0.6173538 15:0.16884655 16:0.21632753 17:1.546288e-15 18:0.53247732 19:0.42382997 20:0.13624361 21:0.37750405 22:0.052542675 23:0.66170913 24:0.88333195 
-3.607335051335864 1:0.83871293 2:0.70806468 3:0.82538456 4:0.574875 5:0.063107654 6:0.32207915 7:0.68062639 8:0.42616048 9:0.5303809 10:0.66830522 11:0.34654215 12:0.61326712 13:0.26175082 14:0.6173538 15:0.16884655 16:0.21632753 17:1.546288e-15 18:0.53247732 19:0.42382997 20:0.13624361 21:0.37750405 22:0.052542675 23:0.66170913 24:0.88333195 
-2.684159552741497 1:0.038837094 2:0.63289022 3:0.51286888 4:0.57686579 5:0.37615415 6:0.53806776 7:0.24302971 8:0.10935895 9:0.43739638 10:0.58609122 11:0.057595409 12:0.35086221 13:0.13322508 14:0.10593522 15:0.37910038 16:0.18005642 17:0.53934598 18:0.76450479 19:2.564207e-16 20:0.23019226 21:0.44244689 22:0.25318989 23:0.62216806 24:0.86968994 
-0.01180464354636871 1:0.81906182 2:0.59489077 3:0.0084563801 4:0.48621482 5:0.43714383 6:0 7:0.26225409 8:0.44026068 9:0.45627394 10:0.4813976 11:0.70584428 12:0.30223724 13:0 14:0.48306239 15:0.55547732 16:0.30523771 17:0.68519115 18:0.73218995 19:0.44465068 20:0.75721985 21:0.28980097 22:0.18381511 23:0.49610555 24:0.74219972 
-3.757751308011521 1:0.81906182 2:0.59489077 3:0.0084563801 4:0.48621482 5:0.43714383 6:0 7:0.26225409 8:0.44026068 9:0.45627394 10:0.4813976 11:0.70584428 12:0.30223724 13:0 14:0.48306239 15:0.55547732 16:0.30523771 17:0.68519115 18:0.73218995 19:0.44465068 20:0.75721985 21:0.28980097 22:0.18381511 23:0.49610555 24:0.74219972 
-0.0187446357636532 1:0.8079105 2:0.0088808658 3:0.13962324 4:1.0206841e-15 5:0.54041839 6:0.28043616 7:0.19541094 8:0.58530289 9:0.39707378 10:0.44716224 11:0.3910802 12:0.54246897 13:0.27164021 14:0.18578708 15:0.66988313 16:0.087571606 17:0.77673501 18:0.61598784 19:0.71522021 20:0.54766679 21:0.3349852 22:0.14208111 23:0.40537751 24:0.76113522 
-1.734631997329777 1:0.8079105 2:0.0088808658 3:0.13962324 4:1.0206841e-15 5:0.54041839 6:0.28043616 7:0.19541094 8:0.58530289 9:0.39707378 10:0.44716224 11:0.3910802 12:0.54246897 13:0.27164021 14:0.18578708 15:0.66988313 16:0.087571606 17:0.77673501 18:0.61598784 19:0.71522021 20:0.54766679 21:0.3349852 22:0.14208111 23:0.40537751 24:0.76113522 
-0.1899440099732964 1:0.80745089 2:0.73711157 3:0.64471352 4:0.79055953 5:0.13930301 6:0.34882817 7:1 8:0.66902345 9:0.36508033 10:0.67270988 11:0.69531995 12:0.74865437 13:0.33844152 14:0.41535464 15:0.70687419 16:0.27681893 17:0.86666334 18:0.45227703 19:0.43680143 20:0.80770028 21:0.34986499 22:0.20251459 23:0.43928003 24:0.63938177 
-10 1:0.80745089 2:0.73711157 3:0.64471352 4:0.79055953 5:0.13930301 6:0.34882817 7:1 8:0.66902345 9:0.36508033 10:0.67270988 11:0.69531995 12:0.74865437 13:0.33844152 14:0.41535464 15:0.70687419 16:0.27681893 17:0.86666334 18:0.45227703 19:0.43680143 20:0.80770028 21:0.34986499 22:0.20251459 23:0.43928003 24:0.63938177 
-0.01438800433409586 1:0.47693202 2:0.14852428 3:0.39790711 4:0.71132541 5:0.88834631 6:0.99972963 7:0.38597858 8:0.52812856 9:0.25395161 10:0.5417074 11:0.036129676 12:0.32634312 13:0.46517149 14:0.27727523 15:0.45023122 16:0.27542686 17:0.49375778 18:0.19753958 19:0.71866089 20:0.41581038 21:0.26585853 22:0.47612596 23:0.028029785 24:0.83542365 
-6.416635240680671 1:0.47693202 2:0.14852428 3:0.39790711 4:0.71132541 5:0.88834631 6:0.99972963 7:0.38597858 8:0.52812856 9:0.25395161 10:0.5417074 11:0.036129676 12:0.32634312 13:0.46517149 14:0.27727523 15:0.45023122 16:0.27542686 17:0.49375778 18:0.19753958 19:0.71866089 20:0.41581038 21:0.26585853 22:0.47612596 23:0.028029785 24:0.83542365 
-3.983101644387874 1:0.42708346 2:0.28432435 3:0.5313313 4:0.66736794 5:0.68741316 6:0.18019578 7:0.45759061 8:0.74210739 9:0.52292562 10:0.41697356 11:0.49859196 12:0.20078228 13:0.23353381 14:0.28941277 15:0.77366632 16:0.17311931 17:0.62484133 18:0.4456895 19:0.46031421 20:0.7869857 21:0.33679968 22:0.34767714 23:0.38304871 24:0.73734921 
-0.001626117936555488 1:0.58544296 2:1 3:0.58599031 4:0.36398339 5:0.36540273 6:0.35527861 7:0.14356196 8:0.53382999 9:0.67585611 10:0.37752533 11:0.22050479 12:0.48900074 13:0.38584739 14:0.36653244 15:0.67550445 16:0.096353315 17:0.53826261 18:0.4161559 19:1 20:0.65852189 21:0.3728224 22:0.28761768 23:0.27395195 24:0.79779112 
-2.810601485295107 1:0.58544296 2:1 3:0.58599031 4:0.36398339 5:0.36540273 6:0.35527861 7:0.14356196 8:0.53382999 9:0.67585611 10:0.37752533 11:0.22050479 12:0.48900074 13:0.38584739 14:0.36653244 15:0.67550445 16:0.096353315 17:0.53826261 18:0.4161559 19:1 20:0.65852189 21:0.3728224 22:0.28761768 23:0.27395195 24:0.79779112 
