svm_type c_svc
kernel_type rbf
gamma 0.09
nr_class 2
total_sv 21
rho 0.124926
label 130250101 130250102
probA -4.39666
probB 0.150611
nr_sv 10 11
SV
0.6970809934092277 1:0.6734938 2:0.40333742 3:0.90615177 4:0.49808106 5:0.59612793 6:0.16681114 7:0.59822243 8:0.3016189 9:0.35117996 10:0.54316425 11:0.40274176 12:0.35775444 13:0.57513493 14:0.27380642 15:0.49984652 16:0.056068342 
7.048469005834987 1:0.62216592 2:0.1433789 3:0.68260914 4:0.53702146 5:2.0749205e-16 6:0.4367038 7:0.68215436 8:0.62221611 9:0.091870196 10:0.62534875 11:0.14832219 12:0.76207942 13:0.45587623 14:0.29636821 15:0.58205736 16:0.33521944 
1.749340749837844 1:0.57206529 2:0.50750071 3:0.56145358 4:0.59805268 5:0.36260676 6:0.43054888 7:0.58242214 8:0.60757607 9:0.32190132 10:0.71873331 11:1 12:0.016313048 13:0.32930264 14:0.47924373 15:0.49595374 16:0.096406572 
1.598286217892914 1:0.61995465 2:0.45878804 3:0.54340607 4:0.60834777 5:0.22481966 6:0.39365181 7:0.53848404 8:0.56939435 9:0.29762402 10:0.78558314 11:0.97575772 12:0.041330654 13:0.34067968 14:0.44240135 15:0.45913529 16:0.10764088 
6.041472583050908 1:0.9089855 2:0.17350337 3:0.66293657 4:0.11204043 5:0.94001675 6:0.3142187 7:6.62239e-16 8:0.22422215 9:0.31605402 10:0.64390779 11:0.31181794 12:0.44347462 13:0.27189234 14:0.52444136 15:0.35160634 16:0.58388579 
2.389568027205474 1:0.50579661 2:0.60477245 3:0.42695752 4:0.61071748 5:0.94070053 6:0.048450913 7:0.4864372 8:0.33400756 9:0.50607252 10:0.60048252 11:0.4356032 12:0.51786834 13:0.16521645 14:0.83880144 15:0.34116507 16:0.56836641 
8.54183773315574 1:0.52272618 2:0.95065385 3:0.67123306 4:0.58185226 5:0.54417026 6:0.74889225 7:0.6835407 8:0.73746097 9:0.14923702 10:0.68498826 11:0.38153118 12:0.79658544 13:0.34488228 14:0.67605114 15:0.54159522 16:0.49636927 
10 1:0.44023728 2:0.57838845 3:0.59532231 4:0.57314783 5:0.14295642 6:0.43010625 7:0.55849344 8:0.62292439 9:0.6409865 10:0.18001388 11:0.75810272 12:0.90284991 13:0.38828161 14:0.49110579 15:0.47592953 16:0.62706244 
1.142409085889503 1:0.55205578 2:0.65917867 3:0.48028311 4:0.37129784 5:0.27214798 6:0.30167931 7:0.6059885 8:0.55995423 9:0.40470269 10:0.097330861 11:0.77066499 12:0.71656895 13:0.35456184 14:0.72803771 15:0.44826078 16:0.42024219 
7.055708906662056 1:0.93700498 2:0.15740879 3:0.30990031 4:0.77198499 5:0.62581193 6:0.20273182 7:0.45539144 8:0.61247998 9:0.65110344 10:0.51506829 11:0.27142602 12:0.52419364 13:0.052748419 14:0.47871307 15:0.35553798 16:0.68872046 
-5.102273112051638 1:0.53884298 2:0.43880835 3:0.63923746 4:0.55881256 5:0.34925792 6:0.4474366 7:0.66442198 8:3.9785156e-16 9:0.28727812 10:0.45036146 11:0.46840608 12:0.26239797 13:0.4193528 14:0.77304912 15:0.050919749 16:0.92759979 
-1.844875476065575e-06 1:0.76903039 2:0.49784654 3:0.65232885 4:0.45771098 5:0.39269695 6:0.39915013 7:0.78322601 8:0.62674767 9:0.42901632 10:0.52394485 11:0.32464758 12:0.28464252 13:0.42408285 14:0.95256925 15:1 16:0.96387029 
-5.415687788750348 1:0.76903039 2:0.49784654 3:0.65232885 4:0.45771098 5:0.39269695 6:0.39915013 7:0.78322601 8:0.62674767 9:0.42901632 10:0.52394485 11:0.32464758 12:0.28464252 13:0.42408285 14:0.95256925 15:1 16:0.96387029 
-6.047271755632518 1:0.54479343 2:0.65313822 3:0.48253587 4:0.6143086 5:0.33536783 6:0.34256604 7:0.096188009 8:0.68853152 9:0 10:0.23829089 11:0.54598892 12:0.53330457 13:0.98412305 14:0.66674703 15:0.61531574 16:0.81117165 
-6.276792382224708 1:0.65316975 2:0.37920409 3:0.51518393 4:0.42645308 5:0.66571051 6:0.3693918 7:1 8:0.42667258 9:0.40654424 10:0.65619463 11:0.99918997 12:0.89249456 13:1 14:0.50923026 15:0.49856046 16:0.63078928 
-6.117959506933999e-07 1:0.65903068 2:0.50564903 3:0.53515196 4:0.43855768 5:0.56430471 6:0.30945751 7:0.790079 8:1 9:0.27282852 10:0.47065166 11:0.34803253 12:0.26626366 13:0.38399547 14:0.37783262 15:7.1920805e-16 16:0.99028736 
-4.615560960781687 1:0.65903068 2:0.50564903 3:0.53515196 4:0.43855768 5:0.56430471 6:0.30945751 7:0.790079 8:1 9:0.27282852 10:0.47065166 11:0.34803253 12:0.26626366 13:0.38399547 14:0.37783262 15:7.1920805e-16 16:0.99028736 
-1.361524481931891e-06 1:0.37044615 2:0.088747442 3:0.69976968 4:0.73340321 5:0.38755041 6:0.4986375 7:0.47347182 8:0.71169519 9:0.76059657 10:0.71203321 11:0.31978399 12:0.62805891 13:0.50097555 14:0.089398019 15:0.41466394 16:0.94717193 
-8.74803542692467 1:0.37044615 2:0.088747442 3:0.69976968 4:0.73340321 5:0.38755041 6:0.4986375 7:0.47347182 8:0.71169519 9:0.76059657 10:0.71203321 11:0.31978399 12:0.62805891 13:0.50097555 14:0.089398019 15:0.41466394 16:0.94717193 
-0.07294405006756226 1:0.64986718 2:0.72620612 3:0.60718572 4:0.43340543 5:0.3407326 6:0.40560517 7:0.57441211 8:0.29323766 9:0.31222293 10:0.46585199 11:0.53908581 12:0.51656365 13:0.19434087 14:0.057563778 15:0.73413152 16:0.93234026 
-9.985604008309616 1:0.64986718 2:0.72620612 3:0.60718572 4:0.43340543 5:0.3407326 6:0.40560517 7:0.57441211 8:0.29323766 9:0.31222293 10:0.46585199 11:0.53908581 12:0.51656365 13:0.19434087 14:0.057563778 15:0.73413152 16:0.93234026 
