svm_type c_svc
kernel_type rbf
gamma 0.09
nr_class 2
total_sv 13
rho 0.653313
label 130850102 130850103
probA -2.95279
probB 0.314813
nr_sv 7 6
SV
0.9695109728129616 1:0.11377385 2:0.63466233 3:0.54692209 4:0.25857466 5:0.39018244 6:0.4812527 7:0.43286633 8:0.36712322 9:0.18275863 10:0.33541656 11:0.61520642 12:0.16619059 13:0.1744196 
2.201273612182257 1:0.5249778 2:0.50008076 3:0.79415745 4:0.38834229 5:0.69797105 6:0.65147078 7:0.54634798 8:0.31395349 9:2.9157487e-16 10:0.38756946 11:0.50606114 12:0.1182396 13:0.17633624 
10 1:0.56119835 2:0.66418332 3:0.78345174 4:0.48766178 5:0.65221781 6:0.75627506 7:0.44934481 8:0.063582882 9:0.93654609 10:0.065783732 11:0.74972737 12:0.31879133 13:0.13322806 
4.372233501685769 1:0.97176605 2:0.20564102 3:0.57762629 4:0.088272899 5:0.74394339 6:0.69750965 7:0.45127529 8:0.52327734 9:0.9999364 10:0.56804174 11:0.80502433 12:0.43378094 13:0.12668578 
10 1:0.50671726 2:0.022565728 3:0.44605643 4:0.77127969 5:0.39933565 6:0.5133208 7:0.35827902 8:0.625696 9:0.46420816 10:0.54830801 11:0.68009955 12:0.37152892 13:0.17556928 
2.612894934702104 1:0.3240245 2:1 3:0.53661788 4:0.56050867 5:0.46833688 6:0.45142806 7:0.48695469 8:1 9:0.95210457 10:0.70716673 11:0.53995794 12:0.45354939 13:3.4764665e-16 
2.723953307877447 1:0.046361208 2:0 3:0.46563849 4:0.18387587 5:0.70828319 6:0.35007972 7:0.73608929 8:0.31707072 9:0.79329157 10:0.26629004 11:0.89714986 12:0.46541837 13:0.14145562 
-4.795996492714488 1:0.76582468 2:0.57848495 3:0.54665279 4:0.55542457 5:0.96480668 6:0.50729507 7:0.4866488 8:0.55243963 9:0.75721979 10:0.028982891 11:0.60842538 12:2.5144337e-16 13:0.86118472 
-6.542084002945756 1:0.4806011 2:0.36810955 3:1 4:0.29662365 5:0.39529058 6:0.33383211 7:0.41693264 8:0.1744757 9:0.93636608 10:0.70526236 11:0.69160867 12:0.17243496 13:0.81657773 
-9.231163380651966 1:0.62944967 2:0.36896345 3:0.61327559 4:1 5:0.54091835 6:1 7:0.45198685 8:0.37334713 9:0.60568601 10:0.53337151 11:1 12:0.91472846 13:0.66658366 
-5.332266553458365 1:0.13802016 2:0.050250359 3:0.50671428 4:0.30941293 5:0.96919018 6:0.53822392 7:0.44304022 8:0.38492256 9:0.69213998 10:0.32333875 11:0 12:0.46136099 13:0.5629012 
-3.883112909733541 1:0.35803151 2:0.67601079 3:0 4:0.14363688 5:0.69763803 6:0.77940929 7:0 8:0.32311311 9:0.92450619 10:0.42121145 11:0.33282828 12:0.42054424 13:0.5554834 
-3.095242989756423 1:0.48967481 2:0.55426776 3:0.21303526 4:0.36493835 5:4.6061789e-16 6:0.44883931 7:1 8:0.3445763 9:0.80707186 10:0.34115979 11:0.22973093 12:0.63280064 13:0.61712188 
