svm_type c_svc
kernel_type rbf
gamma 0.09
nr_class 2
total_sv 60
rho -0.79254
label 130110101 130110102
probA -4.57128
probB 0.0711983
nr_sv 31 29
SV
1.289069879764137 1:0.5341872 2:0.88749075 3:0.26941416 4:0.11499297 5:0.83797193 6:0.41687664 7:0.38675079 8:0.22198869 9:0.56418937 10:0.41383362 11:0.73669118 12:0.99325705 13:0.62856787 14:0.32061425 15:0.40586695 16:0.1473452 17:0.46863893 18:0.5411936 19:0.35241687 20:0.80789459 21:0.39876828 22:0.30745289 23:0.62469929 24:0.26544321 25:0.36825928 26:0.42712677 27:0.21089593 28:0.36095676 29:0.83914673 30:0.47109634 31:0.34064925 32:0.48919129 33:0.48699698 34:0.72242278 35:0.44340113 36:0.98095566 37:0 38:0.79688257 39:0.74769205 40:0.49500179 41:0.7915194 42:0.55232161 43:0.17122027 44:0.13952757 45:0.17667246 46:0.24423382 47:0.28622523 
2.283889582508831 1:0.36474055 2:0.4153806 3:0.91216123 4:0.47526416 5:0.60324168 6:0.48212889 7:0.98966175 8:0.53003943 9:0.24236529 10:0.66779464 11:0.23438488 12:0.58305192 13:0.83931792 14:0.052691124 15:0.43594852 16:0.26366976 17:0.54125381 18:0.65008491 19:0.65108997 20:1 21:0.42975172 22:0.47904983 23:0.81833971 24:0.2843639 25:0.28142393 26:0.21022663 27:0.20307848 28:0.42279327 29:0.87472463 30:0.48603803 31:0.17180513 32:0.38238063 33:0.59769952 34:0.35993817 35:0.51601803 36:0.51218683 37:0.11039469 38:0.67372221 39:0.63728106 40:0.65847164 41:0.76567143 42:0.48183215 43:0.08320348 44:0.11898318 45:0.20176473 46:0.23478529 47:0.26845592 
3.351391861551255 1:0.35953644 2:0.54707479 3:0.55373836 4:0.40645233 5:0.54240704 6:0.36650777 7:0.49620155 8:0.49470124 9:0.13702331 10:0.41095302 11:0.57139456 12:0.27076703 13:0.39314872 14:0.31845784 15:0.53915745 16:0.42154586 17:0.33304954 18:0.51817739 19:0.37081364 20:0.40026248 21:0.5127508 22:0.55281615 23:0.27249244 24:0.54774338 25:0.1646338 26:0.95597565 27:0.45582318 28:0.3212463 29:0.48764634 30:0.14418702 31:0.45241979 32:0.60114723 33:0.61124837 34:0.37692848 35:0.22414544 36:0.59575528 37:0.92521274 38:0.40564036 39:0.56013751 40:0.5285151 41:0.53166711 42:0.093589567 43:0.35857275 44:0.59855282 45:0.76397491 46:0.33452851 47:0.26764923 
1.069701451308359 1:0.34415987 2:0.40618673 3:0.58999515 4:0.67759258 5:0.37581354 6:0.43112293 7:0.56258225 8:0.5393002 9:0.63119018 10:0.57949835 11:0.49142364 12:0.62120765 13:0.58273774 14:4.2078273e-16 15:0.61327672 16:0.75845349 17:0.54525262 18:0.66935402 19:0.13765357 20:0.46292198 21:0.082457848 22:0.72979802 23:0.60077298 24:0.69138807 25:0.38506857 26:0.39640459 27:0.60359526 28:0.6317656 29:0.55884606 30:0.44456589 31:0.85001177 32:0.65966082 33:0.53798091 34:0.49302581 35:1 36:0.67083889 37:0.50894314 38:0.098992303 39:0.95856076 40:0.48513991 41:0.60700291 42:0.23980987 43:0.50824916 44:0.65144682 45:0.79599512 46:0.61398053 47:0.12976964 
1.032903524160538 1:0.4931725 2:0.552356 3:0.6456694 4:0.41988587 5:0.37403923 6:0.4194392 7:0.1445111 8:0.58000058 9:0.67926431 10:0.28003898 11:0.58956951 12:0.34027958 13:0.50013465 14:0.36361858 15:0.44434258 16:0.24224126 17:0.4294914 18:0.0062047536 19:0.41386625 20:0.68442917 21:0.40281957 22:9.4335785e-16 23:0.50037628 24:0.12101635 25:0.67680198 26:0.23083472 27:0.5613755 28:0.37233871 29:0.52489537 30:0.21004291 31:0.65742284 32:0.60096902 33:0.97543883 34:0.21165009 35:0.63090694 36:0.4155685 37:0.4046208 38:0.36526361 39:0.7258513 40:0.46628711 41:0.25269714 42:0.65204507 43:0.5576725 44:0.84796125 45:0.5935359 46:0.31931156 47:0.20592245 
0.3414694838530719 1:0.74176735 2:0.29124388 3:0.59649211 4:0.28636536 5:0.72572124 6:0.38920069 7:0.52139753 8:0.53981888 9:0.36178634 10:0.63116062 11:0.61242139 12:0.57141036 13:0.27785465 14:0.35074744 15:0.38697076 16:0.22999752 17:0.4431037 18:0.40222412 19:0.53200603 20:0.60117334 21:0.49310622 22:0.53339118 23:0.3645359 24:0.0043099439 25:0.26423725 26:0.47314072 27:0.50129247 28:0.56640798 29:0.36397326 30:0.70692223 31:0.22454996 32:0.95952368 33:0.87467521 34:0.22663538 35:0.46493942 36:0.87373263 37:0.34246433 38:0.062238514 39:0.59711379 40:0.59536815 41:0.63552004 42:0.64956796 43:0.53430712 44:0.89278376 45:0.56284875 46:0.44127232 47:0.14107305 
1.088463892194638 1:0.55213833 2:0.55067801 3:0.57311422 4:0.74684542 5:0.43006217 6:0.58364773 7:0.88771582 8:0.48311934 9:0.40136912 10:0.3185772 11:0.42349589 12:0.38461834 13:0.44742659 14:0.6155597 15:0.71658695 16:0.55201226 17:0.60456508 18:0.66674012 19:0.94630629 20:0.57409608 21:0.6568976 22:0.63010412 23:0.847408 24:0.22978951 25:0.47349644 26:0.76537889 27:0.61468506 28:0.5946973 29:0.62624806 30:0.58046305 31:0.4214648 32:0.37458223 33:0.30183443 34:0.5745163 35:0.04455056 36:0.77058035 37:0.10175674 38:0.22876218 39:0.82277662 40:0.73956859 41:0.51880509 42:0.68766028 43:0.55252957 44:0.94278359 45:0.55456418 46:0.35888878 47:0.20113364 
1.285967488103915 1:0.36015144 2:0.51933849 3:0.39642659 4:0.65087283 5:0.46568188 6:0.4507049 7:0.31172839 8:0.56140625 9:0.65351534 10:0.39502949 11:0.27251214 12:0.5265137 13:0.5143255 14:0.47687817 15:0.78641647 16:0.74609923 17:0.44760752 18:0.3773441 19:0.8660453 20:0.94039112 21:0.64797199 22:0.20254603 23:0.70864397 24:0.4291181 25:0.21758765 26:0.68982911 27:0.46838167 28:0.52057028 29:0.49799854 30:0.62654495 31:0.19558387 32:0.52268499 33:0.55468935 34:0.78713894 35:0.54630518 36:0.69370675 37:0.39942762 38:0.00021581675 39:0.39448524 40:0.59781688 41:0.49188343 42:0.71405464 43:0.62054312 44:0.77154338 45:0.40986532 46:0.42419201 47:0.11403725 
0.3020445190900978 1:0.37536463 2:0.48308423 3:0.55887318 4:0.85240996 5:0.25196141 6:0.48946244 7:0.5656271 8:0.79809999 9:0.61137235 10:0.48183012 11:0.56337225 12:0.52186465 13:0.62329036 14:0.48906139 15:0.52438456 16:0.6324904 17:0.37619546 18:0.52466434 19:0.78869361 20:0.5369432 21:0.59945387 22:0.55816269 23:0.35847118 24:0.64036071 25:0.43311423 26:0.37424603 27:0.39829487 28:0.52745736 29:0.33378705 30:0.21457513 31:0.5317682 32:0.40242273 33:0.61159974 34:0.30984172 35:0.27520919 36:0.262777 37:0.43809256 38:0.5663287 39:0.62995487 40:0.79995608 41:0.66622674 42:0.61122876 43:0.41942295 44:0.74961388 45:0.6585269 46:0.64385366 47:0.19052894 
0.2940825891389878 1:0.50551361 2:0.2149833 3:0.33288747 4:0.63911903 5:0.35001627 6:0.42776439 7:0.16287023 8:0.55293411 9:0 10:0.5580548 11:0.574175 12:0.32545418 13:0.21933259 14:0.382669 15:0.3974902 16:0.6310463 17:0.48979136 18:0.36476046 19:0.68223202 20:0.22168899 21:0.51652449 22:0.75505316 23:0.64738894 24:0.20729071 25:0.5996781 26:0.38951847 27:0.67938238 28:0.66222888 29:0.79196846 30:0.52628171 31:0.6133185 32:0.3513585 33:0.6700176 34:0.39081517 35:0.49284887 36:0.21166667 37:0.50385195 38:0.70520973 39:0.50759643 40:0.59290421 41:0.48127931 42:0.84000468 43:0.56936479 44:0.65877873 45:0.59042174 46:0.69243366 47:0.14383566 
0.5594949228597128 1:0.4102664 2:0.53047317 3:0.73148656 4:0.31289423 5:0.38160405 6:0.55768555 7:0.87371755 8:0.53603935 9:1 10:0.56644386 11:0.6019541 12:0.44880974 13:0.43688446 14:0.58084875 15:0.55398035 16:0.52724981 17:7.5596955e-16 18:0.53005069 19:0.63799816 20:0.6726175 21:0.63223201 22:0.77904177 23:0.92148614 24:0.1856804 25:0.26439115 26:0.76219606 27:0.56383139 28:0.51682395 29:0.65312243 30:0.47807947 31:0.65332508 32:0.86036205 33:0.36797011 34:0.19900663 35:0.52829528 36:0.076623686 37:0.39155969 38:0.7327835 39:0.35686836 40:0.47697735 41:0.52725375 42:0.74169505 43:0.48212841 44:0.47960505 45:0.41381922 46:0.55775875 47:0.20795442 
6.124195290068619 1:0.91944993 2:0.50182498 3:0.61832511 4:0.61193347 5:0.3988781 6:0.31864032 7:0.62649626 8:0.50692219 9:0.61821169 10:0.61188066 11:0.27237198 12:0.32592213 13:0.27043524 14:0.45547557 15:0.54491299 16:0.59988552 17:0.27379683 18:0.42515963 19:0.28992876 20:0.61500752 21:0.54385197 22:0.53840512 23:0.38678548 24:0.4179171 25:0.26922911 26:0.25899059 27:0.24862514 28:0.48986465 29:0.70550597 30:0.81722933 31:0.50884563 32:0.74757057 33:0.62368351 34:0.45395795 35:0.54673022 36:0.5356617 37:0.42749548 38:0.52479333 39:0.37959886 40:0.56479365 41:0.57020909 42:0.82185912 43:0.54382873 44:0.68467468 45:0.5550701 46:0.67464739 47:0.1336212 
1.948488869639543 1:0.68789345 2:0.63236064 3:0.63498574 4:0.68894088 5:0.23816741 6:0.5674656 7:0.61750644 8:0.57176095 9:0.57500744 10:0.52052277 11:0.62956548 12:0.29134455 13:0.31050497 14:0.40208638 15:0.27737334 16:0.24010906 17:0.36136207 18:0.61129135 19:0.34266475 20:0.59009653 21:0.44868031 22:0.42597711 23:0.72297633 24:0.4879725 25:0.79155171 26:0.49284878 27:0.3308782 28:0.34054995 29:0.28944033 30:0.64356118 31:0.53595918 32:0.38291341 33:0.64746952 34:0.75773954 35:0.22984102 36:0.35133156 37:0.54825741 38:0.61549306 39:0.44492394 40:0.66546702 41:0.62722844 42:0.82355428 43:0.63041002 44:0.53112274 45:0.61985993 46:0.88980687 47:0.19894886 
1.726731858546927 1:0.39523488 2:0.4483206 3:0.39439109 4:0.96225953 5:0.61316383 6:0.89145195 7:0.20336218 8:0.26476261 9:0.47225758 10:0.68038714 11:0.2036296 12:0.50953484 13:0.37327248 14:0.27948463 15:0.46286714 16:0.37925091 17:0.27656707 18:0.14653558 19:0.26813817 20:0.24168529 21:0.83554894 22:0.32265064 23:0.65462422 24:1 25:0.16975784 26:0.36922637 27:0.53310794 28:0.44411251 29:0.43776947 30:0.19931883 31:0.30328748 32:0.63617134 33:0.81293237 34:0.48444381 35:0.36366984 36:0.59422618 37:0.3427904 38:0.32514447 39:0.79971665 40:0.8599112 41:0.32287258 42:0.82850468 43:0.66484088 44:0.430902 45:0.19805299 46:0.69094408 47:0.18692696 
0.3447309086560736 1:0.58651853 2:0.86243802 3:0.67714828 4:0.67249084 5:0.76640505 6:0.78824711 7:0.63688642 8:0.6773302 9:0.3767122 10:0.53615415 11:0.30769867 12:0.36704135 13:0.42730218 14:0.46062377 15:0.29832906 16:0.59163517 17:0.56533229 18:0.77639997 19:0.19746682 20:0.64327747 21:0.7603845 22:0.16963413 23:0.39692274 24:0.45341742 25:0.20278409 26:0.43770123 27:0.59996521 28:0.48526922 29:0.64121091 30:0.1930452 31:0.44659656 32:0.36489815 33:0.63121611 34:0.67231035 35:0.60567927 36:0.63468343 37:0.46195424 38:0.44793981 39:0.40699759 40:0.46054938 41:0.38439846 42:0.48722315 43:0.62061489 44:0.62893051 45:0.4286505 46:0.051286399 47:0.13690421 
1.916971431301734 1:0.63482422 2:0.21425311 3:0.48117977 4:0.58922654 5:0.3383469 6:0.47326174 7:0.52093494 8:0.63443714 9:0.21854527 10:0.4162102 11:0.51769406 12:0.86005098 13:0.32737568 14:0.096649379 15:0.79160035 16:0.85355264 17:0.46333858 18:0.40017161 19:0.92029858 20:0.66724855 21:0.55646491 22:0.25876799 23:0.28790215 24:0.9230777 25:0.24521686 26:0.29552427 27:0.36984745 28:0.1849665 29:0.84064656 30:0.42839172 31:0.86384964 32:0.94832957 33:0.28743973 34:0.31077254 35:0.40444559 36:0.013788714 37:0.011876638 38:0.15560706 39:0.71068835 40:0.54662573 41:0.26724392 42:0.28608814 43:0.70468831 44:0.60107517 45:0.4321678 46:0.2593379 47:0.48609838 
3.067351770586761 1:0.61843896 2:0.43126914 3:0.3888644 4:0.20850635 5:0.33830059 6:0.54344416 7:0.50638634 8:0.21797989 9:0.87213391 10:0.58959359 11:0.56186879 12:0.2446264 13:0.76686645 14:0.49263084 15:0.17531028 16:0.45623454 17:0.1834434 18:0.51656604 19:0.47035852 20:0.74087024 21:0.7993654 22:0.25528637 23:0.60296541 24:0.75023502 25:0.48065436 26:0.59509522 27:1 28:0.63857001 29:0.45689699 30:0.63048249 31:0.59981519 32:0.42145574 33:0.41957405 34:0.37261814 35:0.40957463 36:0.47156915 37:0.56223029 38:0.48809907 39:0.56366068 40:0.3870427 41:0.52499551 42:0.29804611 43:0.6949985 44:0.58435816 45:0.46748394 46:0.021280428 47:0.30940449 
2.979394250511069 1:0.75654924 2:0.54054552 3:0.5349673 4:0.85199589 5:0.34162667 6:0.38765201 7:0.48721939 8:0.77654654 9:0.63830036 10:0.22730167 11:0.53917331 12:5.9454206e-16 13:0.62257904 14:0.93207085 15:0.53675085 16:0.52324176 17:0.30762768 18:0.34207809 19:0.48521018 20:0.3431018 21:0.58616203 22:0.26555777 23:0.53558761 24:0.54190534 25:0.44001061 26:0.53313142 27:0.54632294 28:0.46061152 29:0.44633511 30:0.38005713 31:0.51877487 32:0.77625895 33:0.79002011 34:0 35:0.71429724 36:0.77748603 37:0.25699794 38:0.32803366 39:0.73411006 40:0.7041257 41:0.78728479 42:0.45481938 43:0.13227358 44:0.11436039 45:0.29966655 46:0.25061545 47:0.29222983 
2.900223278416471 1:0.66354024 2:0.68108779 3:0.75873762 4:0.45640874 5:0.14964381 6:0.76651478 7:0.07412836 8:0.75391167 9:0.64660096 10:0.66181028 11:0.44889992 12:0.16263516 13:0.52587384 14:0.74236786 15:0.33525297 16:0.68766713 17:0.56565607 18:0.2215391 19:0.41432607 20:0.72501951 21:0.41928801 22:0.60187232 23:1 24:0.65353554 25:0.38968328 26:0.70903438 27:0.27897954 28:0.46822459 29:0.48933303 30:0.58127737 31:0.87024778 32:0.65065604 33:0.6918487 34:0.18702206 35:0.47622475 36:0.48158196 37:0.61310488 38:0.26175711 39:0.40633544 40:0.65732914 41:0.73913342 42:0.62329316 43:0.83628708 44:0.52342767 45:0.37492406 46:0.011812953 47:0.30942672 
1.716837853649335 1:0.83472651 2:0.70295298 3:0.27791792 4:0.3632302 5:0.48239049 6:0.89223337 7:0.17871195 8:0.86372799 9:0.31239668 10:0.52194101 11:0.33523178 12:0.58098173 13:0.41421622 14:0.49145949 15:0.41305405 16:0.067766629 17:0.42065591 18:0.98667467 19:0.48598799 20:0.88394737 21:0.80672181 22:0.45407426 23:0.2720592 24:0.52398425 25:0.3865152 26:0.43494132 27:0.72161913 28:0.50923735 29:0.47318372 30:0.90717483 31:0.47981468 32:0.52052099 33:0.59851098 34:0.11614821 35:0.48121408 36:0.14563085 37:0.38270956 38:0.7278747 39:0.85991812 40:0.47142079 41:0.19859567 42:0.21514577 43:0.88636672 44:0.53059405 45:0.29467648 46:0.34959123 47:0.32005012 
0.5950993397401004 1:0.73538828 2:0.51578885 3:0.63571465 4:0.53410387 5:0.50250709 6:0.72246403 7:0.4033471 8:0.95055288 9:0.15598266 10:0.64284033 11:0.9155975 12:0.65602565 13:0.74915779 14:0.91003424 15:0.56191677 16:0.85489309 17:0.18287772 18:0.21767466 19:0.76243609 20:0.67487544 21:0.7714504 22:0.44886801 23:0.17915349 24:0.88129109 25:1 26:0.59942144 27:0.60975075 28:0.65349573 29:0.43248564 30:0.85325241 31:0.46548131 32:0.15052095 33:0.62781346 34:0.76725316 35:0.56764859 36:1 37:0.31882194 38:0.45889124 39:0.074030019 40:0 41:0.8067143 42:0.44600108 43:0.17480235 44:0.22744136 45:0.23888831 46:0.70400524 47:0.20229721 
0.3638682612236376 1:0.523691 2:0.4656027 3:0.83598489 4:0.51500434 5:0.30228674 6:0.098392837 7:0.52920902 8:0.28768811 9:0.68914688 10:0.52435416 11:0.74258161 12:0.47147956 13:0.42874628 14:0.59791261 15:0.60800362 16:0.46280906 17:0.40256894 18:0.63169163 19:0.41326734 20:0.26206046 21:0.72125381 22:0.28087184 23:0.36454487 24:0.37770215 25:0.35148466 26:0.24388544 27:0.97869784 28:0.87962359 29:0.14815079 30:0.2922368 31:0.38139868 32:0.51605707 33:0.66618049 34:0.54021078 35:0.21179554 36:0.42335227 37:0.24779098 38:0.34723678 39:0.47875917 40:0.7310127 41:0.69432449 42:0.35108012 43:0.51645315 44:0.56163436 45:0.37813091 46:0.36132666 47:0.23035899 
2.449706696547345 1:0.52493894 2:0.44105446 3:0.46467543 4:0.56585407 5:0.73518068 6:0.69578087 7:0.62009531 8:0.32384539 9:0.44716933 10:0.52369821 11:0.37056118 12:0.20318748 13:0.31617466 14:0.33098537 15:0.19336286 16:0.53921747 17:0.52028161 18:0.39131531 19:0.64145195 20:0.5267536 21:0.40210703 22:0.59198326 23:0.55693489 24:0.36586556 25:0.39450055 26:0.3908079 27:0.59244817 28:0.51241642 29:0.42532805 30:0.42241317 31:0.43598339 32:0.43233612 33:0.66826063 34:0.47667766 35:0.43761387 36:0 37:0.53238994 38:0.38846073 39:0.23783538 40:0.39180383 41:0.4900572 42:0.563169 43:0.88234317 44:0.06483689 45:0.52189094 46:0.56523043 47:0.25702608 
6.058711101620125 1:0.8073169 2:0.33038384 3:0.57048088 4:0.53930223 5:0.55151516 6:0.45055848 7:0.6060468 8:0.23369636 9:0.63979959 10:0.17992984 11:0.74789071 12:0.20589903 13:0.36634281 14:0.43499216 15:0.4683511 16:0.41215044 17:0.41254506 18:0.50990987 19:0.38603362 20:0.56865335 21:0.55309749 22:0.69796872 23:0.56220961 24:0.39153612 25:0.3813324 26:0.57588285 27:0.84485257 28:0.33940327 29:0.51947147 30:0.071459889 31:0.35114762 32:0.35019261 33:0.6311444 34:0.50167537 35:0.43071368 36:0.4139457 37:0.43049937 38:0.61481315 39:0.8067562 40:0.93783569 41:0.36051723 42:0.40895417 43:0.60679841 44:0.52016336 45:0.28488538 46:0.25723958 47:0.33097273 
4.389354073625098 1:0.58665466 2:0.46508205 3:0.60755414 4:0.39408594 5:0.47813439 6:0.26128849 7:0.50867373 8:0.81257027 9:0.5393362 10:0.45673344 11:0.44724557 12:0.70618308 13:0.090664022 14:0.51302648 15:0.83315277 16:0.14921401 17:0.41490468 18:0.53549033 19:0.47393566 20:1.9705257e-16 21:0.028707912 22:0.39217672 23:0.42220363 24:0.61539155 25:0.3081021 26:0.43637809 27:0.34317416 28:0.66979975 29:0.71770024 30:0.52014005 31:0.47692031 32:0.28191939 33:0.59984851 34:0.15867223 35:0.34901553 36:0.32565951 37:0.30567586 38:0.68662035 39:0.22236246 40:0.80825466 41:0.7173152 42:0.51228935 43:0.76367307 44:0.52681291 45:0.63240957 46:0.22814409 47:0.12831384 
0.5430302463793352 1:0.89607054 2:0.24952294 3:0.77087218 4:0.52517796 5:0.68721014 6:0.61878324 7:0.41890123 8:0.54470026 9:0.28718454 10:0.43537635 11:0.34313297 12:0.22054696 13:0.31084499 14:0.26875126 15:0.43760216 16:0.64239734 17:0.75449383 18:0.67299342 19:0.57884073 20:0.45790309 21:0.34088823 22:0.44215655 23:0.65982097 24:0.40879506 25:0.3654595 26:0.47042301 27:0.14345154 28:0.51238984 29:0.39712507 30:0.62727696 31:0.4546721 32:0.4198947 33:0.66317844 34:0.26482633 35:0.55366141 36:0.40668818 37:0.44329348 38:0.55551666 39:0.14474061 40:0.54736894 41:0.66483068 42:0.64093995 43:0.88737881 44:0.31736371 45:0.48726517 46:0.27329838 47:0.17922807 
0.587416824125926 1:0.35216367 2:0.65440315 3:0.80262572 4:0.68509001 5:0.52729273 6:0.46628454 7:0.43015522 8:0.58209956 9:0.52237582 10:0.54506069 11:0.72491223 12:0.73339915 13:0.52612883 14:0.57751429 15:0.46813896 16:0.68154693 17:0.43135461 18:0.46260342 19:0.79009533 20:0.71609873 21:0.56265569 22:0.3909106 23:0.30199426 24:0.40657774 25:0.1884554 26:0.23858306 27:0.35354927 28:0.43327826 29:0.19782171 30:0.40871519 31:0.59515667 32:0.16569415 33:0.59782809 34:0.048614677 35:0.58214724 36:0.3731308 37:0.61132646 38:0.35426608 39:0.61237496 40:0.60102761 41:0.58610302 42:0.54987949 43:0.71289581 44:0.5072149 45:0.20618868 46:0.12022747 47:0.25076067 
0.6484559077455809 1:0.60856658 2:0.49988025 3:0.84984899 4:0.40788826 5:0.49215508 6:0.28388074 7:0.44672799 8:0.022677049 9:0.68039721 10:0.39394873 11:0.74311686 12:0.74181432 13:0.35020381 14:0.26713961 15:0.56560606 16:0.52115643 17:0.5941264 18:0.53861004 19:0.59539193 20:0.31011251 21:0.75217718 22:0.46185932 23:0.59629613 24:0.42844173 25:0.44197249 26:0.42028007 27:0.40752324 28:0.6507045 29:0.20375809 30:0.43984312 31:0.44222081 32:0.57660061 33:0.56816941 34:0.33552083 35:0.38048241 36:0.23478894 37:0.28021485 38:0.40365317 39:0.30373719 40:0.57873541 41:0.67407393 42:0.40000677 43:0.78600734 44:0.31830212 45:0.50562531 46:0.28243938 47:0.23480368 
4.087595139281554 1:0.39797854 2:0.63958937 3:0.65161419 4:0.73872137 5:0.82099575 6:0.59878558 7:0.46219918 8:0.48593503 9:0.30189571 10:0.40063867 11:0.49116251 12:0.5203107 13:0.62496716 14:0.21481945 15:0.41473898 16:0.57810408 17:0.89501196 18:0.26143369 19:0.35260883 20:0.58673805 21:0.49641439 22:0.42238906 23:0.46615329 24:0.8553735 25:0.37157765 26:0.42298621 27:0.5487408 28:0.45345443 29:0.7347756 30:0.35747483 31:0.68210918 32:0.33652985 33:0.66463959 34:0.32772261 35:0.69644088 36:0.72431725 37:0.62478989 38:0.77868354 39:0.4508892 40:0.52861351 41:0.4544237 42:0.92572588 43:0.69815487 44:0.5248481 45:0.11310833 46:0.026424991 47:0.19806007 
1.695636601332669 1:0.89114219 2:0.46857393 3:0.41711432 4:0.2806595 5:0.32698625 6:0.3842124 7:0.45078477 8:0.42598858 9:0.61072654 10:0.34916544 11:0.77894419 12:0.80478811 13:0.36316764 14:0.51911908 15:0.87622273 16:0.63744044 17:0.49295253 18:0.41199723 19:0.89173138 20:0.74207485 21:0.78800541 22:0.24480227 23:0.58979964 24:0.37133035 25:0.11904775 26:0.49850118 27:0.52229768 28:0.36613187 29:0.63833946 30:0.29490709 31:0.87357581 32:0.51340473 33:0.57715946 34:0.41628748 35:0.63025343 36:0.59806824 37:0.74849659 38:0.38127956 39:0.72598952 40:0.79449648 41:0.63496178 42:0.52101332 43:0.8006897 44:0.42596725 45:0.30428314 46:0.0030726562 47:0.30737719 
4.570540287150536 1:0.32334808 2:0.51674861 3:0.51555061 4:0.27852342 5:0.70009273 6:0.33012483 7:0.7391572 8:0.78611314 9:0.47609892 10:0.20329212 11:0.46958399 12:0.4643006 13:0.38231206 14:0.64126372 15:0.42998296 16:0.86346406 17:0.7769922 18:0.18595508 19:0.57866591 20:0.57917744 21:0.48078778 22:0.43560219 23:0.31294179 24:0.67640781 25:0.56879497 26:0.62965369 27:0.71544218 28:0.11159717 29:0.33306637 30:0.31483594 31:0.5231964 32:0.52668655 33:0.17962448 34:0.71969086 35:0.3753413 36:0.28034508 37:0.27827898 38:3.6986295e-16 39:0.65835392 40:0.61391062 41:0.29158774 42:0.73333389 43:0.80994338 44:0.2996707 45:0.21702003 46:0.56261951 47:0.43094566 
-9.708559423191032 1:0.73219913 2:0.27957171 3:0.70819914 4:0.31929722 5:0.21593675 6:0.5003345 7:0.73655212 8:1 9:0.6113295 10:0.28575921 11:0.50797546 12:0.30290759 13:0.16026302 14:0.22017752 15:0.48433128 16:0.39462146 17:0.76902574 18:0.49667865 19:0.40759799 20:0.56065917 21:0.74690795 22:0.38392907 23:0.63943422 24:0.77217942 25:0.22949255 26:0.62247497 27:0.35974738 28:0.71599454 29:0.70751321 30:0.32125211 31:0.5339756 32:0.24628209 33:0.80150342 34:0.47002426 35:0.62784117 36:0.55441552 37:0.38336098 38:0.39498916 39:0.48300406 40:0.60757297 41:0.26994729 42:0.4828454 43:0.61588472 44:0.3546415 45:0.40636817 46:0.79776907 47:0.57122386 
-2.242105514186908 1:0.60250455 2:0.50522935 3:0.56017232 4:0.20467997 5:0.4868488 6:0.21073672 7:0 8:0.45545533 9:0.60926169 10:0.59962404 11:0.50258422 12:0.5486384 13:0.73028177 14:0.5772866 15:0.56211829 16:0.54943961 17:0.35390395 18:0.6455493 19:0.36858645 20:0.78714013 21:0.62447172 22:0.66991502 23:0.47249079 24:0.6142531 25:0.22384244 26:0.59383452 27:0.58307719 28:0.19465242 29:0.65855587 30:0.3189919 31:0.73028433 32:0.26877818 33:0.63356239 34:0.58239198 35:0.53029537 36:0.37419727 37:0.13252951 38:0.52046829 39:0.73346055 40:0.43778402 41:0.55436802 42:0.79333031 43:0.63042325 44:0.74119437 45:0.80300975 46:0.081814572 47:0.62702972 
-0.6188335937047034 1:0.55028981 2:0.36719808 3:0.36526501 4:0.51178288 5:0.6633907 6:0.86099499 7:0.41599861 8:0.56490219 9:0.50041854 10:0.25225779 11:0.36967939 12:0.34733489 13:0.36383462 14:0.71638602 15:0.73118311 16:0.58087271 17:0.37972933 18:0.4094674 19:0.48161367 20:0.65516722 21:0.26095247 22:0.39015839 23:0.53036892 24:0.3213377 25:0.406178 26:0.40563163 27:0.61287963 28:0.63475782 29:0.63729 30:0.55393553 31:0.56643802 32:0.69425219 33:0.65634441 34:0.60277134 35:0.31375346 36:0.17452119 37:0.63529456 38:0.3008056 39:0.62199056 40:0.5263595 41:0.73360163 42:0.63282257 43:0.33001199 44:0.82309234 45:0.27872863 46:0.1728283 47:0.86017537 
-0.9107418360869961 1:0.33226886 2:0.32368037 3:1.2760936e-16 4:0.58713895 5:0.45593631 6:0.46861002 7:0.6120894 8:0.62149411 9:0.58587182 10:0.35415441 11:0.36690757 12:0.53969616 13:0.50165874 14:0.3941575 15:0.77081162 16:0.14080906 17:0.58562517 18:0.36352435 19:0.81610924 20:0.60364085 21:0.46611381 22:0.36902854 23:0.46156135 24:0.79229701 25:0.15823638 26:0.36313164 27:0.71376628 28:0.23328947 29:0.3377465 30:0.37444019 31:0.58455348 32:0.71205086 33:0.38156414 34:0.25272843 35:0.44320914 36:0.62516648 37:0.49235436 38:0.29724905 39:0.27479759 40:0.55604267 41:0.51632154 42:0.53482503 43:0.5792973 44:0.53650606 45:0.71682143 46:0.43329817 47:0.79980481 
-3.739706639639845 1:0.28124556 2:0.46720508 3:0.43512771 4:0.45339572 5:0.77082735 6:0.30676952 7:0.77501762 8:0.65905553 9:0.47970769 10:0.63481575 11:0.84269577 12:0.53393126 13:0.24248686 14:0.45803136 15:0.61418766 16:0.76200622 17:0.10728976 18:0.42262888 19:0.37928456 20:0.59170789 21:0.5309853 22:0.12135758 23:0.72904778 24:0.5606845 25:0.1242201 26:0.3050859 27:0.49268129 28:0.47140801 29:0.55461496 30:0.69737893 31:0.50340068 32:0.6057412 33:0.73665303 34:0.29719019 35:0.49238443 36:0.35825029 37:0.45016316 38:0.44101146 39:0.35251516 40:0.70022899 41:0.55578232 42:0.6020506 43:0.70989126 44:0.39962667 45:0.66082156 46:0.061420433 47:0.72407019 
-0.6335916044539613 1:0.48367351 2:0.45511642 3:0.68251109 4:0.51287961 5:0.79922521 6:0.57074887 7:0.20603594 8:0.71258843 9:0.63193059 10:0.21134225 11:0.66538376 12:0.31184155 13:0.62391895 14:0.69596046 15:0.53200769 16:0.58733588 17:0.472377 18:0.66506934 19:0.60039097 20:0.52218419 21:0.46657908 22:0.5845933 23:0.3968527 24:0.47718632 25:0.13897443 26:0.28724226 27:0.67566615 28:0.64424205 29:0.52266598 30:0.67035592 31:0.90866065 32:0.60920101 33:0.74625731 34:0.4525626 35:0.0989246 36:0.85489762 37:0.52769482 38:0.41490766 39:0.24996692 40:0.73972851 41:0.18334946 42:0.64084077 43:0.44741383 44:0.30833638 45:0.70227772 46:0.48214188 47:0.74615097 
-0.2631835607101866 1:0.92391264 2:0.58845979 3:0.8580153 4:0.51177222 5:0.55434346 6:0.39033261 7:0.48310706 8:0.61472458 9:0.45299682 10:0.27946967 11:0.50995362 12:0.43113059 13:0.40221974 14:0.26067212 15:0.95634824 16:0.56800532 17:0.069654003 18:0.33766672 19:0.47396049 20:0.4514752 21:0.62302113 22:0.39958379 23:0.66950077 24:0.61884141 25:0.48019662 26:0.35634148 27:0.45034677 28:0.65624553 29:1 30:0.38547137 31:0.23078208 32:0.54855454 33:0.55880684 34:0.15784241 35:0.4411186 36:0.97167158 37:0.67937034 38:0.60191333 39:0.81540543 40:0.54652733 41:0.26279372 42:0.49084303 43:0.6559298 44:0.53297848 45:0.40043291 46:0.50675195 47:0.73913437 
-3.429745886485872 1:0.5598805 2:0.35849762 3:0.5162738 4:0.5069111 5:0.38926876 6:0.46782738 7:0.61324757 8:0.31903997 9:0.38658616 10:0.43927294 11:0.37255615 12:0.49283198 13:0.69396001 14:0.33016151 15:0.211018 16:0.34000757 17:0.744389 18:0.26419169 19:0.6561985 20:0.38374799 21:0.19759576 22:0.44897056 23:0.43675631 24:0.4824008 25:0.07947427 26:0.39074063 27:0.79616237 28:0.70929283 29:0.30198056 30:0.46499506 31:0.36261171 32:0.49809039 33:0.59269381 34:0.48359936 35:0.44514459 36:0.3084119 37:0.52655154 38:0.56987149 39:0.35229865 40:0.59634119 41:0.49523541 42:0.56649745 43:0.36601323 44:0.62856287 45:0.15641446 46:0.37900934 47:0.76006401 
-1.700462993024954 1:0.58565199 2:0.423112 3:0.39292198 4:0.76843238 5:0.61681455 6:0.78072822 7:0.43410829 8:0.8322767 9:0.63869947 10:0.37859273 11:0.66215724 12:0.26872787 13:0.63726223 14:0.42494842 15:0.73745704 16:0.52963656 17:0.78077537 18:0.52506852 19:0.16743882 20:0.44063851 21:0.18213697 22:0.28833893 23:0.42815995 24:0.34607962 25:0.24606991 26:0.33362153 27:0.40802455 28:0.11890049 29:0.56481218 30:0.13668671 31:0.37439847 32:0.55431837 33:0.62690502 34:0.1210248 35:0.33221307 36:0.77049685 37:0.37792078 38:0.80550116 39:0.605811 40:0.36724165 41:0.83698922 42:0.6709199 43:0.7963177 44:0.64162105 45:0.57295346 46:0.55795079 47:0.83199471 
-2.278127071873059 1:0.43723306 2:0.45568168 3:0.47016051 4:0.8214972 5:0.63846797 6:0.38974673 7:0.63782334 8:0.36336404 9:0.37508678 10:0.49810961 11:0.66296029 12:0.23837928 13:0.44048911 14:0.84826237 15:0.71169245 16:0.55971664 17:0.25925836 18:0.37188348 19:0.16960897 20:0.48520684 21:0.67752367 22:0.58090043 23:0.52770936 24:0.59093863 25:0.49572945 26:0.36920172 27:0.19567975 28:0.62706608 29:0.61930555 30:0.47291496 31:0.58068126 32:0.56079906 33:0.50511497 34:0.37091178 35:0.59199911 36:0.51137996 37:0.79301149 38:0.22367424 39:0.37456962 40:0.6507892 41:0.67519516 42:0.51188368 43:0.51837564 44:0.57399797 45:0.24104454 46:0.31023866 47:0.75460982 
-1.262125717778887 1:0.53309673 2:0.33413601 3:0.3335138 4:0.28570241 5:0.3402701 6:0.27296692 7:0.73224825 8:0.43028608 9:0.46522945 10:0.31123614 11:0.68942022 12:0.43192059 13:0.40661556 14:0.68800187 15:0.50885105 16:0.61910373 17:0.69254094 18:0.84748757 19:0.46022317 20:0.724949 21:0.42586079 22:0.47122675 23:0.59418821 24:0.61444342 25:0.57258379 26:0.28659049 27:0.33094889 28:0.6682654 29:0.83218265 30:0.30405065 31:0.44184184 32:0.30029055 33:0.54902303 34:0.3638747 35:0.53970611 36:0.65182924 37:0.51487094 38:0.11023249 39:0.26339653 40:0.67215139 41:0.68424565 42:0.50961411 43:0.64192957 44:0.54974556 45:0.228689 46:0.70982069 47:0.77090818 
-0.007248363895389558 1:0.63360685 2:0.52355564 3:0.29738218 4:0.30352873 5:0.42204404 6:0.63122207 7:0.33934912 8:0.42088431 9:0.66830039 10:0.64495122 11:0.41604581 12:0.5520032 13:0.50069952 14:0.67003745 15:0.52037835 16:0.80646598 17:0.34318054 18:0.64552063 19:0.46761131 20:0.62243015 21:0.1878477 22:0.16800739 23:0.64423138 24:0.40029001 25:0.433276 26:0.24362542 27:0.58344567 28:0 29:0.51304883 30:0.32853255 31:0.41717389 32:0.57108986 33:0.52475071 34:0.16128084 35:0.50338775 36:0.93708193 37:0.59093744 38:0.55945492 39:0.59810042 40:0.51261801 41:0.52434039 42:0.49992484 43:0.74732065 44:0.56911105 45:0.47354117 46:0.68571508 47:0.8415646 
-0.4410934579442172 1:0.37862512 2:0.33232042 3:0.51078397 4:0.98607713 5:0.92239064 6:0.25648871 7:0.56485075 8:0.38368684 9:0.70856297 10:0.56425643 11:0.61961174 12:0.20006564 13:0.72729814 14:1 15:0.80429518 16:0.55988485 17:0.45490831 18:0.62040311 19:0.37809265 20:0.45129019 21:0.48838699 22:0.53432822 23:0 24:0.40100539 25:0.42791271 26:0.57030344 27:0.1665915 28:0.27199909 29:0.48195601 30:0.54001194 31:0.36241919 32:0.52568197 33:0.82423872 34:0.32685226 35:0.93830329 36:0.24607417 37:0.40930074 38:0.40726778 39:0.39346984 40:0.56269073 41:0.20497224 42:0.72581762 43:0.56977051 44:0.66689926 45:0.52131176 46:0.40066999 47:0.48345527 
-0.8124055979003098 1:0.4797754 2:0.4925763 3:0.70584214 4:0.45673043 5:0.55425161 6:0.49066028 7:0.067768261 8:0.39150509 9:0.70118129 10:0.66030145 11:0.46887964 12:0.64580095 13:0.078283601 14:0.67121208 15:0.51906294 16:0.88074398 17:0.50278711 18:0.4880217 19:0.7558369 20:0.49211517 21:0.21640508 22:0.38842407 23:0.35872337 24:0.55988193 25:0.14191018 26:0.7442857 27:0.50956416 28:0.48440248 29:0.68435252 30:0.31472877 31:0.25522658 32:0.22542962 33:0.82268494 34:0.38567793 35:0.54679483 36:0.76898426 37:0.22571999 38:0.53742599 39:0.60008723 40:0.68406165 41:0.060094204 42:0.56038326 43:0.52693486 44:0.67526013 45:0.33367184 46:0.59249961 47:0.57798982 
-1.065667507936658 1:0.68663424 2:0.41829008 3:0.66317385 4:0.48777241 5:0.51622063 6:0.27551937 7:0.49057859 8:0.83500421 9:0.72162473 10:0.40921065 11:0.33044949 12:0.68578881 13:0.43243223 14:0.48684695 15:0.49240392 16:0.57229835 17:0.34850827 18:0.26500455 19:0.36449257 20:0.27169591 21:0.83530194 22:0.72689956 23:0.29430082 24:0.25495273 25:0.62120187 26:0.27762499 27:0.54499257 28:0.05269818 29:0.56008559 30:0.46026182 31:0.49771783 32:0.68890572 33:0.39335477 34:0.43229091 35:0.42177984 36:0.66342783 37:0.47030181 38:0.58532786 39:0.28237617 40:0.50667691 41:0.40348706 42:0.62595266 43:0.62190884 44:0.5544908 45:0.43356311 46:0.27834961 47:0.81755662 
-1.001621420311914 1:0.87249279 2:0.81817365 3:1 4:0.6678521 5:0.52882117 6:0.71317559 7:0.48477203 8:0.56955779 9:0.54052228 10:0.37260595 11:0.41488448 12:0.74150258 13:0.33631179 14:0.63042194 15:0.34656173 16:0.49336043 17:0.18265992 18:0.39124733 19:0.32336536 20:0.37150028 21:0.28018138 22:0.58726531 23:0.31461623 24:0.3549417 25:0.40970618 26:0.31474745 27:0.62536538 28:0.58276606 29:0.35259572 30:0.40401125 31:0.56848693 32:0.41979381 33:0.47536197 34:0.85503823 35:0.3748832 36:0.59233069 37:0.41430816 38:0.4440836 39:0.46140066 40:0.56839335 41:0.74813211 42:0.74640864 43:0.4471449 44:0.67043579 45:0.50325316 46:0.19115114 47:0.72460872 
-0.5801676848000796 1:0.54201156 2:0.66164947 3:0.86724305 4:0.35934436 5:0.49726915 6:0.50619656 7:0.36024228 8:0.36233824 9:0.22158489 10:0.24088712 11:0.39270639 12:0.49722752 13:0.44921669 14:0.36839202 15:0.69390219 16:0.63884598 17:0.29183778 18:0.27780238 19:0.55489767 20:0.57695323 21:0.48441902 22:0.61653876 23:0.72194052 24:0.43641597 25:0.15484932 26:0.36281106 27:0.60493791 28:0.41214588 29:0.56497759 30:0.64836043 31:0.60839242 32:0.43757489 33:0.51776826 34:0.59757233 35:0.70664746 36:0.37960029 37:0.41821694 38:0.39056104 39:0.28631002 40:0.56600481 41:0.40316495 42:0.49844483 43:0.53009152 44:0.62077123 45:0.21354808 46:0.31488714 47:0.81084514 
-1.072903698641382 1:0.58648747 2:0.49435261 3:0.39281011 4:0.60337651 5:0.11515006 6:0.80472326 7:0.18328191 8:0.26645902 9:0.6434595 10:0.6370337 11:0.56936532 12:0.58992863 13:0.5139243 14:0.46493986 15:0.50631326 16:0.31123573 17:0.32888344 18:0.20605277 19:0.27162838 20:0.64034337 21:0.42935956 22:0.42159191 23:0.42836112 24:0.50644141 25:0.75435096 26:0.6137054 27:0.24061322 28:0.69980669 29:0.41365141 30:0.18852986 31:0.59253967 32:0.51773763 33:0.3860305 34:0.3521392 35:0.5553143 36:0.41712633 37:0.43497673 38:0.28609136 39:0.206066 40:0.84883475 41:0.61130208 42:0.50170755 43:0.41339052 44:0.65856385 45:0.40503046 46:0.37853304 47:0.78540069 
-4.125462016284813 1:0.79638976 2:0.60281897 3:0.50220144 4:0.50049198 5:0.84216118 6:0.4212949 7:0.36217749 8:0.49700749 9:0.63316673 10:0.37807742 11:0.37804034 12:0.52424967 13:0.56865311 14:0.068356216 15:0.49842313 16:0.71405369 17:0.46641487 18:0.62828857 19:0.67898297 20:0.52095723 21:0.45850453 22:0.78774357 23:0.28279132 24:0.38126218 25:0.43263346 26:0.34677997 27:0.53605127 28:0.50366813 29:0.39245281 30:0.36388454 31:0.50024682 32:0.37007469 33:0.57516509 34:0.30537018 35:0.40079492 36:0.47895816 37:0.54275984 38:0.52570766 39:0.70194089 40:0.39487615 41:0.67677873 42:0.87949759 43:0.60337985 44:0.63310748 45:0.23329024 46:0.31594226 47:0.80114669 
-0.9563246341094396 1:0.64710182 2:0.12872368 3:0.70473582 4:0.20405266 5:0.42905241 6:0.88188201 7:0.56956983 8:0.29012915 9:0.4989557 10:0.10095479 11:0.46163288 12:0.90034676 13:0.52775359 14:0.68680125 15:0.53766698 16:0.67184681 17:0.64711916 18:0.1833235 19:0.057113629 20:0.59793538 21:0.64111042 22:0.48392892 23:0.80737025 24:0.52055293 25:0.71029246 26:0.58542269 27:0.47528818 28:0.52761328 29:0.23987 30:0.63912582 31:0.59795249 32:0.36553228 33:0.63192517 34:0.24971831 35:0.38136682 36:0.5748325 37:0.39777306 38:0.65327108 39:0.50995666 40:0.61267304 41:0.10647041 42:0.46150589 43:0.49996477 44:0.67338026 45:0.25609475 46:0.46131644 47:0.82312536 
-5.603359995657232 1:0.65960115 2:1 3:0.67676139 4:0.63867879 5:0.67399448 6:0.47136772 7:0.27736518 8:0.4398565 9:0.38233384 10:0.46519077 11:0.46734205 12:0.438705 13:0.32392743 14:0.33367306 15:0.60370803 16:0.42896843 17:0.40217763 18:0.18039875 19:0.44252232 20:0.73603344 21:0.38738248 22:0.52102631 23:0.71919644 24:0.56513864 25:0.62497616 26:0.24981463 27:0.60873872 28:0.65526664 29:0.29608157 30:0.31823736 31:0.30492723 32:0.66648489 33:0.11910045 34:0.41002825 35:0.64440656 36:0.30575585 37:0.30510437 38:0.57068533 39:0.82364541 40:0.78729689 41:0.31409243 42:0.55748636 43:0.49300456 44:0.48817042 45:0.58837861 46:0.19012177 47:0.73906648 
-8.686660609062164 1:0.42644015 2:0.42293173 3:0.47951856 4:0.78483588 5:0.5132857 6:0.25449741 7:0.66723108 8:0.18186139 9:0.44789782 10:0.77018088 11:0.57518536 12:0.2207561 13:0.51205057 14:0.68101466 15:0.28938484 16:0.39382556 17:0.28079322 18:0.61520427 19:0.60003436 20:0.48947591 21:0.40334743 22:0.51936144 23:0.34426928 24:0.58905727 25:0.46836129 26:0.86468714 27:0.60013902 28:0.26138401 29:0.94775301 30:0.65438241 31:0.25332648 32:0.50550449 33:0.83530676 34:0.42248124 35:0.81928217 36:0.60231668 37:0.36087713 38:0.70466816 39:0.65963763 40:0.73693961 41:0.53271121 42:0.75936991 43:0.66842437 44:0.52995342 45:0.63415277 46:0.090028308 47:0.42890728 
-2.44018787269617 1:0.77927607 2:0.81306368 3:0.80723107 4:0.88931715 5:0.44464749 6:0.45280385 7:0.37242159 8:0.35593677 9:0.7884984 10:0.73941576 11:0.2816118 12:0.36229253 13:0.59960961 14:0.81388611 15:0.34877989 16:0.4861598 17:0.4863573 18:0.44888139 19:0.81240547 20:0.65193939 21:0.66809493 22:0.24590462 23:0.54973453 24:0.79218811 25:0.23341341 26:0.70621568 27:6.9665077e-16 28:0.39999217 29:0.47870234 30:0.68580031 31:0.54665768 32:0.76234412 33:0.42861935 34:0.34385547 35:0.36641493 36:0.41798514 37:0.33983314 38:0.44673774 39:0.57474083 40:0.53903663 41:0.10831181 42:0.36708125 43:0.66571444 44:0.43247622 45:0.64879239 46:0.25667718 47:0.64459848 
-0.4355505564551861 1:0.35003874 2:0.3728483 3:0.37515417 4:0.33885685 5:0.44867557 6:0.54213834 7:0.34925151 8:0.57732284 9:0.58284259 10:0.33825868 11:0.38985482 12:0.28908744 13:0.29719433 14:0.46008703 15:0.59185278 16:0.32878411 17:0.30068988 18:0.30021098 19:0.34035689 20:0.40899035 21:0.6641854 22:0.46569741 23:0.6399433 24:0.3344101 25:0.056792319 26:0.43843308 27:0.91625595 28:0.56255859 29:0.720119 30:0.45701075 31:0.584122 32:0.11681157 33:0.46232957 34:0.46336964 35:0.52768612 36:0.39784056 37:0.42332777 38:0.52341825 39:0.842282 40:0.63953227 41:0.63270056 42:0.8559956 43:0.6676954 44:0.40324202 45:0.82599336 46:0.35140619 47:0.66265672 
-3.087424199709089 1:0.84317291 2:0.40659735 3:0.73048574 4:0.22817251 5:0.44678152 6:0.91578877 7:0.53849113 8:0.4988791 9:0.67809695 10:0.36262631 11:0 12:0.66357654 13:0.28918397 14:0.68196845 15:0.54061455 16:0.51383889 17:0.37005374 18:0.61146176 19:0.59992123 20:0.33877108 21:0.67309827 22:0.39880225 23:0.47918302 24:0.60724258 25:0.47854558 26:0.44575036 27:0.42442656 28:0.25892115 29:0.55763948 30:0.5341897 31:0.57178807 32:0.8012529 33:0.49468175 34:0.34789616 35:0.62046182 36:0.62344372 37:0.64684516 38:0.31412742 39:0.48106226 40:0.88425708 41:0.47637931 42:0.78653342 43:0.44633204 44:0.46918368 45:0.8845737 46:0 47:0.61305898 
-0.2186097543018265 1:0.65609068 2:0.461748 3:0.69150317 4:0.53990638 5:0.78404796 6:0.61180174 7:0.40445724 8:0.77332163 9:0.86878002 10:0.56321049 11:0.65704155 12:0.36587018 13:0.50228018 14:0.42710248 15:0.55402619 16:0.54837525 17:0.37463841 18:0.59454149 19:0.14069831 20:0.66937959 21:0.57142568 22:0.39972025 23:0.42696878 24:0.41305211 25:0.2055016 26:0.51602834 27:0.72830838 28:0.75336754 29:0.073125795 30:0.49405548 31:0.44235703 32:0.45743749 33:0.64196342 34:0.15474856 35:0.36398637 36:0.19192253 37:0.52913266 38:0.22292572 39:0.89637327 40:0.66361815 41:0.79548818 42:0.77862531 43:0.59683692 44:0.29283327 45:0.57863432 46:0.4220511 47:0.76845914 
-0.05352624786850596 1:0.4089427 2:0.46381637 3:0.51180041 4:0.56276184 5:0.52557737 6:0.39689907 7:0.45117098 8:0.30180299 9:0.6173324 10:0.40606451 11:0.58241028 12:0.41884086 13:0.25520542 14:0.34749493 15:0.50974065 16:0.62501138 17:0.59312701 18:0.59671891 19:0.46878538 20:0.41325304 21:0.52068472 22:0.32639045 23:0.34478113 24:0.35543922 25:0.97759515 26:0.72105384 27:0.65876931 28:0.53244388 29:0.47708017 30:0.43820018 31:0.46767157 32:0.585307 33:0.49255723 34:0.16068321 35:0.46338814 36:0.59979278 37:0.67674363 38:0.29875931 39:0.5863682 40:0.70928741 41:0.53658623 42:0.95718771 43:0.55305111 44:0.27428102 45:0.29542819 46:0.36571243 47:0.78554106 
-1.796366001083353 1:0.68333608 2:0.42832801 3:0.57235134 4:0.42471653 5:0.41617811 6:0.36440924 7:0.50892323 8:0.3059341 9:0.33843881 10:0.73113304 11:0.41650066 12:0.86125159 13:0.79182458 14:0.78124994 15:0.96924663 16:0.08926069 17:0.46291316 18:0.31936496 19:0.26691461 20:0.45070571 21:0.51349938 22:0.30530351 23:0.73924619 24:0.12229597 25:0.21951182 26:0.70160812 27:0.60717821 28:0.56840736 29:0.33089226 30:0.4214246 31:0.70847666 32:0.37140107 33:0.80765557 34:0.60149992 35:0.21283743 36:0.16235411 37:0.68779087 38:0.12501912 39:0.55752051 40:0.31662649 41:0.77930099 42:0.73517644 43:0.92326152 44:0.21079734 45:0.4178496 46:0.52877605 47:0.67377454 
-2.441055724887848 1:0.45128748 2:0.50866318 3:0.86950833 4:0.55339015 5:0.43689001 6:0.48969021 7:0.51236612 8:0.54114985 9:0.48036861 10:0.43712077 11:0.23294878 12:0.54790413 13:0.70644981 14:0.61615431 15:0.70630771 16:0.23807365 17:0.62759715 18:0.34551296 19:0.55693829 20:0.43487039 21:0.4946658 22:0.39037842 23:0.54693633 24:0.20620905 25:0.26615798 26:0.80027336 27:0.61420429 28:0.53183037 29:0.22541653 30:0.28634995 31:0.5914259 32:0.47925323 33:0.77300459 34:0.86980003 35:0.13880967 36:0.46804333 37:0.52841079 38:0.18779738 39:0.68009788 40:0.35515538 41:0.78174311 42:0.65845031 43:0.90045238 44:0.16764311 45:0.42290649 46:0.60870034 47:0.71453184 
