svm_type c_svc
kernel_type rbf
gamma 0.09
nr_class 2
total_sv 35
rho -0.270639
label 130590101 130590102
probA -4.51515
probB 0.116154
nr_sv 15 20
SV
0.8714805688582234 1:0.57094407 2:0.49744081 3:0.66164148 4:0.44765365 5:0.62901896 6:0.45668226 7:0.58456212 8:0.67007804 9:0.35817045 10:0.44628721 11:0.69953215 12:0.57143521 13:0.97378117 14:0.61815828 15:0.31300023 16:0.57329684 17:0.99225056 18:0.76216727 19:0.63171571 20:0.51622862 21:0.33899763 22:0.18054847 23:0.13967784 
3.67024424046999 1:0.60384357 2:0.63366956 3:0.68634224 4:0.39360151 5:0.31883782 6:0.66183072 7:0.68296599 8:0.64945966 9:0.4205071 10:0.5485028 11:0.59156787 12:0.59268874 13:0.86035258 14:0.37138987 15:0.42485133 16:0.48939472 17:0.95433331 18:0.66471106 19:0.83478069 20:0.5666132 21:0.25682431 22:0.32208693 23:0.17548154 
2.37220139367958 1:0.46032757 2:0.69005364 3:0.56907922 4:0.53120357 5:0.5340268 6:0.53968114 7:0.49387023 8:0.48361364 9:0.58177733 10:0.46752527 11:0.50743967 12:0.15139209 13:0.14794524 14:0.95526707 15:0.065264948 16:0.13581295 17:0.25698337 18:0.66756213 19:0.7840777 20:0.5440259 21:0.043460649 22:0.41627613 23:0.10624232 
0.4615674200072311 1:0.57453024 2:0.55166811 3:0.40416715 4:0.37330079 5:0.28929293 6:0.65746486 7:0.74137425 8:0.79767257 9:0.63976258 10:0.55828559 11:0.69869035 12:0.59958744 13:0.45288914 14:0.69917452 15:0.60110772 16:0.14615791 17:0.6612395 18:0.52100176 19:0.035819158 20:0.88114822 21:0.52357703 22:0.68056643 23:0.13591108 
2.95428623199819 1:0.69644934 2:0.91973925 3:0.27860895 4:0.38917196 5:1 6:0.5596807 7:0.071007513 8:1 9:0.87581366 10:0.5933218 11:0.57075739 12:0.59718943 13:0.41224527 14:0.47305089 15:0.21112187 16:0.52403051 17:0.35711145 18:0.42611766 19:0.077535279 20:0.73719817 21:0.47760618 22:0.67886651 23:0.22907569 
1.774838691002557 1:0.44573766 2:1 3:0.45094392 4:0.36725181 5:0.71749997 6:0.6154139 7:0.42665848 8:0.69853342 9:0.83028007 10:0.58723325 11:0.63535202 12:0.91162777 13:0.51014447 14:0.56085908 15:0.23544967 16:0.58860981 17:0.45757145 18:0.509377 19:0.14810626 20:0.72899175 21:0.48417085 22:0.71826875 23:0.21329275 
0.8615280633956892 1:0.73822337 2:0.67463797 3:0.38997725 4:0.72445357 5:0.3158204 6:1 7:0.3542687 8:0.82507533 9:0.42128599 10:0.56062073 11:0.68562138 12:0.02088864 13:0.60389638 14:0.17152411 15:0.63903993 16:0.6812349 17:0.16873772 18:0.45293131 19:0.28611648 20:0 21:0.58680242 22:0.60296285 23:0.23608978 
3.326386740402849 1:0.34149471 2:0.40034342 3:0.66384226 4:0.66024518 5:0.8150956 6:0.33126116 7:0.65595591 8:0.59448135 9:0.86384451 10:0.50093567 11:0.55354679 12:0.19956541 13:0.70559216 14:0.57947743 15:0.96023339 16:0.54068559 17:0.60487682 18:0.76552242 19:0.48144621 20:0.1663671 21:0.72579092 22:0.51956344 23:0.160174 
3.558297835672153 1:0.44472918 2:0.60795432 3:0.80786711 4:1 5:0.56017685 6:0.51733232 7:0.52874124 8:0.23406242 9:0.4292213 10:0.41294059 11:0.48992762 12:0.38082251 13:0.55702347 14:0.45155472 15:0.41099015 16:0.744986 17:0.91998678 18:0.78833514 19:0.24132966 20:0.92330879 21:0.73581266 22:0.6615231 23:0.1555137 
2.148884300834105 1:0.58166385 2:0.51117992 3:0.40810925 4:0.61312097 5:0.40675408 6:0.43438801 7:0.75308633 8:0.37622774 9:0.85879695 10:0.36624619 11:0.68404615 12:0.9601559 13:0.3413364 14:0.64846295 15:0.19546974 16:0.30813974 17:0.41742623 18:0.36356691 19:0.76419073 20:0.56128752 21:0.81928903 22:0.74272227 23:0.091587625 
2.974463579149242 1:0.34050712 2:0.47968438 3:0.61180317 4:0.39470699 5:0.57168794 6:0.25001058 7:0.52455145 8:0.76973355 9:0 10:0.74122769 11:0.78401548 12:0.47074968 13:0.45398891 14:0.729747 15:0.54202372 16:0.038636655 17:0.67753386 18:0.5187887 19:0.85192919 20:0.83675927 21:0.9184131 22:0.67187512 23:0.12327848 
1.822234874922843 1:0.40711731 2:0.59748793 3:0.39394999 4:0.6282776 5:0.22537024 6:0.80038702 7:0.48822331 8:0.48577183 9:0.49260432 10:0.42535216 11:0.52467781 12:0.18899083 13:0.17118932 14:0.62203282 15:0.15193991 16:0.65676624 17:0.78269351 18:0.47404549 19:0.76739967 20:0.73356026 21:0.95570654 22:0.75610721 23:0.13422188 
1.335431645416669 1:0.58235717 2:0.48819503 3:0.57856524 4:0.20747668 5:0.17970477 6:0.57326496 7:0.32376981 8:1.1991181e-15 9:0.30561662 10:0.41205379 11:0.37339222 12:0.35824639 13:0.47068495 14:0.56866074 15:0.44184169 16:0.68354428 17:0.60201204 18:0.66756403 19:0.19177772 20:0.79266882 21:0.50262976 22:0.59124982 23:0.095205799 
0.2719815786447692 1:0.43812171 2:0.5137592 3:0.32855934 4:0.97009218 5:0.43422985 6:0.74095136 7:0.79923552 8:0.056504436 9:0.61331034 10:0.11308294 11:0.44197705 12:0.58550626 13:0.12919863 14:0.63720757 15:0.49789324 16:0.51611847 17:0.58922458 18:0.4252125 19:0.47229996 20:0.54832393 21:0.68304843 22:0.82221711 23:0.080736868 
5.707968775195707 1:0.53809923 2:0.81670016 3:0.59808469 4:0.64261144 5:0.39834946 6:0.48613229 7:0.54891384 8:0.29922602 9:0.3131465 10:0.52461368 11:0.5596664 12:0.19614995 13:0.59190089 14:0.27366835 15:0.56931484 16:0.39979148 17:0.077826515 18:0.37935123 19:0.36108562 20:0.35317194 21:0.69835365 22:0.89294738 23:0.22228625 
-4.408997162106461 1:0.7073127 2:0.62913156 3:0.34702361 4:0.52018249 5:0.41611388 6:0.56653333 7:0.39673394 8:0.50668865 9:0.30252704 10:0.73179656 11:0.44522697 12:0.51689607 13:0.5658285 14:0.54621017 15:0.6064741 16:0.53585744 17:0.48898321 18:0.33379269 19:0.63623405 20:0.70860833 21:0.47060287 22:0.56970859 23:0.77182186 
-0.001139960162507486 1:0.59765148 2:0.65268356 3:0.38674775 4:0.6195749 5:0.45998847 6:0.43916255 7:0.62651801 8:0.38642091 9:0.67937231 10:0.97083879 11:0.57739693 12:0.49922603 13:0.6214233 14:0.68962312 15:0.44686282 16:0.63176554 17:0.49935544 18:0.44638562 19:0.67890567 20:0.77286154 21:0.49963596 22:0.57209027 23:0.80529338 
-4.231534129564516 1:0.59765148 2:0.65268356 3:0.38674775 4:0.6195749 5:0.45998847 6:0.43916255 7:0.62651801 8:0.38642091 9:0.67937231 10:0.97083879 11:0.57739693 12:0.49922603 13:0.6214233 14:0.68962312 15:0.44686282 16:0.63176554 17:0.49935544 18:0.44638562 19:0.67890567 20:0.77286154 21:0.49963596 22:0.57209027 23:0.80529338 
-0.001961957759573263 1:0.33656761 2:0.60177863 3:0.688613 4:0.61205119 5:0.67954272 6:0.89631665 7:0.099051543 8:0.47713855 9:0.72651052 10:0.44958112 11:0.82100791 12:0.26223779 13:0.4179275 14:0.031902883 15:0.38026643 16:0.31324092 17:0.63628584 18:0.3073152 19:0.41964385 20:0.78316575 21:0.59935838 22:0.43777561 23:0.87367296 
-3.225823799725542 1:0.33656761 2:0.60177863 3:0.688613 4:0.61205119 5:0.67954272 6:0.89631665 7:0.099051543 8:0.47713855 9:0.72651052 10:0.44958112 11:0.82100791 12:0.26223779 13:0.4179275 14:0.031902883 15:0.38026643 16:0.31324092 17:0.63628584 18:0.3073152 19:0.41964385 20:0.78316575 21:0.59935838 22:0.43777561 23:0.87367296 
-0.001086220446534181 1:0.63778478 2:0.93404102 3:0.55578071 4:0.48533416 5:0.28223258 6:0.23164609 7:0.44512674 8:0.4467881 9:0.57470882 10:0.33544904 11:0.66157937 12:0.27536812 13:0.56829828 14:0.40294677 15:0.38426173 16:0.26780042 17:0.47855937 18:0.71453476 19:0.34599626 20:0.56799293 21:0.76026148 22:0.14492907 23:0.6677444 
-4.308830336929962 1:0.63778478 2:0.93404102 3:0.55578071 4:0.48533416 5:0.28223258 6:0.23164609 7:0.44512674 8:0.4467881 9:0.57470882 10:0.33544904 11:0.66157937 12:0.27536812 13:0.56829828 14:0.40294677 15:0.38426173 16:0.26780042 17:0.47855937 18:0.71453476 19:0.34599626 20:0.56799293 21:0.76026148 22:0.14492907 23:0.6677444 
-0.003372493838445273 1:0.46607709 2:0.70759898 3:0.44724175 4:0.61567551 5:0.49853685 6:0.49253461 7:0.55657738 8:0.35703945 9:0.3886992 10:0.62299043 11:0.53339976 12:0.43653572 13:0.49175841 14:0.54903322 15:0.20111132 16:0.39143372 17:0.45023882 18:0.82275236 19:0.22832789 20:0.49720147 21:0.83445328 22:0.038476739 23:0.65810853 
-2.021130833603194 1:0.46607709 2:0.70759898 3:0.44724175 4:0.61567551 5:0.49853685 6:0.49253461 7:0.55657738 8:0.35703945 9:0.3886992 10:0.62299043 11:0.53339976 12:0.43653572 13:0.49175841 14:0.54903322 15:0.20111132 16:0.39143372 17:0.45023882 18:0.82275236 19:0.22832789 20:0.49720147 21:0.83445328 22:0.038476739 23:0.65810853 
-3.32601139183741 1:0.26546904 2:0.65462554 3:0.30115697 4:0.62440729 5:0.50276202 6:0.51465499 7:0.49499246 8:0.6281603 9:0.43732917 10:0.43122879 11:0.49075124 12:0.55344313 13:0.4590126 14:0.81222093 15:0.25130802 16:0.38852575 17:0.60753602 18:0.71319115 19:0.16976532 20:0.44627649 21:0.79709917 22:0.12377891 23:0.65412563 
-0.001863621614692889 1:1 2:0.68825054 3:0.34679434 4:0.4967694 5:0.32407218 6:0.16926564 7:0.41952178 8:0.23032729 9:0.69773954 10:0.42912003 11:0.69246376 12:0.29166532 13:0.8681196 14:0.40181321 15:0.1051562 16:0.35724172 17:0.94266939 18:0.47756881 19:0.60359347 20:0.48267508 21:0.39404917 22:0.79279393 23:0.863186 
-1.435022196863367 1:1 2:0.68825054 3:0.34679434 4:0.4967694 5:0.32407218 6:0.16926564 7:0.41952178 8:0.23032729 9:0.69773954 10:0.42912003 11:0.69246376 12:0.29166532 13:0.8681196 14:0.40181321 15:0.1051562 16:0.35724172 17:0.94266939 18:0.47756881 19:0.60359347 20:0.48267508 21:0.39404917 22:0.79279393 23:0.863186 
-0.005436993565549694 1:0.54398555 2:0.42196506 3:0.68452501 4:0.43502763 5:7.4457018e-16 6:0.58902436 7:0.43721202 8:0.9111498 9:0.47423419 10:0.37334961 11:0.66492629 12:0.4227109 13:0.72468108 14:0.78588086 15:0.29466456 16:0.48166776 17:0.67546135 18:0.4628455 19:0.44068187 20:0.47370693 21:0.51977724 22:0.93068838 23:0.85581833 
-2.789170751543371 1:0.54398555 2:0.42196506 3:0.68452501 4:0.43502763 5:7.4457018e-16 6:0.58902436 7:0.43721202 8:0.9111498 9:0.47423419 10:0.37334961 11:0.66492629 12:0.4227109 13:0.72468108 14:0.78588086 15:0.29466456 16:0.48166776 17:0.67546135 18:0.4628455 19:0.44068187 20:0.47370693 21:0.51977724 22:0.93068838 23:0.85581833 
-0.4148301647357532 1:0 2:0.75090683 3:0.80374843 4:0.3395296 5:0.37708309 6:0.35994625 7:0.20646262 8:0.31846243 9:0.59102517 10:0.49450594 11:0.57305866 12:0.39266205 13:0.51178086 14:0.76614314 15:0.2433681 16:0.41166818 17:0.65806514 18:0.58942276 19:0.40541434 20:0.44646013 21:0.54659456 22:1 23:0.89065063 
-1.03154840061317 1:0.55813253 2:0.68497568 3:0.38887993 4:0.047726631 5:0.85836154 6:0.81310517 7:0.97233248 8:0.74915117 9:0.26854286 10:0.26723805 11:0.76055944 12:0.26697624 13:0.5060271 14:0.82160759 15:0.27275991 16:0.53159368 17:0.5873459 18:0.75341886 19:0.48185372 20:0.54890662 21:0.56977999 22:0.94236642 23:0.901281 
-0.00161985548031814 1:0.48197898 2:0.69034415 3:0.72107828 4:0.43378982 5:0.50284493 6:0.5821324 7:0.63701814 8:0.68670243 9:0.52849692 10:0.81606615 11:0.45759434 12:0.60792607 13:0.44836366 14:0.025194228 15:0.23794279 16:0.22342443 17:0.59262109 18:0.96857458 19:0.6277321 20:0.42100933 21:0.54894668 22:0.94927222 23:0.96019942 
-0.7110169394169095 1:0.48197898 2:0.69034415 3:0.72107828 4:0.43378982 5:0.50284493 6:0.5821324 7:0.63701814 8:0.68670243 9:0.52849692 10:0.81606615 11:0.45759434 12:0.60792607 13:0.44836366 14:0.025194228 15:0.23794279 16:0.22342443 17:0.59262109 18:0.96857458 19:0.6277321 20:0.42100933 21:0.54894668 22:0.94927222 23:0.96019942 
-0.000225122949661476 1:0.57141632 2:0.6192469 3:1 4:0.79416072 5:0.88228881 6:0.58794045 7:0.72059458 8:0.38256741 9:0.42795989 10:1.065686e-15 11:0.19915602 12:0.61243439 13:0.25195941 14:0.89249164 15:0.9097423 16:0.37075973 17:0.32272169 18:0.75875086 19:0.70533502 20:0.53018135 21:0.9621824 22:0.81437302 23:0.58992749 
-6.191173606892854 1:0.57141632 2:0.6192469 3:1 4:0.79416072 5:0.88228881 6:0.58794045 7:0.72059458 8:0.38256741 9:0.42795989 10:1.065686e-15 11:0.19915602 12:0.61243439 13:0.25195941 14:0.89249164 15:0.9097423 16:0.37075973 17:0.32272169 18:0.75875086 19:0.70533502 20:0.53018135 21:0.9621824 22:0.81437302 23:0.58992749 
