svm_type c_svc
kernel_type rbf
gamma 0.09
nr_class 2
total_sv 31
rho -0.345686
label 130360101 130360102
probA -4.79183
probB 0.304709
nr_sv 17 14
SV
2.013071044827925 1:0.31564394 2:0.16510154 3:0.50797075 4:0.87147921 5:1 6:0.65267563 7:0.79238051 8:0.53580505 9:0.39595374 10:0.70747823 11:0.5829339 12:0.61560911 13:0.35660782 14:0.24730243 15:0.59041005 16:0.35248572 17:0.30515635 18:0.49392572 19:0.31230089 20:0.19249223 
0.5182099119523247 1:0.6047855 2:1 3:0.66722196 4:0.069329597 5:0.3425729 6:0.46544278 7:0.25933054 8:0.564574 9:0.19163154 10:0.91994184 11:0.56626582 12:0.57016516 13:0.49511164 14:0.37045917 15:0.77001965 16:0.09581925 17:0.39557108 18:0.36094671 19:0.41027299 20:0.025122778 
0.58473916619141 1:0.22472903 2:0.48035866 3:0.2159891 4:0.29500243 5:0.31795847 6:0.42626777 7:0.47047988 8:0.50215459 9:0.43973783 10:0.81357127 11:0.76822942 12:0.55827838 13:0.14635496 14:0.4253085 15:0.48733354 16:0.1691148 17:0.23396166 18:0.39927709 19:0.40971532 20:0.11721472 
5.778535673607574 1:0.19480719 2:0.33752316 3:0.29021454 4:0.3398484 5:0.47994074 6:0.44390139 7:0.45237336 8:0.44932365 9:0.50069857 10:0.85566014 11:0.74376744 12:0.70038408 13:0.24854144 14:0.40466407 15:0.53503865 16:0.11721924 17:0.21190833 18:0.35093641 19:0.43241298 20:0.14316304 
2.707950796018971 1:0.96672302 2:0.69979066 3:0.28621629 4:0.91993159 5:0.47947901 6:0.16095024 7:0.19472936 8:0.49303362 9:0.40778056 10:0.64499992 11:0.85292703 12:0.60760736 13:0.29948902 14:0.4489255 15:0.16012168 16:0.62310654 17:0.35466915 18:0.89041096 19:0.7920953 20:0.45696753 
3.543703751480482 1:0.68299609 2:0.69223356 3:0.36561704 4:0.30759522 5:0.71031386 6:0.65015906 7:0.58953834 8:0.41636062 9:0.36040241 10:0.82591987 11:0.59401268 12:0.67054111 13:0.47160438 14:0.47990468 15:0.35166809 16:0.75523317 17:0.28943053 18:0.76666117 19:0.87221509 20:0.37571231 
0.3120624749406238 1:0.27432725 2:0.69095832 3:0.50270635 4:0.484164 5:0.59501845 6:0.23432994 7:0.82639676 8:0.61247981 9:0.18010561 10:0.46946907 11:0.6443606 12:0.48731682 13:0.48207241 14:0.32752064 15:0.80972975 16:0.76353276 17:0.62614423 18:0.32527015 19:0.62632138 20:0.24399576 
3.998453878725055 1:0.17213151 2:0.53561127 3:0.60706931 4:0.62687171 5:0.54633152 6:0.57623386 7:0.42953753 8:0.76384854 9:0.54496855 10:0.54534322 11:0.79533058 12:0.7320345 13:0.31333759 14:0.38122633 15:0.76356435 16:0.67382813 17:0.54814446 18:0.42302307 19:0.75472778 20:0.31846178 
0.8296054456606686 1:0.60052949 2:0.77985901 3:0.37499523 4:0.28673822 5:0.70807558 6:0.50123131 7:0.39796439 8:0.31151539 9:0.68558323 10:0.6156345 11:0.300782 12:0.77209699 13:0.3926546 14:0.41081679 15:1 16:0.81577069 17:0.65195876 18:0.37235031 19:0.84826458 20:0.31617454 
2.228204882079542 1:0.33440405 2:0.86980265 3:0.056270078 4:0.41735786 5:0.50228047 6:0.64950383 7:0.46804079 8:0.49773353 9:0.50055623 10:0.15229233 11:0.11106863 12:0.056460518 13:0.45074025 14:0.2878907 15:0.29730874 16:0.4634459 17:0.30677316 18:0.80534524 19:0.4719986 20:0.39789426 
3.135569854240717 1:0.18082117 2:0.42361122 3:0.112312 4:0.12632614 5:0.81304365 6:0.7425198 7:0.081220478 8:0.87688828 9:0.81569952 10:0.52549034 11:0.45902166 12:0.23660615 13:0.27438551 14:0.31957516 15:0.54708815 16:0.54843736 17:0.4896487 18:0.64603019 19:0.73083979 20:0.41068619 
1.28418471002153 1:0.35300747 2:0.43365172 3:0.50846058 4:0.37074462 5:0.27701876 6:0.47090867 7:0.93279427 8:0.029198907 9:0.36817732 10:0.5696429 11:0.40098608 12:0.67502034 13:0.41681272 14:0.29055351 15:0.85661405 16:0.71823549 17:0.51394802 18:0.3199949 19:0.79595917 20:0.29630002 
1.457255809355327 1:0.66331029 2:0.61568379 3:0.14896744 4:0.40255576 5:0.83069599 6:0.2327968 7:0.84088224 8:0.20875086 9:0.52175421 10:0.49132633 11:0.3350234 12:0.5888992 13:0.35539934 14:0.29373038 15:0.76511508 16:0.8826443 17:0.42432201 18:0.46281612 19:0.83193243 20:0.39710763 
0.6255499656569811 1:0.16245933 2:0.23529795 3:0.17359191 4:0.55374843 5:0.41368812 6:0.2860215 7:0.94349009 8:0.1071289 9:0.28701171 10:0.72949839 11:0.54980922 12:0.51882946 13:0.49975154 14:0.17173222 15:0.77052754 16:0.73772198 17:0.48759389 18:0.40740532 19:0.6881305 20:0.26734671 
6.010323875515872 1:0.60560542 2:0.66969085 3:0.33335891 4:0.55985457 5:0.47642982 6:0.57023239 7:0.91752368 8:0.10423771 9:0.097719908 10:0.56839424 11:0.085014135 12:0.56988913 13:0.66616744 14:0.26532587 15:0.69072855 16:0.69871384 17:0.55904561 18:0.55311531 19:0.63475734 20:0.31404769 
4.298279770055494 1:0.15942061 2:0.68685156 3:0.85786974 4:0.79165047 5:0.322272 6:0.46306387 7:0.7517153 8:0.6411832 9:0.42387375 10:0.29988 11:0.68204403 12:0.51279622 13:0.19629961 14:0.40695077 15:0.36153233 16:0.66577107 17:0.20553096 18:0.57306492 19:0.92494339 20:0.51913279 
4.77404494562562 1:0.31900296 2:0.19779742 3:0.64066422 4:0.32574996 5:0.53325826 6:0.52005076 7:0.60279131 8:0.62353337 9:0.37999302 10:0.11939182 11:0.34146068 12:0.56757885 13:0.45973685 14:0.56199878 15:0.23822981 16:0.59940165 17:0.56065166 18:0.70613903 19:0.74714082 20:0.50485569 
-0.001244682848457008 1:0.70534408 2:0.2962344 3:0.46327633 4:0.35683984 5:0.36222515 6:0.51275158 7:0.41569138 8:0.42473328 9:0.22528173 10:0.66040969 11:0.36794746 12:0.63261712 13:0.081516251 14:0.5394007 15:0.37581241 16:0.94693911 17:0.60008609 18:0.61082208 19:0 20:0.51236802 
-3.866910161744432 1:0.70534408 2:0.2962344 3:0.46327633 4:0.35683984 5:0.36222515 6:0.51275158 7:0.41569138 8:0.42473328 9:0.22528173 10:0.66040969 11:0.36794746 12:0.63261712 13:0.081516251 14:0.5394007 15:0.37581241 16:0.94693911 17:0.60008609 18:0.61082208 19:0 20:0.51236802 
-0.003203413392839154 1:0.030980034 2:0.76345623 3:0.36484638 4:0.49911106 5:0.69251281 6:0.55644321 7:0.56338733 8:0.51392376 9:0.36683792 10:0.70902544 11:0.53199089 12:0.7114976 13:0.070098706 14:0.54804879 15:0.34962672 16:0.95929188 17:0.57837605 18:0.59619355 19:0.037053917 20:0.5137409 
-6.251944237453143 1:0.030980034 2:0.76345623 3:0.36484638 4:0.49911106 5:0.69251281 6:0.55644321 7:0.56338733 8:0.51392376 9:0.36683792 10:0.70902544 11:0.53199089 12:0.7114976 13:0.070098706 14:0.54804879 15:0.34962672 16:0.95929188 17:0.57837605 18:0.59619355 19:0.037053917 20:0.5137409 
-2.027088684779443 1:0.43468985 2:0.49506173 3:0.49789524 4:0.43284008 5:0.5008741 6:0.43832472 7:0.56897843 8:0.33972499 9:0.73510754 10:0.56071806 11:0.70192558 12:0.5622164 13:1 14:0.011137286 15:0.38739264 16:0.56426674 17:1 18:0.56008798 19:0.098823316 20:0.70864075 
-0.003175232591467388 1:0.39201155 2:0.67187196 3:0.55380231 4:0.4217141 5:0.46152294 6:0.53711396 7:0.72221929 8:0.78128147 9:0.60924548 10:0.77856296 11:0.46724862 12:0.63353395 13:0.57168287 14:0.46494168 15:0.67279673 16:0.5832991 17:0.21617243 18:0.69749421 19:0.48323819 20:0.84935558 
-5.311948406313547 1:0.39201155 2:0.67187196 3:0.55380231 4:0.4217141 5:0.46152294 6:0.53711396 7:0.72221929 8:0.78128147 9:0.60924548 10:0.77856296 11:0.46724862 12:0.63353395 13:0.57168287 14:0.46494168 15:0.67279673 16:0.5832991 17:0.21617243 18:0.69749421 19:0.48323819 20:0.84935558 
-6.406635457753331 1:0.29894263 2:0.47343868 3:0.35994086 4:0.43224415 5:0.61813104 6:0.43956149 7:0.31964332 8:0.28244546 9:0.22157428 10:0.44022512 11:0.58153164 12:0.61563283 13:0.51265085 14:0 15:0.82026166 16:0.73795736 17:0 18:0.6941883 19:0.50234997 20:0.82411873 
-9.201669831441881 1:0.41956478 2:0.52907556 3:0.41415796 4:0.44614112 5:0.47553033 6:0.48913082 7:0.55605471 8:0.48761603 9:0.36818308 10:0.68959469 11:0.45484954 12:0.57502246 13:0.44061974 14:0.40054905 15:0.37131572 16:0.49111035 17:0.38619661 18:0.0072493572 19:0.6849255 20:0.88553452 
-1.945083999793026 1:0.3654629 2:0.49401504 3:0.46426052 4:0.50805366 5:0.54679215 6:0.4523786 7:0.46921369 8:0.34723082 9:0.26243314 10:0.61665517 11:0.52621686 12:0.34987438 13:0.51208818 14:0.99604762 15:0.89185166 16:0.36586779 17:0.57458645 18:0.75503707 19:0.54647785 20:0.96185553 
-0.009822803892990044 1:0.65921646 2:0.53774244 3:0.32058534 4:0.37278369 5:0.47723228 6:0.88612378 7:0.94983387 8:0.41448545 9:0.47846043 10:0.40730137 11:1 12:0.43061566 13:0.18668137 14:0.46231738 15:0.6833784 16:0.59195101 17:0.20365092 18:0.35948902 19:0.54296488 20:0.83451229 
-4.045006764798885 1:0.65921646 2:0.53774244 3:0.32058534 4:0.37278369 5:0.47723228 6:0.88612378 7:0.94983387 8:0.41448545 9:0.47846043 10:0.40730137 11:1 12:0.43061566 13:0.18668137 14:0.46231738 15:0.6833784 16:0.59195101 17:0.20365092 18:0.35948902 19:0.54296488 20:0.83451229 
-0.001314189897005301 1:0.37566683 2:0.53645623 3:0.43323678 4:0.42202097 5:0.51043904 6:0.50893474 7:0.59539884 8:0.43417305 9:0.34255967 10:0.60949904 11:0.44196472 12:0.73672217 13:0.085810736 14:0.026626863 15:0.55914116 16:0.13773349 17:0.73436093 18:0.87766153 19:0.75591093 20:0.99484682 
-5.024698089255669 1:0.37566683 2:0.53645623 3:0.43323678 4:0.42202097 5:0.51043904 6:0.50893474 7:0.59539884 8:0.43417305 9:0.34255967 10:0.60949904 11:0.44196472 12:0.73672217 13:0.085810736 14:0.026626863 15:0.55914116 16:0.13773349 17:0.73436093 18:0.87766153 19:0.75591093 20:0.99484682 
