svm_type c_svc
kernel_type rbf
gamma 0.09
nr_class 3
total_sv 112
rho 2.01003 1.3455 -0.723808
label 130640102 130640103 130640104
probA -4.57916 -4.55847 -4.76607
probB 0.194557 0.0988755 -0.125809
nr_sv 25 38 49
SV
4.309917881800202 0.3275908503732277 1:0.60480797 2:0.069013722 3:0.7894603 4:0.35576415 5:0.26112112 6:0.38654256 7:0.61851245 8:0.49636561 9:0.32460365 10:0.54800326 11:0.34400162 12:0.73244745 13:0.55339777 14:0.50789487 15:0.59276521 16:0.42283788 17:0.40590292 18:0.32984731 19:0.4057532 20:0.27965847 21:0.64024884 22:0.47512472 23:0.52329355 24:0.54618239 25:0.54258943 26:0.67585772 27:0.36917114 28:0.64402324 29:0.54257178 30:0.44471022 31:0.43309614 32:0.62273258 33:0.0099037709 34:0.23490171 35:0.55085379 36:0.32312226 
0 10 1:0.39979535 2:0.337044 3:0.58416963 4:0.53586918 5:0.39837992 6:0.49723619 7:0.54512918 8:0.57553613 9:0.5473339 10:0.63636494 11:0.36123541 12:0.63066918 13:0.50335717 14:0.37417141 15:0.72921765 16:0.23495926 17:0.5962469 18:0.31220284 19:0.44103667 20:0.38708058 21:0.6340608 22:0.48377195 23:0.56050682 24:0.5182302 25:0.36805996 26:0.56640476 27:0.41996908 28:0.52855617 29:0.61108303 30:0.54272461 31:0.56695533 32:0.64504862 33:0.086045854 34:0.17166612 35:0.63658571 36:0.36203453 
5.832499309248393 0 1:0.39042598 2:0.96332431 3:0.33999506 4:0.54475147 5:0.40264776 6:0.47900531 7:0.46266234 8:0.72227442 9:0.52318406 10:0.5300867 11:0.76519394 12:0.41859028 13:0.65722799 14:0.40264991 15:0.59369713 16:0.27286699 17:0.69652379 18:0.22666143 19:0.45410746 20:0.33347875 21:0.53113419 22:0.63126642 23:0.61133981 24:0.46092099 25:0.31933367 26:0.54316807 27:0.68094355 28:0.70801842 29:0.53288049 30:0.51478219 31:0.60547298 32:0.49858555 33:0.057472903 34:0.20231746 35:0.65883887 36:0.23867549 
0 3.089445309489485 1:0.68011808 2:0.60594678 3:0.71493465 4:0.56231904 5:0.22679086 6:0.49403182 7:0.42706871 8:0.40936506 9:0.56163168 10:0.51699257 11:0.40478832 12:0.68606722 13:0.41686937 14:0.5339877 15:0.7592302 16:0.66646612 17:0.55634552 18:0.408236 19:0.64363217 20:0.27176198 21:0.71328473 22:0.48501876 23:0.46981841 24:0.34308907 25:0.39776704 26:0.55938292 27:0.89488351 28:0.66038609 29:0.44497317 30:0.7872833 31:0.37336904 32:0.60117328 33:0.67155576 34:0.49658695 35:0.59199047 36:0.098983847 
0.8698386568572961 0 1:0.338117 2:0.54285747 3:0.59282911 4:0.39468482 5:0.46053579 6:0.7203089 7:0.55900198 8:0.53359294 9:0.52652997 10:0.73206156 11:0.47273558 12:0.52129692 13:0.34674546 14:0.63442624 15:0.67791212 16:0.19054016 17:0.36459425 18:0.57655555 19:0.54015487 20:0.49961212 21:0.57631868 22:0.74104202 23:0.49548048 24:0.63342994 25:0.44188255 26:0.58482796 27:0.039723206 28:0.34002855 29:0.53494602 30:0.39140067 31:0.56866491 32:0.56548065 33:0.16264535 34:0.25510389 35:0.59451222 36:0.33578056 
0 3.073513971593325 1:0.30690494 2:0.64501125 3:0.43732747 4:0.38163698 5:0.41962415 6:0.64543694 7:0.62449133 8:0.45814699 9:0.5516783 10:0.60702199 11:0.55992186 12:0.37047482 13:0.3434945 14:0.6335867 15:0.5867188 16:0.30534202 17:0.43817914 18:0.49721074 19:0.50374061 20:0.34962964 21:0.54272723 22:0.92810738 23:0.45128331 24:0.63212442 25:0.50782645 26:0.59943968 27:0.25655785 28:0.44421348 29:0.48386183 30:0.30398974 31:0.55892622 32:0.46043342 33:0.25522959 34:0.26930243 35:0.61328173 36:0.29402658 
1.022656429752344 0 1:0.4694078 2:0.51444346 3:0.58702022 4:0.44341332 5:0.38975543 6:0.71883631 7:0.87932545 8:0.36704397 9:0.62935978 10:0.49092069 11:0.40728006 12:0.68356723 13:0.40758884 14:0.59071606 15:0.4801569 16:0.14100572 17:0.55118096 18:0.42374742 19:0.37865955 20:0.50131875 21:0.41880444 22:0.58018965 23:0.45871753 24:0.6729787 25:0.42878059 26:0.51226085 27:0.047357757 28:0.31277758 29:0.55717367 30:0.28000188 31:0.46524981 32:0.53051442 33:0.19940293 34:0.23448923 35:0.56649208 36:0.35776016 
2.080741781813993 0.8398926522645123 1:0.2374755 2:0.85699892 3:0.3141503 4:0.57998985 5:0.47569719 6:0.335042 7:0.48175505 8:0.62501752 9:0.3988474 10:0.79765022 11:0.86725205 12:0.61465722 13:0.55944848 14:0.60982877 15:0.57916439 16:0.59559017 17:0.55068356 18:0.4720991 19:0.53094214 20:0.72815549 21:0.37956235 22:0.87082434 23:0.55399561 24:0.36776122 25:0.45670742 26:0.39957315 27:0.69406354 28:0.13813058 29:0.26571983 30:0.73200816 31:0.30942544 32:0.5778594 33:0.69771701 34:0.49173704 35:0.55492538 36:0.0357319 
0 1.079236204157702 1:0.61822665 2:0.38822389 3:0.62241238 4:0.25102484 5:0.25315377 6:0.62648624 7:0.41401559 8:0.56865698 9:0.30736706 10:0.43321162 11:0.51970494 12:0.46488741 13:0.80807412 14:0.29600784 15:0.70551217 16:0.61108726 17:0.32405221 18:0.21323265 19:0.61767292 20:0.75439721 21:0.58107907 22:0.77610034 23:0.75565237 24:0.60464269 25:0.53741103 26:0.57388502 27:0.427239 28:0.17500839 29:0.44457701 30:0.61889362 31:0.29629233 32:0.64593899 33:0.61531746 34:0.54320312 35:0.52158898 36:0.068380542 
2.933782969518122 0 1:0.44624937 2:0.77816904 3:0.4974328 4:0.47640467 5:0.38388932 6:0.36349866 7:0.72237056 8:0.45750591 9:0.51162755 10:0.39614889 11:0.40232748 12:0.40113312 13:0.65206099 14:0.40267989 15:0.32397029 16:0.50995255 17:0.62405378 18:0.15467188 19:0.52951819 20:0.77564365 21:0.47394508 22:0.52520204 23:0.78578776 24:0.74208045 25:0.4687171 26:0.46693313 27:0.34851152 28:0.13277903 29:0.46014923 30:0.73593259 31:0.25221044 32:0.63335544 33:0.71533036 34:0.56325674 35:0.54676282 36:0.10889655 
0.8098633879322392 1.578294778231074 1:0.37297401 2:0.51300567 3:0.34464225 4:0.51356393 5:0.39900118 6:0.45447984 7:0.59167725 8:0.59040564 9:0.47036487 10:0.68074703 11:0.69122845 12:0.57988191 13:0.52310139 14:0.34592137 15:0.51228952 16:0.40004322 17:0.54188001 18:0.4204767 19:0.48685199 20:0.72643316 21:0.45036659 22:0.61113703 23:0.62009668 24:0.60790193 25:0.34952042 26:0.36303845 27:0.64163309 28:0.042819548 29:0.45139217 30:0.80459255 31:0.36086744 32:0.67046422 33:0.71993649 34:0.49396923 35:0.61398858 36:0.11363066 
0 2.650667770413155 1:0.33410937 2:0.69869232 3:0.60707331 4:0.35847434 5:0.43794712 6:0.57826173 7:0.4927175 8:0.33841714 9:0.2444918 10:0.45461929 11:0.59504151 12:0.66896003 13:0.41661203 14:0.12412529 15:0.64260924 16:0.82602477 17:0.48313868 18:0.085968673 19:0.61841232 20:0.63001001 21:0.65168822 22:0.56108916 23:0.57033521 24:0.33492455 25:0.43008342 26:0.59667313 27:0.86150914 28:0.4968183 29:0.44543064 30:0.6780622 31:0.31767109 32:0.56894749 33:0.62414336 34:0.42135623 35:0.55649227 36:0.067082912 
0 0.6254069530799596 1:0.69007558 2:0.45377654 3:0.46760496 4:0.37614 5:0.45461109 6:0.77742386 7:0.56389195 8:0.47779912 9:0.36209914 10:0.53741491 11:0.73336929 12:0.65220684 13:0.65995377 14:0.4578315 15:0.68377513 16:0.57170713 17:0.46190435 18:0.4086791 19:0.30467868 20:0.11336079 21:0.79293036 22:0.52486873 23:0.29354873 24:0.53991711 25:0.40805566 26:0.5464707 27:0.73670769 28:0.44311824 29:0.63719702 30:0.70705616 31:0.33639172 32:0.61901677 33:0.62195176 34:0.56116802 35:0.63743293 36:0.088452093 
0 2.183372910018061 1:0.024222281 2:0.30230433 3:0.65235323 4:0.52207232 5:0.53506416 6:0.31589535 7:0.37160274 8:0.68255764 9:0.64982969 10:0.76928115 11:0.4631139 12:0.48403737 13:0.40480986 14:0.4432517 15:0.44078776 16:0.37127742 17:0.38523263 18:0 19:0.56239754 20:0.64072955 21:0.91358858 22:0.61285305 23:0.50408584 24:0.75049853 25:0.4317396 26:0.6270979 27:0.71775752 28:0.63090259 29:0.63864172 30:0.78190255 31:0.22805369 32:0.75887793 33:0.5012393 34:0.48357481 35:0.5771367 36:0.16787446 
0.7754458278297123 0 1:0.53846288 2:0.40599319 3:0.34276819 4:0.33085483 5:0.4434979 6:0.391983 7:0.47670701 8:0.36791283 9:0.39050946 10:0.44898364 11:0.70863575 12:0.63331169 13:0.72636425 14:0.15539311 15:0.63919622 16:0.50953341 17:0.53565639 18:0.28379598 19:0.5651868 20:0.1819706 21:0.82833248 22:0.62865007 23:0.57668078 24:0.60994172 25:0.55141795 26:0.69200128 27:0.54502428 28:0.70808214 29:0.68305904 30:0.75910264 31:0.22918729 32:0.59599769 33:0.66760635 34:0.55755955 35:0.54065537 36:0.070196189 
4.011159961035271 0 1:0.15513965 2:0.35148606 3:0.50536954 4:0.49103662 5:0.74906796 6:0.3464942 7:0.61601853 8:0.61940295 9:0.69334078 10:0.71269017 11:0.7271716 12:0.63996899 13:0.44605693 14:0.33743554 15:0.42412108 16:0.2319157 17:0.47241801 18:0.021852614 19:0.51242518 20:0.51387763 21:0.79040742 22:0.67699933 23:0.46202183 24:0.8180179 25:0.45402601 26:0.59632802 27:0.85431951 28:0.51772863 29:0.63566428 30:0.87731916 31:0.24264804 32:0.68349022 33:0.6690523 34:0.53885758 35:0.63521725 36:0.10024503 
3.740773259887059 3.825880247670542 1:0.53259975 2:0.70621109 3:0.80730367 4:0.25671333 5:0.70190388 6:0.1756321 7:0.63600105 8:0.80319238 9:0.67763066 10:0.32532322 11:0.58820146 12:0.50690758 13:0.38106692 14:0.46974498 15:0.35136539 16:0.32902128 17:0.37052864 18:0.35258859 19:0.35533622 20:0.50102305 21:0.70024961 22:0.15076393 23:0.20301472 24:0.34293231 25:0.31846651 26:0.59134626 27:0.91244715 28:0.6108163 29:0.57170951 30:0.55827087 31:0.27383548 32:0.67401016 33:0.64060134 34:0.64789808 35:0.59079283 36:0.2468693 
3.817618601277399 0 1:0.76693821 2:0.66536421 3:0.78406328 4:0.33439356 5:0.59427428 6:0.30259654 7:0.57954979 8:0.74298304 9:0.60170472 10:0.27075195 11:0.60585248 12:0.62434912 13:0.25744352 14:0.74198484 15:0.44026545 16:0.37105623 17:0.35524049 18:0.30912066 19:0.32208014 20:0.31713355 21:0.62560928 22:0.29065099 23:0.19355716 24:0.24757747 25:0.29464579 26:0.45946905 27:0.83508939 28:0.48684764 29:0.5045349 30:0.54387969 31:0.34998861 32:0.62427509 33:0.61455023 34:0.63586199 35:0.61355376 36:0.20752612 
0.6004386194557754 4.101586491949519 1:0.32297316 2:0.4065316 3:0.8103776 4:0.47621733 5:0.18311043 6:0.2663407 7:0.44535989 8:0.93516129 9:0.92202705 10:0.50614154 11:0.28936821 12:0.82740045 13:0.67357826 14:0.64108497 15:0.71665269 16:0.64168781 17:0.64921212 18:0.68546486 19:0.53648341 20:0.43922403 21:0.52567136 22:0.37596324 23:0.38924634 24:0.67652845 25:0.54145414 26:0.58573943 27:0.019789681 28:0.35853788 29:0.69983751 30:0.36048958 31:0.5469777 32:0.77714211 33:0.59222257 34:0.58355778 35:0.47370347 36:0.35762963 
6.620798932421432 0 1:0.4415639 2:0.48900571 3:0.79321772 4:0.40392745 5:0.24079514 6:0.18756883 7:0.3746964 8:0.97866005 9:1 10:0.48279664 11:0.38544795 12:0.79954201 13:0.60004926 14:0.62355727 15:0.77889353 16:0.52738321 17:0.61349171 18:0.6597181 19:0.596991 20:0.45813978 21:0.51701242 22:0.36672255 23:0.41825977 24:0.73004812 25:0.5784052 26:0.58253062 27:0.029478382 28:0.35380653 29:0.70906085 30:0.31901303 31:0.55428404 32:0.77632231 33:0.62311381 34:0.56037945 35:0.48258096 36:0.35073167 
1.060893785474885 0 1:0.18588312 2:0.44937012 3:0.79916596 4:0.30309772 5:0.53732508 6:0.25744084 7:0.87415504 8:0.7677511 9:0.69635719 10:0.26172814 11:0.36856148 12:0.97317654 13:0.52859288 14:0.40767559 15:0.244288 16:0.24235661 17:0.48420388 18:0.3614876 19:0.68905324 20:0.29907864 21:0.63422197 22:2.9100915e-16 23:0.26272157 24:0.22727725 25:0.31012249 26:0.71163791 27:0.83210647 28:0.53971452 29:0.45937008 30:0.51501203 31:0.25004289 32:0.53867471 33:0.67024165 34:0.63164806 35:0.47751498 36:0.29225314 
0 1.121268885558297 1:0.56822377 2:0.4814882 3:0.53929901 4:0.33586133 5:0.63406092 6:0.40950921 7:0.76562977 8:0.68563306 9:0.31008506 10:0.45784134 11:0.52500689 12:0.72155255 13:0.59680295 14:0.58097637 15:0.66886926 16:0.53638196 17:0.54726923 18:0.43801951 19:0.29086462 20:0.44001907 21:0.62522721 22:0.17195661 23:0.48339891 24:0.65106517 25:0.38359538 26:0.46379194 27:0.56229776 28:0.60069239 29:0.8017453 30:0.23611729 31:0.52147955 32:0.69843137 33:0.27927011 34:0.5051685 35:0.61926526 36:0.34410068 
3.877043017548214 5.252092337361439 1:0.35754186 2:0.77518088 3:0.66556937 4:0.19853753 5:0.29506001 6:0.48401362 7:0.32840285 8:0.58148873 9:0.4777832 10:0.48411837 11:0.52680004 12:0.54699552 13:0.35162237 14:0.70300221 15:0.57283878 16:0.73027498 17:0.6581372 18:0.52293384 19:0.50423157 20:0.1277439 21:0.63331032 22:0.53637534 23:0.44499069 24:0.46524957 25:0.41830233 26:0.57607532 27:0.018197488 28:0.44585153 29:0.6795494 30:0.10031366 31:0.43593949 32:0.57227546 33:0.55093265 34:0.65457809 35:0.43963131 36:0.33286813 
6.667021171046484 2.455679561616835 1:0.4026213 2:0.41181198 3:0.68875742 4:0.2869207 5:0.46483651 6:0.22195575 7:0.54152966 8:0.94259268 9:0.34358197 10:0.42261717 11:0.56900173 12:0.7986955 13:0.53391689 14:0.5588069 15:0.38350266 16:0.66517556 17:0.72611874 18:0.60102028 19:0.3716456 20:0.38035625 21:0.68387681 22:0.19530807 23:0.44684431 24:0.58626693 25:0.40645552 26:0.61562413 27:0.35958713 28:0.68343443 29:0.79904574 30:0.28809416 31:0.45272279 32:0.66990423 33:0.43467921 34:0.57215589 35:0.47650528 36:0.38872519 
4.091786342479589 2.688420493509585 1:0.29720747 2:0.75410718 3:0.40273082 4:0.19698067 5:0.5030663 6:0.523992 7:0.38970369 8:0.46034017 9:0.2695713 10:0.37489095 11:0.76269305 12:0.35306564 13:0.52533168 14:0.76536751 15:0.51689899 16:0.37793273 17:0.50450474 18:0.554474 19:0.51751572 20:0.20814744 21:0.59251618 22:0.43139061 23:0.3143582 24:0.76829928 25:0.65180618 26:0.663652 27:0.56148964 28:0.72243196 29:0.63342828 30:0.48572457 31:0.42012373 32:0.46154162 33:0.72945219 34:0.61989117 35:0.63052565 36:0.21894872 
-0.00084739368832669 0 1:0.5453769 2:0.42844528 3:0.9423306 4:0.70714444 5:0.73642689 6:0.54151887 7:0.53480506 8:0.88011914 9:0.77385253 10:0.22477032 11:0.35363778 12:0.12580471 13:0.44663489 14:0.29337627 15:0.59690166 16:0.27973744 17:0.93335181 18:0.4967736 19:0.41688862 20:0.36213163 21:4.8980538e-16 22:0.71478003 23:0.61753905 24:0.199919 25:0.70830387 26:0.64424282 27:0.81471455 28:0.73199868 29:0.63528651 30:0.42350966 31:0.19970833 32:0.83784485 33:0.59536994 34:0.8761192 35:0.25261545 36:0.34470913 
-4.145612032154909 0 1:0.5453769 2:0.42844528 3:0.9423306 4:0.70714444 5:0.73642689 6:0.54151887 7:0.53480506 8:0.88011914 9:0.77385253 10:0.22477032 11:0.35363778 12:0.12580471 13:0.44663489 14:0.29337627 15:0.59690166 16:0.27973744 17:0.93335181 18:0.4967736 19:0.41688862 20:0.36213163 21:4.8980538e-16 22:0.71478003 23:0.61753905 24:0.199919 25:0.70830387 26:0.64424282 27:0.81471455 28:0.73199868 29:0.63528651 30:0.42350966 31:0.19970833 32:0.83784485 33:0.59536994 34:0.8761192 35:0.25261545 36:0.34470913 
-0 0.8341789071186556 1:0.29529721 2:0.61805785 3:0.55185515 4:0.4636991 5:0.14316338 6:1 7:0.14708243 8:0.47634414 9:0.7707566 10:0.10830258 11:0.73077518 12:0.25727144 13:0.6013186 14:0.15995148 15:0.39858019 16:0.3460919 17:0.28793734 18:0.18520142 19:0.73610634 20:0.093060955 21:0.36661792 22:0.70235801 23:0.63386518 24:0.42029825 25:0.68803352 26:0.43448049 27:0.52326238 28:0.99784881 29:0.75635111 30:0.22564778 31:0.17703733 32:0.88151622 33:0.7492066 34:0.96164614 35:0.39637682 36:0.39675212 
-0.0008071190828405614 0 1:0.39588878 2:0.68667728 3:0.81512302 4:0.27539423 5:0.31446674 6:0.34736183 7:0.37066111 8:0.48705778 9:0.4532232 10:0.3772257 11:0.66867745 12:0.39066473 13:0.90193146 14:0.64169109 15:0.59048516 16:0.35092819 17:0.6433903 18:0.12621103 19:0.45084956 20:0.5374099 21:0.77197188 22:0.43869442 23:0.27415144 24:0.78028011 25:0.4950245 26:0.78153348 27:0.573614 28:0.18181263 29:0.61504716 30:0.50609541 31:0.48852453 32:0.70426095 33:0.30669537 34:0.82796323 35:0.077009141 36:0.66029918 
-1.971769343290282 0 1:0.39588878 2:0.68667728 3:0.81512302 4:0.27539423 5:0.31446674 6:0.34736183 7:0.37066111 8:0.48705778 9:0.4532232 10:0.3772257 11:0.66867745 12:0.39066473 13:0.90193146 14:0.64169109 15:0.59048516 16:0.35092819 17:0.6433903 18:0.12621103 19:0.45084956 20:0.5374099 21:0.77197188 22:0.43869442 23:0.27415144 24:0.78028011 25:0.4950245 26:0.78153348 27:0.573614 28:0.18181263 29:0.61504716 30:0.50609541 31:0.48852453 32:0.70426095 33:0.30669537 34:0.82796323 35:0.077009141 36:0.66029918 
-0 2.608623493273839 1:0.46428734 2:0.47229436 3:0.81635374 4:0.61897892 5:0.14038712 6:0.39873087 7:0.68516672 8:0.43825665 9:0.47095302 10:0.45935437 11:0.64116269 12:0.57701921 13:0.54108602 14:0.35708329 15:1 16:0.39702654 17:0.80219114 18:0.282942 19:0.30550772 20:0.41225949 21:0.58301085 22:0.4118683 23:0.29971421 24:0.50351125 25:0.72231227 26:0.8790403 27:0.62264228 28:0.07116212 29:0.52685177 30:0.51892829 31:0.54893947 32:0.65878314 33:0.26755992 34:0.74931175 35:0.073480926 36:0.6631453 
-0.4338596619264992 3.292281216878227 1:0.24052247 2:0.33176005 3:0.66318983 4:0.53933179 5:1 6:0.53389519 7:0.37789315 8:0.70859134 9:0.75357485 10:0.54463565 11:0.58711636 12:0.7517792 13:0.40331036 14:0.63824564 15:0.16255729 16:0.43128693 17:0.44216934 18:0.22328295 19:0.36297697 20:0.46209538 21:0.86970598 22:1 23:0.29481718 24:0.58770025 25:0.56854445 26:0.69310707 27:0.71208155 28:0.30069512 29:0.72000408 30:0.37211376 31:0.68932325 32:0.0056508509 33:0.46602529 34:0.65122777 35:0.34996432 36:0.7510227 
-0 0.8912960181966046 1:0.28603229 2:0.44479829 3:0.42779213 4:0.24226721 5:0.4092223 6:0.39952445 7:0.67589539 8:0.57103062 9:0.51564765 10:0.77794701 11:1.2759611e-15 12:0.45804533 13:0.43542039 14:0.61989433 15:0.4878495 16:0.19045401 17:0.69619018 18:0.2911253 19:0.42631981 20:0.15169123 21:0.51572877 22:0.75056207 23:0.35775247 24:0.38947368 25:0.50389194 26:0.47420287 27:0.66027468 28:0.50795853 29:0.14651442 30:0.69178867 31:0.38099098 32:0.21325186 33:0.379549 34:0.77821487 35:0.068934873 36:0.67794418 
-0 3.467605436243475 1:0.28698879 2:0.62310654 3:0.49867919 4:0.58682066 5:0.092330813 6:0.47736517 7:0.6639384 8:0.68249071 9:0.21904272 10:0.72776002 11:0.62506908 12:0.69315386 13:0.57557243 14:0.8463037 15:0.34062833 16:0.35015684 17:0.75166851 18:0.52509332 19:0.54595447 20:0.096565276 21:0.49105138 22:0.21894065 23:0.66321027 24:0.96710795 25:0.78889829 26:0.65902853 27:0.46679455 28:0.55420911 29:0.43801999 30:0.82558137 31:0.37855425 32:0.29414344 33:0.57221586 34:0.70608211 35:0.17587721 36:0.67698532 
-4.423671054098362 2.129369532581158 1:0.28260702 2:0.68634778 3:0.60701913 4:0.30528492 5:0.30088836 6:0.45953882 7:0.82081622 8:0.76713473 9:0.4225179 10:0.51375335 11:0.63833189 12:0.64049244 13:0.38073531 14:0.65912586 15:0.6572147 16:0.40531328 17:0.4676668 18:0.7160821 19:0.49503309 20:0.053976398 21:0.54295284 22:0.37186554 23:0.65838355 24:0.79154056 25:0.69724941 26:0.81367618 27:0.54583043 28:0.83893764 29:0.41431624 30:0.70943427 31:0.2716676 32:0.57517374 33:0.4826934 34:0.73875648 35:0.15782261 36:0.61734915 
-0.0009343105482998318 0 1:0.60175794 2:0.97511351 3:0.67718333 4:0.53420883 5:0.68272221 6:0.66729736 7:0.55409747 8:0.85141879 9:0.72203696 10:0.55010039 11:0.598625 12:0.53157073 13:0.39275256 14:0.53546494 15:0.27563483 16:0.69498569 17:0.72079003 18:0.35702437 19:0.53605753 20:0.27700523 21:1 22:0.46634719 23:0.94970387 24:0.61426675 25:0.54218644 26:0.41206244 27:0.25345042 28:0.25139821 29:0.8084529 30:0.56378639 31:0.70369947 32:0.13577825 33:0.53846008 34:0.69939059 35:0.26000914 36:0.63460666 
-5.900689725512415 2.921492810288977 1:0.60175794 2:0.97511351 3:0.67718333 4:0.53420883 5:0.68272221 6:0.66729736 7:0.55409747 8:0.85141879 9:0.72203696 10:0.55010039 11:0.598625 12:0.53157073 13:0.39275256 14:0.53546494 15:0.27563483 16:0.69498569 17:0.72079003 18:0.35702437 19:0.53605753 20:0.27700523 21:1 22:0.46634719 23:0.94970387 24:0.61426675 25:0.54218644 26:0.41206244 27:0.25345042 28:0.25139821 29:0.8084529 30:0.56378639 31:0.70369947 32:0.13577825 33:0.53846008 34:0.69939059 35:0.26000914 36:0.63460666 
-0.6397842090372921 5.933524904600916 1:0.58971059 2:0.21469197 3:0 4:0.60036147 5:0.22336124 6:0.55517173 7:0.19723944 8:0.71916616 9:0.42744741 10:0.18695521 11:0.69763798 12:0.79487008 13:0.70731056 14:0.65532941 15:0.60045171 16:0.4918147 17:0.41153321 18:0.67366344 19:0.25361603 20:0.4548907 21:0.86560124 22:0.93154711 23:0.7111885 24:0.82886744 25:0.36864093 26:0.85035735 27:0.85875481 28:0.40111712 29:0.75783265 30:0.28177631 31:0.42398268 32:0.53480357 33:0.37571228 34:0.83845216 35:0.25648847 36:0.69504517 
-0.001117464660278914 0 1:0.60409206 2:0.3596732 3:0.52158695 4:0.39050516 5:0.70322746 6:0.2027667 7:0.89776772 8:0.3089315 9:0.48910743 10:0.061953519 11:0.70764709 12:0.64515013 13:0.67476928 14:0.15925927 15:0.54293025 16:0.23069985 17:0.44329458 18:0.20018184 19:0.17503779 20:0.28970355 21:0.59607941 22:0.034627736 23:0.87837213 24:0.26721942 25:0.37182528 26:0.70991731 27:0.74037915 28:0 29:0.47254071 30:0.28425071 31:0.48299286 32:0.50931871 33:0.57438397 34:0.74243706 35:0.086572424 36:0.63927799 
-0.7153670270149804 4.945591392713017 1:0.60409206 2:0.3596732 3:0.52158695 4:0.39050516 5:0.70322746 6:0.2027667 7:0.89776772 8:0.3089315 9:0.48910743 10:0.061953519 11:0.70764709 12:0.64515013 13:0.67476928 14:0.15925927 15:0.54293025 16:0.23069985 17:0.44329458 18:0.20018184 19:0.17503779 20:0.28970355 21:0.59607941 22:0.034627736 23:0.87837213 24:0.26721942 25:0.37182528 26:0.70991731 27:0.74037915 28:0 29:0.47254071 30:0.28425071 31:0.48299286 32:0.50931871 33:0.57438397 34:0.74243706 35:0.086572424 36:0.63927799 
-0 6.24426286172885 1:0.58266091 2:0.60858053 3:0.65361583 4:0.40985724 5:0.41995192 6:0.46446216 7:0.56056207 8:0.39076471 9:0.49260718 10:0.46534768 11:0.50270569 12:0.47816521 13:0.82661659 14:0.36812091 15:0.43463129 16:0.53424937 17:0.61464655 18:0.52068692 19:0.45383674 20:0.15706375 21:0.24765682 22:0.62821895 23:0.42562449 24:0.57681036 25:0.20896195 26:0.50029588 27:0.31403208 28:0.4287867 29:0.88452345 30:0.96376032 31:0.70981658 32:0.38008571 33:0.53809625 34:0.66752976 35:0.8864879 36:0.85436624 
-0 5.982705524519028 1:0.42351648 2:0.63491303 3:0.5867117 4:0.26365733 5:0.65143436 6:0.23574425 7:0.50342345 8:0.52343065 9:0.53626591 10:0.44351792 11:0.52621007 12:0.64942956 13:0.82831299 14:0.29152155 15:0.66478676 16:0.49999946 17:0.57934415 18:0.40910822 19:0.55225575 20:0.21580131 21:0.2726599 22:0.49986482 23:0.40451053 24:0.38782382 25:0.51319194 26:0.66793031 27:0.3558113 28:0.49753335 29:0.9292767 30:1 31:0.79451281 32:0.44554722 33:0.57150042 34:0.60919809 35:0.87794858 36:0.86516958 
-0 5.017786273238303 1:0.11086743 2:0.48002973 3:0.71596688 4:0.35708541 5:0.68474084 6:0.60637432 7:0.55596942 8:0.45463121 9:0.47419852 10:0.18222815 11:1 12:0.5991379 13:0.35355374 14:0.084841013 15:0.67915195 16:0.25724247 17:0.48437196 18:0.57263839 19:0.77601379 20:0.43954378 21:0.78001386 22:0.53564751 23:0.54247171 24:0.9802143 25:0.37744442 26:0.70118374 27:0.11116701 28:0.69390959 29:0 30:0.7855016 31:0.41984123 32:0.60316002 33:0.3734411 34:0.44184646 35:0.2238113 36:0.5311842 
-0.001305542828472744 0 1:0.44933948 2:0.71688372 3:0.4153744 4:0.27681184 5:0.1227426 6:0.2078529 7:0.33786052 8:0.74218559 9:0.51587892 10:0.13611652 11:0.54147387 12:0.62959421 13:0.35445872 14:0.43098545 15:8.4422397e-16 16:0.66317463 17:0.49157652 18:0.27507299 19:0.60908884 20:0.37095812 21:0.50078893 22:0.77832001 23:0.24145181 24:0.45906308 25:0.28679341 26:0.66871208 27:0.51095593 28:0.44344744 29:0.4801937 30:0.59833318 31:0.28390485 32:0.82152981 33:0.23716663 34:0.7712875 35:0.26751769 36:0.5862844 
-2.715156008064398 0 1:0.44933948 2:0.71688372 3:0.4153744 4:0.27681184 5:0.1227426 6:0.2078529 7:0.33786052 8:0.74218559 9:0.51587892 10:0.13611652 11:0.54147387 12:0.62959421 13:0.35445872 14:0.43098545 15:8.4422397e-16 16:0.66317463 17:0.49157652 18:0.27507299 19:0.60908884 20:0.37095812 21:0.50078893 22:0.77832001 23:0.24145181 24:0.45906308 25:0.28679341 26:0.66871208 27:0.51095593 28:0.44344744 29:0.4801937 30:0.59833318 31:0.28390485 32:0.82152981 33:0.23716663 34:0.7712875 35:0.26751769 36:0.5862844 
-2.720363977791705 0 1:0.40761593 2:0.54831856 3:0.41172209 4:0.36599362 5:0.57056445 6:0.1856039 7:0.23416562 8:0.50002438 9:0.7439611 10:0.61510146 11:0.56040043 12:0.57814586 13:0.50200522 14:0.49678409 15:0.41883153 16:0.34217134 17:0.70579231 18:0.46887308 19:0.7162146 20:0.52280903 21:0.6708315 22:0.60803097 23:0.32559174 24:0.28603065 25:0.12557743 26:0.85957122 27:0.24339646 28:0.4408212 29:0.55062068 30:0.80081749 31:0.43599463 32:0.98750281 33:0.32120785 34:0.71000266 35:0.10817022 36:0.52006125 
-0 1.928821208797261 1:0.91369998 2:0.97021651 3:0.53320163 4:0.65171504 5:0.54230076 6:0.14701486 7:0.59197646 8:0.53322446 9:0.64448434 10:0.33334565 11:0.51914889 12:0.58108896 13:0.69484848 14:0.69631934 15:0.85602415 16:0.62654263 17:0 18:0.5071342 19:0.82519525 20:0.14923325 21:0.71572328 22:0.6870321 23:7.1002001e-17 24:0.46002853 25:0.81252074 26:0.58959681 27:0.25680891 28:0.73717928 29:0.48005199 30:0.78436619 31:0.39611503 32:0.90207553 33:0.31246203 34:0.61463112 35:0.19391079 36:0.50785822 
-5.471827846068714 3.774701611356202 1:0.50317717 2:0.40592065 3:0.74895316 4:0.48786214 5:0.53663623 6:0 7:0.52349573 8:0.6996848 9:0.4693363 10:0.36074844 11:0.89184004 12:0.53849196 13:0.72385234 14:0.11800666 15:0.46719491 16:0.48388305 17:0.62878847 18:0.09595526 19:0.12416382 20:0.29781634 21:0.70583236 22:0.667014 23:0.034173254 24:0.8363232 25:0.8214944 26:0.35755318 27:0.01865918 28:0.55085045 29:0.42768529 30:0.6113295 31:0.30960381 32:0.84982818 33:0.27442959 34:0.52680922 35:0.35795289 36:0.49598944 
-0.001867087460672003 0 1:0.56635976 2:0.85925692 3:0.46152386 4:0.31265172 5:0.61474228 6:0.10767307 7:0.50759786 8:0.39360681 9:0.58652467 10:0.67519593 11:0.75155145 12:0.80287069 13:0.23629376 14:0.48629999 15:0.3735866 16:0.68110234 17:0.92612255 18:0.40939212 19:0.31504992 20:0.6160363 21:0.36481708 22:0.44491634 23:0.17228426 24:0.35128012 25:0.096507363 26:0.70702463 27:0.34735966 28:0.58214498 29:0.3990182 30:0.54849881 31:0.34285092 32:0.71383488 33:0.35151613 34:0.64941496 35:0.20603904 36:0.60981125 
-0.5966657013799793 0 1:0.56635976 2:0.85925692 3:0.46152386 4:0.31265172 5:0.61474228 6:0.10767307 7:0.50759786 8:0.39360681 9:0.58652467 10:0.67519593 11:0.75155145 12:0.80287069 13:0.23629376 14:0.48629999 15:0.3735866 16:0.68110234 17:0.92612255 18:0.40939212 19:0.31504992 20:0.6160363 21:0.36481708 22:0.44491634 23:0.17228426 24:0.35128012 25:0.096507363 26:0.70702463 27:0.34735966 28:0.58214498 29:0.3990182 30:0.54849881 31:0.34285092 32:0.71383488 33:0.35151613 34:0.64941496 35:0.20603904 36:0.60981125 
-0.7393114684692402 0.4753174708813899 1:1 2:0.33354932 3:0.27976298 4:0.43086231 5:0.68519014 6:0.95615369 7:0.88400769 8:0.55300784 9:0.48958433 10:0.49923292 11:0.88258964 12:0.65189153 13:0.30269873 14:0.49682334 15:0.44664767 16:0.43681747 17:0.2829082 18:0.52514511 19:0.43393943 20:0.42186642 21:0.46018222 22:0.23569274 23:0.2279736 24:0.34303629 25:0.24313328 26:0.46817648 27:0.33106631 28:0.61703986 29:0.35397825 30:0.70599955 31:0.31947836 32:0.77032226 33:0.26390687 34:0.60869086 35:0.26450023 36:0.43669239 
-0 0.940619242770442 1:0.51066095 2:0.85491353 3:0.54076827 4:0.5284248 5:0.46103927 6:0.30365992 7:0.46287289 8:0.55217588 9:0.055071749 10:0.56610531 11:0.31679592 12:0.38580605 13:0 14:0.30268911 15:0.45143023 16:0.55249047 17:0.057135999 18:0.31118467 19:0 20:0.19560924 21:0.4514651 22:0.65599883 23:0.4946714 24:0.84476572 25:0.40272048 26:0.40705013 27:0.37979218 28:0.5331682 29:0.66569877 30:0.6285044 31:0.16990425 32:0.69655162 33:0.33552068 34:0.81517792 35:0.2703909 36:0.55835843 
-0 3.785099235087281 1:0.60865098 2:0.92600292 3:0.58290821 4:0.3950856 5:0.61363608 6:0.86097729 7:0.86553401 8:0.60712194 9:0.35734105 10:0.27119943 11:0.3704133 12:0.84284592 13:0.58945799 14:0.35926083 15:0.86053306 16:0.91667491 17:0.86516184 18:0.56906724 19:0.56026572 20:1 21:0.71895641 22:0.78340328 23:0.41831657 24:0.82877743 25:0.58323848 26:0.40424535 27:0.55749398 28:1 29:0.67384017 30:0.68436164 31:0.25386506 32:0.58314991 33:0.25725582 34:0.81129831 35:0.15103841 36:0.68645263 
-0 2.319506919915706 1:0.48122549 2:0.68634742 3:0.43071008 4:0.6938166 5:0.38998336 6:0.72136033 7:0.5066039 8:0.55253059 9:0.56453216 10:0.69326609 11:0.66617703 12:0.41250744 13:0.56252772 14:0.31741524 15:0.809811 16:0.5982908 17:0.8598845 18:0.45212314 19:0.30805323 20:0.39374715 21:0.42264879 22:0.4215467 23:0.57279742 24:0.3116473 25:0.50154322 26:1 27:0.43176851 28:0.44543108 29:0.4821693 30:0.72436672 31:0.40463606 32:0.83139104 33:0.3299405 34:0.73007691 35:0.12340047 36:0.52776474 
-0.0005224384563504752 0 1:0.57583475 2:0.25177565 3:0.4843314 4:0.37324241 5:0.3714745 6:0.18340687 7:0.20634592 8:0.59371978 9:0.52458411 10:1 11:0.61937928 12:0.89085245 13:0.45085344 14:0.67847836 15:0.57207566 16:0.4191809 17:0.30023035 18:0.25081664 19:0.70010918 20:0.47221735 21:0.34680906 22:0.059386849 23:0.56304437 24:0.69192272 25:0.25345913 26:0.42175758 27:0.4240225 28:0.7417562 29:0.63972712 30:0.53385025 31:0.30727309 32:0.71338457 33:0.50480217 34:0.59503084 35:0.23670837 36:0.57614708 
-8.320814796142921 8.87423006753499 1:0.57583475 2:0.25177565 3:0.4843314 4:0.37324241 5:0.3714745 6:0.18340687 7:0.20634592 8:0.59371978 9:0.52458411 10:1 11:0.61937928 12:0.89085245 13:0.45085344 14:0.67847836 15:0.57207566 16:0.4191809 17:0.30023035 18:0.25081664 19:0.70010918 20:0.47221735 21:0.34680906 22:0.059386849 23:0.56304437 24:0.69192272 25:0.25345913 26:0.42175758 27:0.4240225 28:0.7417562 29:0.63972712 30:0.53385025 31:0.30727309 32:0.71338457 33:0.50480217 34:0.59503084 35:0.23670837 36:0.57614708 
-6.681647955497346 4.510967855774874 1:0.27042067 2:0.61729157 3:0.53575069 4:0.39204803 5:0.45207205 6:0.52480298 7:0.65102696 8:0.81758153 9:0.71703881 10:0.53175503 11:0.69228983 12:0.72900277 13:0.65840393 14:0.36996996 15:0.7696625 16:0.55071455 17:0.38691518 18:0.39599317 19:0.41697076 20:0.27747694 21:0.32269523 22:0.43814534 23:0.23930761 24:0.83209985 25:0.14646457 26:0.41632521 27:0.66203827 28:0.53301752 29:0.39040413 30:0.31738058 31:0.9320578 32:0.73765743 33:0.81109047 34:0.68549508 35:0.9053092 36:0.79200745 
-0.0005596739271060321 0 1:0.62082505 2:0.62902755 3:0.36007211 4:0.53033143 5:0.34759152 6:0.067085899 7:0.55952632 8:0.49261433 9:0.57852614 10:0.24091789 11:0.46700382 12:2.8417778e-16 13:0.30139017 14:0.62635934 15:0.61683428 16:0.46335343 17:0.41049564 18:0.42378941 19:0.39026362 20:0.81735694 21:0.83207238 22:0.35401845 23:0.53103429 24:0.74050337 25:0.30298474 26:0.55396217 27:0.56741315 28:0.74637634 29:0.30281976 30:0.43422964 31:0.82373196 32:0.77227014 33:1 34:0.78069127 35:0.90502793 36:0.76322514 
-0.5391479536005974 1.13528224108793 1:0.62082505 2:0.62902755 3:0.36007211 4:0.53033143 5:0.34759152 6:0.067085899 7:0.55952632 8:0.49261433 9:0.57852614 10:0.24091789 11:0.46700382 12:2.8417778e-16 13:0.30139017 14:0.62635934 15:0.61683428 16:0.46335343 17:0.41049564 18:0.42378941 19:0.39026362 20:0.81735694 21:0.83207238 22:0.35401845 23:0.53103429 24:0.74050337 25:0.30298474 26:0.55396217 27:0.56741315 28:0.74637634 29:0.30281976 30:0.43422964 31:0.82373196 32:0.77227014 33:1 34:0.78069127 35:0.90502793 36:0.76322514 
-0.0004214242125577327 0 1:0.081256412 2:0.7997508 3:0.71559864 4:0.4649049 5:0.17517823 6:0.75997251 7:0.76605922 8:0.68653607 9:0.27966595 10:0.44542092 11:0.73596591 12:0.79575861 13:0.63464165 14:0.35447851 15:0.070702136 16:0.2517505 17:0.31106907 18:0.83679622 19:0.30407545 20:0.86731565 21:0.59223408 22:0.55990613 23:0.35365236 24:0.067397244 25:0.8234784 26:0.62818956 27:0.76520097 28:0.65968901 29:0.3630136 30:0.60932118 31:0.71787512 32:0.74379832 33:0.39972329 34:0.48587319 35:0.76097751 36:0.65909845 
-2.803993401806232 0.5108509249488091 1:0.081256412 2:0.7997508 3:0.71559864 4:0.4649049 5:0.17517823 6:0.75997251 7:0.76605922 8:0.68653607 9:0.27966595 10:0.44542092 11:0.73596591 12:0.79575861 13:0.63464165 14:0.35447851 15:0.070702136 16:0.2517505 17:0.31106907 18:0.83679622 19:0.30407545 20:0.86731565 21:0.59223408 22:0.55990613 23:0.35365236 24:0.067397244 25:0.8234784 26:0.62818956 27:0.76520097 28:0.65968901 29:0.3630136 30:0.60932118 31:0.71787512 32:0.74379832 33:0.39972329 34:0.48587319 35:0.76097751 36:0.65909845 
-0 0.2114549139433294 1:0.41703796 2:0.23965831 3:0.43385512 4:0.13082513 5:0.59230506 6:0.64634788 7:0.56275576 8:0.58041316 9:0.35748249 10:0.38314623 11:0.55464542 12:0.8558647 13:0.36836153 14:0.36087337 15:0.62309504 16:0.47117144 17:0.7780695 18:0.27382359 19:0.60853767 20:0.27752644 21:0.449402 22:0.68660045 23:0.32370409 24:0.36044243 25:0.52603984 26:0.63078755 27:0.41380933 28:0.73169756 29:0.57255185 30:0.82112831 31:0.84584844 32:0.61490083 33:0.74616426 34:0.72268057 35:0.85365927 36:0.80776227 
-4.294215318657636 9.025878557331479 1:0.68224984 2:0.69605851 3:0.69842905 4:0.27894434 5:0.35303977 6:0.31838781 7:0.38692406 8:0.31071517 9:0.44117954 10:0.13583022 11:0.56334698 12:0.35867763 13:0.3382844 14:0.92833287 15:0.2879709 16:0.14352299 17:0.56125903 18:0.39236215 19:0.21781741 20:0.60931128 21:0.63952172 22:0.6980716 23:0.56983972 24:0.085792661 25:0.77675492 26:0.57172066 27:0.43321037 28:0.80836201 29:0.3886795 30:0.87881899 31:0.71349156 32:0.57853812 33:0.51774335 34:0.38406366 35:0.90913367 36:0.68844259 
-4.236748667910688e-05 -0.004198613256927083 1:0.49158639 2:0.78255075 3:0.58864373 4:0.14759523 5:0.35128433 6:0.46853566 7:0.63703591 8:0.58141738 9:0.67196149 10:0.5750038 11:0.52249014 12:0.66520292 13:0.61997581 14:0.30646476 15:0.54695046 16:0.31509897 17:0.37371084 18:0.50634307 19:0.94128996 20:0.46142858 21:0.39305326 22:0.51357478 23:0.42587546 24:0.95041579 25:0.45432147 26:0.67370594 27:0.91537458 28:0.29201093 29:0.65307283 30:0.40782011 31:0.55740309 32:0.565283 33:0.51978427 34:0.25220373 35:0.27694952 36:0.83552551 
-2.38132473048444 -7.275185096887199 1:0.49158639 2:0.78255075 3:0.58864373 4:0.14759523 5:0.35128433 6:0.46853566 7:0.63703591 8:0.58141738 9:0.67196149 10:0.5750038 11:0.52249014 12:0.66520292 13:0.61997581 14:0.30646476 15:0.54695046 16:0.31509897 17:0.37371084 18:0.50634307 19:0.94128996 20:0.46142858 21:0.39305326 22:0.51357478 23:0.42587546 24:0.95041579 25:0.45432147 26:0.67370594 27:0.91537458 28:0.29201093 29:0.65307283 30:0.40782011 31:0.55740309 32:0.565283 33:0.51978427 34:0.25220373 35:0.27694952 36:0.83552551 
-0 -3.336022696398433 1:0.86363751 2:0.89538944 3:0.75021917 4:0.12230678 5:0.45249659 6:0.074976481 7:0.55749577 8:1 9:0.048514619 10:0.35307521 11:0.66527236 12:0.73342079 13:0.3671979 14:0.52676845 15:0.79319364 16:0.046114828 17:0.42074549 18:0.49334681 19:0.5539968 20:0.40114611 21:0.49382922 22:0.79260182 23:0.687913 24:0.32523555 25:0.28045478 26:0.71619004 27:0.68455124 28:0.44239557 29:0.72628891 30:0.46673453 31:0.36215016 32:0.66218793 33:0.78724313 34:0.31930593 35:0.23079278 36:0.8698414 
-1.108747459580627 -4.127365028108189 1:0.5591749 2:0.93365031 3:0.60067832 4:0.73429275 5:0.43914792 6:0.54909843 7:0.35636389 8:0.55080938 9:0.63145322 10:0.93928713 11:0.57552409 12:0.25419679 13:0.27272138 14:0.22306706 15:0.77002662 16:0.7051639 17:0.57908732 18:0.25019026 19:0.43318513 20:0.18021271 21:0.75010467 22:0.66617721 23:0.33849543 24:0.13976943 25:0.36167395 26:0.65238219 27:0.204421 28:0.66870421 29:0.26672056 30:0.66815573 31:0.49246714 32:0.07641501 33:0.90308553 34:0.22957215 35:0.14536375 36:0.6889559 
-0 -0.004368497229861605 1:0.44513109 2:0.91561288 3:0.5612793 4:0.55041033 5:0.52040309 6:0.47858191 7:0.38837853 8:0.71879208 9:0.29825082 10:0.62309355 11:0.44258094 12:0.51764947 13:0.60016549 14:0.36077946 15:0.70370203 16:0.60788631 17:0.34106061 18:0.36078286 19:0.44030228 20:0.19044447 21:0.75376207 22:0.41137144 23:0.30200759 24:0.25310901 25:0.39482734 26:0.93329072 27:0.19568181 28:0.69799769 29:0.46766648 30:0.65834481 31:0.28396055 32:0.052668646 33:0.85629857 34:0.33387908 35:0.2120537 36:0.75938243 
-0 -1.326667304378715 1:0.44513109 2:0.91561288 3:0.5612793 4:0.55041033 5:0.52040309 6:0.47858191 7:0.38837853 8:0.71879208 9:0.29825082 10:0.62309355 11:0.44258094 12:0.51764947 13:0.60016549 14:0.36077946 15:0.70370203 16:0.60788631 17:0.34106061 18:0.36078286 19:0.44030228 20:0.19044447 21:0.75376207 22:0.41137144 23:0.30200759 24:0.25310901 25:0.39482734 26:0.93329072 27:0.19568181 28:0.69799769 29:0.46766648 30:0.65834481 31:0.28396055 32:0.052668646 33:0.85629857 34:0.33387908 35:0.2120537 36:0.75938243 
-0 -2.424829025392184 1:0.38636035 2:0.3016924 3:0.51797587 4:0.38810593 5:0.76643038 6:0.21965298 7:0.72957635 8:0.57287377 9:0.67385483 10:0.54051489 11:0.59903646 12:0.4143042 13:0.62953603 14:0.9084357 15:0.75432825 16:0.7053417 17:0.2435244 18:0.27739257 19:0.37225661 20:0.59028864 21:0.50625706 22:0.5423975 23:1 24:0.80972964 25:0.60484731 26:0.7170248 27:0.6087864 28:0.85586005 29:0.62729126 30:0.42146942 31:0.15714158 32:0.5207544 33:0.81798267 34:0.43801123 35:0.3549124 36:0.73977441 
-0 -0.0002520177569845778 1:0.36998585 2:0.59592551 3:0.54849386 4:0.41148403 5:0.50551766 6:0.68826884 7:0.32640693 8:0.84337986 9:0.39998999 10:0.38340175 11:0.58113086 12:0.81649196 13:0.7548303 14:0.67920077 15:0.34294331 16:0.65133315 17:0.88213187 18:0.17680968 19:0.47567299 20:0.2505376 21:0.46117988 22:0.26571172 23:0.19575584 24:0.60550201 25:0.46360511 26:0.61755025 27:0.62616628 28:0.75246161 29:0.14374435 30:0.51402777 31:0.31188878 32:0.38650882 33:0.94802195 34:0.3828747 35:0.22408162 36:0.8190999 
-0 -2.918193074890036 1:0.36998585 2:0.59592551 3:0.54849386 4:0.41148403 5:0.50551766 6:0.68826884 7:0.32640693 8:0.84337986 9:0.39998999 10:0.38340175 11:0.58113086 12:0.81649196 13:0.7548303 14:0.67920077 15:0.34294331 16:0.65133315 17:0.88213187 18:0.17680968 19:0.47567299 20:0.2505376 21:0.46117988 22:0.26571172 23:0.19575584 24:0.60550201 25:0.46360511 26:0.61755025 27:0.62616628 28:0.75246161 29:0.14374435 30:0.51402777 31:0.31188878 32:0.38650882 33:0.94802195 34:0.3828747 35:0.22408162 36:0.8190999 
-0.0001024244356337496 -0.003650104054547804 1:0.34086996 2:0.46022552 3:0.58007985 4:0.58097851 5:0.67422932 6:0.56220126 7:0.46767071 8:0.56844413 9:0.20302272 10:0.15560122 11:0.43822345 12:0.62280351 13:0.47842637 14:0.50450331 15:0.61718184 16:0.27359831 17:0.66811299 18:0.30852792 19:0.61230779 20:0.44835418 21:0.62742406 22:0.31541973 23:0.24883942 24:0.57096368 25:0.4259674 26:0.70173657 27:0.32463896 28:0.47197762 29:0.89104724 30:0.77882278 31:0.19522661 32:0.34167781 33:0.3825331 34:0.54108977 35:0.85993469 36:0.92596382 
-2.189392272576784 -4.437196912030074 1:0.34086996 2:0.46022552 3:0.58007985 4:0.58097851 5:0.67422932 6:0.56220126 7:0.46767071 8:0.56844413 9:0.20302272 10:0.15560122 11:0.43822345 12:0.62280351 13:0.47842637 14:0.50450331 15:0.61718184 16:0.27359831 17:0.66811299 18:0.30852792 19:0.61230779 20:0.44835418 21:0.62742406 22:0.31541973 23:0.24883942 24:0.57096368 25:0.4259674 26:0.70173657 27:0.32463896 28:0.47197762 29:0.89104724 30:0.77882278 31:0.19522661 32:0.34167781 33:0.3825331 34:0.54108977 35:0.85993469 36:0.92596382 
-0 -1.847400448340121 1:0.28488657 2:0.56527859 3:0.49217889 4:0.30074862 5:0.24153186 6:0.54253137 7:0.31974885 8:0.43506697 9:0.46413323 10:0.095245466 11:0.78903139 12:0.34072047 13:0.63864255 14:0.42485538 15:0.60588896 16:0.34276199 17:0.5338338 18:0.44222316 19:0.35408449 20:0.50848299 21:0.62948012 22:0.20202121 23:0.33367613 24:0.86969656 25:0.48175541 26:0.60102201 27:0.29518351 28:0.36628592 29:0.8009848 30:0.85641408 31:0.17898783 32:0.25765276 33:0.41486403 34:0.54383636 35:0.8200081 36:0.980847 
-0 -9.939706692853814 1:0.28488657 2:0.56527859 3:0.49217889 4:0.30074862 5:0.24153186 6:0.54253137 7:0.31974885 8:0.43506697 9:0.46413323 10:0.095245466 11:0.78903139 12:0.34072047 13:0.63864255 14:0.42485538 15:0.60588896 16:0.34276199 17:0.5338338 18:0.44222316 19:0.35408449 20:0.50848299 21:0.62948012 22:0.20202121 23:0.33367613 24:0.86969656 25:0.48175541 26:0.60102201 27:0.29518351 28:0.36628592 29:0.8009848 30:0.85641408 31:0.17898783 32:0.25765276 33:0.41486403 34:0.54383636 35:0.8200081 36:0.980847 
-8.771643907341346e-05 -0 1:0.037106596 2:0.37263656 3:0.4314675 4:0.50652367 5:0.51748908 6:0.6962356 7:0.49955201 8:0.69994485 9:0.62007511 10:0.50205564 11:0.35968593 12:0.48103875 13:0.97947776 14:0.64719331 15:0.62307179 16:0.30667543 17:0.14186935 18:0.6053434 19:0.6527999 20:0.32273203 21:0.82188088 22:0.3461037 23:0.41378301 24:0.14805767 25:0.25479251 26:0.49110511 27:0.19990715 28:0.50086451 29:0.60771501 30:0.72641629 31:0.39884827 32:0.94192517 33:0.66992307 34:0.18521382 35:0.15762061 36:0.6302352 
-2.018150109023988 -0 1:0.037106596 2:0.37263656 3:0.4314675 4:0.50652367 5:0.51748908 6:0.6962356 7:0.49955201 8:0.69994485 9:0.62007511 10:0.50205564 11:0.35968593 12:0.48103875 13:0.97947776 14:0.64719331 15:0.62307179 16:0.30667543 17:0.14186935 18:0.6053434 19:0.6527999 20:0.32273203 21:0.82188088 22:0.3461037 23:0.41378301 24:0.14805767 25:0.25479251 26:0.49110511 27:0.19990715 28:0.50086451 29:0.60771501 30:0.72641629 31:0.39884827 32:0.94192517 33:0.66992307 34:0.18521382 35:0.15762061 36:0.6302352 
-0 -0.00154901105579959 1:0.49218753 2:0.53984261 3:0.58787018 4:0.18298845 5:0.38919711 6:0.3266761 7:0.54868877 8:0.76321483 9:0.5380345 10:0.29009289 11:0.77655494 12:0.58163309 13:0.32957968 14:0.06864316 15:0.54896885 16:0.4223507 17:0.83940774 18:0.66640812 19:0.56424809 20:0.44076937 21:0.74167639 22:0.84852731 23:0.24937876 24:0.85124314 25:0.24561793 26:0.5068779 27:0.48416781 28:0.48262367 29:1 30:0.63155419 31:0.41989076 32:0.80558461 33:0.68298435 34:0.27297863 35:0.31823745 36:0.7415849 
-1.389490985934493 -1.344260225880693 1:0.49218753 2:0.53984261 3:0.58787018 4:0.18298845 5:0.38919711 6:0.3266761 7:0.54868877 8:0.76321483 9:0.5380345 10:0.29009289 11:0.77655494 12:0.58163309 13:0.32957968 14:0.06864316 15:0.54896885 16:0.4223507 17:0.83940774 18:0.66640812 19:0.56424809 20:0.44076937 21:0.74167639 22:0.84852731 23:0.24937876 24:0.85124314 25:0.24561793 26:0.5068779 27:0.48416781 28:0.48262367 29:1 30:0.63155419 31:0.41989076 32:0.80558461 33:0.68298435 34:0.27297863 35:0.31823745 36:0.7415849 
-3.057234971674865e-05 -1.602025970474155e-05 1:0.53989005 2:0.037546478 3:0.33443505 4:0.566679 5:0.52233934 6:0.26681823 7:0.69716966 8:0.63065922 9:0.83907348 10:0.47191107 11:0.61642319 12:0.77989525 13:0.35161301 14:0.1098269 15:0.48473898 16:0.91009891 17:0.31312427 18:0.35635597 19:0.21854813 20:0.30704468 21:0.70519209 22:0.29006442 23:0.6431663 24:0.45714957 25:0.77111483 26:0.42158738 27:0.49854511 28:0.43089932 29:0.41553584 30:0.51988161 31:0.58122462 32:0.76068819 33:0.54416519 34:0.18526253 35:0.20461467 36:0.6073187 
-3.442799035237706 -8.633613675863867 1:0.53989005 2:0.037546478 3:0.33443505 4:0.566679 5:0.52233934 6:0.26681823 7:0.69716966 8:0.63065922 9:0.83907348 10:0.47191107 11:0.61642319 12:0.77989525 13:0.35161301 14:0.1098269 15:0.48473898 16:0.91009891 17:0.31312427 18:0.35635597 19:0.21854813 20:0.30704468 21:0.70519209 22:0.29006442 23:0.6431663 24:0.45714957 25:0.77111483 26:0.42158738 27:0.49854511 28:0.43089932 29:0.41553584 30:0.51988161 31:0.58122462 32:0.76068819 33:0.54416519 34:0.18526253 35:0.20461467 36:0.6073187 
-1.860296804793223e-05 -0 1:0.34606814 2:0.60340148 3:0.61563385 4:0.1693386 5:0.38844717 6:0.79850328 7:0.3222858 8:0.38175729 9:0.45052516 10:0.58811349 11:0.45327887 12:0.021465329 13:0.34104943 14:0.46457806 15:0.60849118 16:0.7021324 17:0.46469572 18:0.55308485 19:0.47053999 20:0.28210619 21:0.58195031 22:0.26548344 23:0.070434816 24:0.62722296 25:0.54082149 26:0.53635436 27:0.84142387 28:0.17648049 29:0.4992635 30:0.52483672 31:0.58750659 32:0.79173672 33:0.48363158 34:0.19131503 35:0.16042805 36:0.62060988 
-0.9673177725068589 -0 1:0.34606814 2:0.60340148 3:0.61563385 4:0.1693386 5:0.38844717 6:0.79850328 7:0.3222858 8:0.38175729 9:0.45052516 10:0.58811349 11:0.45327887 12:0.021465329 13:0.34104943 14:0.46457806 15:0.60849118 16:0.7021324 17:0.46469572 18:0.55308485 19:0.47053999 20:0.28210619 21:0.58195031 22:0.26548344 23:0.070434816 24:0.62722296 25:0.54082149 26:0.53635436 27:0.84142387 28:0.17648049 29:0.4992635 30:0.52483672 31:0.58750659 32:0.79173672 33:0.48363158 34:0.19131503 35:0.16042805 36:0.62060988 
-0 -0.001397234789080332 1:0.61828959 2:0.65089285 3:0.48632777 4:0.67215109 5:0.55405831 6:0.61176401 7:0.7311914 8:0.17581153 9:0.42456624 10:0.51997441 11:0.69509125 12:0.8593511 13:0.63249403 14:0.84938323 15:0.8603934 16:0.30476031 17:0.69895816 18:0.26167592 19:0.31761584 20:0.60617369 21:0.31271452 22:0.78906703 23:0.3082405 24:0.586981 25:0.33350879 26:0.61482543 27:0.68296415 28:0.69734293 29:0.68320012 30:0.2971006 31:0.3526206 32:0.67056847 33:0.71810472 34:0.3176105 35:0.25732303 36:0.81353903 
-0 -2.585419316030066 1:0.61828959 2:0.65089285 3:0.48632777 4:0.67215109 5:0.55405831 6:0.61176401 7:0.7311914 8:0.17581153 9:0.42456624 10:0.51997441 11:0.69509125 12:0.8593511 13:0.63249403 14:0.84938323 15:0.8603934 16:0.30476031 17:0.69895816 18:0.26167592 19:0.31761584 20:0.60617369 21:0.31271452 22:0.78906703 23:0.3082405 24:0.586981 25:0.33350879 26:0.61482543 27:0.68296415 28:0.69734293 29:0.68320012 30:0.2971006 31:0.3526206 32:0.67056847 33:0.71810472 34:0.3176105 35:0.25732303 36:0.81353903 
-0 -0.002172021787438581 1:0.88365155 2:0.21407044 3:0.7856707 4:0.58449757 5:0.42434904 6:0.38777992 7:0 8:0.95573419 9:0.23065767 10:0.29342681 11:0.67196828 12:0.55589938 13:0.53400838 14:0.63707358 15:0.29811111 16:0.45097128 17:0.63301176 18:0.44077834 19:0.66102797 20:0.34925798 21:0.42463225 22:0.49984974 23:0.5978936 24:0.38423786 25:0.43917674 26:0.52973664 27:0.64270693 28:0.43267387 29:0.06268061 30:0.6108765 31:0.37339127 32:0.63660944 33:0.79280162 34:0.21574809 35:0.20104723 36:0.64670348 
-2.271475890055065 -1.158391504756208 1:0.88365155 2:0.21407044 3:0.7856707 4:0.58449757 5:0.42434904 6:0.38777992 7:0 8:0.95573419 9:0.23065767 10:0.29342681 11:0.67196828 12:0.55589938 13:0.53400838 14:0.63707358 15:0.29811111 16:0.45097128 17:0.63301176 18:0.44077834 19:0.66102797 20:0.34925798 21:0.42463225 22:0.49984974 23:0.5978936 24:0.38423786 25:0.43917674 26:0.52973664 27:0.64270693 28:0.43267387 29:0.06268061 30:0.6108765 31:0.37339127 32:0.63660944 33:0.79280162 34:0.21574809 35:0.20104723 36:0.64670348 
-0 -0.003206731187998782 1:0.29806003 2:0.75541556 3:0.43292639 4:0.3746492 5:0.50613832 6:0.28644094 7:1 8:0.47504073 9:0.49940076 10:0.28713137 11:0.81051427 12:0.79986614 13:0.58642864 14:1 15:0.53683954 16:0.36284909 17:0.60905796 18:0.2444413 19:0.41675767 20:0.017586365 21:0.68427277 22:0.91276187 23:0.92457056 24:0.22223683 25:0.5312553 26:0.44811583 27:0.3636989 28:0.78353179 29:0.72051448 30:0.59689581 31:0.32978398 32:0.90482491 33:0.84379303 34:0.30920756 35:0.17796588 36:0.65840709 
-0 -5.158273080880962 1:0.29806003 2:0.75541556 3:0.43292639 4:0.3746492 5:0.50613832 6:0.28644094 7:1 8:0.47504073 9:0.49940076 10:0.28713137 11:0.81051427 12:0.79986614 13:0.58642864 14:1 15:0.53683954 16:0.36284909 17:0.60905796 18:0.2444413 19:0.41675767 20:0.017586365 21:0.68427277 22:0.91276187 23:0.92457056 24:0.22223683 25:0.5312553 26:0.44811583 27:0.3636989 28:0.78353179 29:0.72051448 30:0.59689581 31:0.32978398 32:0.90482491 33:0.84379303 34:0.30920756 35:0.17796588 36:0.65840709 
-3.34296878904601 -0 1:0.1628315 2:0.18112271 3:0.45148149 4:0.54740298 5:0.47665736 6:0.61001259 7:0.40152293 8:0.29110906 9:0.51154572 10:0.41640973 11:0.38960266 12:0.85666639 13:0.41154712 14:0.7727015 15:0.74309295 16:0.41862512 17:0.65587765 18:0.20884158 19:0.65214902 20:0.60109723 21:0.5706237 22:0.4995577 23:0.34958386 24:0.64090651 25:0.77558559 26:0.52295917 27:0.49291989 28:0.60883409 29:0.56311959 30:0.58395755 31:0.45378843 32:0.6346283 33:0.58366781 34:0.23093909 35:0.19717623 36:0.70984852 
-8.95098549046432e-05 -0 1:0.52780485 2:0.71992451 3:0.61252511 4:0.36016649 5:0.5011903 6:0.10235516 7:0.57966548 8:0.21437006 9:0.31188345 10:0.59671462 11:0.50593358 12:0.40396458 13:0.32756859 14:0.42170107 15:0.46743244 16:0.52813888 17:0.57972938 18:0.52818602 19:0.41559631 20:0.28207272 21:0.63593954 22:0.79470837 23:0.43563297 24:0.7849502 25:0.82793307 26:0.49603254 27:0.69603395 28:0.3494738 29:0.84302008 30:0.48435456 31:0.59407449 32:0.85104471 33:0.46997187 34:0.19185255 35:0.2313319 36:0.6096549 
-4.924837763566479 -4.386478414752408 1:0.52780485 2:0.71992451 3:0.61252511 4:0.36016649 5:0.5011903 6:0.10235516 7:0.57966548 8:0.21437006 9:0.31188345 10:0.59671462 11:0.50593358 12:0.40396458 13:0.32756859 14:0.42170107 15:0.46743244 16:0.52813888 17:0.57972938 18:0.52818602 19:0.41559631 20:0.28207272 21:0.63593954 22:0.79470837 23:0.43563297 24:0.7849502 25:0.82793307 26:0.49603254 27:0.69603395 28:0.3494738 29:0.84302008 30:0.48435456 31:0.59407449 32:0.85104471 33:0.46997187 34:0.19185255 35:0.2313319 36:0.6096549 
-5.00807604539159 -0 1:0.24874352 2:0.68782711 3:0.61656797 4:0.43030569 5:0.48293945 6:0.37635407 7:0.81208277 8:0.81807649 9:0.30940062 10:0.35191002 11:0.40689087 12:0.4216826 13:0.3382161 14:0.57500798 15:0.81895608 16:0.48183858 17:0.57080466 18:0.28231001 19:0.65219742 20:0.38343537 21:0.88427562 22:0.67388767 23:0.80697984 24:0.16362028 25:0.14154865 26:0.69163936 27:0.072059572 28:0.44478104 29:0.7198481 30:0.52263689 31:0.45700198 32:0.86790413 33:0.76181912 34:0.30154932 35:0.15740393 36:0.64007747 
-0 -2.467352170414186 1:0.48192921 2:0.17991848 3:0.4775427 4:0.39384031 5:0.27617311 6:0.896586 7:0.34348506 8:0.42419091 9:0.3437348 10:0.26619908 11:0.69070631 12:0.48390254 13:0.52622467 14:0.91023201 15:0.53137136 16:0.51007128 17:0.96394378 18:0.27576777 19:0.32204178 20:0.29124922 21:0.77503127 22:0.71116936 23:0.41989565 24:0.15485451 25:0.23371483 26:0.48323953 27:0.37554765 28:0.45559013 29:0.53156275 30:0.74016953 31:0.36542493 32:0.95107788 33:0.66648543 34:0.37095141 35:0.080433227 36:0.62709701 
-0 -0.001960502266193862 1:0.42184663 2:0.88805187 3:0.67615074 4:0.26047376 5:0.31514242 6:0.46646315 7:0.62776101 8:0.11745048 9:0.62834233 10:0.97897649 11:0.78953642 12:0.52549165 13:0.92150646 14:0.57790059 15:0.14052093 16:0.57797658 17:0.64197952 18:0.6195063 19:0.23604791 20:0.37550852 21:0.7123726 22:0.49290049 23:0.6006496 24:0.39468592 25:0.31042686 26:0.48609927 27:0.52155823 28:0.50998688 29:0.4718281 30:0.40563524 31:0.16513397 32:0.74096268 33:0.49795455 34:0.49619174 35:1 36:0.88088185 
-0 -0.8671373532005345 1:0.42184663 2:0.88805187 3:0.67615074 4:0.26047376 5:0.31514242 6:0.46646315 7:0.62776101 8:0.11745048 9:0.62834233 10:0.97897649 11:0.78953642 12:0.52549165 13:0.92150646 14:0.57790059 15:0.14052093 16:0.57797658 17:0.64197952 18:0.6195063 19:0.23604791 20:0.37550852 21:0.7123726 22:0.49290049 23:0.6006496 24:0.39468592 25:0.31042686 26:0.48609927 27:0.52155823 28:0.50998688 29:0.4718281 30:0.40563524 31:0.16513397 32:0.74096268 33:0.49795455 34:0.49619174 35:1 36:0.88088185 
-1.005919305813537e-05 -0 1:0.83375263 2:0.34826648 3:0.77886122 4:0.63273126 5:0.35404828 6:0.91797048 7:0.62874079 8:0.39822268 9:0.35945705 10:0.62809438 11:0.43339986 12:0.80524564 13:0.62692386 14:0.44329378 15:0.4061448 16:0.58874613 17:0.7779581 18:0.236821 19:0.48766166 20:0.090493478 21:0.77815866 22:0.45951694 23:0.44770584 24:0.67977238 25:0.49340171 26:0.44519392 27:0.55071974 28:0.31571171 29:0.3989318 30:0.44937569 31:0.31804702 32:0.76001418 33:0.44876412 34:0.66272396 35:0.98849899 36:0.85711265 
-1.561247837144896 -3.219195351058092 1:0.83375263 2:0.34826648 3:0.77886122 4:0.63273126 5:0.35404828 6:0.91797048 7:0.62874079 8:0.39822268 9:0.35945705 10:0.62809438 11:0.43339986 12:0.80524564 13:0.62692386 14:0.44329378 15:0.4061448 16:0.58874613 17:0.7779581 18:0.236821 19:0.48766166 20:0.090493478 21:0.77815866 22:0.45951694 23:0.44770584 24:0.67977238 25:0.49340171 26:0.44519392 27:0.55071974 28:0.31571171 29:0.3989318 30:0.44937569 31:0.31804702 32:0.76001418 33:0.44876412 34:0.66272396 35:0.98849899 36:0.85711265 
-3.564124210402954e-05 -0 1:0.4990463 2:0.32863644 3:0.59552777 4:0.28311592 5:0.38395464 6:0.47516406 7:0.53161418 8:0.38608456 9:0.59507114 10:0.50722855 11:0.51545912 12:0.41085321 13:0.35055596 14:0.39877725 15:0.54197294 16:0.021735627 17:0.78544688 18:0.082084544 19:0.64104354 20:0.50841981 21:0.8608768 22:0.43181077 23:0.40181836 24:0.51926911 25:0.7263574 26:0.4510656 27:0.38414133 28:0.5689981 29:0.44070718 30:0.31261548 31:0.044766869 32:0.71987766 33:0.52032661 34:0.51003629 35:0.88270974 36:0.88609821 
-0.009836338822156433 -0 1:0.4990463 2:0.32863644 3:0.59552777 4:0.28311592 5:0.38395464 6:0.47516406 7:0.53161418 8:0.38608456 9:0.59507114 10:0.50722855 11:0.51545912 12:0.41085321 13:0.35055596 14:0.39877725 15:0.54197294 16:0.021735627 17:0.78544688 18:0.082084544 19:0.64104354 20:0.50841981 21:0.8608768 22:0.43181077 23:0.40181836 24:0.51926911 25:0.7263574 26:0.4510656 27:0.38414133 28:0.5689981 29:0.44070718 30:0.31261548 31:0.044766869 32:0.71987766 33:0.52032661 34:0.51003629 35:0.88270974 36:0.88609821 
-0.0001342024474873728 -0 1:0.69434434 2:0.53473204 3:0.4700636 4:0.37976673 5:0.4551695 6:0.45479256 7:0.64653093 8:0.52746326 9:0.61349458 10:0.79074508 11:0.62751025 12:0.4391194 13:0.5998584 14:0.54705733 15:0.79045433 16:0.31731147 17:0.39552012 18:0.27070507 19:0.29349232 20:0.53979731 21:0.53212106 22:0.48836374 23:0.49532425 24:0.42406121 25:0.3059397 26:0.64518553 27:0.56238168 28:0.65401739 29:0.41516209 30:0.16664051 31:0 32:0.45021006 33:0.48768097 34:0.5329442 35:0.9038955 36:0.88930506 
-3.032548717595068 -0 1:0.69434434 2:0.53473204 3:0.4700636 4:0.37976673 5:0.4551695 6:0.45479256 7:0.64653093 8:0.52746326 9:0.61349458 10:0.79074508 11:0.62751025 12:0.4391194 13:0.5998584 14:0.54705733 15:0.79045433 16:0.31731147 17:0.39552012 18:0.27070507 19:0.29349232 20:0.53979731 21:0.53212106 22:0.48836374 23:0.49532425 24:0.42406121 25:0.3059397 26:0.64518553 27:0.56238168 28:0.65401739 29:0.41516209 30:0.16664051 31:0 32:0.45021006 33:0.48768097 34:0.5329442 35:0.9038955 36:0.88930506 
-0 -0.004596910261168935 1:0.47288176 2:0.57451749 3:0.38071531 4:0.54229766 5:0.31681758 6:0.24077271 7:0.57158732 8:0.68994081 9:0.58245337 10:0.60742199 11:0.30134159 12:0.49253646 13:0.9414376 14:0.29423422 15:0.60066289 16:0.63633204 17:0.43836969 18:0.73966604 19:0.65312392 20:0.50301421 21:0.59298396 22:0.43927374 23:0.42345408 24:0.48276928 25:0.33825207 26:0.58494699 27:0.54732811 28:0.50802851 29:0.63254791 30:0.717489 31:0.1837844 32:0.60546607 33:0.32053855 34:0.50927353 35:0.84721082 36:0.86694896 
-1.939437320489137 -4.657240758446155 1:0.47288176 2:0.57451749 3:0.38071531 4:0.54229766 5:0.31681758 6:0.24077271 7:0.57158732 8:0.68994081 9:0.58245337 10:0.60742199 11:0.30134159 12:0.49253646 13:0.9414376 14:0.29423422 15:0.60066289 16:0.63633204 17:0.43836969 18:0.73966604 19:0.65312392 20:0.50301421 21:0.59298396 22:0.43927374 23:0.42345408 24:0.48276928 25:0.33825207 26:0.58494699 27:0.54732811 28:0.50802851 29:0.63254791 30:0.717489 31:0.1837844 32:0.60546607 33:0.32053855 34:0.50927353 35:0.84721082 36:0.86694896 
-0 -0.002235647318821172 1:0.89133698 2:0.27695832 3:0.53485298 4:0.28186804 5:0.81600153 6:0.74180728 7:0.13124463 8:0.85957825 9:0.34581974 10:0.8323161 11:0.33745781 12:0.68550766 13:0.71566594 14:0.70628721 15:0.71771628 16:0.39791051 17:0.45646277 18:0.55625331 19:0.28381544 20:0.39915594 21:0.71316099 22:0.64486808 23:0.65362775 24:0.065414965 25:0.869412 26:0.54336333 27:0.40517572 28:0.43110225 29:0.44668809 30:0.61845219 31:0.30720034 32:0.71035087 33:0.50105506 34:0.56672812 35:0.84241873 36:0.79879093 
-0 -4.916073108794619 1:0.89133698 2:0.27695832 3:0.53485298 4:0.28186804 5:0.81600153 6:0.74180728 7:0.13124463 8:0.85957825 9:0.34581974 10:0.8323161 11:0.33745781 12:0.68550766 13:0.71566594 14:0.70628721 15:0.71771628 16:0.39791051 17:0.45646277 18:0.55625331 19:0.28381544 20:0.39915594 21:0.71316099 22:0.64486808 23:0.65362775 24:0.065414965 25:0.869412 26:0.54336333 27:0.40517572 28:0.43110225 29:0.44668809 30:0.61845219 31:0.30720034 32:0.71035087 33:0.50105506 34:0.56672812 35:0.84241873 36:0.79879093 
-8.110343689437347 -0 1:0.21602482 2:0.7224763 3:0.7746042 4:0.27309027 5:0.25754154 6:0.62176716 7:0.26119158 8:0.70583612 9:0.66263163 10:0.54297972 11:0.50286299 12:0.6099053 13:0.43464908 14:0.73061955 15:0.80978453 16:0.69599336 17:0.4981584 18:0.51217562 19:0.11982586 20:0.42061961 21:0.81507009 22:0.46839288 23:0.52439696 24:0.51862252 25:0.46220341 26:0.51823074 27:0.64807022 28:0.5016799 29:0.5634743 30:0.58347726 31:0.12857202 32:0.71226221 33:0.40242708 34:0.62893558 35:0.99165815 36:0.75980359 
-2.312963096328514e-05 -0.001744666131748823 1:0.16650355 2:0.48748785 3:0.84289354 4:0.6278466 5:0.73514235 6:0.32272908 7:0.34336323 8:0.25036243 9:0.4650864 10:0.13224581 11:0.67833877 12:0.78998536 13:0.26108265 14:0.94375491 15:0.81592315 16:0.56437176 17:0.73135597 18:0.51884127 19:0.45032862 20:0.18784124 21:0.35785687 22:0.69581914 23:0.94007021 24:1 25:0.39803648 26:0.56638104 27:0.53417164 28:0.53314936 29:0.025888082 30:0.58240008 31:0.35189524 32:0.72589487 33:0.25184727 34:0.27573955 35:0.87462783 36:0.72954816 
-0.8167931887661162 -4.093047982539929 1:0.16650355 2:0.48748785 3:0.84289354 4:0.6278466 5:0.73514235 6:0.32272908 7:0.34336323 8:0.25036243 9:0.4650864 10:0.13224581 11:0.67833877 12:0.78998536 13:0.26108265 14:0.94375491 15:0.81592315 16:0.56437176 17:0.73135597 18:0.51884127 19:0.45032862 20:0.18784124 21:0.35785687 22:0.69581914 23:0.94007021 24:1 25:0.39803648 26:0.56638104 27:0.53417164 28:0.53314936 29:0.025888082 30:0.58240008 31:0.35189524 32:0.72589487 33:0.25184727 34:0.27573955 35:0.87462783 36:0.72954816 
-0.3769872455802889 -0 1:0.5485099 2:0.55776846 3:0.81446242 4:0.47622308 5:0.35643616 6:0.69906694 7:0.52613491 8:0.33108321 9:0.36179179 10:0.58617139 11:0.47961184 12:0.8648771 13:0.6747005 14:0.28503841 15:0.58928829 16:0.608374 17:0.38574514 18:0.12440262 19:0.45799875 20:0.1419213 21:0.95477694 22:0.86128718 23:0.28378123 24:0.34047833 25:0.33772177 26:0.72031617 27:0.41422305 28:0.46172455 29:0.5541724 30:0.17296349 31:0.10834487 32:0.64473259 33:0.4495101 34:0.68258655 35:0.93511248 36:0.86268705 
-0 -0.6110514215579809 1:0.3325997 2:0.46596709 3:0.36039928 4:1 5:0.63657594 6:0.22140326 7:0.60812223 8:0.32586741 9:0.27910033 10:0.49333966 11:0.44294059 12:0.19456291 13:0.7639702 14:0.40128237 15:0.17851074 16:0.44368857 17:0.51318669 18:0.55433637 19:0.92098421 20:0.3715778 21:0.61562109 22:0.50616902 23:0.36237127 24:0.42290592 25:0.50707036 26:0.56500119 27:0.59337807 28:0.52007169 29:0.64893365 30:0.46118248 31:0.2176764 32:0.54551381 33:0.5716238 34:0.59565973 35:0.88346344 36:0.87037891 
