svm_type c_svc
kernel_type rbf
gamma 0.09
nr_class 29
total_sv 2690
rho 0.530469 -0.0921884 -0.0179225 -0.40238 -0.6762 -0.491313 -0.436554 -0.419614 0.172708 -0.155684 -0.867607 -0.366519 -0.51078 -0.0933341 -0.426634 -0.555204 -0.647744 -0.499526 0.555092 -0.699589 -0.747547 -0.5559 -0.579625 -0.312836 -0.586048 -0.510885 -0.499899 0.246397 -0.198985 -0.295668 -0.620545 -0.832705 -0.463507 -1.09624 -0.813611 -0.13048 -0.408061 -1.06591 -0.925624 -1.0764 -0.333863 -0.597476 -0.912932 -0.969309 -0.523803 -0.444505 -0.867531 -0.93244 -0.814208 -1.04015 -0.428584 -0.749292 -0.73005 -0.634313 -0.0259729 -0.350647 -0.350957 -0.415012 -0.189771 -0.538937 -0.586129 0.22507 -0.448496 -0.611948 -0.318144 -0.545177 -0.0819026 -0.388245 -0.413438 -0.477675 -0.376218 0.471015 -0.45726 -0.419371 -0.207215 -0.490137 -0.244955 -0.410806 -0.241289 -0.538051 0.15273 -0.332733 -0.492876 -0.38256 -0.317934 -0.442653 0.106382 -0.135458 -0.476314 -0.303385 -0.488739 -0.110746 -0.265648 -0.523772 -0.450442 -0.393478 0.421695 -0.449862 -0.303666 -0.380238 -0.471093 -0.1236 -0.4219 -0.213046 -0.365536 0.163315 0.14964 0.0471336 0.323062 -0.0291367 0.461399 0.253288 0.0457585 0.209799 0.0423759 0.308614 0.370277 0.0883018 0.00668827 0.158321 0.797669 0.201618 0.204575 0.199469 0.214114 0.306621 0.00113481 0.140706 -0.0407956 0.528507 -0.175568 -0.0348182 -0.258779 0.456037 0.1975 -0.159399 0.279562 -0.11777 0.277961 0.463487 -0.0949058 -0.428379 0.0372313 1.66249 0.00518554 0.168279 0.132671 0.146328 0.24856 -0.221827 -0.0246436 -0.283441 1.33041 -0.0715569 -0.109002 0.4864 0.293254 -0.257939 0.120485 -0.131609 0.306416 0.117978 0.00781689 -0.19396 0.0564316 0.863457 0.058971 0.091935 0.0742271 0.156077 0.181969 -0.231596 0.0062148 -0.234214 0.637271 -0.429864 0.651101 0.370768 -0.275959 0.17287 -0.121635 0.319705 0.404467 -0.176341 -0.323805 0.152799 1.183 -0.0586893 0.161743 0.0311685 0.1594 0.336239 -0.195329 0.260935 -0.288071 0.829407 0.514886 0.423431 -0.0584319 0.290466 0.268536 0.33328 0.46387 0.0779982 -0.0956225 0.34315 0.851652 0.181217 0.287713 0.218324 0.468447 0.34231 -0.0288204 0.262208 -0.0559957 0.717417 -0.278582 -0.730978 -0.522919 -0.61906 -0.376352 -0.589061 -0.567306 -0.6101 -0.367356 0.340285 -0.647956 -0.489651 -0.41123 -0.529158 -0.491368 -0.555623 -0.441414 -0.562682 0.283485 -0.367136 -0.12437 -0.436037 -0.159702 -0.054264 -0.403208 -0.374489 -0.136881 0.907835 -0.244586 -0.18602 -0.268889 -0.197631 -0.11674 -0.417694 -0.280906 -0.409795 0.53896 0.257964 0.140527 0.507524 0.644522 0.196752 -0.149731 0.201038 1.20474 0.277969 0.573782 0.214213 0.237366 0.584212 -0.0707643 0.258227 -0.112402 0.671228 -0.770265 0.222223 0.25736 -0.258997 -0.306243 0.0740441 1.09825 -0.0814824 -0.133781 0.00537457 0.214921 0.143556 -0.307571 -0.0486775 -0.307912 0.831492 0.388331 0.308574 -0.0297082 -0.186282 0.177425 1.00413 0.0506185 0.186158 0.142236 0.333304 0.438289 -0.159756 0.238813 -0.117452 0.939982 -0.164411 -0.51172 -0.569595 -0.272955 0.625731 -0.248811 -0.42937 -0.280814 -0.106909 -0.00275492 -0.425901 -0.246888 -0.548879 0.404154 -0.453141 -0.423356 -0.243627 0.920652 -0.521957 -0.496327 -0.223127 -0.0667773 -0.0350309 -0.273659 -0.0573349 -0.368507 0.451617 -0.0277098 0.421607 1.04638 0.0523068 0.161552 0.20608 0.242304 0.563497 -0.0455583 0.179385 -0.130464 0.907114 0.414822 1.03346 0.247671 0.233855 0.459034 0.282128 0.606198 -0.048539 0.226433 -0.0749845 0.787694 0.602906 -0.136054 0.176747 0.132874 -0.0416299 0.197763 -0.182994 0.0447902 -0.314134 0.959927 -1.0547 -1.19316 -0.879429 -1.22385 -0.831073 -0.785813 -0.639119 -0.952082 1.15646 0.347403 0.210637 1.02836 0.230812 -0.167871 0.157527 -0.375517 0.735634 0.0866725 -0.156959 0.251845 -0.142376 0.224899 -0.319036 0.838416 -0.0699426 0.278538 -0.183142 -0.0130469 -0.313966 0.857294 0.216058 -0.363664 0.0701285 -0.309677 1.02793 -0.415526 -0.185616 -0.539095 0.59133 0.300534 -0.0423628 0.559628 -0.334429 0.494919 0.793121
label 10011 10012 10051 10052 10053 10141 10142 1014657 1014658 1030 1031 1032 10401 10402 141 142 143 151 152 2 22 25 26 29 3 34 35 39 4
probA -4.83261 -4.83365 -4.396 -4.65064 -5.34987 -4.73259 -5.4801 -4.81965 -4.70651 -4.91497 -4.66535 -4.79194 -4.62764 -5.05399 -4.86015 -4.49328 -4.92427 -4.81952 -5.13051 -4.76012 -4.88575 -5.15382 -4.76595 -4.87844 -4.63425 -4.47713 -4.71832 -4.62112 -4.83349 -4.46618 -4.60617 -5.33404 -4.74689 -5.28768 -4.7411 -4.84601 -4.78474 -4.64895 -4.75931 -4.5618 -4.88903 -4.72161 -4.48654 -4.77194 -4.75328 -5.02214 -4.69237 -4.90119 -5.06696 -4.77315 -4.79048 -4.57323 -4.45017 -4.66886 -4.57383 -3.96312 -4.47829 -5.17838 -4.63689 -5.33425 -4.75654 -4.81172 -4.5638 -4.78434 -4.66999 -4.53278 -5.00469 -4.93449 -4.52618 -4.82233 -4.79768 -4.91214 -4.80553 -4.92402 -5.09674 -4.78857 -4.9001 -4.62712 -4.56967 -4.61035 -4.50086 -4.09983 -4.78526 -4.40549 -4.87914 -4.43399 -4.62331 -4.38357 -4.41718 -4.26365 -4.19397 -4.64216 -4.58481 -4.02689 -4.494 -4.44064 -4.58764 -4.29788 -4.45886 -4.67418 -4.36577 -4.45609 -4.32812 -4.26418 -4.26451 -4.05004 -5.02319 -4.37872 -5.03929 -4.43595 -4.69008 -4.48531 -4.53528 -4.45411 -4.17912 -4.80214 -4.73318 -4.22168 -4.48112 -4.47579 -4.98832 -4.47748 -4.67893 -4.82495 -4.63911 -4.58887 -4.3008 -4.26188 -4.32211 -4.27173 -5.01443 -5.71041 -5.123 -5.33786 -4.99952 -5.26001 -5.02932 -4.82461 -5.42336 -5.43795 -4.90095 -5.27865 -5.02731 -5.24421 -5.17979 -5.37923 -5.55641 -5.21074 -5.34348 -5.1175 -5.01525 -5.06277 -4.80783 -5.17196 -4.56426 -4.67396 -4.50313 -4.58312 -4.4807 -4.38158 -4.93637 -4.85319 -4.40113 -4.67509 -4.46859 -4.80871 -4.63176 -4.86849 -4.866 -4.79276 -4.64721 -4.48853 -4.35887 -4.50086 -4.29623 -4.9639 -5.39353 -5.29198 -5.31857 -5.15205 -4.96813 -5.39194 -5.36649 -4.85428 -5.2721 -5.1383 -5.58076 -5.10815 -5.35272 -5.58653 -5.19023 -5.31809 -4.9768 -4.91573 -5.07156 -5.04219 -4.70951 -4.71554 -4.6991 -4.65367 -4.42553 -4.86599 -4.89421 -4.39951 -4.70138 -4.54445 -5.1525 -4.59962 -4.77978 -4.95621 -4.5766 -4.71103 -4.49834 -4.35547 -4.50628 -4.43025 -4.78764 -4.70359 -4.7737 -4.64157 -4.95406 -4.91355 -4.52038 -4.80657 -4.75678 -5.27931 -4.83744 -5.02402 -5.07268 -4.88647 -4.80538 -4.64597 -4.51979 -4.62623 -4.68278 -4.57522 -4.45987 -4.39629 -4.87541 -4.88173 -4.38197 -4.56621 -4.6055 -4.83726 -4.6887 -4.80976 -5.04587 -4.66473 -4.62588 -4.58906 -4.48022 -4.55313 -4.37321 -4.70361 -4.4668 -4.81645 -4.82984 -4.37362 -4.71123 -4.54545 -4.93412 -4.64671 -4.68791 -4.93203 -4.65726 -4.68253 -4.59823 -4.43465 -4.65613 -4.41866 -3.78383 -4.93346 -4.89321 -4.353 -4.4948 -4.50467 -4.72965 -4.55195 -4.7552 -4.92583 -4.65927 -4.67706 -4.48127 -4.4397 -4.59978 -4.27565 -4.73092 -4.76592 -4.13037 -4.42214 -4.3499 -4.62802 -4.39864 -4.56568 -4.78257 -4.4333 -4.4315 -4.23033 -4.2001 -4.33517 -4.09164 -4.93432 -4.55935 -4.89742 -4.9677 -5.24402 -4.62942 -4.89507 -5.23839 -4.65401 -5.01215 -4.79665 -4.70376 -4.81596 -4.79353 -4.46254 -4.93148 -4.79463 -5.25647 -4.56145 -4.79424 -5.17556 -4.71543 -4.95432 -4.79927 -4.64615 -4.85623 -4.76533 -4.27286 -4.30335 -4.65009 -4.24813 -4.47234 -4.48825 -4.2677 -4.44802 -4.29773 -4.22804 -4.25515 -4.05001 -4.48864 -5.02149 -4.63889 -4.71825 -4.72698 -4.74338 -4.59536 -4.52016 -4.47611 -4.58933 -4.38864 -4.94777 -4.49174 -4.72472 -4.34787 -4.61632 -4.58218 -4.5476 -4.41431 -4.55978 -4.3253 -5.05912 -5.19926 -5.35049 -4.90687 -5.05191 -5.01021 -4.83979 -4.91424 -4.56937 -4.32471 -5.03723 -3.89266 -4.80437 -4.57369 -4.4485 -4.60286 -4.37748 -5.23027 -4.39795 -4.82476 -4.79241 -4.62395 -4.80928 -4.67321 -5.04728 -5.02194 -4.86427 -4.80945 -4.87659 -4.70881 -4.79507 -4.67765 -4.52624 -4.69726 -4.35179 -4.62061 -4.47267 -4.64663 -4.59624 -4.10746 -4.42697 -4.41254 -4.32218 -4.29628 -4.27709
probB -0.0751963 -0.180597 -0.113958 -0.557167 0.318437 -0.297753 0.288498 -0.201394 -0.0109689 -0.154805 -0.148761 -0.210898 -0.454426 0.0512633 0.0582286 -0.521257 -0.245802 -0.210347 0.205123 -0.173366 0.139444 0.0301462 -0.220939 -0.0124578 -0.369419 -0.320795 -0.384658 -0.17315 -0.115375 0.0362502 -0.585019 0.362645 -0.166865 0.335788 -0.23648 0.138021 -0.0383118 -0.00980053 -0.139005 -0.294702 0.0693579 -0.0621282 -0.495234 -0.199028 -0.111728 0.203154 -0.0545858 0.0937373 0.092275 0.00424448 0.130766 -0.300437 -0.397035 -0.34835 -0.140528 -0.263577 -0.341942 0.4066 -0.109164 0.430703 -0.182903 0.0358741 0.0314412 -0.0670507 -0.249904 -0.353586 0.182198 0.185528 -0.41282 -0.133323 -0.151802 0.378739 0.0300827 0.143051 0.177343 0.0626889 0.119664 -0.310218 -0.326065 -0.311403 -0.212534 -0.0459895 0.461793 -0.0344302 0.340808 -0.0407165 0.0972982 0.0284016 -0.0573324 -0.192157 -0.327351 0.118923 0.121196 -0.342795 -0.0679636 -0.0934499 0.36282 -0.0827982 0.10317 0.12317 -0.0185013 0.023925 -0.107966 -0.261014 -0.162249 -0.255158 0.904752 0.254535 0.844718 0.232766 0.544873 0.444913 0.402877 0.294343 0.0410006 0.576152 0.641959 0.0934004 0.288709 0.29218 0.833271 0.293137 0.539176 0.620951 0.466564 0.494807 0.0388867 0.0906012 0.165178 0.192358 -0.513483 -0.0678662 -0.573789 -0.299159 -0.241132 -0.497467 -0.418197 -0.538065 -0.304488 -0.0721484 -0.879709 -0.606349 -0.472506 0.106797 -0.48445 -0.164964 -0.212799 -0.247114 -0.118175 -0.779921 -0.690778 -0.819058 -0.305964 0.572378 -0.0117437 0.192482 0.0992594 0.170793 0.0754082 -0.216497 0.327724 0.261467 -0.257745 -0.0242286 0.0895481 0.575844 0.0391937 0.344502 0.320601 0.2166 0.185673 -0.177593 -0.164926 -0.139372 0.0627672 -0.605789 -0.257731 -0.490374 -0.567442 -0.511066 -0.821837 -0.271333 -0.0438486 -0.772594 -0.577418 -0.492914 0.0044969 -0.410615 -0.244487 -0.267601 -0.268426 -0.0882765 -0.648247 -0.606924 -0.793616 -0.571001 0.233332 0.252964 0.132389 0.0789468 -0.154949 0.329733 0.424435 -0.283607 0.0733508 0.190237 0.685611 0.167905 0.283304 0.407369 0.243129 0.228183 -0.161657 -0.176253 -0.120611 -0.0106787 -0.137076 -0.218031 -0.243857 -0.401891 0.018911 0.0867662 -0.517386 -0.229263 -0.196908 0.308105 -0.118829 0.0904532 0.0682836 -0.0479707 0.174037 -0.362813 -0.384347 -0.255544 -0.143835 -0.162285 -0.128695 -0.170031 0.155744 0.313655 -0.413748 -0.171102 -0.210336 0.409457 0.0075715 -0.049785 0.282417 0.0919698 0.291233 -0.287593 -0.320733 -0.356997 -0.0930581 -0.187016 -0.320928 0.15766 0.304433 -0.373024 -0.112558 -0.0454193 0.37292 -0.0296694 0.0938607 0.289347 0.0831763 0.162944 -0.268872 -0.353938 -0.23355 -0.03613 0.370235 0.284099 0.402438 -0.228039 0.016261 0.0681624 0.344721 0.026102 0.280467 0.3373 0.182739 0.143031 -0.18459 -0.170861 -0.192508 0.0550421 0.497758 0.590162 -0.0237892 0.195679 0.281675 0.497669 0.322787 0.576319 0.530537 0.306987 0.274519 0.0388079 0.106307 0.0709859 0.0605226 0.0844765 -0.60249 -0.26342 -0.29055 0.196358 -0.215424 0.00859088 0.0231935 0.00358963 -0.0539657 -0.498649 -0.49027 -0.431062 -0.299006 -0.587291 -0.362987 -0.42531 0.113523 -0.22624 -0.1556 -0.038916 -0.00898184 0.19189 -0.484828 -0.504589 -0.502476 -0.2362 0.316531 0.289517 0.755291 0.277373 0.411477 0.670119 0.520737 0.491433 0.0238035 0.0876678 0.138057 0.240406 0.0835158 0.501339 0.0430322 0.328275 0.338461 0.178677 0.0739669 -0.188062 -0.181329 -0.191916 -0.107577 0.388845 -0.00686066 0.305527 0.0692247 0.0705592 0.0747477 -0.207165 -0.212119 -0.180016 0.0356728 -0.302142 -0.0892772 -0.17014 -0.239685 -0.154473 -0.708034 -0.79957 -0.709301 0.443293 0.172981 0.261552 0.215515 0.042073 -0.274234 -0.272898 -0.184508 0.0305595 0.026069 0.0746424 -0.0135863 -0.465164 -0.481131 -0.501614 -0.050602 -0.118977 -0.215773 -0.557639 -0.541049 -0.548163 -0.133472 0.0483273 -0.394173 -0.439986 -0.336787 -0.0726234 -0.347478 -0.473716 -0.377004 -0.280267 -0.148868 0.0753412 0.105075 0.137534 0.166496 0.0837446
nr_sv 135 125 68 51 26 209 52 199 47 104 95 84 112 75 113 117 13 70 88 236 85 146 86 112 73 10 57 39 63
SV
0 0 0.2054615279738883 0 0 0 0 0 0 0 0 0 0 0.1727254201509543 0 0 0 0 0 0 0 0 0 0 0.2070706244843295 0 0 0 1:0.55631477 2:0.63034391 3:0.5879522 4:0.41373542 5:0.59585023 6:0.37010047 7:0.7009446 8:0.55308312 9:0.42715937 10:0.51587284 11:0.53791612 12:0.5141812 13:0.57089025 14:0.50496209 15:0.71386153 16:0.32698861 17:0.44110188 18:0.30749083 19:0.61183083 20:0.69441509 21:0.48697096 22:0.79130864 23:0.30599812 24:0.33413076 25:0.29235199 26:0.59204793 27:0.50818437 28:0.51860994 29:0.32302779 30:0.81504428 31:0.48849261 32:0.31953526 33:0.44687143 34:0.48277906 35:0.60809553 36:0.3782219 37:0.59900486 38:0.52157891 39:0.53933281 40:0.35542598 41:0.53819114 42:0.33585149 43:0.60468334 44:0.25412986 45:0.40842202 46:0.53537995 47:0.52169323 48:0.25444785 49:0.76203072 50:0.47914827 51:0.74243218 52:0.26255473 53:0.39518118 54:0.54898334 55:0.32830396 56:0.30851531 57:0.14410502 58:0.74822617 59:0.46998656 60:0.71516466 61:0.5998857 62:0.66587061 63:0.62205458 64:0.14315018 65:0.53536087 66:0.30964649 67:0.74386537 68:0.70968801 69:0.32608095 70:0.45571098 71:0.62014467 72:0.77290088 73:0.28989831 74:0.60634738 75:0.25921246 
0 0 0 0 0 0 0 0 2.641710484234245 0.1205294897258173 0 0 0 0.5975433787801733 1.982675569684082 0 0 0 0 0 0 0 0 2.703329659888313 0 0.9292170014754758 0 0 1:0.46694019 2:0.47829336 3:0.54872739 4:0.54844236 5:0.78337079 6:0.45759818 7:0.82032257 8:0.51333964 9:0.47420439 10:0.39431342 11:0.62921351 12:0.34538451 13:0.40181068 14:0.49789986 15:0.62142521 16:0.58669186 17:0.48432148 18:0.61196482 19:0.53797501 20:0.52529877 21:0.61138946 22:0.43447435 23:0.81803697 24:0.4641192 25:0.38095596 26:0.55989826 27:0.35817966 28:0.44263327 29:0.42797571 30:0.28195444 31:0.73581022 32:0.30913031 33:0.67977679 34:0.53708887 35:0.27956969 36:0.5946126 37:0.61923373 38:0.59525043 39:0.45073488 40:0.61516666 41:0.3596631 42:0.43787646 43:0.73957366 44:0.18095368 45:0.84980476 46:0.58916044 47:0.32642943 48:0.41414887 49:0.43993166 50:0.46736723 51:0.63751072 52:0.33019176 53:0.35577896 54:0.49995261 55:0.66542912 56:0.22751456 57:0.47190404 58:0.26247299 59:0.45699352 60:0.55834603 61:0.61860728 62:0.29005671 63:0.55961448 64:0.53421265 65:0.66015279 66:0.33779761 67:0.60194361 68:0.65380144 69:0.42626449 70:0.45270059 71:0.72047925 72:0.56696177 73:0.38603303 74:0.417225 75:0.27497831 
0 0 0 0 0 0 0 0 0 0 0 0 0 0 0 0 0 0 0 2.123280522058297 0 0 1.268767413412882 0 0 0 0 0 1:0.5666309 2:0.55096358 3:0.51430058 4:0.35742861 5:0.53174436 6:0.6257304 7:0.52827621 8:0.17995518 9:0.65135807 10:0.45401835 11:0.82785434 12:0.30791298 13:0.35011908 14:0.41556966 15:0.61640561 16:0.5879252 17:0.47492966 18:0.36631116 19:0.45887828 20:0.53190947 21:0.32994905 22:0.49460509 23:0.29884955 24:0.45051125 25:0.34781012 26:0.26590317 27:0.60101461 28:0.42148331 29:0.39094469 30:0.64212281 31:0.64012432 32:0.48295015 33:0.45907688 34:0.5249483 35:0.40622818 36:0.5171653 37:0.47411934 38:0.51039433 39:0.33992651 40:0.57802588 41:0.44837841 42:0.59443659 43:0.5779174 44:0.46730497 45:0.65820873 46:0.44665003 47:0.5039323 48:0.23157595 49:0.62536198 50:0.35408911 51:0.57454371 52:0.1912789 53:0.46435103 54:0.51806569 55:0.47680542 56:0.14801197 57:0.13517517 58:0.40075928 59:0.6416415 60:0.73121381 61:0.47732818 62:0.42407688 63:0.72935891 64:0.28977349 65:0.39325243 66:0.52800697 67:0.65777445 68:0.67639714 69:0.43249291 70:0.45286062 71:0.71012908 72:0.70208228 73:0.33591357 74:0.51583195 75:0.24348989 
0 0 0 0 0 0 0 0 0 0 0 0 0 0 0 0 0 0 0 0 0 0 0.09543340537270044 0 0 0 0 0 1:0.33720991 2:0.56239337 3:0.40398288 4:0.46243012 5:0.7773025 6:0.46184382 7:0.81529129 8:0.44116089 9:0.50330251 10:0.5700525 11:0.83395267 12:0.33002532 13:0.4498477 14:0.3454985 15:0.37079903 16:0.48403183 17:0.40286529 18:0.39333454 19:0.59886342 20:0.59434623 21:0.60459477 22:0.64026421 23:0.40501571 24:0.49721488 25:0.47713399 26:0.31807232 27:0.51924235 28:0.43616217 29:0.45795345 30:0.54479557 31:0.60218006 32:0.49803403 33:0.53753823 34:0.52031827 35:0.44595173 36:0.58429015 37:0.56914037 38:0.54107869 39:0.38445902 40:0.67171013 41:0.53171927 42:0.50752521 43:0.62989205 44:0.35511237 45:0.72668821 46:0.57586735 47:0.41666466 48:0.28975022 49:0.53836912 50:0.53075999 51:0.61336482 52:0.33238262 53:0.44337454 54:0.3901538 55:0.45577532 56:0.24532525 57:0.22752026 58:0.45046568 59:0.34877104 60:0.71146274 61:0.58403522 62:0.42654958 63:0.74403495 64:0.39275694 65:0.38226804 66:0.36481294 67:0.68655878 68:0.54255706 69:0.39827645 70:0.51217228 71:0.72728491 72:0.75966299 73:0.26584876 74:0.58878875 75:0.2087902 
0 0 0 0 0.03686714556914054 0 0 0 0 0 0 0 0 0 0 0 0 0 0 0 0 0 0 0 0 0 0 0 1:0.36205369 2:0.33137316 3:0.52264512 4:0.50907147 5:0.55912393 6:0.52726936 7:0.38285783 8:0.66345727 9:0.36215472 10:0.3812474 11:0.68817431 12:0.34647572 13:0.73515266 14:0.37233391 15:0.40825552 16:0.7340712 17:0.46433944 18:0.39155793 19:0.31136894 20:0.5719294 21:0.25486135 22:0.54290992 23:0.31365597 24:0.37415543 25:0.35969231 26:0.33343554 27:0.56460464 28:0.39259776 29:0.34387031 30:0.51028663 31:0.67357069 32:0.41101658 33:0.57928145 34:0.45233893 35:0.42736846 36:0.56838357 37:0.48754525 38:0.4589209 39:0.51085365 40:0.83023435 41:0.45960328 42:0.61504841 43:0.63117594 44:0.37596899 45:0.69292462 46:0.51239818 47:0.28712645 48:0.30843356 49:0.50143343 50:0.38928276 51:0.50591838 52:0.2195448 53:0.5050838 54:0.45481244 55:0.73748839 56:0.22085649 57:0.34203014 58:0.31107524 59:0.52584749 60:0.56028318 61:0.73399132 62:0.35366806 63:0.81770104 64:0.4314625 65:0.48034361 66:0.39622542 67:0.65476465 68:0.68078256 69:0.52164119 70:0.46690446 71:0.82011342 72:0.55368602 73:0.48542112 74:0.43445498 75:0.36241472 
0.4094688133116563 0 0 0 1.931848215744019 0 0.7202783773243429 0 0.8399740882082493 0 0 0 0 0 1.751683468101682 0.165560054960745 0 0 0 2.545208911892339 0.1670890864464635 0 0.291935729721585 0 0 0 0 0.7855100027218928 1:0.59324616 2:0.67244118 3:0.48953974 4:0.59856093 5:0.49946156 6:0.51141095 7:0.6448133 8:0.47635722 9:0.21299809 10:0.53657097 11:0.506522 12:0.46333721 13:0.9616124 14:0.50975531 15:0.6920504 16:0.52112979 17:0.62605464 18:0.21231396 19:0.46876645 20:0.64947706 21:0.40561309 22:0.64198923 23:0.35879132 24:0.5843336 25:0.55455238 26:0.58398914 27:0.6665377 28:0.46164992 29:0.52967006 30:0.62469131 31:0.77176583 32:0.44416791 33:0.78934789 34:0.17860033 35:0.56798571 36:0.33847281 37:0.35199472 38:0.51001328 39:0.35032022 40:0.48681164 41:0.43203852 42:0.63940638 43:0.43976662 44:0.44718102 45:0.66392779 46:0.42710063 47:0.35924584 48:0.24766918 49:0.51926219 50:0.44756699 51:0.62323552 52:0.16263093 53:0.3746638 54:0.55588222 55:0.60366893 56:0.30293095 57:0.33431447 58:0.35714245 59:0.63384151 60:0.6579029 61:0.69183677 62:0.40457553 63:0.72476095 64:0.44597307 65:0.53091836 66:0.33372974 67:0.69791025 68:0.69921911 69:0.56449789 70:0.43649122 71:0.75453627 72:0.46042064 73:0.47030783 74:0.49517065 75:0.37916306 
0 0 0 0.2436032548839345 0 0 0 0 0 0 0 0 0 0 0 0 0.3008482527202345 0 0 0 0 0 0 0 0 0 0 0 1:0.64392257 2:0.55866849 3:0.62446314 4:0.38265306 5:0.45284986 6:0.52190256 7:0.59023649 8:0.48658198 9:0.37610388 10:0.63794655 11:0.6708073 12:0.42794675 13:0.59707719 14:0.49402365 15:0.71792924 16:0.31316686 17:0.37517396 18:0.46756902 19:0.30329058 20:0.57728088 21:0.32236388 22:0.56369346 23:0.19775397 24:0.41642433 25:0.40307897 26:0.57156396 27:0.59547985 28:0.38039944 29:0.5493136 30:0.40729845 31:0.88031536 32:0.41818607 33:0.77054667 34:0.21640636 35:0.66193759 36:0.40216655 37:0.53894407 38:0.43443021 39:0.36665511 40:0.58858609 41:0.44221801 42:0.58818924 43:0.56755334 44:0.37938464 45:0.56921566 46:0.36307719 47:0.4993881 48:0.26565805 49:0.55951655 50:0.43502262 51:0.6897791 52:0.17669038 53:0.46879655 54:0.6280753 55:0.52165967 56:0.33380684 57:0.24050355 58:0.28421885 59:0.75355399 60:0.68051726 61:0.69346017 62:0.32894018 63:0.74021977 64:0.29632804 65:0.52441692 66:0.49277228 67:0.6223619 68:0.81599379 69:0.59709454 70:0.49983898 71:0.66930455 72:0.67923021 73:0.29617837 74:0.45127299 75:0.2733463 
0 0 0 0 0 0 0 0 0 0.3519238758681164 0 0 0 0 0 0 0 0 0 0 0 0 0 0 1.072521501291581 0.8107492225514609 0 0 1:0.50961399 2:0.35533932 3:0.41521943 4:0.59054822 5:0.58099008 6:0.42007181 7:0.335044 8:0.48142383 9:0.43407395 10:0.6015389 11:0.43392843 12:0.29945868 13:0.49124119 14:0.64702857 15:0.68780732 16:0.48254323 17:0.71833813 18:0.67830336 19:0.43740311 20:0.62647146 21:0.36653864 22:0.51563275 23:0.32795599 24:0.37965491 25:0.49756289 26:0.45338899 27:0.44048265 28:0.379796 29:0.44539103 30:0.22042556 31:0.79766923 32:0.40602008 33:0.74709123 34:0.53351063 35:0.44834986 36:0.37631714 37:0.43837699 38:0.55137527 39:0.59898335 40:0.63747931 41:0.4063336 42:0.66063082 43:0.47447515 44:0.21792158 45:0.5494231 46:0.39439946 47:0.23156723 48:0.4251731 49:0.46478343 50:0.42045495 51:0.76116842 52:0.38987833 53:0.52002007 54:0.58764327 55:0.58539706 56:0.19954151 57:0.43080229 58:0.28466466 59:0.62467003 60:0.81278765 61:0.6812408 62:0.40812421 63:0.70114559 64:0.24483864 65:0.64965969 66:0.4676823 67:0.66303873 68:0.73288572 69:0.51226825 70:0.44920573 71:0.68153334 72:0.72941327 73:0.3485035 74:0.51031804 75:0.24769293 
0 0.228218022154388 0 0.2326515551922945 0.660905911493661 0.5028828314057578 0 0 0 0.2776578299367215 0 0 0 0.6303200859889333 0 0 0 0 0 0 0 0 0 0.2599447783819987 0 0 0 0.0257991620304617 1:0.54141217 2:0.47737053 3:0.46595716 4:0.60038579 5:0.71794742 6:0.52547967 7:0.45521086 8:0.57728606 9:0.42950982 10:0.51918471 11:0.67412817 12:0.37476674 13:0.38196328 14:0.82065439 15:0.56469858 16:0.28561616 17:0.58867741 18:0.45718685 19:0.47461787 20:0.53662437 21:0.30313018 22:0.69243395 23:0.29930761 24:0.3968899 25:0.33930844 26:0.24791324 27:0.63314515 28:0.2984339 29:0.31824049 30:0.47708693 31:0.68333089 32:0.45534492 33:0.73352998 34:0.55930948 35:0.49120116 36:0.46174958 37:0.41829765 38:0.58369356 39:0.46123487 40:0.47204933 41:0.35920051 42:0.63290459 43:0.48324403 44:0.29865953 45:0.55202985 46:0.57541186 47:0.38359311 48:0.34960747 49:0.5954836 50:0.43995401 51:0.64898932 52:0.30273035 53:0.49152806 54:0.56105626 55:0.64978856 56:0.17946696 57:0.33154407 58:0.33802211 59:0.62672663 60:0.75928092 61:0.56182033 62:0.4493432 63:0.76063073 64:0.32739982 65:0.49048731 66:0.47432172 67:0.66096812 68:0.68697858 69:0.50098485 70:0.42440897 71:0.68131447 72:0.76505262 73:0.28987968 74:0.61209351 75:0.30679455 
0 0 0 0 0 0 0 0 0 1.214254713308822 0 0 0 0 0 0.065159030561315 0.429545250283033 0 0.2055751654336601 0 0.666791275597067 0.7868668098633077 0.6345357120566522 1.029609939113028 0 0 0 0.1381668506812482 1:0.5771488 2:0.48007181 3:0.55964833 4:0.57225877 5:0.7625913 6:0.47193992 7:0.84362727 8:0.33041123 9:0.2145417 10:0.557787 11:0.7332055 12:0.25578618 13:0.46004874 14:0.2948195 15:0.47944212 16:0.47655806 17:0.49469095 18:0.58482927 19:0.58124596 20:0.62636715 21:0.58445346 22:0.38482547 23:0.26515579 24:0.54757673 25:0.36675093 26:0.648902 27:0.6432361 28:0.70556778 29:0.59920979 30:0.50247008 31:0.69653827 32:0.39107898 33:0.6399281 34:0.28096011 35:0.70678204 36:0.20752297 37:0.51074177 38:0.42658031 39:0.53710246 40:0.80177659 41:0.42249343 42:0.57243925 43:0.56817108 44:0.48161468 45:0.54949379 46:0.44033319 47:0.46624041 48:0.21242313 49:0.43010449 50:0.45414674 51:0.6723147 52:0.20508043 53:0.40069392 54:0.53417528 55:0.39909935 56:0.26065895 57:0.28269699 58:0.44305089 59:0.43592945 60:0.85032517 61:0.69633883 62:0.26130965 63:0.71338099 64:0.38216457 65:0.3973988 66:0.32970461 67:0.65262985 68:0.76726973 69:0.39470989 70:0.46456268 71:0.62802261 72:0.66560119 73:0.23511951 74:0.53677279 75:0.24792293 
0 0 0 0 0 0 0.04087495490916583 0 0 0 0 0 0 1.063795846333596 0 0.9146190623643426 0 0 0 0 0 0 0.284324228306196 0 0 0 0 0 1:0.39932457 2:0.3885459 3:0.48159686 4:0.51263011 5:0.81699401 6:0.41137818 7:0.71183836 8:0.53601259 9:0.48962915 10:0.50713575 11:0.48219758 12:0.40902972 13:0.55340558 14:0.35903728 15:0.46010238 16:0.60993665 17:0.72868109 18:0.69366664 19:0.47855824 20:0.63681191 21:0.41931513 22:0.48673213 23:0.63835603 24:0.37385857 25:0.62502331 26:0.28115389 27:0.41299516 28:0.48025906 29:0.44195303 30:0.47132346 31:0.54531693 32:0.41291302 33:0.56920195 34:0.35507795 35:0.68140954 36:0.51826584 37:0.53596002 38:0.5026955 39:0.58341396 40:0.47343948 41:0.45400053 42:0.50607598 43:0.64167511 44:0.3771674 45:0.6606878 46:0.68275511 47:0.40003881 48:0.079143666 49:0.64202762 50:0.52930498 51:0.40723246 52:0.30881578 53:0.47503954 54:0.45408428 55:0.50880742 56:0.30864382 57:0.28783143 58:0.57459587 59:0.54490113 60:0.72349662 61:0.59089458 62:0.49800149 63:0.60842508 64:0.2595593 65:0.65101898 66:0.36732545 67:0.61736959 68:0.67657632 69:0.44757146 70:0.43175113 71:0.74290246 72:0.74040991 73:0.46109077 74:0.49172682 75:0.26175594 
0 0 1.227160540848214 0 0 0 0 0 0 0 0 0 0 0 0 0 0 0 0 0 0 0 0 0 0 0 0 0 1:0.36009571 2:0.71658128 3:0.58747888 4:0.56422764 5:0.80304784 6:0.56557608 7:0.83378738 8:0.57643628 9:0.53596151 10:0.45445114 11:0.68409342 12:0.25616795 13:0.6779806 14:0.33315217 15:0.34453604 16:0.67026418 17:0.47536278 18:0.41632012 19:0.56564778 20:0.59092188 21:0.48978481 22:0.47589946 23:0.24181932 24:0.52302361 25:0.47837719 26:0.32358068 27:0.6057266 28:0.51619995 29:0.29314855 30:0.42592472 31:0.49341905 32:0.52510649 33:0.57812017 34:0.58716834 35:0.45740265 36:0.65313399 37:0.6559459 38:0.50984585 39:0.45844531 40:0.6334759 41:0.33060113 42:0.68851525 43:0.58885431 44:0.40081614 45:0.75681466 46:0.57873982 47:0.43340546 48:0.096816003 49:0.64513558 50:0.50944734 51:0.43254045 52:0.22689156 53:0.49871889 54:0.37770098 55:0.64113051 56:0.18751892 57:0.22663158 58:0.3717379 59:0.43474707 60:0.59997553 61:0.57582986 62:0.40958112 63:0.79828238 64:0.50414771 65:0.34885111 66:0.44461417 67:0.68775392 68:0.51345646 69:0.46568373 70:0.42002675 71:0.9017958 72:0.61469924 73:0.42492285 74:0.53549749 75:0.30982634 
0 0 0 0 0 0 0 0 0 0 0 0 0 0 0 0 0 0 0 0 0 0 0 0 0 0 0.3765793978556116 0 1:0.66932964 2:0.54858547 3:0.316928 4:0.68657029 5:0.5843901 6:0.47561201 7:0.5850336 8:0.6341545 9:0.49317613 10:0.34471333 11:0.4329482 12:0.63417453 13:0.59786993 14:0.46934721 15:0.46694386 16:0.60021764 17:0.54328734 18:0.52729774 19:0.65294528 20:0.52337474 21:0.56934798 22:0.60681224 23:0.43522879 24:0.55196446 25:0.45779732 26:0.42680669 27:0.34288591 28:0.56017208 29:0.38724941 30:0.48962528 31:0.63959646 32:0.61752856 33:0.57251948 34:0.38524362 35:0.41280779 36:0.60014248 37:0.56547278 38:0.59592533 39:0.38580284 40:0.41008103 41:0.50708127 42:0.77308536 43:0.3537299 44:0.43079019 45:0.21402344 46:0.66505456 47:0.39027831 48:0.38193363 49:0.5200088 50:0.61522222 51:0.61541295 52:0.28365526 53:0.42659846 54:0.44615245 55:0.40031561 56:0.48363233 57:0.37739101 58:0.53408974 59:0.42198825 60:0.74074364 61:0.45627463 62:0.56136531 63:0.65213096 64:0.39890301 65:0.49021143 66:0.39234093 67:0.75687516 68:0.7505334 69:0.50432867 70:0.42412165 71:0.90346467 72:0.68580329 73:0.51711333 74:0.41112149 75:0.41222894 
0 0 0 0 0 0 0 0 0 0.7973001133526375 0 0 0 0 0 0 0 0 0 0 0 0 0 0 0 0 0 0 1:0.50016868 2:0.53399897 3:0.47372457 4:0.40795711 5:0.63197434 6:0.38679186 7:0.47001538 8:0.4490816 9:0.5483982 10:0.47053814 11:0.60730982 12:0.6373136 13:0.66308331 14:0.685179 15:0.62678576 16:0.65713012 17:0.64817595 18:0.36215812 19:0.81767076 20:0.5880819 21:0.64152014 22:0.53846055 23:0.8827064 24:0.41237336 25:0.59231055 26:0.37714502 27:0.3565371 28:0.60418439 29:0.39833903 30:0.34873584 31:0.63069379 32:0.44853333 33:0.52161413 34:0.19456999 35:0.30225739 36:0.42244855 37:0.67513382 38:0.51202893 39:0.28226405 40:0.74359322 41:0.60343534 42:0.65439564 43:0.51432031 44:0.34365448 45:0.59368902 46:0.56893343 47:0.38008511 48:0.54123706 49:0.33385259 50:0.37490416 51:0.61076772 52:0.28966698 53:0.46151462 54:0.56249332 55:0.62681949 56:0.39554673 57:0.37329695 58:0.41295147 59:0.43610954 60:0.5788464 61:0.61190051 62:0.56371659 63:0.53001171 64:0.56866205 65:0.70238835 66:0.60477495 67:0.69668055 68:0.79262066 69:0.58320963 70:0.51444477 71:0.90720832 72:0.57520819 73:0.51641577 74:0.35499325 75:0.38648793 
0 0 0 0.2938137545706391 0.1256624767221515 0 0 0 0 0 0 0 0 0 0 0 0 0 0 0 0 0 0 0 0 0 0 1.109048310348002 1:0.65222222 2:0.50429976 3:0.65408093 4:0.36137328 5:0.12003937 6:0.22090352 7:0.47964367 8:0.46640888 9:0.61915964 10:0.73397702 11:0.59869444 12:0.57626414 13:0.92592502 14:0.60056084 15:0.58717149 16:0.53158605 17:0.34813935 18:0.37162659 19:0.50902951 20:0.54765332 21:0.46007597 22:0.63123482 23:0.67840445 24:0.63347042 25:0.74770945 26:0.41146785 27:0.54921788 28:0.6398502 29:0.72151798 30:0.71059418 31:0.46686688 32:0.36570808 33:0.42954379 34:0.089956284 35:0.66404349 36:0.39811251 37:0.52771884 38:0.30777949 39:0.3272821 40:0.50901467 41:0.45079657 42:0.79612547 43:0.43069884 44:0.48157793 45:0.58200258 46:0.71567148 47:0.48708326 48:0.74269605 49:0.39874861 50:0.2972877 51:0.4379144 52:0.28797701 53:0.3172425 54:0.34515914 55:0.44279656 56:0.36028731 57:0.38007188 58:0.42054334 59:0.46225223 60:0.64626539 61:0.57439113 62:0.3708818 63:0.81044781 64:0.41743714 65:0.5670225 66:0.54126161 67:0.63171458 68:0.64775336 69:0.52452779 70:0.46232966 71:0.84956336 72:0.52365494 73:0.50687659 74:0.41373113 75:0.3892934 
1.024317723151246 0 0 0 0 0 0 0 0 0 0 0 0.0807556352892624 0 0 0 0.1757047021981069 0 0 0 0 0 0 0 0.06380868944760876 2.911305178036113 0 0 1:0.65766925 2:0.72404176 3:0.56892997 4:0.40631762 5:0.18625286 6:0.52488941 7:0.69565886 8:0.38573405 9:0.62029564 10:0.516047 11:0.66684592 12:0.6241715 13:0.92926824 14:0.41450664 15:0.74999619 16:0.57892734 17:0.51589221 18:0.27604067 19:0.70215666 20:0.66948879 21:0.53922653 22:0.40747398 23:0.7678442 24:0.44057339 25:0.82145292 26:0.56043446 27:0.30634531 28:0.5150407 29:0.46553701 30:0.13766924 31:0.449036 32:0.30669597 33:0.60142994 34:0.13914301 35:0.28957883 36:0.62001091 37:0.4957661 38:0.50505644 39:0.4194763 40:0.81281656 41:0.56778282 42:0.78305668 43:0.46194807 44:0.2544992 45:0.60159296 46:0.54506814 47:0.46266818 48:0.88269871 49:0.40501767 50:0.34873286 51:0.55385643 52:0.34295896 53:0.50486934 54:0.46947023 55:0.59483343 56:0.54795742 57:0.32776743 58:0.35628924 59:0.18921281 60:0.49977562 61:0.63939726 62:0.50698841 63:0.39849862 64:0.62798393 65:0.74592596 66:0.53373468 67:0.64245963 68:0.7238555 69:0.52890331 70:0.49116001 71:0.8057254 72:0.61083162 73:0.55873144 74:0.40575051 75:0.37577495 
0 0 0 0 0 0 0 0 0 0 0 0 0 0 0 0 0 0 0 0 0 0 0.9374471725156635 0 0 0 0 0 1:0.56122297 2:0.42771348 3:0.45707679 4:0.5771265 5:0.55724972 6:0.2169356 7:0.51375097 8:0.36913016 9:0.39838296 10:0.42168736 11:0.48902097 12:0.6559667 13:0.67745227 14:0.5203951 15:0.12564644 16:0.85168135 17:0.50207233 18:0.35039261 19:0.63621873 20:0.59589827 21:0.55784166 22:0.51521331 23:0.44370487 24:0.40675342 25:0.53844678 26:0.39311719 27:0.38167796 28:0.58947754 29:0.38062358 30:0.38741443 31:0.59139574 32:0.64120018 33:0.44614658 34:0.36655998 35:0.28952953 36:0.49107289 37:0.58262664 38:0.5303967 39:0.26149422 40:0.72487283 41:0.45112184 42:0.74745727 43:0.40316701 44:0.50560969 45:0.30702499 46:0.61672455 47:0.39294848 48:0.47294983 49:0.53446877 50:0.5145371 51:0.6111027 52:0.29843646 53:0.39872923 54:0.39701647 55:0.55936879 56:0.38721582 57:0.33439717 58:0.44083512 59:0.48676497 60:0.73631859 61:0.40831995 62:0.51701492 63:0.80852383 64:0.49204889 65:0.51799124 66:0.57248408 67:0.67378873 68:0.71024293 69:0.51776993 70:0.45882401 71:0.92295676 72:0.66736376 73:0.47202864 74:0.40813622 75:0.36242107 
0 0 0 0 0 0 0 0 0 0 0 0 0 0 0 0 0 0 0 0 0 0 0 0 0 0 0.4643858133807761 0 1:0.61942279 2:0.71223408 3:0.34237912 4:0.57316256 5:0.65190113 6:0.47305331 7:0.7805686 8:0.4142276 9:0.35972238 10:0.4658995 11:0.58774769 12:0.67332256 13:0.58257776 14:0.27204904 15:0.86283028 16:0.31917873 17:0.26987574 18:0.5310505 19:0.73292208 20:0.70160031 21:0.4202747 22:0.52867854 23:0.48820439 24:0.37673339 25:0.40536129 26:0.54728955 27:0.3328605 28:0.22965021 29:0.31620413 30:0.52037275 31:0.29355469 32:0.52404678 33:0.34822932 34:0.58244193 35:0.49203104 36:0.48609519 37:0.8911199 38:0.55512345 39:0.35594258 40:0.46447083 41:0.62786132 42:0.53125745 43:0.52532107 44:0.43484786 45:0.051576838 46:0.61247492 47:0.56836593 48:0.59568644 49:0.53090692 50:0.52598292 51:0.49863455 52:0.35677329 53:0.48235977 54:0.37073222 55:0.41505194 56:0.54612219 57:0.21200421 58:0.68384969 59:0.10619745 60:0.63052738 61:0.51954478 62:0.59542668 63:0.45969197 64:0.37063617 65:0.36423612 66:0.3475028 67:0.77618808 68:0.56938839 69:0.36130622 70:0.47208977 71:0.85745758 72:0.80926847 73:0.31849453 74:0.55130911 75:0.40874928 
0 0.4703533484621881 0 0 0 0 0 0 0 0 0 0 0 0 0 0 0 0 0 0 0 0 0 0 0 0 0 0 1:0.56932998 2:0.43468046 3:0.37435865 4:0.42540252 5:0.4458133 6:0.69796461 7:0.60742426 8:0.37297457 9:0.71657431 10:0.51095593 11:0.70338577 12:0.56193048 13:0.28512418 14:0.43048766 15:0.38155234 16:0.53112042 17:0.36104396 18:0.63640457 19:0.43742588 20:0.54632491 21:0.32851917 22:0.55973715 23:0.61893994 24:0.4356437 25:0.6228134 26:0.24071518 27:0.33519334 28:0.36255637 29:0.24662976 30:0.40762186 31:0.37057611 32:0.59828031 33:0.60457569 34:0.62174469 35:0.30939448 36:0.52743804 37:0.65715826 38:0.58487827 39:0.34371915 40:0.33895665 41:0.36935055 42:0.5590421 43:0.61033213 44:0.46995986 45:0.29030207 46:0.61431146 47:0.65916491 48:0.46268511 49:0.48589894 50:0.47631222 51:0.62808126 52:0.25732967 53:0.49136123 54:0.48967311 55:0.52135456 56:0.33700961 57:0.3469373 58:0.52002054 59:0.43490586 60:0.77437449 61:0.41294354 62:0.44795647 63:0.62959647 64:0.40394258 65:0.3884013 66:0.64172804 67:0.66349018 68:0.60682064 69:0.46486372 70:0.47080985 71:0.85526532 72:0.7779814 73:0.48772511 74:0.46013892 75:0.39060736 
0 0 0 0 0 0 0 0 0 0 0 0 0 0 0.8097750630120409 0 0 0 0 0 0 0 0 0 0 0 0 0 1:0.50999242 2:0.35816398 3:0.65686011 4:0.60671061 5:0.29718265 6:0.39274091 7:0.66106063 8:0.41671568 9:0.44782743 10:0.46041366 11:0.22410934 12:0.83470303 13:0.4279252 14:0.42166328 15:0.36137998 16:0.33564842 17:0.31661507 18:0.56573343 19:0.40795839 20:0.41773796 21:0.61889678 22:0.65914786 23:0.44649506 24:0.55979621 25:0.60080868 26:0.30909431 27:0.41617894 28:0.29103297 29:0.4079743 30:0.27337167 31:0.58886647 32:0.44334939 33:0.53417659 34:0.3781628 35:0.25798607 36:0.64655548 37:0.54352856 38:0.56704259 39:0.095101826 40:0.44773817 41:0.43437791 42:0.65281647 43:0.67250437 44:0.42637807 45:0.34772199 46:0.67082256 47:0.59462059 48:0.60092193 49:0.42239773 50:0.5276069 51:0.69481462 52:0.35560411 53:0.42528707 54:0.50440836 55:0.51604968 56:0.48665026 57:0.41722292 58:0.41353306 59:0.43580383 60:0.67760462 61:0.42037246 62:0.34626499 63:0.75749123 64:0.37566894 65:0.469769 66:0.59348381 67:0.59982753 68:0.58364439 69:0.55430287 70:0.50298667 71:0.85237348 72:0.59910583 73:0.47133937 74:0.32831711 75:0.36273223 
0.2369285339799641 0 0 0 0 0 0.4585699129538736 0 0.151058082097204 0 0 0 0 0 0 0 0 0 0 0 0 0 0 0 0.6809689838075478 0 0.5155746743391137 0 1:0.54345459 2:0.67667097 3:0.62603039 4:0.56329238 5:0.1442226 6:0.41636422 7:0.63593972 8:0.5055607 9:0.5304271 10:0.2334622 11:0.68182755 12:0.59432483 13:0.73787606 14:0.65189028 15:0.39422122 16:0.46783799 17:0.36957926 18:0.38488901 19:0.42281425 20:0.4925122 21:0.45895466 22:0.64964408 23:0.67435205 24:0.47460392 25:0.51787895 26:0.3334811 27:0.26283205 28:0.56710714 29:0.40997735 30:0.17092143 31:0.43442482 32:0.48504755 33:0.47036883 34:0.040287253 35:0.32702544 36:0.64493376 37:0.80689943 38:0.55656368 39:0.34010017 40:0.61160362 41:0.66622949 42:0.79734349 43:0.49711072 44:0.27615589 45:0.5214386 46:0.76567608 47:0.46997398 48:0.67134094 49:0.47967383 50:0.5059433 51:0.61346024 52:0.33242181 53:0.4214851 54:0.45640501 55:0.60160398 56:0.57885867 57:0.30148667 58:0.41622525 59:0.4401986 60:0.61809522 61:0.5598051 62:0.61788505 63:0.53112501 64:0.59677613 65:0.6822108 66:0.53097326 67:0.77239335 68:0.77574617 69:0.6035915 70:0.47393116 71:0.92158151 72:0.57983345 73:0.52972388 74:0.42363551 75:0.41310585 
0 0 0 0 0 0 0 0 0 0 0.883803341021288 0 0 0 0 0 0 0 0 0 0 0 0 0 0 0 0 0 1:0.43527654 2:0.69234115 3:0.51534927 4:0.60515743 5:0.58217353 6:0.32847515 7:0.6862191 8:0.22408232 9:0.48899028 10:0.41303265 11:0.71568722 12:0.54598635 13:0.45832112 14:0.39298496 15:0.44404164 16:0.49205345 17:0.43512291 18:0.15948901 19:0.58049524 20:0.60164595 21:0.63446039 22:0.50751108 23:0.23908612 24:0.48677927 25:0.38441873 26:0.30782056 27:0.58201122 28:0.4707647 29:0.47027183 30:0.49704668 31:0.48075974 32:0.47562113 33:0.26852977 34:0.39247093 35:0.47096607 36:0.44104376 37:0.69437891 38:0.56364763 39:0.28079519 40:0.59790796 41:0.46190062 42:0.68344307 43:0.45445174 44:0.52753294 45:0.49093035 46:0.63852412 47:0.55864882 48:0.43092585 49:0.65794063 50:0.55997962 51:0.49899957 52:0.20888865 53:0.50196844 54:0.36001882 55:0.46740818 56:0.34001127 57:0.17220494 58:0.48800024 59:0.38549891 60:0.67137802 61:0.43443379 62:0.66119832 63:0.73853743 64:0.50784761 65:0.36412194 66:0.55783951 67:0.71510851 68:0.58244652 69:0.46934238 70:0.42453113 71:0.95013112 72:0.64673197 73:0.44293597 74:0.43230626 75:0.37569284 
0 0 1.387954013649384 0 0 0 0 0 0 0 0 0 0 0 0 0 0 0 0 0 0 0 0 0 0 0 0 0 1:0.37269258 2:0.38559252 3:0.50510126 4:0.53351277 5:0.76506907 6:0.47789219 7:0.78240418 8:0.40243849 9:0.57478845 10:0.6659584 11:0.53552651 12:0.63570744 13:0.49179882 14:0.60322893 15:0.52094102 16:0.53327888 17:0.36487567 18:0.35219201 19:0.59644842 20:0.65684152 21:0.44930172 22:0.51386052 23:0.49655518 24:0.41960168 25:0.37710488 26:0.4470194 27:0.2949616 28:0.34744677 29:0.3579469 30:0.43344223 31:0.57228655 32:0.5396288 33:0.32380518 34:0.36407956 35:0.51742929 36:0.43331686 37:0.98380721 38:0.50369078 39:0.32729113 40:0.57820433 41:0.54625511 42:0.51592445 43:0.65628672 44:0.31120691 45:0.19881894 46:0.69114202 47:0.48007032 48:0.48329183 49:0.43380526 50:0.51869869 51:0.50221729 52:0.377312 53:0.29101452 54:0.3919659 55:0.38936517 56:0.38989201 57:0.35315096 58:0.57532185 59:0.19050883 60:0.65965992 61:0.52032667 62:0.56499827 63:0.65042049 64:0.60064036 65:0.39128101 66:0.45875725 67:0.67661583 68:0.63529646 69:0.40064994 70:0.48901111 71:0.90300322 72:0.77553165 73:0.32297146 74:0.5276562 75:0.36679792 
0 0 0 0.2280039523017202 0 0 0 0 0 0 0 0 0 0 0 0 0 0 0 0 0 0 0 0 0 0 0 0 1:0.46262062 2:0.51284832 3:0.53574353 4:0.52791685 5:0.73398685 6:0.45676607 7:0.66909146 8:0.41104919 9:0.62291557 10:0.56007963 11:0.54260308 12:0.61872053 13:0.39280093 14:0.54059798 15:0.36819032 16:0.38279885 17:0.52497238 18:0.51753879 19:0.6141237 20:0.44098079 21:0.43206117 22:0.55045497 23:0.53787035 24:0.56624871 25:0.55491698 26:0.1526264 27:0.55470979 28:0.48143896 29:0.33220881 30:0.39669961 31:0.5606395 32:0.38775849 33:0.46038225 34:0.37273455 35:0.32330519 36:0.42659149 37:0.72648096 38:0.53279781 39:0.30449337 40:0.49072525 41:0.43099689 42:0.5170247 43:0.61920762 44:0.44290397 45:0.43365183 46:0.60423523 47:0.58912963 48:0.45418122 49:0.47262597 50:0.43588412 51:0.51123929 52:0.32758966 53:0.47903258 54:0.6224159 55:0.46049681 56:0.23896895 57:0.19992115 58:0.58994949 59:0.42032772 60:0.68970889 61:0.54866505 62:0.46862975 63:0.65721422 64:0.63490856 65:0.36474857 66:0.70084202 67:0.66788828 68:0.58923876 69:0.50875258 70:0.42750904 71:0.93125939 72:0.60646862 73:0.47350237 74:0.43669927 75:0.36591816 
0 0 0 0 0 0.5765123717870502 0.1945678547188237 0 0 0 0 0 0 0 0 0 0 0 0 0 0 0 0 0 0 0 0 0.4702371726164592 1:0.68773162 2:0.38378081 3:0.49478966 4:0.29691052 5:0.64369535 6:0.63453388 7:0.72564811 8:0.30672449 9:0.74021977 10:0.51454145 11:0.66235751 12:0.42392066 13:0.86436415 14:0.34940514 15:0.97685039 16:0.66825336 17:0.55407476 18:0.53254563 19:0.83993477 20:0.87095952 21:0.38258237 22:0.439549 23:0.59095186 24:0.45111156 25:0.54352915 26:0.79542559 27:0.28251958 28:0.39394084 29:0.36098775 30:0.38958138 31:0.42067733 32:0.5141381 33:0.38598123 34:0.30789977 35:0.55666912 36:0.40885946 37:0.73521721 38:0.3809078 39:0.67639405 40:0.56363994 41:0.39238411 42:0.46090838 43:0.72512925 44:0.36076406 45:0.27182904 46:0.54526156 47:0.46116784 48:0.43700072 49:0.36258328 50:0.42380333 51:0.46388027 52:0.20946759 53:0.41141531 54:0.39003548 55:0.31866783 56:0.36852083 57:0.51882184 58:0.52877861 59:0.19247662 60:0.60587287 61:0.56916815 62:0.34774324 63:0.72144401 64:0.53857231 65:0.50179577 66:0.39016581 67:0.68293798 68:0.6408866 69:0.29101434 70:0.46474671 71:0.79593575 72:0.65822983 73:0.42997959 74:0.47454596 75:0.43227157 
0 0 0 0 0 0 0.04895146291477104 0 0 0 0 0 0 0 0 0 0 0 0 0 0 0 0 0 0 0 0 0 1:0.39953968 2:0.2385768 3:0.46306202 4:0.43128151 5:0.37575921 6:0.22073509 7:0.52580613 8:0.65094823 9:0.4534317 10:0.74240595 11:0.45579958 12:0.72115028 13:0.47212258 14:0.58954018 15:0.68863088 16:0.64600998 17:0.63700718 18:0.34058931 19:0.62374967 20:0.38711858 21:0.44091561 22:0.70914418 23:0.51996535 24:0.43539059 25:0.64945763 26:0.31932402 27:0.43170539 28:0.40429124 29:0.32858616 30:0.37458342 31:0.70820171 32:0.42077163 33:0.34234729 34:0.35263878 35:0.40167829 36:0.47252122 37:0.59165615 38:0.46499887 39:0.1847911 40:0.57398379 41:0.58575904 42:0.59134549 43:0.56413519 44:0.2364051 45:0.50062644 46:0.61070269 47:0.47338134 48:0.59369355 49:0.46508443 50:0.35075024 51:0.4696365 52:0.36085293 53:0.50309008 54:0.61102676 55:0.52900141 56:0.28193346 57:0.26914713 58:0.57189202 59:0.50772411 60:0.65671307 61:0.54415894 62:0.53290153 63:0.62295711 64:0.44158834 65:0.47209373 66:0.54491085 67:0.69080293 68:0.72111344 69:0.55820465 70:0.4965775 71:0.91541165 72:0.54773593 73:0.52055395 74:0.42175847 75:0.40706465 
0 0 0 0 0 0 0.9964864228168285 0 0 0.1464262779726659 1.316672198994883 1.401466594850667 0.9174058435689495 0 0 0.5160656730205834 0 0 0 0 0 0 0.8705548396254026 1.751347274715046 0 0.3944744299795865 0 0 1:0.61864907 2:0.83375174 3:0.40901834 4:0.18458541 5:0.46782297 6:0.35643277 7:0.60837084 8:0.64927 9:0.57877743 10:0.34092766 11:0.53811318 12:0.71558738 13:0.75690961 14:0.51919913 15:0.2998102 16:0.51872933 17:0.56100911 18:0.44468626 19:0.8224532 20:0.54919285 21:0.51006579 22:0.72021818 23:0.62331837 24:0.45834088 25:0.69210792 26:0.22229274 27:0.29365289 28:0.62277472 29:0.41011024 30:0.37199873 31:0.38458785 32:0.35104224 33:0.56261927 34:0.28974941 35:0.37151241 36:0.66800028 37:0.47427306 38:0.6155858 39:0.37276742 40:0.66843587 41:0.64616042 42:0.6813153 43:0.51198113 44:0.26359046 45:0.67964637 46:0.59431207 47:0.56276315 48:0.69774455 49:0.50022185 50:0.31508413 51:0.58732736 52:0.36938593 53:0.52601874 54:0.38307664 55:0.57498538 56:0.44083744 57:0.34350756 58:0.41739675 59:0.40016472 60:0.61142802 61:0.53752089 62:0.54251593 63:0.57500333 64:0.45881444 65:0.67345136 66:0.62111342 67:0.65200233 68:0.68499613 69:0.55762959 70:0.52203047 71:0.74767447 72:0.63382494 73:0.51616317 74:0.43177268 75:0.30756831 
0 0 0.341335323650334 0 0 0 0 0 0 0 0 0 0 0 0 0 0 0 0 0 0 0 0 0 0 0 0 0 1:0.49861988 2:0.45901343 3:0.53065705 4:0.45859236 5:0.5143885 6:0.36475515 7:0.69166708 8:0.36795065 9:0.42104077 10:0.55640244 11:0.34247592 12:0.77315181 13:0.61413097 14:0.57666373 15:0.63980955 16:0.61492288 17:0.51976609 18:0.21553698 19:0.54943109 20:0.6664266 21:0.3614901 22:0.47355679 23:0.60480064 24:0.42843252 25:0.60185975 26:0.47761732 27:0.26549846 28:0.37430745 29:0.32192227 30:0.50423157 31:0.62081999 32:0.46809015 33:0.35725653 34:0.24274392 35:0.43586925 36:0.47509196 37:0.77733308 38:0.45792651 39:0.29666272 40:0.76229233 41:0.6215139 42:0.56799793 43:0.65893668 44:0.4415105 45:0.26415619 46:0.74102163 47:0.36216941 48:0.67898262 49:0.44618824 50:0.44907016 51:0.55220801 52:0.40707952 53:0.3394165 54:0.42297336 55:0.40046042 56:0.4784351 57:0.34546068 58:0.52675903 59:0.21081643 60:0.62351459 61:0.56044507 62:0.57504773 63:0.61062837 64:0.52106225 65:0.57440954 66:0.40113601 67:0.72137082 68:0.7135942 69:0.42304325 70:0.53357881 71:0.87477076 72:0.71148026 73:0.35999385 74:0.43550828 75:0.33366388 
0 0 0 0 0 0 0 0 0 0 0 0 0 0 0.5187625230509887 0 0 0 0 0 0 0 0 0 0 0 0 0 1:0.44796181 2:0.45767432 3:0.58619303 4:0.44693309 5:0.19197921 6:0.34890825 7:0.54092997 8:0.32843992 9:0.38612634 10:0.4671734 11:0.44830501 12:0.5463714 13:0.50890791 14:0.55302024 15:0.82342225 16:0.054868262 17:0.658454 18:0.26798612 19:0.37577868 20:0.47101775 21:0.30704349 22:0.67237186 23:0.49018392 24:0.47491583 25:0.42181823 26:0.19990917 27:0.46929613 28:0.41804221 29:0.39972743 30:0.58762115 31:0.63496089 32:0.3932682 33:0.43795821 34:0.42293823 35:0.40358207 36:0.49738804 37:0.66434199 38:0.40354231 39:0.32248214 40:0.48861167 41:0.63880467 42:0.67485005 43:0.50329244 44:0.29996198 45:0.46529615 46:0.65453869 47:0.519265 48:0.56554466 49:0.59163463 50:0.43774462 51:0.4507015 52:0.33381188 53:0.52186477 54:0.69242036 55:0.40605596 56:0.4346889 57:0.31906825 58:0.59093308 59:0.51250464 60:0.71395719 61:0.60084558 62:0.66907698 63:0.53559858 64:0.52124745 65:0.53974646 66:0.51665461 67:0.70175642 68:0.72383654 69:0.55115956 70:0.50020015 71:0.92434049 72:0.55440259 73:0.51648515 74:0.35038814 75:0.39134818 
0 1.044804931615833 0.02296968533593504 0 0 0 0 0.1840245596574443 4.241889391110527 0 0 0.07869606918641384 0 0.8598378272224241 0 0 0 0 0 0.2053631322709487 1.168183670306797 0 0 0.5089336543321528 0 0 0 0 1:0.46918923 2:0.83188373 3:0.55822682 4:0.56870633 5:0.64984596 6:0.49084345 7:0.55028337 8:0.29395381 9:0.4820531 10:0.54534441 11:0.67617172 12:0.5464381 13:0.65977979 14:0.63306981 15:0.4815841 16:0.77118093 17:0.65250969 18:0.43285424 19:0.80844474 20:0.47689906 21:0.46175197 22:0.40377501 23:0.72878939 24:0.35095417 25:0.57438642 26:0.38216394 27:0.25705668 28:0.75399983 29:0.50916612 30:0.2291698 31:0.69897163 32:0.25924751 33:0.53491253 34:0.11191521 35:0.24913058 36:0.43752855 37:0.52849877 38:0.61024511 39:0.29068977 40:0.74186432 41:0.52916282 42:0.75330621 43:0.57923162 44:0.30279952 45:0.70914352 46:0.56506991 47:0.30978537 48:0.68946272 49:0.38160288 50:0.39282379 51:0.48550734 52:0.38576338 53:0.4413493 54:0.37637216 55:0.6453377 56:0.41846156 57:0.33434036 58:0.34439483 59:0.40200076 60:0.53040838 61:0.5707286 62:0.53126472 63:0.44174019 64:0.66629928 65:0.68505162 66:0.68695205 67:0.72876078 68:0.66859257 69:0.60453933 70:0.50968367 71:0.89242738 72:0.54565239 73:0.50976986 74:0.35766661 75:0.28356045 
0 0.2516420847485725 0 0 0 0 0 0 0 0 0 0 0 0 0 1.369552739299188 0 0 0 0 0 0 0 0 0 0 0 0 1:0.49868247 2:0.49636903 3:0.39229247 4:0.35095236 5:0.47136098 6:0.39525568 7:0.50797558 8:0.46472284 9:0.66041601 10:0.45369393 11:0.42495105 12:0.61528957 13:0.67366731 14:0.50536579 15:0.56189305 16:0.67930621 17:0.60018927 18:0.39210275 19:0.71040833 20:0.44723749 21:0.24168414 22:0.52874047 23:0.58278978 24:0.40200099 25:0.5032987 26:0.34589848 27:0.3744311 28:0.55964339 29:0.46507028 30:0.2406527 31:0.82732135 32:0.4338381 33:0.49454603 34:0.40925068 35:0.26077706 36:0.46394658 37:0.80493128 38:0.50692242 39:0.37296641 40:0.63693035 41:0.58716583 42:0.68225563 43:0.4705022 44:0.29902154 45:0.47681552 46:0.47178206 47:0.37609708 48:0.39973485 49:0.39163712 50:0.49176359 51:0.42896616 52:0.22701885 53:0.50917864 54:0.52649301 55:0.54254806 56:0.30615503 57:0.27556801 58:0.45613784 59:0.54208523 60:0.69985491 61:0.51254791 62:0.39796552 63:0.55205482 64:0.56600559 65:0.48558673 66:0.68653959 67:0.69831723 68:0.67791486 69:0.56576008 70:0.43343875 71:0.90792578 72:0.64257991 73:0.52096772 74:0.34910563 75:0.33776554 
0 0 1.00219411800355 0 0 0 0 0 0 0 0 0 0 0 0 0 0 0 0 0.3307765836074668 0 0 0 0 0 0 0 0 1:0.51311719 2:0.72836703 3:0.75706518 4:0.79195064 5:0.70518059 6:0.41163057 7:0.79528439 8:0.34007844 9:0.68672299 10:0.48050338 11:0.68247962 12:0.54810774 13:0.41593307 14:0.56494546 15:0.42077899 16:0.32329321 17:0.39660957 18:0.38017499 19:0.26904362 20:0.53380418 21:0.46408364 22:0.54988146 23:0.34769288 24:0.56872064 25:0.19968615 26:0.18102594 27:0.58976525 28:0.63646376 29:0.46156844 30:0.56476885 31:0.44964117 32:0.6948359 33:0.51678145 34:0.42927006 35:0.43373042 36:0.41324604 37:0.77495629 38:0.61662722 39:0.24355242 40:0.51456356 41:0.42151162 42:0.65972757 43:0.53988147 44:0.48940885 45:0.50979543 46:0.65373302 47:0.57840335 48:0.33409885 49:0.65855992 50:0.53123981 51:0.59864676 52:0.25535929 53:0.3868497 54:0.29022101 55:0.47866079 56:0.32195181 57:0.29422709 58:0.47536683 59:0.30823088 60:0.70480847 61:0.45255139 62:0.5826323 63:0.78215265 64:0.5469141 65:0.43598276 66:0.53527313 67:0.61205471 68:0.62117481 69:0.45370197 70:0.47431183 71:0.95074159 72:0.69818264 73:0.42509553 74:0.44993031 75:0.33668235 
0 0 0 0 0 0 0 0 0 0 0 0 0 0 0 0 0 0 0 0 0 0 0 0 0 0 0.6649865367377537 0 1:0.53369701 2:0.43566188 3:0.37929061 4:0.34466827 5:0.72426736 6:0.5363003 7:0.54083216 8:0.41432476 9:0.59896421 10:0.30150527 11:0.46993613 12:0.62937111 13:0.49231556 14:0.48974136 15:0.60160273 16:0.48772788 17:0.48043421 18:0.50298065 19:0.67894739 20:0.54984522 21:0.56477737 22:0.51445889 23:0.41916493 24:0.57864594 25:0.28311414 26:0.39964825 27:0.34939104 28:0.56535429 29:0.34383103 30:0.51824313 31:0.59840512 32:0.54933512 33:0.4597955 34:0.23581044 35:0.403889 36:0.57804191 37:0.60871851 38:0.49962237 39:0.27245107 40:0.45536202 41:0.58818984 42:0.69137269 43:0.56432486 44:0.2784884 45:0.19593464 46:0.58328909 47:0.34828851 48:0.5534398 49:0.52197963 50:0.58115399 51:0.67381644 52:0.34117052 53:0.36752003 54:0.54995579 55:0.35771662 56:0.52336383 57:0.42530808 58:0.54259276 59:0.2290837 60:0.68679935 61:0.47777402 62:0.62191659 63:0.6365788 64:0.4790701 65:0.45746532 66:0.39070404 67:0.75099486 68:0.63576663 69:0.460733 70:0.44281167 71:0.93323493 72:0.65783888 73:0.44711149 74:0.51090956 75:0.4118968 
0 0 0.237952412521333 0 0 0 0 0 0 1.07182077530731 0 0 0 0 0 0.6104271052954759 0 0.09889818783156816 0 0 0.5415979364748271 0 0 0 0 0 0 0 1:0.62012202 2:0.48351812 3:0.53796893 4:0.35027716 5:0.6869247 6:0.35428026 7:0.51447105 8:0.13626009 9:0.61684602 10:0.34842345 11:0.52824563 12:0.62425286 13:0.20816505 14:0.51986271 15:0.66224921 16:0.61841106 17:0.54759032 18:0.62952024 19:0.59657556 20:0.2933411 21:0.063841105 22:0.34289506 23:0.76082408 24:0.65823144 25:0.40193236 26:0.3795746 27:0.65118068 28:0.42272347 29:0.50062472 30:0.41728148 31:0.37369061 32:0.43820423 33:0.60061663 34:0.28572199 35:0.63804001 36:0.57763022 37:0.43500999 38:0.57753515 39:0.26823655 40:0.4461177 41:0.32970166 42:0.61178911 43:0.49068365 44:0.35589442 45:0.43501034 46:0.42316729 47:0.45704791 48:0.34499156 49:0.40989 50:0.42641816 51:0.43337959 52:0.57744533 53:0.50878173 54:0.41692719 55:0.51407236 56:0.45160925 57:0.41927353 58:0.32559147 59:0.48686928 60:0.6687299 61:0.51665467 62:0.43309528 63:0.53533417 64:0.42281067 65:0.54472047 66:0.56294477 67:0.54240358 68:0.70868236 69:0.41708827 70:0.46506318 71:0.82428157 72:0.6033929 73:0.54255617 74:0.40680838 75:0.40004006 
0 0 0 0 0 0 0 0 0 0 0 0 0 0 0 0 0 0.1926680089241797 0 0 0 0 0 0 0 0 0 0.9135073694248425 1:0.45710477 2:0.6518876 3:0.53104401 4:0.34624383 5:0.55758941 6:0.56225097 7:0.59254616 8:0.58837658 9:0.74448794 10:0.37705791 11:0.69924831 12:0.65077317 13:0.64116549 14:0.4709934 15:0.57154876 16:0.50312972 17:0.23073022 18:0.17123875 19:0.62431276 20:0.76386309 21:0.58640784 22:0.66616839 23:0.45059985 24:0.58030641 25:0.39101252 26:0.55065197 27:0.42023224 28:0.47459841 29:0.29305148 30:0.56014824 31:0.30147278 32:0.52649707 33:0.29708952 34:0.48712569 35:0.37136009 36:0.92545819 37:0.57624978 38:0.4530656 39:0.50469476 40:0.52786517 41:0.49557054 42:0.61027163 43:0.55146271 44:0.47630584 45:0.49001428 46:0.58296883 47:0.51277882 48:0.53092068 49:0.57041931 50:0.35613626 51:0.63275981 52:0.25293824 53:0.43424165 54:0.38710532 55:0.53630286 56:0.23842816 57:0.23186669 58:0.43719813 59:0.35454786 60:0.57724226 61:0.57395315 62:0.50656438 63:0.70228755 64:0.37158394 65:0.42277998 66:0.34835306 67:0.75987548 68:0.50667983 69:0.29725727 70:0.41232404 71:0.76768827 72:0.67329443 73:0.32884884 74:0.51648337 75:0.38201702 
0.1892545451991188 0.9333080717752762 1.311953179671038 0 2.829534492835534 0 1.768898548917912 1.658811622085543 0 0 0.6942908407857497 0.5335914330834807 0 0 1.087866746730484 0.8675286563833591 0.8644397822003611 0 2.720203189035237 1.062417457297065 4.173211056120075 0.8950810508762881 1.374703424613253 0.593339486177667 0 1.244254627192496 0 1.719356152885006 1:0.48506409 2:0.64438879 3:0.49420664 4:0.20534395 5:0.44731966 6:0.4940134 7:0.28113273 8:0.15418692 9:0.50509351 10:0.16216207 11:0.69816536 12:0.51204175 13:0.46041721 14:0.22661635 15:0.73509073 16:0.72290027 17:0.44134328 18:0.47634813 19:0.43471354 20:0.47822347 21:0.13314928 22:0.13485838 23:0.71642125 24:0.57920855 25:0.44031855 26:0.24948424 27:0.50891614 28:0.36723414 29:0.40991023 30:0.39006001 31:0.45011121 32:0.34622025 33:0.62789911 34:0.067926385 35:0.38608542 36:0.27294061 37:0.56284022 38:0.69197178 39:0.21232279 40:0.72033364 41:0.49423662 42:0.50969982 43:0.59578264 44:0.11484299 45:0.47255209 46:0.51466757 47:0.42484713 48:0.31432992 49:0.36905009 50:0.39664072 51:0.4221617 52:0.50558352 53:0.76514852 54:0.44251829 55:0.43640924 56:0.46004564 57:0.40490946 58:0.4240379 59:0.5061515 60:0.59298474 61:0.58773059 62:0.43021914 63:0.39742669 64:0.40088725 65:0.71251005 66:0.5545094 67:0.59637904 68:0.77255589 69:0.37017062 70:0.50923353 71:0.77552408 72:0.6306352 73:0.67565942 74:0.35279825 75:0.41285747 
3.854350201395964 1.402829377512333 4.708224819652565 0.2906161199655321 1.851850474883127 1.482023174257826 1.621197869579975 1.656385329345225 0 0 1.609879279821786 0 0.1487697867377974 0.5610259876324085 0 1.381970709974958 1.233849017279477 0 2.603415085436272 1.791347102016834 2.873212477646413 0.07212588360760699 1.382881816503708 0.3542327214691475 2.232757966411388 2.294095482662253 0 1.340311868103196 1:0.44806579 2:0.56301904 3:0.54388636 4:0.45236945 5:0.66987777 6:0.49885339 7:0.54479468 8:0.47882178 9:0.33437663 10:0.69916719 11:0.42134815 12:0.97023183 13:0.28697616 14:0.45499024 15:0.68948841 16:0.26483995 17:0.64896804 18:0.53023398 19:0.6712628 20:0.40285257 21:0.27299264 22:0.44160646 23:0.55099249 24:0.56113547 25:0.49108601 26:0.35351351 27:0.77000886 28:0.54545432 29:0.42694607 30:0.61796254 31:0.8755846 32:0.55561554 33:0.39592591 34:0.5049516 35:0.65723509 36:0.35635459 37:0.44204351 38:0.49591386 39:0.38270739 40:0.43133804 41:0.32003659 42:0.58651048 43:0.48219106 44:0.30610955 45:0.26696801 46:0.53630334 47:0.39535609 48:0.54952484 49:0.47315484 50:0.41238767 51:0.46615285 52:0.62674743 53:0.45542619 54:0.6014353 55:0.40078497 56:0.43808126 57:0.40695131 58:0.46562213 59:0.20570886 60:0.56893754 61:0.5746296 62:0.57359648 63:0.59808719 64:0.51485407 65:0.34377646 66:0.25378147 67:0.47489259 68:0.57654566 69:0.54050499 70:0.41776538 71:0.70237213 72:0.62467217 73:0.42653835 74:0.57107794 75:0.41239822 
1.389302084218684 0 0 0 0 0 0 0 0 0 0 2.157122948452958 1.761448999983652 0 0 0 0 0 0 1.559028214992691 0 0 0 0 0 0 0 0 1:0.59522241 2:0.63447332 3:0.44219115 4:0.60391831 5:0.58470386 6:0.54128575 7:0.35344416 8:0.39490813 9:0.61113721 10:0.45208502 11:0.56289679 12:0.5419032 13:0.50603884 14:0.36563239 15:0.63910288 16:0.26973355 17:0.56999159 18:0.61351758 19:0.51653993 20:0.5842244 21:0.28757286 22:0.08656913 23:0.66664994 24:0.65772009 25:0.42715859 26:0.52390403 27:0.65974951 28:0.3930673 29:0.45000753 30:0.88269967 31:0.50409245 32:0.32334808 33:0.48641697 34:0.37698391 35:0.75793201 36:0.28079066 37:0.71522325 38:0.4438746 39:0.46050096 40:0.21992558 41:0.49103069 42:0.69291192 43:0.48470467 44:0.32538593 45:0.40839449 46:0.61777878 47:0.57343048 48:0.41634989 49:0.50143677 50:0.57745582 51:0.52784181 52:0.26946729 53:0.54881084 54:0.5715397 55:0.28551945 56:0.49608639 57:0.2801919 58:0.6527195 59:0.37931648 60:0.68764675 61:0.5248763 62:0.79371178 63:0.49822679 64:0.56180584 65:0.58282024 66:0.506648 67:0.6920386 68:0.81111741 69:0.38778296 70:0.46473369 71:0.76316637 72:0.62755239 73:0.63621318 74:0.33734086 75:0.48029581 
0 0 0 0 0 0 0 0 0 0 0 0.5774859453866317 0.01943588246954486 0 0 0 0 0 0 0 0 0 0 0.521113644966545 0 0 0 0 1:0.47923335 2:0.60749656 3:0.35876137 4:0.25930917 5:0.30926853 6:0.40416571 7:0.45924765 8:0.34650052 9:0.44435629 10:0.45629698 11:0.59211701 12:0.58818012 13:0.41276908 14:0.44159421 15:0.6863873 16:0.63755733 17:0.33949903 18:0.38839921 19:0.37381184 20:0.76790404 21:0.4647181 22:0.33556971 23:0.90351874 24:0.46767935 25:0.65257126 26:0.41163903 27:0.23341556 28:0.44916353 29:0.58577394 30:0.51042718 31:0.54399329 32:0.55806118 33:0.46484521 34:0.23631211 35:0.56620294 36:0.38735703 37:0.5490334 38:0.35040894 39:0.26219267 40:0.59986562 41:0.57960963 42:0.58573639 43:0.55270886 44:0.4322834 45:0.55761075 46:0.53521591 47:0.21064435 48:0.52808172 49:0.36100736 50:0.36836851 51:0.38653767 52:0.46018216 53:0.70819902 54:0.34028164 55:0.55477905 56:0.46114022 57:0.46270597 58:0.42178413 59:0.30841777 60:0.7630111 61:0.59238428 62:0.50661606 63:0.71312469 64:0.43920797 65:0.72844863 66:0.59777886 67:0.56008869 68:0.74357671 69:0.46175277 70:0.56853122 71:0.83866203 72:0.57159811 73:0.60934645 74:0.20882264 75:0.36346981 
0.3785631089872313 0 0 0.7183925216143732 0 0 0.6392377345310822 0 0 0 0.06086149913451228 0 0 0 0 0 1.020440238891644 0 0 0 0 0 0.6642462444060196 0 0 0 0 0 1:0.40847617 2:0.56689918 3:0.40547812 4:0.36526835 5:0.41966203 6:0.48027033 7:0.34480935 8:0.31074238 9:0.77186859 10:0.75599098 11:0.71098131 12:0.55305231 13:0.61853319 14:0.28045201 15:0.53678358 16:0.71586895 17:0.2495259 18:0.29495278 19:0.59514689 20:0.70083255 21:0.13044484 22:0.3765614 23:0.21391542 24:0.5495339 25:0.54995179 26:0.30934149 27:0.28218457 28:0.38689893 29:0.38683051 30:0.53934574 31:0.39766884 32:0.65760225 33:0.33449587 34:0.54255718 35:0.47866577 36:0.6394763 37:0.66503567 38:0.47866207 39:0.35462433 40:0.36383757 41:0.43692765 42:0.86409456 43:0.58616543 44:0.43779361 45:0.42454958 46:0.70710355 47:0.67481422 48:0.42352819 49:0.6197331 50:0.56131244 51:0.42360422 52:0.13292609 53:0.6202625 54:0.33912063 55:0.55415535 56:0.35790017 57:0.11422946 58:0.52309644 59:0.44406959 60:0.57868129 61:0.47603124 62:0.62239468 63:0.55747527 64:0.49704534 65:0.5051071 66:0.59059972 67:0.64857787 68:0.70189035 69:0.41906092 70:0.45425433 71:0.85114044 72:0.76653123 73:0.61747301 74:0.34563905 75:0.41368282 
0.0784018569040382 0 0 0 1.310436281748527 0 0 0 0 0 0 0.2581450384806449 0 0 0 0 0 0 0.2249955658026348 0 0 0 0 0 0 0 1.089959561080235 0.005828478446208716 1:0.5350787 2:0.72843248 3:0.53004664 4:0.41673917 5:0.56405127 6:0.36184382 7:0.45190892 8:0.6730296 9:0.65008056 10:0.43928215 11:0.62290144 12:0.55615598 13:0.76765299 14:0.6118533 15:0.56263465 16:0.75630254 17:0 18:0.5585165 19:0.33239463 20:0.63021553 21:0.46171689 22:0.55819446 23:0.4769116 24:0.51167393 25:0.54155046 26:0.53428495 27:0.18095896 28:0.2984024 29:0.33947459 30:0.53704304 31:0.18084459 32:0.76339334 33:0.47705415 34:0.47725341 35:0.39789623 36:0.61373562 37:0.64148462 38:0.53492659 39:0.52325481 40:0.4270497 41:0.48661619 42:0.6960299 43:0.59019917 44:0.40412906 45:0.4690544 46:0.59291267 47:0.49958789 48:0.21229662 49:0.56183767 50:0.49061245 51:0.49666148 52:0.33144185 53:0.58937407 54:0.33484045 55:0.53077066 56:0.52801996 57:0.2299978 58:0.65868294 59:0.55751783 60:0.66871828 61:0.31355864 62:0.48624867 63:0.58842278 64:0.33390495 65:0.51160967 66:0.50792533 67:0.61950916 68:0.65362376 69:0.58940476 70:0.33711645 71:0.83570498 72:0.63437295 73:0.60334361 74:0.36722332 75:0.47614068 
0 0 0 0 0 0 0 0 0 0 0 0 0 0 0.5156345200039519 0.2560811478779377 0 0 0 1.066338768985155 0 0 0.2170096501842708 0 0 0 0 0 1:0.55608582 2:0.64111912 3:0.58291388 4:0.41683635 5:0.59342444 6:0.35960224 7:0.70985544 8:0.55128872 9:0.42527309 10:0.51109773 11:0.54544669 12:0.52198917 13:0.56841743 14:0.49859348 15:0.71709549 16:0.3207933 17:0.43425924 18:0.30512345 19:0.6083681 20:0.69310838 21:0.47677866 22:0.79960203 23:0.31859899 24:0.32934374 25:0.2986232 26:0.59198505 27:0.50602823 28:0.52187049 29:0.31632146 30:0.80983728 31:0.489555 32:0.32135332 33:0.45168972 34:0.47575393 35:0.60169029 36:0.37673637 37:0.60233873 38:0.52439851 39:0.54536909 40:0.36185056 41:0.54105866 42:0.33276254 43:0.59122294 44:0.25496736 45:0.40969327 46:0.5370959 47:0.52391845 48:0.25997245 49:0.7604335 50:0.47523123 51:0.74615383 52:0.26136923 53:0.39662841 54:0.54367971 55:0.33139962 56:0.31072319 57:0.14118604 58:0.74770397 59:0.4725019 60:0.71134716 61:0.60218108 62:0.66108692 63:0.62041521 64:0.1409324 65:0.53320122 66:0.31062892 67:0.74800634 68:0.71195507 69:0.32712522 70:0.45638767 71:0.61967993 72:0.77247572 73:0.28903285 74:0.60680157 75:0.25995135 
0.08797904749808826 0 0 0 0 0 0 0 0 0 0 0 0 3.613621823192224 0 1.951369556839204 0 0 0 0 0 0 0 0 0 0 0 0.7083624210828371 1:0.40442798 2:0.7281028 3:0.38711387 4:0.51580608 5:0.50446838 6:0.41151682 7:0.63560283 8:0.5397048 9:0.78205007 10:0.60255945 11:0.43389854 12:0.5986951 13:0.52830946 14:0.41100127 15:0.49626434 16:0.067115769 17:0.43945509 18:0.54824209 19:0.60426468 20:0.72095954 21:0.48992717 22:0.47983861 23:0.33966056 24:0.73146337 25:0.20539874 26:0.51849705 27:0.50335664 28:0.68863112 29:0.54501987 30:0.50533879 31:0.69449353 32:0.52812123 33:0.28635409 34:0.33309391 35:0.67710221 36:0.28030744 37:0.67487925 38:0.56547463 39:0.37158442 40:0.65216851 41:0.39518109 42:0.59289652 43:0.47467136 44:0.40573153 45:0.48411816 46:0.61804265 47:0.54468793 48:0.43835813 49:0.38040581 50:0.5834893 51:0.47614902 52:0.2541509 53:0.62807107 54:0.36966613 55:0.3757464 56:0.38356963 57:0.36839589 58:0.56598115 59:0.15915282 60:0.56590194 61:0.62550187 62:0.52850026 63:0.66081148 64:0.54371947 65:0.40478829 66:0.43290997 67:0.60151511 68:0.67360723 69:0.41554353 70:0.4914861 71:0.81437331 72:0.60566419 73:0.50967818 74:0.37537682 75:0.37685686 
0 0 0 0 0 0 0 0 0 0 0 0 0 0 0 0 0 0 0 0 0 0 0 0 0 0 0.445230784137967 0 1:0.58253026 2:0.45513231 3:0.52069396 4:0.33250383 5:0.38011667 6:0.52877259 7:0.41483617 8:0.4444235 9:0.55745113 10:0.41918099 11:0.31860277 12:0.66995955 13:0.72414804 14:0.51242203 15:0.69090003 16:0.67087609 17:0.56569225 18:0.54747885 19:0.69814605 20:0.67376322 21:0.7134313 22:0.60337979 23:0.48204726 24:0.57123333 25:0.61056149 26:0.35814732 27:0.32089159 28:0.62469906 29:0.50323474 30:0.63164294 31:0.45144808 32:0.59547037 33:0.41158763 34:0.66747063 35:0.41038004 36:0.76669776 37:0.32307225 38:0.49541107 39:0.54235834 40:0.38062581 41:0.36471707 42:0.63531852 43:0.59603995 44:0.29221818 45:0.6622147 46:0.56280452 47:0.43340349 48:0.45405892 49:0.67524493 50:0.32559139 51:0.65098029 52:0.30212635 53:0.59342307 54:0.49506089 55:0.49167889 56:0.25253567 57:0.15613851 58:0.47589353 59:0.70601672 60:0.87992072 61:0.52910906 62:0.47614956 63:0.62505817 64:0.17409889 65:0.588009 66:0.49408144 67:0.69159973 68:0.79323167 69:0.40827754 70:0.41072506 71:0.63487679 72:0.84079295 73:0.35688826 74:0.49570808 75:0.29929098 
0 0 0 0 0.7507005397057105 0.5508998040974206 0 0 0 0 0 0 0 0 1.212547210635884 0 0 1.478887931645523 0.8168351526661018 0 0 0.6515587723727712 0 0 0 0 0 1.548895558580182 1:0.50862074 2:0.74541473 3:0.30334204 4:0.53725398 5:0.32212806 6:0.58940601 7:0.38402385 8:0.17962389 9:0.78361708 10:0.37731582 11:0.53366578 12:0.52010983 13:0.80530548 14:0.68253827 15:0.8094005 16:0.57948095 17:0.44741648 18:0.16161273 19:0.64812571 20:0.52785951 21:0.59936053 22:0.64455706 23:0.64432216 24:0.53437459 25:0.38563737 26:0.58119011 27:0.348463 28:0.55737448 29:0.48078418 30:0.30651283 31:0.67047012 32:0.45724165 33:0.43633622 34:0.35470325 35:0.21783763 36:0.50755233 37:0.51907009 38:0.43831214 39:0.32889906 40:0.52072549 41:0.62127888 42:0.81825578 43:0.45967129 44:0.36147481 45:0.47128963 46:0.3284927 47:0.54623294 48:0.64330167 49:0.35113302 50:0.33667755 51:0.65303975 52:0.24321811 53:0.50229228 54:0.63799918 55:0.49299181 56:0.44072387 57:0.47599736 58:0.28963402 59:0.50278705 60:0.60735828 61:0.45702681 62:0.47427088 63:0.64795655 64:0.4346323 65:0.43666437 66:0.55652559 67:0.73378778 68:0.69668293 69:0.48129857 70:0.48156288 71:0.84426969 72:0.50175792 73:0.50214243 74:0.40245125 75:0.51233959 
1.655214223179025 0 0 0 0.9861562022974019 0 0 0 0.5508166186455565 0 1.171797247834166 0.3843630566872369 1.059612848310537 0 0.5863668873585719 0 0 0 1.222758737383293 0.1923191641751292 1.730354566745389 0.9160443478955048 2.214894159543888 0 0.6637856232226071 0 0 0 1:0.39733636 2:0.37443444 3:0.59556967 4:0.69530028 5:0.59517068 6:0.53738058 7:0.65467304 8:0.72277558 9:0.47251275 10:0.58478397 11:0.7677452 12:0.60541326 13:0.60811061 14:0.40800735 15:0.44458416 16:0.49294859 17:0.27493367 18:0.61992538 19:0.42073667 20:0.567509 21:0.50585735 22:0.53888917 23:0.60071397 24:0.51299155 25:0.33985054 26:0.61217958 27:0.4089615 28:0.50451815 29:0.32396391 30:0.71108484 31:0.473979 32:0.60799944 33:0.56535459 34:0.5551703 35:0.58948869 36:0.39923638 37:0.52465016 38:0.30595994 39:0.84717315 40:0.69783401 41:0.43808132 42:0.42435327 43:0.602566 44:0.59325022 45:0.58071715 46:0.72278363 47:0.29674578 48:0.1779763 49:0.65851355 50:0.57869709 51:0.50964296 52:0.21356128 53:0.43273646 54:0.50348961 55:0.4451105 56:0.35628283 57:0.3556852 58:0.51726431 59:0.32506341 60:0.63640165 61:0.57493216 62:0.63991731 63:0.76534754 64:0.47145033 65:0.37414256 66:0.32071751 67:0.56116575 68:0.62935573 69:0.61400181 70:0.41373274 71:0.72031379 72:0.57933134 73:0.48556182 74:0.45758027 75:0.4465518 
0 0 0 0 0 0 0 0 0 0.5550991760191066 0 0 0 0.8778661314697889 0 2.06598573345303 1.708473668905158 0 0 0 0 1.164043922032363 0 0 0 0 0 0 1:0.12806784 2:0.27904335 3:0.12379521 4:0.32199958 5:0.54669911 6:0.38615453 7:0.31447917 8:0.56158817 9:0.42656007 10:0.5518381 11:0.44874147 12:0.44736207 13:0.41452783 14:0.52865624 15:0.68948495 16:0.52001971 17:0.30759704 18:0.45584044 19:0.54043615 20:0.63033831 21:0.46994391 22:0.44275892 23:0.69431102 24:0.44971362 25:0.42343283 26:0.50052869 27:0.41194257 28:0.50833201 29:0.37073687 30:0.57680023 31:0.58365667 32:0.65292621 33:0.39429832 34:0.6018002 35:0.35921872 36:0.62466019 37:0.33982003 38:0.43732592 39:0.58325559 40:0.68792486 41:0.51320601 42:0.67331028 43:0.62755209 44:0.39525539 45:0.43054852 46:0.33547688 47:0.32412422 48:0.33227438 49:0.4755584 50:0.36894307 51:0.59501165 52:0.14213924 53:0.46040413 54:0.67679793 55:0.5934692 56:0.37439325 57:0.33364692 58:0.41103008 59:0.38285875 60:0.5844453 61:0.57884681 62:0.47059771 63:0.43355706 64:0.35859081 65:0.37021983 66:0.46865395 67:0.64460939 68:0.61046869 69:0.51390946 70:0.41955802 71:0.74674445 72:0.64726323 73:0.45621529 74:0.43057111 75:0.40501919 
0.3889035438039137 0.03573961399536662 0 0.2241708369534979 0 0 0 0 0 0 0 0 0 0.5492441515587888 0 0 0 0 2.493232169458572 0 0 0 0.4125622886859658 0 0 0 0 0 1:0.35969689 2:0.5585978 3:0.44188297 4:0.38010639 5:0.58396828 6:0.40389729 7:0.51788384 8:0.42086822 9:0.48977104 10:0.67025357 11:0.50877094 12:0.64399868 13:0.59074962 14:0.48735377 15:0.66772848 16:0.50430518 17:0.62151861 18:0.50870675 19:0.53138161 20:0.94864547 21:0.40864488 22:0.54620355 23:0.79271358 24:0.5421828 25:0.3492969 26:0.4640319 27:0.5809204 28:0.32522479 29:0.10351321 30:0.56112218 31:0.66297269 32:0.62279671 33:0.44066399 34:0.72435647 35:0.44675606 36:0.60958177 37:0.4352034 38:0.41496265 39:0.62526113 40:0.69833124 41:0.37631917 42:0.49143404 43:0.3433148 44:0.58018446 45:0.38299316 46:0.56950969 47:0.67495704 48:0.39690965 49:0.44365793 50:0.41568074 51:0.55925333 52:0.19894762 53:0.42872211 54:0.71377975 55:0.53312558 56:0.3527959 57:0.22208813 58:0.5530684 59:0.55635911 60:0.70290047 61:0.49298573 62:0.59209538 63:0.58155954 64:0.5581724 65:0.23431675 66:0.5081535 67:0.62396961 68:0.70608276 69:0.63078773 70:0.48865017 71:0.79862303 72:0.62334019 73:0.43428144 74:0.48925978 75:0.46933371 
2.223976552058672 0 0 0 0.1085480705326056 1.57462983681426 0 0.2436551151637827 0 0 0 0 0 1.209881493922078 0 0 0 0 0 0 0 0 0.8677953885943364 0 0 0 0 0.2426676763133525 1:0.54818887 2:0.60347873 3:0.51682717 4:0.36705506 5:0.62650663 6:0.17843451 7:0.45276329 8:0.46180674 9:0.42240652 10:0.255485 11:0.74593055 12:0.61828583 13:0.8071236 14:0.56651527 15:0.42372933 16:0.59310198 17:0.40329847 18:0.20468365 19:0.74770403 20:0.82804757 21:0.69537216 22:0.56551975 23:0.48298487 24:0.41332394 25:0.35378793 26:0.70132607 27:0.496059 28:0.55762857 29:0.31353259 30:0.46135202 31:0.44490167 32:0.56432945 33:0.39558408 34:0.59128731 35:0.59579688 36:0.49079311 37:0.66463506 38:0.39068615 39:0.45265731 40:0.51711261 41:0.56466758 42:0.61166024 43:0.56225532 44:0.53282875 45:0.7517516 46:0.46736607 47:0.6253249 48:0.22019185 49:0.50831783 50:0.35233119 51:0.48250115 52:0.11910147 53:0.41788083 54:0.48121154 55:0.51579392 56:0.2061705 57:0.30207396 58:0.46221676 59:0.56953508 60:0.54783654 61:0.48716295 62:0.53943878 63:0.82600647 64:0.54625869 65:0.30831409 66:0.42078745 67:0.65064496 68:0.64683414 69:0.65957761 70:0.34273899 71:0.76391917 72:0.44212329 73:0.46681023 74:0.49835181 75:0.43929061 
0 0 0 0 0 0 0 0 0.5409867972733652 0 0 0 0 0 0 0 0 0 0 0 0 0 0 0 0 0 0 0.03980767322666337 1:0.52515739 2:0.67679507 3:0.37397724 4:0.44887567 5:0.69525284 6:0.40200287 7:0.59801537 8:0.43397152 9:0.56257641 10:0.57352692 11:0.64384681 12:0.74965042 13:0.64111698 14:0.7175011 15:0.33213425 16:0.64045268 17:0.56580794 18:0.3657259 19:0.45633179 20:0.73001188 21:0.6575582 22:0.43087938 23:0.4697549 24:0.45149741 25:0.42889515 26:0.43840355 27:0.32421762 28:0.59890395 29:0.3763378 30:0.41988623 31:0.54012382 32:0.62833685 33:0.43824217 34:0.72157437 35:0.62224221 36:0.43581849 37:0.48946726 38:0.47536212 39:0.56803954 40:0.56102151 41:0.46130458 42:0.68343592 43:0.53659642 44:0.73804468 45:0.40520403 46:0.69434774 47:0.38243762 48:0.45783225 49:0.50434411 50:0.46974573 51:0.56911433 52:0.20785794 53:0.33255634 54:0.48546284 55:0.47966671 56:0.4182553 57:0.22877048 58:0.53878605 59:0.45013964 60:0.69712585 61:0.43726003 62:0.49684921 63:0.66430241 64:0.48421317 65:0.44850516 66:0.45332471 67:0.62002009 68:0.72308141 69:0.61921823 70:0.45337051 71:0.8269034 72:0.6589902 73:0.43243703 74:0.41736618 75:0.39926761 
0 0 0 0 0 0 0 0 0 0 0 0 0 0 0 0 0 0.01261891687206608 0 0 0.1661360472329471 0.8209242605745527 0 0 0 0 0 0 1:0.45844007 2:0.36177051 3:0.32731703 4:0.54050124 5:0.69960666 6:0.36420441 7:0.61506945 8:0.41018569 9:0.35606933 10:0.54529202 11:0.25145069 12:0.81800687 13:0.34815538 14:0.42045525 15:0.80299461 16:0.34320357 17:0.38410679 18:0.59184921 19:0.48031783 20:0.71140617 21:0.49724162 22:0.63411975 23:0.83880264 24:0.5243907 25:0.40283778 26:0.56368494 27:0.52536714 28:0.58545381 29:0.4270066 30:0.64972568 31:0.42780507 32:0.55304372 33:0.54666358 34:0.31590942 35:0.64454728 36:0.28923175 37:0.49050105 38:0.57265145 39:0.47290191 40:0.5652684 41:0.48817047 42:0.52088445 43:0.36636224 44:0.35480234 45:0.53567952 46:0.65474051 47:0.34128988 48:0.43520698 49:0.66167337 50:0.30147755 51:0.55381989 52:0.30736133 53:0.40589049 54:0.53280824 55:0.31581119 56:0.52570045 57:0.22593141 58:0.73577964 59:0.41035253 60:0.9148168 61:0.55146784 62:0.51904541 63:0.52391553 64:0.29177785 65:0.41340578 66:0.37039658 67:0.68194151 68:0.61687517 69:0.46990773 70:0.35601932 71:0.70294744 72:0.74252069 73:0.26382467 74:0.54909015 75:0.29997802 
0 0 0.6352702598781073 0 0 0 0 0 0 0 0 0 0 0 0 0 0 0 0 0 0 0 0 0 0 0 0 0 1:0.60741103 2:0.62425339 3:0.22082156 4:0.30396435 5:0.61911201 6:0.77587259 7:0.49301794 8:0.38291726 9:0.4020938 10:0.39111689 11:0.3802205 12:0.74089193 13:0.71273661 14:0.58425987 15:0.48267731 16:0.54804462 17:0.3145279 18:0.35292527 19:0.57800567 20:0.70689386 21:0.70071882 22:0.64373434 23:0.47144815 24:0.35799402 25:0.33489308 26:0.55907053 27:0.43583822 28:0.75462061 29:0.18722861 30:0.39755306 31:0.5328781 32:0.44231698 33:0.51533377 34:0.39142635 35:0.40849862 36:0.47283393 37:0.60657072 38:0.45903766 39:0.58020234 40:0.61760902 41:0.52386606 42:0.58523685 43:0.62561059 44:0.35577679 45:0.47670224 46:0.46961793 47:0.55121583 48:0.40199137 49:0.55064553 50:0.32025036 51:0.56844217 52:0.14058089 53:0.48984405 54:0.60942209 55:0.65512377 56:0.43359083 57:0.34413511 58:0.49333894 59:0.39542341 60:0.58764327 61:0.43724361 62:0.62807423 63:0.62228507 64:0.53269941 65:0.40074334 66:0.51999104 67:0.66207433 68:0.60530412 69:0.62361491 70:0.37079385 71:0.91364205 72:0.55652249 73:0.42892894 74:0.48624259 75:0.50419772 
0 0 0 0 0 0 0 0 0 0 0 0 0 0 0 0 0 0 0 0 0 0 0 0 0 0 0 0.6851369438613449 1:0.386289 2:0.27528486 3:0.28000855 4:0.30782735 5:0.58068168 6:0.4234302 7:0.49764603 8:0.55024564 9:0.4775123 10:0.5105896 11:0.68742836 12:0.61061192 13:0.56342268 14:0.54852509 15:0.69727403 16:0.53588545 17:0.26093894 18:0.38115287 19:0.45895207 20:0.64635855 21:0.5040617 22:0.49101448 23:0.57405728 24:0.48961481 25:0.45855647 26:0.29828662 27:0.21570301 28:0.50069618 29:0.40261686 30:0.42651916 31:0.41885513 32:0.69853032 33:0.53486669 34:0.61582637 35:0.37777892 36:0.66696244 37:0.48600179 38:0.42628297 39:0.5997138 40:0.51893359 41:0.56891918 42:0.62892121 43:0.45975414 44:0.54974687 45:0.63591307 46:0.42775914 47:0.57761967 48:0.44834495 49:0.4684779 50:0.36766469 51:0.45746201 52:0.20643483 53:0.44728345 54:0.38055113 55:0.45167971 56:0.52581251 57:0.29363462 58:0.62545437 59:0.34200352 60:0.77697688 61:0.45861828 62:0.47853544 63:0.57569927 64:0.45579872 65:0.34285823 66:0.43755162 67:0.6749419 68:0.4245261 69:0.58542299 70:0.28230301 71:0.85353464 72:0.53012753 73:0.40432313 74:0.42002654 75:0.4098908 
0 1.171981996150706 0 1.426574799898302 0 0 0 0 0 0.199313211336662 0.7546301343656213 0 0.4796149594860213 0.5267528169059817 1.693674401065392 0.2646950202888821 0.3459150591491328 1.897677842112997 0.02417915767183811 0.8003798151063871 1.190590372547716 2.001396064219511 0 0 0.5802216845872897 1.40399180463264 0.02210856602726192 1.695808574735602 1:0.4255318 2:0.10504524 3:0.55306727 4:0.42964906 5:0.75737584 6:0.57995105 7:0.69249582 8:0.43629289 9:0.77516717 10:0.15169038 11:0.34205779 12:0.71173561 13:0.76466894 14:0.4935298 15:0.59940088 16:0.42065677 17:0.5332337 18:0.35232842 19:0.38664627 20:0.66184652 21:0.68161494 22:0.77950305 23:0.41161975 24:0.47430086 25:0.29749525 26:0.33567041 27:0.42918065 28:0.54348713 29:0.43027055 30:0.7105636 31:0.51680428 32:0.4808715 33:0.40352148 34:0.50876617 35:0.39294493 36:0.57585883 37:0.44982469 38:0.45953616 39:0.63023865 40:0.55685914 41:0.48926714 42:0.52642387 43:0.58779979 44:0.46094519 45:0.69005382 46:0.50957853 47:0.51609832 48:0.54331207 49:0.65701902 50:0.40948206 51:0.58352345 52:0.21477343 53:0.33673543 54:0.57529426 55:0.36048815 56:0.36558726 57:0.25286254 58:0.58601379 59:0.33653417 60:0.75879055 61:0.54225171 62:0.55750972 63:0.6781866 64:0.34182081 65:0.45617265 66:0.40204862 67:0.68413836 68:0.49275622 69:0.43113282 70:0.34930149 71:0.57277292 72:0.61576402 73:0.16132982 74:0.64978498 75:0.23684929 
2.839742193681417 1.802557760039294 0 0 0 0 0.3336974884705678 0 0 0 0 0.2044789469043505 1.353962668620111 0 1.869329303626885 0 0 0.6309994699242434 0.644071050475195 0 1.696513222404109 1.371366572239851 0 1.220450440782812 0 2.03248427230871 0.1336525572428214 0 1:0.62479925 2:0.40234342 3:0.53662306 4:0.54388577 5:0.66968906 6:0.42549014 7:0.49313262 8:0.11435096 9:0.42777088 10:0.52941018 11:0.31767607 12:0.77026653 13:0.59771466 14:0.55262017 15:0.25705031 16:0.49631459 17:0.73594499 18:0.63408202 19:0.61540401 20:0.49245721 21:0.0011293337 22:0.27042452 23:0.55692381 24:0.60738611 25:0.50547928 26:0.15820849 27:0.63175267 28:0.60405415 29:0.48555097 30:0.36555615 31:0.75339723 32:0.50116295 33:0.54875368 34:0.51960766 35:0.64870107 36:0.58914822 37:0.46651137 38:0.7175529 39:0.21507166 40:0.61160988 41:0.37080672 42:0.71973115 43:0.48546794 44:0.34532458 45:0.33962268 46:0.64891529 47:0.33469874 48:0.70865619 49:0.47064281 50:0.50549078 51:0.56550884 52:0.65940827 53:0.51495892 54:0.50875151 55:0.41854537 56:0.42651466 57:0.48878211 58:0.35559991 59:0.48246285 60:0.86221403 61:0.38716874 62:0.47744036 63:0.6160301 64:0.52913016 65:0.46394718 66:0.55229402 67:0.54014623 68:0.60055995 69:0.59956998 70:0.41950879 71:0.78640068 72:0.62159407 73:0.52741873 74:0.46047959 75:0.31710988 
0 0 0 0.40231425759273 0 0 0 0 0 0 0 0 0 0 0 0 0 0 0 0 0 0 0 0 0 0 0 0 1:0.64702576 2:0.64119637 3:0.27136028 4:0.22544302 5:0.59138554 6:0.545403 7:0.57253027 8:0.21416287 9:0.47444072 10:0.35705379 11:0.41699216 12:0.72452492 13:0.68306428 14:0.27848497 15:0.77097994 16:0.59556323 17:0.52406996 18:0.054251336 19:0.36728063 20:0.73437804 21:0.16663541 22:0.64678335 23:0.56529021 24:0.49665558 25:0.47318554 26:0.46315196 27:0.48370349 28:0.576011 29:0.27680206 30:0.55119699 31:0.37350971 32:0.49992064 33:0.40226066 34:0.35091648 35:0.33408412 36:0.77534926 37:0.540595 38:0.51599884 39:0.34657556 40:0.49019518 41:0.62147993 42:0.75019521 43:0.59291941 44:0.34226438 45:0.53261089 46:0.56525844 47:0.6682995 48:0.52888268 49:0.54187 50:0.34709415 51:0.60623503 52:0.18257357 53:0.55039138 54:0.56242073 55:0.61034155 56:0.44868559 57:0.14734788 58:0.34193301 59:0.54406893 60:0.68992066 61:0.49545306 62:0.48387641 63:0.57965279 64:0.52977777 65:0.43296024 66:0.43074313 67:0.65553141 68:0.55175138 69:0.55449051 70:0.35012591 71:0.91554379 72:0.60180318 73:0.46575996 74:0.4840472 75:0.46774781 
0 0.09953518427811289 0 0 0 0 0 0 0.9511173378111186 0.7517154067293265 0 0 0.3359348778659266 2.084848542648248 2.003152490838053 0.630161870592814 0 0 0 0 1.124196078239033 0 1.645338443213038 0 1.219756876543878 2.485935963049835 0.7685479053496441 0 1:0.53205031 2:0.17054264 3:0.61715013 4:0.32494599 5:0.48021096 6:0.45933554 7:0.54763901 8:0.48859897 9:0.26249677 10:0.48804417 11:0.47704431 12:0.78352749 13:0.38940078 14:0.3817108 15:0.72150862 16:0.28452232 17:0.56367344 18:0.34278262 19:0.40243331 20:0.54239327 21:0.45846263 22:0.4018158 23:0.33368471 24:0.42846367 25:0.56459129 26:0.29514551 27:0.50640631 28:0.32111385 29:0.29980081 30:0.46288666 31:0.61533886 32:0.29296714 33:0.49549541 34:0.40998891 35:0.56518656 36:0.55680484 37:0.63352692 38:0.49048033 39:0.2239337 40:0.46840283 41:0.68550795 42:0.59803277 43:0.49745774 44:0.35118505 45:0.49090329 46:0.47151226 47:0.38140991 48:0.4751915 49:0.52305681 50:0.30609456 51:0.61580729 52:0.39376935 53:0.43979102 54:0.65577686 55:0.53032243 56:0.40198454 57:0.30886588 58:0.50651586 59:0.4665677 60:0.70251727 61:0.64820188 62:0.55598044 63:0.46515393 64:0.29679853 65:0.660667 66:0.35609412 67:0.64950508 68:0.66553515 69:0.48957583 70:0.48186114 71:0.72833526 72:0.7350207 73:0.34058604 74:0.56548959 75:0.24549787 
0 0.3847787100662623 0 0.8776675873449283 0 0 0 0 0 1.762118753774185 0 0 0.4434926614517385 0.416149300754229 0 0 0 0 0 0 0 0.2106339750270066 0.6599244610424413 1.252064860699647 0 0 0 1.099579627550267 1:0.5297308 2:0.61258793 3:0.051013425 4:0.63146919 5:0.59914988 6:0.42024967 7:0.62699431 8:0.35880002 9:0.44288182 10:0.5885877 11:0.21279167 12:0.81080228 13:0.47772941 14:0.64795208 15:0.53786206 16:0.56592089 17:0.55576146 18:0.72654378 19:0.58814132 20:0.54976314 21:0.45258963 22:0.37710288 23:0.44807431 24:0.40333077 25:0.75289249 26:0.34232301 27:0.43553597 28:0.46287659 29:0.45779043 30:0.54923594 31:0.61830133 32:0.41844583 33:0.53257233 34:0.61892623 35:0.34981793 36:0.45703483 37:0.38553312 38:0.44059607 39:0.55447513 40:0.44009516 41:0.33685142 42:0.60523361 43:0.67725605 44:0.33905989 45:0.39584818 46:0.49566177 47:0.33805454 48:0.47974375 49:0.43745592 50:0.27982751 51:0.54393917 52:0.39520884 53:0.41226724 54:0.6250543 55:0.58206832 56:0.30489609 57:0.380023 58:0.46353766 59:0.49957883 60:0.64444542 61:0.53011036 62:0.35381189 63:0.5860582 64:0.48322707 65:0.35481286 66:0.60822922 67:0.51903015 68:0.36289972 69:0.68746585 70:0.32460684 71:0.77511925 72:0.48350412 73:0.47321972 74:0.38743198 75:0.29885748 
0 0 0 0 0 0 0 0 0 0 0 0 0 0 0 0 0 0 0 0 0 0 0 0 0 0 0.2809276108678886 0 1:0.25912297 2:0.42749518 3:0.23944189 4:0.11893847 5:0.71878123 6:0.46923533 7:0.43022221 8:0.59477359 9:0.71994978 10:0.69401419 11:0.56844354 12:0.794707 13:0.63095629 14:0.38248172 15:0.38505253 16:0.63483059 17:0.37866989 18:0.45903453 19:0.68277562 20:0.57906598 21:0.63900858 22:0.57564533 23:0.78454238 24:0.47606581 25:0.46923715 26:0.68300384 27:0.62650573 28:0.58761996 29:0.31479412 30:0.49518207 31:0.64349777 32:0.60656345 33:0.49555591 34:0.50783008 35:0.58680379 36:0.49808756 37:0.31384417 38:0.36628816 39:0.58994699 40:0.43605009 41:0.35203195 42:0.57652169 43:0.54711354 44:0.50089359 45:0.59137434 46:0.51516712 47:0.30698764 48:0.29332668 49:0.42626631 50:0.37812373 51:0.55293262 52:0.22346848 53:0.41652018 54:0.61189705 55:0.58922905 56:0.41903371 57:0.33581492 58:0.52633643 59:0.50328374 60:0.75383097 61:0.61758196 62:0.36830115 63:0.61398625 64:0.3843587 65:0.33128166 66:0.37469137 67:0.65271771 68:0.67557895 69:0.54124987 70:0.41934165 71:0.77114522 72:0.57979965 73:0.4708187 74:0.40791717 75:0.38704923 
0 0 0.6825070295673533 0.2730554636398512 0.008183524730781572 0.4636296043206581 0 0 0 0 0 0 0 0 0 0 0 0 0 0 0 0 0 0 0 0 0 0 1:0.65890521 2:0.50151533 3:0.47278324 4:0.38415566 5:0.29126376 6:0.42665794 7:0.41570786 8:0.5139479 9:0.54060173 10:0.49535692 11:0.69930667 12:0.57219052 13:0.66364044 14:0.40453273 15:0.51164472 16:0.64131445 17:0.33961427 18:0.38038218 19:0.59927285 20:0.73206717 21:0.33379799 22:0.49489304 23:0.83839905 24:0.63048005 25:0.42845863 26:0.48999539 27:0.51253283 28:0.5199827 29:0.32199824 30:0.36782226 31:0.41937345 32:0.68636519 33:0.40863189 34:0.44971204 35:0.30976173 36:0.7033447 37:0.56815964 38:0.32856297 39:0.70963758 40:0.85142386 41:0.40548879 42:0.65274477 43:0.67842174 44:0.5685392 45:0.60737169 46:0.51546943 47:0.52198267 48:0.55236995 49:0.40266448 50:0.39845321 51:0.54676044 52:0.16957889 53:0.35651085 54:0.61275876 55:0.5735842 56:0.50199932 57:0.359963 58:0.28006303 59:0.47629926 60:0.55603951 61:0.48638088 62:0.48303896 63:0.65483248 64:0.53689581 65:0.37033206 66:0.46556464 67:0.66636664 68:0.62738663 69:0.57940668 70:0.34539601 71:0.82334924 72:0.62609911 73:0.39083591 74:0.45564303 75:0.52265507 
0 0 0 0 2.111886153056045 0.6953259792668344 0.8844984287239995 0 0.1530739329754612 0 0 1.221665327514303 1.24711440822895 0 0.5993276918897352 0 0 0 1.517648823828467 0 0 0 0 0 0 0 1.252029361289078 0 1:0.64732623 2:0.4067778 3:0.54769224 4:0.61585552 5:0.56483066 6:0.37616825 7:0.52785754 8:0.23847456 9:0.40714908 10:0.36148971 11:0.7462523 12:0.59905922 13:0.39187071 14:0.7372939 15:0.39513427 16:0.55951667 17:0.53580475 18:0.50609082 19:0.72593611 20:0.42679629 21:0.25286362 22:0.40748915 23:0.41136977 24:0.6387046 25:0.36027226 26:0.36499581 27:0.61168194 28:0.5279085 29:0.44047675 30:0.59565187 31:0.67848176 32:0.63411021 33:0.53584117 34:0.55483955 35:0.31034279 36:0.60035205 37:0.48464221 38:0.38993749 39:0.5632962 40:0.36082399 41:0.4618499 42:0.68127829 43:0.71462494 44:0.33534113 45:0.29745898 46:0.49533096 47:0.35321403 48:0.37004671 49:0.49432129 50:0.47170329 51:0.60569817 52:0.27534881 53:0.44618669 54:0.60162503 55:0.46270984 56:0.44085488 57:0.51212031 58:0.21611837 59:0.47202259 60:0.58631063 61:0.48111954 62:0.47819409 63:0.59670979 64:0.25813761 65:0.42236269 66:0.54265636 67:0.6276688 68:0.60841572 69:0.70385712 70:0.39970854 71:0.72762865 72:0.64125991 73:0.50143391 74:0.45192906 75:0.43263364 
0 0 0 0 0 0 0 0 0 0 0 0 0 0 0 0 0 0.8972505636988368 0 0 0 0.4852091639191571 0 0 0 0 0 0 1:0.35528907 2:0.25883248 3:0.50604898 4:0.51168376 5:0.56253123 6:0.49702007 7:0.53121716 8:0.27005044 9:0.5384956 10:0.52060366 11:0.44992805 12:0.45477143 13:0.55919272 14:0.35805163 15:0.52203661 16:0.41006565 17:0.53141117 18:0.51119208 19:0.31056601 20:0.66991895 21:0.24574517 22:0.4658443 23:0.43926972 24:0.47156587 25:0.29054528 26:0.40979749 27:0.36551321 28:0.67362326 29:0.29160166 30:0.5267148 31:0.4583213 32:0.46093005 33:0.4806892 34:0.41374165 35:0.44789153 36:0.53345388 37:0.54605424 38:0.59141821 39:0.50408018 40:0.69072104 41:0.41238815 42:0.56542885 43:0.67924118 44:0.41735953 45:0.63718224 46:0.55967504 47:0.46576095 48:0.54731202 49:0.41181889 50:0.33311898 51:0.49983132 52:0.2948333 53:0.52484274 54:0.63956767 55:0.44377142 56:0.41210279 57:0.3988575 58:0.39933288 59:0.28831777 60:0.71788698 61:0.57295316 62:0.45680249 63:0.68608481 64:0.52838737 65:0.29390374 66:0.37090063 67:0.44523638 68:0.52688515 69:0.54821843 70:0.37279594 71:0.80881119 72:0.53107429 73:0.47763675 74:0.42217112 75:0.41965288 
0 0 0 0 0.01301135384659118 0 0 0 0 0.2375427706833112 0.5970615952048577 0 0 0 0 0 0 0 0 0 0 0 0.6813017977716983 0 0 0 0.1127701791289783 0 1:0.36770916 2:0.2441496 3:0.3883805 4:0.40765178 5:0.61584717 6:0.29233345 7:0.45235157 8:0.43263653 9:0.497152 10:0.27004084 11:0.43504494 12:0.70427835 13:0.5878635 14:0.38564914 15:0.57970303 16:0.61213553 17:0.65616035 18:0.29154164 19:0.528956 20:0.56474948 21:0.47675765 22:0.27134803 23:0.33953181 24:0.54689991 25:0.61319643 26:0.45896006 27:0.41053289 28:0.38286114 29:0.49635652 30:0.48490751 31:0.87561238 32:0.46078712 33:0.53157717 34:0.27707699 35:0.40944952 36:0.49642617 37:0.51101822 38:0.52986515 39:0.49266237 40:0.70953608 41:0.52640301 42:0.71479452 43:0.4658483 44:0.37697923 45:0.54837716 46:0.34702426 47:0.38598523 48:0.43959716 49:0.49296546 50:0.46621284 51:0.68659115 52:0.34285125 53:0.46045235 54:0.49819556 55:0.61437106 56:0.18664575 57:0.33830574 58:0.2868956 59:0.66804665 60:0.77860957 61:0.56500512 62:0.41363832 63:0.63068449 64:0.30432966 65:0.55328739 66:0.53683734 67:0.64063787 68:0.77891105 69:0.58466136 70:0.52016056 71:0.7278471 72:0.74650955 73:0.44695196 74:0.44851679 75:0.29265141 
0 0.7691832166861241 0.2770488119903565 0 0 1.069739882866708 0 0.105722963100498 0 1.446370113078041 0 0 0 0.009857926137541275 0 0 0 0 0 0.06117998037931856 0 0 0 0 0 0 0 2.499318992011082 1:0.27120319 2:0.52561235 3:0.55658221 4:0.56522638 5:0.63294959 6:0.4461928 7:0.3701528 8:0.62121779 9:0.35298255 10:0.48920777 11:0.46158957 12:0.59778726 13:0.45668706 14:0.70837831 15:0.64606631 16:0.53438497 17:0.17305763 18:0.48758727 19:0.33163029 20:0.60507798 21:0.41426516 22:0.4935855 23:0.76562601 24:0.62016016 25:0.36694643 26:0.47416258 27:0.54020143 28:0.45539442 29:0.28122449 30:0.64428079 31:0.28986952 32:0.56594235 33:0.39119551 34:0.56386536 35:0.50940245 36:0.61437869 37:0.52479184 38:0.29631761 39:0.44946101 40:0.57656229 41:0.39455053 42:0.53705615 43:0.67578405 44:0.34672409 45:0.51476532 46:0.5961228 47:0.32381842 48:0.42660907 49:0.34729648 50:0.39605671 51:0.44848987 52:0.44514129 53:0.4108898 54:0.4200263 55:0.50582767 56:0.32619628 57:0.55510503 58:0.58779228 59:0.13994527 60:0.54341173 61:0.71210504 62:0.52324772 63:0.62032408 64:0.54972774 65:0.35123262 66:0.22355516 67:0.62311143 68:0.4885048 69:0.45034721 70:0.38980457 71:0.80124718 72:0.49269384 73:0.35963371 74:0.57567561 75:0.40172952 
0 0 0 0 0 0 0 0 0 0 0 0 0 0 0 0.7682249582241777 0 0 0 0 0 0 0 0 0 0 1.355703016777115 0 1:0.3104986 2:0.34493509 3:0.47556886 4:0.25620034 5:0.38562074 6:0.41356984 7:0.5355798 8:0.66091853 9:0.2238798 10:0.59674442 11:0.67615396 12:0.48585853 13:0.6283015 14:0.3352645 15:0.36067894 16:0.414482 17:0.50460011 18:0.28386047 19:0.4950088 20:0.61995095 21:0.40835708 22:0.48895869 23:0.36093959 24:0.46249735 25:0.44480962 26:0.53302014 27:0.59150892 28:0.39739406 29:0.50661981 30:0.51926297 31:0.76091313 32:0.4581607 33:0.35140184 34:0.33846888 35:0.6660769 36:0.70733923 37:0.31615856 38:0.40336365 39:0.55654472 40:0.49836564 41:0.39303082 42:0.6543051 43:0.52066588 44:0.43336615 45:0.5033291 46:0.38509497 47:0.49913663 48:0.55830443 49:0.47317442 50:0.3360447 51:0.58429825 52:0.1994025 53:0.44383216 54:0.44412881 55:0.38189769 56:0.31679317 57:0.26083204 58:0.49099585 59:0.35475871 60:0.79608411 61:0.59211409 62:0.42931101 63:0.49951825 64:0.26514402 65:0.42301163 66:0.37971702 67:0.66772997 68:0.59512925 69:0.49244866 70:0.30625829 71:0.55673969 72:0.70644099 73:0.14892878 74:0.62877315 75:0.24918984 
0 0.8727638229311526 0.7937206862554208 0 0 0 0 0 0.4828201750912963 0.5874952066692476 0 0 0 0.8169140027348786 0 0 0 0 0 1.939707018426083 0 0 0.4012189206637368 0 0 0 0.3871609490824756 0 1:0.51708335 2:0.80120182 3:0.24837238 4:0.49530479 5:0.56162775 6:0.39996079 7:0.63856179 8:0.5154174 9:0.31994438 10:0.54135323 11:0.63077509 12:0.67984098 13:0.49300778 14:0.50396258 15:0.30414677 16:0.57171142 17:0.39072213 18:0.33987615 19:0.41513804 20:0.67538434 21:0.84765196 22:0.69218445 23:0.59013766 24:0.54036456 25:0.34094948 26:0.50943434 27:0.58467996 28:0.49420175 29:0.36042491 30:0.42345348 31:0.43084976 32:0.58973336 33:0.21767485 34:0.61843443 35:0.53202134 36:0.54974413 37:0.37869918 38:0.42703369 39:0.48688331 40:0.45173624 41:0.49068457 42:0.4782244 43:0.55916166 44:0.41909945 45:0.57560158 46:0.57365209 47:0.41455388 48:0.54220045 49:0.55507928 50:0.2893084 51:0.61685961 52:0.25807258 53:0.3701928 54:0.52704334 55:0.34586406 56:0.42066181 57:0.16271436 58:0.63472003 59:0.47087279 60:0.7858457 61:0.57147318 62:0.51761109 63:0.63150299 64:0.28070903 65:0.33285284 66:0.38241923 67:0.76408327 68:0.53951818 69:0.47924238 70:0.41920874 71:0.56880039 72:0.68897665 73:0.10826403 74:0.64921343 75:0.21049382 
0.4021171166295054 0 0 0 0.4577496641658623 0 0 0 0 0 0 0 0 0 0 0 0 0 0.5659137621835405 0 0 1.140097986917411 0 0 0 0 0 0 1:0.75398278 2:0.2194968 3:0.35383967 4:0.44818756 5:0.5817588 6:0.22213899 7:0.32192415 8:0.76619077 9:0.446228 10:0.68422401 11:0.58148283 12:0.75741363 13:0.41393128 14:0.61054921 15:0.62101436 16:0.47627366 17:0.24658388 18:0.68966264 19:0.38908583 20:0.56857777 21:0.51107848 22:0.52790737 23:0.42433691 24:0.2733846 25:0.40493491 26:0.54187572 27:0.50780785 28:0.31091976 29:0.18662189 30:0.45307121 31:0.50473166 32:0.49483007 33:0.52474594 34:0.66298711 35:0.73339498 36:0.42813542 37:0.85667413 38:0.58102924 39:0.38579345 40:0.31508332 41:0.42758161 42:0.67866182 43:0.49862581 44:0.52085084 45:0.17672881 46:0.60989028 47:0.30867362 48:0.31665656 49:0.61501181 50:0.48455864 51:0.54695106 52:0.32641318 53:0.513466 54:0.66371411 55:0.36513311 56:0.42349532 57:0.29422444 58:0.4942081 59:0.46567741 60:0.74948615 61:0.47775683 62:0.52607769 63:0.63443613 64:0.40660965 65:0.39015663 66:0.50405693 67:0.60929048 68:0.81024814 69:0.53057641 70:0.50289667 71:0.76744449 72:0.70705956 73:0.44877246 74:0.39098868 75:0.40584096 
0 0 0 0 0 0 0 0 0 0 0 0 0 0 0 0 0 0 1.8860000290223 0 0.6409616244516771 0 0 0 0 0 0 1.256544930768681 1:0.58289939 2:0.32278866 3:0.59506643 4:0.58106476 5:0.35721955 6:0.52412063 7:0.51044601 8:0.50540364 9:0.44708475 10:0.30252549 11:0.37253934 12:0.69043976 13:0.93511724 14:0.36436689 15:0.62747395 16:0.48591745 17:0.38346753 18:0.4749901 19:0.44163039 20:0.82625276 21:0.60191226 22:0.63529962 23:0.72344494 24:0.43076259 25:0.41806033 26:0.65104878 27:0.28145134 28:0.61042839 29:0.27557516 30:0.60521579 31:0.46543434 32:0.62276053 33:0.42651644 34:0.56118733 35:0.45664769 36:0.57861054 37:0.41595381 38:0.44988737 39:0.62840968 40:0.68261051 41:0.48657122 42:0.65258855 43:0.49184451 44:0.60739291 45:0.46760792 46:0.6031124 47:0.51234764 48:0.47258246 49:0.43355867 50:0.39258388 51:0.48432359 52:0.21985909 53:0.38352945 54:0.5670898 55:0.54374826 56:0.51349086 57:0.46695298 58:0.38860965 59:0.43029258 60:0.66976249 61:0.50197971 62:0.56820464 63:0.8228516 64:0.47091874 65:0.38272572 66:0.39982754 67:0.70034617 68:0.62162578 69:0.64847738 70:0.43775308 71:0.82902509 72:0.48606905 73:0.45771798 74:0.44243547 75:0.49774215 
0 0 0 0 0 0 0 0 0 0 1.139999689248097 0 0 0 0.04267852866836414 0 0.1889641745121465 0 0 0 0 0 0 0 0 0 0.1241688572633332 0 1:0.55895323 2:0.32015717 3:0.35985193 4:0.49876955 5:0.61633748 6:0.46744817 7:0.59814721 8:0.47088921 9:0.25389928 10:0.44566226 11:0.37452903 12:0.75763237 13:0.82832706 14:0.36387962 15:0.4717288 16:0.37670538 17:0.50770158 18:0.49152887 19:0.34675097 20:0.64493459 21:0.40840805 22:0.42031235 23:0.46647406 24:0.42619681 25:0.5154193 26:0.3630597 27:0.43418124 28:0.5028041 29:0.33788675 30:0.56850058 31:0.33278543 32:0.42141828 33:0.28334281 34:0.63130432 35:0.5483312 36:0.46727675 37:0.5277189 38:0.53102398 39:0.61534488 40:0.71117944 41:0.59155399 42:0.56267023 43:0.55438393 44:0.40178409 45:0.56654727 46:0.64364517 47:0.33518559 48:0.36333233 49:0.619425 50:0.43248111 51:0.66336232 52:0.17644083 53:0.50098997 54:0.49688289 55:0.56022 56:0.4034723 57:0.34575087 58:0.47759506 59:0.37525511 60:0.71300977 61:0.6695376 62:0.58723348 63:0.48596734 64:0.50005829 65:0.46583095 66:0.36748192 67:0.64566207 68:0.59484416 69:0.5590874 70:0.36016375 71:0.71514696 72:0.62584287 73:0.47912884 74:0.45234153 75:0.3450309 
0 0 0 0 0.3327859764405967 0 2.114029678648674 0.4853233558468724 0 0 0 2.191819081809375 1.191432495735206 0 0 0 0.5414109455744917 2.233217334914699 0 1.421310837752582 6.619047383012558 0 3.786294040275218 0 0.009152865870549028 0 0 0 1:0.46915561 2:0.43345821 3:0.32221153 4:0.54191244 5:0.48081174 6:0.53188729 7:0.47953427 8:0.58133221 9:0.45447904 10:0.54638159 11:0.70220542 12:0.66899979 13:0.80075991 14:0.44801539 15:0.48031279 16:0.53860343 17:0.54279214 18:0.49946454 19:0.63896388 20:0.73839766 21:0.44001538 22:0.44089755 23:0.48883447 24:0.51034892 25:0.58657938 26:0.60058928 27:0.43747437 28:0.3541021 29:0.47104937 30:0.54799581 31:0.43260062 32:0.38814366 33:0.35494918 34:0.63299763 35:0.63272792 36:0.43634626 37:0.4264394 38:0.37373587 39:0.68403786 40:0.3743031 41:0.48371696 42:0.63459289 43:0.63533199 44:0.45621777 45:0.50483024 46:0.5221833 47:0.42049688 48:0.51161665 49:0.50039738 50:0.27792746 51:0.46993506 52:0.26661524 53:0.35909811 54:0.59746414 55:0.41225865 56:0.28480604 57:0.42672738 58:0.51078254 59:0.34127131 60:0.58816528 61:0.60908371 62:0.58017105 63:0.65372998 64:0.48544431 65:0.35870209 66:0.34887299 67:0.64552683 68:0.56837779 69:0.52250504 70:0.38594544 71:0.64636844 72:0.41082227 73:0.44409502 74:0.53771639 75:0.41862673 
2.178871188122493 0 0 0.3162361844622148 0.8857857709647257 0 1.633278146578061 0.9762717439880649 1.581789564034791 0 0 0.3754610767781699 0 0 1.886524666155574 0.1566317364235974 0 0.5635592058218263 0.4535943544396936 0 1.089489502506681 1.698769647030942 0 1.721790518304144 0.9982449456489751 0 0 0 1:0.4045831 2:0.43977025 3:0.23337936 4:0.41438055 5:0.58695287 6:0.40783724 7:0.39122543 8:0.50839818 9:0.45065686 10:0.81811088 11:0.41705784 12:0.6591748 13:0.54010779 14:0.46262205 15:0.4842791 16:0.68521518 17:0.41749924 18:0.52280051 19:0.37612045 20:0.79187256 21:0.55439842 22:0.57536668 23:0.5072245 24:0.48841271 25:0.34389421 26:0.59103197 27:0.54613298 28:0.61524105 29:0.42035586 30:0.55803555 31:0.73438495 32:0.67283422 33:0.35426292 34:0.44306344 35:0.50647354 36:0.48313099 37:0.41451192 38:0.46729192 39:0.64909005 40:0.75699091 41:0.51155949 42:0.58737957 43:0.61265117 44:0.52303612 45:0.64438021 46:0.47385457 47:0.27613297 48:0.50278866 49:0.49101532 50:0.31989759 51:0.48468846 52:0.22497387 53:0.43134975 54:0.73772788 55:0.44303951 56:0.39150617 57:0.28295699 58:0.3807098 59:0.4779242 60:0.8275975 61:0.48560312 62:0.5368669 63:0.62041312 64:0.47166774 65:0.28120115 66:0.33573815 67:0.67049015 68:0.67427945 69:0.67134386 70:0.45106381 71:0.64655954 72:0.59398669 73:0.315137 74:0.54734045 75:0.36120626 
0.8052230135031565 0 0.1229531605729821 0 0.791760761393432 0.2245556092218308 0.2654107020005723 0 1.316279143215147 1.095888622199271 0.619672330542908 1.774758612596704 1.934657727065871 0.1167251019729776 1.297647884146803 0 0 0 2.998287751868991 0 0 0.09384636593289553 0 0.2470932353802165 0.1544731304519388 0 0.6429401883219925 0 1:0.45620087 2:0.25085032 3:0.43686551 4:0.46379834 5:0.86308897 6:0.52909684 7:0.93812656 8:0.64850545 9:0.41019759 10:0.78216004 11:0.57010746 12:0.7774626 13:0.67734075 14:0.39538595 15:0.67940241 16:0.25984511 17:0.59348768 18:0.48204428 19:0.74653411 20:0.53129137 21:0.54763472 22:0.65598679 23:0.55802524 24:0.46426031 25:0.23811613 26:0.29656842 27:0.42164108 28:0.52168477 29:0.33462772 30:0.54300183 31:0.56147379 32:0.3571682 33:0.46439296 34:0.47499409 35:0.79053289 36:0.38906428 37:0.78312874 38:0.47648457 39:0.55568564 40:0.42603326 41:0.53024191 42:0.36975229 43:0.62304747 44:0.38093096 45:0.42341727 46:0.66466093 47:0.40713048 48:0.40411547 49:0.66682869 50:0.64876312 51:0.54642308 52:0.3096014 53:0.38610524 54:0.47292715 55:0.3104769 56:0.41975933 57:0.53350383 58:0.48294449 59:0.18724534 60:0.66178197 61:0.56425703 62:0.6183176 63:0.55013013 64:0.40890789 65:0.43964294 66:0.26942098 67:0.59858692 68:0.52220422 69:0.54594153 70:0.38588288 71:0.75376934 72:0.67402333 73:0.31438664 74:0.53158623 75:0.4004904 
0 0.4222951021686703 0 0 0 0 1.535111656618027 0 0.2541781194597452 0 0 0 0 0 0 0 0 0 0 0 0 0 0 0 0 0.3449890483379086 0.3291245680001287 0 1:0.41108161 2:0.24211824 3:0.65343499 4:0.511756 5:0.44609484 6:0.48580468 7:0.4860636 8:0.45154828 9:0.83555567 10:0.2063103 11:0.63784927 12:0.54719871 13:0.72741252 14:0.41942036 15:0.78894103 16:0.57466626 17:0.51361871 18:0.41738155 19:0.7242949 20:0.72274327 21:0.56877148 22:0.61389977 23:0.77756047 24:0.43287736 25:0.2888914 26:0.18803377 27:0.34796241 28:0.31704137 29:0.2916615 30:0.3661761 31:0.26805106 32:0.53930461 33:0.46200302 34:0.78192675 35:0.48020002 36:0.85260314 37:0.54042089 38:0.53571975 39:0.36086142 40:0.58921987 41:0.32760236 42:0.68349081 43:0.54628426 44:0.50691646 45:0.66062266 46:0.59090114 47:0.41232592 48:0.29454225 49:0.72292763 50:0.43944126 51:0.69369423 52:0.38239795 53:0.55787724 54:0.33395624 55:0.63576972 56:0.1989309 57:0.26567322 58:0.38828993 59:0.6710031 60:0.65932167 61:0.45943323 62:0.45465598 63:0.72242677 64:0.37542671 65:0.54995173 66:0.46185571 67:0.65234125 68:0.70112544 69:0.36432514 70:0.36872417 71:0.82232118 72:0.74436581 73:0.46100122 74:0.54721141 75:0.38812 
0 0 0 0 0 0 0.2727215034099087 0 0.4181221261981812 0 0 0 0 0 0 0 0 0 0 0 0 0 0 0 0 0 0 0 1:0.49902427 2:0.36169982 3:0.16866601 4:0.59363192 5:0.47179627 6:0.41171607 7:0.34359863 8:0.71543866 9:0.41381067 10:0.56182951 11:0.6435864 12:0.62383401 13:0.77895445 14:0.60076404 15:0.39992571 16:0.47416139 17:0.38005888 18:0.66201252 19:0.43863156 20:0.70693481 21:0.67941034 22:0.55425388 23:0.70974445 24:0.44511387 25:0.51312172 26:0.4929142 27:0.44759777 28:0.30525216 29:0.24551378 30:0.56983417 31:0.34326833 32:0.79738498 33:0.60576791 34:0.98582458 35:0.49750799 36:0.45194775 37:0.43558046 38:0.51979876 39:0.67369872 40:0.45591041 41:0.40525755 42:0.48166853 43:0.56235027 44:0.7129218 45:0.52229434 46:0.66269231 47:0.44129169 48:0.29543471 49:0.57526124 50:0.52228862 51:0.57744676 52:0.39527276 53:0.4034299 54:0.49470246 55:0.54355508 56:0.50361955 57:0.24966347 58:0.53232843 59:0.40106308 60:0.70054638 61:0.43654484 62:0.46302563 63:0.70544386 64:0.45735043 65:0.38868207 66:0.36421812 67:0.69682193 68:0.67414814 69:0.54008412 70:0.43998477 71:0.80646765 72:0.58175129 73:0.56202298 74:0.3817969 75:0.47035888 
0 0 0 0.5250063622135128 0 0 0 0 0 0 0 0 0 0 0 0 0 0.412161854260423 0 0 0 0 0 0 0 0 0 0 1:0.56842774 2:0.44736198 3:0.50338715 4:0.26050815 5:0.46501753 6:0.31953219 7:0.42058572 8:0.34072781 9:0.74198925 10:0.48908758 11:0.54885137 12:0.47058883 13:0.68797833 14:0.59842783 15:0.62031245 16:0.56380665 17:0.55426311 18:0.43591702 19:0.45692557 20:0.83035409 21:0.36179718 22:0.49365991 23:0.63774246 24:0.50569338 25:0.45903826 26:0.45410165 27:0.53844595 28:0.53742218 29:0.37370723 30:0.46568805 31:0.70195574 32:0.39193061 33:0.47477698 34:0.3428691 35:0.44756037 36:0.54848403 37:0.47383577 38:0.58169019 39:0.56043744 40:0.64633238 41:0.50916004 42:0.66210812 43:0.44045529 44:0.35395476 45:0.65168881 46:0.5087164 47:0.40215215 48:0.45308396 49:0.45770857 50:0.23522289 51:0.62835389 52:0.21530606 53:0.48388538 54:0.61770278 55:0.4793354 56:0.24517712 57:0.23691918 58:0.33686218 59:0.69884729 60:0.72636575 61:0.59897929 62:0.38241151 63:0.63893104 64:0.34857681 65:0.53817135 66:0.50702274 67:0.65425718 68:0.69640392 69:0.52519828 70:0.39810866 71:0.65753329 72:0.6730575 73:0.3726759 74:0.46634507 75:0.30080456 
