svm_type c_svc
kernel_type rbf
gamma 0.09
nr_class 2
total_sv 36
rho -0.701938
label 130020101 130020102
probA -4.48682
probB 0.0155548
nr_sv 21 15
SV
0.5575152706193066 1:0.3142567 2:0.54578429 3:0.67359483 4:0.4783822 5:0.46969348 6:0.32086748 7:0.36139423 8:0.40019202 9:0.48864973 10:0.60503447 11:0.51881117 12:0.37633514 13:0.37623733 14:0.42875695 15:0.42092821 16:0.39770418 17:0.48625615 18:0.44141406 19:0.46986333 20:0.71888167 21:0.44384724 22:0.67655218 23:0.60420078 24:0.32586306 25:0.57645464 26:0.24952926 27:0.29350677 28:0.53092289 29:0.30829909 30:0.58234769 31:0.65732384 32:0.023171905 33:0.92101425 
0.4173941826052225 1:0.42756182 2:0.55773771 3:0.64067173 4:0.44606614 5:0.38297069 6:0.45380208 7:0.56280297 8:0.4484033 9:0.52964747 10:0.55287212 11:0.55758643 12:0.28359389 13:0.46164671 14:0.31940135 15:0.35375047 16:0.45548421 17:0.47383827 18:0.30552104 19:0.45340848 20:0.62349051 21:0.4923737 22:0.61435717 23:0.51725835 24:0.33956385 25:0.57957286 26:0.21674755 27:0.31528643 28:0.55237848 29:0.22935131 30:0.55972612 31:0.6340102 32:0.030521626 33:0.9600842 
2.611200379604827 1:0.75110817 2:0.82963455 3:0.26260841 4:0.52027416 5:0.59695232 6:0.12836765 7:0.25416192 8:0.61626887 9:0.73477203 10:0.78771347 11:0.33089155 12:0.14450245 13:0.23119704 14:0.67184323 15:1 16:0.43270105 17:0.4484874 18:0.55540097 19:0.60113972 20:0 21:0.30346477 22:0.42720807 23:0.36479351 24:1 25:1 26:0.80516398 27:0.26660526 28:7.5650641e-16 29:0.29384413 30:0.078215927 31:0.8257609 32:0.50547653 33:0.81241196 
0.9765988251135163 1:0.46199113 2:0.73280561 3:0.30277693 4:0.45378265 5:0.54419661 6:0.41459754 7:0.39157814 8:0.24592708 9:0.59945041 10:0.22204946 11:0.39246783 12:0.068443075 13:0.52714169 14:0.47457618 15:0.064205617 16:0.35964051 17:0.53344762 18:0.76302463 19:0.16395755 20:0.70605838 21:0.47645059 22:0.88978648 23:0.60339808 24:0.14711101 25:0.49095404 26:0.53999484 27:0.5890879 28:0.62834513 29:0.49700439 30:0.62504464 31:0.56734008 32:0.70291942 33:0.9122225 
2.921635363083928 1:0.83712107 2:0.36758274 3:0.63419563 4:0.41958416 5:0.62747669 6:0.10852659 7:0.67964935 8:0.63001943 9:0.71231025 10:0.39504316 11:0.34896013 12:0.63121343 13:0.44453579 14:0.55376625 15:0.57250589 16:0.96478426 17:0.60378903 18:0.57000387 19:0.64836657 20:0.75542295 21:0.55209208 22:0.60448146 23:0.57754499 24:0.093314432 25:0.74153566 26:0.47924727 27:0.83433366 28:0.57912076 29:0.4237493 30:0.55855608 31:0.65656924 32:0.63646001 33:0.84822351 
6.503411234305846 1:0.4906348 2:0.53054363 3:0.78804189 4:0.53810549 5:0.50831777 6:0.20791338 7:0.32414266 8:0.39840737 9:0.65230525 10:0.35206985 11:0.35081986 12:0.32820684 13:0.53601742 14:0.64611173 15:0.50147247 16:0.3582429 17:0.50738204 18:0.46629837 19:0.73167282 20:0.65178627 21:0.5525676 22:0.19298312 23:0.35186782 24:0.11014895 25:0.50163329 26:0.82068849 27:0.3173883 28:0.8173573 29:0.54353422 30:0.62001425 31:0.52245224 32:0.27110988 33:0.61918879 
4.161078990814006 1:0.58245993 2:0.72057962 3:0.50991476 4:0.96347797 5:0.53402209 6:0.17531905 7:0.24665271 8:0.48833224 9:0.70138186 10:0.72601068 11:0.41454011 12:0.77229142 13:0.32923603 14:0.56099653 15:0.48846033 16:0.43577138 17:0.58360791 18:0.34844604 19:0.54778033 20:0.51013637 21:0.70209873 22:0.078232519 23:0.40222821 24:0.010305017 25:0.40954551 26:0.9320628 27:0.22113544 28:0.73375303 29:0.51041287 30:0.5166688 31:0.47652274 32:0.22317313 33:0.52284074 
3.004921730295183 1:0.48500735 2:0.64481467 3:0.53063422 4:0.4965612 5:0.39682999 6:0.29434234 7:0.57653832 8:0.41595209 9:0.42604539 10:0.45054185 11:0.68906528 12:0.48922679 13:0.54504651 14:0.51466221 15:0.57448059 16:0.11700737 17:0.66821641 18:0.45921457 19:0.35112011 20:0.58343226 21:0.21015461 22:0.68185091 23:0.362694 24:0.24264559 25:0.5391112 26:0.59478593 27:0.81147963 28:0.59685397 29:0.54822409 30:0.59804636 31:0.67693824 32:0.7159133 33:0.90229481 
1.377010887444977 1:1.102881e-16 2:0.5127582 3:0.77667707 4:0.58687901 5:0.58327478 6:0.69202709 7:0.58790588 8:0.47340599 9:0.21027593 10:0.2798622 11:0.45801044 12:0.75156838 13:0.8059693 14:0.37619013 15:0.6536147 16:0.38486111 17:0.50761938 18:0.49465448 19:0.61453068 20:0.44960704 21:0.5148198 22:0.82281119 23:0.21567239 24:0.34834453 25:0.63908952 26:0.37962258 27:0.18203044 28:0.63583386 29:0.35867897 30:0.61370879 31:0.60015845 32:0.83132458 33:0.93012142 
4.529174631190805 1:0.58924431 2:0.37877136 3:0.82340407 4:0.50834364 5:0.71851516 6:0.38785681 7:0.42982754 8:0.72820133 9:0.089191809 10:0.27550006 11:0.59195662 12:0.47831348 13:0.75518394 14:0.59846234 15:0.66585696 16:0.34217814 17:0.44525987 18:0.60177195 19:0.50930935 20:0.85557675 21:0.44241893 22:0.23420466 23:0.65311259 24:0.42332181 25:0.68811083 26:0.15973516 27:0.30243811 28:0.532552 29:0.27474132 30:0.42872742 31:0.48375574 32:0.93669599 33:0.911825 
2.373121377507777 1:0.57999593 2:0.19040024 3:0.49507377 4:0.52423763 5:0.15205453 6:0.78341472 7:0.28058273 8:0.9161377 9:0.431063 10:0.63512778 11:0.63764852 12:0.26809925 13:0.74501592 14:0.27026558 15:0.46678594 16:0.49119893 17:0.47207782 18:0.60501593 19:0.60006106 20:0.77953541 21:0.20548503 22:0.14405584 23:0.31182089 24:0.12029636 25:0.66071975 26:0.47313273 27:0.069739029 28:0.38810882 29:0.43722281 30:0.4453223 31:0.55782485 32:0.8173551 33:0.83016688 
2.343962571116185 1:0.7289803 2:0.11461555 3:0.80013108 4:0.61242867 5:0.89341193 6:0.10942395 7:0.33701131 8:0.40200803 9:0.791363 10:0.20473188 11:0.81984258 12:0.62269235 13:0.49008468 14:0.42836347 15:0.0047345445 16:0.54370427 17:0.53579581 18:0.39459595 19:0.42571065 20:0.6555835 21:0.52401853 22:0.5759294 23:0.77224141 24:0.505768 25:0.6477595 26:0.46266168 27:0.30785361 28:0.70733398 29:0.10506468 30:0.71550465 31:0.38239107 32:0.89890993 33:0.86288977 
0.8572279902921727 1:0.4319784 2:0.6416899 3:0.74867362 4:0.71620876 5:0 6:0.79969376 7:0.43985575 8:0.53214335 9:0.49323115 10:0.43739328 11:0.65984976 12:0.27173635 13:0.39421239 14:0.38276601 15:0.54797405 16:0.64556247 17:0.58808213 18:0.78340638 19:0.75172645 20:0.79269874 21:0.78864884 22:0.22033767 23:0.3774069 24:0.18774353 25:0.7921474 26:0.29059184 27:0.47075817 28:1 29:0.28764576 30:0.32208204 31:0.40094981 32:0.73483378 33:0.79479402 
0.06775666674949092 1:0.58701324 2:0.39312762 3:0.62898308 4:0.40408763 5:0.72447854 6:0.8024078 7:0.18124379 8:0.49612069 9:0.52970636 10:0.81473964 11:0.60414815 12:0.80711186 13:0.20595016 14:0.47445029 15:0.30455622 16:0.57305825 17:0.36616886 18:0.56440896 19:0.33685622 20:0.68624765 21:0.62425065 22:0.58668792 23:0.8877973 24:0.33943492 25:0.29015708 26:0.38860095 27:0.27100098 28:0.47781295 29:0.5454005 30:0.6257413 31:0.39967847 32:0.90077537 33:0.8083992 
0.4007689468958424 1:0.54344392 2:0.68366349 3:0.70239639 4:0.48108721 5:0.43480161 6:1 7:0.19006208 8:0.61444813 9:0.73614568 10:0.47025588 11:0.70979035 12:0.6353972 13:0.66702533 14:0.37681216 15:0.61165971 16:0.40425122 17:0.85556656 18:0.84767014 19:0.6761626 20:0.61631012 21:0.57384926 22:0.48263538 23:0.77768141 24:0.43878099 25:1.9915142e-16 26:0.54396194 27:0.25763622 28:0.64019787 29:0.49801397 30:0.68308508 31:0.38187003 32:0.76432979 33:0.742836 
1.623231433323429 1:0.37680563 2:0.73661911 3:0.82753873 4:0.47899917 5:0.33741847 6:0.13008195 7:0.37421411 8:0.23942018 9:0.5260942 10:0.6384632 11:0.70994407 12:0.54433799 13:0.49544901 14:0.68727231 15:0.59812945 16:0.72612548 17:0.50240809 18:0.79138583 19:0.36970982 20:0.66882139 21:0.54855597 22:0.10727276 23:0.60771245 24:0.40520838 25:0.23681036 26:0.59978145 27:0.1005202 28:0.48513603 29:0.60376322 30:0.49738228 31:0.45296049 32:0.799582 33:0.81448555 
0.2506155833474025 1:0.18984212 2:0.44415674 3:0.38398603 4:0.3270148 5:0.35076025 6:0.12403736 7:0.49403745 8:0.78497201 9:0.19369657 10:0.42537761 11:0.46093631 12:0.74652398 13:0.39051664 14:0.49917302 15:0.61087352 16:0.20172966 17:0.76803327 18:0.53453308 19:0.66606063 20:0.3951005 21:1 22:0.69987625 23:0.41519314 24:0.29787186 25:0.4087044 26:0.38604793 27:0.41521055 28:0.64333445 29:0.48263198 30:0.50322908 31:0.45658278 32:0.90417999 33:0.8091895 
1.536213288776554 1:0.67286807 2:0.5684374 3:0.75151432 4:0.14158937 5:0.19142263 6:0.55988747 7:0.46501055 8:0.75858301 9:0.12955667 10:0.4725492 11:0.50581157 12:0.34801444 13:0.44170728 14:0.2217164 15:0.78703278 16:0.46911323 17:0.77573729 18:0.19396965 19:0.623761 20:0.71966517 21:0.52385545 22:0.64657301 23:0.50922114 24:0.24348439 25:0.73680508 26:0.21954435 27:0.30757958 28:0.89441031 29:0.20417705 30:0.55157399 31:0.35683903 32:0.79849899 33:0.86515307 
0.05870554804718701 1:0.55600935 2:0.27164567 3:0.43325394 4:0.55321127 5:0.54011029 6:0.26879683 7:0.5920524 8:0.59000957 9:0.061677255 10:0.58699119 11:0.66649467 12:0.14627942 13:0.44672617 14:0.79044718 15:0.41997939 16:0.49587721 17:0.27037978 18:0.49974018 19:0.68909168 20:0.78852153 21:0.29435986 22:0.31707129 23:0.35202715 24:0.12937503 25:0.61645055 26:0.4617137 27:0.12541233 28:0.45943412 29:0.43224546 30:0.51643056 31:0.44461691 32:0.90196019 33:0.84534442 
0.7300858371624476 1:0.46706134 2:0.40407285 3:0.8120569 4:0.4748466 5:0.52886653 6:0.14921422 7:0.48055634 8:0.66418403 9:0.17269599 10:0.19191189 11:0.74094814 12:0.53658628 13:0.39048675 14:0.42787594 15:0.45585084 16:0.096723303 17:0.47729674 18:0.29576561 19:0.38926113 20:0.4074477 21:0.51193827 22:0.63893628 23:0.24910159 24:0.23911846 25:0.56770003 26:0.41589686 27:0.35427868 28:0.84447998 29:0.30526274 30:0.54012549 31:0.46252382 32:0.91333544 33:0.9006409 
2.261829882409253 1:0.18642284 2:0.76998186 3:0.20621336 4:0.47855335 5:0.56140971 6:0.64884377 7:0.24113573 8:0.58702743 9:0.37412041 10:0.2772958 11:0.57520854 12:0.25234199 13:0.70998061 14:0.24249569 15:0.69594991 16:0.28861886 17:0.29415971 18:0.24939564 19:0.74214375 20:0.69554365 21:0.45625746 22:0.62439102 23:0.6620276 24:0.2657218 25:0.63958186 26:0.21569096 27:0.40501904 28:0.71058559 29:0.3256748 30:0.56674349 31:0.37074181 32:0.86357021 33:0.7750138 
-4.421382688037228 1:0.49948102 2:0.55076402 3:0.61643416 4:0.50194234 5:0.53450119 6:0.37463117 7:0.41999224 8:0.47052494 9:0.51678598 10:0.45534888 11:0.58570236 12:0.4176496 13:0.59684289 14:0.55034596 15:0.49639708 16:0.34001109 17:0.53475416 18:0.55816042 19:0.54821044 20:0.59002709 21:0.361238 22:0.48941234 23:0.47253934 24:0.22598951 25:0.55369455 26:0.37512785 27:0.4121069 28:0.52036887 29:0.30117014 30:0.67548734 31:0.011529877 32:0.47047818 33:0.0071269693 
-3.855754173389784 1:0.52084786 2:0.56212074 3:0.62549996 4:0.49601015 5:0.47617808 6:0.39801678 7:0.41592345 8:0.47851127 9:0.49936822 10:0.46424884 11:0.57469082 12:0.40885651 13:0.56031245 14:0.53134239 15:0.48931828 16:0.42649826 17:0.54617262 18:0.45086196 19:0.53994405 20:0.63619542 21:0.45028356 22:0.46524307 23:0.48509684 24:0.2484228 25:0.60640961 26:0.396723 27:0.36247066 28:0.58210707 29:0.42845806 30:1 31:1 32:0.68190342 33:0.19110224 
-0.008144444123217624 1:0.5502246 2:0.54716176 3:0.54781008 4:0.31668401 5:0.52772474 6:0.25245807 7:0.59759128 8:0.36172131 9:0.56796348 10:0.44401529 11:0.21897931 12:0.66886377 13:0.46349046 14:0.37316296 15:0.67678177 16:0.77322763 17:0.55282193 18:0.15934668 19:0.5709576 20:0.85845035 21:0.22917642 22:0.38995433 23:0.51577985 24:0.43159968 25:0.56417018 26:0.52412081 27:0.41174659 28:0.8204537 29:0.22170132 30:0.53451294 31:0.55150735 32:0.72871107 33:0.27103865 
-2.574238690155459 1:0.35476777 2:0.6265856 3:0.87758559 4:0.28671047 5:0.47983733 6:0.39709213 7:0.24062465 8:0.47152734 9:0.20253368 10:0.39575887 11:0.85733563 12:0.39393732 13:0.82064408 14:1 15:0.59224957 16:0.55547696 17:0.63048011 18:0.36571938 19:0.51285696 20:0.69904232 21:0.56857556 22:0.43935931 23:0.15756786 24:0.41972959 25:0.55265129 26:0.54589641 27:0.32486919 28:0.33630368 29:0.29770786 30:0.058703564 31:0.83041555 32:0.59763724 33:0.44479835 
-0.9712013641280068 1:0.58922243 2:0.72074413 3:0.58459634 4:0.49173203 5:0.57205588 6:0.30585998 7:0.64123839 8:0.541655 9:0.67183989 10:0.2581383 11:0.35597488 12:0.54400671 13:0.39391404 14:0.17764802 15:0.74491465 16:0.43260965 17:0.72808224 18:0.80926394 19:0.49662873 20:0.7766549 21:0.19841723 22:0.43779415 23:0.25929508 24:0.20665494 25:0.41747111 26:0.18870462 27:0.22015637 28:0.37446716 29:0.40975261 30:0.2858744 31:0.90536696 32:0.5422861 33:0.36630976 
-4.476858299548216 1:0.46431908 2:0.55954134 3:0.62850255 4:0.65530956 5:0.56984103 6:0.16111685 7:0.36073568 8:0.232217 9:0.38606679 10:0.4123778 11:0.58561075 12:0.43602854 13:0.37786776 14:0.24907514 15:0.31042126 16:0.18333343 17:0.42283776 18:0.37764484 19:0.6796332 20:0.70671374 21:0.50269765 22:0.16715226 23:0.49434522 24:0.51185644 25:0.64964199 26:0.47585019 27:0.42231837 28:0.85338157 29:0.00239655 30:0.4152306 31:0.63381076 32:0.75374717 33:0.32206082 
-0.03002158821461217 1:0.35520396 2:0.26411644 3:0.58790386 4:0.58530694 5:0.50803691 6:0.32511801 7:0.12535737 8:0.60699379 9:0.82421744 10:0.75446057 11:0.48714444 12:0.25218922 13:0.32586271 14:0.64636171 15:0.78247625 16:0.38017708 17:0.6350112 18:0.61335456 19:0.54432011 20:0.7492283 21:0.51827002 22:0.5278796 23:0.22259896 24:0.13496798 25:0.5402 26:0.38454688 27:0.41514772 28:0.76371396 29:0.18022773 30:0.16321367 31:0.78320909 32:0.70632476 33:0.29797813 
-4.466688753972423 1:0.38338718 2:0.3719728 3:0.81874353 4:0.53491962 5:0.54419392 6:0.22800052 7:0.28224051 8:1 9:0.43972042 10:0.45516807 11:0.52054334 12:0.48738858 13:0.70027363 14:0.74125069 15:0.3992306 16:0.73276162 17:0.48966572 18:0.60628867 19:0.45124623 20:0.61600161 21:0.54111814 22:0.50048339 23:0.43508169 24:0.40565011 25:0.71578342 26:0.88349432 27:0.41657189 28:0.79113394 29:0.065296739 30:0.28429234 31:0.63842696 32:0.68978024 33:0.38587278 
-1.863606147386055 1:0.87238848 2:0.25698897 3:0.50744033 4:0.41100061 5:0.52224094 6:0.36378554 7:0.15214677 8:0.22637381 9:0.15782872 10:0.22817773 11:0.46645302 12:0.54528922 13:0.49691835 14:0.30909505 15:0.51544964 16:0.66136557 17:0.48913568 18:0.42894164 19:0.4426426 20:0.78046429 21:0.70528948 22:0.26218116 23:0.1360106 24:0.32593846 25:0.38709843 26:0.34546214 27:0.37167194 28:0.37139326 29:0.37473744 30:0.28531554 31:0.89107138 32:0.67883992 33:0.32008514 
-2.446513742006625 1:0.8173582 2:0.52431738 3:0.65709555 4:0.52996218 5:0.16844253 6:0.37697366 7:0.41268024 8:0.52173883 9:0.74099135 10:0.42798239 11:0.3956309 12:0.60489559 13:0.61914098 14:0.6417383 15:0.80256701 16:0.58653355 17:0.43850234 18:0.29603952 19:0.54161394 20:0.53528142 21:0.61843604 22:0.57885879 23:1 24:0.11314698 25:0.25302646 26:0 27:0.43048719 28:0.50598907 29:0.20065029 30:0 31:0.79769647 32:0.60315537 33:0.31326932 
-3.956309053307677 1:0.45413089 2:0.60897624 3:0.87649292 4:0.49190342 5:0.3966065 6:0.11117205 7:0.48757458 8:0.77454489 9:0.28974441 10:0.13615341 11:0.24006495 12:0.42844537 13:0.35849655 14:0.16287617 15:0.24928004 16:0.44140908 17:0.62513024 18:0.6501652 19:0.59069091 20:0.69962168 21:0.29670793 22:0.54132909 23:0.24602823 24:0.4018431 25:0.50238347 26:1 27:0.32750252 28:0.4805761 29:0.37166712 30:0.37230182 31:0.72189718 32:0.73286921 33:0.36696771 
-3.471768877003776 1:0.55973852 2:0.87665612 3:0.61669844 4:0.49491397 5:0.45640558 6:0.18094663 7:0.60318714 8:0.37136593 9:0.37745491 10:1 11:0.35209599 12:0.5802511 13:0.82926166 14:0.50933188 15:0.57633275 16:0.48490658 17:0.28868851 18:0.42211866 19:0.49619156 20:1 21:0.22462158 22:0.49888638 23:0.44853127 24:0.068978377 25:0.65082848 26:0.59594196 27:0.26378915 28:0.58932459 29:0.13938336 30:0.48205546 31:0.7387079 32:0.6587553 33:0.44547281 
-0.5539908838254302 1:0.32563573 2:0.73120528 3:0.65160775 4:0.36769879 5:0.63265336 6:0.2862747 7:0.57664084 8:0.5259521 9:0.66913998 10:0.32914817 11:0.39043689 12:0.57987386 13:0.56251878 14:0.73425788 15:0.64883447 16:0.31357205 17:0.30872765 18:0.77064067 19:0.49388599 20:0.56285304 21:0.48026764 22:0.40509441 23:0.71287531 24:0.37584898 25:0.47911587 26:0.0024251901 27:0.47986168 28:0.75399327 29:0.16919844 30:0.26637471 31:0.7369765 32:0.62972885 33:0.37882215 
-2.580696106401302 1:0.57057816 2:0.44656995 3:0.60594153 4:0.61310172 5:0.75073981 6:0.83366883 7:0.46317238 8:0.69890881 9:0.63085884 10:0.68419605 11:0.79466885 12:0.47141331 13:0.073922694 14:0.53519183 15:0.35698378 16:0.18700661 17:0.64063042 18:0.47173005 19:0.39033005 20:0.58727759 21:0.60592246 22:0.40284953 23:0.26558927 24:0.13051607 25:0.64095175 26:0.51536709 27:0.48331907 28:0.54826361 29:0.2164841 30:0.023996759 31:0.74120533 32:0.64365733 33:0.34083709 
-3.886285809205545 1:0.39383259 2:0.51785922 3:0.38434827 4:0.23976249 5:0.72471929 6:0.40887973 7:0.83259273 8:0.5537318 9:0.7449047 10:0.51251942 11:0.60196775 12:0.33774146 13:0.67381096 14:0.35754117 15:0.80629843 16:0.48766312 17:0.53922337 18:0.66898471 19:0.31857485 20:0.72478062 21:0.40249297 22:0.49825081 23:0.6616056 24:0.3603681 25:0.30809867 26:0.52371538 27:0.38761163 28:0.8640753 29:0.27328113 30:0.56726098 31:0.67196321 32:0.69481939 33:0.35928312 
