svm_type c_svc
kernel_type rbf
gamma 0.09
nr_class 2
total_sv 114
rho 0.986953
label 130300102 130300103
probA -5.2018
probB 0.175898
nr_sv 57 57
SV
3.22067078393987 1:0.57913417 2:0.3156631 3:0.42480007 4:0.43176442 5:0.3300226 6:0.33034989 7:0.45590404 8:0.17382775 9:0.58023036 10:0.37802035 11:0.52134031 12:0.52101028 13:0.32114771 14:0.29081994 15:0.4614566 16:0.51281399 17:0.5647105 18:0.25871906 19:0.72433549 20:0.33199736 21:0.57571357 22:0.77670926 23:0.46048245 24:0.59234154 25:0.29621223 26:0.42097214 27:0.44009104 28:0.39516813 29:0.67182368 30:0.4103058 31:0.55595565 32:0.53155267 33:0.42792147 34:0.1798407 35:0.672086 36:0.31108961 37:0.62339425 38:0.52475011 39:0.66672939 40:0.50869119 41:0.55638051 42:0.21305712 43:0.42008162 44:0.41439205 45:0.7553972 46:0.62622052 47:0.50657034 48:0.59228438 49:0.54081517 50:0.36645642 51:0.56200027 52:0.3465578 53:0.49393898 54:0.6007942 55:0.44396281 56:0.56326902 57:0.54383212 58:0.70673531 59:0.81313223 60:0.35623705 61:0.50051492 62:0.71094036 63:0.082396597 
2.046586667926126 1:0.48391092 2:0.53569233 3:0.47301528 4:0.54532743 5:0.66680187 6:0.56446153 7:0.64382255 8:0.72486365 9:0.55860126 10:0.37063548 11:0.078544557 12:0.64290363 13:0.32481033 14:0.35292599 15:0.51275009 16:0.66158462 17:0.70850968 18:0.47037491 19:0.39710498 20:0.41324985 21:0.49774313 22:0.47674593 23:0.30323491 24:0.11642114 25:0.52094626 26:0.59912443 27:0.45175245 28:0.7096557 29:0.56371248 30:0.47292972 31:0.64210933 32:0.88986421 33:0.52942467 34:0.30179539 35:0.51198673 36:0 37:0.44533765 38:0.71843845 39:0.58648366 40:0.59341973 41:0.48106527 42:0.4799692 43:0.73984182 44:0.61331987 45:0.40854892 46:0.20919955 47:0.80519825 48:0.55286455 49:0.13360411 50:0.5478996 51:0.66572535 52:0.72536129 53:0.4710288 54:0.31209317 55:0.37503314 56:0.48052084 57:0.12290034 58:0.22599633 59:0.89920676 60:0.047753338 61:0.52959859 62:0.51154822 63:0.06542924 
2.574167829264247 1:0.62611359 2:0.45438722 3:0.49809605 4:0.33189279 5:0.68043929 6:0.17634921 7:0.51561236 8:0.27622736 9:0.45717782 10:0.47471279 11:0.67104542 12:0.44562268 13:0.29551786 14:0.38635814 15:0.95503139 16:0.38919094 17:0.5423429 18:0.43752918 19:0.59125328 20:0.082284741 21:0.67594141 22:0.40218404 23:0.20094158 24:0.59948951 25:0.30389065 26:0.42885944 27:0.34779102 28:0.31331187 29:0.20189419 30:0.65467757 31:0.62411433 32:0.34366593 33:0.24924581 34:0.42897266 35:0.50574356 36:0.41950807 37:0.51531398 38:0.72513139 39:0.61521649 40:0.13247879 41:0.70162451 42:0.62471581 43:0.45856655 44:0.3747434 45:0.55264157 46:0.79591769 47:0.51581907 48:0.384395 49:0.30193192 50:0.43490449 51:0.50370234 52:0.59480023 53:0.5558157 54:0.62090075 55:0.90225798 56:0.26248932 57:0.42835167 58:0.37580737 59:0.6906656 60:0.41633341 61:0.51547748 62:0.71553928 63:0.19688341 
3.839089799024138 1:0.69660968 2:0.61367023 3:0.43239862 4:0.37067115 5:0.67711014 6:0.54016507 7:0.830006 8:0.69966024 9:0.39380133 10:0.48547342 11:0.38440019 12:0.52406305 13:0.78477287 14:0.56230068 15:0.74424148 16:0.46059933 17:0.56591821 18:0.13313456 19:0.38495186 20:0.45025867 21:0.72066909 22:0.65506285 23:0.65968883 24:0.48506987 25:0.31093922 26:0.35355356 27:0.58017999 28:0.44012406 29:0.25330901 30:0.78368753 31:0.56057048 32:0.64948326 33:0.5435074 34:0.43320385 35:0.62207347 36:0.3264626 37:0.21178766 38:0.4000679 39:0.58972055 40:0.50604224 41:0.36921132 42:1 43:0.48510563 44:0.52402449 45:0.36946613 46:0.37354094 47:0.62209707 48:0.2866866 49:0.39041719 50:0.62195486 51:0.75943893 52:0.74670595 53:0.5220536 54:0.63636059 55:0.2860122 56:0.73181236 57:0.33398703 58:0.62410825 59:0.51468265 60:0.56076777 61:0.70076132 62:0.55731392 63:0.15087752 
2.211409706972367 1:0.73807245 2:0.50842994 3:0.28961593 4:0.42380109 5:0.381964 6:0.734281 7:0.63643116 8:0.43280157 9:0.77562076 10:0.43435264 11:0.44819623 12:0.28869414 13:0.21510455 14:0.51021165 15:0.37345648 16:0.36163241 17:0.4828974 18:0.61970121 19:0.55144602 20:0.48752651 21:0.28298524 22:0.44845179 23:0.21577783 24:0.33583334 25:0.46576723 26:0.30412149 27:0.6530512 28:0.43092993 29:0.49678415 30:0.71860558 31:0.28896159 32:0.27396387 33:0.78984988 34:0.26569653 35:0.51411819 36:0.60100311 37:0.65806121 38:0.38431326 39:0.66735679 40:0.29312357 41:0.55703902 42:0.12567842 43:0.41882372 44:0.47686687 45:0.13588904 46:0.20691876 47:0.542391 48:0.4379949 49:0.21946715 50:0.5856241 51:0.42568725 52:0.70037037 53:0.66758418 54:0.29132825 55:0.85339808 56:0.38052219 57:1 58:0.32209218 59:0.65984005 60:0.76762319 61:0.55432922 62:0.79604274 63:0.24398452 
1.057874430963598 1:0.45543504 2:0.41204762 3:0.47996566 4:0.62241584 5:0.45677999 6:0.45634481 7:0.36482701 8:0.68225616 9:0.40562961 10:0.36326525 11:0.32946759 12:0.33120111 13:0.34348482 14:0.53744835 15:0.44042918 16:0.66789705 17:0.48097566 18:0.35343 19:0.29022121 20:0.41487247 21:0.576612 22:0.7194531 23:0.37811658 24:0.54855245 25:0.33001941 26:0.54616821 27:0.44013217 28:0.52574331 29:0.40567139 30:0.59071219 31:0.46806499 32:0.31674397 33:0.64273494 34:0.62647104 35:0.7527492 36:0.44629529 37:0.26477328 38:0.48189792 39:0.5207057 40:0.5904308 41:0.66848814 42:0.86750764 43:0.54524773 44:0.40728608 45:0.72515267 46:0.44523075 47:0.61907029 48:0.43739653 49:0.27915514 50:0.42707932 51:0.51099902 52:0.38990924 53:0.41782108 54:0.14954478 55:0.45776054 56:0.83402377 57:0.30218506 58:0.427762 59:0.63980007 60:0.2829214 61:0.80094123 62:0.56550974 63:0.11115013 
0.4665061355427383 1:0.52186501 2:0.27199072 3:0.54995686 4:0.67312819 5:0.39463785 6:0.37768677 7:0.52075577 8:0.58565307 9:0.64424455 10:0.62881964 11:0.45598257 12:0.54517007 13:0.55509084 14:0.37501389 15:0.68861216 16:0.78626609 17:0.83690852 18:0.6633302 19:0.34785593 20:0.53409415 21:0.44018307 22:0.7001881 23:0.58345997 24:0.4127818 25:0.66540241 26:0.67993432 27:0.43040156 28:0.19238152 29:0.24914581 30:0.43013743 31:0.50412118 32:0.60763556 33:0.53635371 34:0.15737313 35:0.37373978 36:0.49457023 37:0.57704383 38:0.69762743 39:0.51703662 40:0.64089596 41:0.65905535 42:0.50122511 43:0.49918991 44:0.35972148 45:0.37936732 46:0.52015507 47:0.6439817 48:0.46101898 49:0.54542971 50:0.72548974 51:0.51849198 52:0.4699733 53:0.63651586 54:0.2902993 55:0.58831048 56:0.312015 57:0.38961852 58:0.82621509 59:0.56246847 60:0.72621632 61:0.79547811 62:0.67068267 63:0.11558337 
0.3291840938131982 1:0.54086763 2:0.52711439 3:0.40330139 4:0.71649355 5:0.84329188 6:0.58919972 7:0.57145071 8:0.60244149 9:0.82063377 10:0.56659061 11:0.57638204 12:0.58871424 13:0.73331314 14:0.39483413 15:0.38662446 16:0.60632443 17:0.55681527 18:0.47135401 19:0.30061877 20:0.74359328 21:0.53056306 22:0.49448955 23:0.47662085 24:0.39995575 25:0.30446768 26:0.50355017 27:0.46394998 28:0.33614007 29:0.24322116 30:0.56624752 31:0.36636364 32:0.44618106 33:0.64800638 34:0.47878546 35:0.16120943 36:0.5985139 37:0.38764471 38:0.54087323 39:0.3526915 40:0.40828234 41:0.44768846 42:0.4712736 43:0.49384418 44:0.46283659 45:0.43047261 46:0.38805157 47:0.56500828 48:0.61339021 49:0.54203707 50:0.44113824 51:0.35344055 52:0.48713961 53:0.33342639 54:0.32421044 55:0.4623096 56:0.74738902 57:0.10045644 58:0.36304498 59:0.68957788 60:0.48669499 61:0.70376807 62:0.54024494 63:0.090148188 
1.073547541464482 1:0.34553248 2:0.44915688 3:0.60725266 4:0.51580036 5:0.74571258 6:0.62098014 7:0.40962389 8:0.56421459 9:0.18733951 10:0.42543083 11:0.53004998 12:0.34868231 13:0.83867323 14:0.57817781 15:0.46520406 16:0.6568262 17:0.1115743 18:0.46531442 19:0.28054681 20:0.66685671 21:0.54271495 22:0.40271306 23:0.55406922 24:0.47065088 25:0.3540732 26:0.87686038 27:0.52177447 28:0.3992005 29:0.38325605 30:0.41362476 31:0.39879462 32:0.51800954 33:0.7021324 34:0.27334419 35:0.36709264 36:0.73192149 37:0.58719444 38:0.36504921 39:0.8056578 40:0.36393765 41:0.59187657 42:0.42235559 43:0.50403851 44:0.39387456 45:0.50464153 46:0.53944123 47:0.3837409 48:0.44251707 49:0.13582717 50:0.018509248 51:0.5538379 52:0.466703 53:0.50306344 54:0.45725074 55:0.49912104 56:0.3862659 57:0.31570056 58:0.75638092 59:0.68328482 60:0.30952188 61:0.85150242 62:0.56181675 63:0.12371217 
5.209232951899417 1:0.65727705 2:0.63609731 3:0.55860394 4:0.75713187 5:0.57460535 6:0.38010484 7:0.46346176 8:0.55397385 9:0.56688988 10:0.5668382 11:0.45041728 12:0.82151365 13:0.78359014 14:0.27976581 15:0.32973766 16:0.45145294 17:0.39552543 18:0.71671903 19:0.26691851 20:0.084970318 21:0.65082812 22:0.5019331 23:0.53078651 24:0.43905669 25:0.57254708 26:0.56451744 27:0.72771341 28:0.26543766 29:0.53650099 30:0.43549377 31:0.44337934 32:0.63037485 33:0.5685882 34:0.017673584 35:0.72887433 36:0.38829729 37:0.78926307 38:0.67486984 39:0.60423368 40:0.82818317 41:0.35534418 42:0.54725808 43:0.56912702 44:0.40178123 45:0.84146661 46:0.71908212 47:0.36312318 48:0.34755304 49:0.17731218 50:0.4367246 51:0.52275389 52:0.99607831 53:0.40645364 54:0.549793 55:0.59404618 56:0.19761708 57:0.33833185 58:0.43501562 59:0.77968031 60:0.34686229 61:0.58362579 62:0.58716142 63:0.13121188 
0.712567079210514 1:0.60200822 2:0.7536788 3:0.49742958 4:0.49452224 5:0.31181854 6:0.40340653 7:0.66911536 8:0.69703662 9:0.44940791 10:0.4021776 11:0.29515952 12:0.51346642 13:0.39139634 14:0.5050323 15:0.45636791 16:0.33803719 17:0.35145637 18:0.45817333 19:0.42945638 20:0.73191959 21:0.48094147 22:0.6532231 23:0.35301265 24:0.49348357 25:0.53592747 26:0.76829737 27:0.14907238 28:0.19053888 29:0.60905725 30:0.74183589 31:0.55641884 32:0.50763518 33:0.70383775 34:0.28958213 35:0.64459729 36:0.3779476 37:0.61732793 38:0.8524856 39:0.49540779 40:0.57708836 41:0.79004002 42:0.29296705 43:0.46154761 44:0.50990552 45:0.52716178 46:0.39196375 47:0.46547025 48:0.42322659 49:0.68201733 50:0.49227878 51:0.71613985 52:0.52044845 53:0.45294526 54:0.31613857 55:0.29491827 56:0.42385474 57:0.52462435 58:0.6601215 59:0.79790759 60:0.55403244 61:0.73065603 62:0.64272165 63:0.070390187 
4.769478122544625 1:0.64357388 2:0.46243438 3:0.45754007 4:0.60771888 5:0.54098463 6:0.47327775 7:0.4281089 8:0.39152989 9:0.78960288 10:0.54032826 11:0.4521777 12:0.72478533 13:0.44442946 14:0.27985793 15:0.46428487 16:0.57082659 17:0.32799202 18:0.32036477 19:0.15219633 20:0.50065708 21:0.52926475 22:0.71472538 23:0.52149755 24:0.45611131 25:0.42455375 26:0.35930982 27:0.5211181 28:0.21454716 29:0.55144733 30:0.5987134 31:0.63347769 32:0.43891144 33:0.62502146 34:0.57933629 35:0.48729017 36:0.69721872 37:0.28475353 38:0.5475713 39:0.29175347 40:0.58871555 41:0.58862472 42:0.38897899 43:0.5118975 44:0.11282453 45:0.54284436 46:0.25878018 47:0.2774913 48:0.65269703 49:0.26750261 50:0.56807297 51:0.33333677 52:0.54133612 53:0.65525788 54:0.49178365 55:0.50086093 56:0.050354052 57:0.68009812 58:0.42049077 59:0.89895248 60:0.67872465 61:0.66613305 62:0.6976195 63:0.23456918 
4.952073891828499 1:0.63700038 2:0.3442643 3:0.6117444 4:0.4500269 5:0.62050873 6:0.5139972 7:0.58980054 8:0.45095682 9:0.62236857 10:0.53325135 11:0.44273311 12:0.52491909 13:0.47523111 14:0.280081 15:0.52323729 16:0.46826318 17:0.5377807 18:0.45554176 19:0.3826437 20:0.64053565 21:0.53650409 22:0.17339642 23:0.346688 24:0.45764726 25:0.56731683 26:0.49839556 27:0.44221389 28:0.40600273 29:0.30218229 30:0.59710419 31:0.37388143 32:0.42536563 33:0.67479289 34:0.44703174 35:0.49935842 36:0.57880753 37:0.54167247 38:0.45476836 39:0.59842509 40:0.46886781 41:0.35833591 42:0.34771007 43:0.52033639 44:0.58245301 45:0.34979147 46:0.40187898 47:0.50008583 48:0.58281887 49:0.5922119 50:0.576702 51:0.41528666 52:0.34297127 53:0.41073075 54:0.25544834 55:0.34297162 56:0.633403 57:0.15272778 58:0.10020765 59:0.91337943 60:0.25213641 61:0.48239821 62:0.53770053 63:0.041671719 
1.894540143435156 1:0.51033527 2:0.59319288 3:0.29003751 4:0.1933973 5:0.7111969 6:0.82729417 7:0.68426901 8:0.50338858 9:0.72464985 10:0.46789449 11:0.29688087 12:0.51033795 13:0.71424919 14:0.51332152 15:0.64800793 16:0.51874489 17:0.77126318 18:0.49368766 19:0.53405005 20:0.68236828 21:0.56677401 22:0.65126169 23:0.54284382 24:0.49192476 25:0.46241134 26:0.4251821 27:0.39157712 28:0.50437158 29:0.61541134 30:0.57026821 31:0.58771425 32:0.32982728 33:0.61469501 34:0.2498609 35:0.51364195 36:0.52613854 37:0.46896824 38:0.78376067 39:0.81130689 40:0.6414988 41:0.56407863 42:0.38415751 43:0.62444144 44:0.31770864 45:0.27957395 46:0.53007495 47:0.24909315 48:0.41410556 49:0.25318569 50:0.87704647 51:0.54131424 52:0.38866949 53:0.55100918 54:0.4731521 55:0.67864293 56:0.79719013 57:0.24696906 58:0.61684501 59:0.65895301 60:0.34047744 61:0.6381501 62:0.53966045 63:0.053651027 
1.396623333545067 1:0.28119653 2:0.32087338 3:0.30283788 4:0.46820354 5:0.66820198 6:0.43546113 7:0.66235453 8:0.55423701 9:0.61166674 10:0.63766038 11:0.33109033 12:0.75308603 13:0.48313746 14:0.3128002 15:0.5079931 16:0.51082933 17:0.60541344 18:0.49061692 19:0.44449747 20:0.66111445 21:0.4472675 22:0.82202196 23:0.7325632 24:0.56990117 25:0.36995313 26:0.38819253 27:0.4520801 28:0.49633417 29:0.69227904 30:0.46012351 31:0.59252465 32:0.42916775 33:0.6127286 34:0.71993941 35:0.43308774 36:0.29429683 37:0.62224931 38:0.54617649 39:0.72450918 40:0.42746598 41:0.49738672 42:0.55792594 43:0.61266941 44:0.46299684 45:0.6139493 46:0.54496402 47:0.29967958 48:0.39685315 49:0.46690238 50:0.63676584 51:0.50630534 52:0.44604102 53:0.46753961 54:0.40855843 55:0.30148768 56:0.40320516 57:0.50336248 58:0.64328253 59:0.65687865 60:0.62535924 61:0.72838187 62:0.73805016 63:0.10661137 
1.710296702841054 1:0.66202021 2:0.39338779 3:0.46736628 4:0.47643486 5:0.3358705 6:0.31310201 7:0.62203693 8:0.25606412 9:0.61056942 10:0.73779917 11:0.63445276 12:0.41480482 13:0.72051078 14:0.66786778 15:0.47471213 16:0.41690123 17:0.46737775 18:0.51729161 19:0.29809496 20:0.27517965 21:0.68822348 22:0.62362915 23:0.51845008 24:0.27700335 25:0.46562016 26:0.72596461 27:0.40858859 28:0.38056555 29:0.48828632 30:0.74227881 31:0.38718072 32:0.60103166 33:0.45974928 34:0.4563109 35:0.6007821 36:0.47982883 37:0.64887238 38:0.39614818 39:0.78424507 40:0.21919329 41:0.65900964 42:0.31649479 43:0.30913132 44:0.6426388 45:0.38819456 46:0.3884491 47:0.56889302 48:0.65106779 49:0.70585591 50:0.43402052 51:0.54768872 52:0.56463826 53:0.50806254 54:0.37790966 55:0.34149298 56:0.48203227 57:0.50905734 58:0.35008299 59:0.81425297 60:0.24098584 61:0.46948457 62:0.63605446 63:0.018791528 
1.868141822014572 1:0.36791322 2:0.37644032 3:0.47141376 4:0.63761604 5:0.45075709 6:0.56532937 7:0.49873507 8:0.4066008 9:0.31485447 10:0.35258931 11:0.2735469 12:0.63371181 13:0.34481847 14:0.56019706 15:0.46318713 16:0.55491996 17:0.35518318 18:0.62990433 19:0.36118084 20:0.51127148 21:0.84397864 22:0.39886588 23:0.64699966 24:0.34228814 25:0.4301571 26:0.36653793 27:0.36019114 28:0.08812321 29:0.13576552 30:0.49966258 31:0.5858416 32:0.40001962 33:0.51686579 34:0.63441581 35:0.40001172 36:0.32864347 37:0.42608717 38:0.41787776 39:0.54857546 40:0.55452102 41:0.37767279 42:0 43:0.9361316 44:0.40184507 45:0.57810432 46:0.69863826 47:0.46613288 48:0.29793945 49:0.69669741 50:0.49311772 51:0.42242905 52:0.47512999 53:0.51042432 54:0.26381448 55:0.69188011 56:0.41210562 57:0.49973443 58:0.18364839 59:0.76459223 60:0.58969253 61:0.55352747 62:0.64815909 63:0.18796024 
6.586593150219411 1:0.57182181 2:0.5642193 3:0.45903486 4:0.66665286 5:0.24830887 6:0.50905645 7:0.72597986 8:0.7464515 9:0.43385983 10:0.54164457 11:0.58015174 12:0.63732213 13:0.42017305 14:0.52717149 15:0.57220209 16:0.34195673 17:0.6770218 18:0.38055751 19:0.27942738 20:0.57661194 21:0.20533679 22:0.84416348 23:0.27097198 24:0.50077486 25:0.47257686 26:0.38939613 27:0.60145599 28:0.1710124 29:0.28320804 30:0.36857414 31:0.47764018 32:0.27837601 33:0.83404475 34:0.46290016 35:0.29569599 36:0.51272917 37:0.47495937 38:0.42781568 39:0.63273525 40:0.5911147 41:0.48900378 42:0.55444312 43:0.31775546 44:0.55742311 45:0.60544044 46:0.45268932 47:0.74803692 48:0.35965249 49:0.2656256 50:0.94156194 51:0.5870288 52:0.4990823 53:0.43926492 54:0.16185173 55:0.24075067 56:0.68740839 57:0.24797817 58:0.38328949 59:0.75006163 60:0.40729228 61:0.6817584 62:0.5307188 63:0.095471114 
6.217462173918596 1:0.49884722 2:0.19199605 3:0.50916451 4:0.49320227 5:0.15657744 6:0.5830006 7:0.75011218 8:0.40744919 9:0.25669205 10:0.44331345 11:0.46842146 12:0.50038713 13:0.44754243 14:0.34416762 15:0.5441364 16:0.59451687 17:0.36519122 18:0.66314214 19:0.40804189 20:0.35948947 21:0.3854697 22:0.55410415 23:0.56365639 24:0.64553946 25:0.33568117 26:0.32158726 27:0.35573298 28:0.60091847 29:0.32113504 30:0.5971902 31:0.41981927 32:0.4499099 33:0.57448012 34:0.54997754 35:0.58536488 36:0.42205778 37:0.38675657 38:0.47220799 39:0.61558229 40:0.45478228 41:0.78280276 42:0.46216846 43:0.13043654 44:0.73458493 45:0.30019084 46:0.61535597 47:0.40841973 48:0.5255146 49:0.57508707 50:0.21285917 51:0.54893088 52:0.6520381 53:0.3463828 54:0.44940698 55:0.5753718 56:0.45948422 57:0.66286683 58:0.34257871 59:0.66136038 60:0.88935417 61:0.71208894 62:0.76612908 63:0.23429145 
2.428189035770103 1:0.62603652 2:0.554012 3:0.37126663 4:0.3389383 5:0.33739057 6:0.37704399 7:0.36463347 8:0.61704129 9:0.51821393 10:0.56869161 11:0.66771197 12:0.53398502 13:0.54372388 14:0.44535825 15:0.44153285 16:0.50847358 17:0.63382459 18:0.65995824 19:0.8618117 20:0.4174577 21:0.3251816 22:0.41158101 23:0.5148623 24:0.50180954 25:0.39815396 26:0.51129258 27:0.36393023 28:0.17354168 29:0.29638648 30:0.3889651 31:0.6697346 32:0.77662295 33:0.66242969 34:0.6953814 35:0.63099605 36:0.54945409 37:0.39868927 38:0.52490354 39:0.52359754 40:0.39582267 41:0.67551047 42:0.5549348 43:0.69629329 44:0.5606426 45:0.42090148 46:0.54307783 47:0.26593503 48:0.61787772 49:0.51963151 50:0.64862508 51:0.39278361 52:0.68481046 53:0.43124872 54:0.62642652 55:0.52995884 56:0.38705409 57:0.17615817 58:0.29330426 59:0.60754567 60:0.24598943 61:0.67575943 62:0.53367543 63:0.090445794 
0.7133801569355165 1:0.5607419 2:0.46922326 3:0.29712203 4:0.73110712 5:0.81719035 6:0.6616956 7:0.86244363 8:0.55574501 9:0.39014143 10:0.51860464 11:0.35978448 12:0.81417704 13:0.875054 14:0.61071551 15:0.3138991 16:0.77161956 17:0.62318176 18:0.68157995 19:0.51703113 20:0.28563619 21:0.70829487 22:0.56395054 23:0.67941213 24:0.3226496 25:0.52692008 26:0.60960132 27:0.44691509 28:0.30239087 29:0.27061605 30:0.46568653 31:0.61301982 32:0.69139534 33:0.061324351 34:0.70176661 35:0.86117882 36:0.33378831 37:0.51309377 38:0.2900193 39:0.77169979 40:0.42910436 41:0.73685181 42:0.24379596 43:0.39977127 44:0.60714084 45:0.41264328 46:0.104409 47:0.32587782 48:0.39509654 49:0.50768626 50:0.51044333 51:0.46435031 52:0.31295732 53:0.43886146 54:0.17670259 55:0.28934303 56:0.4912045 57:0.44961846 58:0.42745802 59:0.90061045 60:0.39951539 61:0.66425943 62:0.7285912 63:0.061816007 
4.478111553499672 1:0.40559131 2:0.58367455 3:0.35534745 4:0.57539254 5:0.69692242 6:0.4204562 7:0.62445283 8:0.24031742 9:0.51593548 10:0.68930638 11:0.57273161 12:0.36525083 13:0.36283287 14:0.46154624 15:0.52384752 16:0.70206898 17:0.4735305 18:0.55140442 19:0.78716385 20:0.54942065 21:0.5890699 22:0.47559872 23:0.32418466 24:0.50226986 25:0.61803269 26:0.34763452 27:0.38194236 28:0.23096561 29:0.81256711 30:0.66775322 31:0.76449364 32:0.55973619 33:0.52697128 34:0.49275246 35:0.39526629 36:0.55486405 37:0.28745294 38:0.24135256 39:0.54958445 40:0.70104593 41:0.40574229 42:0.35209706 43:0.7194109 44:0.59233147 45:0.63397837 46:0.72364837 47:0.39264041 48:0.53060824 49:0.70913643 50:0.60869312 51:0.48544019 52:0.52570736 53:0.61529613 54:0.53644973 55:0.62457812 56:0.53100508 57:0.33491275 58:0.13881071 59:0.55418038 60:0.49782178 61:0.69517058 62:0.5472061 63:0.19041276 
1.072875419447667 1:0.47337589 2:0.67146283 3:0.50314295 4:0.24764901 5:0.49632379 6:0.39164847 7:0.59822315 8:0.58715028 9:0.60042334 10:0.51694345 11:0.38803008 12:0.41505316 13:0.6492582 14:0.41777971 15:0.41431847 16:0.64246023 17:0.37901258 18:0.69892663 19:0.25056779 20:0.696302 21:0.19178838 22:0.44017613 23:0.49531007 24:0.55899 25:0.63326907 26:0.39299324 27:0.65160525 28:0.81170595 29:0.18977551 30:0.44414681 31:0.56125969 32:0.42719191 33:0.70470512 34:0.25972483 35:0.43313608 36:0.70383483 37:0.43320036 38:0.36286226 39:0.80964255 40:0.33947906 41:0.42067209 42:0.33470348 43:0.47087476 44:0.57624477 45:0.78742242 46:0.45602101 47:0.17411232 48:0.2644487 49:0.4158904 50:0.19651951 51:0.62812138 52:0.61296207 53:0.42637923 54:0.42734459 55:0.28486714 56:0.40338501 57:0.6700772 58:0.66574484 59:0.74055463 60:0.16257843 61:0.7256884 62:0.65050113 63:0.073305644 
2.945530219076561 1:0.50242436 2:0.47884431 3:0.59974355 4:0.4207789 5:0.46296769 6:0.55223536 7:0.59566832 8:0.66222143 9:0.77876717 10:0.44012076 11:0.45232734 12:0.52671516 13:0.76057088 14:0.1614335 15:0.51320785 16:0.62560916 17:0.32077995 18:0.45229343 19:0.32430258 20:0.60111654 21:0.42453411 22:0.65483922 23:0.51547498 24:0.47651017 25:0.24134292 26:0.31643629 27:0.30286431 28:0.57237577 29:0.59987199 30:1 31:0.86943877 32:0.66563475 33:0.29952934 34:0.52737439 35:0.89690357 36:0.81745446 37:0.15270253 38:0.55467153 39:0.50728345 40:0.4364478 41:0.87467766 42:0.46449006 43:0.22497496 44:0.67399549 45:0.63772553 46:0.57311851 47:0.51878953 48:0.30478373 49:0.16575631 50:0.42265347 51:0.47630066 52:0.75514162 53:0.58575958 54:0.50405139 55:0.35021138 56:0.81364638 57:0.57558709 58:0.40643567 59:0.45443934 60:0.49260747 61:0.80374354 62:0.57014191 63:0.34232268 
0.1074399802234422 1:0.59423369 2:0.74130261 3:0.60077387 4:0.67935491 5:0.2053559 6:0.75272477 7:0.58419013 8:0.70206255 9:0.48081782 10:0.61151677 11:0.7561394 12:0.40648142 13:0.65046853 14:0.31801608 15:0.54507107 16:0.43513295 17:0.56402671 18:0.25708631 19:0.37098929 20:0.23562461 21:0.48717707 22:0.73910564 23:0.37587667 24:0.45291999 25:0.60121244 26:0.31394577 27:0.48344797 28:0.35029069 29:0.27296472 30:0.46960655 31:0.43288913 32:0.50155902 33:0.46102551 34:0.34788418 35:0.57402742 36:0.60837072 37:0.76850545 38:0.37785649 39:0.51284426 40:0.46781793 41:0.39523631 42:0.52578288 43:0.7976054 44:0.36374357 45:0.24447088 46:0.50641024 47:0.36336794 48:0.50052279 49:0.26476473 50:0.40050212 51:0.32301837 52:0.5488112 53:0.52978158 54:0.27996939 55:0.2870993 56:0.63595635 57:0.42332107 58:0.49378777 59:0.38661131 60:0.5028789 61:0.91432607 62:0.5891788 63:0.13949881 
0.8522456174434747 1:0.38145357 2:0.49308723 3:0.37374246 4:0.67417037 5:0.48296046 6:0.5031262 7:0.24110174 8:0.5248881 9:0.60753089 10:0.60940969 11:0.72691947 12:0.44919434 13:0.61393374 14:0.33372584 15:0.63046837 16:0.64205354 17:0.071680106 18:0.52759796 19:0.50079519 20:0.62210184 21:0.33400124 22:0.72827727 23:0.4675118 24:0.175018 25:0.1793066 26:0.20842078 27:0.34990403 28:0.60387063 29:0.13065654 30:0.39652109 31:0.34005982 32:0.43321466 33:0.26793754 34:0.66180378 35:0.36279672 36:0.58603781 37:0.97685724 38:0.41334465 39:0.57783318 40:0.70100921 41:0.81313157 42:0.49939945 43:0.53011036 44:0.95561957 45:0.31319985 46:0.49054614 47:0.52365124 48:0.60347009 49:0.68660969 50:0.74492222 51:0.66006929 52:0.77402878 53:0.6654985 54:0.23262522 55:0.64948726 56:0.23420599 57:0.37657121 58:0.74288714 59:0.5916369 60:0.55249983 61:0.74584377 62:0.65556461 63:0.088532917 
0.0002605474712745368 1:0.43262774 2:0.60848606 3:0.50683397 4:0.57211363 5:0.60644829 6:0.33319452 7:0.59555155 8:0.3126061 9:0.48181835 10:0.48194081 11:0.41407081 12:0.49854833 13:0.56617743 14:0.14416873 15:0.60519964 16:0.54885262 17:0.70218056 18:0.39928991 19:0.33901063 20:0.2970354 21:0.30418617 22:0.92452449 23:0.41980577 24:0.6515975 25:0.60441613 26:0.51555467 27:0.41100752 28:0.46781287 29:0.17585143 30:0.50169039 31:0.35099134 32:0.70224673 33:0.41830215 34:0.60817081 35:0.1782244 36:0.66345572 37:0.54693788 38:0.6267606 39:0.53636336 40:0.54172748 41:0.74812019 42:0.20514786 43:0 44:0.53657866 45:0.61046565 46:0.76826108 47:0.6405201 48:0.54249281 49:0.54130334 50:0.35984969 51:0.5637762 52:0.88627404 53:0.63931429 54:0.30077767 55:0.67542881 56:0.73634702 57:0.58231443 58:0.29937285 59:0.57889414 60:0.57009953 61:0.68722516 62:0.64283359 63:0.25421092 
1.719694996290777 1:0.43262774 2:0.60848606 3:0.50683397 4:0.57211363 5:0.60644829 6:0.33319452 7:0.59555155 8:0.3126061 9:0.48181835 10:0.48194081 11:0.41407081 12:0.49854833 13:0.56617743 14:0.14416873 15:0.60519964 16:0.54885262 17:0.70218056 18:0.39928991 19:0.33901063 20:0.2970354 21:0.30418617 22:0.92452449 23:0.41980577 24:0.6515975 25:0.60441613 26:0.51555467 27:0.41100752 28:0.46781287 29:0.17585143 30:0.50169039 31:0.35099134 32:0.70224673 33:0.41830215 34:0.60817081 35:0.1782244 36:0.66345572 37:0.54693788 38:0.6267606 39:0.53636336 40:0.54172748 41:0.74812019 42:0.20514786 43:0 44:0.53657866 45:0.61046565 46:0.76826108 47:0.6405201 48:0.54249281 49:0.54130334 50:0.35984969 51:0.5637762 52:0.88627404 53:0.63931429 54:0.30077767 55:0.67542881 56:0.73634702 57:0.58231443 58:0.29937285 59:0.57889414 60:0.57009953 61:0.68722516 62:0.64283359 63:0.25421092 
0.0205073081594454 1:0.4353084 2:0.45444709 3:0.2724978 4:0.53893322 5:0.88053995 6:0.44435003 7:0.56870896 8:0.58161616 9:0.3920199 10:0.46867606 11:0.18591206 12:0.47369224 13:0.14832951 14:0.5540958 15:0.35435492 16:0.48759472 17:0.37297663 18:0.29221976 19:0.34245777 20:0.61011827 21:0.42531079 22:0.45015466 23:0.41877371 24:0.40138981 25:0.39735466 26:0.54550081 27:0.44761381 28:0.12475232 29:0.37558073 30:0.67940003 31:0.24121465 32:0.64792037 33:0.23721057 34:0.48336187 35:0.586914 36:0.53876698 37:0.69740438 38:0.69022048 39:0.4345881 40:0.31421667 41:0.47831354 42:0.37273824 43:0.3641541 44:0.7591297 45:0.43759835 46:0.39889577 47:0.30540636 48:0.1522897 49:0.092676312 50:0.32137266 51:0.42035702 52:0.77636409 53:0.72013938 54:0.4421764 55:0.92268664 56:0.3873584 57:0.48245463 58:0.49431846 59:0.42707527 60:0.3588804 61:0.60855573 62:0.68757522 63:0.29798004 
3.304278682234565 1:0.4353084 2:0.45444709 3:0.2724978 4:0.53893322 5:0.88053995 6:0.44435003 7:0.56870896 8:0.58161616 9:0.3920199 10:0.46867606 11:0.18591206 12:0.47369224 13:0.14832951 14:0.5540958 15:0.35435492 16:0.48759472 17:0.37297663 18:0.29221976 19:0.34245777 20:0.61011827 21:0.42531079 22:0.45015466 23:0.41877371 24:0.40138981 25:0.39735466 26:0.54550081 27:0.44761381 28:0.12475232 29:0.37558073 30:0.67940003 31:0.24121465 32:0.64792037 33:0.23721057 34:0.48336187 35:0.586914 36:0.53876698 37:0.69740438 38:0.69022048 39:0.4345881 40:0.31421667 41:0.47831354 42:0.37273824 43:0.3641541 44:0.7591297 45:0.43759835 46:0.39889577 47:0.30540636 48:0.1522897 49:0.092676312 50:0.32137266 51:0.42035702 52:0.77636409 53:0.72013938 54:0.4421764 55:0.92268664 56:0.3873584 57:0.48245463 58:0.49431846 59:0.42707527 60:0.3588804 61:0.60855573 62:0.68757522 63:0.29798004 
1.497163751781895 1:0.52927911 2:0.5395698 3:0.50305927 4:0.70639777 5:0.46758437 6:0.30874223 7:0.67595249 8:0.64093703 9:0.49489841 10:0.60122949 11:0.34622124 12:0.60356277 13:0.71211487 14:0.48549566 15:0.80362999 16:0.47871742 17:0.28311947 18:0.60398513 19:0.57588267 20:0.49093994 21:0.67650664 22:0.78750652 23:0.44112587 24:0.56098032 25:0.44338986 26:0.41548508 27:0.30127293 28:0.4305498 29:0.024623621 30:0.53607655 31:0.68803954 32:0.32932413 33:0.29799265 34:0.29212475 35:0.49686202 36:0.61471748 37:0.10160557 38:0.4932701 39:0.58321309 40:0.28132913 41:0.92519945 42:0.3438912 43:0.26845366 44:0.76076663 45:0.4418309 46:0.80077291 47:0.54633099 48:0.1654679 49:0.51092201 50:0.53277987 51:0.50917327 52:0.52742702 53:0.49246353 54:0.53037918 55:0.38141137 56:0.68665951 57:0.52115798 58:0.3548345 59:0.63734889 60:0.59702253 61:0.57977575 62:0.57322782 63:0.21240233 
0.03232398488761172 1:0.33848783 2:0.66873091 3:0.37566918 4:0.34771049 5:0.51122737 6:0.43118554 7:0.71274734 8:0.67023253 9:0.58951616 10:0.58504349 11:0.65863305 12:0.66730165 13:0.63768017 14:0.36719194 15:0.81295323 16:0.4311296 17:0.49520329 18:0.68863869 19:0.021005342 20:0.66810918 21:0.76104921 22:0.81852376 23:0.25744945 24:0.64825976 25:0.40368012 26:0.4626967 27:0.40314412 28:0.49591985 29:0.4658573 30:0.57595873 31:0.31639606 32:0.42308664 33:0.45969132 34:0.55747062 35:0.69672865 36:0.33544269 37:0.67635393 38:0.56857902 39:0.46292478 40:0.40826344 41:0.15359235 42:0.24373011 43:0.93177164 44:0.64181846 45:0.43695459 46:0.56744516 47:0.1473313 48:0.34528956 49:0.54824746 50:0.537018 51:0.54278207 52:1 53:0.62304902 54:0.65360755 55:0.17597842 56:0.51418585 57:0.80890429 58:0.44042286 59:0.37283504 60:0.16872352 61:0.88528937 62:0.45814937 63:0.23328777 
1.553494135673524 1:0.33848783 2:0.66873091 3:0.37566918 4:0.34771049 5:0.51122737 6:0.43118554 7:0.71274734 8:0.67023253 9:0.58951616 10:0.58504349 11:0.65863305 12:0.66730165 13:0.63768017 14:0.36719194 15:0.81295323 16:0.4311296 17:0.49520329 18:0.68863869 19:0.021005342 20:0.66810918 21:0.76104921 22:0.81852376 23:0.25744945 24:0.64825976 25:0.40368012 26:0.4626967 27:0.40314412 28:0.49591985 29:0.4658573 30:0.57595873 31:0.31639606 32:0.42308664 33:0.45969132 34:0.55747062 35:0.69672865 36:0.33544269 37:0.67635393 38:0.56857902 39:0.46292478 40:0.40826344 41:0.15359235 42:0.24373011 43:0.93177164 44:0.64181846 45:0.43695459 46:0.56744516 47:0.1473313 48:0.34528956 49:0.54824746 50:0.537018 51:0.54278207 52:1 53:0.62304902 54:0.65360755 55:0.17597842 56:0.51418585 57:0.80890429 58:0.44042286 59:0.37283504 60:0.16872352 61:0.88528937 62:0.45814937 63:0.23328777 
0.1113969897294045 1:0.47926611 2:0.53561693 3:0.57080406 4:0.5372178 5:0.3886632 6:0.46810806 7:0.61985064 8:0.63418299 9:0.65496314 10:0.62663686 11:0.47159979 12:0.68126065 13:0.27485633 14:0.53304881 15:0.49428087 16:0.73912436 17:0.32060137 18:0.62522465 19:0.45533726 20:0.38480592 21:0.35535753 22:0.6770069 23:0.60593992 24:0.59247798 25:0.52652419 26:0.50084424 27:0.29370558 28:0.47062638 29:0.57457578 30:0.55019188 31:0.63832766 32:0.2514374 33:0.4410426 34:0.61284846 35:0.54052305 36:0.47068787 37:0.29041916 38:0.46446291 39:0.58732092 40:0.65119094 41:0.60561901 42:0.31353936 43:0.68290222 44:0.25020719 45:0.14817646 46:0.51675975 47:0.58245432 48:0.3620415 49:0.33400556 50:0.59078008 51:0.75924397 52:0.55929232 53:0.36201283 54:0.48719653 55:0.40840766 56:0.73446763 57:0.63046694 58:0.65011549 59:0.74057382 60:0.61040086 61:0.66751623 62:0.57757926 63:0.13495822 
1.121350136896415 1:0.47926611 2:0.53561693 3:0.57080406 4:0.5372178 5:0.3886632 6:0.46810806 7:0.61985064 8:0.63418299 9:0.65496314 10:0.62663686 11:0.47159979 12:0.68126065 13:0.27485633 14:0.53304881 15:0.49428087 16:0.73912436 17:0.32060137 18:0.62522465 19:0.45533726 20:0.38480592 21:0.35535753 22:0.6770069 23:0.60593992 24:0.59247798 25:0.52652419 26:0.50084424 27:0.29370558 28:0.47062638 29:0.57457578 30:0.55019188 31:0.63832766 32:0.2514374 33:0.4410426 34:0.61284846 35:0.54052305 36:0.47068787 37:0.29041916 38:0.46446291 39:0.58732092 40:0.65119094 41:0.60561901 42:0.31353936 43:0.68290222 44:0.25020719 45:0.14817646 46:0.51675975 47:0.58245432 48:0.3620415 49:0.33400556 50:0.59078008 51:0.75924397 52:0.55929232 53:0.36201283 54:0.48719653 55:0.40840766 56:0.73446763 57:0.63046694 58:0.65011549 59:0.74057382 60:0.61040086 61:0.66751623 62:0.57757926 63:0.13495822 
0.01907441996589401 1:0.42762154 2:0.48680285 3:0.47527155 4:0.5476948 5:0.60768813 6:0.44972971 7:0.62660605 8:0.69807404 9:0.60680175 10:0.47925311 11:0.35971922 12:0.33571932 13:0.61156273 14:0.34196904 15:0.73768097 16:0.38289651 17:0.49212059 18:0.69795096 19:0.61366183 20:0.50914258 21:0.43482152 22:0.38243759 23:0.57680255 24:0.43504223 25:0.55594599 26:0.72103184 27:0.21776296 28:0.31057167 29:0.58389741 30:0.7062422 31:0.71497095 32:0.66233909 33:0.50502294 34:0.64502096 35:0.40848169 36:0.58717126 37:0.66167289 38:0.72888744 39:0.88473386 40:0.41119814 41:0.68015409 42:0.23910369 43:0.49751112 44:0.65659106 45:0.23902659 46:0.37462112 47:0.63123691 48:0.48695222 49:0.79698169 50:0.30478713 51:0.89538413 52:0.71628845 53:0.5975132 54:0.58935308 55:0.23059568 56:0.56229192 57:0.57042742 58:0.38544124 59:0.86247027 60:0.31954098 61:0.3803772 62:0.61377907 63:0.042886451 
3.652620555149529 1:0.42762154 2:0.48680285 3:0.47527155 4:0.5476948 5:0.60768813 6:0.44972971 7:0.62660605 8:0.69807404 9:0.60680175 10:0.47925311 11:0.35971922 12:0.33571932 13:0.61156273 14:0.34196904 15:0.73768097 16:0.38289651 17:0.49212059 18:0.69795096 19:0.61366183 20:0.50914258 21:0.43482152 22:0.38243759 23:0.57680255 24:0.43504223 25:0.55594599 26:0.72103184 27:0.21776296 28:0.31057167 29:0.58389741 30:0.7062422 31:0.71497095 32:0.66233909 33:0.50502294 34:0.64502096 35:0.40848169 36:0.58717126 37:0.66167289 38:0.72888744 39:0.88473386 40:0.41119814 41:0.68015409 42:0.23910369 43:0.49751112 44:0.65659106 45:0.23902659 46:0.37462112 47:0.63123691 48:0.48695222 49:0.79698169 50:0.30478713 51:0.89538413 52:0.71628845 53:0.5975132 54:0.58935308 55:0.23059568 56:0.56229192 57:0.57042742 58:0.38544124 59:0.86247027 60:0.31954098 61:0.3803772 62:0.61377907 63:0.042886451 
3.414249956085544 1:0.74966383 2:0.35443529 3:0.35682234 4:0.39362907 5:0.29785264 6:0.39479491 7:0.60229838 8:0.6749379 9:0.57850122 10:0.35163909 11:0.62133372 12:0.96914721 13:0.41243869 14:0.57839888 15:0.56463373 16:0.41611385 17:0.28382784 18:0.57510597 19:0.35397586 20:0.47817668 21:0.64084578 22:0.57889742 23:0.61891675 24:0.48162073 25:0.47656974 26:0.36925831 27:0.40305609 28:0.16508591 29:0.23959789 30:0.61322403 31:0.44212753 32:0.54347128 33:0.4208746 34:0.57953173 35:0.093243338 36:0.80068833 37:0.68849802 38:0.37269437 39:0.57058322 40:0.48650226 41:0.73964107 42:0.44622937 43:0.596856 44:0.26378471 45:0.45946905 46:0.65881681 47:0.72635752 48:0.64950854 49:0.48773232 50:0.24443361 51:0.73676068 52:0.64710116 53:0.59382325 54:0.2443137 55:0.32482669 56:0.77657497 57:0.46940234 58:0.73217797 59:0.58620858 60:0.34169182 61:0.64969391 62:0.56990784 63:0.072944157 
0.7839727173688847 1:0.63502812 2:0.55585659 3:0.69625401 4:0.5316636 5:0.53936917 6:0.50847489 7:0.62720519 8:0.36372876 9:0.5149073 10:0.44964707 11:0.48502451 12:0.49205416 13:1.607349e-16 14:0.46727058 15:0.20774083 16:0.42681393 17:0.54607701 18:0.79590529 19:0.46068993 20:0.5563128 21:0.65532619 22:0.21272989 23:0.77675825 24:0.72014999 25:0.31624985 26:0.38616732 27:0.46360719 28:0.28897691 29:0.42980799 30:0.37779042 31:0.62382078 32:0.41543227 33:0.38604847 34:0.31235769 35:0.64588922 36:0.40804371 37:0.59147382 38:0.15938459 39:0.45515344 40:0.37877664 41:0.3958585 42:0.7558378 43:0.28691372 44:0.49353701 45:0.42556754 46:0.13563137 47:0.4819645 48:0.17887418 49:0.25403228 50:0.76342052 51:0.71610254 52:0.80995315 53:0.70753229 54:0.25412968 55:0.86091906 56:0.85123539 57:0.8688792 58:0.39677957 59:0.45280302 60:0.37627605 61:0.58995622 62:0.67173827 63:0.23682842 
5.183065023529148 1:0.31254029 2:0.47596565 3:0.48684394 4:0.78553379 5:0.60295147 6:0.73069608 7:0.57276237 8:0.43252888 9:0.70313132 10:0.61851758 11:0.36577091 12:0.51253641 13:0.5902999 14:0.51486194 15:0.47121808 16:0.41061878 17:0.50893289 18:0.68219006 19:0.50220871 20:0.50082308 21:0.47560647 22:0.82349259 23:0.19631658 24:0.22522414 25:0.45066679 26:0.21151088 27:0.3509976 28:0.30763817 29:0.5463351 30:0.50405055 31:0.42067561 32:0.72303486 33:0.53510344 34:0.94244009 35:0.76831889 36:0.31166407 37:0.69914144 38:0.27547333 39:0.21153829 40:0.42831835 41:0.58228701 42:0.52470332 43:0.69440854 44:0.6141544 45:0.57051998 46:0.37734911 47:0.42487043 48:0.56304264 49:0.69692028 50:0.51626939 51:0.75694901 52:0.9233793 53:0.58243799 54:0.31229293 55:0.48257136 56:0.51658094 57:0.30914581 58:0.61266381 59:0.59389794 60:0.41943794 61:0.72354907 62:0.66177458 63:0.051307209 
0.173090507700949 1:0.59764385 2:0.33682862 3:0.34792659 4:0.61787754 5:0.47757459 6:0.14199039 7:0.55573934 8:0.59894341 9:0.52152228 10:0.73974204 11:0.11372033 12:0.53568864 13:0.71994442 14:0.13788138 15:0.39934126 16:0.43101367 17:0.6697315 18:0.70094848 19:0.56369001 20:0.42363524 21:0.68053365 22:0.53711438 23:0.65781099 24:0.44958764 25:0.50705999 26:0.35964113 27:0.35311121 28:0.59413338 29:0.48277101 30:0.45543888 31:0.73311049 32:0.48071709 33:0.5009039 34:0.43350336 35:0.51764208 36:0.65037715 37:0.6615321 38:0.31349468 39:0.50840795 40:0.39637977 41:0.5460071 42:0.49913236 43:0.58704346 44:0.77095622 45:0.67674065 46:0.50788826 47:0.43131471 48:0.36387855 49:0.37017319 50:0.55494338 51:0.64060766 52:0.61637759 53:0.74199951 54:0.40719789 55:0.16112766 56:0.57774127 57:0.27265051 58:0.86771625 59:0.49794123 60:0.28526855 61:0.78232443 62:0.63181114 63:0.13788316 
0.8173292041035971 1:0.85866523 2:0.57144195 3:0.38215753 4:0.81017041 5:0.62177825 6:0.65922815 7:0.28693452 8:0.42241475 9:0.439374 10:0.60099739 11:0.62958384 12:0.52318692 13:0.55983037 14:0.20232294 15:0.5623278 16:0.56390476 17:0.56804913 18:0.44882789 19:0.44552907 20:0.33009261 21:0.72692972 22:0.71049619 23:0.57772404 24:0.57793039 25:0.47692531 26:0.58946383 27:0.3708725 28:0.39516905 29:0.22575039 30:0.65427464 31:0.38002095 32:0.45662031 33:0.46225661 34:0.43471602 35:0.36778879 36:0.54017234 37:0.83433217 38:0.47084045 39:0.51576638 40:0.3879694 41:0.87975425 42:0.55964196 43:0.57594568 44:0.47245955 45:0.43150565 46:0.50515288 47:0.42943743 48:0.62786251 49:0.49434224 50:0.57515299 51:0.78382963 52:0.50068289 53:0.67548287 54:0.1408764 55:0.39092177 56:0.78874457 57:0.36835393 58:0.74413562 59:0.53782618 60:0.43690276 61:0.73327535 62:0.55792451 63:0.060923282 
0.02864609760512994 1:0.2303285 2:0.58577251 3:0.44078085 4:0.50745654 5:0.38353679 6:0.58935058 7:0.55058873 8:0.61939222 9:0.69555575 10:0.56869501 11:0.56267291 12:0.52756447 13:0.2742075 14:0.34456316 15:0.53684545 16:0.40090749 17:0.43379453 18:0.6099059 19:0.3945505 20:0.73472995 21:0.41495773 22:0.5329414 23:0.54734856 24:0.47940081 25:0.43923739 26:0.62382829 27:0.53461432 28:0.34260687 29:0.28980815 30:0.57275116 31:0.6111052 32:0.2998046 33:0.63263738 34:0.61418229 35:0.47308865 36:0.56410468 37:0.69263458 38:0.41544119 39:0.64786154 40:0.17624992 41:0.47341672 42:0.77628732 43:0.43897358 44:0.49662918 45:0.46544382 46:0.64914769 47:0.66459376 48:0.3464787 49:0.38280886 50:0.68537354 51:0.53179228 52:0.4432019 53:0.59642965 54:0.19357818 55:0.502231 56:0.12659825 57:0.15397073 58:0.28528282 59:0.79398715 60:0.17192931 61:0.5371756 62:0.56671745 63:0.052550945 
5.336169323760267 1:0.2303285 2:0.58577251 3:0.44078085 4:0.50745654 5:0.38353679 6:0.58935058 7:0.55058873 8:0.61939222 9:0.69555575 10:0.56869501 11:0.56267291 12:0.52756447 13:0.2742075 14:0.34456316 15:0.53684545 16:0.40090749 17:0.43379453 18:0.6099059 19:0.3945505 20:0.73472995 21:0.41495773 22:0.5329414 23:0.54734856 24:0.47940081 25:0.43923739 26:0.62382829 27:0.53461432 28:0.34260687 29:0.28980815 30:0.57275116 31:0.6111052 32:0.2998046 33:0.63263738 34:0.61418229 35:0.47308865 36:0.56410468 37:0.69263458 38:0.41544119 39:0.64786154 40:0.17624992 41:0.47341672 42:0.77628732 43:0.43897358 44:0.49662918 45:0.46544382 46:0.64914769 47:0.66459376 48:0.3464787 49:0.38280886 50:0.68537354 51:0.53179228 52:0.4432019 53:0.59642965 54:0.19357818 55:0.502231 56:0.12659825 57:0.15397073 58:0.28528282 59:0.79398715 60:0.17192931 61:0.5371756 62:0.56671745 63:0.052550945 
0.02332251322220316 1:0.47867516 2:0.59070462 3:0.39831236 4:0.46606281 5:0.37245753 6:0.47844231 7:0.44032559 8:0.38785869 9:0.55184901 10:0.45366409 11:0.0057712053 12:0.59984994 13:0.52068281 14:0.36058 15:0.64703643 16:0.54086822 17:0.81598818 18:0.47907862 19:0.43430156 20:0.69030529 21:0.62440652 22:0.42920095 23:0.63186866 24:0.46539974 25:0.55288291 26:0.86441052 27:0.63023019 28:0.43335804 29:0.66888785 30:0.4275218 31:0.53996807 32:0.19485027 33:0.36892465 34:0.50673646 35:0.18263696 36:0.65109342 37:0.52528757 38:0.36192742 39:0.30311435 40:0.32815072 41:0.64197797 42:0.75368208 43:0.9861986 44:0.61549073 45:0.70697904 46:0.27933067 47:0.39826089 48:0.43181214 49:0.54232627 50:0.34284928 51:0.76060444 52:0.73322999 53:0.46873558 54:0.35669991 55:0.43650818 56:0.3038969 57:0.69149488 58:0.36201227 59:0.79869694 60:0.74485707 61:0.73279643 62:0.79523528 63:0.20801108 
4.690729752013818 1:0.47867516 2:0.59070462 3:0.39831236 4:0.46606281 5:0.37245753 6:0.47844231 7:0.44032559 8:0.38785869 9:0.55184901 10:0.45366409 11:0.0057712053 12:0.59984994 13:0.52068281 14:0.36058 15:0.64703643 16:0.54086822 17:0.81598818 18:0.47907862 19:0.43430156 20:0.69030529 21:0.62440652 22:0.42920095 23:0.63186866 24:0.46539974 25:0.55288291 26:0.86441052 27:0.63023019 28:0.43335804 29:0.66888785 30:0.4275218 31:0.53996807 32:0.19485027 33:0.36892465 34:0.50673646 35:0.18263696 36:0.65109342 37:0.52528757 38:0.36192742 39:0.30311435 40:0.32815072 41:0.64197797 42:0.75368208 43:0.9861986 44:0.61549073 45:0.70697904 46:0.27933067 47:0.39826089 48:0.43181214 49:0.54232627 50:0.34284928 51:0.76060444 52:0.73322999 53:0.46873558 54:0.35669991 55:0.43650818 56:0.3038969 57:0.69149488 58:0.36201227 59:0.79869694 60:0.74485707 61:0.73279643 62:0.79523528 63:0.20801108 
0.0470574566488646 1:0.46979406 2:0.42475095 3:0.40000379 4:0.60367531 5:0.20651157 6:0.58394456 7:0.67611098 8:0.62294781 9:0.6049031 10:0.6749813 11:0.40876639 12:0.22073121 13:0.55924112 14:0.33792636 15:0.45857069 16:0.61580139 17:0.76618016 18:0.55501789 19:0.63208121 20:0.47494692 21:0.63623798 22:0.76596826 23:0.3481102 24:0.33518499 25:0.45558354 26:0.54093337 27:0.71732873 28:0.4266769 29:0.363392 30:0.4240697 31:0.5025484 32:0.34945628 33:0.48368603 34:0.60294932 35:0.53712982 36:0.53041637 37:0.45843726 38:0.59756023 39:0.495453 40:0.13630731 41:0.54595107 42:0.96770519 43:0.74131554 44:0.52692056 45:0.44349706 46:0.69096029 47:0.37092379 48:0.28749156 49:0.47681859 50:0.68631822 51:0.58752322 52:0.26504353 53:0.48884159 54:0.47218582 55:0.42761928 56:0.71739858 57:0.85852283 58:0.64331561 59:0.71302301 60:0.42761916 61:0.52487659 62:0.64880502 63:0.097112887 
1.674172713970826 1:0.46979406 2:0.42475095 3:0.40000379 4:0.60367531 5:0.20651157 6:0.58394456 7:0.67611098 8:0.62294781 9:0.6049031 10:0.6749813 11:0.40876639 12:0.22073121 13:0.55924112 14:0.33792636 15:0.45857069 16:0.61580139 17:0.76618016 18:0.55501789 19:0.63208121 20:0.47494692 21:0.63623798 22:0.76596826 23:0.3481102 24:0.33518499 25:0.45558354 26:0.54093337 27:0.71732873 28:0.4266769 29:0.363392 30:0.4240697 31:0.5025484 32:0.34945628 33:0.48368603 34:0.60294932 35:0.53712982 36:0.53041637 37:0.45843726 38:0.59756023 39:0.495453 40:0.13630731 41:0.54595107 42:0.96770519 43:0.74131554 44:0.52692056 45:0.44349706 46:0.69096029 47:0.37092379 48:0.28749156 49:0.47681859 50:0.68631822 51:0.58752322 52:0.26504353 53:0.48884159 54:0.47218582 55:0.42761928 56:0.71739858 57:0.85852283 58:0.64331561 59:0.71302301 60:0.42761916 61:0.52487659 62:0.64880502 63:0.097112887 
0.08550422748482249 1:0.59562552 2:0.304115 3:0.30367586 4:0.6813283 5:0.24135236 6:0.46952671 7:0.81492788 8:0.58967429 9:0.59315073 10:0.43101236 11:0.59833932 12:0.56585455 13:0.63630521 14:0.4041191 15:0.67667538 16:0.37696475 17:0.47985271 18:0.56001621 19:0.78926796 20:0.52699208 21:0.63472199 22:0.53010017 23:0.29973274 24:0.41596797 25:0.78639287 26:0.43349034 27:0.52101934 28:0.18734621 29:0.62538856 30:0.43150675 31:0.22344603 32:0.65695512 33:0.54890716 34:0.44242322 35:0.71561086 36:0.57441944 37:0.080594234 38:0.50711852 39:0.74100506 40:0.44838244 41:0.42107785 42:0.40626448 43:0.42972013 44:0.60678327 45:0.51784378 46:0.73978376 47:0.40720031 48:0.27743199 49:0.52028751 50:0.21251999 51:0.56743658 52:0.32706925 53:0.67521125 54:0.18650816 55:0.2054098 56:0.36873391 57:0.54880959 58:0.76881528 59:0.71870536 60:0.36393675 61:0.64408034 62:0.64319175 63:0.10673203 
0.8108133537178586 1:0.59562552 2:0.304115 3:0.30367586 4:0.6813283 5:0.24135236 6:0.46952671 7:0.81492788 8:0.58967429 9:0.59315073 10:0.43101236 11:0.59833932 12:0.56585455 13:0.63630521 14:0.4041191 15:0.67667538 16:0.37696475 17:0.47985271 18:0.56001621 19:0.78926796 20:0.52699208 21:0.63472199 22:0.53010017 23:0.29973274 24:0.41596797 25:0.78639287 26:0.43349034 27:0.52101934 28:0.18734621 29:0.62538856 30:0.43150675 31:0.22344603 32:0.65695512 33:0.54890716 34:0.44242322 35:0.71561086 36:0.57441944 37:0.080594234 38:0.50711852 39:0.74100506 40:0.44838244 41:0.42107785 42:0.40626448 43:0.42972013 44:0.60678327 45:0.51784378 46:0.73978376 47:0.40720031 48:0.27743199 49:0.52028751 50:0.21251999 51:0.56743658 52:0.32706925 53:0.67521125 54:0.18650816 55:0.2054098 56:0.36873391 57:0.54880959 58:0.76881528 59:0.71870536 60:0.36393675 61:0.64408034 62:0.64319175 63:0.10673203 
5.325339714981267 1:0.52929723 2:0.27296141 3:0.27137682 4:0.59995216 5:0.48489502 6:0.57812864 7:0.48781312 8:0.51378143 9:0.77324367 10:0.63839555 11:0.27097306 12:0.3457177 13:0.75075096 14:0.45892027 15:0.47980699 16:0.56350315 17:0.36577949 18:0.44447333 19:0.66969007 20:0.56850207 21:0.42070445 22:0.65116036 23:0.60200781 24:0.5080263 25:0.41532552 26:0.66985357 27:0.18702631 28:0.35332009 29:0.4264898 30:0.44408026 31:0.52560121 32:0.53994834 33:0.81946623 34:0.54981071 35:0.43629834 36:0.44263744 37:0.44811785 38:0.74069095 39:0.50572205 40:0.42875108 41:0.54626089 42:0.82006931 43:0.66795856 44:0.57395715 45:0.56605846 46:0.41397053 47:0.20743847 48:0.32572764 49:0.42787573 50:0.68586522 51:0.65410018 52:0.4639543 53:0.46136066 54:0.53907084 55:0.36977586 56:0.6312449 57:0.84220666 58:0.69920045 59:0.71142721 60:0.52929604 61:0.52641517 62:0.67102712 63:0.10269642 
0.04410959803750326 1:0.48777124 2:0.39865896 3:0.45906994 4:0.60364825 5:0.48087427 6:0.40915224 7:0.60950214 8:0.4582575 9:0.48424557 10:0.45063204 11:0.54758424 12:0.40070635 13:0.24241637 14:0.50640142 15:0.82950747 16:0.4740161 17:0.50598353 18:0.61513466 19:0.55392987 20:0.40281785 21:0.40538362 22:0.37698936 23:0.69080848 24:0.27487171 25:0.72171247 26:5.5597834e-16 27:0.76016665 28:0.43272698 29:0.33050945 30:0.60307264 31:0.83269584 32:0.90946513 33:0.6229409 34:0.60554397 35:0.28091633 36:0.51268482 37:0.72900957 38:0.63464254 39:0.58404821 40:0.3117587 41:0.43403789 42:0.40762988 43:0.69562423 44:0.61739409 45:0.67185265 46:0.42311352 47:0.63138497 48:0.58452702 49:0.37591571 50:0.23543812 51:0.63726401 52:0.35691485 53:0.48998824 54:0.54286188 55:0.42569345 56:0.92128223 57:0.57826167 58:0.87259609 59:0.64850074 60:0.34760118 61:0.68887126 62:0.63195586 63:0.11097542 
0.06351444538883835 1:0.48777124 2:0.39865896 3:0.45906994 4:0.60364825 5:0.48087427 6:0.40915224 7:0.60950214 8:0.4582575 9:0.48424557 10:0.45063204 11:0.54758424 12:0.40070635 13:0.24241637 14:0.50640142 15:0.82950747 16:0.4740161 17:0.50598353 18:0.61513466 19:0.55392987 20:0.40281785 21:0.40538362 22:0.37698936 23:0.69080848 24:0.27487171 25:0.72171247 26:5.5597834e-16 27:0.76016665 28:0.43272698 29:0.33050945 30:0.60307264 31:0.83269584 32:0.90946513 33:0.6229409 34:0.60554397 35:0.28091633 36:0.51268482 37:0.72900957 38:0.63464254 39:0.58404821 40:0.3117587 41:0.43403789 42:0.40762988 43:0.69562423 44:0.61739409 45:0.67185265 46:0.42311352 47:0.63138497 48:0.58452702 49:0.37591571 50:0.23543812 51:0.63726401 52:0.35691485 53:0.48998824 54:0.54286188 55:0.42569345 56:0.92128223 57:0.57826167 58:0.87259609 59:0.64850074 60:0.34760118 61:0.68887126 62:0.63195586 63:0.11097542 
0.01783364035023828 1:0.55483371 2:0.50860536 3:0.38588431 4:0.4500249 5:0.30564526 6:0.39936286 7:0.73492354 8:0.73924845 9:0.65428865 10:0.49749449 11:0.31848982 12:0.41133666 13:0.21473913 14:0.44623786 15:0.34047458 16:0.56784338 17:0.70432878 18:0.70062447 19:0.32198587 20:0.28993785 21:0.76125914 22:0.67560744 23:0.40928543 24:0.20017762 25:0.18153696 26:0.44940323 27:0.43423954 28:0.63838041 29:0.70475286 30:0.41948196 31:0.3325136 32:0.47304219 33:0.54669207 34:0.48711458 35:0.43097791 36:0.94507843 37:0.55927265 38:0.60671085 39:0.53452861 40:0.17125636 41:0.67253315 42:0.40457621 43:0.76559132 44:0.68958783 45:0.15327708 46:0.30659807 47:0.76882517 48:0.042249195 49:0.82029301 50:0.43515733 51:0.15149203 52:0.56017482 53:0.8275727 54:0.51491946 55:0.35709327 56:0.70609003 57:0.4532336 58:0.81356001 59:0.94811052 60:0.39170223 61:0.66262805 62:0.16303486 63:0.4097468 
5.383786978515498 1:0.55483371 2:0.50860536 3:0.38588431 4:0.4500249 5:0.30564526 6:0.39936286 7:0.73492354 8:0.73924845 9:0.65428865 10:0.49749449 11:0.31848982 12:0.41133666 13:0.21473913 14:0.44623786 15:0.34047458 16:0.56784338 17:0.70432878 18:0.70062447 19:0.32198587 20:0.28993785 21:0.76125914 22:0.67560744 23:0.40928543 24:0.20017762 25:0.18153696 26:0.44940323 27:0.43423954 28:0.63838041 29:0.70475286 30:0.41948196 31:0.3325136 32:0.47304219 33:0.54669207 34:0.48711458 35:0.43097791 36:0.94507843 37:0.55927265 38:0.60671085 39:0.53452861 40:0.17125636 41:0.67253315 42:0.40457621 43:0.76559132 44:0.68958783 45:0.15327708 46:0.30659807 47:0.76882517 48:0.042249195 49:0.82029301 50:0.43515733 51:0.15149203 52:0.56017482 53:0.8275727 54:0.51491946 55:0.35709327 56:0.70609003 57:0.4532336 58:0.81356001 59:0.94811052 60:0.39170223 61:0.66262805 62:0.16303486 63:0.4097468 
3.438933476241872 1:0.33726925 2:0.51793098 3:0.28621489 4:0.57166833 5:0.75993693 6:0.44534644 7:0.55079412 8:0.3020601 9:0.38605297 10:0.49693236 11:0.54655194 12:0.2041997 13:0.3344804 14:0.52681386 15:0.40859139 16:0.4261685 17:0.87774783 18:0.63267589 19:0.29208681 20:0.36019439 21:0.62818146 22:0.51337957 23:0.56651771 24:0.55035359 25:0.52686292 26:0.4907074 27:0.3672424 28:0.6062336 29:0.30000582 30:0.64211571 31:0.2100383 32:0.49669501 33:0.29351419 34:0.52751678 35:0.41533992 36:0.87839144 37:0.345651 38:0.65420574 39:0.35563836 40:0.93322414 41:0.58806974 42:0.64830256 43:0.64482838 44:0.6823951 45:0.32051623 46:0.16480012 47:0.63040471 48:0.2682839 49:0.68564051 50:0.49369597 51:6.6466834e-17 52:0.45235926 53:0.71103483 54:0.67789388 55:0.14507613 56:0.5288623 57:0.57163227 58:0.63610286 59:0.85965812 60:0.10263397 61:0.60074461 62:0.32638606 63:0.23601358 
5.283078108279718 1:0.63086212 2:0.58552462 3:0.3105897 4:0.58360231 5:0.65623593 6:0.59206629 7:0.99922144 8:0.18947396 9:0.46419355 10:0.54245681 11:0.59672934 12:0.71208072 13:0.60157162 14:0.30400184 15:0.57861084 16:0.55601662 17:0.026300199 18:0.42857796 19:0.35515666 20:0.40427533 21:0.53023356 22:0.50447065 23:0.63609123 24:0.29661873 25:0.39916492 26:0.25094667 27:0.23967378 28:0.36471224 29:0.76775271 30:0.27198827 31:0.54643971 32:0.55352354 33:0.80734527 34:0.55136353 35:0.45878014 36:0.91505039 37:0.60458648 38:0.42721266 39:0.52822518 40:0.42878613 41:0.53104413 42:0.69187325 43:0.35518858 44:0.68436086 45:0.39229053 46:0.79757738 47:0.69411176 48:0.18678012 49:0.67138767 50:0.7185424 51:0.26496747 52:0.51494324 53:0.58769494 54:0.48418537 55:0.48240557 56:0.8999151 57:0.35892454 58:0.63437724 59:1 60:0.70255917 61:0.6575017 62:0.21179001 63:0.41805881 
-3.384932064993386 1:0.076465867 2:0.027758747 3:0.52491403 4:0.47844568 5:0.4281671 6:0.34816054 7:0.65259075 8:0.018901128 9:0.67014915 10:0.49615133 11:0.58768409 12:0.52645892 13:0.68782455 14:0.42791814 15:0.33720696 16:0.34721357 17:0.53422141 18:0.60108876 19:0.47865888 20:0.6559478 21:0.63916266 22:0.48182836 23:0.73874611 24:0.39253026 25:0.55499113 26:0.553734 27:0.54535437 28:0.20260957 29:0.18732135 30:0.57765961 31:0.64764297 32:0.60980821 33:0.55854726 34:0.49976748 35:0.66344523 36:0.77838349 37:0.37389907 38:0.92837662 39:0.58735436 40:0.46417642 41:0.83329809 42:0.38050023 43:0.45745197 44:0.8071897 45:0.71342075 46:0.48525172 47:0.35191837 48:0.28084043 49:0.28495958 50:0.74595797 51:0.71673638 52:0.82871795 53:0.32889846 54:0.46501136 55:0.32514355 56:0.40715453 57:0.21657792 58:0.37709078 59:0.73727161 60:0.45689908 61:0.68588603 62:0.21336664 63:0.56899178 
-1.43112788714648 1:0.39762488 2:0.30321774 3:0.45275459 4:0.76831537 5:0.76994276 6:0.27708945 7:0.57892823 8:0.71800274 9:0.67380714 10:0.52909493 11:0.53558528 12:0.56308204 13:0.38784733 14:0.32083333 15:0.50533342 16:0.3767859 17:0.66848379 18:0.530505 19:0.15573436 20:0.53385574 21:0.66235238 22:0.52973688 23:0.26427284 24:0.40071058 25:0.26807612 26:0.44687083 27:0.46966383 28:0.13471714 29:0.69684565 30:0.47235593 31:0.41166317 32:0.553002 33:0.55181766 34:0.43936184 35:0.39045438 36:0.34077311 37:0.34872249 38:0.32619604 39:0.74682152 40:0.75807595 41:0.54152626 42:0.54298419 43:0.67796713 44:0.75818527 45:0.50795174 46:0.6229282 47:0.39402947 48:0.17211804 49:0.49878794 50:0.3378371 51:0.51353794 52:0.68917423 53:0.49226493 54:0.38255417 55:0.16784257 56:0.75834411 57:0.4724572 58:0.30707526 59:0.47072405 60:0.57255602 61:0.28649408 62:0.46679217 63:0.30501801 
-5.614972783593196 1:0.51211756 2:0.33048278 3:0.44369954 4:0.40761515 5:1 6:0.4775224 7:0.79045951 8:0.5183723 9:0.54395813 10:0.64176309 11:0.33206221 12:0.60592771 13:0.51652014 14:0.39381829 15:0.53120399 16:0.691275 17:0.59547347 18:0.38488188 19:0.53528404 20:0.41385901 21:0.54680759 22:0.75996172 23:0.31068134 24:0.56482798 25:0.46887076 26:0.39869854 27:0.37737733 28:0.39664739 29:0.47869632 30:0.62248975 31:0.63002235 32:0.38798076 33:0.50275564 34:0.58025956 35:0.34625757 36:0.38502046 37:0.6630013 38:0.27207074 39:0.36595446 40:0.67043245 41:0.78474057 42:0.64893925 43:0.32632127 44:0.43257496 45:0.60273105 46:0.58710861 47:0.18087135 48:0.43181458 49:0.26500455 50:0.70247287 51:0.54055142 52:0.63265353 53:0.59432364 54:0.44247681 55:0.38418633 56:0.36425388 57:0.6243968 58:0.74337888 59:0.61623764 60:0.22071873 61:0.31055894 62:0.56179589 63:0.19475095 
-0.6871014359615124 1:0.59663481 2:0.6474551 3:0.50020027 4:0.23968071 5:0.58342862 6:0.55599254 7:0.5066511 8:0.65772235 9:0.6691286 10:0.39642107 11:0.61590451 12:0.38562453 13:0.64919108 14:0.46484512 15:0.57823575 16:0.38244289 17:0.74535078 18:0.59277993 19:0.44849652 20:0.36648595 21:0.50278002 22:0.60285759 23:0.69468933 24:0.44892377 25:0.34892762 26:0.45992175 27:0.2946195 28:0.12257575 29:0.29805148 30:0.48520175 31:0.49100441 32:0.45374298 33:0.67662448 34:0.31478673 35:0.28983578 36:0.75994259 37:0.42107746 38:0.36533996 39:0.83337605 40:0.4005788 41:0.62228626 42:0.65083814 43:0.48933399 44:0.46147308 45:0.38982433 46:0.57783419 47:0.44645604 48:0.37921515 49:0.51585209 50:0.23726964 51:0.58830261 52:0.69460523 53:0.61565089 54:0.5025509 55:0.086129501 56:0.65555614 57:0.23687583 58:0.43890515 59:0.35339934 60:0.75337106 61:0.34450552 62:0.50756902 63:0.24631433 
-2.950018422763241 1:0.65007788 2:0.46245825 3:0.51719195 4:0.51234621 5:0.51683182 6:0.56014991 7:0.62055653 8:0.69562614 9:0.63578749 10:0.44461468 11:0.079200372 12:0.36487937 13:0.48754448 14:0.36054978 15:0.61724681 16:0.43111652 17:0.53842473 18:0.48842329 19:0.62822717 20:0.56211811 21:0.36331472 22:0.60678995 23:0.58587962 24:0.32372135 25:0.56374657 26:0.67137432 27:0.12206999 28:0.35559538 29:0.39426598 30:0.54272717 31:0.47620246 32:0.35027033 33:0.62954742 34:0.38936141 35:0.43917245 36:0.61794543 37:0.53034383 38:0.40358829 39:0.66944247 40:0.62066281 41:0.70149201 42:0.3296234 43:0.69991463 44:0.60533124 45:0.6629923 46:0.58068085 47:0.59639943 48:0.48654047 49:0.54455417 50:0.3439914 51:0.33349577 52:0.68633151 53:0.52289116 54:0.58649892 55:0.39348981 56:0.69767565 57:0.2682445 58:0.38093308 59:0.42755362 60:0.49747315 61:0.33556408 62:0.54875797 63:0.2782903 
-2.755159131493964 1:0.66966265 2:0.5235979 3:0.27284053 4:0.42029366 5:0.29695249 6:0.63280112 7:0.4775404 8:0.26410592 9:0.52594644 10:0.63604027 11:0.45066023 12:0.57104707 13:0.68988889 14:0.42848822 15:0.78699642 16:0.32175404 17:0.60608655 18:0.42634225 19:0.53501862 20:0.66842735 21:0.45401523 22:0.76465631 23:0.59775674 24:0.58933502 25:0.44270158 26:0.6360836 27:0.69587278 28:0.64556062 29:0.44538832 30:0.516559 31:0.54474914 32:0.57197219 33:0.63186747 34:0.84795207 35:0.69823396 36:0.47941607 37:0.79009497 38:0.87272811 39:0.54074734 40:0.38698342 41:0.63071996 42:0.76133192 43:0.62601233 44:0.57693583 45:0.21564996 46:0.57456493 47:0.65334398 48:0.5976572 49:0.53494275 50:0.40307066 51:0.48684707 52:0.52536279 53:0.41032991 54:0.35854447 55:0.69793224 56:0.72121322 57:0.56436121 58:0.39954156 59:0.66108352 60:0.67564762 61:0.22388496 62:0.64384317 63:0.26144984 
-0.663941587534256 1:0.10420249 2:0.23748142 3:0.4921135 4:0.41019666 5:0.55086923 6:0.55445886 7:0.62870646 8:0.33209777 9:0.45576218 10:0.34100547 11:0.12129577 12:0.14641584 13:0.56754702 14:0.32057148 15:0.55666244 16:0.27020541 17:0.52308458 18:0.44808498 19:0.32827771 20:0.60730296 21:0.064824112 22:0.22271593 23:0.24826281 24:0.34217593 25:0.28461042 26:0.57977372 27:0.73062694 28:0.086515583 29:0.33998311 30:0.54068732 31:0.55068129 32:0.4919759 33:0.38967875 34:0.47328171 35:0.2644428 36:0.61436564 37:0.23420829 38:0.62638623 39:0.35297853 40:0.18792562 41:0.69405204 42:0.28049004 43:0.47480935 44:0.56487244 45:0.38031718 46:0.40709993 47:0.48845348 48:0.90688986 49:0.47852126 50:0.57713866 51:0.58845907 52:0.56364167 53:0.34303129 54:0.61072159 55:0.56958789 56:0.85074598 57:0.49396479 58:0.66310424 59:0.35009161 60:0.65416008 61:0.49828532 62:0.50446427 63:0.38229337 
-6.236981129609067 1:0.37931812 2:0.5660615 3:0.39102471 4:0.62149936 5:0.42618328 6:0.4738405 7:0.63754082 8:0.43489516 9:0.41579863 10:0.48370662 11:0.13195905 12:0.24782266 13:0.68729967 14:0.52108657 15:0.72931689 16:0.2613962 17:0.74061239 18:0.51766497 19:0.46377063 20:0.71829432 21:0.52166021 22:0.6311512 23:0.55985951 24:0.56598365 25:0.29330957 26:0.46032009 27:0.54293376 28:0.43975991 29:0.73187464 30:0.43022636 31:0.67362118 32:0.3958306 33:0.26857394 34:0.4888458 35:0.37092417 36:0.66173053 37:0.36879063 38:0.58660012 39:0.62683839 40:0.46110439 41:0.47325495 42:0.3832868 43:0.4082275 44:0.53185934 45:0.44711864 46:0.503905 47:0.50674105 48:0.59135878 49:0.38432592 50:0.44068733 51:0.50951552 52:0.44443512 53:0.32122159 54:0.45169389 55:0.50440562 56:0.85648942 57:0.19215268 58:0.57881492 59:0.50932449 60:0.68388867 61:0.40855008 62:0.56396282 63:0.23851405 
-7.219817607011245 1:0.49628377 2:0.41146737 3:0.44032064 4:0.49010146 5:0.40120849 6:0.62751365 7:0.59438539 8:0.51189101 9:0.76735228 10:0.38320428 11:0.63471174 12:0.41515595 13:0.51965153 14:0.31287572 15:0.36599648 16:0.45908368 17:0.23171401 18:0.51899582 19:0.30723321 20:0.59473693 21:0.4290984 22:0.73548329 23:0.40002468 24:0.54484713 25:0.55511588 26:0.67906767 27:0.44495371 28:0.34248438 29:0.44010347 30:0.69751048 31:0.47010413 32:0.457113 33:0.45919997 34:0.50129229 35:0.68248379 36:0.56599581 37:0.46952409 38:0.50845391 39:0.64001089 40:0.51446605 41:0.50013238 42:0.5460791 43:0.56946737 44:0.58399814 45:0.45556304 46:0.28304717 47:0.58477521 48:0.32966864 49:0.60860473 50:0.3296175 51:0.43346798 52:0.49542192 53:0.48826361 54:0.22208786 55:0.33131269 56:0.50774294 57:0.47696602 58:0.44425735 59:0.56700081 60:0.67924488 61:0.27527982 62:0.66381705 63:0.22815537 
-1.497382670139417 1:0.48375487 2:0.13529867 3:0.16002658 4:0.56069398 5:0.33921364 6:0.76287663 7:0.86689097 8:0.26861572 9:0.48807958 10:0.51328886 11:0.79552525 12:0.46026528 13:0.11700096 14:0.20998916 15:0.78425974 16:0.41514817 17:0.39769271 18:0.44948211 19:0.41223809 20:0.53475153 21:0.57559222 22:0.77647346 23:0.62728244 24:0.69895464 25:0.2140224 26:0.46686214 27:0.52404016 28:0.55442762 29:0.39096451 30:0.6916151 31:0.54828382 32:0.44971019 33:0.42797998 34:0.099125572 35:0.50521725 36:0.48807183 37:0.70499557 38:0.42943293 39:0.74933666 40:0.43864721 41:0.48292318 42:0.65884691 43:0.59740579 44:0.33462891 45:0.44161361 46:0.46875048 47:0.23111825 48:0.3397457 49:0.48350078 50:0.26536816 51:0.66632843 52:0.68321055 53:0.63056213 54:0.30318108 55:0.76492065 56:0.5674293 57:0.088838384 58:0.627855 59:0.58519411 60:0.076958045 61:0.15302612 62:0.44175482 63:0.13392635 
-3.407071320899713 1:0.37232357 2:0.37302062 3:0.61956465 4:0.63071191 5:0.18476082 6:0.53326339 7:0.79027104 8:0.45301592 9:0.6268127 10:0.57008904 11:0.65108281 12:0.71331155 13:0.32359567 14:0.61553425 15:0.46098572 16:0.72783917 17:0.37064925 18:0.4675096 19:0.64602429 20:0 21:0.56476682 22:0.73724753 23:0.61231118 24:0.28512186 25:0.22516379 26:0.6253888 27:0.54602736 28:0.45428094 29:0.4928318 30:0.67593181 31:0.57813245 32:0.41456938 33:0.40442464 34:0.44440353 35:0.41956848 36:0.67426056 37:0.41205227 38:0.49572289 39:0.8118552 40:0.51386046 41:0.51473933 42:0.47848755 43:0.48595974 44:0.34822336 45:0.39348501 46:0.47088555 47:0.45940411 48:0.47534651 49:0.17164323 50:0.22311167 51:0.73105145 52:0.81482035 53:0.5902794 54:0.23969164 55:0.52370304 56:0.47381824 57:0.3362048 58:0.48619637 59:0.62473053 60:0.25768164 61:0.18677062 62:0.42707482 63:0.1712641 
-0.02990235267979947 1:0.31986648 2:0.51826459 3:0.47935048 4:0.63115519 5:0.4258253 6:0.10981803 7:0.61475569 8:0.40164301 9:0.57260978 10:0.55642235 11:0.65606922 12:0.56476134 13:0.72048295 14:0.45110822 15:0.2752544 16:0.58630937 17:0.55441546 18:0.63875777 19:0.45083472 20:0.69685388 21:0.44014442 22:0.68486643 23:0.40404212 24:0.60842764 25:0.60366273 26:0.14835134 27:0.33207569 28:0.027886121 29:0.31496394 30:0.50954074 31:0.34412223 32:0.52549255 33:0.60824615 34:0.60300177 35:0.23245068 36:0.98777366 37:0.40052176 38:0.48568037 39:0.73638546 40:0.50324547 41:0.71208835 42:0.72764963 43:0.58461833 44:0.76922375 45:0.0025016461 46:0.35729378 47:0.34252596 48:0.41219172 49:0.27876979 50:0.27928296 51:0.75772351 52:0.68692636 53:0.39209285 54:0.53263402 55:0.63690609 56:0.29615241 57:0.37301141 58:0.62948078 59:0.88688588 60:0.36268234 61:0.14904283 62:0.45100731 63:0.2030303 
-0.7889784324228114 1:0.14372179 2:0.35175532 3:0.51670319 4:0.64357841 5:0 6:0.41107729 7:0.72222888 8:0.54110354 9:0.71802282 10:0.38924149 11:0.31901345 12:0.63364762 13:0.50460386 14:0.5131427 15:0.54643393 16:0.57782298 17:0.37369329 18:0.67498875 19:0.53376651 20:0.35573998 21:0.4975183 22:0.90426767 23:0.50262451 24:0.36713439 25:0.38659081 26:0.5945884 27:0.53874797 28:0.29508153 29:0.38307154 30:0.37589902 31:0.50300032 32:0.37291601 33:0.6816166 34:0.42385766 35:0.40420064 36:0.79611826 37:0.61692679 38:0.60879594 39:0.69511157 40:0.55437481 41:0.44209 42:0.60862404 43:0.50322533 44:0.39708769 45:0.35849559 46:0.44770297 47:0.35059634 48:0.40549687 49:0.54923934 50:0.21965714 51:0.61878878 52:0.81806231 53:0.46326527 54:0.41337284 55:1 56:0.38423625 57:0.034514442 58:0.65968937 59:0.80302173 60:0.097048447 61:0.19445254 62:0.54321295 63:0.17714483 
-9.865278628099933 1:0.44951728 2:0.39247885 3:0.43562469 4:0.37858576 5:0.63042772 6:0.45768559 7:0.73934251 8:0.43665969 9:0.62376446 10:0.51238382 11:0.56982559 12:0.78385895 13:0.59203905 14:0.56915259 15:0.61545843 16:0.52865285 17:0.44708741 18:0.74827105 19:0.3392987 20:0.5247879 21:0.6571359 22:0.50340396 23:0.4196167 24:0.50061548 25:0.5669173 26:0.4523949 27:0.60236019 28:0.51721573 29:0.33730787 30:0.52280402 31:0.48359564 32:0.45521948 33:0.64856547 34:0.39380884 35:0.53805083 36:0.55603802 37:0.57372653 38:0.33629239 39:0.67066002 40:0.62529469 41:0.37334639 42:0.61787564 43:0.73676151 44:0.71184355 45:0.50533056 46:0.57434416 47:0.45803982 48:0.50737059 49:0.53749692 50:0.57927728 51:0.50943893 52:0.56458765 53:0.54605061 54:0.28154674 55:0.37978286 56:0.470644 57:0.43112797 58:0.32270333 59:0.59157151 60:0.68963504 61:0.2346843 62:0.57120532 63:0.17021786 
-0.04765008151278194 1:0.62713158 2:0.25033876 3:0.41310987 4:0.70204765 5:0.34003127 6:0.48994687 7:0.50844276 8:0.23814143 9:0.53691441 10:0.50099313 11:0.67180634 12:0.29755163 13:0.48034114 14:0.64235377 15:0.44023412 16:0.5843761 17:0.42062807 18:0.55260211 19:0.21484804 20:0.54945964 21:0.60469443 22:0.75707048 23:0.55017841 24:0.52943999 25:0.4835701 26:0.59387738 27:0.37125602 28:0.34551772 29:0.6036219 30:0.39750928 31:0.68606842 32:0.76547474 33:0.61135167 34:0.3865636 35:0.38243544 36:0.31503725 37:0.48711342 38:0.42746133 39:0.56976128 40:0.43590659 41:0.73903418 42:0.61643308 43:0.45066792 44:0.62432235 45:0.61666656 46:0.45974392 47:0.36271518 48:0.20750368 49:0.43987551 50:0.64284861 51:0.42588133 52:0.55031335 53:0.44733521 54:0.5002079 55:0.38880858 56:0.60850906 57:0.37713912 58:0.31186634 59:0.58544672 60:0.83706766 61:0.26904559 62:0.50979912 63:0.26956391 
-0.1607717220008339 1:0.80325025 2:0.32629701 3:0.46194616 4:0.51538134 5:0.53379053 6:0.22009972 7:0.54945719 8:0.50317132 9:0.5034315 10:0.61506504 11:0.27579474 12:0.20829587 13:0.64802593 14:0.25350958 15:0.30019352 16:0.47482181 17:0.24561398 18:0.43876648 19:0.18894556 20:0.6553064 21:0.39627185 22:0.811207 23:0.37963775 24:0.33454984 25:0.54626441 26:0.67162424 27:0.37810975 28:0.19199191 29:0.26629746 30:0.73836112 31:0.45623022 32:0.5485248 33:0.58581913 34:0.4530184 35:0.76101321 36:0.69435734 37:0.57817477 38:0.56384772 39:0.44202313 40:0.47502217 41:0.70572907 42:0.6754775 43:0.44648144 44:0.51473051 45:0.62463248 46:0.23384927 47:0.13130385 48:0.37912172 49:0.32683849 50:0.52369142 51:0.60735637 52:0.61665022 53:0.37441137 54:0.24868478 55:0.23078078 56:0.30058017 57:0.40184328 58:0.64258701 59:0.66677946 60:0.47942147 61:0.39773333 62:0.49303004 63:0.19415283 
-0.2989518049867701 1:0.74958485 2:0.5205248 3:1 4:0.75739288 5:0.54712802 6:0.2998217 7:0.47258309 8:0.55736935 9:0.57351071 10:0.78089112 11:0.60681409 12:0.64284259 13:0.66596317 14:0.42772588 15:0.55634421 16:0.46577752 17:0.59248602 18:0.55064058 19:0.73102123 20:0.59707552 21:0.61813974 22:0.16110352 23:0.76839143 24:0.30993441 25:0.27246231 26:0.39923209 27:0.37163123 28:0.60628188 29:0.46541092 30:0.6520111 31:0.54400796 32:0.4557164 33:0.83238208 34:0.73624104 35:0.55283391 36:0.22889037 37:0.43791279 38:0.97358251 39:0.62619013 40:0.43552437 41:0.34344417 42:0.49840543 43:0.73377281 44:0.3704401 45:0.20087908 46:0.11133365 47:0.76659656 48:0.35235301 49:0.41419616 50:0.42190361 51:0.54057646 52:0.6605804 53:0.73015499 54:6.0321054e-16 55:0.54871362 56:0.58932257 57:0.80295992 58:0.23222333 59:0.081982583 60:0.46416831 61:0.58554399 62:0.39601704 63:0.47433808 
-4.755845208818099 1:0.54755104 2:0.62135941 3:0.57295895 4:0.78719819 5:0.71418577 6:0.446863 7:0.69925058 8:0.72132409 9:0.50869864 10:0.41318378 11:0.32946289 12:0.31633011 13:0.25067338 14:0.31570956 15:0.64154559 16:0.51143378 17:0.57708651 18:0.43717942 19:0.73604637 20:0.70971394 21:0.61232597 22:0.49400046 23:0.41381669 24:0.31062007 25:0.40210384 26:0.41597039 27:0.37033549 28:0.41718885 29:0.41191879 30:0.52273184 31:0.31331295 32:0.67971408 33:0.62537837 34:0.62006623 35:0.4477852 36:0.50172663 37:0.56815058 38:0.59515375 39:0.54844522 40:0.50765705 41:0.65329134 42:0.50782561 43:0.65296751 44:0.43390164 45:0.49370575 46:0.48839423 47:0.51988918 48:0.43438044 49:0.69476318 50:0.72467685 51:0.62420523 52:0.6047166 53:0.42865676 54:0.29100353 55:0.65754622 56:0.51209766 57:0.42414102 58:0.55696023 59:0.76987296 60:0.4978863 61:0.038246822 62:0.52986932 63:0.12792192 
-0.6616710772426575 1:0.80057389 2:0.65033782 3:0.2982645 4:0.74993825 5:0.87508315 6:0.42960778 7:0.91466999 8:0.48334917 9:0.52508205 10:0.28840238 11:0.5178991 12:0.29958189 13:0.39717573 14:0.38882458 15:0.42130569 16:0.57509208 17:0.68878889 18:0.43276566 19:0.6259169 20:0.44732684 21:1 22:0.52917981 23:0.57983905 24:0.56499302 25:0.44094393 26:0.35826355 27:0.38794228 28:0.26662782 29:0.33322009 30:0.22845761 31:0.52362072 32:0.2413661 33:0.94409007 34:0.66284579 35:0.59305233 36:0.3516365 37:0.74850249 38:0.83508027 39:0.59168273 40:5.8381359e-16 41:0.54785329 42:0.2909936 43:0.56739259 44:0.68381172 45:0.61214513 46:0.2893607 47:0.63857305 48:0.3859027 49:0.41891506 50:0.26154044 51:0.61674041 52:0.48098263 53:0.40793145 54:0.25105071 55:0.51091236 56:0 57:0.37157607 58:0.44855121 59:9.6680506e-17 60:0 61:0.7037797 62:0.37757617 63:0.36196467 
-2.272702588991672 1:0.51439595 2:0.47486913 3:0.50158477 4:0.26793119 5:0.55799979 6:0.50168365 7:0.60485244 8:0.62262195 9:0.38232017 10:0.5221656 11:0.090046264 12:0.59258759 13:0.62816346 14:0.34949809 15:0.7920869 16:0.48703936 17:0.40718621 18:0.4812209 19:0.40419927 20:0.34233263 21:0.40513426 22:0.6767301 23:0.35820207 24:0.41473752 25:0.83438033 26:0.55269569 27:0.13032739 28:0.34280747 29:0.13297123 30:0.39559343 31:0.4272874 32:0.40410191 33:0.7625308 34:0.79656941 35:0.607485 36:0.19973442 37:0.68543476 38:0.45731115 39:0.41423288 40:0.39805871 41:0.75620759 42:0.55041617 43:0.72749203 44:0.45996916 45:0.49193022 46:0.30483264 47:0.30034927 48:0.31445926 49:0.21618718 50:0.24694765 51:0.38831794 52:0.544177 53:0.42418641 54:0.26665708 55:0.73073202 56:0.38459447 57:0.45846003 58:0.50512433 59:0.74323672 60:0.41332704 61:0.32969293 62:0.61847204 63:0.16237865 
-2.33131731931819 1:0.42995152 2:0.57879353 3:0.2107233 4:0.75949192 5:0.31355959 6:0.38275838 7:0.2553255 8:0.58166897 9:0.63505888 10:0.32982388 11:0.57325721 12:0.63222414 13:0.72981513 14:0.63659132 15:0.33667743 16:0.62493753 17:0.42774463 18:0.49803203 19:0.5964902 20:0.5218569 21:0.15890448 22:0.50093091 23:0.51932639 24:0.11821184 25:0.24945052 26:0.5789749 27:0.38176158 28:0.48059794 29:0.4357172 30:0.57744163 31:0.37486586 32:0.71691567 33:0.67595804 34:0.35406622 35:0.6459589 36:0.81470394 37:0.52816898 38:0.67483014 39:0.67968667 40:0.31028444 41:0.3500447 42:0.54865623 43:0.51047045 44:0.16148947 45:0.16338995 46:0 47:0.44716597 48:0.2770569 49:0.17948675 50:0.69620436 51:0.64214277 52:0.83122092 53:0.69188052 54:0.034965254 55:0.89096588 56:0.86908853 57:0.90024352 58:0.18677305 59:0.53939223 60:0.72099352 61:0.15499057 62:0.62400848 63:0.41289586 
-7.433609926349431 1:0.78333801 2:0.53316867 3:0.53756219 4:0.55561519 5:0.47370857 6:0.39508039 7:0.36749098 8:0.79225111 9:0.52717495 10:0.5972299 11:0.46838501 12:0.33121291 13:0.55105138 14:0.49111 15:0.32763389 16:0.57222104 17:0.61017638 18:0.47614178 19:0.27212471 20:0.43700072 21:0.76352453 22:0.43261456 23:0.44911781 24:0.30026704 25:0.98123616 26:0.27739149 27:0.53244078 28:0.37279204 29:0.43160635 30:0.4614065 31:0.48168454 32:0.42712495 33:0.6563549 34:0.41490349 35:0.53079718 36:0.72135651 37:0.79085726 38:0.45158514 39:0.23570339 40:0.30874643 41:0.76231897 42:0.69919461 43:0.13283816 44:0.77129179 45:0.61869484 46:0.43409443 47:0.53221476 48:0.69175261 49:0.23411213 50:0.67171609 51:0.53424925 52:0.46774906 53:0.39394262 54:0.67082894 55:0.24848284 56:0.060017519 57:0.49620956 58:0.62243092 59:0.67071658 60:0.3742907 61:0.37116563 62:0.69388574 63:0.17116557 
-0.9798552561263855 1:0.51441902 2:0.67865467 3:0.12373853 4:0.68191588 5:0.52054793 6:0.46589175 7:0.51106757 8:0.18158457 9:0.5278911 10:0.29999298 11:0.26536992 12:0.63135743 13:0.37703803 14:0.37538159 15:0.42574167 16:0.57943141 17:0.47940299 18:0.58599645 19:0.58232188 20:0.28403592 21:0.61906594 22:0.5985319 23:0.42682749 24:0.56257588 25:0.28854305 26:0.41355115 27:0.529163 28:0.44202265 29:0.89175189 30:0.58031774 31:0.26297599 32:0.53465557 33:0.51219821 34:0.38015595 35:0.66490847 36:0.46913505 37:0.35181469 38:0.46277738 39:0.80677539 40:0.59980607 41:0.31368181 42:0.76669192 43:0.4353101 44:0.44084364 45:0.15906878 46:0.54733223 47:0.24110547 48:0.63090926 49:0.54677558 50:0.28452432 51:0.62075776 52:0.84615397 53:0.38339758 54:0.27863407 55:0.72533476 56:0.46607056 57:0.21781929 58:0.65652692 59:0.59931964 60:0.19028959 61:0.1804253 62:0.446628 63:0.16519526 
-0.3889737922394428 1:0.48617321 2:0.66822511 3:0.70357329 4:0.30588511 5:0.22271575 6:0.62863696 7:0.55981082 8:0.48240739 9:0.58887482 10:0.39140537 11:0.17224711 12:0.65741783 13:0.75602251 14:0.38982588 15:0.22890106 16:0.42897335 17:0.42870134 18:0.50246751 19:0.55189782 20:0.43655249 21:0.47280806 22:0.65362686 23:0.2344926 24:0.52049285 25:0.44957688 26:0.30213034 27:0.37513918 28:0.28312609 29:0.27592185 30:0.48334238 31:0.31948587 32:0.40662041 33:0.10682879 34:0.51479203 35:0.58924538 36:0.2274773 37:0.6781522 38:0.58344084 39:0.53065538 40:0.45687664 41:0.70730817 42:0.46629542 43:0.63888955 44:0.75429052 45:0.42310834 46:0.056540005 47:0.48738682 48:0.53522927 49:0.43702862 50:0.26692432 51:0.47588691 52:0.31660569 53:0.4277325 54:0.43370327 55:0.52679014 56:0.56984478 57:0.57851934 58:0.58483261 59:0.80127496 60:0.41155726 61:0.18010609 62:0.69269085 63:0.1758147 
-2.103977420277114 1:0.78324825 2:0.70151979 3:0.35650963 4:0.40123737 5:0.57554168 6:0.37927496 7:0.52820969 8:0.67904693 9:0.47040725 10:0.53261131 11:0.36644626 12:0.62583917 13:0.38359147 14:0.40375191 15:0.31765598 16:0.58681899 17:0.68578756 18:0.50850981 19:0.55814993 20:0.46797177 21:0.75356877 22:0.67965698 23:0.51781189 24:4.3814791e-16 25:0.53244793 26:0.57359976 27:0.29575899 28:0.65443301 29:0.34608036 30:0.56556702 31:0.46001807 32:0.26435477 33:0.64621133 34:0.40027499 35:0.35764048 36:0.59411412 37:0.58644974 38:0.17852455 39:0.56222677 40:0.34514472 41:0.67676198 42:0.60977548 43:0.40170467 44:0.5492053 45:0.74309558 46:0.61891258 47:0.15449972 48:0.41062322 49:0.56359553 50:0.71079969 51:0.55795223 52:0.94797134 53:0.42344829 54:0.46543318 55:0.24412084 56:0.16741854 57:0.28739688 58:0.61360204 59:0.63286203 60:0.4404844 61:0.33051527 62:0.55671275 63:0.12947582 
-0.6903279940213085 1:0.52027941 2:0.60452592 3:0.45556545 4:0.6569581 5:0.66723621 6:0.44705567 7:0.60184723 8:0.71751088 9:0.53233063 10:0.76892251 11:0.49734479 12:0.27963805 13:0.40656561 14:0.53733987 15:0.49995095 16:0.68863487 17:0.6057297 18:0.30202061 19:0.28599846 20:0.5493449 21:0.57572067 22:0.68877286 23:0.50778824 24:0.29449674 25:0.25889358 26:0.51723671 27:0.57740104 28:0.38764459 29:0.63046104 30:0.52013314 31:0.30079067 32:0.34076306 33:0.52909887 34:0.83303106 35:0.48761922 36:0.60787946 37:0.31635654 38:0.30646443 39:0.63311327 40:0.48642212 41:0.75168532 42:0.48047513 43:0.34777427 44:0.18694726 45:0.61381608 46:0.73075873 47:0.35458896 48:0.30077484 49:0.42929929 50:0.74250096 51:0.52163106 52:0.70613045 53:0.40002799 54:0.37386903 55:0.22230034 56:0.31266728 57:0.40351665 58:0.54745024 59:0.69180983 60:0.39002919 61:0.19740349 62:0.45479524 63:0.14394645 
-0.1827683478185865 1:0.49898526 2:0.73556858 3:0.098014921 4:0.52219623 5:0.11515329 6:0.46036437 7:0.86294854 8:0.53878677 9:0.44336703 10:0.58604735 11:0.73312068 12:0.49901775 13:0.5130372 14:0.39023614 15:0.3525236 16:0.69300872 17:0.40020078 18:0.45699224 19:0.34113488 20:0.35388669 21:0.67592859 22:0.60109407 23:0.35624596 24:0.14344756 25:0.38397005 26:0.31954375 27:0.63279414 28:0.55925208 29:0.010746301 30:0.69036263 31:0.64947879 32:0.52811563 33:0.52487713 34:0.28380361 35:0.60457379 36:0.26963851 37:0.37363833 38:0.3481189 39:0.14892875 40:0.6541208 41:3.0104803e-16 42:0.36157125 43:0.33687872 44:0.88052148 45:0.42070809 46:0.22485706 47:0.35525095 48:0.71324366 49:0.4740634 50:0.56348073 51:0.47439733 52:0.68265736 53:0.34406379 54:0.45380834 55:0.32144588 56:0.53797287 57:0.22760068 58:0.77030993 59:0.53039032 60:0.49171019 61:0.53793412 62:0.48656771 63:0.2996186 
-2.219864789763375 1:0.6744296 2:0.43772316 3:0.20338929 4:0.67109245 5:0.19129416 6:0.30379948 7:0.45933414 8:0.2553539 9:0.55076241 10:0.59811407 11:0.64293551 12:0.73925495 13:0.49414587 14:0.59666586 15:0.45397198 16:0.53372252 17:0.55604959 18:0.42178488 19:0.26735052 20:0.3286587 21:0.39151004 22:0.58712721 23:0.61403185 24:0.43825012 25:0.26098475 26:0.52234989 27:0.010954239 28:0.37314802 29:0.39620936 30:0.57657123 31:0.58558947 32:0.59551686 33:0.69371694 34:0.7550413 35:0.33156919 36:0.31097466 37:0.43033272 38:0.70104152 39:0.86814964 40:0.67207217 41:0.59910077 42:0.67152548 43:0.53893358 44:0.81598514 45:0.3757695 46:0.43700469 47:0.11734543 48:0.51432252 49:0.57044733 50:0.85212928 51:0.46002436 52:0.49794173 53:0.69612652 54:0.22621043 55:0.44946399 56:0.4193821 57:0.82618791 58:0.7086761 59:0.60060769 60:0.33239985 61:0.43836787 62:0.35435593 63:0.37372231 
-2.294447910292083 1:0.52855688 2:0.43422958 3:0.68744469 4:0.51514792 5:0.39749157 6:0.40380004 7:0.53765613 8:0.44411168 9:0.57040823 10:0.61134297 11:0.32998475 12:0.66126114 13:0.4291569 14:0.24758725 15:0.70474637 16:0.40555626 17:0.52721524 18:0.3746483 19:0.31318143 20:0.45811439 21:0.35076842 22:0.66609424 23:0.37212533 24:0.47220767 25:0.28949937 26:0.45349428 27:0.28177893 28:0.52665806 29:0.82200462 30:0.52602565 31:0.66584361 32:0.55578262 33:0.48081398 34:0.57103008 35:0.57969874 36:0.5637151 37:0.24835669 38:0.43640026 39:0.54263848 40:0.5294348 41:0.3543635 42:0.4207117 43:0.29738507 44:0.29939565 45:0.54867077 46:0.27789682 47:0.12474656 48:0.4808872 49:0.86551505 50:0.68047374 51:0.2965211 52:0.484631 53:0.53057194 54:0.26036808 55:0.69351691 56:0.78167599 57:0.31109422 58:0.5862729 59:0.58776796 60:0.52813649 61:0.65367758 62:0.31296456 63:0.39847493 
-2.21503897157481 1:0.54321516 2:0.33730727 3:0.42563632 4:0.80960137 5:0.65528369 6:0.41329971 7:0.64894086 8:0.66278982 9:0.45067796 10:0.39076006 11:0.54168272 12:0.23161651 13:0.61768299 14:0.288239 15:0.21479656 16:0.30221 17:0.35497722 18:0.4219653 19:0.52704436 20:0.29200327 21:0.25100517 22:0.72199351 23:0.4744246 24:0.46926999 25:0.37712234 26:0.43181843 27:0.074944846 28:0.31730554 29:0.74789882 30:0.64138174 31:0.61476767 32:0.24807782 33:0.87789541 34:0.96972436 35:0.82984751 36:0.63236678 37:0.68197978 38:0.42187938 39:0.3822211 40:0.3080954 41:0.64239079 42:0.39027128 43:0.22936997 44:0.25943491 45:0.77980173 46:0.71301264 47:0.33994368 48:0.65820521 49:0.92381561 50:0.63949519 51:0.60945535 52:0.4860585 53:0.67564124 54:0.45147994 55:0.61275601 56:0.6278742 57:0.43749332 58:0.49998918 59:0.50165635 60:0.32536671 61:0.89819455 62:0.12870681 63:0.52038962 
-1.297357645573618 1:0.61687839 2:0.53809196 3:0.24449906 4:0.6146639 5:0.32276592 6:0.58062178 7:0.53155577 8:0.62037975 9:0.6402688 10:0.72876018 11:0.37916186 12:0.71521115 13:0.20150451 14:0.76875758 15:0.87777144 16:0.47415668 17:0.50653321 18:0.64867806 19:0.21303335 20:0.57977158 21:0.32168975 22:0.64472783 23:0.49462649 24:0.54790354 25:0.39401844 26:0.49530047 27:0.097246721 28:0.43251672 29:0.52193099 30:9.5208528e-17 31:0.838687 32:0.51303524 33:0.58355534 34:0.56291193 35:0.62749505 36:0.46538189 37:0.31079841 38:0.52763969 39:0.54849845 40:0.5424307 41:0.32980239 42:0.41457975 43:0.1079926 44:0.39296106 45:0.48755234 46:0.23124197 47:0.42880666 48:0.69135469 49:0.60097533 50:0.39155179 51:0.4437097 52:0.62686813 53:0.48869491 54:0.44582036 55:0.85032475 56:0.63077927 57:0.71351898 58:0.54819852 59:0.67693704 60:0.15378445 61:0.61397713 62:0.30735251 63:0.44216415 
-0.511708340491001 1:0.45195153 2:0.76155019 3:0.48332512 4:0.62325466 5:0.15383905 6:0.24730444 7:0.89674193 8:0.50774556 9:0.48903832 10:0.55232155 11:0.55649257 12:0.41528365 13:0.62866002 14:0.30256194 15:0.48550215 16:0.45284995 17:0.5676474 18:0.53281695 19:0.14961493 20:0.62965703 21:0.36647519 22:0.43844482 23:0.43605572 24:0.1246588 25:0.53678745 26:0.65709108 27:0.36633489 28:0.4004446 29:0.46810183 30:0.57881093 31:0.29725355 32:0.47415885 33:0.34798664 34:0.53975517 35:0.18478546 36:0.37573931 37:0.52975523 38:0.25462157 39:0.35400692 40:0.59202856 41:0.70371318 42:0.63304752 43:0.36805782 44:0.36394387 45:0.25919217 46:0.61617315 47:0.43907171 48:0.61219418 49:0 50:0.21865946 51:0.97179353 52:0.045115151 53:1 54:0.67726624 55:0.38054422 56:0.50491601 57:0.34075215 58:0.3726446 59:0.83820075 60:0.64493716 61:0.78144503 62:0.16520517 63:0.51883984 
-0.3713166716349762 1:0.53922659 2:0.21419969 3:0.48357815 4:0.33181733 5:0.41642386 6:0.41986182 7:0.74016756 8:0.55314773 9:0.62994337 10:0.44547442 11:0.67093372 12:0.34244391 13:1 14:0.12206446 15:0.5751276 16:0.39874634 17:0.47334549 18:0.90085179 19:0.44138381 20:0.69155079 21:0.64264071 22:0.59500718 23:0.51149315 24:0.37516832 25:0.39901388 26:0.64383566 27:0.19346297 28:0.52314967 29:0.51099777 30:0.45681143 31:0.26658952 32:0.23437226 33:0.43986401 34:0.55193055 35:0.51203018 36:0.49567533 37:0.64833641 38:0.13458873 39:0.24769644 40:0.56957519 41:0.65909272 42:0.81997502 43:0.65290505 44:0.75346792 45:0.09781345 46:0.64897698 47:0.35194635 48:0.76068509 49:0.048717681 50:0.23058669 51:1 52:0.13454382 53:0.93190074 54:0.58086115 55:0.58261132 56:0.50799662 57:0.21765478 58:0.26636299 59:0.76391423 60:0.51725608 61:0.72041273 62:0.19312209 63:0.47003782 
-0.5257856090995736 1:0.38111097 2:0.16636495 3:0.61674547 4:0.7105974 5:0.23137783 6:0.33520007 7:0.38897663 8:0.76999366 9:0.41736102 10:0.5667724 11:0.20805332 12:0.40507865 13:0.13492227 14:0.30466846 15:0.67606747 16:0.32462147 17:0.86038333 18:0.51515162 19:0.71541351 20:0.53108382 21:0.56628364 22:0.83988672 23:0.67001146 24:0.8211261 25:0.50062668 26:0.4165003 27:0.58378965 28:0.52489161 29:0.71512204 30:0.55172056 31:0.15081722 32:0.30956769 33:0.51531345 34:0.72325832 35:0.22748119 36:0.62742585 37:0.43274871 38:0.28506544 39:0.80745393 40:0.81614798 41:0.3840901 42:0.30626619 43:0.25253791 44:0.64504296 45:0.35191151 46:0.013027021 47:0.51169848 48:0.66460198 49:0.48873273 50:0.52465266 51:0.41130123 52:0.65867752 53:0.57327485 54:0.59368789 55:0.52560258 56:0.046516046 57:0.32006496 58:0.45118213 59:0.88294858 60:0.38997647 61:0.70872289 62:0.21916844 63:0.47423336 
-2.412612881799929 1:0.29189441 2:0.76437944 3:0.8946979 4:0.42762688 5:0.29976758 6:0.53711313 7:0.66442007 8:0.53847688 9:0.49076331 10:0.57792819 11:0.15077582 12:0.71623862 13:0.58677232 14:0.27441135 15:0.56332076 16:0.5771814 17:0.49679455 18:0.30226696 19:0.72446257 20:0.233942 21:0.90487331 22:0.66182983 23:0.1773614 24:1 25:0.45726871 26:0.38397476 27:0.13015676 28:0.3144159 29:0.26846135 30:0.48446655 31:0.3591679 32:0.5417971 33:0.85973138 34:0.64819485 35:0.61535072 36:0.72253263 37:0.71165842 38:0.60763544 39:0.64205331 40:0.59544188 41:0.41247132 42:0.4408789 43:0.79217613 44:0.74521405 45:0.34217477 46:0.14190802 47:0.62465149 48:0.070318647 49:0.65355474 50:0.42553276 51:0.56228554 52:0.75610727 53:0.29541886 54:0.61584496 55:0.42328477 56:0.42584461 57:0.36956227 58:0.60795134 59:0.79188472 60:0.45337477 61:0.62991196 62:0.16342044 63:0.4326303 
-0.5643483471575789 1:0.5008955 2:4.5923278e-16 3:0.43833518 4:0.51942223 5:0.25509015 6:0.75194591 7:0.054455385 8:0.36745194 9:2.4685245e-16 10:0.34552762 11:0.1620194 12:0.24761254 13:0.872724 14:0.72845292 15:0.46120566 16:0.54760665 17:0.92149413 18:0.61665243 19:0.38031691 20:0.52539879 21:0.51889533 22:0.69064271 23:0.41244584 24:0.54150444 25:0.23544201 26:0.17805493 27:0.041436728 28:0.37203282 29:1 30:0.53311431 31:0.71447861 32:0.14022447 33:0.69153398 34:0.15027981 35:0.37818709 36:0.43564609 37:0.55717278 38:0.53429085 39:0.44761029 40:0.51759738 41:0.30529734 42:0.28370303 43:0.40652597 44:0.81010109 45:0.1962503 46:0.45272243 47:0.86973828 48:0.64092326 49:0.0012700874 50:0.48523644 51:0.40281504 52:0.74843091 53:0.28140298 54:0.35098913 55:0.36495033 56:0.43746847 57:0.78841823 58:0.72500587 59:0.77756351 60:0.3241303 61:0.65667266 62:0.13086799 63:0.49932215 
-2.384521154586733 1:0.66155404 2:0.55112332 3:0.48244789 4:0.37717783 5:0.34093603 6:0.77341825 7:0.320443 8:0.38393089 9:0.60610861 10:0.56954306 11:0.3776446 12:0.42348373 13:0.42162743 14:0.38021022 15:0.38110906 16:0.48069513 17:0.64549512 18:0.63328153 19:0.24007963 20:0.48152244 21:0.67519736 22:0.71547067 23:0.36853522 24:0.46643034 25:1 26:0.27748764 27:0.71257913 28:0.18476649 29:0.34133345 30:0.70023519 31:0.99930704 32:0.57538801 33:0.55610204 34:0.23234765 35:0.65992093 36:0.61028081 37:0.69260222 38:0.29924068 39:0.59257811 40:0.29718941 41:0.76194018 42:0.36645263 43:0.51525605 44:0.43208015 45:0.66712618 46:0.29818586 47:0.72076243 48:0.22240035 49:0.72840625 50:0.78948003 51:0.52607995 52:0.71926826 53:0.30351883 54:0.31048086 55:0.52035075 56:0.42620528 57:0.54843342 58:0.61446613 59:0.92580539 60:0.60147387 61:0.71052468 62:0.24653848 63:0.4944759 
-3.50549700743029 1:0.42658314 2:0.40790853 3:0.39044344 4:0.92994618 5:0.4898591 6:0.60845584 7:0.68680602 8:1 9:0.45846018 10:0.74538291 11:0.52716184 12:0.88148952 13:0.50273585 14:0.63479364 15:0.44542426 16:0.50256515 17:0.35253119 18:0.39155692 19:0.34653601 20:0.37540501 21:0.21250221 22:0.87992197 23:0.25734201 24:0.70140624 25:0.37755793 26:0.47073519 27:0.30050269 28:0.37190041 29:0.66383463 30:0.76705408 31:0.61179334 32:0.62247145 33:0.71620655 34:0.45010319 35:0.19512382 36:0.38041207 37:0.79406327 38:0.80395257 39:0.34749156 40:0.34877542 41:0.62757444 42:0.51184434 43:0.69555795 44:0.28786927 45:0.52683276 46:0.59012657 47:0.65233862 48:0.58161128 49:0.67485195 50:3.6701358e-16 51:0.3478846 52:0.69161654 53:0.46356064 54:0.51334077 55:0.79751664 56:0.59629089 57:0.38424996 58:0.40885589 59:0.81119639 60:0.54167408 61:0.71714723 62:0.24523453 63:0.48362473 
-3.527151406831716 1:0.55760098 2:0.68804425 3:0.19451858 4:0.57926577 5:0.29383612 6:0.27706993 7:0.62075061 8:0.55688 9:1 10:0.37583899 11:0.10214928 12:0.45620036 13:0.79339224 14:0.37791371 15:0.7521556 16:0.67420852 17:0.37163332 18:0.52642334 19:0.23776296 20:0.64217186 21:0.50760645 22:0.33066529 23:0.68005496 24:0.33780575 25:0.20231847 26:0.31350958 27:0.61248106 28:0.13620137 29:0.39148197 30:0.71063793 31:0.63494295 32:0.20372686 33:0.60402656 34:0.5181374 35:0.74704218 36:0.52260894 37:0.76389438 38:0.35263985 39:0.36242321 40:0.51906902 41:0.52237183 42:0.23561078 43:0.79722655 44:0.47839886 45:0.39278182 46:0.42626122 47:0.50824338 48:0.60286343 49:0.36847714 50:0.7685867 51:0.43801737 52:0.37060386 53:0.38975284 54:0.51353627 55:0.51979244 56:0.47276023 57:0.56250679 58:0.53003782 59:0.79396451 60:0.4153128 61:0.73290485 62:0.21623249 63:0.59566754 
-2.726106804332247 1:0.29309276 2:0.49595398 3:0.34742722 4:0.66457611 5:0.29781899 6:0.63118917 7:0.6278652 8:0.78625029 9:0.24583317 10:0.60903484 11:0.031310815 12:0.48151633 13:0.29359022 14:0.46244365 15:0.19115205 16:0.32572645 17:0.39920539 18:0.32396257 19:0.59501088 20:0.2128673 21:0.49449185 22:0.606327 23:0 24:0.55019009 25:0.31419879 26:0.83923781 27:0.42091143 28:0.089531459 29:0.47946963 30:0.4358319 31:0.8426556 32:1 33:0.53210294 34:0.7395376 35:0.12504056 36:0.79879034 37:0.55527669 38:0.2749154 39:0.47077182 40:0.43005744 41:0.29640749 42:0.62838852 43:0.37618539 44:0.886419 45:0.48382032 46:0.6324569 47:0.35054842 48:0.39060122 49:0.31473574 50:0.37749654 51:0.68072718 52:0.34302387 53:0.73115897 54:0.46790326 55:0.22377497 56:0.43199438 57:0.4666056 58:0.57963401 59:0.74723387 60:0.5030449 61:0.74697113 62:0.21712647 63:0.5762189 
-0.9603086281218515 1:0.38560542 2:0.68819761 3:0.61960357 4:0.18640542 5:0.41829926 6:0.73338938 7:0.62346131 8:0.49272791 9:0.26490965 10:0.71619719 11:0.087119594 12:0.61436868 13:0.43900347 14:0.26878914 15:0.87010449 16:0.63483703 17:0.1704852 18:0.38497734 19:0.28104395 20:0.56579077 21:0.23762012 22:0.3717621 23:0.72563553 24:0.40156683 25:0.60867655 26:0.52263349 27:0.19521996 28:0.23289783 29:0.77468204 30:0.28823259 31:0.55480653 32:0.61914533 33:0.46396238 34:0.39155152 35:0.55287004 36:0.33963248 37:0.28375775 38:0.51794446 39:0.71910203 40:0.15762024 41:0.73655564 42:0.72854221 43:0.54631406 44:0.96166795 45:0.21790096 46:0.44142279 47:0.41332108 48:0.60577506 49:0.45730451 50:0.52837902 51:0.68504012 52:0.58813542 53:0.54248834 54:0.20263863 55:0.25401598 56:0.36537731 57:0.60338008 58:0.52734679 59:0.61308098 60:0.39894637 61:0.74033153 62:0.10374352 63:0.58674145 
-0.4949566870587522 1:0.91928405 2:0.73661339 3:0.56982392 4:0.57391602 5:0.4097124 6:0.52402681 7:0.55546409 8:0.60671461 9:0.7939164 10:0.53922677 11:0.53128153 12:0.53056729 13:0.41192332 14:0.29048198 15:0.33224374 16:0.37208781 17:0.81262368 18:0.38119003 19:0.29348579 20:0.52924234 21:0.53149432 22:0.61798269 23:0.79528427 24:0.42430386 25:0.39795309 26:0.77546841 27:0.75131422 28:0.080267929 29:0.61755794 30:0.4409591 31:0.20437847 32:0.64643759 33:0.26202461 34:0.82206976 35:0.65415579 36:0.50079 37:0 38:0.67457759 39:0.79606307 40:0.3818683 41:0.72687691 42:0.18627901 43:0.55217397 44:0.6309908 45:0.69626421 46:0.39358488 47:0.25630212 48:0.31696597 49:0.67718077 50:0.52502698 51:0.80952907 52:0.44569454 53:0.45005789 54:0.10644104 55:0.77657735 56:0.44460773 57:0.10687257 58:0.48805386 59:0.63935983 60:0.62848771 61:0.81701022 62:0.22556567 63:0.53730446 
-0.9811548306198913 1:0.49729759 2:0.4882988 3:0.52049208 4:0.36745724 5:0.72774911 6:0.73821449 7:0.75878561 8:0.59143877 9:0.6724323 10:0.52498615 11:0.3137829 12:0.62739831 13:0.36271438 14:0.32950333 15:0.60004944 16:0.72674769 17:0.36918992 18:0.70456648 19:1 20:0.42538109 21:0.7554521 22:0.39786196 23:0.53534925 24:0.54042602 25:0.12036197 26:0.43478248 27:0.12199679 28:0.39329755 29:0.29927775 30:0.43706179 31:0.23051292 32:0.490367 33:0.52697992 34:0.58442855 35:0.53289574 36:0.91417879 37:0.68788308 38:0.77542144 39:0.76778799 40:0.53887045 41:0.66255039 42:0.72293496 43:0.5114097 44:0.41563064 45:0.57073539 46:0.61249793 47:0.46178082 48:0.60634452 49:0.43039435 50:0.4819248 51:0.58011985 52:0.67201042 53:0.44777864 54:0.30550119 55:0.43997875 56:0.43289766 57:0.356967 58:0.35351115 59:0.56624234 60:0.39191422 61:0.77160746 62:0.022486012 63:0.5571174 
-2.766853098501752 1:0.73718244 2:0.3898147 3:0.39625812 4:0.71834487 5:0.46768463 6:0.29945526 7:0.70822376 8:0.6510427 9:0.64484614 10:0.45337689 11:0.79428375 12:0.51553917 13:0.51419371 14:0.41103625 15:0.50145054 16:0.5453198 17:0.45774034 18:0.59319049 19:0.54136294 20:0.60803044 21:0.25631702 22:0.65933794 23:0.085766502 24:0.3516506 25:0.38051078 26:0.40348956 27:0.68346334 28:0.46016508 29:0.0029711521 30:0.52054477 31:0.82007802 32:0.49123952 33:0.48259905 34:0.56568331 35:0.52411962 36:0.38322324 37:0.37902138 38:0.40160495 39:0.30965766 40:0.28844568 41:0.6377725 42:0.78539169 43:0.63562775 44:0.53283423 45:0.5946396 46:0.56975019 47:0.3051568 48:0.53092456 49:0.8999331 50:0.380537 51:0.39629418 52:0.65563697 53:0.24699159 54:0.59976023 55:0.77679318 56:0.79405904 57:0.78957075 58:0.57188934 59:0.7649076 60:0.52574474 61:0.86063612 62:0.19867478 63:0.55858254 
-1.449362775601102 1:0.59173638 2:0.77760124 3:0.15517718 4:0.63002521 5:0.14999919 6:0.27834475 7:0.76159239 8:0.4951129 9:0.51651728 10:0.45644581 11:0.32641926 12:0.166612 13:0.30351293 14:0.043942731 15:0.30641991 16:0.35160536 17:0.2023892 18:0.44528753 19:0.37725973 20:0.15735212 21:0.27742168 22:0.49327651 23:0.56791663 24:0.61464149 25:0.68390149 26:0.17232218 27:0.92434186 28:0.65994406 29:0.46336848 30:0.41609424 31:0.63873112 32:0.71749365 33:0.4758032 34:0.50163788 35:0.29745516 36:0.016104683 37:0.18477173 38:0.5227679 39:0.67311203 40:0.44403991 41:0.99883693 42:0.35586199 43:0.62191916 44:0.62176389 45:0.29713932 46:0.4091042 47:0.65429664 48:0.30816671 49:0.29829916 50:0.64461744 51:0.82155436 52:0.52916867 53:0.56604087 54:0.12129705 55:0.60730302 56:0.35384941 57:0.23808658 58:0.50691795 59:0.78326339 60:0.45285198 61:0.67603219 62:0.12457633 63:0.53679436 
-0.7094464955344038 1:0.042177711 2:0.60101616 3:0.037050366 4:0.5762158 5:0.63347501 6:0.40775171 7:0.73003882 8:0.63483226 9:0.7502861 10:0.79398388 11:0.94593823 12:0.44330323 13:0.17485851 14:0.46077383 15:0.458814 16:0.55034733 17:0.55010736 18:1.1339274e-16 19:0.48270068 20:0.41101578 21:0.50311744 22:0.695472 23:0.66300881 24:0.19256732 25:0.48271686 26:0.75885695 27:0.57656604 28:0.48136002 29:0.5822264 30:0.62180412 31:0.71231943 32:0.6213069 33:0.34322816 34:0.34694085 35:0.60526711 36:0.51778388 37:0.74592972 38:0.45074564 39:0.8599208 40:0.38380358 41:0.65524948 42:0.43632436 43:0.77531505 44:0.54921514 45:0.26521605 46:0.38695925 47:0.42044207 48:0.42829433 49:0.19404218 50:0.056031302 51:0.58129829 52:0.45781144 53:0.37855768 54:0.50782353 55:0.40628046 56:0.52917379 57:0.53306848 58:0.46091843 59:0.72138309 60:0.44485778 61:0.86042225 62:0.14370583 63:0.6107707 
-0.6789420305686923 1:0.56757873 2:0.69240612 3:0.36675772 4:0.34381986 5:0.53491968 6:0.49337634 7:0.90257031 8:0.76977855 9:0.25504103 10:0.41377842 11:0.17460586 12:0.2850545 13:0.61498857 14:0.37994361 15:0.65862226 16:0.45220399 17:0.49083158 18:0.57561535 19:0.40573987 20:0.46767798 21:0.33799958 22:0.68564105 23:0.50176555 24:0.43596011 25:0.74153727 26:0.43727031 27:0.55142385 28:0.3702884 29:0.32586443 30:0.58544713 31:0.77759618 32:0.44196242 33:0.38429022 34:0.096528471 35:0.57098645 36:0.38471693 37:0.43775347 38:0.47938946 39:0.54897588 40:0.47049576 41:0.66906261 42:0.79010618 43:0.50351852 44:0.3225998 45:0.34889752 46:0.45384604 47:0.47577265 48:0.58485651 49:0.70497978 50:0.62323058 51:0.42548975 52:0.63182807 53:0.54749829 54:0.16816436 55:0.29315779 56:0.43207827 57:0.67003894 58:0.34147209 59:0.69623542 60:0.52461892 61:0.89097106 62:0.15392295 63:0.61736876 
-2.754524753291585 1:0.37944439 2:0.42887285 3:0.65263474 4:0.099688411 5:0.44690794 6:0.46635494 7:0.41868922 8:0.58963352 9:0.54553068 10:0.52294642 11:0.67654639 12:0.23928915 13:0.63380748 14:0.12494501 15:0.46482491 16:0.50798088 17:0.060678236 18:0.5221467 19:0.3530176 20:0.60128504 21:0.84783846 22:0.74186766 23:0.4728719 24:0.25045502 25:0.27826166 26:0.34759584 27:0.4527548 28:0.36925983 29:0.70329666 30:0.4304834 31:0.44868004 32:0.09108863 33:0.49181432 34:0.53678221 35:0.40882191 36:0.40507942 37:0.44917279 38:0.4525297 39:0.77131802 40:0.082095265 41:0.50851333 42:0.29104367 43:0.35610485 44:0.33129084 45:0.44290835 46:0.77114725 47:0.52240032 48:0.42067492 49:0.61779827 50:0.34482723 51:0.42397347 52:0.81871659 53:0.48694527 54:0.21130064 55:1.6033749e-16 56:0.44018805 57:0.90709209 58:0.3719942 59:0.49774265 60:0.38411433 61:0.70633292 62:0.19124833 63:0.54783928 
-0.2550817229410006 1:0.5567776 2:0.44613478 3:0.63924485 4:0.78976941 5:0.28957638 6:0.5193581 7:0.63534677 8:0.14718623 9:0.36488199 10:0.77607602 11:0.62206191 12:0.792054 13:0.58930111 14:0.59997642 15:0.2231244 16:0.32582015 17:0.46201387 18:0.51228398 19:0.47822526 20:0.52343673 21:0.45542672 22:0.51274478 23:0.53790009 24:0.21707566 25:0.54984599 26:0.64549285 27:0.54256207 28:0.53059089 29:0.40902084 30:0.47016793 31:0.57334203 32:0.79788548 33:0.32745695 34:0.40818036 35:0.40671775 36:0.81714928 37:0.2717928 38:0.60493177 39:0.67044973 40:0.52291298 41:0.72852701 42:0.55500048 43:0.49740759 44:0.78319216 45:0.32572404 46:0.48464674 47:0.73250192 48:0 49:0.80722147 50:0.47565481 51:0.68381357 52:0.34348169 53:0 54:0.49325302 55:0.54541236 56:0.27378368 57:0.62638652 58:0.45162866 59:0.27216786 60:0.16402841 61:0.63500184 62:0.84742397 63:0.77603686 
-2.709204003868493 1:0.65994376 2:0.54068875 3:0.30393332 4:0.48061538 5:0.57445806 6:0.8615979 7:0.49380308 8:0.4003433 9:0.49823654 10:0.72510558 11:0.68626386 12:0.82800341 13:0.376948 14:0.4336631 15:0.70405006 16:0.58608669 17:0.46827587 18:0.61722142 19:0.1831615 20:0.36093992 21:0.31443 22:0.63332784 23:0.44070646 24:0.59497756 25:0.38188463 26:0.46305296 27:0.72842366 28:0.41053936 29:0.61983472 30:0.58320481 31:0.30190602 32:0.39585719 33:0.42238981 34:0.56114489 35:0.34416109 36:0.49881336 37:0.4146612 38:0.59392661 39:0.59749967 40:0.66071707 41:0.74494749 42:0.46076661 43:0.65364677 44:0.39089945 45:0.65739852 46:0.30973887 47:0.62939399 48:0.28649667 49:0.74400008 50:0.64008445 51:0.62197596 52:0.18980809 53:0.45769724 54:0.55024165 55:0.47829491 56:0.21322438 57:0.45899937 58:0.45030239 59:0.37001497 60:0.055869937 61:0.72735655 62:0.89838994 63:0.79444319 
-0.5168461654123242 1:0.67564619 2:0.45205861 3:0.63500637 4:0.91616696 5:0.22932115 6:0.5487389 7:0.58512515 8:0.33592999 9:0.60944051 10:0.51166689 11:0.34623682 12:0.46460867 13:0.79603273 14:0.35709468 15:0.82973909 16:0.54252797 17:0.59524912 18:0.4798907 19:0.48126805 20:0.54919535 21:0.69944423 22:0.68679297 23:0.59368473 24:0.25069827 25:0.47282612 26:0.57792604 27:0.63776296 28:0.47157857 29:0.493534 30:0.54191023 31:0.49204835 32:0.70426166 33:0.64281815 34:0.62734139 35:0.34721008 36:0.65179372 37:0.45487785 38:0.79253447 39:0.77095687 40:0.43234533 41:0.66505951 42:0.38209128 43:0.66552037 44:0.34890205 45:0.62586921 46:0.53247792 47:0.37287289 48:0.40583202 49:0.26102614 50:0.48958984 51:0.44502321 52:0.71455795 53:0.76424134 54:0.34316197 55:0.26355463 56:0.6956386 57:0.2788848 58:0.64755517 59:0.9044947 60:0.58464223 61:0.44915366 62:0.87716234 63:0.73243618 
-0.9566923039532466 1:0.65661579 2:0.82571167 3:0.28202245 4:0.64433557 5:0.21007302 6:0.32882437 7:0.47913226 8:0.11454596 9:0.45220533 10:0.58791625 11:0.37506801 12:0.65798062 13:0.78455079 14:0.41822806 15:0.87770766 16:0.45485154 17:0.71235287 18:0.54600489 19:0.37419075 20:0.57891178 21:0.79437417 22:0.48994735 23:0.27780199 24:0.44126999 25:0.30949762 26:0.34907761 27:0.39400738 28:0.24443915 29:0.4542571 30:0.39207721 31:0.51950592 32:0.37339392 33:0.54469347 34:0.33209121 35:0.35391995 36:0.53877032 37:0.57050067 38:0.63814092 39:0.70172393 40:0.45808032 41:0.67377418 42:0.35245597 43:0.58932209 44:0.37644407 45:0.6548813 46:0.40093097 47:0.49276108 48:0.36888719 49:0.4469704 50:0.51438951 51:0.52123791 52:0.66957015 53:0.60700697 54:0.28557774 55:0.20866086 56:0.5433414 57:0.25756794 58:0.46262267 59:0.84230554 60:0.50313908 61:0.50912476 62:0.89774483 63:0.70978773 
-4.476682088675163 1:0.50727284 2:0.50595105 3:0.20974149 4:0.42587936 5:0.44095665 6:0.4588632 7:0.56072921 8:0.35681137 9:0.46283042 10:0.55037141 11:0.63413739 12:0.86560124 13:0.20732869 14:0.43028426 15:0.42979038 16:0.54934663 17:0.82603753 18:0.6923635 19:0.30086818 20:0.50191003 21:0.35570729 22:0.24910289 23:0.51897693 24:0.63335067 25:0.4669266 26:0.60047919 27:0.19128244 28:0.5646432 29:0.17925583 30:0.52029181 31:0.38596019 32:0.51176441 33:0.74418658 34:0.61859852 35:0.70648634 36:0.34842095 37:0.049121771 38:0.25547743 39:0.51926059 40:0.55070347 41:0.57286692 42:0.57427496 43:0.49941024 44:0.61384279 45:0.47448352 46:0.47024426 47:0.57553995 48:0.43215775 49:0.48670918 50:0.40139472 51:0.52953118 52:0.4692781 53:0.68189138 54:0.47739822 55:0.20454122 56:0.665739 57:0.11914158 58:0.64160329 59:0.91502619 60:0.47851166 61:0.52439785 62:0.9283005 63:0.68747616 
-1.729204395100557 1:0.65581101 2:0.53735346 3:0.56364983 4:0.54501444 5:0.6657272 6:0.74709898 7:0.85292947 8:0.54691863 9:0.59049994 10:0.73440558 11:0.382348 12:0.4397448 13:0.19037744 14:0.50110263 15:0.55793202 16:0.6576941 17:0.48195648 18:0.63571912 19:0.30490351 20:0.45946851 21:0.5747034 22:0.31734088 23:0.35961837 24:0.32969171 25:0.45956165 26:0.41240981 27:0.43918744 28:0.32640573 29:0.37227476 30:0.47912341 31:0.24045552 32:0.45520645 33:0.43486688 34:0.6283831 35:0.34456962 36:0.20551471 37:0.6744113 38:0.55982912 39:0.68156809 40:0.57888687 41:0.51742512 42:0.27236441 43:0.55788773 44:0.4866946 45:0.82948065 46:0.56095624 47:0.38550183 48:0.49443564 49:0.33175772 50:0.2664797 51:0.52923721 52:0.53230351 53:0.64650631 54:0.50164306 55:0.45312992 56:0.84049249 57:0.31349158 58:0.7391066 59:0.92079115 60:0.57333648 61:0.62978226 62:0.90970701 63:0.7705211 
-1.660657796968113 1:0.51045126 2:1 3:0.57680923 4:0.41038796 5:0.37828672 6:0.61836201 7:0.56236929 8:0.42429537 9:0.34401497 10:0.30513558 11:0.60591614 12:0.54680371 13:0.48827347 14:0.27550572 15:0.36617497 16:0.69324189 17:0.69861782 18:0.75649464 19:0.71734148 20:0.49671307 21:0.24196853 22:0.6231339 23:0.41261461 24:0.4539043 25:0.45273066 26:0.42267507 27:0.21029347 28:0.064973734 29:0.52364576 30:0.70027411 31:0.54374599 32:0.41623279 33:0.26077884 34:0.62867463 35:0.14049077 36:0.20387593 37:0.77245861 38:0.43328556 39:0.61592406 40:0.36328131 41:0.38182825 42:0.48111525 43:0.43252334 44:0.34357685 45:0.52674085 46:0.47289729 47:0.42412999 48:0.063181549 49:0.49019745 50:0.35891926 51:0.42098364 52:0.83141971 53:0.49254361 54:0.30156717 55:0.50255722 56:0.71228397 57:0.27868032 58:0.49922529 59:0.92967451 60:0.63157064 61:0.62238348 62:0.94027162 63:0.79307288 
