svm_type c_svc
kernel_type rbf
gamma 0.09
nr_class 2
total_sv 45
rho -2.85793
label 130040101 130040201
probA -4.68371
probB -0.283045
nr_sv 27 18
SV
1.983665258521436 1:1.1982485e-15 2:0.85431457 3:0.3505365 4:0.14613515 5:0.59744358 6:0.39242804 7:0.33581123 8:0.84682482 9:0.58551407 10:0.51507324 11:0.36611316 12:0.59921461 13:0.35288435 14:0.42777604 15:0.51137024 16:0.12424699 17:0.22706269 18:0.58767325 19:0.63725334 20:0.59163719 21:0.43906963 22:0.60763764 23:0.61802936 24:0.53984791 25:0.23853277 26:0.83157885 27:0.80182678 28:0.69571292 29:1 
4.744586961024165 1:0.45458534 2:0.5766474 3:0.57974529 4:0.54351014 5:0.50331253 6:0.39649019 7:0.53334486 8:0.32622987 9:0.044288684 10:0.55171967 11:0.45037025 12:0.81074852 13:0.45881885 14:0 15:0.97003686 16:0.41229823 17:2.1365071e-16 18:0 19:0.18311569 20:0.51242197 21:0.68573147 22:0.50908458 23:0.81970376 24:1 25:0.41807696 26:0.70646596 27:0.1920474 28:0.4948442 29:0.34986764 
2.080081977693784 1:0.44608358 2:0.58603638 3:0.094605684 4:0.64078826 5:0.21105258 6:0.17843446 7:0.25801644 8:0.62367934 9:0.4840185 10:0.48150748 11:0.41294149 12:0.25838059 13:0.6459316 14:0.58622938 15:0.47970024 16:0.71728212 17:0.56271017 18:0.41235483 19:0.54472256 20:0.45381793 21:0.41833478 22:0.45177004 23:0.92260456 24:0.30391833 25:0.3506594 26:0.052523836 27:0.64074796 28:0.66652483 29:0.91657507 
5.212354469876077 1:0.29675531 2:0.46250758 3:0.59780806 4:0.50887215 5:0.64735168 6:0.50060642 7:0.39664376 8:0.43300059 9:0.70294702 10:0.6654498 11:0.54309702 12:0.81604505 13:0.58736259 14:0.3115494 15:0.52419382 16:0.42211702 17:0.78448665 18:0.1805061 19:0.52972615 20:0.67449886 21:0.19250356 22:0.32499707 23:0.6465506 24:0.45389119 25:0.23720753 26:0.59434474 27:0.86059666 28:0.72850674 29:0.97962272 
1.037614550792504 1:0.24655747 2:0.50996858 3:0.53441036 4:0.2802721 5:0.6891917 6:0.3615576 7:0.6829434 8:0.61397028 9:0.91510636 10:0.4449777 11:0.6119287 12:0.60529006 13:0.61295277 14:0.51717639 15:0.76125085 16:0.97190398 17:0.43621564 18:0.4899396 19:0.42593941 20:0.71170396 21:0.8418386 22:0.2664808 23:0.60891205 24:0.48577219 25:0.19993801 26:0.41458395 27:0.73962885 28:0.74174118 29:0.97099108 
2.015556511019073 1:0.37652269 2:0.41749501 3:0.68032426 4:0.63615799 5:0.56174445 6:0.65024394 7:0.59267801 8:0.15076174 9:0.10955166 10:0.54192871 11:0.52731627 12:0.68848878 13:1.5860231e-16 14:0.6654405 15:0.32961664 16:0.52736419 17:0.40158743 18:0.80139488 19:0.44621006 20:0.67726445 21:0.86392987 22:0.78037858 23:0.71297258 24:0.44325393 25:0.16393326 26:0.88405567 27:0.78090918 28:0.70635235 29:0.95027387 
1.624622438615612 1:0.36513028 2:0.85263228 3:0.4347688 4:0.24605985 5:0.82471639 6:0.54328573 7:0.022807635 8:0.27498728 9:0.6222111 10:0.58063257 11:0.63788086 12:0.50918692 13:0.53103453 14:0.15342101 15:0.36811259 16:0.38363835 17:0.61744815 18:0.44556895 19:0.58573127 20:0.80486888 21:0.15664658 22:0.3791481 23:0.5589295 24:0.47194099 25:0.25595471 26:0.78673965 27:0.81796783 28:0.70631015 29:0.95501775 
2.113032194404865 1:0.63089949 2:0.77257675 3:0.11296114 4:0.22394636 5:0.82041836 6:0.36670551 7:0.64225757 8:0.10713642 9:0.62909353 10:0.69015688 11:1 12:0.61140436 13:0.47850126 14:0.26374665 15:0.58660233 16:0.52388644 17:0.9252314 18:0.33923468 19:0.39818388 20:0.67960149 21:0.13714582 22:0.68400258 23:0.12865452 24:0.65548491 25:0.15846926 26:0.4764367 27:0.54000461 28:0.36557984 29:0.54002661 
1.086695241322257 1:0.28762883 2:0 3:0.6108312 4:0 5:0.028834566 6:0.46680361 7:0.24892914 8:0.41778484 9:0.69927716 10:0.70478451 11:0.24140538 12:0.69291288 13:0.62241364 14:0.41180885 15:0.58789164 16:0.70124424 17:0.64016014 18:0.39687577 19:0.45975068 20:0.50495338 21:0.53633088 22:0.90834624 23:0.19403182 24:0.78907996 25:0.10888333 26:0.55854684 27:0.60000515 28:0.4016023 29:0.63509995 
5.3648816379346 1:0.46048629 2:0.45911011 3:0.52280313 4:0.43231177 5:0.81720132 6:0.51282972 7:0.59733051 8:0.82033157 9:0.27860346 10:0.43794283 11:0.30045581 12:0.58926439 13:0.31833518 14:0.54911172 15:0.4273034 16:0.56491601 17:0.74957436 18:0.58063751 19:0.57705182 20:0.6209476 21:0.22414392 22:0.97426993 23:0.43311375 24:0.45728207 25:0.37188628 26:0.18627675 27:0.45497859 28:0.23875423 29:0.49429306 
1.146070239001942 1:0.5722844 2:0.26895061 3:0.66991764 4:0.73741949 5:0.55437022 6:1 7:0.2787509 8:0.27493563 9:0.78954291 10:0.52250981 11:0.32240537 12:0.024401069 13:0.51363969 14:0.55360395 15:0.72182858 16:0.35742956 17:0.45754704 18:0.22893971 19:0.67684203 20:0.55238044 21:0.43590873 22:0.2109901 23:4.6616622e-16 24:0.29101408 25:0.38301834 26:0.57039899 27:0.26503283 28:0.73775309 29:0.75517827 
1.714457439003684 1:0.24129148 2:0.66034931 3:0.81271219 4:0.33492953 5:0.28165379 6:0.42788669 7:0.64966691 8:0.86677915 9:0.5489648 10:0.77967483 11:0.69372112 12:0.41226888 13:0.65227664 14:0.32812008 15:0.39690781 16:0.38071644 17:0.55042136 18:0.73349088 19:0.60951972 20:0.5933345 21:0.35355955 22:0.20738043 23:0.75112349 24:0.50298816 25:0.22286895 26:0.66480267 27:0 28:0.55094463 29:0.49184331 
10 1:0.24129148 2:0.66034931 3:0.81271219 4:0.33492953 5:0.28165379 6:0.42788669 7:0.64966691 8:0.86677915 9:0.5489648 10:0.77967483 11:0.69372112 12:0.41226888 13:0.65227664 14:0.32812008 15:0.39690781 16:0.38071644 17:0.55042136 18:0.73349088 19:0.60951972 20:0.5933345 21:0.35355955 22:0.20738043 23:0.75112349 24:0.50298816 25:0.22286895 26:0.66480267 27:0 28:0.55094463 29:0.49184331 
6.175226941104187 1:0.52335429 2:0.52642357 3:0.39600244 4:0.38440669 5:0.5920313 6:0.47934964 7:0.69592899 8:0.39915469 9:0.91138399 10:0.45474866 11:0.59606981 12:0.37182912 13:0.58441228 14:0.55804676 15:0.61062407 16:0.38055649 17:0.77498484 18:0.34356257 19:0.41421872 20:0.47357491 21:0.71323287 22:1 23:0.98225695 24:0.25799266 25:0.31489763 26:1 27:0.26513216 28:0.62913358 29:0.54391491 
0.9464942157400652 1:0.71025419 2:0.2822915 3:0.17428349 4:0.5551219 5:0.28844318 6:0.32420564 7:0.4466857 8:0.77037984 9:0.53370404 10:0.59171206 11:0.87024957 12:0.50316691 13:0.20504387 14:0.49328685 15:0.68744731 16:0.3647421 17:0.67407852 18:0.62666082 19:0.79410416 20:0.83074033 21:0.68969196 22:0.17455746 23:0.53712463 24:0.69005781 25:0.086742304 26:0.47018516 27:0.02626414 28:0.55390418 29:0.52617371 
8.563357684798063 1:0.49877453 2:0.51006925 3:0.42024302 4:0.47333494 5:0.46334487 6:0.30297267 7:0.51656902 8:0.60636842 9:0.66178197 10:0.45564863 11:0.52642781 12:0.45983648 13:0.41339767 14:0.33292261 15:0.49781016 16:7.8497779e-17 17:0.36501798 18:0.27893251 19:0.32384512 20:1 21:0.89547944 22:0.51045114 23:0.12357432 24:4.1015376e-16 25:0.74171954 26:0.40283313 27:0.57832772 28:0.66604596 29:0.50296491 
0.003459595128617547 1:0.48793611 2:0.55457854 3:0.36792296 4:0.51230836 5:0.38058019 6:0.51871234 7:0.4803564 8:0.18923101 9:0.67155874 10:0.7226972 11:0.10580336 12:0.75408566 13:0.72001517 14:0.48530638 15:0.59560519 16:0.11662345 17:1 18:1 19:0.12824686 20:0.76769686 21:0.82203591 22:0.25798398 23:0.74044067 24:0.94714862 25:0.74116927 26:0.45823932 27:0.60137504 28:0.64515728 29:0.49501953 
2.267834540075093 1:0.48793611 2:0.55457854 3:0.36792296 4:0.51230836 5:0.38058019 6:0.51871234 7:0.4803564 8:0.18923101 9:0.67155874 10:0.7226972 11:0.10580336 12:0.75408566 13:0.72001517 14:0.48530638 15:0.59560519 16:0.11662345 17:1 18:1 19:0.12824686 20:0.76769686 21:0.82203591 22:0.25798398 23:0.74044067 24:0.94714862 25:0.74116927 26:0.45823932 27:0.60137504 28:0.64515728 29:0.49501953 
3.167154624264562 1:0.20659447 2:0.26374531 3:0.4309645 4:0.84921664 5:0.59376931 6:0.32961324 7:0.22375455 8:0.59150964 9:0.52396315 10:0.5941366 11:0.56008518 12:0.76794767 13:0.84448272 14:0.80683506 15:0.26081559 16:0.47133654 17:0.53007215 18:0.22062038 19:0.22379528 20:0.66233236 21:0.85799354 22:0.4177092 23:0.50948787 24:0.20504086 25:0.16106588 26:0.71698034 27:0.79964334 28:0.019213865 29:0.18637021 
4.34232176482675 1:0.56815422 2:0.45108709 3:0.51638752 4:0.044987813 5:0.41423714 6:0.5251919 7:0.39546511 8:0.91613376 9:0.20881709 10:0.59636486 11:0.90277427 12:0.67764419 13:0.54999441 14:0.82097942 15:1 16:0.57796377 17:0.72975075 18:0.31067589 19:0.6910367 20:0.5752511 21:0.59711802 22:0.54173899 23:0.459539 24:0.49089038 25:1 26:0.94404125 27:1 28:0.47805005 29:0.67730522 
0.0008698618620076042 1:0.52440906 2:0.65772736 3:0.73737907 4:0.37595159 5:0.20906183 6:0.49406928 7:0.55101544 8:0.33320364 9:0.79834086 10:1.1039082e-15 11:0.73422265 12:0.65588039 13:0.26521251 14:0.58184588 15:0.37086329 16:0.59595269 17:0.56095058 18:0.50595093 19:0.27983102 20:0.53006327 21:2.3257762e-16 22:0 23:0.75748634 24:0.53319108 25:0.4692345 26:0.63762093 27:0.6972422 28:0 29:0.22071604 
2.519614821897334 1:0.52440906 2:0.65772736 3:0.73737907 4:0.37595159 5:0.20906183 6:0.49406928 7:0.55101544 8:0.33320364 9:0.79834086 10:1.1039082e-15 11:0.73422265 12:0.65588039 13:0.26521251 14:0.58184588 15:0.37086329 16:0.59595269 17:0.56095058 18:0.50595093 19:0.27983102 20:0.53006327 21:2.3257762e-16 22:0 23:0.75748634 24:0.53319108 25:0.4692345 26:0.63762093 27:0.6972422 28:0 29:0.22071604 
0.002371425002411745 1:0.58373624 2:0.73955619 3:0.22166355 4:0.24051356 5:0.65003198 6:0.64597005 7:0.97141123 8:0.51887834 9:0.29890072 10:1 11:0.27432507 12:1.8406194e-16 13:0.4700267 14:0.46792686 15:0.38966334 16:0.60029018 17:0.33735302 18:0.41849592 19:0.40523556 20:0.42958203 21:0.66807449 22:0.20883532 23:0.63930923 24:0.28525943 25:0.29949614 26:0.69638246 27:0.97804683 28:0.0095211305 29:0.27081954 
0.9784397142613783 1:0.58373624 2:0.73955619 3:0.22166355 4:0.24051356 5:0.65003198 6:0.64597005 7:0.97141123 8:0.51887834 9:0.29890072 10:1 11:0.27432507 12:1.8406194e-16 13:0.4700267 14:0.46792686 15:0.38966334 16:0.60029018 17:0.33735302 18:0.41849592 19:0.40523556 20:0.42958203 21:0.66807449 22:0.20883532 23:0.63930923 24:0.28525943 25:0.29949614 26:0.69638246 27:0.97804683 28:0.0095211305 29:0.27081954 
0.003070208389798794 1:0.51141274 2:0.26239169 3:0.58019316 4:0.25760537 5:0.89901328 6:0.30643472 7:0.2859506 8:0.37920341 9:0.87056953 10:0.55310452 11:0.43557242 12:0.8187989 13:0.23421499 14:0.20296416 15:0.87536567 16:0.062122408 17:0.71625882 18:0.59452397 19:0.91677314 20:0.28894341 21:1 22:0.22035089 23:0.69971812 24:0.23486941 25:0.14985274 26:0.43513966 27:0.83449656 28:0.00077674905 29:0.14706349 
4.80968533313551 1:0.51141274 2:0.26239169 3:0.58019316 4:0.25760537 5:0.89901328 6:0.30643472 7:0.2859506 8:0.37920341 9:0.87056953 10:0.55310452 11:0.43557242 12:0.8187989 13:0.23421499 14:0.20296416 15:0.87536567 16:0.062122408 17:0.71625882 18:0.59452397 19:0.91677314 20:0.28894341 21:1 22:0.22035089 23:0.69971812 24:0.23486941 25:0.14985274 26:0.43513966 27:0.83449656 28:0.00077674905 29:0.14706349 
1.35977106270137 1:0.35954386 2:0.055769112 3:0.34042045 4:0.15132304 5:0.51819444 6:0.68619704 7:0.63728124 8:0.88422215 9:0.83471477 10:0.65944582 11:0.50964522 12:0.9696911 13:0.40762961 14:0.33020419 15:0.1799701 16:0.50437289 17:0.63914579 18:0.3671515 19:0.064722173 20:0.36033702 21:0.3883723 22:0.303662 23:0.45749748 24:0.18244042 25:0.45934728 26:0.45336872 27:0.33663431 28:0.64111924 29:0.74586207 
-4.604267048148806 1:0.58277696 2:0.60356748 3:0.52309191 4:0.87395245 5:0.56195962 6:0.008846133 7:0.3944616 8:0.55128378 9:0.5036189 10:0.64118987 11:0.41654748 12:0.61341816 13:0.32086 14:0.36577019 15:0.47424814 16:0.6935187 17:0.65567482 18:0.27936724 19:0.83153188 20:0.18571924 21:0.59823215 22:0.58446246 23:0.48534119 24:0.51013577 25:0.59667194 26:0.71285379 27:0.69788301 28:0.89463913 29:0.60277349 
-0.7614402331266746 1:0.50196242 2:0.55710155 3:0.59745008 4:0.39744219 5:0.45380616 6:0.1683639 7:0.75709569 8:0.040887464 9:0.66074151 10:0.59740847 11:0.45808616 12:0.72971892 13:0.62108314 14:0.59092134 15:0.75409466 16:0.42622358 17:0.43369785 18:0.61332619 19:0.75212008 20:0.58880317 21:0.16911195 22:0.61521888 23:0.42888501 24:0.054703683 25:0.54418832 26:0.52982026 27:0.61873263 28:0.69050997 29:0.20901661 
-1.437156507361591 1:0.57054722 2:0.5766843 3:0.12852408 4:0.35963145 5:0.55237156 6:0.54240954 7:0.47215536 8:0.70166624 9:0.68090075 10:0.59599149 11:0.54096806 12:0.73108524 13:0.45461419 14:0.47672418 15:0.68076116 16:0.62015903 17:0.40677661 18:0.55243051 19:0.677643 20:0.92007726 21:0.72430128 22:0.67157733 23:0.31857312 24:0.24325414 25:0.50860345 26:0.37675813 27:0.5618059 28:0.71689588 29:0.17035362 
-10 1:0.25565612 2:0.63709474 3:0.41816381 4:0.30692855 5:0.1996575 6:0.50403553 7:0.52304262 8:0.74279678 9:0.81360877 10:0.52620661 11:0.65618753 12:0.57420874 13:0.58952898 14:0.29818499 15:0.40666655 16:0.22545616 17:0.50921535 18:0.37381074 19:0.67189115 20:0.74160779 21:0.6328156 22:0.75420845 23:0.66603029 24:0.47763005 25:0.42600495 26:0.35553274 27:0.78072286 28:0.670546 29:0.10554339 
-3.657576865272895 1:0.57277644 2:0.46779859 3:0.83088219 4:0.24001846 5:0.73957717 6:0.13714464 7:0.051007167 8:0.98378843 9:0.42272541 10:0.81293088 11:0.41094404 12:0.38804069 13:0.51556569 14:0.51555288 15:0.48429641 16:0.49121529 17:0.61952049 18:0.47341737 19:0.26621929 20:0.70097411 21:0.31726792 22:0.44309524 23:0.62999094 24:0.16771279 25:0.15250811 26:0.84818244 27:0.40935478 28:0.73861045 29:0.3478229 
-10 1:0.35402104 2:0.82275397 3:0.55052018 4:0.30090776 5:0.53481412 6:0.70051879 7:0.30305439 8:0.88878232 9:0.85346103 10:0.67005271 11:0.42573625 12:0.80082005 13:0.41531682 14:0.53780681 15:0.66071582 16:0.52050853 17:0.43546888 18:0.40059906 19:0.3752166 20:0.65766478 21:0.42026165 22:0.40358958 23:0.67181671 24:0.21763487 25:0.29890227 26:0.69197446 27:0.26045513 28:0.68002146 29:0.31179348 
-1.259585973060217 1:0.6557284 2:0.44810218 3:0.44771603 4:0.40390667 5:0.32309678 6:0.37102947 7:0.4077448 8:0.6989786 9:0.44912472 10:0.49652827 11:0.49559665 12:0.63253987 13:0.57994902 14:0.51926112 15:0.44696429 16:0.22009003 17:0.48677567 18:0.72648519 19:0.42403305 20:0.40865999 21:0.28106871 22:0.38229048 23:0.366797 24:0.071442954 25:0.16883568 26:0.88387197 27:0.57459033 28:0.72068542 29:0.41432598 
-2.416802431535145 1:0.44550335 2:0.62023634 3:0.17898588 4:0.56038541 5:0.20804615 6:0.51407689 7:0.15611607 8:0.53338945 9:0.31608337 10:0.84676009 11:0.68585902 12:0.97666544 13:0.067972459 14:0.55280018 15:0.78977317 16:0.59356415 17:0.57303935 18:0.66668475 19:0.1968786 20:0.48304629 21:0.62394667 22:0.41879177 23:0.70394731 24:0.088370904 25:0.25185776 26:0.76042169 27:0.48220769 28:0.71226585 29:0.35893938 
-0.46120116248002 1:0.77965897 2:0.55897623 3:0.39844802 4:0.39685011 5:0.83437485 6:0.20813368 7:0.3680732 8:0.70752549 9:0.40946117 10:0.49803257 11:0.50134921 12:0.50861639 13:0.37622011 14:0.39533272 15:0.53294128 16:0.4694443 17:0.45114675 18:0.73580593 19:0.17233014 20:0.57401985 21:0.43297341 22:0.34054095 23:0.1583049 24:0.0099398671 25:0.32432941 26:0.79609704 27:0.53426397 28:0.76988524 29:0.45291737 
-10 1:0.31484252 2:0.63101763 3:0.52876484 4:0.42499456 5:0.5606612 6:0.41273409 7:0.25539595 8:0.40865502 9:0.41581681 10:0.49430013 11:0.72637385 12:0.50839865 13:0.15782575 14:0.41608965 15:0.73205239 16:0.44157562 17:0.61484307 18:0.74658233 19:0.31013313 20:0.43636781 21:0.47296911 22:0.38991007 23:0.52581418 24:0.1598637 25:0.34176964 26:0.61148256 27:0.45935285 28:0.73566848 29:0.41076049 
-7.792021900734458 1:0.40001762 2:0.35622555 3:0.39172697 4:0.48988745 5:0.64128304 6:0.60991484 7:0.66352129 8:0.46446362 9:0.43685165 10:0.62413931 11:0.57585508 12:0.72839981 13:0.6163125 14:0.32073998 15:0.56075549 16:0.60687935 17:0.535873 18:0.47197154 19:0.67077279 20:0.54959863 21:0.40664333 22:0.34518093 23:0.65981895 24:0.69815528 25:0.45267674 26:0.56783938 27:0.67526364 28:0.63385588 29:0.19699028 
-0.9170133427679464 1:0.36966231 2:0.47137219 3:0.58516586 4:0.50715524 5:0.47036964 6:0.39872169 7:0.67644328 8:0.87491661 9:0.41847187 10:0.43412042 11:0.6023978 12:0.62383533 13:0.33591264 14:0.41029239 15:0.21868244 16:0.2584272 17:0.58246171 18:0.298069 19:0.47808799 20:0.5668875 21:0.85100836 22:0.69647706 23:0.60118026 24:0.41594878 25:0.31146243 26:0.2869392 27:0.81052947 28:0.76341748 29:0.27907169 
-1.840760762937776 1:0.64884454 2:0.70794606 3:0.84985596 4:0.93198729 5:0.47522134 6:0.35311857 7:0.68459451 8:0.42808795 9:0.70449638 10:0.53598988 11:0.2765559 12:0.30521879 13:0.34789014 14:0.488217 15:0.29746339 16:0.37518573 17:0.68683898 18:0.33578494 19:0.92859954 20:0 21:0.47180945 22:0.5432598 23:0.6344285 24:0.74424416 25:0.47708368 26:0.33477607 27:0.88477576 28:0.78280872 29:0.44446579 
-5.779857012283914 1:1 2:0.24682748 3:0.66152817 4:0.54786772 5:0.65806288 6:0.31736332 7:0.96541286 8:0.46001726 9:0.66406024 10:0.53042543 11:0.2385617 12:0.63729471 13:0.73804569 14:0.23687759 15:0.48794565 16:0.47059351 17:0.42484379 18:0.29066861 19:0.5154506 20:0.80215853 21:0.45244572 22:0.52443063 23:0.65453684 24:0.45317662 25:0.12851503 26:0.7709859 27:0.60798031 28:0.6796639 29:0.094441041 
-0.5336767826563916 1:0.45676535 2:0.091698229 3:0.42495799 4:0.39671114 5:0.63348103 6:0.55056423 7:0.56640863 8:0.84850562 9:0.24771643 10:0.37417027 11:0.73229837 12:0.3806951 13:0.79571623 14:0.63018507 15:0.28358307 16:0.33726662 17:0.57585448 18:0.49711576 19:0.60867363 20:0.38048506 21:0.5989539 22:0.27991289 23:0.46135661 24:0.90736043 25:0.16434498 26:0.66980749 27:0.70130491 28:0.87117672 29:0.42283919 
-5.02678545434036 1:0.25802666 2:0.10692949 3:0.69555813 4:0.01638712 5:0.58496279 6:0.19652592 7:0.64341849 8:0.29888991 9:0.10379276 10:0.43178079 11:0.53788298 12:0.25348616 13:0.62095428 14:0.54944444 15:0.74598241 16:0.022563536 17:0.75541812 18:0.42864773 19:0.5465827 20:0.57385874 21:0.56499416 22:0.46084484 23:0.17074467 24:0.44682857 25:0.061045937 26:0.8819024 27:0.76981682 28:0.90884787 29:0.41316357 
-3.411983795606978 1:0.4726536 2:0.41211927 3:0.35052282 4:0.47441769 5:0.45352778 6:0.30352837 7:0.48012418 8:0.17967106 9:0.4246487 10:0.5159288 11:0.72083861 12:0.36216322 13:0.4550674 14:0.67844337 15:0.14975217 16:0.50115484 17:0.56537116 18:0.34201124 19:0.5855031 20:0.51625139 21:0.50631136 22:0.44982785 23:0.37224668 24:0.93419433 25:0.37777999 26:0.6837495 27:0.87303764 28:0.80468249 29:0.40707046 
-5.363161440083963 1:0.20117812 2:0.52806032 3:0.73338449 4:0.21752053 5:0.85823554 6:0.4355934 7:0.51006913 8:0.73353016 9:0.53762078 10:0.48850048 11:0.66645968 12:0.54873717 13:0.60363084 14:0.58787024 15:0.7035743 16:0.21767384 17:0.74470657 18:0.58098441 19:0.072145335 20:0.30698675 21:0.67156237 22:0.32410327 23:0.56312752 24:0.67696267 25:0.3295005 26:0.23299363 27:0.60784453 28:0.8278268 29:0.3818835 
