svm_type c_svc
kernel_type rbf
gamma 0.09
nr_class 44
total_sv 1250
rho -0.00546409 -0.142123 -0.144738 -0.16112 -0.183216 -0.0558396 -0.34498 -0.00481692 0.125274 0.0811939 0.0237516 -0.0588834 -0.070653 -0.0748155 -0.00742697 -0.00829026 -0.251189 -0.0606883 -0.01722 -0.222095 -0.270017 0.0764303 -0.272096 -0.30589 -0.177916 -0.425351 -0.306131 -0.306812 -0.314815 -0.0460821 -0.0306871 0.0218477 -0.109146 -0.0109603 -0.482658 -0.273543 -0.406408 -0.358628 -0.0921033 0.0747953 0.0161119 -0.0324502 -0.127212 0.0972496 -0.0298119 0.0683485 0.0496003 -0.0560308 -0.0589464 0.322509 0.0697663 0.151875 0.118383 0.0970058 0.0802881 -0.0748956 0.109955 0.096791 -0.10797 0.00841245 -0.000634999 -0.0582279 -0.0919045 0.196446 -0.129194 -0.124042 -0.0309045 -0.16154 -0.198914 -0.160982 -0.159143 0.196782 0.186164 0.138915 0.155716 0.172628 -0.146978 -0.341454 -0.197303 -0.162875 0.1439 0.152553 0.0422046 0.0624836 0.0256551 -0.126693 0.00719039 -0.133164 -0.0870195 -0.0354911 0.0456914 0.198179 0.0409798 0.051852 0.0419491 0.00624722 -0.0941471 -0.128919 0.0322358 -0.157916 -0.0479469 -0.0638523 -0.129085 -0.162416 0.172423 -0.234863 -0.227967 -0.116046 -0.243037 -0.204259 -0.247558 -0.178736 0.0314273 -0.0588863 0.0529589 0.136126 0.038849 -0.404751 -0.240897 -0.222539 -0.308801 0.0179051 -0.0016802 0.028185 0.0433463 -0.0728564 0.0812274 0.0526353 0.0977265 0.0480933 0.206994 0.438282 0.162792 0.141853 0.0530917 0.0596118 0.13326 0.0729319 0.111511 -0.0526467 0.0587718 0.0742662 -0.00583928 -0.056548 0.294911 -0.124942 -0.100497 -0.0166412 -0.180502 -0.119145 -0.165635 -0.110398 0.113745 0.110494 0.175786 0.207765 0.169154 -0.155591 -0.169991 -0.0772557 -0.343478 0.0309089 0.23841 0.0961047 0.0676576 0.0642378 -0.188032 -0.0767965 -0.0929871 0.0836395 0.22955 0.121266 0.0476113 0.0597991 -0.0200441 -0.0586009 0.0339168 0.0979497 -0.0756339 0.0592173 0.0179395 -0.0407155 -0.135551 0.129727 -0.168418 -0.190578 -0.0387957 -0.139258 -0.181377 -0.197543 -0.124869 0.100987 0.0895423 0.180428 0.130782 0.117517 -0.371706 -0.18367 -0.147916 -0.186626 0.0762121 0.193094 0.0441009 0.0141127 0.000630772 -0.025572 0.00466508 0.248718 0.10116 0.11534 0.299985 0.112643 0.0172306 0.0465701 0.0761214 0.0451422 -0.127318 0.0504692 0.0710943 0.00586473 -0.0977107 0.176204 -0.110615 -0.209957 -0.0750514 -0.255149 -0.144411 -0.233629 -0.165341 0.184368 0.130865 0.128883 0.142265 0.092184 -0.36456 -0.109691 -0.198672 -0.174007 0.285772 0.0628585 0.0295337 0.157264 0.0104539 -0.0960251 0.136505 0.182508 0.0648254 0.174265 0.0226979 0.024353 0.0279356 -0.024044 0.117276 -0.0863941 0.0979305 0.0984221 -0.0322788 -0.0819319 0.198219 -0.129207 -0.14507 -0.0616847 -0.115836 -0.133833 -0.190384 -0.153107 0.159539 0.139898 0.127045 0.121093 0.182378 -0.128526 -0.126839 -0.235755 -0.129383 0.163091 0.196664 0.0979137 0.134999 0.0600544 0.118685 0.272255 0.0997199 0.281268 0.0732898 0.099019 -0.0893488 0.0999012 0.123981 -0.0877886 0.0870832 0.0440415 -0.0426349 -0.0885522 0.192421 -0.0753662 -0.0916047 -0.0589635 -0.148267 -0.21348 -0.186628 -0.135029 0.178037 0.142211 0.202511 0.225223 0.190148 -0.179855 -0.202262 -0.195094 -0.153939 0.134624 0.257862 0.0827176 0.122391 0.121701 -0.00141957 -0.0293298 -0.0639487 0.072667 -0.0722278 -0.00642 -0.167699 -0.0152143 -0.251655 -0.143904 -0.163671 -0.198204 -0.245681 0.160907 -0.368888 -0.395221 -0.0609098 -0.270516 -0.25081 -0.389662 -0.306242 0.0411251 -0.00142173 0.076472 0.0707575 -0.029399 -0.538366 -0.438301 -0.397637 -0.282963 -0.0433683 0.191571 -0.00548877 -0.0819122 -0.0688876 0.00203657 -0.199772 -0.147864 -0.0935316 -0.0629915 -0.286397 -0.0678215 -0.272741 -0.149555 -0.225083 -0.199521 -0.336294 0.0174379 -0.370718 -0.295521 -0.25107 -0.296424 -0.304699 -0.371933 -0.409208 -0.103023 -0.0939344 -0.131038 -0.0722598 -0.064414 -0.51644 -0.374152 -0.536407 -0.6149 -0.155938 -0.112174 -0.158192 -0.135601 -0.215996 -0.0677131 -0.0267474 -0.0832928 -0.0990293 -0.102344 -0.0602894 -0.176953 -0.047773 -0.147878 -0.103022 -0.187977 0.116539 -0.246681 -0.23959 -0.201302 -0.288178 -0.277535 -0.334835 -0.253813 0.00781829 -0.031516 0.0833608 -0.0165342 -0.0358777 -0.326928 -0.431849 -0.290922 -0.343612 -0.162439 -0.0382679 -0.0480649 -0.0896575 -0.15527 -0.0710655 -0.15311 -0.163118 -0.0388945 0.00626881 -0.167579 -0.019936 -0.0854627 -0.121878 -0.196794 -0.0505303 -0.266361 -0.303757 -0.141833 -0.273671 -0.349472 -0.308519 -0.256832 0.0557908 0.0913732 0.128788 -0.0606183 0.0695982 -0.411774 -0.336379 -0.398014 -0.405023 0.0149275 -0.00283442 0.0248428 -0.130049 -0.00302105 -0.163795 -0.111138 -0.116268 0.0347036 -0.167721 -0.0286396 -0.0311671 -0.110724 -0.191215 0.185997 -0.228856 -0.266496 -0.176813 -0.267234 -0.261937 -0.237004 -0.273643 -0.0160439 0.0671013 0.0499335 0.119074 0.01507 -0.283042 -0.253525 -0.246901 -0.391469 -0.0933667 -0.128684 0.0203535 -0.0942414 0.0206743 -0.061567 0.0131056 -0.0228415 -0.120815 0.0468677 -0.0373104 -0.0372984 -0.118608 0.199951 -0.164948 -0.189105 -0.102266 -0.286539 -0.219809 -0.223039 -0.193027 0.0616861 0.170772 0.0705989 0.121158 0.0568984 -0.182388 -0.178982 -0.202723 -0.237458 0.0379019 0.150433 0.0331761 0.0641262 0.0530251 -0.0436697 -0.0111406 -0.167957 -0.04957 -0.0319769 -0.0338892 -0.161457 0.083541 -0.209618 -0.152709 -0.0978928 -0.225394 -0.233964 -0.209481 -0.22426 0.100811 0.0346567 0.152371 0.181358 0.0991028 -0.336501 -0.227169 -0.255133 -0.223534 0.140637 0.0123951 -0.0704312 0.0543784 0.067387 -0.051839 -0.11486 0.0340015 -0.0168234 -0.0645173 -0.0974203 0.0572454 -0.19126 -0.247469 -0.0958517 -0.218152 -0.22802 -0.220623 -0.165044 0.172104 0.170937 0.106451 0.127791 0.109256 -0.289692 -0.259564 -0.293104 -0.274391 0.0762289 0.0538847 0.0862893 -0.0895089 -0.0819322 -0.179376 0.0609951 -0.0885113 -0.124246 -0.167426 0.0686972 -0.219627 -0.228465 -0.126906 -0.27078 -0.222476 -0.228755 -0.212892 0.0299156 0.016526 0.0113381 0.111274 0.0587581 -0.395891 -0.263592 -0.327588 -0.383567 -0.111627 0.0167863 0.0226119 0.14325 -0.00499766 0.130671 0.109625 0.0634936 -0.107429 0.267989 -0.0741951 -0.188175 0.000312522 -0.0941807 -0.101723 -0.0904562 -0.101761 0.250182 0.171025 0.232807 0.238183 0.180048 -0.142388 -0.106152 -0.0857533 -0.0575665 0.199902 0.265688 0.0873393 0.161836 0.0393056 0.000914536 -0.0525611 -0.123727 0.0914472 -0.190204 -0.166345 -0.167927 -0.233488 -0.198081 -0.20365 -0.203793 0.0455452 0.119519 0.133285 0.152983 0.116811 -0.312586 -0.190339 -0.161787 -0.171409 0.0819807 0.136652 0.0669759 0.0410928 0.0632102 -0.0278282 -0.109584 0.0805271 -0.162171 -0.130263 -0.15831 -0.194842 -0.21034 -0.177735 -0.220539 0.102142 0.0669141 0.084548 0.0719228 0.120632 -0.272011 -0.172949 -0.179939 -0.203025 0.0379735 0.0991058 0.064762 0.0489288 0.0873377 -0.136343 0.189227 -0.165999 -0.17993 -0.0245863 -0.123242 -0.171498 -0.185592 -0.163336 0.122154 0.163751 0.119146 0.242548 0.200747 -0.188031 -0.232246 -0.179724 -0.204416 0.161516 0.199349 0.0812179 0.0965359 0.166045 0.352694 -0.0710841 0.011251 0.0167933 -0.0949448 -0.0647228 -0.0765993 -0.05788 0.232851 0.240818 0.256335 0.270732 0.312633 -0.0463282 -0.0260696 0.010801 -0.0264228 0.203067 0.222923 0.199496 0.153412 0.201252 -0.420988 -0.306633 -0.173115 -0.351914 -0.342846 -0.344874 -0.261103 -0.0854089 -0.0622232 0.029147 -0.039418 0.0252812 -0.546749 -0.531002 -0.419304 -0.433155 -0.0497061 -0.0166617 -0.0561443 -0.0773807 -0.0253796 0.0429847 0.0944622 -0.0473766 -0.0317895 -0.0017573 0.033342 0.296061 0.310796 0.321426 0.425328 0.294459 0.0519747 -0.0054026 0.0501639 0.0488671 0.247546 0.402182 0.225331 0.169367 0.172352 0.0632686 -0.0444168 0.0121237 -0.000949245 -0.0193215 0.215839 0.258543 0.284129 0.27934 0.271319 0.0626583 0.0925441 0.059585 0.0728477 0.200255 0.387512 0.0943944 0.210291 0.211794 -0.0998523 -0.0692132 -0.13358 -0.0816271 0.1596 0.0895753 0.195979 0.200366 0.134827 -0.148819 -0.0590351 -0.0254315 -0.110063 0.201344 0.135594 0.129893 0.110457 0.0713794 -0.00759441 -0.00347822 0.0121275 0.26154 0.245715 0.270803 0.269103 0.276013 0.0118974 0.0807141 0.0823125 0.00786066 0.305042 0.368275 0.267881 0.243468 0.154011 -0.011164 0.00295897 0.274309 0.278437 0.301638 0.363213 0.258608 -0.0405277 0.0783068 0.0799753 -0.00600986 0.336612 0.397655 0.197135 0.261675 0.20126 0.0287017 0.238774 0.290989 0.341069 0.298444 0.330663 0.0209976 0.0763185 0.0930301 0.0263518 0.292061 0.311488 0.230081 0.210472 0.148875 0.297062 0.234232 0.302245 0.279245 0.290893 0.0118568 0.022857 0.0430374 0.0285332 0.246064 0.253125 0.202892 0.230337 0.187185 -0.0361356 0.0344779 -0.0624094 0.0200729 -0.466709 -0.267156 -0.359115 -0.298814 0.0656206 0.074853 -0.0269316 -0.0920335 0.00289728 0.10227 0.0298888 0.0742067 -0.345007 -0.350561 -0.409246 -0.31705 0.059755 0.0739887 -0.0300189 -0.0541345 0.0263652 -0.0238224 0.00496147 -0.332731 -0.396985 -0.381843 -0.296025 -0.0419482 -0.0844926 -0.0533845 -0.120995 -0.0502779 -0.0346544 -0.357941 -0.307456 -0.31441 -0.414134 -0.0407593 -0.05507 -0.139973 -0.182002 -0.150704 -0.422821 -0.207799 -0.318592 -0.347106 -0.0741605 0.0140429 -0.0496581 -0.10691 -0.0579804 -0.00225666 0.126246 0.0412024 0.568104 0.39372 0.342219 0.333919 0.312688 0.0536927 -0.0218785 0.372483 0.409033 0.317798 0.260044 0.27985 -0.0793615 0.312933 0.586544 0.304701 0.331696 0.270064 0.384173 0.399456 0.252764 0.319384 0.240048 0.227154 -0.101684 -0.0139041 -0.043211 0.00768562 -0.119449 -0.120393 0.033 0.0345069 0.0105776
label 11111 111110 111111 111112 111113 111114 111115 111116 111117 111118 111119 11112 111120 111121 111122 111123 111124 111125 111126 111127 111128 111129 11113 111130 111131 111132 111133 111134 111135 111136 111137 111138 111139 11114 111140 111141 111142 111143 111144 11115 11116 11117 11118 11119
probA -3.79045 -3.79049 -3.86658 -3.79931 -3.66321 -3.82559 -3.67816 -4.14038 -4.00693 -3.80096 -4.30275 -3.87691 -3.835 -3.82319 -3.82566 -3.87045 -3.74608 -3.82506 -3.78886 -3.94744 -3.56424 -4.23534 -3.46298 -3.52819 -3.63932 -3.54953 -3.54962 -3.54051 -3.48221 -3.76103 -3.79295 -3.8376 -4.32009 -3.78949 -3.76965 -3.7664 -3.79747 -3.80819 -4.0625 -4.09239 -3.74559 -3.83945 -3.93813 -3.30918 -3.25911 -3.30605 -3.04651 -3.25243 -3.07942 -3.47568 -3.57802 -3.26026 -3.79966 -3.23114 -3.16137 -3.28835 -3.23754 -3.23786 -3.26214 -3.2886 -3.19974 -3.44678 -2.89869 -3.80531 -2.89883 -2.9482 -2.94965 -2.96443 -2.96858 -2.99474 -2.9261 -3.24786 -3.23752 -3.34951 -3.80078 -3.32289 -3.29162 -3.29111 -3.31787 -3.25924 -3.51666 -3.53284 -3.24651 -3.19381 -3.29444 -3.27717 -3.21587 -3.21571 -3.27838 -3.19674 -3.55244 -3.48515 -3.36205 -3.80752 -3.25632 -3.33404 -3.34903 -3.28884 -3.26758 -3.30455 -3.31452 -3.29096 -3.4271 -2.9727 -3.85636 -2.97983 -2.95482 -2.99217 -3.0507 -3.04873 -3.02767 -3.05217 -3.37936 -3.27511 -3.3424 -3.76318 -3.31304 -3.25941 -3.25009 -3.32923 -3.27779 -3.58465 -3.5975 -3.2434 -3.24808 -3.34751 -3.22134 -3.08166 -3.27409 -3.10605 -3.50547 -3.42839 -3.20713 -3.78587 -3.17543 -3.204 -3.26867 -3.25188 -3.22399 -3.33517 -3.32366 -3.25623 -3.37378 -2.9043 -3.78487 -2.91398 -2.97187 -2.93631 -2.9964 -3.00824 -2.97118 -2.94305 -3.25019 -3.2881 -3.28759 -3.73596 -3.31215 -3.28137 -3.26484 -3.25252 -3.24785 -3.51938 -3.51934 -3.20578 -3.25716 -3.23631 -3.23249 -3.23654 -3.1191 -3.57515 -3.51006 -3.23369 -3.77494 -3.2987 -3.3558 -3.31795 -3.33579 -3.37141 -3.32335 -3.3804 -3.30924 -3.48212 -3.03907 -3.79586 -3.02933 -3.02969 -2.98335 -3.00234 -3.04242 -3.01901 -2.95271 -3.27417 -3.30871 -3.25587 -3.82084 -3.3137 -3.40875 -3.25656 -3.35033 -3.20645 -3.58913 -3.5978 -3.28267 -3.26269 -3.27985 -3.15955 -3.04736 -3.4433 -3.49424 -3.15979 -3.68316 -3.14088 -3.15619 -3.06856 -3.18252 -3.18032 -3.11654 -3.20375 -3.15449 -3.30717 -2.77041 -3.65739 -2.75173 -2.84978 -2.86751 -2.85388 -2.89771 -2.88605 -2.81629 -3.15105 -3.21136 -3.1662 -3.77037 -3.23299 -3.26173 -3.07565 -3.15231 -3.12095 -3.47083 -3.39273 -3.12907 -3.16652 -3.14919 -3.19893 -3.51468 -3.57064 -3.26601 -3.78529 -3.31067 -3.29578 -3.35799 -3.32724 -3.35292 -3.27131 -3.38475 -3.28989 -3.4227 -3.01075 -3.87062 -2.93302 -2.98563 -2.95327 -3.05411 -3.0572 -3.02487 -2.99619 -3.33623 -3.32394 -3.31658 -3.82904 -3.29726 -3.2695 -3.22871 -3.35383 -3.2555 -3.53249 -3.57466 -3.23041 -3.21336 -3.31362 -3.46535 -3.43511 -3.1049 -3.63944 -3.08962 -3.06811 -3.1967 -3.1021 -3.13486 -3.1201 -3.17868 -3.13822 -3.26217 -2.80538 -3.70403 -2.93625 -2.72892 -2.79265 -2.8478 -2.87042 -2.84291 -2.88718 -3.13942 -3.14588 -3.16214 -3.68328 -3.17844 -3.20456 -3.14882 -3.27437 -3.09226 -3.45561 -3.39496 -3.08894 -3.06131 -3.13993 -3.75493 -3.53329 -4.06145 -3.56725 -3.56431 -3.53658 -3.51494 -3.52046 -3.57724 -3.6188 -3.59664 -3.64304 -3.19813 -4.03632 -3.173 -3.27193 -3.25961 -3.31179 -3.23482 -3.2638 -3.29138 -3.56098 -3.52982 -3.53262 -4.03725 -3.54165 -3.50448 -3.45622 -3.5097 -3.51118 -3.81024 -3.82142 -3.52872 -3.62146 -3.54293 -3.54706 -4.1041 -3.54231 -3.56965 -3.5726 -3.51177 -3.56815 -3.51198 -3.62694 -3.61335 -3.70675 -3.21866 -4.05512 -3.21092 -3.18739 -3.30277 -3.27896 -3.28221 -3.29767 -3.27212 -3.54979 -3.59932 -3.57772 -4.10316 -3.5949 -3.51339 -3.5097 -3.58107 -3.55966 -3.85534 -3.80904 -3.60178 -3.54804 -3.63595 -3.85682 -3.26522 -3.30991 -3.36951 -3.3068 -3.33245 -3.27069 -3.30961 -3.33026 -3.41658 -2.95493 -3.86007 -2.98484 -2.97991 -3.01394 -3.01665 -3.0806 -3.05225 -3.02219 -3.36215 -3.29026 -3.30359 -3.80743 -3.3201 -3.32698 -3.24509 -3.32694 -3.28459 -3.54291 -3.55687 -3.28186 -3.26136 -3.28153 -3.78607 -3.81884 -3.76294 -3.80259 -3.77354 -3.77535 -3.88357 -3.8882 -3.97483 -3.5173 -4.29792 -3.45554 -3.48897 -3.50401 -3.58056 -3.5154 -3.5032 -3.51039 -3.77969 -3.80875 -3.78267 -4.27923 -3.81124 -3.77283 -3.73302 -3.80381 -3.78808 -4.10384 -4.11605 -3.81355 -3.80295 -3.85816 -3.27549 -3.32825 -3.27416 -3.28134 -3.29871 -3.32757 -3.28592 -3.42237 -2.94469 -3.79726 -2.98654 -2.93917 -2.96459 -3.05855 -2.97533 -3.01804 -2.98322 -3.3179 -3.30009 -3.32286 -3.80542 -3.32074 -3.24558 -3.27351 -3.32201 -3.23146 -3.575 -3.59775 -3.2397 -3.27523 -3.33719 -3.28447 -3.30034 -3.27536 -3.32701 -3.31723 -3.26579 -3.40276 -2.94514 -3.74561 -2.94566 -2.97394 -2.97939 -3.04264 -3.01753 -3.00011 -3.02915 -3.31081 -3.36262 -3.31799 -3.79756 -3.32863 -3.3341 -3.29704 -3.34899 -3.27003 -3.48502 -3.5532 -3.27595 -3.30164 -3.31011 -3.28883 -3.26394 -3.36962 -3.31989 -3.30176 -3.36659 -2.91444 -3.80656 -2.9682 -2.97494 -2.94225 -3.0312 -3.04081 -3.05092 -2.97228 -3.30519 -3.31314 -3.29021 -3.75793 -3.36082 -3.32798 -3.29892 -3.32932 -3.23425 -3.54011 -3.45105 -3.27853 -3.27918 -3.25235 -3.24317 -3.28607 -3.31468 -3.30274 -3.41454 -2.92805 -3.7895 -2.92394 -2.9527 -2.97518 -3.00602 -2.9857 -3.06322 -3.00611 -3.31026 -3.29326 -3.25809 -3.72926 -3.2621 -3.3503 -3.27938 -3.27595 -3.35692 -3.55832 -3.56126 -3.28925 -3.30532 -3.30951 -3.21194 -3.35167 -3.2722 -3.44279 -2.92691 -3.76672 -2.90494 -2.93691 -2.97808 -2.99911 -3.01487 -3.04618 -2.97269 -3.38354 -3.26323 -3.34005 -3.82016 -3.33166 -3.32108 -3.31043 -3.37889 -3.18499 -3.56722 -3.5634 -3.19609 -3.22332 -3.32594 -3.37828 -3.31013 -3.37651 -2.94871 -3.79284 -2.91825 -2.97433 -3.0026 -3.05244 -3.01767 -3.04668 -2.95135 -3.28166 -3.32332 -3.35133 -3.85821 -3.27942 -3.28078 -3.24505 -3.29157 -3.22463 -3.57845 -3.56839 -3.23295 -3.26002 -3.31513 -3.33645 -3.46724 -2.97787 -3.80896 -2.95143 -2.98215 -3.12929 -3.11425 -3.06474 -3.08517 -3.08222 -3.39011 -3.31051 -3.34664 -3.91866 -3.34792 -3.3837 -3.29954 -3.3308 -3.32856 -3.59887 -3.63294 -3.31237 -3.33667 -3.34746 -3.3575 -3.02336 -3.77571 -2.87762 -2.99753 -3.06656 -3.01407 -3.00492 -3.08227 -3.01263 -3.32205 -3.4263 -3.36768 -3.82146 -3.35425 -3.3324 -3.20921 -3.26663 -3.26378 -3.53881 -3.6041 -3.1728 -3.24863 -3.34703 -3.04034 -3.94119 -3.11058 -3.12934 -3.15658 -3.10876 -3.16785 -3.19133 -3.20354 -3.47766 -3.38067 -3.48076 -3.94417 -3.49568 -3.44357 -3.38499 -3.38853 -3.31841 -3.72514 -3.65318 -3.43559 -3.42005 -3.48404 -3.51427 -2.59605 -2.56702 -2.60549 -2.63479 -2.69866 -2.70198 -2.68151 -2.96127 -2.93383 -2.9339 -3.42825 -2.98242 -2.91399 -2.97579 -3.03405 -2.92047 -3.16824 -3.28492 -2.94083 -2.89226 -2.95936 -3.48452 -3.49512 -3.51754 -3.5773 -3.53876 -3.57178 -3.51917 -3.78531 -3.86928 -3.81515 -4.29039 -3.78306 -3.79136 -3.73413 -3.76904 -3.74033 -4.07144 -4.04281 -3.79418 -3.77093 -3.84228 -2.48695 -2.65931 -2.69459 -2.67402 -2.72149 -2.67757 -2.9918 -2.97837 -2.97156 -3.43012 -2.90476 -2.9984 -2.96825 -3.00613 -2.95938 -3.27224 -3.21008 -2.89574 -2.93808 -2.95019 -2.60333 -2.70242 -2.74509 -2.72658 -2.67019 -2.97099 -2.9295 -2.99854 -3.48674 -2.96103 -2.9965 -2.99993 -3.00704 -2.99743 -3.29188 -3.28399 -2.95114 -2.92508 -3.01456 -2.75541 -2.73148 -2.7087 -2.73574 -2.99538 -3.09434 -2.99413 -3.53987 -3.03481 -3.07746 -3.02205 -3.00708 -3.03797 -3.25814 -3.36032 -2.95363 -2.96323 -2.9938 -2.74972 -2.81094 -2.75877 -3.03907 -3.07095 -3.07005 -3.5926 -3.09821 -3.09869 -3.0439 -3.0723 -3.00623 -3.31365 -3.30239 -3.04523 -3.0047 -3.02843 -2.79164 -2.75639 -3.03244 -3.01165 -3.05354 -3.56194 -3.0578 -3.0268 -3.02904 -3.04367 -3.01728 -3.31889 -3.32188 -2.97171 -2.95161 -3.03876 -2.77239 -3.09 -3.02627 -3.07968 -3.5598 -3.01895 -3.01737 -3.02624 -3.09649 -3.05778 -3.29005 -3.28196 -3.03577 -3.062 -3.05662 -3.03223 -3.08585 -3.03629 -3.54678 -3.05641 -3.06326 -3.02154 -3.06808 -2.97585 -3.25047 -3.26242 -2.95907 -3.00447 -3.04568 -3.3259 -3.32889 -3.79546 -3.32258 -3.31972 -3.27063 -3.34847 -3.28561 -3.57123 -3.54751 -3.2302 -3.33783 -3.27599 -3.33062 -3.82764 -3.29963 -3.36202 -3.223 -3.28757 -3.29029 -3.58397 -3.63363 -3.27447 -3.38872 -3.35633 -3.80117 -3.33525 -3.36914 -3.28986 -3.37407 -3.26568 -3.57169 -3.58913 -3.37216 -3.28656 -3.31587 -3.81 -3.85135 -3.77199 -3.81831 -3.73748 -4.03953 -4.07536 -3.77325 -3.79598 -3.86934 -3.31795 -3.28116 -3.36824 -3.25845 -3.56732 -3.60258 -3.31813 -3.35426 -3.35049 -3.20783 -3.2965 -3.26252 -3.52425 -3.5297 -3.27489 -3.36544 -3.29768 -3.2969 -3.32533 -3.53564 -3.52962 -3.24179 -3.25924 -3.26707 -3.30659 -3.59556 -3.59019 -3.33741 -3.34935 -3.3285 -3.57747 -3.53136 -3.25177 -3.38917 -3.27219 -3.8353 -3.38602 -3.55 -3.62394 -3.53966 -3.55236 -3.64982 -3.22541 -3.31834 -3.29995
probB -0.506636 -0.462559 -0.465736 -0.474343 -0.555814 -0.353229 -0.581242 -0.043777 -0.229255 -0.43389 -0.0358066 -0.48267 -0.46834 -0.427033 -0.370121 -0.401152 -0.556485 -0.542553 -0.546427 -0.329813 -0.632415 -0.0255295 -0.86744 -0.77924 -0.608228 -0.659843 -0.676004 -0.649589 -0.687449 -0.480683 -0.443801 -0.442405 -0.0145226 -0.411569 -0.429043 -0.528103 -0.467851 -0.530084 -0.192661 -0.176296 -0.510584 -0.497775 -0.420821 0.0276164 -0.00519461 0.0157021 -0.110064 0.0654696 -0.115955 0.343336 0.269325 0.100505 0.447671 0.00573068 0.0548277 -0.0166095 0.0335439 0.0210424 0.0182465 0.036864 0.00867877 0.191437 -0.263716 0.486217 -0.256899 -0.185474 -0.250588 -0.0942369 -0.211717 -0.157495 -0.243032 0.051479 0.0234728 0.069834 0.405532 0.0424876 0.0446785 0.0479467 0.0321664 0.0573411 0.289193 0.302959 -0.0402837 0.0315633 0.109773 -0.0843844 0.0478346 -0.130342 -0.0520604 -0.129872 0.154507 0.065511 -0.0565537 0.480132 -0.0441868 -0.0103732 -0.115694 -0.0541263 -0.0272866 -0.0665754 -0.0288863 -0.100816 0.0273378 -0.273243 0.292001 -0.314763 -0.344532 -0.292345 -0.240919 -0.243328 -0.205537 -0.19008 -0.107425 -0.11903 -0.0784449 0.417828 -0.0380007 -0.0693296 -0.0962538 0.0170822 -0.0591751 0.0308849 0.138184 -0.00748669 -0.00214254 -0.115145 0.035052 -0.109287 0.106285 -0.0452672 0.188572 0.284477 0.0371074 0.494812 0.0155711 0.00158747 0.0119058 0.0238263 0.065739 0.0685769 0.0838423 0.0206919 0.112381 -0.255602 0.481965 -0.227152 -0.206932 -0.194296 -0.206504 -0.156086 -0.146558 -0.161256 0.0348825 0.0683498 0.047585 0.462465 0.0230477 0.0640392 0.0230755 0.10189 -0.063569 0.244391 0.235693 0.0016727 -0.00502298 0.0612848 -0.127276 -0.0204454 -0.169007 0.229522 0.213768 -0.00285837 0.438402 -0.00149121 -0.0129614 -0.0582048 -0.00902352 -0.102005 -0.0111558 0.0286169 -0.0232918 0.0991733 -0.235313 0.450059 -0.265715 -0.295282 -0.242502 -0.202247 -0.245584 -0.19973 -0.252439 -0.0104824 0.0124117 0.00693423 0.472708 -0.000715746 -0.0490959 -0.0657972 0.00952453 -0.123404 0.15893 0.225065 -0.012798 -0.0227702 0.0223027 0.144603 -0.0415976 0.356988 0.31961 0.114498 0.505757 0.15372 0.102219 0.126843 0.151894 0.0601093 0.111279 0.165613 0.171707 0.220983 -0.139943 0.587206 -0.107067 -0.0939937 -0.0725803 -0.0652048 -0.0712185 -0.0322543 -0.104357 0.0275189 0.125339 0.16926 0.48954 0.11762 0.0509163 0.079307 0.133703 0.118393 0.278517 0.339827 0.0936389 0.12631 0.173051 -0.136254 0.223136 0.198777 -0.0318583 0.478464 0.0279954 -0.053304 -0.0743559 0.0701064 -0.0268786 -0.00670506 0.0128943 -0.0269723 0.104144 -0.248529 0.437788 -0.345604 -0.290764 -0.29697 -0.191774 -0.223245 -0.190102 -0.244381 0.00700868 -0.00416259 0.0108858 0.423525 -0.0542075 -0.0822049 -0.0801776 -0.0527358 -0.0533274 0.216142 0.161766 -0.0237051 -0.0280152 0.019275 0.359641 0.244551 0.141777 0.550998 0.146325 0.153583 0.121316 0.113867 0.0691497 0.0911735 0.159223 0.099123 0.248653 -0.121378 0.469974 0.026058 -0.124091 -0.0635288 -0.102471 -0.0503411 -0.0407106 -0.0500713 0.175892 0.117821 0.0893548 0.542087 0.216095 0.0691439 0.0653164 -0.0605057 0.101606 0.301168 0.305256 0.101029 0.113485 0.227078 -0.0136134 -0.244517 0.229266 -0.196874 -0.285526 -0.267207 -0.18698 -0.22077 -0.319719 -0.222321 -0.21329 -0.148742 -0.511338 0.201169 -0.561448 -0.539261 -0.476026 -0.462155 -0.492453 -0.49328 -0.498013 -0.214121 -0.188856 -0.167788 0.198143 -0.260572 -0.236136 -0.255603 -0.194345 -0.234077 -0.0129561 0.0448064 -0.222436 -0.141492 -0.232633 -0.152343 0.130632 -0.194165 -0.239257 -0.271762 -0.230392 -0.160671 -0.287955 -0.275486 -0.306937 -0.0871744 -0.635602 0.164098 -0.512303 -0.588285 -0.447812 -0.443377 -0.452917 -0.487037 -0.433178 -0.237059 -0.243554 -0.27927 0.248305 -0.244556 -0.252244 -0.275303 -0.234226 -0.335154 -0.00774482 -0.00853099 -0.284764 -0.252701 -0.224909 0.461892 0.00114363 0.0205501 -0.0890759 0.016985 0.0195791 -0.0408635 0.0470611 0.0036205 0.0812195 -0.266322 0.407322 -0.31182 -0.326103 -0.241306 -0.152805 -0.223793 -0.20644 -0.204049 -0.0312224 0.0155916 0.0624544 0.453341 0.0242605 0.0330073 -0.0452898 0.0166176 -0.0318914 0.192721 0.20292 -0.037532 -0.0523433 -0.0140565 -0.411379 -0.430824 -0.462621 -0.441283 -0.389271 -0.570422 -0.448761 -0.440399 -0.390951 -0.726817 -0.0240017 -0.703659 -0.811051 -0.714723 -0.672202 -0.75528 -0.63919 -0.685233 -0.490867 -0.478934 -0.463742 -0.00762331 -0.455816 -0.442989 -0.52501 -0.432661 -0.557934 -0.188447 -0.232305 -0.457746 -0.353334 -0.354723 -0.0203321 0.00125623 -0.0100169 -0.0366883 -4.32554e-05 0.00069213 0.0394751 0.133516 -0.221358 0.436547 -0.291036 -0.310267 -0.239949 -0.226595 -0.254332 -0.173018 -0.180031 0.013765 -0.00674961 -0.0220559 0.482267 0.0134165 0.00919136 -0.0266994 -0.0494683 4.60382e-05 0.233376 0.245053 -0.00986783 -0.045817 0.0110976 -0.00219713 0.0101787 -0.0316052 0.0171673 0.0101949 -0.0235878 0.114692 -0.27225 0.482649 -0.229688 -0.226431 -0.234249 -0.224519 -0.189419 -0.187334 -0.212814 0.025024 0.0783136 0.0460644 0.50914 0.0354091 0.00493806 -0.0792759 0.0674254 -0.00816108 0.196471 0.259671 -0.024855 -0.0269926 0.0432508 0.0341868 0.0127844 -0.0244329 0.00437773 0.0395422 0.0652611 -0.295394 0.50712 -0.259157 -0.248405 -0.22384 -0.226519 -0.167754 -0.182743 -0.234619 0.00436372 -0.00140526 0.0170165 0.474024 0.0306514 0.0023515 -0.0610402 0.0551291 0.0103856 0.181921 0.177349 -0.0422325 0.0261497 0.0691843 0.0336416 -0.0164086 -0.0400858 0.00529596 0.0419487 -0.280843 0.455011 -0.28592 -0.299086 -0.247129 -0.224744 -0.190897 -0.167687 -0.17263 -0.0194223 -0.0391578 0.0545352 0.470753 0.0216401 -0.0465092 -0.00167393 -0.00385294 -0.0815236 0.17968 0.177607 0.00173589 -0.120704 0.032642 -0.0348351 0.0211736 0.0217652 0.136423 -0.266591 0.453598 -0.295776 -0.27153 -0.201553 -0.199154 -0.199829 -0.181477 -0.209825 0.0461669 0.053119 0.0291224 0.424288 0.0208722 0.0304594 -0.0364649 -0.0495939 -0.110814 0.171215 0.204829 -0.0102745 0.0245394 0.0239126 0.0447261 0.00354351 0.0874932 -0.291248 0.583604 -0.315533 -0.342576 -0.264105 -0.266472 -0.200772 -0.248029 -0.294506 0.0318685 0.0246658 0.0822306 0.494297 0.0371377 0.0677724 -0.0267081 0.068035 0.00649417 0.328226 0.291417 0.00753462 0.00549761 0.0224688 0.0126839 0.136582 -0.261841 0.522048 -0.336553 -0.374833 -0.358228 -0.26012 -0.273049 -0.319947 -0.345239 -0.0565139 0.106401 -0.0390469 0.432207 -0.010958 -0.0407776 0.0319819 0.0151255 -0.0239661 0.320224 0.260138 -0.0198131 -0.0553126 -0.00377747 0.17967 -0.302393 0.52863 -0.356371 -0.26266 -0.128151 -0.259303 -0.240815 -0.245237 -0.250726 0.023829 -0.0512103 0.0231707 0.520965 0.00832115 0.0213923 0.0507177 0.0871283 -0.0585227 0.298156 0.295067 0.0705662 0.030713 0.01768 -0.290176 0.399117 -0.419575 -0.352019 -0.364398 -0.332459 -0.309192 -0.338944 -0.266009 -0.0898823 -0.0567508 -0.0893932 0.4298 -0.155117 -0.123731 -0.136239 -0.0471027 -0.116603 0.178338 0.234062 -0.126679 -0.124765 -0.0429589 0.725634 -0.034629 -0.00063046 0.0342232 0.0568067 0.0966327 0.0505375 0.0734362 0.34019 0.376932 0.325332 0.80439 0.341274 0.324965 0.329567 0.340112 0.28837 0.561607 0.485977 0.229785 0.277413 0.349568 -0.693527 -0.687976 -0.697218 -0.726557 -0.681136 -0.645279 -0.710316 -0.47508 -0.400174 -0.326172 0.0223544 -0.396287 -0.437963 -0.519283 -0.434374 -0.566471 -0.170829 -0.237194 -0.445564 -0.439682 -0.352428 -0.0317871 0.000583676 0.0980441 0.121469 0.0633406 0.0708327 0.286653 0.263352 0.336595 0.8029 0.34674 0.358035 0.334564 0.336959 0.30013 0.552818 0.527177 0.298175 0.2479 0.254279 0.0669673 0.0780839 0.0576264 0.0573708 0.0242877 0.33961 0.342534 0.334928 0.77095 0.325844 0.291853 0.225739 0.28806 0.231393 0.493406 0.421065 0.237071 0.321905 0.297698 0.00214115 0.0713691 0.0272375 0.00810761 0.195144 0.253003 0.305473 0.677178 0.283105 0.203714 0.24347 0.271016 0.196016 0.478919 0.412496 0.186576 0.238686 0.259024 -0.0108006 0.0136442 0.00232685 0.274483 0.264626 0.255648 0.645155 0.273645 0.193611 0.153927 0.281779 0.147236 0.435801 0.475196 0.151116 0.228428 0.228795 0.00736149 -0.0255552 0.252648 0.183048 0.232231 0.716112 0.244602 0.251405 0.191235 0.149238 0.137135 0.488122 0.442946 0.181105 0.238963 0.232882 -0.0211479 0.227665 0.258351 0.219108 0.699293 0.266236 0.176569 0.171736 0.23944 0.214945 0.473933 0.447426 0.220169 0.205428 0.192464 0.267368 0.255023 0.251763 0.645438 0.241894 0.20887 0.241077 0.222333 0.177998 0.523532 0.480887 0.239361 0.211945 0.249172 -0.0166311 0.0219294 0.463052 0.0339357 -0.0430006 -0.0194164 0.00404204 -0.0712394 0.212495 0.248422 -0.0562162 0.0070721 0.0180562 0.0665836 0.446146 -0.0121874 -0.0242637 -0.102623 -0.0209085 -0.0676474 0.230202 0.242293 -0.0479207 0.0172355 -0.0184692 0.440131 0.02801 -0.0677817 -0.080656 0.0185232 -0.0985961 0.217961 0.199279 -0.12509 -0.0529683 -0.00786722 -0.425908 -0.401895 -0.488194 -0.402567 -0.502352 -0.221706 -0.237756 -0.450037 -0.377459 -0.3782 -0.0383693 0.00829667 0.00400108 -0.0797856 0.247897 0.229479 -0.0485134 -0.00386843 0.0140271 -0.0749164 0.0386625 0.0491445 0.215081 0.257872 0.0562614 0.0239437 0.0532958 0.0582484 0.00790524 0.292786 0.291567 0.0503698 0.0210442 0.0581919 -0.0914381 0.231397 0.194317 0.013298 0.0222686 -0.00917205 0.228354 0.241468 0.00543769 -0.0126752 0.0626239 0.0475014 -0.158981 -0.232815 -0.241852 -0.26286 -0.0376155 -0.198852 0.0828144 0.00427019 0.0362374
nr_sv 82 22 23 22 23 16 24 15 47 45 23 82 24 24 24 24 23 24 30 27 35 10 78 8 8 10 10 9 13 10 23 25 26 82 23 21 22 26 21 50 48 21 23 24
SV
0 1.45878964678731 0 0.8706221272722069 0 1.290724107250415 0.4044532711678238 0 0 0 0 0 0 0.08522515665141958 0.6459909637245004 0 0 0.3598774469519906 0.343643343516136 0 0 0.04859474107001292 0.2208634178681224 0 0.8545369262013235 0 0 0 0 0 0 0 0 0 0 0.9547111270764688 1.029240432103077 0 0 0.8199996219044214 0.171498309300524 0 0.08597499187792911 1:0.31422827 2:0.35092568 3:0.52197629 4:0.40852085 5:0.53317881 6:0.17609109 7:0.65878367 8:0.62435913 9:0.21847919 10:0.47743082 11:0.75323522 12:0.50853503 13:0.35445285 14:0.41978726 15:0.20436315 16:0.33279487 17:0.37631339 18:0.34117085 19:0.059666634 20:0.58333576 21:0.6116451 22:0.57483238 23:0.59038877 24:0.45583427 25:0.63940525 26:0.57578015 27:0.41490507 28:0.45328128 29:0.49404675 30:0.29481357 31:0.59995985 32:0.72655028 33:0.52653044 34:0.10003612 35:0.27729499 36:0.52655202 37:0.41720653 38:0.51689506 39:0.42409858 40:0.57884151 41:0.56316012 42:0.25176641 43:0.54040176 44:0.34853938 45:0.51100767 46:0.5576098 47:0.34420922 48:0.62368453 49:0.42738444 50:0.21374148 51:0.47238719 52:0.40700218 53:0.68088061 54:0.40657985 55:0.33747548 56:0.55802262 57:0.49440378 58:0.42965972 59:0.62842232 60:0.64310831 61:0.51607627 62:0.55457008 63:0.64334011 64:0.52980632 65:0.67283577 66:0.10989724 67:0.10402722 68:0.24176322 69:0.25141987 70:0.603293 71:0.1620868 
0.6378987482031618 0.121027073735726 0 1.137888331542084 1.457318374287194 0.2995604447132474 0.610903452896073 1.111824402435041 0 0 0.08463190935218597 1.254545096206503 0 0 0 1.745813570618614 0.5484782139567869 0 0 0.2280716851282767 0.9693184794573152 0.01801007433782513 0 0 0 0 0 0 1.644686775380625 0 0.4024578432879278 1.487913291182089 0.1556097102888081 0.2005006471989583 0.3484613690969566 0 0 0 0.5748398999752773 2.633703538031714 0 0.2664503087127235 0.5187145905781079 1:0.44310626 2:0.34689242 3:0.56796414 4:0.34386477 5:0.67383766 6:0.83924705 7:0.31401816 8:0.45906785 9:0.44753891 10:0.62144607 11:0.85251349 12:0.34253001 13:0.66164696 14:0.81208283 15:0.53280598 16:0.65592366 17:0.66766602 18:0.68034297 19:0.48197097 20:0.33330083 21:0.24287325 22:0.59530383 23:0.68040782 24:0.3475951 25:0.29794395 26:0.52697337 27:0.53409672 28:0.5813002 29:0.33515126 30:0.51379466 31:0.62831914 32:0.35825792 33:0.51504612 34:0.29449037 35:0.56160069 36:0.4692843 37:0.63989514 38:0.50674635 39:0.37647149 40:0.6063773 41:0.72068638 42:0.5355714 43:0.63748151 44:0.59041047 45:0.39184514 46:0.29916769 47:0.51107675 48:0.645091 49:0.59261525 50:0.36821985 51:0.43560719 52:0.49754483 53:0.70477635 54:0.5617215 55:0.52077752 56:0.55370945 57:0.41305634 58:0.35188863 59:0.71007109 60:0.48829767 61:0.54864746 62:0.4185729 63:0.75521111 64:0.55414265 65:0.63606262 66:5.5279954e-16 67:0.28446704 68:0.1584259 69:0.23923919 70:0.61518651 71:0.19904979 
0 0.4477609009473368 2.479317381249078 0.5610813709173441 0.3893164659588685 0 0 0.4441485236465893 0.1235782160194642 1.196713159781495 0 0 0.1983760736548696 1.843153989410814 0.3854324583156413 0 0 0 0 0 0.2162006478522701 0 0 0.3386232187981279 0 0.512281930524212 0 1.783213322517555 0.3508634257489414 0 0 0.5362454013529316 0.2063218007333273 0.1629854274902144 0.9678751827752623 0.9613022481171623 1.648479607933501 0.4399887502095642 1.268492848867067 0 0 0 0 1:0.23121201 2:0.37376899 3:0.72317159 4:0.32407406 5:0.87455755 6:0.4588213 7:0.22678773 8:0.46103686 9:0.56220889 10:0.59296167 11:0.81340319 12:0.53197378 13:0.43913335 14:0.80537617 15:0.42189378 16:0.68418127 17:0.59347731 18:0.54213196 19:0.70116264 20:0.60076725 21:0.43586665 22:0.73148125 23:0.67094833 24:0.39997828 25:0.46960995 26:0.60943264 27:0.53850251 28:0.55646938 29:0.35021076 30:0.42080256 31:0.71792459 32:0.47493243 33:0.39549834 34:0.27868077 35:0.42723072 36:0.39548725 37:0.66863441 38:0.43541703 39:0.45101655 40:0.51590717 41:0.47425109 42:0.4591597 43:0.64086443 44:0.63391393 45:0.4135859 46:0.51755279 47:0.34370145 48:0.60939825 49:0.69117373 50:0.32198653 51:0.39558223 52:0.50089926 53:0.66036105 54:0.57444078 55:0.39583692 56:0.69976801 57:0.38171777 58:0.25968534 59:0.54615301 60:0.59014344 61:0.47265369 62:0.50292808 63:0.80683964 64:0.49990529 65:0.65624601 66:0.033989552 67:0.2098453 68:0.16138971 69:0.24981517 70:0.56122833 71:0.29341763 
0 0 0 0 0 0 0.3513066764294703 0 0.5069591857709794 0 0 0.04475642607371094 0.58060666768183 0 0 0.1196022490889494 0 0 0 1.304678014673049 0.2756996043728044 0 0 0 0 0 0 0 0 0.5418231352813103 0.2415487548148677 0 0 0 0 0 0 0 0 0 0.04472139451183293 0 0 1:0.36258218 2:0.41869107 3:0.61081821 4:0.49512669 5:0.67505985 6:0.64987373 7:0.45900348 8:0.90163022 9:0.66397214 10:1 11:0.68958676 12:0.87378138 13:0.63932806 14:0.35121924 15:0.55546319 16:0.6073525 17:0.54968292 18:0.42759448 19:0.31176767 20:0.52389687 21:0.40794212 22:0.62835991 23:0.4213655 24:0.27042639 25:0.52716476 26:0.66536736 27:0.61152953 28:0.60670245 29:0.54915828 30:0.41998437 31:0.63645911 32:0.58703125 33:0.42793527 34:0.60247886 35:0.33160061 36:0.52094227 37:0.42106572 38:0.68947864 39:0.72981703 40:0.71013296 41:0.54334265 42:0.55391753 43:0.2265918 44:0.61444646 45:0.64166152 46:0.051926974 47:0.3300339 48:0.60770959 49:0.52407283 50:0.43526235 51:0.55197448 52:0.52561915 53:0.66410762 54:0.42310342 55:0.46404925 56:0.50356215 57:0.31629941 58:0.56108594 59:0.6116519 60:0.57847762 61:0.40006599 62:0.39704281 63:0.71107006 64:0.64555532 65:0.8652457 66:0.13279225 67:0.31228486 68:0.14129862 69:0.15338168 70:0.57349384 71:0.046113335 
0 0 0 0 0 0 0 0 0 0 0 0 0 0 0 0 0.047934526993568 0 0 0 0 0 0 0 0 0 0 0 0 0 0 0 0 0 0 0 0 0 0 0 0 0 0 1:0.37152848 2:0.54501629 3:0.77687806 4:0.34329027 5:0.59277403 6:0.68634278 7:0.51057768 8:0.81903338 9:0.58132672 10:0.90256315 11:0.72331494 12:0.91583955 13:0.43856364 14:0.27267212 15:0.45065627 16:0.86268079 17:0.41595894 18:0.48336574 19:0.34395716 20:0.6136983 21:0.39260602 22:0.63098556 23:0.44587418 24:0.30033031 25:0.62537074 26:0.57205725 27:0.56115854 28:0.59163237 29:0.47344056 30:0.36235175 31:0.53857929 32:0.57362592 33:0.41427749 34:0.52885145 35:0.25619736 36:0.56202334 37:0.45338568 38:0.61202914 39:0.71632499 40:0.65497351 41:0.45658177 42:0.49631569 43:0.33135185 44:0.58153099 45:0.49298263 46:0.12615818 47:0.31113705 48:0.75429147 49:0.65507656 50:0.46137378 51:0.56037366 52:0.53277385 53:0.65975237 54:0.48354825 55:0.47560468 56:0.44733736 57:0.36801952 58:0.48620269 59:0.54111403 60:0.55565244 61:0.37235609 62:0.51967448 63:0.67582721 64:0.60343134 65:0.88958156 66:0.12326291 67:0.28561559 68:0.16177149 69:0.14495988 70:0.51293552 71:0.053011291 
0 0 0 0 0 0 0 0 0 0 0 0 0 0 0 0 0 0 0 0 0 0 0 0 0 0 0.6803741931437404 0 0 0 0 0 0 0 0 0 0 0 0 0 0 0.1415048924760245 0 1:0.43613482 2:0.13112456 3:0.39472345 4:0.37446848 5:0.45038584 6:0.73151255 7:0.39278659 8:0.35559687 9:0.56010175 10:0.46194443 11:0.67452484 12:0.46401706 13:0.28499752 14:0.7396304 15:0.34705532 16:0.74955636 17:0.54118842 18:0.75607347 19:0.56414795 20:0.56184375 21:0.16531907 22:0.50718486 23:0.39960101 24:0.68756658 25:0.30828211 26:0.56787843 27:0.38624358 28:0.71911669 29:0.5705151 30:0.65934199 31:0.64859754 32:0.44716004 33:0.21678588 34:0.25490946 35:0.67880958 36:0.34031796 37:0.81236744 38:0.35351938 39:0.65142602 40:0.4551703 41:0.5097838 42:0.44104862 43:0.56835264 44:0.3599979 45:0.33192298 46:0.25408959 47:0.48178312 48:0.28789112 49:0.45469987 50:0.4195627 51:0.623043 52:0.50157404 53:0.62153256 54:0.42320701 55:0.34193444 56:0.44354838 57:0.43720618 58:0.4189336 59:0.5479998 60:0.54264307 61:0.48835957 62:0.43521124 63:0.59612608 64:0.51382458 65:0.81045371 66:0.12257799 67:0.22197111 68:0.19433956 69:0.21747905 70:0.72594482 71:0.13803875 
0 0.2867386730202941 1.417120729225135 1.003936526019207 0 0 0 0 0 0 0 0 0.6299703753041406 0 0 0 0.01114299423007114 0 0 0 0 0 0 0 0 0 0.4070409506780281 0 0 0 0 0 0 0 0 0 0 0 0 0 0.3063659206565419 0 0 1:0.49454471 2:0.56702524 3:0.53596556 4:0.22523773 5:0.49953651 6:0.88630468 7:0.52051127 8:0.38898799 9:0.5646404 10:0.40020317 11:0.34060329 12:0.68107146 13:0.42016798 14:0.54478967 15:0.45633888 16:0.34058261 17:0.32992846 18:0.6212728 19:0.6164121 20:0.73715854 21:0.49658042 22:0.65519226 23:0.35420892 24:0.17225847 25:0.66006106 26:0.50726056 27:0.43311399 28:0.37377688 29:0.52741182 30:0.75649714 31:0.4727253 32:0.50394374 33:0.3019838 34:0.28716698 35:0.49313831 36:0.53822809 37:0.54385996 38:0.50133497 39:0.65760344 40:0.32234275 41:0.57036138 42:0.63806778 43:0.60099357 44:0.36066639 45:0.52083415 46:0.32892269 47:0.59786958 48:0.34544659 49:0.50632411 50:0.41200513 51:0.56850982 52:0.35674268 53:0.59683681 54:0.44055295 55:0.36072463 56:0.44605571 57:0.34597996 58:0.44308624 59:0.62060654 60:0.4719649 61:0.56983334 62:0.58177769 63:0.54312152 64:0.52923506 65:0.83688325 66:0.22133672 67:0.17821628 68:0.23364812 69:0.24451737 70:0.72551161 71:0.12335616 
0 0 0 0 0 0 0 0 0 0 0 0 0.4584422992620549 0 0 0 0 0 0 0 0 0 0 0 0 0 0 0 0 0 0 0 0 0 0 0 0 0 0 0 0 0.2210614884925477 0 1:0.48350728 2:0.49477804 3:0.38710102 4:0.28598699 5:0.49184048 6:0.79015803 7:0.32673571 8:0.57184297 9:0.66203392 10:0.46495771 11:0.48344678 12:0.4281764 13:0.70183033 14:0.7322523 15:0.72680056 16:0.27628857 17:0.4261758 18:0.52640438 19:0.77659494 20:0.55007356 21:0.37401661 22:0.4633339 23:0.45621809 24:0.5367133 25:0.60705793 26:0.39519718 27:0.55972147 28:0.41437951 29:0.58639532 30:0.54166996 31:0.39407343 32:0.62577742 33:0.47886446 34:0.29240695 35:0.54718906 36:0.53839493 37:0.43410608 38:0.6298914 39:0.66727364 40:0.47566843 41:0.62673408 42:0.30694413 43:0.57144308 44:0.52443361 45:0.57340825 46:0.32095501 47:0.65373641 48:0.33666345 49:0.39900672 50:0.53162205 51:0.54124701 52:0.40927851 53:0.69745219 54:0.41538647 55:0.44182751 56:0.62376761 57:0.46154624 58:0.40108046 59:0.60495698 60:0.50294495 61:0.59537077 62:0.36122519 63:0.76373637 64:0.59909117 65:0.80630136 66:0.013924866 67:0.24422748 68:0.20803939 69:0.21127951 70:0.67798686 71:0.11254828 
0 0 0 0 0 0 0 0 0 0 0.8322246783542834 0.1783872442181705 0 0 0.3110780391963959 0 0 0 0.3957611435395728 0.05817519738205414 0.08452413378994075 0 0 0 0 0.06536278454922814 0 0 0 0 0 0 0.8146876764855556 0 0.0871633910804548 0.6737738617569826 0 0.5187145112220188 0 0 0 0 0 1:0.34987381 2:0.3490006 3:0.72801352 4:0.3114661 5:0.69469976 6:0.77313447 7:0.38506255 8:0.6003893 9:0.67697006 10:0.41254243 11:0.41026884 12:0.26683265 13:0.73516136 14:0.62275916 15:0.64393902 16:0.25772244 17:0.48011017 18:0.66954798 19:0.78072983 20:0.41851759 21:0.25224423 22:0.38302469 23:0.28630832 24:0.51077831 25:0.39702767 26:0.49229538 27:0.82867545 28:0.41543889 29:0.43986088 30:0.51627731 31:0.31646538 32:0.45842218 33:0.595761 34:0.22173205 35:0.37240666 36:0.30829278 37:0.45640272 38:0.50111872 39:0.66160399 40:0.44491497 41:0.60819942 42:0.35588503 43:0.60162801 44:0.61350083 45:0.57658482 46:0.39386657 47:0.61180145 48:0.48861048 49:0.52231628 50:0.43688473 51:0.3478286 52:0.39361298 53:0.68367934 54:0.43882173 55:0.48554182 56:0.6933254 57:0.35443404 58:0.29746526 59:0.58690703 60:0.59580934 61:0.55546582 62:0.34799695 63:0.78308398 64:0.54582316 65:0.86206102 66:0.022041647 67:0.16332307 68:0.19309671 69:0.29481846 70:0.67868978 71:0.22274873 
0 0 0 0 0 0 0 0 0 0 0 0 0 0.140546979300887 0 0 0 0 0 0 0 0 0 0 0 0 0 0 0 0 0 0 0.2234325717803114 0 0 0 0 0 0 0 0 0 0 1:0.3325139 2:0.28235832 3:0.75522453 4:0.61702538 5:0.57828647 6:0.3867524 7:0.6699912 8:0.47100535 9:0.58554292 10:0.43831822 11:0.5353235 12:0.39057896 13:0.52543449 14:0.40722311 15:0.46515289 16:0.39345077 17:0.58898336 18:0.49216568 19:0.22648385 20:0.62111473 21:0.28487441 22:0.61944664 23:0.39144304 24:0.37116894 25:0.52252132 26:0.41088399 27:0.46977514 28:0.57083249 29:0.40863359 30:0.50643599 31:0.51696169 32:0.26849514 33:0.38622075 34:0.57562029 35:0.34483945 36:0.53818309 37:0.42333722 38:0.1927226 39:0.53100687 40:0.62104046 41:0.51644737 42:0.49383926 43:0.49088848 44:0.44594783 45:0.50748706 46:0.17245777 47:0.30944604 48:0.31111962 49:0.41748759 50:0.44091716 51:0.56018627 52:0.38837996 53:0.59109312 54:0.67100018 55:0.52509964 56:0.41904303 57:0.30082619 58:0.4864018 59:0.60665542 60:0.6460979 61:0.5709582 62:0.39251429 63:0.53065836 64:0.54478353 65:0.90018749 66:0.12749435 67:0.141618 68:0.23051794 69:0.34766102 70:0.78406298 71:0.12901148 
0.4176437224513664 0.961273934859854 0.1275207420912366 0 0.2063640471487599 0 0 0 0.5278836262623946 2.309987508675201 0 0.9237109870627375 0 0.4481098999246379 0 0 0 0.20900186512396 0 0 0 0 0 0 0 0 0 0.7906936816110353 0 0 0 0 0 0 0 0 0 0 0 0 0 0 0.9640258411733642 1:0.54147881 2:0.52170724 3:0.36428016 4:0.42622197 5:0.52997524 6:1 7:0.23570064 8:0.41600651 9:0.48841688 10:0.34658617 11:0.47193468 12:0.51298392 13:0.59006077 14:0.5178014 15:0.47559434 16:0.21953315 17:0.27861306 18:0.51624787 19:0.4388296 20:0.65552688 21:0.48408508 22:0.70170969 23:0.51824528 24:0.67664033 25:0.61375159 26:0.28601533 27:0.49963245 28:0.63119423 29:0.5936169 30:0.75612134 31:0.64946437 32:0.7055558 33:0.59976125 34:0.51263028 35:0.63972342 36:0.48158976 37:0.4655703 38:0.6493718 39:0.74193263 40:0.56332582 41:0.27667478 42:0.45791781 43:0.64874798 44:0.56577224 45:0.48512408 46:0.46392262 47:0.62547308 48:0.59926569 49:0.35495719 50:0.56092215 51:0.53517973 52:0.42608833 53:0.60418046 54:0.5576371 55:0.44488084 56:0.42783955 57:0.36712456 58:0.31193593 59:0.54603004 60:0.56827152 61:0.4897036 62:0.4813984 63:0.8453353 64:0.60387754 65:0.64694279 66:0.15330715 67:0.22238161 68:0.16011357 69:0.16803609 70:0.60737979 71:0.022023497 
0 0.07834728210057863 0 0 0 0 0 0 0 0 0.04103314725877653 0 0 0 0 0 0.4752640371250283 0 0 0 0 0 0 0.5073599133579357 0 0 0 0 0 0 0 0 0.5664207251268467 0 0 0 0 0 0 0 0 0 0 1:0.37519372 2:0.43977213 3:0.33957925 4:0.44717285 5:0.52898622 6:0.80212194 7:0.2318899 8:0.71194488 9:0.56777072 10:0.21606861 11:0.51061565 12:0.57492769 13:0.5460192 14:0.49675614 15:0.51795375 16:0.10420747 17:0.42086953 18:0.457802 19:0.51655185 20:0.66320032 21:0.77815419 22:0.48352346 23:0.44627979 24:0.44489253 25:0.54495198 26:0.36508149 27:0.36646011 28:0.55934912 29:0.58215278 30:0.7189908 31:0.54735154 32:0.46030635 33:0.61038989 34:0.39847034 35:0.51768017 36:0.53859192 37:0.47551477 38:0.59838521 39:0.77532619 40:0.55713493 41:0.51626754 42:0.40134251 43:0.65858275 44:0.61750233 45:0.67055792 46:0.3260318 47:0.54559606 48:0.6113199 49:0.42168388 50:0.68097126 51:0.5767408 52:0.33106139 53:0.67808568 54:0.55790228 55:0.4241828 56:0.49553877 57:0.28152269 58:0.32061338 59:0.46510124 60:0.5795508 61:0.54294556 62:0.43656364 63:0.79115629 64:0.62864619 65:0.72439528 66:0.13310838 67:0.2115332 68:0.078145318 69:0.15699151 70:0.60777295 71:0.060786258 
0 0.02666498405470064 0.1390270734260534 0.0430034556516491 0.5595017566198802 0 0 0 0 0 0 0 0 0.8351984160997328 1.301933394414435 0.4169865230890952 0 0 0 0 0 0 0.3350998553738669 0.1047543972363813 0 0 1.559246716971818 0 0 0 0 0 0 0 0 0 0 0.6799147173635293 0 0 0.1715446185131404 0 0 1:0.65223646 2:0.37531283 3:0.48565596 4:0.26054791 5:0.54717636 6:0.6032626 7:0.2653456 8:0.51342493 9:0.54510051 10:0.53733981 11:0.65515828 12:0.49884462 13:0.48995787 14:0.52620113 15:0.7919727 16:0.22097638 17:0.30372405 18:0.44497302 19:0.51544172 20:0.43506885 21:0.39648151 22:0.40401077 23:0.43228143 24:0.73514509 25:0.47266483 26:0.41884264 27:0.63169676 28:0.73583037 29:0.61560029 30:0.43774629 31:0.57094687 32:0.83522046 33:0.53882283 34:0.3100487 35:0.31446534 36:0.25342727 37:0.60849017 38:0.71366549 39:0.55757993 40:0.62012935 41:0.38227668 42:0.41832739 43:0.51887006 44:0.63738304 45:0.40962106 46:0.20891036 47:0.65918291 48:0.5529567 49:0.48695749 50:0.44545427 51:0.53802955 52:0.29805708 53:0.68402737 54:0.51587969 55:0.35371524 56:0.46517402 57:0.38733453 58:0.42014644 59:0.55037236 60:0.59553379 61:0.49297726 62:0.46995085 63:0.76494783 64:0.574678 65:0.67043948 66:0.12580876 67:0.21990041 68:0.12582576 69:0.20239654 70:0.64251709 71:0.082689747 
0 0 0 0 0 0 0 0 0 0 0 0 0 0 0 0 0.5989633379749651 0 0 0 0 0 0 0 0 0 0 0 0 0 0 0 0 0 0 0 0 0 0 0 0 0 0 1:0.57727563 2:0.29588524 3:0.70952636 4:0.42788288 5:0.53936744 6:0.55212551 7:0.2651903 8:0.44695178 9:0.41355994 10:0.58092195 11:0.64985442 12:0.40451938 13:0.38236573 14:0.65455294 15:0.53262454 16:0.33387724 17:0.40200618 18:0.55649513 19:0.69780946 20:0.57746518 21:0.38598302 22:0.53430879 23:0.38568214 24:0.80918837 25:0.5237245 26:0.48600659 27:0.68577188 28:0.76677179 29:0.60770118 30:0.54357392 31:0.52453721 32:0.67625761 33:0.42667574 34:0.36550614 35:0.38072261 36:0.38287452 37:0.66083771 38:0.61553401 39:0.62075305 40:0.65926635 41:0.27402449 42:0.46039081 43:0.56271952 44:0.39757138 45:0.38439551 46:0.36803502 47:0.74289083 48:0.58981824 49:0.45436943 50:0.54428452 51:0.49030477 52:0.29418531 53:0.5885604 54:0.49023011 55:0.44364983 56:0.5267272 57:0.40559572 58:0.33610016 59:0.60384631 60:0.59602702 61:0.47458237 62:0.48457548 63:0.73270023 64:0.57337981 65:0.71730173 66:0.11824748 67:0.22609065 68:0.12607934 69:0.13374159 70:0.65707976 71:0.10783521 
0 0.8627465487285253 1.113093585560004 0 0 0.7577670884620271 0.5165781057104355 0.8645804008857068 0.08268935191209299 0 0.2227247374582395 0 0 0.4927217295213311 0 0.07665101016310701 1.791140968751133 0.2949711096706932 0 0.1870979919589288 0 0.8056429797440173 0 0 1.058573091432806 0 0.08901211217668067 0 0.4354124213045447 0.9099005371455811 0.4829970471318007 0.1970044565121888 1.18673883556639 1.15692532215497 1.581577920895633 0 0.3693042048088803 0.4166616979057589 1.816635845149624 0.3274086855785739 0.1927996520935282 0.5757908677307567 1.048132166806786 1:0.49442893 2:0.26020625 3:0.78080744 4:0.41892365 5:0.37189803 6:0.42743978 7:0.68306619 8:0.6199947 9:0.30925575 10:0.50242406 11:0.55506229 12:0.5376001 13:0.47860786 14:0.61149782 15:0.72723746 16:0.50551599 17:0.27617425 18:0.083407439 19:0.31626755 20:0.65162504 21:0.53226423 22:0.83927959 23:0.34809053 24:0.52100235 25:0.61286098 26:0.41391596 27:0.20633076 28:0.58767486 29:0.61491334 30:0.69030136 31:0.62026912 32:0.8040747 33:0.42616349 34:0.41429114 35:0.32066646 36:0.54469424 37:0.45567828 38:0.4379015 39:0.61654252 40:0.7250886 41:0.31170657 42:0.27060014 43:0.51722592 44:0.05280846 45:0.62618589 46:0.55017054 47:0.55105633 48:0.73875278 49:0.494192 50:0.27797064 51:0.3757529 52:0.51687562 53:0.69535697 54:0.20669097 55:0.27393997 56:0.50017375 57:0.45504728 58:0.62634462 59:0.52559251 60:0.68093222 61:0.65215021 62:0.51830882 63:0.71826696 64:0.49376714 65:0.62977964 66:0.10541749 67:0.19458936 68:0.17234829 69:0.23951449 70:0.55153847 71:0.18673438 
0 0 0 0 1.86465522700049 0.1920243217963877 0 0.2604971986878352 0 0 0 0 2.356939776222998 0 0.2158659087003866 0 0 0 0 0 0 0.2101763508317467 0 0 0 1.156333816832011 0 0 0 0.5163886766988038 0 0 0 0 0.1242069524019886 0 0 0 1.611363992045532 2.440146039129112 0 0 0 1:0.39140978 2:0.18862808 3:0.63699561 4:0.44551617 5:0.62257773 6:0.50738716 7:0.39545199 8:0.60864449 9:0.48214158 10:0.37823528 11:0.32506382 12:0.58637947 13:0.40258372 14:0.50837666 15:0.49850479 16:0.33620486 17:0.41837981 18:0.28707954 19:0.35929108 20:0.58174568 21:0.74325925 22:0.79408014 23:0.44124886 24:0.56416172 25:0.59250063 26:0.69424623 27:0.19894762 28:0.64236838 29:0.59617162 30:0.55011147 31:0.43365228 32:0.71399289 33:0.32884768 34:0.52357066 35:0.43763295 36:0.39084223 37:0.43778265 38:0.5063833 39:0.62097418 40:0.69795609 41:0.46109167 42:0.18178077 43:0.58393127 44:0.29077786 45:0.58890295 46:0.40434623 47:0.52011406 48:0.71916324 49:0.43546242 50:0.47126928 51:0.52549195 52:0.39525202 53:0.62599277 54:0.33059356 55:0.29830971 56:0.47706619 57:0.44549403 58:0.53556001 59:0.5318768 60:0.65993959 61:0.542952 62:0.42766219 63:0.73746234 64:0.53721416 65:0.66509676 66:0.11091939 67:0.24803212 68:0.2454302 69:0.16979197 70:0.60270149 71:0.10447863 
0 0.3132588864881906 0 0 0 0 1.600960849109259 0 1.153551763684724 0 0.7096177755947517 0.1236381668397973 0 0.6183616473088989 0 0 0 0 0.2022627461508449 0 1.516394535603365 0.7298141033644088 0.2154245431757813 0 0 0 0 0 0 0 0.6552358988141036 0 0.4142334712912744 0 0 0.9899023448733338 0 0 0 0 0 0 0 1:0.39387357 2:0.37545994 3:0.28958926 4:0.28947014 5:0.80618197 6:0.56174618 7:0.38647947 8:0.70520532 9:0.70206505 10:0.56269747 11:0.49786019 12:0.84193569 13:0.70113015 14:0.55234814 15:0.78633189 16:0.45159778 17:0.53897738 18:0.3427141 19:0.35569376 20:0.60441601 21:0.42221147 22:0.52986634 23:0.44955695 24:0.55011624 25:0.60685378 26:0.44973847 27:0.66257697 28:0.54084635 29:0.43023768 30:0.80106539 31:0.35272416 32:0.66144836 33:0.41249514 34:0.34959176 35:0.49387252 36:0.37311488 37:0.56062031 38:0.47618854 39:0.82063526 40:0.50418109 41:0.7154268 42:0.58408815 43:0.43148986 44:0.5573349 45:0.60740668 46:0.33732921 47:0.52018321 48:0.34369564 49:0.28766146 50:0.60144132 51:0.59933323 52:0.46042705 53:0.60139072 54:0.45604447 55:0.42650568 56:0.53280848 57:0.39389962 58:0.44245219 59:0.53593892 60:0.62309456 61:0.54392129 62:0.36411747 63:0.74307352 64:0.63847059 65:0.88999468 66:0.19569042 67:0.20886889 68:0.18537253 69:0.23130752 70:0.65402079 71:0.092105977 
0 0 0 0.02366615075625887 1.080379369210619 0 0 0 0 0 0 0.2736554031133996 0 0 0 0 0 0 0.8149078272735258 0 0 0 0.5241316745261767 0.006145282949250765 0 0 0 0 0 0 0 0 0 0.4762074908040762 0 0 0 0 0 0 0 0 0 1:0.42198566 2:0.48006701 3:0.3346923 4:0.41426805 5:0.49544105 6:0.61864096 7:0.57574773 8:0.53949744 9:0.56918508 10:0.45717326 11:0.35272536 12:0.70737427 13:0.57076842 14:0.56765437 15:0.67622054 16:0.33150586 17:0.44795775 18:0.63670021 19:0.63476288 20:0.537521 21:0.43331769 22:0.41638654 23:0.59342706 24:0.68087876 25:0.59585476 26:0.2748318 27:0.63457972 28:0.66196179 29:0.29208067 30:0.69168818 31:0.50999618 32:0.44782487 33:0.69435745 34:0.47177708 35:0.62834144 36:0.32324496 37:0.5686838 38:0.50823641 39:0.63493633 40:0.58817923 41:0.55453229 42:0.54523528 43:0.32720411 44:0.4337168 45:0.62287098 46:0.29165193 47:0.39735705 48:0.44552359 49:0.35847327 50:0.51081383 51:0.51430696 52:0.30315432 53:0.63603055 54:0.49800453 55:0.58159161 56:0.5227921 57:0.38389352 58:0.36513001 59:0.50635839 60:0.60436791 61:0.57780558 62:0.35669389 63:0.68404251 64:0.52147776 65:0.86514461 66:0.16662508 67:0.13409857 68:0.18717504 69:0.2588253 70:0.67589664 71:0.084242605 
0.6802449391453412 0 0 0.319871895740646 0.5029738132600662 0 0 1.303705975061559 0 0.8496426246031901 0.5656834775821714 0.2250073652163795 0.5278377897467416 0 0.1076201299581293 0 0 0 0 0.4344238169540016 0 0.5547106932716287 0.3348335094703183 0 0 0.4035790204613415 0.5476940567086526 0.2522130109859563 1.414743037396788 1.824879141311999 0 0.05774350427926761 0 0.64809029152705 0.8412984397352973 0.09664105675640092 0.634132819907854 0.2143742490048813 0.669695923712368 0 0.01629236153061004 0 0.3349942268947164 1:0.45683023 2:0.47801867 3:0.51853192 4:0.56004781 5:0.4783977 6:0.19720872 7:0.65807682 8:0.70831341 9:0.37830359 10:0.13298048 11:1 12:0.52415454 13:0.37000963 14:0.51814044 15:0.49147695 16:0.42480347 17:0.54828799 18:0.31486723 19:0.49282643 20:0.72327495 21:0.25194749 22:0.39092132 23:0.20653887 24:0.59122765 25:0.50712216 26:0.52338105 27:0.29646802 28:0.49966356 29:0.50861424 30:0.46268657 31:0.72836298 32:0.39015457 33:0.45711213 34:0.31328669 35:0.12469717 36:0.60886317 37:0.63003361 38:0.58932257 39:0.44945055 40:0.65394092 41:0.43857911 42:0.52383256 43:0.68911344 44:0.67170423 45:0.36650878 46:0.42318541 47:0.47766057 48:0.36962831 49:0.45872903 50:0.53266507 51:0.35960779 52:0.44567204 53:0.52196681 54:0.54895675 55:0.37696058 56:0.36750612 57:0.079104923 58:0.31538874 59:0.44843757 60:0.64393765 61:0.62804401 62:0.30848595 63:0.66568792 64:0.45811856 65:0.80627865 66:0.056667801 67:0.13630515 68:0.44623202 69:0.12820922 70:0.50536162 71:0.32340121 
0 0 0 0 0 0 0 0 0 0 0 0.07189039027117494 0 0 0 0 0 0 0 0 0 0 0 0 0 0 0 0 0 0 0 0 0 0 0 0 0 0 0 0 0 0 0 1:0.28626546 2:0.35545525 3:0.30181193 4:0.58759725 5:0.34895048 6:0.31685016 7:0.56211215 8:0.61036861 9:0.3436631 10:0.29046699 11:0.96038455 12:0.62328738 13:0.59476781 14:0.59744805 15:0.42663747 16:0.36048281 17:0.68105763 18:0.08854083 19:0.37350658 20:0.67777789 21:0.35911563 22:0.31080675 23:0.36254072 24:0.5510385 25:0.39574337 26:0.39634642 27:0.58162302 28:0.5744558 29:0.67564458 30:0.37485945 31:0.74410939 32:0.40083712 33:0.49133211 34:0.45445481 35:0.19937097 36:0.66307384 37:0.54199892 38:0.49774137 39:0.46777776 40:0.74423867 41:0.44152486 42:0.39635569 43:0.61132216 44:0.56917572 45:0.4980326 46:0.34801689 47:0.37839597 48:0.46840593 49:0.52017164 50:0.34234801 51:0.37769833 52:0.44029394 53:0.57558578 54:0.64408028 55:0.47470313 56:0.41319081 57:0.20631234 58:0.33133662 59:0.48715872 60:0.58010972 61:0.50830579 62:0.47110236 63:0.75773901 64:0.52244163 65:0.75883931 66:0.11250992 67:0.17997272 68:0.22126725 69:0.13736142 70:0.70335227 71:0.19063862 
0 0 0 0 0 1.136537061967605 0 0 0.8681759225550244 0 0 0 0 0 0 0 0 0 0 0 0.1309101803798367 0 0 0.01285743459785263 0 0 0 0 1.106308348498999 0 0 0 0 0 0 0 0 0 0 0 0 0 0 1:0.40861687 2:0.64828557 3:0.64702493 4:0.44188601 5:0.48975056 6:0.62794966 7:0.46721464 8:0.49607864 9:0.41991228 10:0.50122327 11:0.28793505 12:0.70900303 13:0.56158251 14:0.49682486 15:0.33309138 16:0.3905606 17:0.49118322 18:0.55228257 19:0.37281746 20:0.42282894 21:0.55558902 22:0.67706597 23:0.36916113 24:0.36762685 25:0.33916304 26:0.59161371 27:0.74866533 28:0.4694424 29:0.43669635 30:0.52670759 31:0.46942207 32:0.34486097 33:0.44223908 34:0.45480305 35:0.47070551 36:0.48090699 37:0.2655665 38:0.4749465 39:0.44304371 40:0.53322899 41:0.51954383 42:0.46202543 43:0.58131135 44:0.45071867 45:0.58575398 46:0.46762964 47:0.499019 48:0.48292619 49:0.56301498 50:0.54390627 51:0.51006734 52:0.4596847 53:0.46896949 54:0.5355835 55:0.64953476 56:0.43347448 57:0.16067176 58:0.37449712 59:0.4249289 60:0.62152278 61:0.55902684 62:0.54243642 63:0.42539492 64:0.50480217 65:0.78468263 66:0.13210917 67:0.14420797 68:0.16256781 69:0.2578499 70:0.62304765 71:0.098220982 
0 0 0 0 0 0 0 0 0 0 0 0 0 0 0 0 1.142255820199104 0 0 0 0 0 0 0 0 0 0 0.01982464436637121 0 0 0 0 0 0 0 0 0 0 0 0 0 1.185229171437363 0.09559365390898836 1:0.30266693 2:0.29676607 3:0.53084099 4:0.50870669 5:0.67624044 6:0.77618128 7:0.19944479 8:0.67924285 9:0.7297923 10:0.72251379 11:0.65021968 12:0.66378832 13:0.25856864 14:0.27444908 15:0.31221747 16:0.48212844 17:0.27851611 18:0.65198165 19:0.57718372 20:0.63981551 21:0.62790829 22:0.4503904 23:0.6487847 24:0.44395477 25:0.58366978 26:0.73207074 27:0.33906397 28:0.59850889 29:0.27501965 30:0.42277125 31:0.36634296 32:0.57966435 33:0.52696013 34:0.33994374 35:0.60765427 36:0.5575633 37:0.63358074 38:0.55300772 39:0.51290995 40:0.51616508 41:0.55673271 42:0.64867562 43:0.36053827 44:0.3506431 45:0.41248745 46:0.18239525 47:0.55505931 48:0.49795479 49:0.5380671 50:0.4392781 51:0.58297604 52:0.4555479 53:0.68026406 54:0.58932865 55:0.45154378 56:0.47510988 57:0.46928239 58:0.48120883 59:0.61107361 60:0.5790422 61:0.4689973 62:0.47983682 63:0.49747172 64:0.68006313 65:0.88832712 66:0.077054814 67:0.25682357 68:0.17414518 69:0.24041039 70:0.64223677 71:0.068305165 
0 0 0 0 0 0 0 0 0 0 0 0 0 0 0 1.244265094150737 0.587890050126443 0 0 0 0 0 0 0.3552360151933619 0 0 0 0 0 0 0 0 0 0 0 0 0 0 0 0 0 0.291662065816827 0 1:0.35865036 2:0.28390801 3:0.51538932 4:0.4019894 5:0.59474033 6:0.66128618 7:0.47289619 8:0.82997322 9:0.36179 10:0.86057472 11:0.55237556 12:0.6022709 13:0.41171408 14:0.21065116 15:0.30197397 16:0.54421651 17:0.34302557 18:0.54138398 19:0.42130983 20:0.44097352 21:0.42743781 22:0.45150939 23:0.59163028 24:0.37849367 25:0.42319348 26:0.50447273 27:0.49082738 28:0.41746601 29:0.64269382 30:0.38799155 31:0.41982752 32:0.47202843 33:0.55575222 34:0.43641055 35:0.53663653 36:0.47388113 37:0.64127231 38:0.50399882 39:0.50174689 40:0.52825838 41:0.46330848 42:0.44396782 43:0.28254956 44:0.40504524 45:0.58070105 46:0.29053453 47:0.52077752 48:0.59241205 49:0.58045626 50:0.34677565 51:0.57457453 52:0.43411496 53:0.69540501 54:0.3218177 55:0.56157589 56:0.47436106 57:0.40566215 58:0.43741101 59:0.55805063 60:0.50502098 61:0.3728244 62:0.53156143 63:0.44729 64:0.51033282 65:0.93677545 66:0.17064594 67:0.22980806 68:0.18375197 69:0.19283555 70:0.65366197 71:0.11780648 
0 0 0 0.2832606114540462 0 0 1.020606597232821 0 0 0 0 0 0 0 0 0 0 0 0 0 0 0 0 0.1178250455757075 0 0 0 0.3371880653328884 0 0 0 0 0 0 0 0 0 0 0 0 0 0 0 1:0.43003476 2:0.51661533 3:0.21528399 4:0.22411664 5:0.4781222 6:0.60852075 7:0.28789607 8:0.39012209 9:0.25976229 10:0.72618812 11:0.68720508 12:0.69238704 13:0.40014192 14:0.52271116 15:0.54057139 16:0.41236266 17:0.052152291 18:0.48476994 19:0.50105166 20:0.69664043 21:0.46830353 22:0.59656537 23:0.55499983 24:0.57486832 25:0.58827955 26:0.68533367 27:0.62634116 28:0.72558457 29:0.72360581 30:0.58509451 31:0.66856831 32:0.45146725 33:0.51951867 34:0.26572472 35:0.37938371 36:0.40241745 37:0.61832857 38:0.62822652 39:0.64971823 40:0.64587992 41:0.34634727 42:0.60454744 43:0.50670427 44:0.31743288 45:0.41178706 46:0.28041887 47:0.66781139 48:0.5728308 49:0.55789143 50:0.3690359 51:0.52732128 52:0.3071554 53:0.63633233 54:0.39260656 55:0.35035673 56:0.45000923 57:0.47939342 58:0.45435131 59:0.55934012 60:0.56530178 61:0.34322 62:0.54575437 63:0.60460365 64:0.63532215 65:0.79661155 66:0.16950323 67:0.28221589 68:0.23262708 69:0.18250152 70:0.66254693 71:0.057204667 
0.7618788023652329 0.3280216776041271 0.2500317157948737 0.6378385748974928 0 1.572414279651414 0 0.8216521837016488 0.8804212474461397 0.4401001062932553 2.370838902546318 0.7816858228515039 0.562521445159555 0 2.56584513634725 0 0.4707260799324115 0.1232491107254424 0.9619649378661055 1.045433841877946 0 1.101133814030524 0 0.7280330076590393 0 0 0 0.964183014836564 0.3198193740879062 0 0.6658172907821223 0 0 0 0 0 0.02932705232339081 0.4663115840234698 0 1.187952343411479 0.8417061502322123 0 0.3566266780231123 1:0.47804597 2:0.62760556 3:0.55076921 4:0.24848631 5:0.48936519 6:0.71679652 7:0.05475197 8:0.67138374 9:0.40237358 10:0.73724222 11:0.69386482 12:0.79872328 13:0.49565557 14:0.65187091 15:0.642187 16:0.25528398 17:0.10427256 18:0.34182835 19:0.56824875 20:0.6427843 21:0.45845681 22:0.39053103 23:0.52066243 24:0.62240767 25:0.70875669 26:0.5405786 27:0.60141194 28:0.60171902 29:0.78665674 30:0.49552929 31:0.54838115 32:0.44202262 33:0.45289579 34:0.34593663 35:0.44706917 36:0.4716621 37:0.4984481 38:0.68903393 39:0.58013439 40:0.49459508 41:0.34667748 42:0.64234722 43:0.46648937 44:0.53762013 45:0.42133355 46:0.44510004 47:0.53368634 48:0.64843631 49:0.57333589 50:0.54912466 51:0.39723215 52:0.43550065 53:0.70117754 54:0.3452464 55:0.41199985 56:0.51090586 57:0.38511178 58:0.41943359 59:0.54561102 60:0.48161924 61:0.38249052 62:0.6277985 63:0.57326132 64:0.62495786 65:0.81114286 66:0.2324785 67:0.21197851 68:0.24222656 69:0.18577102 70:0.56912994 71:0.05646649 
0 0 0 0 0 0 0 0 0 0 0.2661756397585016 0.4725445021998199 0 0 0 0 0 0 0 0 0 0.1450353173197864 0 0 0.5690324673730036 0 0 0 0 0 0 0 0 0 0 0 0.09049003527473777 0 0 0 0.7442905897406722 0 0.149107138662952 1:0.049657211 2:0.56571984 3:0.59668565 4:0.40171334 5:0.65266961 6:0.32494015 7:0.45496476 8:0.52721995 9:0.50332111 10:0.41679725 11:0.6067794 12:0.35542735 13:0.34358394 14:0.55692714 15:0.62490517 16:0.21737725 17:0.63643724 18:0.51607519 19:0.28213215 20:0.43835169 21:0.60147953 22:0.56627166 23:0.78512686 24:0.46059665 25:0.59713691 26:0.5099681 27:0.39205018 28:0.61379153 29:0.45151529 30:0.58958185 31:0.40080404 32:0.58421928 33:0.55233973 34:0.43164411 35:0.58701181 36:0.82548594 37:0.45203912 38:0.62105829 39:0.593413 40:0.36815831 41:0.51791847 42:0.32522523 43:0.57760376 44:0.58887333 45:0.48984206 46:0.50873238 47:0.44169396 48:0.45310867 49:0.39699772 50:0.47817895 51:0.57135177 52:0.39972883 53:0.59271222 54:0.47442478 55:0.48083603 56:0.32976168 57:0.29218373 58:0.40741956 59:0.5883761 60:0.61399001 61:0.49982941 62:0.47536406 63:0.66933912 64:0.54486626 65:0.85907388 66:0.14593033 67:0.15712351 68:0.18163678 69:0.22752996 70:0.70159155 71:0.068962254 
0.5879261760035621 0 0.8706501911963551 0 0 0 0 0 0 0 0 0 0.7732003977092671 0.1990955531820411 0 0 0 0.2755848527164618 0 0 0.3587760638407 0 0 0 0 0 0 0 0.2561028684399868 0 0 0 0 0 0 1.420955781235594 0 0 0 1.016462430309897 0 0.2125042981332808 0 1:0.34564629 2:0.73480707 3:0.65447009 4:0.5746032 5:0.64073402 6:0.50911266 7:0.49431887 8:0.60987449 9:0.42025217 10:0.43867177 11:0.45367736 12:0.66781491 13:0.26087925 14:0.54849023 15:0.57970476 16:0.3192043 17:0.59207886 18:0.37396961 19:0.40747702 20:0.45190999 21:0.38477287 22:0.633084 23:0.73558241 24:0.48084304 25:0.76556122 26:0.41384888 27:0.4783859 28:0.55663699 29:0.54278368 30:0.72601455 31:0.66263926 32:0.66337067 33:0.14576265 34:0.43599588 35:0.420789 36:0.77342695 37:0.47370321 38:0.43363917 39:0.64605111 40:0.43881509 41:0.44686612 42:0.46900854 43:0.6196149 44:0.39686403 45:0.435579 46:0.35209876 47:0.52670783 48:0.47630873 49:0.3927775 50:0.58399284 51:0.57477933 52:0.46307418 53:0.58506113 54:0.56467193 55:0.43961698 56:0.37823769 57:0.37515378 58:0.3688361 59:0.57202393 60:0.5357095 61:0.56135267 62:0.53424567 63:0.63545126 64:0.57692713 65:0.73917025 66:0.16115063 67:0.16815503 68:0.25790086 69:0.18852811 70:0.57382667 71:0.089010485 
0 0 0 0.3100252175454523 0 0 0 0 0 0 0 0 0 0 0 1.905298151385843 0 0 0.7213841487023256 0 0 0.5366384550785431 0 0 1.377856218558081 0 0.9206712471748824 0 0 0 0 0 0.12281602785785 0 0 0 0.05825573934246952 0 0 0 0 0.2505543411752042 0 1:0.34977445 2:0.34689441 3:0.52129412 4:0.31998685 5:0.56620961 6:0.49636433 7:0.63008249 8:0.47595727 9:0.51278174 10:0.56072146 11:0.62014735 12:0.71273571 13:0.70840466 14:0.39322904 15:0.7108708 16:0.35258868 17:0.41992262 18:0.46219933 19:0.45498732 20:0.56327426 21:0.55093962 22:0.62650508 23:0.55371821 24:0.3719832 25:0.48118368 26:0.72554743 27:0.61033463 28:0.30145544 29:0.87058949 30:0.57866406 31:0.46020505 32:0.5584352 33:0.40561542 34:0.51017988 35:0.41059688 36:0.76616979 37:0.47871593 38:0.50470889 39:0.58255351 40:0.59649467 41:0.47570258 42:0.53779387 43:0.49965858 44:0.486837 45:0.50771213 46:0.239397 47:0.35058102 48:0.34184331 49:0.5227527 50:0.32106814 51:0.47092238 52:0.34194037 53:0.55164969 54:0.4268066 55:0.47673389 56:0.47430271 57:0.3509278 58:0.45366406 59:0.59942675 60:0.51394928 61:0.53693426 62:0.60249937 63:0.35736042 64:0.53036094 65:0.96351367 66:0.25338849 67:0.18584557 68:0.16288814 69:0.27425295 70:0.65193677 71:0.13124499 
0 0 0 1.144290619579363 0 0 0.1169442263073866 0 0 0 0.7220600012197268 0.3399644501426614 0.1358780578262257 0 0 0.7182016944288868 1.501772233196639 0 1.161301397324167 0 0 2.142603765310373 0 0 0 0 0 0 0 2.924729535774068 0 0 0.7673863964588178 0 0 0 0.5663273144658965 0 0 0 0.4675631135022962 0 0 1:0.56289268 2:0.43446371 3:0.51677793 4:0.57318592 5:0.65572023 6:0.50006533 7:0.41127044 8:0.46781987 9:0.50358278 10:0.59408063 11:0.35967088 12:0.65868616 13:0.64308673 14:0.6485647 15:0.47382727 16:0.52779782 17:0.55256248 18:0.57387441 19:0.65540618 20:0.71667665 21:0.46375787 22:0.86577624 23:0.50743538 24:0.49561185 25:0.49037692 26:0.81462801 27:0.45069945 28:0.42004207 29:0.41592395 30:0.56986356 31:0.36290106 32:0.31938833 33:0.42199787 34:0.61993384 35:0.40476057 36:0.51602757 37:0.39251569 38:0.33953702 39:0.72331566 40:0.55339271 41:0.32468998 42:0.51839507 43:0.54203141 44:0.34734035 45:0.52227587 46:0.42159826 47:0.46719265 48:0.51309651 49:0.5033229 50:0.44454899 51:0.40708232 52:0.27590725 53:0.52835017 54:0.38207343 55:0.50460571 56:0.47332704 57:0.35414395 58:0.48067871 59:0.52556932 60:0.6487574 61:0.51789623 62:0.58278024 63:0.33244839 64:0.47909927 65:0.98176777 66:0.30931151 67:0.12456087 68:0.21499676 69:0.28409073 70:0.62110007 71:0.21407253 
0 0 0 0 0 0 0 0 0 0 0 0 0 0 0 0 0 0 0 0 0 0 0 0 0 0.3282900136062434 0 0 0 0 0 0 0 0 0 0 0 0 0 0 0 1.493942443535489 0 1:0.44090039 2:0.43328291 3:0.50505406 4:0.41176751 5:0.51160675 6:0.29021883 7:0.37969923 8:0.40727437 9:0.57877815 10:0.38837466 11:0.53532332 12:0.6902957 13:0.54245758 14:0.60067254 15:0.54786688 16:0.30529937 17:0.42521337 18:0.44780806 19:0.54514545 20:0.57230645 21:0.30527472 22:0.54428196 23:0.45696929 24:0.51011717 25:0.57952678 26:0.59618986 27:0.44026676 28:0.53478909 29:0.67365146 30:0.60801727 31:0.33480021 32:0.41565365 33:0.42139003 34:0.43286499 35:0.50959998 36:0.51725662 37:0.5245415 38:0.18516375 39:0.77673036 40:0.47068918 41:0.42443311 42:0.48569748 43:0.58866477 44:0.43106368 45:0.5237667 46:0.43009228 47:0.46061152 48:0.5263679 49:0.43451881 50:0.2994943 51:0.50038946 52:0.38648933 53:0.54268873 54:0.50043327 55:0.45955655 56:0.46030453 57:0.38393381 58:0.35574323 59:0.48227477 60:0.51073593 61:0.62345552 62:0.56774908 63:0.55747187 64:0.44423178 65:0.84373403 66:0.14144032 67:0.17815366 68:0.23977393 69:0.22537495 70:0.66533989 71:0.16483225 
0 0 0 0 0 0 0.5297917567026909 0 0 0 0 1.105972670712354 1.273691760575229 0 0 0.4304290947628412 0 0 0 0.7912144238650073 0.6128117599868291 0 0 0 0 0 0 0 0 0 0 0 0 0 0 0 0 0 0 0 0 0 0.3916903249280914 1:0.50552875 2:0.46425679 3:0.45435593 4:0.36917537 5:0.47523546 6:0.27067101 7:0.64683914 8:0.50130004 9:0.32022855 10:0.64112943 11:0.58169836 12:0.45548564 13:0.24620181 14:0.67526746 15:0.21692504 16:0.60320389 17:0.37262994 18:0.099145912 19:0.28582758 20:0.7746802 21:0.7386905 22:0.78635979 23:0.54077166 24:0.41171807 25:0.51243365 26:0.58946741 27:0.39153841 28:0.2866362 29:0.38120395 30:0.44286966 31:0.63689893 32:0.69140506 33:0.45358542 34:0.20660727 35:0.58533269 36:0.71459866 37:0.31267485 38:0.55252016 39:0.42841774 40:0.52591294 41:0.48369548 42:0.42227629 43:0.56401914 44:0.30193785 45:0.35416007 46:0.24206644 47:0.4611969 48:0.32193038 49:0.54440749 50:0.43611208 51:0.55376422 52:0.54010713 53:0.60748506 54:0.39046907 55:0.37074098 56:0.49836943 57:0.42933816 58:0.46840176 59:0.49989304 60:0.49163467 61:0.34825829 62:0.59995919 63:0.62475502 64:0.55898529 65:0.79200983 66:0.22801787 67:0.18041457 68:0.21452369 69:0.18660977 70:0.65452284 71:0.11787439 
0 0.00551022027538388 0 0 0 0 0 0 0 1.588789104769686 0 0 0 0 0 0.3319748284553359 0 0 0 0.02251523301001788 0 0.08847330228301294 0 0 0 0 0 0.8854701119003515 0.06344902209208958 0 0 0 0 0 0 0 0 0 0 0 0 0 0 1:0.44326147 2:0.39229679 3:0.82917798 4:0.4095256 5:0.33861616 6:0.36577696 7:0.47669989 8:0.70551217 9:0.52877754 10:0.45942193 11:0.43235785 12:0.65738624 13:0.35820171 14:0.54443622 15:0.39519614 16:0.28344929 17:0.27618372 18:0.27390856 19:0.43499139 20:0.58621132 21:0.57879704 22:0.90631676 23:0.38875034 24:0.45190385 25:0.47895804 26:0.76459849 27:0.37397853 28:0.42254245 29:0.75114083 30:0.39386874 31:0.59293336 32:0.64603513 33:0.41145647 34:0.24562927 35:0.48748881 36:0.64751607 37:0.34960842 38:0.56505942 39:0.56778008 40:0.56917125 41:0.4883517 42:0.41682446 43:0.58717716 44:0.16974612 45:0.46102983 46:0.58335805 47:0.43545359 48:0.4457621 49:0.61769575 50:0.30726218 51:0.38087705 52:0.50293291 53:0.60366589 54:0.29532775 55:0.41634354 56:0.63732505 57:0.39968643 58:0.47626686 59:0.50144905 60:0.58870447 61:0.52347952 62:0.61697721 63:0.6317398 64:0.52168101 65:0.7002148 66:0.14040276 67:0.13638465 68:0.28160086 69:0.21795177 70:0.62633592 71:0.10861892 
0 0.7500735882032957 0 0.1266854494789798 0 0 0 0 1.458330827592596 0 0.4368788872906301 1.111309317408515 0 0.2839485874960321 0 0 0 0.01813152995799388 0 0 0 2.261346113142017 0 0 0 0 0 0 0 1.00507889810342 0.8194563591761774 0.05179065827160931 1.862087329573111 0 1.713832904213345 0.259488467340519 0 0.3832057563410101 1.459942302962622 0 0 1.367120838089867 0.7913848403524814 1:0.54437709 2:0.44105679 3:0.52356076 4:0.53684658 5:0.48051271 6:0.19772564 7:0.52775031 8:0.61435014 9:0.52904528 10:0.55487269 11:0.52239776 12:0.48089829 13:0.34253162 14:0.11861996 15:0.34293893 16:0.40068904 17:0.49846101 18:0.39864686 19:0.64055556 20:0.46808857 21:0.19227502 22:0.74156606 23:0.58831036 24:0.67002046 25:0.37739292 26:0.46396178 27:0.51319951 28:0.57991397 29:0.45162317 30:0.41477895 31:0.65302759 32:0.25925454 33:0.4807615 34:0.38005161 35:0.3401475 36:0.56890678 37:0.5894171 38:0.41805315 39:0.69714665 40:0.54258341 41:0.37107465 42:0.63672763 43:0.7428152 44:0.48565823 45:0.40401033 46:0.14233242 47:0.68041837 48:0.30952653 49:0.46136278 50:0.62633526 51:0.50287509 52:0.41479555 53:0.4067401 54:0.59379166 55:0.5815835 56:0.33459091 57:0.2295875 58:0.40461829 59:0.41030622 60:0.65574378 61:0.58000219 62:0.42793879 63:0.3979362 64:0.51992106 65:0.94740707 66:0.19940364 67:0.058597594 68:0.33086878 69:0.28548625 70:0.6266408 71:0.31336597 
0 0 0 0.7951828953897364 0.5102009258181923 1.131350383895807 0 0.4087117102716301 0 0 1.186769832467684 0.7434419762058458 0 0.6295969061465855 0 0 0 0 0 0 0 0.008606547896389588 0 0 0 0 0 0 0.694381834575299 0 0 0 0 0 0.5087005509026782 2.215048473423945 0.647365426845079 0 0 0.4564866786043217 0 0 0 1:0.34059745 2:0.61339682 3:0.5072521 4:0.32371938 5:0.52080119 6:0.14028671 7:0.5631488 8:0.59018064 9:0.43017587 10:0.46159038 11:0.84003478 12:0.69812733 13:0.54904306 14:0.43079299 15:0.28084439 16:0.4716813 17:0.52791601 18:0.30095816 19:0.46859047 20:0.63033378 21:0.11054813 22:0.73799437 23:0.46791068 24:0.58102596 25:0.45403358 26:0.55581456 27:0.33778048 28:0.47267988 29:0.57791412 30:0.33326116 31:0.43024814 32:0.28506917 33:0.21091489 34:0.34922445 35:0.26692095 36:0.4504886 37:0.43374616 38:0.52069849 39:0.69551086 40:0.45812878 41:0.47277415 42:0.47145504 43:0.59831744 44:0.29848993 45:0.40356806 46:0.49230823 47:0.36342415 48:0.46473926 49:0.45235789 50:0.35180923 51:0.51022404 52:0.4035188 53:0.63143635 54:0.39055046 55:0.50105602 56:0.39912906 57:0.36317602 58:0.45663327 59:0.49826449 60:0.59906453 61:0.50591671 62:0.55782777 63:0.49107498 64:0.50474805 65:0.83726394 66:0.2241596 67:0.12064181 68:0.29834113 69:0.18798122 70:0.61697948 71:0.22623295 
0 0 0 0 0 0 0.03769892130918651 0 0 0 0 0 0 0 0 0 0 0 0 0 0.8113766736183221 0 0 0.3577034637179043 0 0 0 0 0 0 0 0 0 0 0 0 0.01166216374578805 0 0 0 0 0 0 1:0.48347023 2:0.50995624 3:0.56685394 4:0.43740034 5:0.56888926 6:0.3548485 7:0.70679504 8:0.49303246 9:0.47508147 10:0.33439279 11:0.5552932 12:0.344313 13:0.50706255 14:0.52012897 15:0.52284735 16:0.68514866 17:0.48015663 18:0.37463662 19:0.30235407 20:0.59071136 21:0.50366616 22:0.64696926 23:0.5121668 24:0.39326313 25:0.524903 26:0.58102536 27:0.36130968 28:0.34292102 29:0.32793033 30:0.4869523 31:0.44142655 32:0.31844494 33:0.40550727 34:0.42488328 35:0.26625177 36:0.63474256 37:0.43128553 38:0.51822644 39:0.51325369 40:0.50566792 41:0.41006371 42:0.76096696 43:0.54037064 44:0.5467248 45:0.54516268 46:0.45221189 47:0.55415624 48:0.28679642 49:0.45859104 50:0.6652295 51:0.42533335 52:0.52587831 53:0.53886676 54:0.48120064 55:0.36256474 56:0.31346241 57:0.20139226 58:0.37269944 59:0.424651 60:0.49968749 61:0.70160812 62:0.31628528 63:0.52447414 64:0.4303734 65:0.96894157 66:0.13089566 67:0.14562137 68:0.32524168 69:0.24525921 70:0.54266721 71:0.23631509 
0 0 0 0 0 0 0 0 0 0 0 0 0 0 0 0 0 0 0 0 0 0 0 0 0 0.5428684664717112 0 0.27055656098543 0 0 0 0 0 0 0 0 0 0.4354257908877494 0 0 0 0 0 1:0.33746767 2:0.51179665 3:0.51967198 4:0.45070744 5:0.69623077 6:0.252691 7:0.40092227 8:0.37203684 9:0.53366691 10:0.28719351 11:0.37626737 12:0.5078845 13:0.40654734 14:0.47151241 15:0.37638602 16:0.60048455 17:0.34894028 18:0.49025014 19:0.16181365 20:0.69135433 21:0.39136484 22:0.61712468 23:0.54761076 24:0.56598753 25:0.59635842 26:0.63050592 27:0.45335534 28:0.35862398 29:0.36885566 30:0.38035768 31:0.31488562 32:0.38296926 33:0.22798441 34:0.42697939 35:0.34385046 36:0.53160381 37:0.34948754 38:0.31588447 39:0.51213557 40:0.49586383 41:0.46008649 42:0.52474546 43:0.54817909 44:0.29956067 45:0.48294058 46:0.49965814 47:0.52685177 48:0.43305084 49:0.48922738 50:0.34008038 51:0.56892097 52:0.47052926 53:0.59698451 54:0.58703148 55:0.46175703 56:0.42080548 57:0.41998634 58:0.38739812 59:0.43615922 60:0.51293153 61:0.63976914 62:0.50526774 63:0.48450765 64:0.52317739 65:0.92263317 66:0.17528491 67:0.14949201 68:0.20645668 69:0.31983989 70:0.64366597 71:0.13045517 
0 0 0 0 0 1.86617714649514 0 0.8658987932807715 0 0 0 0 0 0.5871911641012622 0 0 0.03878737059292318 2.007596496390256 0 0 0.8319662991298684 0 0 0.4301988647924465 0 0 1.105916803877166 0 0 0 0.5259746662060972 0.3080590095680422 0 0 0 0 0 0 0 0 0 0 0 1:0.44878694 2:0.66228968 3:0.75234002 4:0.317828 5:0.71775162 6:0.37115797 7:0.40373433 8:0.54058337 9:0.43583369 10:0.52264279 11:0.15378234 12:0.7283057 13:0.71122599 14:0.39290038 15:0.67143816 16:0.30814859 17:0.28763318 18:0.42677668 19:0.21278904 20:0.46822223 21:0.45645449 22:0.76532149 23:0.68891966 24:0.48254275 25:0.62471592 26:0.78047085 27:0.29843616 28:0.72493309 29:0.42578134 30:0.46750176 31:0.46555874 32:0.65181053 33:0.41065484 34:0.51306546 35:0.52998966 36:0.40224627 37:0.25207889 38:0.46787331 39:0.65486497 40:0.45308056 41:0.49257621 42:0.45304126 43:0.33223897 44:0.55396241 45:0.5549469 46:0.49414423 47:0.54550958 48:0.56750971 49:0.498155 50:0.5312984 51:0.40725562 52:0.44076774 53:0.56511182 54:0.47803256 55:0.32123247 56:0.46181855 57:0.47480515 58:0.49792221 59:0.51103693 60:0.62873834 61:0.54820436 62:0.4556191 63:0.74304986 64:0.53193933 65:0.74234426 66:0.11483511 67:0.23527011 68:0.13743424 69:0.22708951 70:0.5795995 71:0.06548132 
0 0 0.2824427916686714 0 0 0 0 0 1.276541303181076 0 0 0 0 0 0 0 0.322230782643068 0 0.3466072355406045 0.8483069640603708 0 0 0 0 0 0 0 0 0 0 0.05497924824033625 0.6408181189654358 0 1.070853154238005 0 0 0 0 0 0 0 0 0 1:0.43360457 2:0.59932178 3:0.74620873 4:0.37591198 5:0.76545835 6:0.71407092 7:0.32663214 8:0.49770463 9:0.46167332 10:0.45178673 11:0.24799235 12:0.73855001 13:0.49583143 14:0.41358483 15:0.7440753 16:0.5127582 17:0.21268816 18:0.37513727 19:0.21885315 20:0.40198469 21:0.45359996 22:0.73698014 23:0.61765361 24:0.48169008 25:0.72412688 26:0.75651461 27:0.52194017 28:0.81597567 29:0.48228562 30:0.46847907 31:0.49567416 32:0.54264826 33:0.35340047 34:0.5910359 35:0.4050394 36:0.50756377 37:0.30079955 38:0.42434847 39:0.65047491 40:0.4626703 41:0.43768281 42:0.49073416 43:0.32622534 44:0.41493988 45:0.57757372 46:0.26678967 47:0.56827718 48:0.59908396 49:0.51677126 50:0.52079695 51:0.40869281 52:0.39603469 53:0.53069246 54:0.45562306 55:0.36003855 56:0.43759492 57:0.38220334 58:0.46376333 59:0.55104619 60:0.52704269 61:0.52029389 62:0.44338569 63:0.71127468 64:0.63225746 65:0.73862112 66:0.15679869 67:0.23451529 68:0.20542747 69:0.24228416 70:0.56856894 71:6.0743777e-17 
1.477129116388817 0 0 0 0 0.8748339274503528 0 2.335062973411461 0 0 2.378157343882121 0 0 0.9017759121949874 0 0.4609128234427841 0.1495674013587256 0.06654358421459781 0 0.5826545610021822 0.6918770263461729 0.6088171228440367 0.2507050695549695 0.07871709574027545 0.3584032113504985 0 0.4540358947404272 0 0 0 0.878109667761158 0 0.2668254426745166 0.1219463565762891 0 0 1.186514585011187 0.8375587947543419 0.3062868544451185 0.1971829385201226 0 0.2408071166493819 1.140871961384263 1:0.42696264 2:0.26017839 3:0.5045017 4:0.47249764 5:0.74476117 6:0.44298601 7:0.30901498 8:0.37638783 9:0.40430981 10:0.48414177 11:0.41016158 12:0.55134499 13:0.27837259 14:0.66728467 15:0.3852368 16:0.48481131 17:0.37774995 18:0.69646233 19:0.54619706 20:0.38958701 21:0.62591088 22:0.70720726 23:0.70751649 24:0.56330764 25:0.56780022 26:0.79811639 27:0.59375334 28:0.49295571 29:0.36700585 30:0.64298332 31:0.39493906 32:0.52449894 33:0.19390886 34:0.27212998 35:0.60743082 36:0.57475972 37:0.53167206 38:0.24245475 39:0.65647036 40:0.37888405 41:0.46758071 42:0.78240228 43:0.45794484 44:0.4041515 45:0.41367787 46:0.23222865 47:0.45389569 48:0.42654562 49:0.42798287 50:0.57507306 51:0.55788857 52:0.50306767 53:0.57072943 54:0.48614827 55:0.3650414 56:0.36219025 57:0.38515764 58:0.39663428 59:0.59509051 60:0.49909082 61:0.58918118 62:0.57945967 63:0.45959407 64:0.61053568 65:0.81455857 66:0.24154869 67:0.28658459 68:0.27415645 69:0.26129678 70:0.71797842 71:0.12384951 
0 0 0.1242598831675172 0 0 0 0 0 0 0 0 0 0 0 0 0 0 0 0 0 0 0 0 0 0 0 0 0 0 0 0 0 0 0 0 0 0.1904465005851342 0 0 0 0 0 0.3158463790151059 1:0.43069953 2:0.7306096 3:0.71168911 4:0.59828824 5:0.5720669 6:0.33779001 7:0.66989183 8:0.38974178 9:0.3896406 10:0.43700901 11:0.40164232 12:0.50521106 13:0.64394385 14:0.49471277 15:0.49574938 16:0.29671213 17:0.37395477 18:0.45709589 19:0.3336904 20:0.42353415 21:0.55593288 22:0.54537237 23:0.52510113 24:0.42796132 25:0.48890495 26:0.76115662 27:0.38131693 28:0.52810526 29:0.39284414 30:0.46796557 31:0.42547649 32:0.36496118 33:0.43610108 34:0.53951943 35:0.58132261 36:0.7205987 37:0.38778952 38:0.39218244 39:0.48083261 40:0.39954481 41:0.42718899 42:0.60956591 43:0.38031751 44:0.42745417 45:0.70166498 46:0.41855651 47:0.47407779 48:0.42691109 49:0.53567398 50:0.4144457 51:0.46851742 52:0.44459927 53:0.57856286 54:0.42506689 55:0.49112862 56:0.40180296 57:0.36321759 58:0.38962686 59:0.51359403 60:0.48728597 61:0.6072405 62:0.47225422 63:0.4288165 64:0.46074045 65:0.89054769 66:0.19012833 67:0.12694313 68:0.17119183 69:0.24872261 70:0.70896465 71:0.13833278 
0 0 0 0 0 0 0.1973108114483596 0.3756365979082956 0.8389595725548251 0 0 0 0 0 0 0 0 0 0 0 0 0 0.321623065077111 0 0 0 0.1689673911292215 0 0 0 0 0 0 0.07981578223075893 0 0.7110748285044941 0.3760569145996577 0.9907193188462843 0 0 0 0.4051481946959831 0 1:0.44727939 2:0.51785445 3:0.47840717 4:0.50243586 5:0.52179098 6:0.57043904 7:0.52023244 8:0.40859154 9:0.53851146 10:0.55591786 11:0.55405539 12:0.73637652 13:0.49074972 14:0.58469158 15:0.25069338 16:0.40076858 17:0.3743701 18:0.63352555 19:0.49882588 20:0.60312742 21:0.48287842 22:0.59672344 23:0.42278743 24:0.56715029 25:0.38902411 26:0.62120938 27:0.48459584 28:0.53670138 29:0.58712918 30:0.30693617 31:0.3572315 32:0.43044659 33:0.46389323 34:0.37806246 35:0.69704425 36:0.48598546 37:0.75871211 38:0.38858575 39:0.44484368 40:0.50508833 41:0.34565952 42:0.70420331 43:0.47420806 44:0.4757688 45:0.36997873 46:0.24497949 47:0.62406445 48:0.32238957 49:0.39772025 50:0.71079206 51:0.51954472 52:0.38189447 53:0.42151836 54:0.56805992 55:0.23517926 56:0.47580543 57:0.25436649 58:0.29147965 59:0.41411883 60:0.517084 61:0.59233677 62:0.41852814 63:0.39105448 64:0.55496365 65:0.92579424 66:0.13786972 67:0.10800349 68:0.27586994 69:0.24147722 70:0.50930083 71:0.25397274 
0 0 0 0 0.589268779037058 0 0 0 0 0 0 0 0 0 0 0 0.7395315628548266 0 0.3913190240296859 1.1918905419282 0 0 0 0.4852705624117128 0 0 0 0 0 0 0 0 0 0 1.690471248785387 0 0 0 0 0 0 0 0 1:0.41507995 2:0.73791897 3:0.78958982 4:0.36365685 5:0.59979296 6:0.24715562 7:0.51821846 8:0.20980258 9:0.55519664 10:0.44540051 11:0.493552 12:0.47051108 13:0.55014133 14:0.42387962 15:0.41646692 16:0.29672098 17:0.53193039 18:0.66727102 19:0.43497255 20:0.26922923 21:0.48357207 22:0.26438108 23:0.38859391 24:0.69376546 25:0.54685372 26:0.64288187 27:0.7110461 28:0.50702602 29:0.61844528 30:0.47956023 31:0.24540913 32:0.30157816 33:0.45514449 34:0.37702453 35:0.50418431 36:0.42447904 37:0.58442187 38:0.60391217 39:0.51652139 40:0.48639655 41:0.49131468 42:0.54885888 43:0.45659724 44:0.41939026 45:0.50519109 46:0.23237392 47:0.47868302 48:0.44790173 49:0.44559035 50:0.56102693 51:0.47940877 52:0.41533384 53:0.62961715 54:0.45528662 55:0.53496534 56:0.50002551 57:0.3436881 58:0.39160031 59:0.54897267 60:0.47929445 61:0.50250828 62:0.53088349 63:0.48465598 64:0.49850738 65:0.88932526 66:0.09471222 67:0.21797794 68:0.19815668 69:0.22702101 70:0.69462091 71:0.15331113 
1.019215894937086 0 0.09482220498766142 0 0 0 0 0 0 0 0 0 0 0 0 0.5856227858565194 0 0.4882535664379018 0 0 0.06191733470161549 0 0 0 0.5563899229212665 0 0 0 0 0 0.6054634759578399 0 0 0 2.209569091193445 0 1.037991860804888 0.6581498178442678 0.2203966976489725 0 0 0 0 1:0.3947449 2:0.41374728 3:0.49141812 4:0.45816052 5:0.4617492 6:0.28579214 7:0.54211313 8:0.40607661 9:0.46705654 10:0.47448787 11:0.58996034 12:0.54690748 13:0.44919059 14:0.69515258 15:0.33561835 16:0.61299348 17:0.67276978 18:0.32447734 19:0.46050712 20:0.36406186 21:0.49418533 22:0.69401419 23:0.60105932 24:0.34083146 25:0.47490659 26:0.78346682 27:0.68112755 28:0.61365265 29:0.67897981 30:0.52044672 31:0.57697207 32:0.5684498 33:0.29992548 34:0.52102137 35:0.66628945 36:0.56217515 37:0.51819527 38:0.094868004 39:0.54644853 40:0.47958097 41:0.40465251 42:0.5007419 43:0.56046051 44:0.47118244 45:0.4473536 46:0.19277777 47:0.41026416 48:0.48819485 49:0.53276992 50:0.48854372 51:0.38291422 52:0.51851201 53:0.5074569 54:0.47363874 55:0.43618786 56:0.33353814 57:0.33061531 58:0.39769417 59:0.60646921 60:0.6097573 61:0.49907506 62:0.58617896 63:0.53446615 64:0.55567092 65:0.77390009 66:0.19837807 67:0.24740316 68:0.18294354 69:0.21884792 70:0.6550923 71:0.12404963 
0 0 0 0 0 0 0 0 0 0 0 0 0.9953060614576409 0.127785683934099 0 0 0 0.4378460684634611 0 0 0.05118713295585173 0 0.2109516188882142 0 0 0 0 0 0 0.06145971418264497 0 0 0.195060629165931 0 0 0 0 0 0 0 0 0.3226431556017977 0.1117935213604302 1:0.42954242 2:0.40904787 3:0.52928597 4:0.41611472 5:0.61720097 6:0.43192327 7:0.34885195 8:0.55685097 9:0.52686453 10:0.7025699 11:0.75644267 12:0.52066571 13:0.636536 14:0.69440866 15:0.19272672 16:0.60905826 17:0.50086176 18:0.50221932 19:0.29381222 20:0.54520476 21:0.30166414 22:0.55292296 23:0.43477273 24:0.5075109 25:0.52026069 26:0.48638099 27:0.7382189 28:0.23178288 29:0.44200435 30:0.55738533 31:0.67331409 32:0.26384065 33:0.26264518 34:0.39410424 35:0.503892 36:0.50940675 37:0.69795918 38:0.19615673 39:0.45071396 40:0.63635069 41:0.73992163 42:0.57949847 43:0.5844788 44:0.36627564 45:0.38074759 46:0.33722937 47:0.4186143 48:0.26134825 49:0.47411138 50:0.37098297 51:0.59984863 52:0.5275169 53:0.50692689 54:0.43063921 55:0.55604261 56:0.54556173 57:0.38202092 58:0.35680231 59:0.55370897 60:0.54264194 61:0.43774465 62:0.62401396 63:0.34643322 64:0.5582754 65:0.98570734 66:0.22903168 67:0.19674987 68:0.19160314 69:0.28888601 70:0.68795687 71:0.21060412 
1.100120171816779 0 0.4096832974370528 0.5039103350349231 0 0 0 0.6225150717574134 0 0 0 0.3416789648155682 0 0 0 0 0.00987862215177775 0.2503531785395545 0 0.2325119144790259 0 0 0.2594922378233958 0 0 0 0 0 0 0 0 0 1.515983463382851 0 0 0 0 0 0 0 0 0.7737124033582131 0 1:0.56838328 2:0.54009819 3:0.58443028 4:0.40560275 5:0.5464502 6:0.13630188 7:0.28042164 8:0.37704569 9:0.38505152 10:0.5146929 11:0.62835699 12:0.5222733 13:0.5302031 14:0.52752501 15:0.29604027 16:0.52239758 17:0.47923219 18:0.63354921 19:0.3437537 20:0.5134263 21:0.39848322 22:0.45585436 23:0.60112613 24:0.269492 25:0.57018846 26:0.69876641 27:0.39718637 28:0.39632636 29:0.50835145 30:0.46038884 31:0.54991376 32:0.22387935 33:0.35246322 34:0.46228307 35:0.5506556 36:0.47440919 37:0.48481622 38:0.20537388 39:0.50615972 40:0.37403655 41:0.69273084 42:0.47636706 43:0.49726266 44:0.39440617 45:0.39991713 46:0.32240537 47:0.34374875 48:0.38910967 49:0.46377161 50:0.35998282 51:0.55066466 52:0.48623383 53:0.57408321 54:0.59092522 55:0.47666427 56:0.46478811 57:0.32412624 58:0.44197538 59:0.59140331 60:0.51291841 61:0.55419981 62:0.66244274 63:0.36558819 64:0.4376232 65:0.88267773 66:0.16099232 67:0.20607269 68:0.24356274 69:0.29568443 70:0.6687516 71:0.15995426 
0.1300530962651183 1.325717400563473 0 1.938246007898879 1.02378527569916 0 0.7404803357068671 0.09321669838842195 0 1.451469789828496 0 0 0 0.4756255682600353 0.3836806802952096 0 0.2410179318221037 1.117139733423652 1.860979912922131 0 0 0 0 0 0.5362271795616285 0.1816339787569831 0 0 0 0 0 0.3562001452114342 1.415836961986439 0 0 0 0 0 0 0 0.6138332105159836 0.9194788740128633 0 1:0.25584656 2:0.28432119 3:0.52212715 4:0.45909584 5:0.78602046 6:0.40086827 7:0.72781748 8:0.47244471 9:0.50817198 10:0.59205443 11:0.61268777 12:0.53501093 13:0.27467731 14:0.40571395 15:0.36716691 16:0.71688056 17:0.49784622 18:0.56530714 19:0.17336461 20:0.52655673 21:0.6327185 22:0.6368531 23:0.36478513 24:0.57217973 25:0.6379317 26:0.65318549 27:0.41271159 28:0.43747798 29:0.52322096 30:0.58499026 31:0.60812366 32:0.46269986 33:0.29220811 34:0.46973914 35:0.66260475 36:0.69615066 37:0.58181489 38:0.27679911 39:0.49960506 40:0.59926295 41:0.28247929 42:0.62204933 43:0.44337326 44:0.30785474 45:0.41684213 46:0.32624888 47:0.52556616 48:0.44293651 49:0.48207402 50:0.52672136 51:0.44762588 52:0.30594289 53:0.58769554 54:0.60102767 55:0.34291813 56:0.43248215 57:0.53663915 58:0.40261191 59:0.61695242 60:0.55597478 61:0.51037717 62:0.58892709 63:0.406737 64:0.557971 65:0.89452291 66:0.21106426 67:0.17183283 68:0.30566028 69:0.23804469 70:0.66663718 71:0.1875491 
0 0 1.36309621720814 0 0.08098560092969742 0 0.570747323174726 0 1.223667087399273 0.9207524163187177 1.125844561412886 0 1.410667012811575 0 1.145523604740038 1.095925902407832 0.4019690094915102 0.7649915000631735 0.09716865862296739 0 0 0.4878008666602196 1.55727423364277 0.1800117348918683 0 0 0 0 0 0 0.6110264815131616 0.8275247590081886 0.8974910059625388 1.664388781211332 0 0.3277382532092506 1.095040664089391 0.7671153731422891 0.4864762155692602 0.7524618554523599 0.2142115092792244 0 1.353382681693818 1:0.42034018 2:0.40575591 3:0.59908277 4:0.56115949 5:0.73201311 6:0.21808907 7:0.5995788 8:0.71631515 9:0.45614874 10:0.55739158 11:0.54612517 12:0.39118496 13:0.48119855 14:0.39414802 15:0.45490006 16:0.63296503 17:0.63280869 18:0.43164879 19:0.13297218 20:0.52389693 21:0.6955272 22:0.55735135 23:0.38214666 24:0.54009849 25:0.54012364 26:0.72037691 27:0.31088343 28:0.3454003 29:0.72837621 30:0.48419663 31:0.42651233 32:0.29943189 33:0.36731818 34:0.53105885 35:0.39197174 36:0.79316419 37:0.43283215 38:0.31842554 39:0.40812719 40:0.63463289 41:0.5387823 42:0.5094595 43:0.40570584 44:0.35834375 45:0.50177664 46:0.36920545 47:0.4237459 48:0.48784897 49:0.53856087 50:0.44897246 51:0.46518236 52:0.41586772 53:0.54357713 54:0.5074932 55:0.47222191 56:0.42453265 57:0.34019482 58:0.382824 59:0.42598173 60:0.55627352 61:0.47187814 62:0.61110753 63:0.36647606 64:0.51694489 65:0.95137489 66:0.21709959 67:0.13204372 68:0.2880941 69:0.21622199 70:0.57106924 71:0.22433542 
0 0 0 0 0 0 0 0 0 0 0 0 0 0 0 0 0 0 0 0 0 0 0 0 0 0 0 0 0 0 0 0 0 0 0 0 1.206344356217426 0 0 0 0 0 0 1:0.47946355 2:0.57515574 3:0.36211967 4:0.47942886 5:0.56371427 6:0.51423317 7:0.29935557 8:0.67256463 9:0.72089815 10:0.34205422 11:0.38809869 12:0.70504558 13:0.47276303 14:0.32933336 15:0.52200717 16:0.36586928 17:0.46619967 18:0.50217611 19:0.61818278 20:0.70178968 21:0.31800091 22:0.54147059 23:0.45343742 24:0.74276823 25:0.7046963 26:0.36329275 27:0.63814104 28:0.58648461 29:0.47930488 30:0.49180681 31:0.38628751 32:0.43755782 33:0.55577385 34:0.40530446 35:0.45880082 36:0.46649992 37:0.75860983 38:0.56432766 39:0.67052448 40:0.50336111 41:0.46339673 42:0.67918217 43:0.57050335 44:0.5072999 45:0.53842777 46:0.24049799 47:0.63429356 48:0.43444708 49:0.46492618 50:0.70172232 51:0.4309333 52:0.40440312 53:0.35857308 54:0.48875764 55:0.46042567 56:0.46199337 57:0.23178764 58:0.24903922 59:0.41773048 60:0.62304235 61:0.59428394 62:0.36577618 63:0.57817489 64:0.58384991 65:0.96920544 66:0.10112439 67:0.10087862 68:0.30841365 69:0.19422232 70:0.5740419 71:0.23445153 
0 0 0 0 0 0 0 0 0 0 0 0 0 0 0 0 0 0.8199863132346611 0 0 0 0 0 0 0 0 0 0 0 0 0 0 0 0 1.024688447955211 0 0 0 0 0 0 0 0 1:0.53131831 2:0.36709884 3:0.28352889 4:0.39096734 5:0.46777564 6:0.67351443 7:0.38077608 8:0.46467865 9:0.61083484 10:0.36207548 11:0.47675291 12:0.49173194 13:0.49774793 14:0.23868968 15:0.40775701 16:0.38828221 17:0.48210913 18:0.51753223 19:0.47070217 20:0.74694937 21:0.3114678 22:0.56317472 23:0.57514739 24:0.55376369 25:0.60389614 26:0.40511107 27:0.67786539 28:0.46758619 29:0.45874557 30:0.61820197 31:0.50356156 32:0.49960637 33:0.52815205 34:0.46899819 35:0.50221866 36:0.22873653 37:0.62087244 38:0.46568069 39:0.69356734 40:0.49077818 41:0.51354349 42:0.50538045 43:0.66408926 44:0.41356882 45:0.5905652 46:0.34484768 47:0.52975225 48:0.46710369 49:0.38488433 50:0.56516057 51:0.59405905 52:0.45313153 53:0.63241243 54:0.48874125 55:0.46249488 56:0.50449497 57:0.4170467 58:0.44867814 59:0.52237618 60:0.58791733 61:0.5459525 62:0.4676275 63:0.62284386 64:0.51177591 65:0.84228909 66:0.15398023 67:0.24590333 68:0.22178893 69:0.2101423 70:0.68019611 71:0.064414091 
0 0 0 0 0 0 0 0 0 0 0.5423501812564652 0.2219266959222005 0 0 0 0 0 0.04601250792452112 0 0 0 0 0 0 0 0 0 0 0 0 0.3497285790570788 0 0 0.3114615109254641 0 0 0 0 0 0 0 0.3313822479622129 0 1:0.31277055 2:0.60506427 3:0.53976732 4:0.40154234 5:0.59067041 6:0.55235994 7:0.66114116 8:0.61346251 9:0.51261032 10:0.57786155 11:0.5376749 12:0.49120155 13:0.62799019 14:0.061734397 15:0.63257664 16:0.32457721 17:0.54102951 18:0.42813787 19:0.20913285 20:0.4126229 21:0.55942982 22:0.42186776 23:0.47299889 24:0.41747147 25:0.58694059 26:0.61317533 27:0.58742017 28:0.56132215 29:0.68030709 30:0.5331158 31:0.52403319 32:0.43623203 33:0.49221057 34:0.50278819 35:0.70782161 36:0.5497942 37:0.30775437 38:0.38498846 39:0.64978123 40:0.50895387 41:0.61745322 42:0.49693888 43:0.4616541 44:0.59979135 45:0.5293358 46:0.30471912 47:0.40663609 48:0.44916335 49:0.45084351 50:0.34642759 51:0.55077744 52:0.53365785 53:0.60114682 54:0.53128672 55:0.54271758 56:0.36397663 57:0.34618893 58:0.48211288 59:0.55220908 60:0.50060254 61:0.53445953 62:0.49709356 63:0.55096787 64:0.57875848 65:0.88840771 66:0.13169785 67:0.17556471 68:0.23164505 69:0.18600349 70:0.63301051 71:0.088314816 
0 0 0.3481911087846506 0.2995827568931115 0.01850049731287394 1.081776463981516 0 0 0 0 0 0.003936403204504719 0 0 0 0 0 0 0 0.577002750668916 0 0 0.3601939297617955 0.7516560202459327 0 0.3379564211592122 0 0.4952084740646986 0 0 0 0.3556037561828188 0 0.04219867780637494 0 0 0 0.8252567490236982 0.5682496613490262 0 0 0 0.3716000742917386 1:0.52892047 2:0.50396818 3:0.48285028 4:0.60027826 5:0.61962867 6:0.46484894 7:0.57607365 8:0.68590391 9:0.54474682 10:0.48205614 11:0.52347511 12:0.48822665 13:0.4898406 14:0.074028634 15:0.47935307 16:0.34422833 17:0.58953518 18:0.33283332 19:0.35915938 20:0.5660817 21:0.525352 22:0.71657294 23:0.31145495 24:0.27438834 25:0.59432626 26:0.68011039 27:0.62900406 28:0.59858406 29:0.7074222 30:0.62222612 31:0.53047585 32:0.34349898 33:0.54974449 34:0.50985926 35:0.63428169 36:0.37334415 37:0.39699766 38:0.12891877 39:0.63144422 40:0.47308433 41:0.52758008 42:0.39597011 43:0.65191031 44:0.56100911 45:0.49213943 46:0.38792735 47:0.43144983 48:0.54469675 49:0.59626937 50:0.31585011 51:0.40018508 52:0.51246089 53:0.56480801 54:0.54110056 55:0.60580868 56:0.39074898 57:0.37248534 58:0.47589493 59:0.46850252 60:0.60738623 61:0.49810931 62:0.49916077 63:0.56806552 64:0.56033373 65:0.85247755 66:0.088998459 67:0.22674644 68:0.19932443 69:0.1974923 70:0.60711354 71:0.14253829 
0 0 0 0 0 0 0 0 0 0 0 0 0 0 0 0 0 0 0 0 0 0 0 0.5173506180527508 0 0 0 0 0 0 0 0 0 0 0 0 0 0 0 0 0 0 0 1:0.53976828 2:0.32664892 3:0.68268508 4:0.61809492 5:0.59460777 6:0.52831453 7:0.80190957 8:0.72301567 9:0.32562661 10:0.44420862 11:0.348607 12:0.54176056 13:0.48062292 14:0.47378948 15:0.58985102 16:0.4855895 17:0.47241196 18:0.59312582 19:0.38397434 20:0.36007273 21:0.55201948 22:0.46351027 23:0.46980873 24:0.59577149 25:0.6411584 26:0.61350012 27:0.49921972 28:0.5953151 29:0.43731934 30:0.42751402 31:0.37270311 32:0.49737182 33:0.36594123 34:0.53249806 35:0.50630623 36:0.58347893 37:0.49292696 38:0.26163715 39:0.58811587 40:0.54171902 41:0.46376333 42:0.62737805 43:0.33517069 44:0.41162974 45:0.55324286 46:0.19226137 47:0.41925991 48:0.37953541 49:0.4707588 50:0.34433368 51:0.4873158 52:0.37912756 53:0.56488842 54:0.52408683 55:0.49320757 56:0.41667348 57:0.29911825 58:0.39969862 59:0.55092853 60:0.61477005 61:0.59469348 62:0.46630803 63:0.49338874 64:0.53181583 65:0.91480029 66:0.13265438 67:0.18023208 68:0.25053179 69:0.26736566 70:0.71007246 71:0.014024269 
0 0 0.556860087904066 0 0 0 0 0 0 0 0 0 0 0 0 0 0 0 0 0 0 0 0 0 0.551715627440001 0 0 1.268236792885645 0 0 0 0 0 0.1088264190945111 0 0 0 0 0.6098838084154328 0.806406800990955 0.9143846590140307 0 0 1:0.47796905 2:0.50770164 3:0.64186972 4:0.46720117 5:0.57651663 6:0.34019965 7:0.7549327 8:0.51908237 9:0.38553602 10:0.39998829 11:0.42818063 12:0.60735095 13:0.45327502 14:0.44477069 15:0.46429688 16:0.66362733 17:0.55277044 18:0.42475846 19:0.2086712 20:0.38574022 21:0.45803133 22:0.45372501 23:0.56158656 24:0.53523308 25:0.59763545 26:0.58319509 27:0.62506837 28:0.51189619 29:0.59004873 30:0.49932826 31:0.43152845 32:0.4931294 33:0.31969449 34:0.44655713 35:0.29376826 36:0.5828107 37:0.3493652 38:0.31653184 39:0.51549208 40:0.56480211 41:0.38566411 42:0.68752927 43:0.35014394 44:0.40207762 45:0.63048959 46:0.35224867 47:0.22617213 48:0.57667178 49:0.57729048 50:0.33484796 51:0.40854055 52:0.45818862 53:0.58480537 54:0.5795936 55:0.56190675 56:0.29883 57:0.2401953 58:0.41323864 59:0.61017841 60:0.5497371 61:0.57599413 62:0.52615535 63:0.5228126 64:0.48517242 65:0.73158097 66:0.18534358 67:0.25609303 68:0.22751763 69:0.22606492 70:0.69820911 71:0.065709472 
0 0 0 0 0 0 0 0 0 0 0 0 0 0 0 0 0 0 0 0 0 0 0 0 0 0 0 0 0 0 0 0 0.5553837370546616 0 0 0 0 0 0 0 0 0 0 1:0.42539981 2:0.39963746 3:0.50543767 4:0.54420018 5:0.61595201 6:0.2769089 7:0.57915878 8:0.83891243 9:0.35704073 10:0.44904771 11:0.48499474 12:0.73527759 13:0.36627403 14:0.52376789 15:0.56343663 16:0.27371621 17:0.602238 18:0.40271279 19:0.41672805 20:0.44614324 21:0.55358207 22:0.47209686 23:0.52154797 24:0.36900952 25:0.58279508 26:0.72402263 27:0.62812853 28:0.38876706 29:0.57903224 30:0.57754743 31:0.55394912 32:0.64940119 33:0.44714817 34:0.48886475 35:0.53998345 36:0.50150639 37:0.54567486 38:0.51859719 39:0.74317724 40:0.33847246 41:0.63616145 42:0.46010837 43:0.53748691 44:0.49968567 45:0.52127093 46:0.3134509 47:0.49092734 48:0.43724135 49:0.42673063 50:0.4080984 51:0.51228637 52:0.43535066 53:0.55891711 54:0.53491867 55:0.57807869 56:0.42914924 57:0.31662983 58:0.37619105 59:0.52118695 60:0.62345833 61:0.54015911 62:0.49783492 63:0.55396134 64:0.56909835 65:0.91121 66:0.17068899 67:0.15006778 68:0.19068167 69:0.25572032 70:0.70706302 71:0.11299707 
0 1.80915912453228 0 0 1.19311378689037 0 0.4651097043222434 1.43899905918403 0 0 0 0.1081934062037506 0 1.578170186989787 0 0 0 0 0 0 0 0.8636089608240398 0 0 0 0 0 0 0 1.056618966490929 0 0 0 0.06609034521826924 0 0 0.08827798706884399 0 0 0 0.3094923126324433 0 0.8850078079726051 1:0.32602113 2:0.48019898 3:0.449507 4:0.51842731 5:0.45789 6:0.28933331 7:0.60807407 8:0.66130513 9:0.46631047 10:0.41940972 11:0.42336473 12:0.51900744 13:0.45191571 14:0.24604319 15:0.57353193 16:0.48696434 17:0.62669331 18:0.31298426 19:0.31432599 20:0.34244829 21:0.55270904 22:0.56994218 23:0.62554628 24:0.14672363 25:0.51535457 26:0.43258417 27:0.53840131 28:0.4646295 29:0.68698162 30:0.58294356 31:0.31114861 32:0.34456468 33:0.56232256 34:0.58773386 35:0.57160759 36:0.59847224 37:0.40190446 38:0.3072423 39:0.58584863 40:0.51399028 41:0.48057395 42:0.53062117 43:0.48239049 44:0.52820987 45:0.69166023 46:0.3943615 47:0.42270437 48:0.40360802 49:0.36732468 50:0.38781011 51:0.51949632 52:0.42429763 53:0.60011899 54:0.47126424 55:0.55280936 56:0.28971007 57:0.33833921 58:0.49390781 59:0.58435702 60:0.60168785 61:0.61838162 62:0.44016257 63:0.52250159 64:0.51102704 65:0.84668684 66:0.094340034 67:0.12306534 68:0.27133426 69:0.27902171 70:0.70252693 71:0.141892 
0 0 0 0 0 0 0 0 0 0 0 0 0 0 0 0 0 0 0 0 0 0 0.3015835107947322 0 0 0 0 0 0 0 0 0 0 0 0 0 0 0 0 0 0 0 0 1:0.4900088 2:0.04970229 3:0.21917741 4:0.32369831 5:0.64987504 6:0.37332562 7:0.3533262 8:0.23551929 9:0.36783409 10:0.52439374 11:0.51014024 12:0.5501579 13:0.25401846 14:0.61972809 15:0.43624887 16:0.52461869 17:0.40032619 18:0.64482033 19:0.38126516 20:0.4932684 21:0.45650026 22:0.5016129 23:0.50218511 24:0.62344223 25:0.55086964 26:0.77298295 27:0.54025102 28:0.47426999 29:0.5077585 30:0.54766667 31:0.65257078 32:0.56475294 33:0.27964267 34:0.27419388 35:0.55675763 36:0.49356306 37:0.74575329 38:0.38081935 39:0.58006686 40:0.62325466 41:0.36896807 42:0.65650278 43:0.43220669 44:0.37403104 45:0.33508345 46:0.22458132 47:0.47441018 48:0.43503824 49:0.31905186 50:0.44936618 51:0.55954009 52:0.35108483 53:0.65379775 54:0.55758023 55:0.36218891 56:0.53575832 57:0.47298384 58:0.43243882 59:0.58668047 60:0.52923268 61:0.47189319 62:0.53057873 63:0.52413261 64:0.55370665 65:0.84574276 66:0.16990861 67:0.24391556 68:0.16609725 69:0.23320687 70:0.72078437 71:0.13570228 
0 0 0.1342200130563255 0 0 0 0 0 0 0 0 0 0 0 0 0 0 0 0 0 0 0 0 0 0 0 0 0 0 0 0 0 0 0 0 0 0 0 0 0 0 0 0 1:0.41891882 2:0.28144807 3:0.33044162 4:0.37356782 5:0.63805133 6:0.48000205 7:0.5961234 8:0.34179059 9:0.43372214 10:0.58159381 11:0.39592725 12:0.55874151 13:0.83526784 14:0.66162723 15:0.70199448 16:0.43798071 17:0.50655615 18:0.44670466 19:0.19478934 20:0.34389719 21:0.44060016 22:0.42796093 23:0.47838306 24:0.4204126 25:0.5281781 26:0.61113399 27:0.42930281 28:0.47205448 29:0.71453732 30:0.39606971 31:0.51933318 32:0.45091131 33:0.44030657 34:0.42661011 35:0.52782911 36:0.58000714 37:0.49967939 38:0.47429001 39:0.50520498 40:0.63018519 41:0.48206159 42:0.50665998 43:0.3991926 44:0.58318365 45:0.5855754 46:0.42378086 47:0.37636951 48:0.38232037 49:0.42252782 50:0.3368175 51:0.51248491 52:0.4351894 53:0.65850002 54:0.49141517 55:0.40868509 56:0.54869312 57:0.31864354 58:0.4183484 59:0.53042555 60:0.49322501 61:0.56568664 62:0.49969658 63:0.55347943 64:0.44230887 65:0.9611038 66:0.15625212 67:0.15758969 68:0.16525963 69:0.26573625 70:0.70044237 71:0.14463551 
0 0 0 0 0.2308212990081702 0 0 0 0 0 0.5283093962614169 0 0 0 0 0 0 0 0 0 0 0 0 0 0 0.4163948359734647 0 0 0 0 0 0 0 0 0 0 0 0 0 0 0 0 0 1:0.6409992 2:0.47194475 3:0.49595004 4:0.51899534 5:0.40360197 6:0.48740986 7:0.90711457 8:0.31283134 9:0.41399068 10:0.65385449 11:0.53968811 12:0.34732181 13:0.23042028 14:0.53928685 15:0.55640697 16:0.42826286 17:0.56347358 18:0.47215718 19:0.54072767 20:0.35396656 21:0.30863807 22:0.52638876 23:0.60048163 24:0.99148583 25:0.46035954 26:0.76812148 27:0.4950763 28:0.75499839 29:0.51185226 30:0.46933362 31:0.74270725 32:0.45178118 33:0.53430283 34:0.24051775 35:0.48622757 36:0.56347126 37:0.61620599 38:0.45334736 39:0.55560201 40:0.48596346 41:0.38117588 42:0.48496714 43:0.63325626 44:0.38198534 45:0.48208424 46:0.15090865 47:0.63783306 48:0.41392115 49:0.48376441 50:0.48089087 51:0.47041526 52:0.41887757 53:0.60728621 54:0.38082451 55:0.67927176 56:0.52859837 57:0.41010922 58:0.42090356 59:0.55682814 60:0.59731519 61:0.45293376 62:0.50784588 63:0.59428298 64:0.50896651 65:0.92925239 66:0.19140458 67:0.18941076 68:0.15495035 69:0.2316779 70:0.76236987 71:0.18852375 
0 0 0 0 0 0.2135682742485533 0 0 0 0 0 0 0 0 0 0 0 0 0 0 0 0 0 0 0 0 0 0 0 0 0 0 0 0 0 0 0 0 0 0 0 0 0 1:0.4955619 2:0.41584426 3:0.53984821 4:0.42799604 5:0.21545373 6:0.59759915 7:0.75448447 8:0.40615731 9:0.49675488 10:0.69636852 11:0.69158971 12:0.50155717 13:0.51006323 14:0.35525256 15:0.57629782 16:0.38934714 17:0.67038858 18:0.42866063 19:0.55943435 20:0.52614576 21:0.28766096 22:0.57191056 23:0.4498069 24:0.62446767 25:0.49577755 26:0.6965304 27:0.41963604 28:0.47066185 29:0.76160067 30:0.55523437 31:0.72671908 32:0.46754616 33:0.35731941 34:0.39980343 35:0.32178611 36:0.58876967 37:0.6595248 38:0.47874111 39:0.59734833 40:0.67970669 41:0.56139982 42:0.41038108 43:0.55458963 44:0.40734324 45:0.4537966 46:0.074337877 47:0.52263445 48:0.48439991 49:0.41693768 50:0.44220155 51:0.54668999 52:0.52909416 53:0.68328393 54:0.38195062 55:0.59815872 56:0.39748415 57:0.37417167 58:0.47107604 59:0.56841451 60:0.57633269 61:0.49156708 62:0.44941625 63:0.59019065 64:0.56027883 65:0.84800154 66:0.13916694 67:0.19914967 68:0.22226952 69:0.133047 70:0.63739306 71:0.16664311 
