svm_type c_svc
kernel_type rbf
gamma 0.09
nr_class 2
total_sv 12
rho 0.434799
label 130680101 130680102
probA -3.08689
probB 0.594961
nr_sv 6 6
SV
6.101010938613684 1:0.59232169 2:0.52347904 3:0.37970993 4:0.6086753 5:0.67391944 6:0.34731206 7:0.51520967 8:0.87191457 9:0.78618729 10:0.089940861 11:1 
3.063348735037776 1:0.54708928 2:0.36649445 3:1 4:0.52919328 5:0.62286633 6:0.8414678 7:0 8:0.85238272 9:0.56441706 10:0.92936075 11:0.69721854 
4.824335586620177 1:0.4072015 2:0.44502869 3:0.43486607 4:0.50795537 5:1 6:0.52151906 7:0.90681922 8:0.65488225 9:0.4545629 10:0.8243044 11:0.87178147 
9.388228120425055 1:0.97222102 2:0.27884951 3:0.69055229 4:0.83293533 5:0.24273117 6:0.5322181 7:0.50959557 8:0.077662967 9:0.76560026 10:0.45683625 11:0.63074189 
3.174537336414169 1:0.75704789 2:0.41292971 3:0.74071687 4:0.6094225 5:0.029206755 6:0.6913029 7:1 8:0.92349863 9:0.63056517 10:0.33980358 11:0.89317667 
1.090232297184305 1:0.016793786 2:0.61360741 3:0.72397065 4:0.76633853 5:0.62069291 6:0.39883694 7:0.61856884 8:0.58663946 9:0.56757802 10:0.31587967 11:0.86975753 
-3.612539610270175 1:0.28556871 2:0.57384866 3:0.45635006 4:7.7854811e-16 5:0.420647 6:0.51016152 7:0.53100336 8:0.98735708 9:1 10:0.8619858 11:0.071078368 
-5.701887277986406 1:0.55882829 2:0.36194834 3:0.77291757 4:1 5:0.41779834 6:0 7:0.83172458 8:0.7724461 9:0.96436113 10:0.9004094 11:2.4850409e-16 
-2.674176008500322 1:0.22314915 2:0.53713953 3:0.25788477 4:0.44972607 5:0.19718589 6:0.31191489 7:0.70909882 8:0.59782708 9:0.088948213 10:0.016053239 11:0.30756223 
-0.2455917927704898 1:0.12261922 2:0.41100046 3:0.33395997 4:0.97503072 5:0.77742082 6:1 7:0.66068238 8:0.77410161 9:0.66854233 10:0.072236702 11:0.16198127 
-5.854789504853212 1:0.93217689 2:0.30997816 3:0.80771756 4:0.43721852 5:0.39225885 6:0.3861143 7:0.47658616 8:0.66159904 9:3.175117e-16 10:0.02082286 11:0.29548681 
-9.55270881991456 1:1 2:0.68919921 3:0.40045598 4:0.81736791 5:0.88989526 6:0.85926861 7:0.62421405 8:0.55527824 9:0.66836596 10:0.1129356 11:0.26563546 
