svm_type c_svc
kernel_type rbf
gamma 0.09
nr_class 2
total_sv 61
rho -0.0436217
label 130820101 130820102
probA -4.63574
probB 0.020379
nr_sv 28 33
SV
2.640112585105074 1:0.63149536 2:0.43340519 3:0.44280395 4:0.35889146 5:0.39665139 6:0.412846 7:0.40367624 8:0.52368784 9:0.5006187 10:0.43209291 11:0.43321183 12:0.18740399 13:0.20575343 14:0.67294335 15:0.20700976 16:0.78571928 17:0.28045923 18:0.41844079 19:0.62185448 20:0.20122065 21:0 22:0.45021611 23:0.24108048 24:0.38680601 25:0.69697958 26:0.73021334 27:0.52355278 28:0.66428673 29:0.79434812 30:0.50618899 31:0.46238333 32:0.52772456 33:0.37162241 34:0.29935443 35:0.22859026 36:0.71085644 37:0.69049859 38:0.84896135 39:0.7084437 40:0.21478754 41:0.14060393 42:0.85471183 
3.089248105267117 1:0.40681934 2:0.54063481 3:0.50252151 4:0.33448231 5:0.55467427 6:0.40912858 7:0.74013048 8:0.60979325 9:0.51165944 10:0.515212 11:0.32485542 12:0.88791531 13:0.52181816 14:0.51871485 15:0.46760109 16:0.46545884 17:0.5154829 18:0.75096875 19:0.7306751 20:0.16755338 21:0.74318194 22:0.53193867 23:1 24:0.74936885 25:0.41705063 26:0.779845 27:0.17545336 28:0.82520568 29:0.81097579 30:0.8592338 31:0.65389007 32:0.25653952 33:0.73736084 34:0.66402942 35:0.062074892 36:0.53472686 37:0.54141754 38:1 39:0.66288888 40:0.6317938 41:0.44904089 42:0.77386034 
4.096557400221952 1:0.32863176 2:0.52124166 3:0.41658679 4:0.59829581 5:0.54126799 6:0.50637227 7:0.58877671 8:0.72375035 9:0.45111081 10:0.32744336 11:0.44287089 12:0.87632209 13:0.32674494 14:0.86897105 15:0.86759061 16:0.41888496 17:0.56550944 18:0.41288948 19:0.78494614 20:0.55042922 21:0.51982903 22:0.49310881 23:0.30039421 24:0.35227329 25:0.23812172 26:0.76451212 27:0.44717452 28:0.84217262 29:0.50696731 30:0.39240181 31:0.29188517 32:0.46267068 33:0.39559251 34:0.24966174 35:0.74526161 36:1 37:0.54905653 38:0.4754627 39:0.19139418 40:0.9436456 41:0.70817935 42:0.56262398 
1.925665755377915 1:0.42457703 2:0.26282227 3:0.78904432 4:0.4009015 5:0.43993512 6:0.57776052 7:0.5625065 8:1 9:0.81497443 10:0.79071546 11:0.18424594 12:0.56502604 13:0.68587703 14:0.35210988 15:0.47899243 16:0.50723267 17:0.8725633 18:0.63450551 19:0.48161796 20:0.28817287 21:0.42631343 22:0.46768436 23:0.64699209 24:0.48613554 25:0.26348573 26:0.28510335 27:0.57295156 28:0.36738157 29:0.54337186 30:0.4561021 31:0.52139819 32:0.78719485 33:0.64924341 34:0.60155195 35:0.53083128 36:0.42079517 37:0.82109934 38:0.49370265 39:0.25832787 40:0.78287512 41:0.58020979 42:0.74336702 
0.156772387886981 1:0.61467969 2:0.84377617 3:0.36646634 4:0.29597911 5:0.62434894 6:0.48418728 7:0.24225922 8:0.43349198 9:0.48403302 10:0.49684998 11:0.15236536 12:0.60521579 13:0.68687469 14:0.66150141 15:0.78545004 16:0.52544433 17:0.79507691 18:0.12477949 19:0.7908904 20:0.4457083 21:0.57256097 22:0.70737505 23:0.31401458 24:0.1961934 25:0.31148094 26:0.38218832 27:0.32212961 28:0.82689059 29:0.66173512 30:0.30313686 31:0.47579426 32:0.54114908 33:0.42307845 34:0.27214035 35:0.72492421 36:0.85358018 37:0.70034778 38:0.49590424 39:0.31345612 40:0.95673835 41:0.71157438 42:0.60366344 
3.929392192829622 1:0.53354675 2:0.45824218 3:0.47537747 4:0.43448013 5:0.61581087 6:0.58622736 7:0.31293789 8:0.26377237 9:0.50974268 10:0.39876181 11:0.6048345 12:0.54409879 13:0.44940159 14:0.30696324 15:0.49079868 16:0.71817088 17:0.50132579 18:0.70178235 19:0.34290388 20:0.50811118 21:0.608338 22:0.5744608 23:0.57237166 24:0.82475382 25:0.65425056 26:0.32702276 27:0.20766835 28:0.52603561 29:0.71947879 30:0.65173572 31:0.75363153 32:0.68064654 33:0.40663511 34:0.39141634 35:0.7587961 36:0.80977511 37:0.5610224 38:0.56799555 39:0.19086921 40:0.91548193 41:0.62015158 42:0.64590102 
2.551451526893061 1:0.52122182 2:0.4726795 3:0.43904886 4:0.52945185 5:0.48916331 6:0.51022607 7:0.57418185 8:0.56890279 9:0.4388943 10:0.35337433 11:0.39976275 12:0.54767507 13:0.54208195 14:0.58314639 15:0.56444275 16:0.35257944 17:0.54878193 18:0.32254168 19:0.62124521 20:0.51091796 21:0.58898687 22:0.47743136 23:0.50851405 24:0.66240221 25:0.55709147 26:0.47390461 27:0.39799291 28:0.6047374 29:0.61373204 30:0.72213459 31:0.53826332 32:0.51766348 33:0.32646343 34:0.61501348 35:0.57498771 36:0.15860918 37:0.88567233 38:0.54845351 39:0.031893492 40:0.15352012 41:0.24382003 42:0.8414495 
1.121987412481462 1:0.8288728 2:0.4869177 3:0.44470444 4:0.66785359 5:0.42842251 6:0.3692224 7:0.71815139 8:0.52519137 9:0.96468872 10:0.52655089 11:0.45176759 12:0.57051367 13:0.57321131 14:0.41307455 15:0.58130497 16:0.74473137 17:0.54856223 18:0.38907248 19:0.30249453 20:0.29956749 21:0.76169711 22:0.41574252 23:0.33839867 24:0.30477616 25:0.40387055 26:0.52637589 27:0.01404067 28:0.49104786 29:0.82765156 30:0.3583087 31:0.37680238 32:0.66888899 33:0.42945006 34:0.38393354 35:0.56906259 36:0.41422495 37:0.72375971 38:0.54954231 39:0.068750918 40:0.25728521 41:0.3198618 42:0.87831157 
6.440076788851852 1:0.44070134 2:0.5286144 3:0.5714978 4:0.81032568 5:0.44415438 6:0.42669317 7:0.66433156 8:0.31410846 9:0.37653697 10:0.33052999 11:0.26920193 12:0.69596642 13:0.40447262 14:0.12983407 15:0.55939877 16:0.23516111 17:0.47081184 18:0.62617487 19:0.7682606 20:0.19176123 21:0.73565441 22:0.49064553 23:0.33240604 24:0.50988984 25:0.38957211 26:0.51058638 27:0.42708823 28:0.008686021 29:0.50756472 30:0.49712622 31:0.4048076 32:0.25775751 33:0.10339811 34:0.4506523 35:0.70015556 36:0.080170028 37:0.79894638 38:0.64862502 39:0.91634852 40:0.89270389 41:0.6395455 42:0.70316237 
1.917948448799113 1:0.80944264 2:0.69854128 3:0.46737072 4:0.59559906 5:0.51038837 6:0.52579826 7:0.38615778 8:0.34933499 9:0.65017831 10:0.56717849 11:1 12:0.78018737 13:0.66260058 14:0.609061 15:0.59821779 16:0.23739506 17:0.27572486 18:0.33801916 19:0.74981809 20:0.42507181 21:0.54209733 22:0.70106709 23:0.53388625 24:0.60902697 25:0.26006809 26:0.65877175 27:0.6286335 28:0.69617373 29:0.53988045 30:0.39388454 31:0.44667393 32:0.56307745 33:1 34:0.43269938 35:0.65472698 36:0 37:0.82724935 38:0.55080199 39:0.87758291 40:0.82145685 41:0.66091877 42:0.85931331 
1.142643815326974 1:0.48218024 2:0.31483948 3:0.30918968 4:0.58490801 5:0.52306652 6:0.34092686 7:0.36960542 8:0.65121889 9:0.71317148 10:0.36734214 11:0.0088945944 12:0.52482969 13:0.33522055 14:0.59534204 15:0.53468037 16:0.36490464 17:0.75749075 18:0.6056667 19:0.47657138 20:0.59288001 21:0.59549296 22:0.79195756 23:0.24249549 24:0.66061956 25:0.62364167 26:0.64315683 27:0.26793587 28:0.39763194 29:0.73922765 30:0.57424366 31:0.67010021 32:0.38513747 33:0.76914912 34:0.39886495 35:0.42200154 36:0.10906032 37:0.82721001 38:0.63287598 39:0.91989499 40:0.87285388 41:0.7286911 42:0.76902008 
3.213146660512977 1:0.6003474 2:0.46786419 3:0.40269008 4:0.5555045 5:0.58700526 6:0.47368973 7:0.53598183 8:0.53406626 9:0.53182262 10:0.45806488 11:0.36942324 12:0.56411648 13:0.47485995 14:0.51063138 15:0.48215845 16:0.28659755 17:0.57473522 18:0.50110757 19:0.50441986 20:0.53983688 21:0.61107039 22:0.44661292 23:0.71038908 24:0.68601286 25:0.49404767 26:0.51690072 27:0.095674977 28:0.45540351 29:0.54280537 30:0.34008652 31:0.49755186 32:0.66186655 33:0.56416255 34:0.61048919 35:0.58031023 36:0.944076 37:0.89851421 38:0.29876307 39:1 40:0.25266257 41:0.27396056 42:0.98593378 
4.563769070266744 1:0.61967707 2:0.35794914 3:0.48658499 4:0.54556662 5:0.62918133 6:0.55196768 7:0.49935246 8:0.92237109 9:0.26194289 10:0.37651718 11:0.26300311 12:0.43664119 13:0.62643754 14:0.85679746 15:0.81170851 16:0.7155968 17:0.43420988 18:0.73903495 19:0.72544831 20:0.85560924 21:0.47907257 22:0.834387 23:0.51103771 24:0.50239235 25:0.39070952 26:0.609586 27:0.51032102 28:0.23590347 29:0.81046474 30:0.42249355 31:0.77484196 32:0.87553322 33:0.40136752 34:0.67990804 35:0.63456923 36:0.24135943 37:0.24645606 38:0.70678478 39:0.73782051 40:0.028553171 41:0.36106461 42:0.95599705 
4.137736717591724 1:0.50005466 2:0.54732955 3:0.36602879 4:0.55043525 5:0.55718893 6:0.52224225 7:0.51970434 8:0.33554724 9:0.53379399 10:0.42607546 11:0.32274714 12:0.56321192 13:0.43875 14:0.3902916 15:0.52404177 16:0.21026728 17:0.80069327 18:0.41216353 19:0.5657351 20:0.38035393 21:0.68834025 22:0.2787067 23:0.53519577 24:0.5003897 25:0.3389402 26:0.22477038 27:0.82235569 28:0.77417201 29:0.6801635 30:0.38151973 31:0.84704155 32:0.69644022 33:0.59194988 34:0.28947535 35:0.62834543 36:0.28823677 37:0 38:0.63340163 39:0.68700659 40:0 41:0.27290463 42:0.97211498 
1.164815404478322 1:0.88312191 2:0.54314941 3:0.50144064 4:0.41712469 5:0.22637536 6:0.74888599 7:0.53651148 8:0.29610336 9:0.50983024 10:0.63244951 11:0.2404159 12:0.91065937 13:0.4955444 14:0.87329561 15:0.68662417 16:0.34330368 17:0.56026757 18:0.69318491 19:0.55745399 20:0.43999013 21:0.43564743 22:0.58202565 23:0.47352621 24:0.75274205 25:0.91623533 26:0.37090355 27:0.54864019 28:0.34924865 29:0.053654555 30:0.49348265 31:0.21624202 32:0.69659841 33:0.12504891 34:0.66961247 35:0.53020531 36:0.46795821 37:0.35492077 38:0.71682018 39:0.78955579 40:0.70781356 41:0.52915096 42:0.7847994 
1.115719148616912 1:0.47169024 2:0.48181483 3:0.36820215 4:0.59954774 5:0.59881616 6:0.23531502 7:0.35685018 8:0.80453527 9:0.4736445 10:0.52283406 11:0.59598386 12:0.28800002 13:0.34308809 14:3.5133241e-16 15:0.30498865 16:0.58556277 17:0.51446831 18:0.3901794 19:0.47175276 20:0.85711247 21:0.8796075 22:0.6263873 23:0.31982848 24:0.72663403 25:0.34152931 26:0.69551998 27:0.43240261 28:0.55952507 29:7.4826044e-17 30:0.31355622 31:0.14174482 32:0.64900494 33:0.36821902 34:0.66201138 35:0.43252108 36:0.3944979 37:0.45194361 38:0.8470127 39:0.71211201 40:0.66473079 41:0.54575926 42:0.8123877 
1.381858880079254 1:0.44561449 2:0.4641296 3:0.36218363 4:0.31926805 5:0.48509157 6:0.35518718 7:0.4676567 8:0.68625945 9:0.62551314 10:0.53449452 11:0.42131203 12:0.37776875 13:0.52358353 14:0.61452693 15:0.71878493 16:0.45466858 17:0.57596993 18:0.32989869 19:0.49661347 20:0.5901401 21:0.59223074 22:0.011174822 23:0.75886333 24:0.86808074 25:0.64308512 26:0.35771081 27:0.55946511 28:0.72299403 29:0.85766143 30:0.22871929 31:0.39938375 32:0.441201 33:0.27098981 34:0.51819026 35:0.64269352 36:0.23430373 37:0.81101537 38:0.65452993 39:0.91359228 40:0.8308742 41:0.66865444 42:0.75725138 
1.545302722434899 1:0.60617322 2:0.45138934 3:0.5521723 4:0.62279695 5:0.50634879 6:0.39533231 7:0.38649276 8:0.77975875 9:0.42939007 10:0.39610952 11:0.34170216 12:0.58427274 13:0.56035781 14:0.61669075 15:0.74710286 16:0.47874287 17:0.40888759 18:0.4135538 19:0.47430798 20:0.57939243 21:0.4906536 22:0.28178033 23:0.67164636 24:0.92705631 25:0.40048906 26:0.33563846 27:0.60942262 28:0.75159085 29:0.89695793 30:0.33831939 31:0.29141563 32:0.30390105 33:0.35281119 34:0.42390803 35:0.61276972 36:0.19344351 37:0.87731403 38:0.68837553 39:0.9013986 40:0.81225806 41:0.66409385 42:0.75836617 
4.612170987970829 1:0.50448412 2:0.37458542 3:0.63308501 4:0.68695849 5:0.39484882 6:0.53402263 7:0.40623036 8:0.66773713 9:0.40658638 10:0.64266378 11:0.23583038 12:0.59802401 13:0.51770782 14:0.28878939 15:0.46523476 16:0.52860808 17:0.57164586 18:0.45303354 19:0.62779665 20:0.48907307 21:0.44185734 22:0.61010545 23:0.58664507 24:0.72764319 25:0.44988531 26:0.11388025 27:0.70801151 28:0.53650534 29:0.48555467 30:0.87297058 31:0.31048054 32:0.078017212 33:0.57517242 34:0.12387707 35:0.66719711 36:0.78967208 37:0.81581646 38:0.4215174 39:0.9199869 40:0.16837896 41:0.32075238 42:0.97868121 
5.884510948297703 1:0.64941502 2:0.51469994 3:0.31360725 4:0.53751367 5:0.47494894 6:0.35484451 7:0.45187375 8:0.55889076 9:0.49607754 10:0.44057688 11:0.26961988 12:0.61495388 13:0.41970035 14:0.57916564 15:0.61664116 16:0.59772879 17:0.60918152 18:0.58703309 19:0.46058348 20:0.49763444 21:0.73380518 22:0.76939672 23:0.62091029 24:0.59952492 25:0.58785462 26:0.2829127 27:0.51896101 28:0.45125178 29:0.5094201 30:0.0091355471 31:0.19946061 32:0.26499915 33:0.6295855 34:0.33610794 35:0.41665983 36:0.40643623 37:0.77445245 38:0.53631127 39:0.030025788 40:0.18107115 41:0.27524981 42:0.85223967 
1.883667386739507 1:0.37079555 2:0.51241857 3:0.62491918 4:0.44926769 5:0.51852262 6:0.50924003 7:0.45292181 8:0.33707362 9:0.48578864 10:0.43812898 11:0.32094926 12:0.57098031 13:0.58356196 14:0.49398395 15:0.68755901 16:0.66077268 17:0.43660825 18:0.60236084 19:0.63979453 20:0.54740196 21:0.63593441 22:0.67383915 23:0.64547098 24:0.66087675 25:0.61571276 26:0.34865433 27:0.58466804 28:0.30203941 29:0.58021957 30:0.071759142 31:0.38127521 32:0.24868788 33:0.62344259 34:0.44853088 35:0.43068177 36:0.21672623 37:0.80049443 38:0.48753798 39:0 40:0.20415176 41:0.24463128 42:0.85874891 
1.743179620756983 1:0.74612933 2:0.40452415 3:0.4612135 4:0.38387126 5:0.6048733 6:0.53154713 7:0.58990175 8:0.65590245 9:0.27660158 10:0.41443348 11:0.19867523 12:0.22280282 13:0.51444215 14:0.39547619 15:0.77102512 16:0.1966067 17:0.63272321 18:0.16117193 19:0.67927647 20:0.41286477 21:0.80837739 22:0.47940943 23:0.49088186 24:0.93165314 25:0.7161113 26:1 27:0.7507624 28:0.2404495 29:0.6823675 30:0.55084693 31:0.59629726 32:0.12736531 33:0.64939618 34:0.34344304 35:0.49682075 36:0.82790244 37:0.34342825 38:0.31172276 39:0.17274223 40:0.91177005 41:0.61206722 42:0.60706997 
1.061868027807534 1:0.39332139 2:0.55790883 3:0.58285195 4:0.51729876 5:0.33934328 6:0.11834523 7:0.659684 8:0.76530641 9:0.43159527 10:0.44546977 11:0.40736648 12:0.48552275 13:0.45556447 14:0.8214646 15:0.19075403 16:0.35942531 17:0.60483056 18:0.59394616 19:0.63376135 20:0.6553604 21:0.25413591 22:0.19463292 23:0.6370576 24:0.51628321 25:0 26:0.24173382 27:0.88075799 28:0.051473286 29:0.63728827 30:0.43370879 31:0.45170528 32:0.62350452 33:0.56373805 34:0.60512716 35:0.49042597 36:0.58662063 37:0.5930602 38:0.30191836 39:0.30833465 40:0.90821946 41:0.61587328 42:0.71052259 
1.805049697965362 1:0.6421594 2:0.23922999 3:0.56564462 4:0.3999247 5:0.17550176 6:0.51097894 7:0.43172854 8:0.97343522 9:0.18171273 10:0.43723935 11:0.32333714 12:0.54090917 13:0.44440144 14:0.43871963 15:0.34267247 16:0.57762927 17:0.61912751 18:0.17970924 19:0.73822242 20:0.61383855 21:0.97742689 22:0.78740937 23:0.75278819 24:0 25:0.79183096 26:0.076641724 27:0.28696892 28:0.59561259 29:0.61312443 30:0.35561004 31:0.92330426 32:0.29126495 33:0.53443408 34:0.38002604 35:0.65228754 36:0.37055895 37:0.72959101 38:0.65650785 39:0.73540437 40:0.85321063 41:0.64143944 42:0.74673337 
0.003987177705409534 1:0.34312496 2:0.57768482 3:0.54470712 4:0.26006517 5:0.22815183 6:0.4451488 7:0.44199488 8:0.010254207 9:0.58228558 10:0.3284336 11:0.63008958 12:0.78706867 13:0.42409208 14:0.53771985 15:0.4382011 16:0.73263466 17:0.6411463 18:0.20941767 19:0.5553413 20:0.77309132 21:0.61455458 22:0.55098641 23:0.62285668 24:0.28138211 25:0.46291053 26:0.84389549 27:0.68964249 28:0.10394222 29:0.85360825 30:0.55402237 31:0.58669508 32:0.43521515 33:0.35511205 34:0.52298921 35:0.82517421 36:0.10429356 37:0.71070248 38:0.40989992 39:0.90364563 40:0.27237514 41:0.39610469 42:0.9195658 
4.699427778660607 1:0.34312496 2:0.57768482 3:0.54470712 4:0.26006517 5:0.22815183 6:0.4451488 7:0.44199488 8:0.010254207 9:0.58228558 10:0.3284336 11:0.63008958 12:0.78706867 13:0.42409208 14:0.53771985 15:0.4382011 16:0.73263466 17:0.6411463 18:0.20941767 19:0.5553413 20:0.77309132 21:0.61455458 22:0.55098641 23:0.62285668 24:0.28138211 25:0.46291053 26:0.84389549 27:0.68964249 28:0.10394222 29:0.85360825 30:0.55402237 31:0.58669508 32:0.43521515 33:0.35511205 34:0.52298921 35:0.82517421 36:0.10429356 37:0.71070248 38:0.40989992 39:0.90364563 40:0.27237514 41:0.39610469 42:0.9195658 
1.208088498178919 1:0.35861814 2:0.61987549 3:0.5244562 4:0.43281409 5:0.1748683 6:0.33248615 7:0.39354667 8:0.99308425 9:0.2328755 10:0.51513129 11:0.64954066 12:0.58400428 13:0.62251168 14:0.75543046 15:0.82473087 16:0.30171692 17:0.63365757 18:0.50729632 19:0.59849119 20:0.45185739 21:0.94253594 22:0.50697434 23:0.28592706 24:0.75627089 25:0.57951254 26:0.35403761 27:0.21150921 28:0.13203798 29:0.90070701 30:0.64818478 31:1.6982424e-16 32:0.69368726 33:0.495451 34:0.11604141 35:0.39261168 36:0.50549525 37:0.31806341 38:0.66540134 39:0.71294594 40:0.10853277 41:0.33904794 42:0.9330197 
0.4538526607228371 1:0.62938577 2:0.49155986 3:0.45657262 4:0.66125208 5:0.53524613 6:0.42296776 7:0.31913179 8:0.40729079 9:0.48003358 10:0.19280493 11:0.27381033 12:0.5662176 13:0.63820195 14:0.6731174 15:0.56180543 16:0.72574997 17:0.81269032 18:0.03711912 19:0.82345068 20:0.27200472 21:0.53025705 22:0.84522539 23:0.83653963 24:0.66278762 25:0.36495146 26:0.031129934 27:0.58476508 28:0.4850513 29:0.6069662 30:0.4924821 31:0.22512984 32:0.95993948 33:0.67795247 34:0.74217689 35:0.30182487 36:0.60904801 37:0.62935013 38:0.74009091 39:0.6348992 40:0.71146303 41:0.51696306 42:0.81244564 
-3.429570099132317 1:0.51590896 2:0.63052297 3:0.53606588 4:0.61854857 5:0.5100714 6:0.53998828 7:0.35606861 8:0.81866181 9:0.53992397 10:0.52967858 11:0.43682057 12:0.53853226 13:0.4766593 14:0.67149502 15:0.63170284 16:0.61610925 17:0.39184391 18:0.54382592 19:0.37822801 20:0.5898121 21:0.87247539 22:0.36434111 23:0.6886369 24:0.29680356 25:0.39230695 26:0.35963532 27:0.56100398 28:0.57413095 29:0.61314869 30:0.63368869 31:0.37116861 32:0.40416735 33:0.47484174 34:0.57761526 35:0.16120629 36:0.45353022 37:0.58389884 38:0 39:0.85824871 40:0.4362998 41:0.81015569 42:0.62616426 
-1.354533511478587 1:0.6755873 2:0.58624822 3:7.3209121e-16 4:0.52742487 5:0.47792149 6:0.93888223 7:0.28164658 8:0.78342867 9:0.39356202 10:0.49233451 11:0.44076017 12:0.64731139 13:0.12162547 14:0.61344141 15:0.4152787 16:0.96246904 17:0.61389011 18:0.54251015 19:0.42646784 20:0.3878451 21:0.90297443 22:0.27527794 23:0.63567507 24:0.31327367 25:0.54053873 26:0.61258894 27:0.59559804 28:0.34827191 29:0.62306321 30:0.43766531 31:0.61042076 32:0.35395083 33:0.42658609 34:0.54015964 35:7.3118658e-16 36:0.19058207 37:0.55645639 38:0.041921753 39:0.77227145 40:0.39560917 41:0.75202 42:0.59049881 
-2.596873303213119 1:8.2415665e-16 2:0.80508083 3:0.36682254 4:0.64021468 5:0.50635028 6:0.40589195 7:0.55082047 8:0.67807245 9:0.20781855 10:0.61441469 11:0.25987861 12:0.66104263 13:0.4964765 14:0.70761716 15:0.56732666 16:0.73766702 17:0.10449947 18:0.64961571 19:0.59220427 20:0.30941743 21:0.93208474 22:0.16253084 23:0.40483564 24:0.19854707 25:0.72571051 26:0.47152972 27:0.60361332 28:0.23158793 29:0.51849788 30:0.63279885 31:0.79284865 32:0.1745083 33:0.62702912 34:0.70471185 35:0.52174658 36:0.51693994 37:0.67574668 38:0.60078973 39:0.50162935 40:0.22868715 41:0.73038054 42:0.58818388 
-1.42718069348902 1:0.83786845 2:0.63787657 3:1 4:0.33993733 5:0.61756438 6:0.39870521 7:0.39360246 8:0.31756693 9:0.39593336 10:0.63795656 11:0 12:0.36631116 13:0.62626922 14:0.46130219 15:0.2048602 16:0.63364333 17:0.195445 18:0.3168354 19:0.65450674 20:0.44751978 21:0.74063146 22:0.3289071 23:0.16835117 24:0.75007659 25:0.26949432 26:0.90644389 27:0.49274653 28:0.37012646 29:0.5445866 30:0.48800859 31:0.69568634 32:0.96495193 33:0.15977055 34:0 35:0.44471925 36:0.35368133 37:0.78342932 38:0.58676106 39:0.61352432 40:0.21914139 41:0.74860114 42:0.46044171 
-3.690503646927568 1:0.59586561 2:0.603369 3:0.57416546 4:0.26484829 5:0.87133068 6:0.35331497 7:0.40821779 8:0.84582365 9:0.74025792 10:0.42676285 11:0.45822123 12:0.68107104 13:0.45963851 14:0.51766825 15:0.64620686 16:0.22611789 17:0.62857533 18:0.54089063 19:0.66794205 20:0.66190535 21:0.40881908 22:0.70475501 23:0.66620231 24:0.50713283 25:0.5363515 26:0.33838826 27:0.17358284 28:0.050737947 29:0.50640076 30:0.24272913 31:0.80013347 32:0.49594355 33:0.29086426 34:0.26477098 35:0.56896251 36:0.28748176 37:0.7039476 38:0.69213217 39:0.60428524 40:0.206598 41:0.84666836 42:0.68817776 
-2.93485587927348 1:0.42614219 2:0.69398826 3:0.58545363 4:0.62432033 5:0.68921131 6:0.36255643 7:0.42482373 8:0.62257487 9:0.86186308 10:0.58919805 11:0.38117507 12:0.62262189 13:0.62451494 14:0.53402108 15:0.44840181 16:0.39385992 17:0.64760923 18:0.72080004 19:0.82386482 20:0.22962813 21:0.7288866 22:0.7985 23:0.39937985 24:0.60619628 25:0.49264824 26:0.39961958 27:0.43423268 28:0.32934368 29:0.68395585 30:0.48318696 31:0.77831221 32:0.41321671 33:6.3715777e-16 34:0.29578716 35:0.64225388 36:0.52155781 37:0.61064577 38:0.60943455 39:0.63354099 40:0.22216806 41:0.82561547 42:0.59527135 
-1.535085443627633 1:0.4969984 2:0.36690453 3:0.46425489 4:0.32154736 5:0.34967059 6:0.13019337 7:0.40572959 8:0.18927678 9:0.24834326 10:0.43087506 11:0.3164444 12:0.5534668 13:0.26500365 14:0.42800239 15:0.77070457 16:0.26347208 17:0.59776622 18:0.34685376 19:0.069955379 20:0.35289675 21:0.63411212 22:0.7498973 23:0.8820197 24:0.43829346 25:0.22489043 26:0.62025911 27:0.58318824 28:0.2887038 29:0.67119873 30:0.32512194 31:0.14989026 32:0.47676349 33:0.36119843 34:0.7577762 35:0.71117866 36:0.56779033 37:0.53641957 38:0.54082209 39:0.56685209 40:0.204331 41:0.78548437 42:0.62400126 
-1.223855652652756 1:0.35146752 2:0.7049067 3:0.35634062 4:0.74626756 5:0.26723969 6:0.44441408 7:0.52168316 8:0.60035121 9:0.73990887 10:0.42975986 11:0.38611481 12:0.89245182 13:0.38856924 14:0.1936129 15:0.37701136 16:0.57819635 17:0.68544132 18:0.24532951 19:0.79037285 20:1 21:0.29094756 22:1 23:0.57062185 24:0.90923935 25:0.54416269 26:0.66772527 27:0.68117565 28:0.46217588 29:1 30:0.51608723 31:0.56477523 32:0.65025055 33:0.4909521 34:0.47389826 35:0.46027645 36:0.6040529 37:0.6261698 38:0.45589018 39:0.44473764 40:0.19117148 41:0.83303076 42:0.48747003 
-0.1244441238779883 1:0.5653438 2:0.78807449 3:0.33030081 4:0.62155902 5:0.319989 6:0.4451212 7:0.74437529 8:0.48667631 9:0.60365039 10:0.26192975 11:0.56851548 12:0.76828873 13:0.7097649 14:0.51225424 15:0.41721508 16:0.44098482 17:0.90515876 18:0.33385113 19:0.7251699 20:0.73553574 21:0.61016738 22:0.39159286 23:0.32341689 24:0.81629997 25:0.76824284 26:0.20621687 27:0.31180969 28:0.19189289 29:0.56335843 30:0.69266367 31:0.46789011 32:0.55458623 33:0.51993161 34:0.48290795 35:0.37329561 36:0.73760462 37:0.61942965 38:0.62094742 39:0.65640205 40:0.17173469 41:0.89959252 42:0.60808742 
-4.19340481096566 1:0.65884197 2:0.5548234 3:0.67316425 4:0.65217841 5:0.54444838 6:0.37437829 7:0.54588079 8:0.37835264 9:0.56293094 10:0.43763566 11:0.54397398 12:0.43581206 13:0.46620306 14:0.46440011 15:0.90307111 16:0.65060753 17:0.80413198 18:0.50507176 19:0.64320105 20:0.31973875 21:0.5458805 22:0.36181435 23:0.6119839 24:0.63285285 25:0.39427191 26:0.33322933 27:0.61431319 28:0.18511055 29:0.63987011 30:0.52222848 31:0.68162221 32:0.24403073 33:0.36998183 34:0.80675679 35:0.59381562 36:0.43598926 37:0.69134539 38:0.64388084 39:0.529423 40:0.21770854 41:0.73543537 42:0.64667636 
-1.121789632520018 1:0.68809545 2:0.44558692 3:0.17848757 4:0.52614468 5:0.58270544 6:0.24962929 7:0.83404911 8:0.38691616 9:0.44020957 10:0.56686968 11:0.72563106 12:0.42542696 13:0.52205598 14:0.78399819 15:0.26691842 16:0 17:0.48860267 18:0.36367619 19:0.36953092 20:0.31206053 21:0.51900578 22:0.54321593 23:0.81128794 24:0.46638966 25:0.7122677 26:0.29309687 27:0.71984506 28:0.52058703 29:0.70784223 30:0.34329343 31:0.31730059 32:0.39947721 33:0.35479814 34:0.11159702 35:0.40191269 36:0.65740591 37:0.82279629 38:0.72310513 39:0.65720433 40:0.21387205 41:0.80840707 42:0.58277887 
-0.9221900856605592 1:0.54466408 2:0.24691615 3:0.5627982 4:0.1662596 5:0.61617517 6:0.26010525 7:0.50155139 8:0.28924084 9:0.40926197 10:0.5454843 11:0.45163369 12:0.69547004 13:0.5156849 14:0.39403218 15:0.83390814 16:0.072338313 17:0.36804906 18:0.68423659 19:0.69014609 20:0.83186537 21:0.61721998 22:0.47731337 23:0.55155814 24:0.33511472 25:0.73932588 26:0.4337762 27:0.43365836 28:0.57119846 29:0.70068634 30:0.63183719 31:0.37048441 32:0.46302423 33:0.56428891 34:0.63704932 35:0.62050307 36:0.57000828 37:0.63597107 38:0.63133991 39:0.55727535 40:0.23206949 41:0.82889211 42:0.61059797 
-0.6331387016173231 1:0.64590073 2:0.3550702 3:0.49356672 4:0.52247614 5:0.49470514 6:0.53865772 7:0.82348251 8:0.54401124 9:0.32223484 10:0.50151742 11:0.29023129 12:0.65141809 13:0.54605186 14:0.30012685 15:0.68444502 16:0.24354117 17:0.041948117 18:0.44227746 19:0.54901731 20:0.64465427 21:0.718831 22:0.52591038 23:0.81397533 24:0.17313555 25:0.62532461 26:0.29599139 27:0.65237969 28:0.47650489 29:0.72686881 30:0.52468061 31:0.21293601 32:0.90308839 33:0.5514828 34:0.53583676 35:0.6608184 36:0.64057761 37:0.78586709 38:0.6624428 39:0.45149475 40:0.1733373 41:0.79980087 42:0.57817823 
-1.477391204298902 1:0.14734344 2:0.40899366 3:0.13534524 4:0.32602262 5:0.16106819 6:0.67681009 7:1 8:0.6370427 9:0.50557065 10:0.61902636 11:0.38380891 12:0.40160066 13:0.40246025 14:0.32167903 15:0.77736497 16:0.67772365 17:0.37828365 18:0.66270125 19:0.96231806 20:0.41337234 21:0.58336532 22:0.27117527 23:0.3338753 24:0.75851786 25:0.39963251 26:0.15786506 27:0.56471264 28:0.57693648 29:0.39730015 30:0.46574911 31:0.68500531 32:0.65107733 33:0.9167124 34:0.41286659 35:0.76010764 36:0.35038844 37:0.69691086 38:0.52481282 39:0.52429843 40:0.21004625 41:0.83386004 42:0.5297761 
-8.110385781587295 1:0.58919162 2:0.36493671 3:0.73464435 4:0.452526 5:0.45543772 6:0.38334402 7:0.59309995 8:0.55423433 9:0.66627616 10:0.31684709 11:0.6499325 12:0.47320852 13:0.23159736 14:0.27506876 15:0.51716822 16:0.56271797 17:0.64470416 18:0.062931992 19:0.75498486 20:0.29607281 21:0.21440396 22:0.8174004 23:0.56268656 24:0.84331107 25:0.51085138 26:0.44709611 27:0.042533681 28:0.47265381 29:0.65988505 30:0.31026956 31:0.19896801 32:0.1548854 33:0.66876447 34:0.58273721 35:0.75158608 36:0.38924339 37:0.24857727 38:0.50396454 39:0.57838976 40:0.24071649 41:0.65962374 42:0.69009924 
-1.735150566403707 1:0.46058056 2:0.39477667 3:0.25779238 4:0.29082575 5:0.37449259 6:0.74906504 7:0 8:0.19170843 9:0.96848136 10:0.68400842 11:0.30549932 12:0.33342168 13:0.36103022 14:0.29002428 15:0.93739492 16:0.44554296 17:0.56926721 18:0.36495304 19:0.77094752 20:0.27562973 21:0.59416956 22:0.28491554 23:0.33758396 24:0.39804289 25:0.29262388 26:0.21200667 27:0.63934839 28:0 29:0.75332707 30:0.62888032 31:0.46948484 32:0.40429696 33:0.58930725 34:0.73936707 35:0.48100796 36:0.53423142 37:0.91277206 38:0.54589778 39:0.59087658 40:0.3001121 41:0.70803159 42:0.58797503 
-0.1270423247609403 1:0.54162157 2:0.36203527 3:0.55986708 4:0.55134118 5:0.3648594 6:0.57122999 7:0.55092198 8:0.30909261 9:0.39401248 10:0.67140162 11:0.28629893 12:0.30698621 13:0 14:0.94169945 15:0.5895887 16:0.51716244 17:0.52795506 18:0.027090503 19:0.69030631 20:0.52535462 21:0.9487685 22:0.67222816 23:0.60025352 24:0.81355643 25:0.34246746 26:0.38260195 27:0.5250991 28:0.15485534 29:0.69676274 30:0.59537244 31:0.24553391 32:0.7925061 33:0.72196686 34:0.40062505 35:0.42689493 36:0.5637539 37:0.92698342 38:0.69830883 39:0.52432668 40:0.19846126 41:0.71005201 42:0.46934319 
-0.3425168918360973 1:1 2:0.7067697 3:0.35607669 4:0.38484925 5:0.20757744 6:0.42100674 7:0.63445586 8:0.70083523 9:0.55740768 10:0.56067669 11:0.30458122 12:0.33508548 13:0.70749521 14:0.29036248 15:0.62566108 16:0.53008997 17:0.5505197 18:0.4766984 19:0.90596801 20:0.39356434 21:0.30865911 22:0.32849303 23:0.22479396 24:0.63638788 25:0.32459491 26:0.20189685 27:0.47239169 28:0.38607565 29:0.27684009 30:0.61728388 31:1 32:0 33:0.24823478 34:0.44868594 35:0.63764179 36:0.53946972 37:0.75773168 38:0.62872714 39:0.70154256 40:0.2997776 41:0.84175849 42:0.55793685 
-0.5856788836405613 1:0.49622205 2:0.30067864 3:0.39621493 4:0.28008646 5:0.37051439 6:0.099370852 7:0.20230629 8:0.25100759 9:0.29680499 10:0.34286788 11:0.31961709 12:0.80113035 13:0.77914912 14:0.5199064 15:0.59225202 16:0.69820124 17:0.61345321 18:0.33904621 19:0.29030734 20:0.38973159 21:0.71523857 22:0.27886146 23:0.12054534 24:0.56129235 25:1 26:0.56448036 27:0.67147511 28:0.47841305 29:0.64822239 30:0.71573436 31:0.29627731 32:0.54183179 33:0.82706618 34:0.77410513 35:0.77175128 36:0.52406424 37:0.59780389 38:0.55271232 39:0.65629059 40:0.14066146 41:0.78671461 42:0.59271526 
-2.395092761949014 1:0.49490997 2:0.68844253 3:0.40971267 4:0.66091996 5:0.60137087 6:0.32545421 7:0.58305126 8:0.64961785 9:0.25678357 10:0.45600891 11:0.17946395 12:0.85725981 13:0.71409464 14:0.79080158 15:0.3628802 16:0.61901283 17:0.6035955 18:0.39365283 19:0 20:0 21:0.80406207 22:0.59286582 23:0.86526775 24:0.79503828 25:0.62745589 26:0.60376751 27:0.81877029 28:0.37797824 29:0.5807727 30:0.15013 31:0.67808002 32:0.54915285 33:0.26273236 34:0.3119821 35:0.55211598 36:0.63168615 37:0.76948231 38:0.71938926 39:0.53964376 40:0.2102526 41:0.8224749 42:0.5551697 
-2.719257539220088 1:0.82575697 2:0.17565998 3:0.35905507 4:0.70007586 5:0.28406051 6:0.56392324 7:0.50087321 8:0.12214745 9:0.23682936 10:0.52835 11:0.42966962 12:0.65823948 13:0.66798866 14:0.42578584 15:0.44977626 16:0.5190025 17:0.91852045 18:0.7313112 19:0.72966027 20:0.7419576 21:0.61722916 22:0.56690896 23:0.43850785 24:0.75683552 25:0.19140616 26:0.63469887 27:0.31860921 28:0.41675979 29:0.56829447 30:0.27149799 31:0.64888167 32:0.18150613 33:0.29269823 34:0.23324224 35:0.34433612 36:0.37878996 37:0.80138791 38:0.68892002 39:0.55396193 40:0.2142195 41:0.87485075 42:0.56551528 
-3.452122643224128 1:0.84689486 2:0.39843994 3:0.40175185 4:0.61759007 5:0.63427895 6:0.2519266 7:0.82268441 8:0.38586032 9:0.35132048 10:0.45170704 11:0.40209436 12:0.99752617 13:0.01429396 14:0.34127367 15:0.58918691 16:0.5857085 17:0.34482822 18:0.31737161 19:0.65940595 20:0.6591866 21:0.5283612 22:0.59200937 23:0.5117588 24:0.33212104 25:0.80756629 26:0.43808922 27:0.62153804 28:0.44097456 29:0.70587432 30:0.34749031 31:0.34576106 32:0.48657909 33:0.59648705 34:0.6138413 35:0.45483276 36:0.55423254 37:0.67458165 38:0.59665877 39:0.52628487 40:0.18024915 41:0.79263908 42:0.65811604 
-0.6724824915052756 1:0.53681624 2:0.27938798 3:0.71617264 4:0.72008896 5:0.2647776 6:0.5108521 7:0.22458985 8:0.20028841 9:0.34430555 10:0.20757492 11:0.16421954 12:0.63712227 13:0.32413745 14:0.40525511 15:0.65368515 16:0.04660869 17:0.55599946 18:0.51085258 19:0.44153705 20:0.64183515 21:0.54104984 22:0.37630346 23:0.69550627 24:0.19061173 25:0.4021163 26:0.78796524 27:0.49743727 28:0.46583754 29:0.82940108 30:0.59059602 31:0.38605899 32:0.74391699 33:0.38653409 34:0.42418069 35:0.40292382 36:0.38956505 37:0.87293452 38:0.62371963 39:0.44765037 40:0.22056442 41:0.76876903 42:0.54125595 
-4.926268488937199 1:0.27906257 2:0.086234517 3:0.36813685 4:0.47726578 5:0.39314327 6:0.57813722 7:0.46610731 8:0.41817293 9:0.5293138 10:0.18415615 11:0.36417744 12:0.60750288 13:0.92942405 14:0.39952698 15:0.49334419 16:0.3884204 17:0.30596593 18:0.86327529 19:0.82735008 20:0.56402403 21:0.91900903 22:0.44351214 23:0.5618481 24:0.52557027 25:0.13272119 26:0.8343814 27:0.75485951 28:0.72806174 29:0.54818714 30:0.55306464 31:0.35754809 32:0.73923588 33:0.56483078 34:0.18219222 35:0.42047423 36:0.38862166 37:0.73745877 38:0.58732855 39:0.43160114 40:0.32641324 41:0.94803351 42:0.54361981 
-1.754748109594987 1:0.59970224 2:0.48193634 3:0.69348222 4:0.57257754 5:0.61089051 6:0.35938385 7:0.48921022 8:0.65892571 9:0.38818043 10:0.33661208 11:0.15580089 12:0.65101933 13:0.52308613 14:0.49883208 15:0.92894018 16:0.51292539 17:0.36256295 18:0.30727333 19:0.097444579 20:0.52145773 21:0.16635485 22:0.65539271 23:0.38817224 24:0.63461655 25:0.2461562 26:0.20073174 27:0.15171267 28:0.30880705 29:0.55371773 30:0.63170362 31:0.69825089 32:0.3559908 33:0.642564 34:0.60944659 35:0.39211234 36:0.37260816 37:0.47818106 38:0.48839197 39:0.80887467 40:0.43083465 41:0.012281452 42:0.20237635 
-2.630034488234642 1:0.44833857 2:0.70142478 3:0.43628019 4:0.54521292 5:0.50294918 6:0.45545411 7:0.37972835 8:0.46765202 9:0.3492662 10:0.35000035 11:0.48559576 12:0.4116686 13:0.50400525 14:0.46865499 15:0.80303955 16:0.51450473 17:0.87779373 18:0.67464441 19:0.74924231 20:0.45513061 21:0.58662409 22:0.35493755 23:0.70373011 24:0.37654126 25:0.45071992 26:0.42184383 27:0.24027027 28:0.54901117 29:0.45518228 30:0.54645562 31:0.46542296 32:0.3620646 33:0.42684281 34:0.36392227 35:0.58608639 36:0.38135308 37:0.62396002 38:0.64834601 39:0.81882846 40:0.51072574 41:0.087770045 42:0.10362329 
-3.185821558599797 1:0.67539567 2:0.596838 3:0.30300578 4:0.65174901 5:0.22645211 6:0.34843364 7:0.45629212 8:0.65251827 9:0.40324831 10:0.51154083 11:0.055673745 12:0.57661343 13:0.28877574 14:0.30004483 15:0.53115785 16:0.5033834 17:0.46841753 18:0.60659945 19:0.55955988 20:0.30703297 21:0.5605092 22:0.52196366 23:0.76710802 24:0.62131119 25:0.89784604 26:0.67327958 27:0.51904023 28:0.46217567 29:0.60247016 30:0.46502015 31:0.41989148 32:1 33:0.58234006 34:0.34639698 35:0.83668166 36:0.27971014 37:0.71179849 38:0.55033165 39:0.60925937 40:0.41685891 41:0.19802858 42:0.11747994 
-0.2574174513093045 1:0.4996939 2:0.26678467 3:0.092493847 4:0.48103943 5:0.51886344 6:0.15111189 7:0.15760767 8:0.89039046 9:0.80119598 10:0.43430519 11:0.21404463 12:0.64013767 13:0.36258784 14:0.56397206 15:0.50284874 16:0.44068161 17:0 18:0.66081792 19:0.57681787 20:0.20321657 21:0.66371775 22:0.93082082 23:9.3611421e-17 24:0.93151259 25:0.19012605 26:0 27:0.72042131 28:0.65357035 29:0.90538645 30:0.48407423 31:0.73059869 32:0.66963804 33:0.50891721 34:0.62634313 35:0.66307133 36:0.6579296 37:0.64960384 38:0.34213379 39:0.72984934 40:0.46421182 41:0.24244663 42:0.15667142 
-4.006299311271142 1:0.60746074 2:0.65260899 3:0.55475873 4:0.66613871 5:0.28903392 6:0.75190228 7:0.21619068 8:0.80104101 9:0.258439 10:0.44551644 11:0.22751364 12:0.63701886 13:0.42738768 14:0.78272432 15:0.30821714 16:0.17935315 17:0.30643514 18:0.74370974 19:0.26124763 20:0.58228171 21:0.54859912 22:0.86361581 23:0.35310322 24:0.58882797 25:0.071238436 26:0.32130024 27:0.66667634 28:1 29:0.68646568 30:0.58504164 31:0.56690371 32:0.53053617 33:0.67087394 34:0.52319181 35:0.7245661 36:0.46238947 37:0.74167758 38:0.34599277 39:0.77921027 40:0.37438911 41:0.20642272 42:0.20027068 
-2.093769174566884 1:0.48665485 2:0.24798979 3:0.5531792 4:0.55856669 5:0.51941574 6:0.80207014 7:0.43975362 8:0.68123376 9:0.56396472 10:0.29098588 11:0.44163689 12:0.77471703 13:0.62933576 14:0.85737026 15:0.22568978 16:0.45253414 17:0.65148818 18:0.37494007 19:0.48913413 20:0.52487308 21:0.55275166 22:0.40782115 23:0.50816041 24:0.61152184 25:0.73122537 26:0.28030714 27:0.37265384 28:0.40913215 29:0.60413367 30:0.48498678 31:0.41744688 32:0.263695 33:0.45038998 34:0.34248304 35:0.52556974 36:0.53300208 37:0.59003741 38:0.63876277 39:0.70957375 40:0.37101662 41:0.056461252 42:0.14571489 
-2.184802212116999 1:0.39039865 2:0 3:0.55746073 4:0.48764792 5:1 6:0.78490585 7:0.36754721 8:0.36568657 9:0.40224648 10:0.41854307 11:0.72035891 12:0.57390463 13:0.53625196 14:0.7939834 15:0.39623827 16:0.50522292 17:0.82967234 18:0.45992282 19:0.59522653 20:0.59401351 21:0.50804752 22:0.023015546 23:0.74673176 24:0.39902309 25:0.70130217 26:0.56097287 27:0.38122281 28:0.28957212 29:0.5229336 30:0.48064193 31:0.082304768 32:0.51960373 33:0.64629823 34:0.25001705 35:0.66414398 36:0.4209933 37:0.64899218 38:0.76402074 39:0.60200077 40:0.44624817 41:2.4566894e-16 42:0.11356998 
-0.8397540948788019 1:0.29976025 2:0.52442545 3:0.66546392 4:0.27861154 5:0.35592169 6:0.21578662 7:0.49285194 8:0.2303995 9:0.26922658 10:0.53976148 11:0.28379253 12:0.73059678 13:0.25118077 14:0.69628549 15:0.7448172 16:0.42751649 17:0.56280214 18:0.49323478 19:0.53353566 20:0.54455805 21:0.88507324 22:0.68407899 23:0.43913227 24:0.67087716 25:0.55770022 26:0.19393581 27:0.54697162 28:0.82379079 29:0.4326711 30:0.45815551 31:0.77533948 32:0.34852052 33:0.40003988 34:0.46394643 35:0.43645546 36:0.45421454 37:0.71341038 38:0.46617797 39:0.79596972 40:0.38309634 41:0.067485437 42:0.12159335 
-0.8065462454558564 1:0.54394084 2:0.4665592 3:0.32344887 4:0.41489157 5:0.37140638 6:5.1416227e-17 7:0.44186297 8:0.45757881 9:0.77543157 10:0.44044018 11:0.68774378 12:0.61599928 13:0.30874148 14:0.80317789 15:0.79289567 16:0.70539695 17:0.61597914 18:0.68308836 19:1 20:0.35624975 21:0.82598621 22:0.51037806 23:0.84617513 24:0.5515337 25:0.60587919 26:0.31338629 27:0.63903666 28:0.44910252 29:0.27903482 30:0.63925552 31:0.62077945 32:0.57695043 33:0.36383808 34:0.2881358 35:0.51262224 36:0.45607325 37:0.81083137 38:0.44319555 39:0.79439694 40:0.50857025 41:0.040703848 42:0.11206371 
