svm_type c_svc
kernel_type rbf
gamma 0.09
nr_class 32
total_sv 1420
rho 0.00464333 0.148035 0.124067 0.281163 0.206623 0.0507718 0.245184 0.227548 -0.0433323 0.690038 0.252402 0.148657 -0.214188 0.0716634 -0.18132 0.00750883 0.078798 -0.0763164 0.0961016 -0.22876 0.208168 0.0470108 0.0361205 0.350646 0.279715 0.328959 0.288345 -0.0396574 -0.124552 0.228756 0.409411 0.0777489 0.145925 0.0515035 0.188119 0.262776 0.153576 0.179297 0.0714113 0.251319 0.59751 0.149088 -0.225922 0.0573576 -0.171558 -0.0792004 0.0794245 0.181984 0.153609 0.00795826 -0.000455057 0.0578077 -0.207419 0.217361 0.290534 0.388011 0.161624 -0.170033 -0.0665646 0.3691 -0.0650786 -0.322692 0.0566425 0.0698467 0.0306298 -0.0855739 0.122036 -0.117154 0.197227 0.241917 -0.0874674 -0.25879 -0.113181 -0.211299 -0.124531 -0.027229 -0.144035 -0.0370756 -0.224469 -0.0419343 -0.0727927 -0.223959 0.183931 0.0998006 0.0395006 0.0384905 -0.183342 -0.191179 0.0497923 0.0449064 7.05015e-05 0.0468052 0.0529915 -0.0775502 0.115347 -0.0847675 0.134372 0.102039 -0.0405164 -0.271984 -0.111682 -0.13959 -0.157395 0.016307 -0.112335 0.0652291 -0.160697 -0.0711549 -0.170822 -0.221675 0.319363 0.0864277 0.25588 0.0410123 -0.191386 -0.197917 0.168384 0.0556301 0.0750458 0.0961428 0.0059586 -0.0352018 -0.11667 0.321091 0.0769034 -0.0152393 -0.240188 -0.00105228 -0.172481 -0.0336376 -0.0653663 -0.125147 0.0570864 -0.290949 0.0140457 -0.0487078 -0.242529 0.348685 0.119501 0.00305658 0.0905192 -0.106052 -0.271961 0.130661 0.126248 -0.493066 -0.0676894 -0.0684135 -0.0285117 0.1804 0.151381 -0.0943152 -0.297244 -0.17968 -0.245948 -0.0968979 -0.104964 -0.198767 0.0218889 -0.244651 -0.0400742 -0.0409066 -0.302647 -0.00511092 0.0975945 0.0985433 0.0751379 -0.187971 -0.259504 0.0960252 0.0428997 -0.0186073 -0.095538 -0.160431 0.187575 0.126467 -0.148522 -0.232909 -0.177959 -0.272834 -0.0809052 -0.0727818 -0.153749 -0.0596605 -0.230544 -0.0785086 -0.0609536 -0.1639 0.218272 0.049104 0.125088 0.188348 -0.321611 -0.168243 0.167478 0.0957037 0.180962 -0.161883 0.24632 0.119199 0.0293563 -0.227327 -0.0369101 -0.190562 -0.101092 -0.0498386 0.0532334 0.0219601 -0.145568 -0.162816 -0.0105177 -0.159788 0.222339 0.239108 0.250521 0.0715673 -0.120358 -0.0699586 0.189759 0.192152 -0.034558 0.243351 0.0931192 -0.0772866 -0.336386 -0.152947 -0.267542 -0.211594 0.0583503 -0.14417 0.0950593 -0.280655 -0.189874 -0.0851616 -0.264675 0.283548 0.13234 0.0743962 0.153987 -0.207848 -0.141396 0.266906 0.0832145 0.20003 0.309692 -0.0347189 -0.222671 -0.0526978 -0.209799 -0.0376634 -0.0577829 -0.124807 0.0700389 -0.2256 0.0943074 0.00745914 -0.109011 0.235304 0.225603 0.189888 0.204246 -0.0586476 -0.0722959 0.180004 0.268397 0.0307728 -0.255798 -0.386232 -0.33222 -0.419332 -0.264558 -0.298065 -0.487958 -0.255582 -0.408309 -0.27224 -0.18282 -0.42221 -0.053078 -0.03665 -0.108153 -0.13596 -0.500491 -0.325047 -0.258433 -0.197499 -0.245457 -0.376129 -0.260891 -0.38071 -0.291027 -0.10526 -0.32075 -0.129088 -0.476164 -0.272456 -0.35319 -0.404295 -0.0405674 -0.101205 -0.0242152 -0.0424259 -0.311672 -0.427895 -0.183226 -0.255805 -0.20395 -0.0149853 -0.14569 -0.10711 -0.0402634 -0.0815547 0.0451202 -0.188923 -0.0313619 -0.00915386 -0.204119 0.179627 0.167367 0.133313 0.12764 -0.133888 -0.170275 -0.0485695 -0.00312173 0.161477 0.0363588 0.0688023 0.224677 0.128915 0.313402 0.0118815 0.158359 0.201545 0.0623354 0.352313 0.269436 0.298459 0.2667 0.0604836 0.0385045 0.224152 0.259745 -0.117554 -0.0537847 0.0242366 0.11461 0.075389 -0.14151 0.0588604 -0.0245117 -0.140857 0.201103 0.196586 0.142906 0.138881 -0.107127 -0.091461 0.083019 0.0320668 0.0744333 0.152257 0.0966736 0.23441 0.00573881 0.138235 0.229741 0.00390909 0.292372 0.279147 0.294921 0.217187 0.040538 0.00529786 0.208396 0.142009 0.115161 0.0671419 0.17684 -0.0761633 0.0742963 0.0728081 -0.0225175 0.232421 0.151646 0.24772 0.0864753 0.0497004 -0.0463468 0.070797 0.127178 -0.0225476 0.0753557 -0.132468 0.0186358 -0.0227528 -0.210011 0.132537 0.0871428 0.107973 0.11689 -0.0806985 -0.123718 0.118429 0.0414585 0.047283 -0.157027 0.0291738 0.0564126 -0.0885962 0.211539 0.163258 0.156537 0.129371 -0.129965 -0.0774044 0.0752746 0.0756747 -0.259742 -0.0445153 -0.0709318 -0.246799 0.0920658 0.142745 0.0535408 0.0874679 -0.173729 -0.138794 0.0491261 0.033099 0.0898382 0.266326 0.0253918 0.437418 0.240802 0.364792 0.203202 0.11809 0.0786591 0.313134 0.31616 0.068846 -0.18288 0.123424 0.139275 0.172684 0.083072 -0.115516 -0.173972 0.0455289 0.00912661 -0.215769 0.133874 0.147855 0.182679 0.130971 -0.122001 -0.0937881 0.247976 0.106815 0.38253 0.259702 0.305083 0.164629 0.12777 -0.0404135 0.312842 0.217093 -0.0412392 -0.0615423 -0.0763009 -0.387667 -0.288062 -0.296255 -0.116303 -0.00918996 -0.0524162 -0.200535 -0.299341 -0.0170568 -0.0742944 -0.0419103 -0.259113 -0.358111 -0.0462891 -0.176885 -0.166869 -0.203055 -0.0621639 -0.0290489 -0.0098878 0.28817 0.221607 0.314652 0.366683 -0.0354111
label 2002 2002657 20131 20132 20133 2013657 2013658 2013659 2014 2014657 2100 2100657 21202 21203 2120658 2120659 21211 2121657 21301 21302 21303 2130657 2130658 2130659 21401 21402 2140657 2140658 2141 2141657 2150 2150657
probA -4.92284 -4.61637 -4.52038 -4.32906 -4.61457 -4.5237 -4.47216 -4.90716 -4.78298 -4.31342 -4.64766 -4.70642 -4.7369 -4.69789 -4.67363 -4.57683 -4.62317 -4.4978 -4.5796 -4.65934 -4.54801 -4.61343 -4.56576 -4.61536 -4.71344 -4.68154 -4.71809 -4.61338 -4.64279 -4.31066 -4.48807 -4.63044 -4.55241 -4.3996 -4.57708 -4.55758 -4.40934 -4.85119 -4.92049 -4.55783 -4.39695 -4.69468 -4.70114 -4.74161 -4.70349 -4.49674 -4.57899 -4.48936 -4.62922 -4.64205 -4.42877 -4.53279 -4.66644 -4.65595 -4.68764 -4.60793 -4.71443 -4.60216 -4.60707 -4.51135 -4.27093 -4.01015 -4.11213 -4.23035 -4.15821 -4.08886 -4.47837 -4.59468 -4.23883 -4.26178 -4.37684 -4.3492 -4.42183 -4.34197 -4.2175 -4.2083 -4.32944 -4.34864 -4.30614 -4.14542 -4.28886 -4.28585 -4.3174 -4.39327 -4.32819 -4.3621 -4.25659 -4.30118 -4.14403 -4.20335 -3.96616 -4.16687 -4.02461 -4.04563 -4.43063 -4.51559 -4.2269 -4.19541 -4.33089 -4.32844 -4.32755 -4.32085 -4.09267 -4.15054 -4.18703 -4.24331 -4.2346 -4.11561 -4.2651 -4.25162 -4.22631 -4.29376 -4.22746 -4.25233 -4.15566 -4.21025 -4.15613 -4.21606 -4.24467 -4.03111 -4.12066 -4.43813 -4.39079 -4.15094 -4.19271 -4.24563 -4.2778 -4.30666 -4.27334 -4.13328 -4.1827 -4.15391 -4.13854 -4.14148 -4.18249 -4.1598 -4.16106 -4.17949 -4.23306 -4.29298 -4.25851 -4.19259 -4.17162 -3.98684 -4.10736 -4.12555 -4.18777 -4.61848 -4.46504 -4.25243 -4.30762 -4.38339 -4.36586 -4.3899 -4.34166 -4.22159 -4.31103 -4.2252 -4.34699 -4.27475 -4.28219 -4.3125 -4.32915 -4.3773 -4.37199 -4.33875 -4.37017 -4.22827 -4.30609 -4.37611 -4.24846 -4.10671 -4.57667 -4.35888 -4.15514 -4.12628 -4.31046 -4.32123 -4.32384 -4.3016 -4.10454 -4.11058 -4.07468 -4.24539 -4.25913 -4.13837 -4.20984 -4.23513 -4.25164 -4.34651 -4.29019 -4.29428 -4.16782 -4.20405 -4.19567 -4.14117 -4.49519 -4.4709 -4.16128 -4.21397 -4.35361 -4.33635 -4.31477 -4.34692 -4.19894 -4.2117 -4.20825 -4.25832 -4.23049 -4.18358 -4.13444 -4.19095 -4.28889 -4.32431 -4.24614 -4.28258 -4.3336 -4.24846 -4.17137 -4.11817 -4.85974 -4.54187 -4.561 -4.68247 -4.68576 -4.72523 -4.68502 -4.56202 -4.49873 -4.51387 -4.57673 -4.58945 -4.57636 -4.54693 -4.60466 -4.6488 -4.66776 -4.71498 -4.67002 -4.59851 -4.67432 -4.56687 -4.5193 -4.5386 -4.65229 -4.70949 -4.67891 -4.64263 -4.70873 -4.53411 -4.59157 -4.55589 -4.55542 -4.69351 -4.54374 -4.55326 -4.44171 -4.66222 -4.69494 -4.67467 -4.68567 -4.63831 -4.57017 -4.53626 -4.57704 -4.22639 -4.40884 -4.33429 -4.36131 -4.28128 -4.2771 -4.27835 -4.25439 -4.22655 -4.30454 -4.27965 -4.35478 -4.34968 -4.26699 -4.33239 -4.37954 -4.42067 -4.32473 -4.31966 -4.09512 -4.1814 -4.42235 -4.34051 -4.45205 -4.3516 -4.30253 -4.30004 -4.30936 -4.29231 -4.29916 -4.22537 -4.11262 -4.29877 -4.45214 -4.41414 -4.37492 -4.42647 -4.33458 -4.29236 -4.30842 -4.23261 -4.48321 -2.30607 -4.4809 -4.38128 -4.41469 -4.30972 -4.46744 -4.44078 -4.36805 -4.43492 -4.37242 -4.49799 -4.46607 -4.50802 -4.49391 -4.40224 -4.45731 -4.44053 -4.44337 -4.48458 -4.39445 -4.30308 -4.33567 -4.35159 -4.41592 -4.37206 -4.36113 -4.40009 -4.41081 -4.41855 -4.41855 -4.41855 -4.41855 -4.37532 -4.37435 -4.42384 -4.3754 -4.48124 -4.37803 -4.39715 -4.36943 -4.49943 -4.49149 -4.37065 -4.44845 -4.40426 -4.49938 -4.50868 -4.5059 -4.50652 -4.46889 -4.4445 -4.5612 -4.42137 -4.29313 -4.35733 -4.35694 -4.40365 -4.40693 -4.37554 -4.37909 -4.36723 -4.41855 -4.41855 -4.41855 -4.41855 -4.39445 -4.38651 -4.43253 -4.51417 -4.17507 -4.29681 -4.36484 -4.30199 -4.2549 -4.31593 -4.29656 -4.31185 -4.31919 -4.26528 -4.35097 -4.23167 -4.24901 -4.30707 -4.31991 -4.22544 -4.33624 -4.35052 -4.25686 -4.35343 -4.29379 -4.35611 -4.30408 -4.30037 -4.32398 -4.20141 -4.26748 -4.30464 -4.30494 -4.25887 -4.35045 -4.28007 -4.31466 -4.34511 -4.34437 -4.3858 -4.34888 -4.3701 -4.33406 -4.31843 -4.24079 -4.28598 -4.37679 -4.32992 -4.37356 -4.37412 -4.3542 -4.43483 -4.41888 -4.42656 -4.32779 -4.32618 -4.28112 -4.34723 -4.34645 -4.30994 -4.31218 -4.3608 -4.40657 -4.42874 -4.44904 -4.33997 -4.34562 -4.35163 -4.35344 -4.18299 -4.35582 -4.37329 -4.34907 -4.34355 -4.3405 -4.29094 -4.32428 -4.21709 -4.23905 -4.32788 -4.38973 -4.39895 -4.36185 -4.39305 -4.36229 -4.29596 -4.27381 -4.2975 -4.38039 -4.42458 -4.32806 -4.37086 -4.33856 -4.25064 -4.32081 -4.29412 -4.44265 -4.43761 -4.44265 -4.38872 -4.34426 -4.34586 -4.30215 -4.43961 -4.44265 -4.37935 -4.38263 -4.35875 -4.41692 -4.44265 -4.3635 -4.37505 -4.2534 -4.28052 -4.37598 -4.40063 -4.3897 -4.34485 -4.29599 -4.41737 -4.28267 -4.24489 -4.2715 -4.32644
probB -0.0418718 -0.351129 -0.396114 -0.313339 -0.376341 -0.343685 -0.390176 -0.0419887 -0.0796257 -0.374737 -0.213056 -0.17952 -0.353825 -0.152964 -0.294532 -0.435181 -0.477962 -0.395415 -0.224404 -0.331543 -0.385361 -0.403671 -0.376136 -0.202847 -0.290028 -0.271609 -0.293719 -0.343888 -0.379905 -0.186525 -0.204454 -0.360751 -0.364227 -0.526803 -0.374225 -0.385352 -0.329545 -0.000177209 0.0012118 -0.348435 -0.200537 -0.223158 -0.326367 -0.190293 -0.321607 -0.452639 -0.390914 -0.333944 -0.311026 -0.331569 -0.368254 -0.252605 -0.377936 -0.257755 -0.267583 -0.20337 -0.286894 -0.319111 -0.347262 -0.23072 -0.129824 0.299059 -0.0809482 -0.0269437 -0.0531368 0.0280096 0.30099 0.339722 -0.00939523 0.0316935 0.0984132 0.0351785 0.117199 0.0441168 -0.0447321 -0.0141298 -0.0283208 0.0191876 0.0985184 -0.0607738 0.0352467 0.00702829 0.103796 0.0427631 0.0514667 0.0668374 0.0154563 -0.0025907 0.125396 0.0523034 -0.012956 -0.0300949 0.00622989 0.0963932 0.146673 0.369591 0.0449747 0.0564058 0.145187 0.0498136 0.164263 0.0624882 -0.00646153 0.00377253 0.0884209 0.0774894 0.0590991 -0.0451532 0.0390814 0.00766242 0.163311 0.123155 0.166756 0.139219 0.134765 0.0922298 0.128419 0.127057 -0.0503991 0.0506282 0.0455685 0.429835 0.48356 0.104868 0.086297 0.21305 0.0966479 0.234642 0.101327 0.0132916 -0.0108214 0.0397328 0.0641825 0.0788101 0.0891886 0.109757 0.0617155 0.190677 0.115252 0.0608867 0.147793 0.112304 0.0910122 0.196849 0.106998 0.522979 0.00487709 0.373229 0.319433 0.00965879 0.0995111 0.0785882 0.0162673 0.140693 0.0422703 -0.114215 -0.0650075 -0.0444814 0.0710283 0.0579816 0.0106792 0.0204512 0.0007158 0.0515781 0.0607172 0.0913319 0.0624594 0.0760376 0.00832323 0.734387 0.0390688 0.0756105 0.315551 0.188002 0.0995578 0.100501 0.189263 0.0618652 0.209899 0.0791513 0.0445154 0.0303314 0.0268716 0.159257 0.088292 0.0309041 0.103561 0.0554674 0.147873 0.03877 0.119066 0.123073 0.141005 0.139586 0.163005 0.121121 0.394617 0.326375 -0.00974825 0.117331 0.162954 0.0407312 0.203374 0.0270281 -0.0554054 -0.056575 -0.00271997 0.0795066 0.0838419 -0.00296172 -0.0171798 0.0795438 0.103807 0.0914166 0.116031 0.0973 0.00211307 0.0725816 0.108766 0.0725335 -0.0721402 -0.315185 -0.284005 -0.226808 -0.300022 -0.160982 -0.300546 -0.378202 -0.317155 -0.360898 -0.227021 -0.237266 -0.326987 -0.314151 -0.264936 -0.219265 -0.235473 -0.287339 -0.24017 -0.284633 -0.350962 -0.218913 -0.270755 -0.321527 -0.235539 -0.185257 -0.291778 -0.164868 -0.321205 -0.351261 -0.365963 -0.34669 -0.170232 -0.297696 -0.304962 -0.287136 -0.307069 -0.23323 -0.262413 -0.245668 -0.25269 -0.305484 -0.254942 -0.219283 -0.281958 0.0502871 0.0812998 0.0424916 0.138122 0.0989252 -0.05654 -0.0634713 -0.0183504 0.085209 0.00556071 -0.0277135 -0.116988 -0.114888 0.135411 0.0642904 0.0447867 0.0121332 -0.0356186 -0.032372 0.177445 0.000532078 0.0934625 0.0391415 0.096884 0.0268578 -0.111297 -0.0650308 -0.0861506 0.026511 0.0502981 -0.0974407 0.0399454 -0.0297417 -0.0399727 0.015184 0.0480176 0.00538295 -0.00143867 -0.0803412 -0.107357 -0.143998 -0.0887699 0.0192292 -0.0864773 -0.174342 -0.14663 -0.144245 -0.0791207 -0.0786378 -0.182672 -0.106965 -0.180387 -0.0555611 -0.0261184 -0.0653712 -0.0514545 -0.079596 -0.115655 -0.118045 -0.118446 0.0901308 4.0291e-08 -0.0882806 -0.0565439 -0.0393066 0.0292988 -0.0169624 -0.030358 0.0120496 0.0192399 0.0241011 0.0241011 0.0241011 0.0241011 -0.0182286 -0.0190891 0.0320036 -0.0125525 -0.0868193 -0.187684 -0.169717 -0.176971 -0.046604 -0.0796775 -0.181156 -0.110335 -0.105343 -0.0612999 -0.0660294 -0.0632876 -0.0638815 -0.102693 -0.118437 0.384895 -0.139719 -0.0970461 -0.0361618 -0.0342922 0.0155539 0.0146873 -0.0175432 -0.00651399 -0.0208384 0.0241011 0.0241012 0.024101 0.0241011 -7.40793e-08 -0.00781894 0.0427477 0.272769 -0.0834509 0.0232894 0.115512 0.0664931 0.0237614 0.090496 0.0508702 0.125492 0.118077 0.16249 0.0894922 0.0445098 0.0542265 0.0736888 0.118611 0.0696734 0.106524 0.077655 0.0351796 0.0711131 0.100427 0.0803379 0.132842 0.0844757 0.11475 0.0721463 0.0231415 0.0869885 0.136242 0.0406545 0.0333121 0.00630363 0.0592232 0.0321781 0.0803738 0.0516106 0.0851856 0.0652572 -0.00516258 0.0344043 0.100229 0.0617157 0.0119858 -0.0717663 -0.0199433 -0.084732 0.0226826 0.00181282 0.01723 0.0105556 -0.0180703 -0.0601167 -0.0466642 -0.0208071 -0.0215507 0.0681647 -0.0458239 0.00486002 0.0304707 0.0100273 -0.0123683 -0.017347 0.00520096 6.71116e-05 -0.0267095 0.0932512 0.0523078 0.0643255 0.0851399 0.090795 0.0911864 0.0449581 -0.0341782 0.110075 0.0255805 -0.157516 0.0427595 0.0354176 0.0472866 0.0412446 -0.0328561 0.00820291 0.00610795 0.00700205 0.0523661 0.0150514 0.102138 0.0636225 0.00895423 0.0420541 0.00192983 0.0973673 8.77647e-08 -0.00496747 -7.70974e-08 -0.0507701 -0.0355479 -0.0748097 -0.125766 -0.00302074 -8.65265e-08 -0.0597197 -0.0580697 0.0050695 -0.0208006 1.38167e-07 -0.0632683 -0.063952 -0.0726754 -0.134695 -0.0628463 -0.0408185 -0.0471333 -0.0185611 -0.00614977 0.633769 -0.0140213 -1.53701e-06 -0.0318661 0.599109
nr_sv 121 118 39 57 49 40 61 59 108 102 49 56 23 6 25 5 35 33 34 46 42 34 40 39 17 14 17 9 23 21 51 47
SV
0.7954629205707641 0 0 0 0.08603267510963251 1.661332049009581 0 0.494302372578909 0 0 0.4739461259672479 0 0 0 0 0 0 0 0 0 0 0.7583058245559784 0 0 0 0.05827655556701679 0 0 0.184999843110168 0 0.5488608534106052 1:0.52654409 2:0.63070059 3:0.49733526 4:0.32954371 5:0.45177352 6:0.51489311 7:0.50609642 8:0.6625852 9:0.55441236 10:0.39612105 11:0.66734493 12:0.65006542 13:0.65539128 14:0.65929085 15:0.71246845 16:0.45349243 17:0.59025073 18:0.37426475 19:0.49062878 20:0.54131895 21:0.68325138 22:0.42481619 23:0.48774624 24:0.22483103 25:0.45709518 26:0.39946434 27:0.90406269 28:0.56138963 29:0.20056419 30:0.30907533 31:0.50318831 32:0.37065682 33:0.34248632 34:0.43336189 35:0.72858685 36:0.41309017 37:0.5227949 38:0.42125094 39:0.49693286 40:0.62933069 41:0.60374469 42:0.51043266 43:0.37537128 44:0.54250067 45:0.61646152 46:0.46228084 47:0.37881371 48:0.71045011 49:0.40369886 50:0.45435509 51:0.28395447 52:0.64466149 53:0.89960575 54:0.44833115 55:0.62834424 56:0.58457887 57:0.50406891 58:0.34511226 59:0.6895752 60:0.78114611 61:0.42840418 62:0.69122052 63:0.29496309 64:0.60138351 
0 0 0 0 0 0 0 0 0 0 1.791132540512477 0 0 0 0 0.01899206486740989 0 0 0 0.05192603357512668 0 0 0 0 0 0 0 0 0 0 0 1:0.54786497 2:0.31213656 3:0.16946058 4:0.29641744 5:0.65370274 6:0.71250576 7:0.5518468 8:0.4307659 9:0.69408876 10:0.69757479 11:0.55361176 12:0.47626731 13:0.63766193 14:0.50851011 15:0.20135528 16:0.24096395 17:0.48153591 18:0.4163852 19:0.081270911 20:0.43559948 21:0.35726106 22:0.48851502 23:0.41428092 24:0.49548212 25:0.47898114 26:0.53034449 27:0.7269907 28:0.63009673 29:0.34040871 30:0.65148473 31:0.46931392 32:0.4295311 33:0.8351801 34:0.48647231 35:0.58266252 36:0.40354702 37:0.38326433 38:0.52575231 39:0.55480301 40:0.34201428 41:0.4430396 42:0.61106789 43:0.56739366 44:0.66285735 45:0.59274483 46:0.46858391 47:0.57075763 48:0.56706643 49:0.27259132 50:0.41095501 51:0.43753096 52:0.83406979 53:0.68371129 54:0.40389892 55:0.57876611 56:0.47875449 57:0.50108254 58:0.22851957 59:0.90476292 60:0.5743022 61:0.16006948 62:0.59045893 63:0.48494935 64:0.69668508 
0 0 0 0 0 0 0 0 0 0 0 0 0 0 0 0 0 0 0 0 0 0 0 0 0 0.7767465988799438 0 0 0 0 0 1:0.52825499 2:0.28018937 3:0.29159132 4:0.29002807 5:0.64880568 6:0.58727378 7:0.43812829 8:0.53692585 9:0.72252953 10:0.49954459 11:0.69535083 12:0.37767419 13:0.56845975 14:0.35936949 15:0.31897157 16:0.49299666 17:0.39157242 18:0.44895825 19:0.14769667 20:0.298287 21:0.41001579 22:0.34889361 23:0.41338965 24:0.3049641 25:0.4876973 26:0.44179079 27:0.61393988 28:0.5606817 29:0.34702089 30:0.67020267 31:0.49491581 32:0.21239707 33:0.80958217 34:0.51540029 35:0.58134347 36:0.4542869 37:0.55212897 38:0.53859901 39:0.80802751 40:0.40220007 41:0.35116085 42:0.47759193 43:0.61295891 44:0.52355516 45:0.47088745 46:0.42337728 47:0.48440352 48:0.66533405 49:0.37833494 50:0.34595555 51:0.37924448 52:0.66868943 53:0.80060798 54:0.30308941 55:0.58488733 56:0.54879123 57:0.36213592 58:0.26044786 59:0.75571442 60:0.56812674 61:0.25401545 62:0.63998669 63:0.36080047 64:0.58009481 
0 0 0 0 0.6139929884103685 0 0 0 0 0 0 0 0 0 0 0 0 0 0 0 0 0 0 0 0 0 0 0 0 0 0 1:0.64719009 2:0.58273804 3:0.46533898 4:0.51120764 5:0.63717848 6:0.62540412 7:0.48080632 8:0.46576411 9:0.81181228 10:0.55227447 11:0.52610523 12:0.24456692 13:0.49359328 14:0.2224191 15:0.23603606 16:0.07514254 17:0.36274296 18:0.66273725 19:0.1497408 20:0.36379465 21:0.33666983 22:0.33275601 23:0.37307182 24:0.2843852 25:0.41671753 26:0.51719499 27:0.77188534 28:0.63336539 29:0.38182196 30:0.56468147 31:0.64656842 32:0.32140931 33:0.60180098 34:0.4528746 35:0.64254743 36:0.48273146 37:0.47776005 38:0.366451 39:0.6779651 40:0.36345279 41:0.30092946 42:0.40885347 43:0.61892951 44:0.5455299 45:0.51103789 46:0.43498495 47:0.36268008 48:0.70060998 49:0.51711541 50:0.49810627 51:0.33745095 52:0.62778825 53:0.95148009 54:0.51127774 55:0.62485969 56:0.6133334 57:0.66487104 58:0.19667062 59:0.68419039 60:0.62146693 61:0.32234484 62:0.64917588 63:0.26694444 64:0.60462499 
0 1.116089908092744 0.4535491415895614 1.388440751966916 0.4477502152056035 0 1.155775792608234 0 1.050307917588025 0 0 0 0 0 0 0 0 0 0 0 0 0 0 0 0 0 0 0 0 0 0 1:0.66884345 2:0.4309451 3:0.3697651 4:0.34020522 5:0.63985229 6:0.59932894 7:0.5154413 8:0.55922943 9:0.73055428 10:0.42488787 11:0.51092082 12:0.44137317 13:0.50587261 14:0.35372323 15:0.24843581 16:0.41562057 17:0.47623172 18:0.49966466 19:0.2223542 20:0.38611323 21:0.40848395 22:0.4224577 23:0.46767151 24:0.30914748 25:0.38744825 26:0.4957805 27:0.69017732 28:0.64551538 29:0.43728793 30:0.54652464 31:0.58858848 32:0.30602109 33:0.68480599 34:0.64591306 35:0.52739847 36:0.34085071 37:0.51450193 38:0.50312102 39:0.8971107 40:0.46501118 41:0.40111616 42:0.47604269 43:0.55220199 44:0.52770388 45:0.43609902 46:0.5823245 47:0.51075882 48:0.62501478 49:0.28964689 50:0.25958437 51:0.27254856 52:0.75089431 53:0.79420662 54:0.24771936 55:0.46546695 56:0.60718334 57:0.36658397 58:0.23385562 59:0.72819895 60:0.64910215 61:0.22237159 62:0.60547704 63:0.3986499 64:0.58590239 
0 0 0 0 0 2.881695598425256 2.429851050257028 0 2.909087700150729 0 0 0 0 0 0 0 0 0 0.9720567790327896 0.5379631787589277 0 0 0.4816067665478572 0 0.6389313113687254 0 0 0 0 0 0 1:0.5733099 2:0.42080671 3:0.33907962 4:0.45225528 5:0.47910452 6:0.66017324 7:0.76506543 8:0.29977536 9:0.57898223 10:0.61891085 11:0.49734786 12:0.472359 13:0.69925696 14:0.5486989 15:0.42623106 16:0.56552738 17:0.69471169 18:0.49547049 19:0.53352028 20:0.75360107 21:0.33486876 22:0.37750068 23:0.61640352 24:0.51853275 25:0.66368783 26:0.81327146 27:0.85942739 28:0.44317421 29:0.32659388 30:0.65891981 31:0.3504025 32:0.50335139 33:0.57636344 34:0.27956402 35:0.54284918 36:0.37585264 37:0.28906783 38:0.63484412 39:0.50540429 40:0.34442252 41:0.61920017 42:0.55204391 43:0.19630407 44:0.42768338 45:0.72064394 46:0.28501689 47:0.56656969 48:0.52497214 49:0.37794065 50:0.42248651 51:0.32486483 52:0.9051761 53:0.70481211 54:0.38326284 55:0.4005819 56:0.45177668 57:0.56563097 58:0.34013993 59:0.8782506 60:0.5533787 61:0.28063074 62:0.54259276 63:0.49439007 64:0.74603873 
0 0 1.653470880004919 0 0 0 0 0 0 0 0 0 0 0 0 0 0 0 0 0 0 0.3391078166707611 0 1.185801248186276 0 0 0 0 0 0 0 1:0.82611144 2:0.48982686 3:0.59250587 4:0.41084415 5:0.50034827 6:0.37170619 7:0.71287799 8:0.36775783 9:0.66492617 10:0.39498928 11:0.3756482 12:0.44983298 13:0.40465891 14:0.52618378 15:0.65791076 16:0.56453758 17:0.63469619 18:0.46615076 19:0.58181435 20:0.66057307 21:0.35091558 22:0.45162466 23:0.49802479 24:0.45670488 25:0.46647471 26:0.68881112 27:0.72912216 28:0.45447236 29:0.46807933 30:0.47746718 31:0.49834573 32:0.53213274 33:0.43286976 34:0.26435289 35:0.50028968 36:0.41466758 37:0.53024912 38:0.54511184 39:0.72681856 40:0.41906235 41:0.53186303 42:0.49980861 43:0.18194667 44:0.35085401 45:0.60598582 46:0.2784749 47:0.54258549 48:0.45378178 49:0.4304567 50:0.38882968 51:0.23966026 52:0.76201534 53:0.89711869 54:0.19626711 55:0.40607834 56:0.55721831 57:0.47744322 58:0.29343343 59:0.72774976 60:0.58819705 61:0.31497681 62:0.6098277 63:0.44550011 64:0.62165052 
0 2.218119173589977 0 0 2.867431901664568 0 0 1.825357535459172 0 2.341244926091853 0.5329553237233557 0 1.61402534631397 0.09552598568518597 0.7699350064632217 0 0.5607673411303804 2.226218830050338 0.7282713800310567 0 0 0 0 0 0.462682414811438 0 0 0.1949597083049834 0 3.100602973327313 1.147965838521737 1:0.56873333 2:0.41625974 3:0.25858203 4:0.39206541 5:0.30884624 6:0.62254739 7:0.74158001 8:0.26437762 9:0.52728295 10:0.6146667 11:0.5062077 12:0.48115847 13:0.64484149 14:0.60930288 15:0.50127059 16:0.55245203 17:0.69314724 18:0.44632339 19:0.55231714 20:0.81949812 21:0.24110079 22:0.45532599 23:0.60846245 24:0.46550947 25:0.68158567 26:0.79250115 27:0.78691548 28:0.52204365 29:0.37703052 30:0.64420646 31:0.34770101 32:0.53018224 33:0.55786127 34:0.30124667 35:0.5797348 36:0.43302771 37:0.32379001 38:0.61839467 39:0.51278889 40:0.34724578 41:0.60195166 42:0.55564117 43:0.2334298 44:0.42803895 45:0.69478959 46:0.26668608 47:0.52675486 48:0.55407262 49:0.38326457 50:0.4009847 51:0.33058947 52:0.90107101 53:0.71033448 54:0.38875651 55:0.43755248 56:0.4110997 57:0.56137013 58:0.34798238 59:0.86506659 60:0.55503917 61:0.28513056 62:0.55154157 63:0.53529453 64:0.74360341 
2.070747387491448 0 0 0 0 0 3.393580105883856 0.9113099294986284 0 0.2474982286253853 0 0 0 0 0 0 1.925921924553851 0.2860731143268224 0 0 2.219184240755107 0 0 0.02920410293410653 0 0 0 0 0 3.868013045123456 1.505787253929657 1:0.61789566 2:0.49398473 3:0.41069815 4:0.36223742 5:0.50040329 6:0.35374895 7:0.82843202 8:0.66063792 9:0.39931032 10:0.62007749 11:0.48344225 12:0.53423887 13:0.31684527 14:0.60854632 15:0.6070112 16:0.19021995 17:0.6774466 18:0.30612656 19:0.14338095 20:0.55734134 21:0.50390005 22:0.56534064 23:0.61500984 24:0.42699647 25:0.33318356 26:0.57770371 27:0.74196488 28:0.42312917 29:0.34515989 30:0.52037621 31:0.39632326 32:0.4199768 33:0.5870263 34:0.37472826 35:0.3842915 36:0.46655941 37:0.50586361 38:0.47542089 39:0.52044952 40:0.30596244 41:0.48635516 42:0.60258085 43:0.3779825 44:0.5896256 45:0.59928799 46:0.49220249 47:0.59466058 48:0.47440863 49:0.5232715 50:0.5744049 51:0.49022567 52:0.82204121 53:0.62628502 54:0.42410108 55:0.5528543 56:0.36921427 57:0.49096277 58:0.23564497 59:0.82307976 60:0.58722246 61:0.16987181 62:0.65133476 63:0.48754096 64:0.67887837 
0 0 0 0 0 0 0 0 0 0 0 0 0 0 0 0 0 0.02139586940852713 0 0 0 0 0 0 0 0 0 0 0 0 0 1:0.54432017 2:0.56404668 3:0.60690457 4:0.38499483 5:0.50833589 6:0.38489944 7:0.66965294 8:0.71577293 9:0.45161545 10:0.49307781 11:0.74358052 12:0.34516898 13:0.21434024 14:0.55473018 15:0.80657506 16:0.38147503 17:0.69736844 18:0.3346594 19:0.22916193 20:0.38834876 21:0.44353864 22:0.37117824 23:0.58664906 24:0.33817351 25:0.26954475 26:0.4868018 27:0.65377575 28:0.50162935 29:0.16294985 30:0.55602044 31:0.47998556 32:0.21264465 33:0.59940445 34:0.42230451 35:0.40737781 36:0.56575328 37:0.62063932 38:0.5298965 39:0.6197322 40:0.37192792 41:0.48785213 42:0.4864268 43:0.39840233 44:0.53232026 45:0.56429833 46:0.31174114 47:0.49199331 48:0.61625284 49:0.54409224 50:0.51989317 51:0.47182786 52:0.58734804 53:0.70806265 54:0.2814796 55:0.61486626 56:0.43923834 57:0.31607974 58:0.30580902 59:0.65836561 60:0.60760003 61:0.14399074 62:0.65713811 63:0.32378507 64:0.61875463 
0 0 0 0 0 0 0.2703875058489129 0 0 0 0.08261601373514883 0 0 0 0 0.418833123955665 0 0 0 0 0 0 0 0 0 0.5169204906872784 0 0 0 0 0 1:0.64122313 2:0.43790624 3:0.59218729 4:0.28415674 5:0.58204657 6:0.34716523 7:0.7046392 8:0.32248399 9:0.4699192 10:0.48266602 11:0.63752657 12:0.40312973 13:0.25808567 14:0.61264789 15:0.8087942 16:0.33409524 17:0.6011501 18:0.45878768 19:0.42244586 20:0.49593371 21:0.53873616 22:0.61609024 23:0.54843271 24:0.28117129 25:0.49396813 26:0.49013481 27:0.54220206 28:0.37738746 29:0.36444628 30:0.4413892 31:0.4187851 32:0.43202585 33:0.49177051 34:0.47715306 35:0.4148176 36:0.55318737 37:0.56392366 38:0.51713103 39:0.69130409 40:0.41349453 41:0.47591388 42:0.53047425 43:0.26558024 44:0.51715785 45:0.52093565 46:0.38671374 47:0.51625156 48:0.54774237 49:0.41235161 50:0.45552331 51:0.39109564 52:0.74387407 53:0.71900988 54:0.27808177 55:0.50628662 56:0.46576834 57:0.42677653 58:0.25466511 59:0.66603655 60:0.66163957 61:0.16327173 62:0.65261644 63:0.39584169 64:0.58488429 
0 0 0 0 0 0 0 0 0 0 0 0.09629517351731558 0 0 0 0 0.8058953125901497 0 0 0 0 0.3354147685232413 0 0 0 0 0 0 2.176781727542555 0 0 1:0.6166383 2:0.50247335 3:0.53853023 4:0.44507006 5:0.33152455 6:0.50021577 7:0.54624444 8:0.17074436 9:0.54872674 10:0.4394103 11:0.53741705 12:0.32259557 13:0.46395174 14:0.3586635 15:0.61793894 16:0.31902975 17:0.62505692 18:0.57533598 19:0.57281375 20:0.59554362 21:0.36674714 22:0.28954411 23:0.36857325 24:0.29329351 25:0.52115828 26:0.5878526 27:0.72084075 28:0.38420561 29:0.39634496 30:0.37990043 31:0.6198675 32:0.38233331 33:0.47396949 34:0.26822397 35:0.74094874 36:0.52447444 37:0.49472988 38:0.50517845 39:0.49503642 40:0.41317436 41:0.47305006 42:0.45148718 43:0.24662112 44:0.38783941 45:0.55303776 46:0.14373377 47:0.40783137 48:0.57072967 49:0.59518743 50:0.52415371 51:0.31183857 52:0.60102087 53:1 54:0.45973399 55:0.48126271 56:0.50600028 57:0.66753042 58:0.31481963 59:0.6874215 60:0.62929249 61:0.38580468 62:0.63445461 63:0.27861896 64:0.6354956 
0 0 2.236108776079392 3.035682185791194 0 0 0 0 0 0 0 2.898365579528159 0 3.170432671069381 0 1.424572742757782 0 0 0.8523766361497397 0.01587811247728061 0 0 0 0 0 0 0.1943189789108053 2.237662435243895 0 0 0 1:0.61479455 2:0.47922561 3:0.39646176 4:0.37904957 5:0.49164641 6:0.34385666 7:0.84005576 8:0.65049237 9:0.428047 10:0.62150073 11:0.48831189 12:0.55205274 13:0.33363977 14:0.58308661 15:0.61954457 16:0.2145194 17:0.69931138 18:0.30352861 19:0.16818801 20:0.5408923 21:0.53409702 22:0.56444693 23:0.64370918 24:0.41488227 25:0.32881123 26:0.57248181 27:0.7418887 28:0.40351945 29:0.32747975 30:0.52505088 31:0.38939944 32:0.42612535 33:0.60110897 34:0.35136583 35:0.38481048 36:0.44999585 37:0.48961318 38:0.47134581 39:0.55267471 40:0.28958973 41:0.48797253 42:0.60905147 43:0.38013765 44:0.57876229 45:0.60629076 46:0.487268 47:0.59814608 48:0.47671273 49:0.51762819 50:0.57913715 51:0.49449655 52:0.81390572 53:0.62665367 54:0.42622942 55:0.54280043 56:0.3656944 57:0.48238251 58:0.22686745 59:0.81755489 60:0.58961022 61:0.17688969 62:0.64025033 63:0.47734046 64:0.67867184 
0 0 0.5517362804584546 0.3205447507021679 0 0.5475753964283182 0.6904952663835853 0 3.907498700267424 2.9612224915778 0.8303523817114957 1.501633127860259 0.5203044224760831 1.024646062139715 0 0 0.1987675608135088 1.767154635395642 0 0 0.05878136656985473 0 0.1402906654305554 0 0 0 0 0 0 0 0 1:0.57365876 2:0.2969566 3:0.48538554 4:0.39751011 5:0.642959 6:0.74326354 7:0.48691845 8:0.56942576 9:0.73419023 10:0.45636383 11:0.74088883 12:0.6255303 13:0.49688268 14:0.54365104 15:0.41640911 16:0.54052639 17:0.32453305 18:0.44831774 19:0.21784823 20:0.54506218 21:0.47554097 22:0.39812714 23:0.33307907 24:0.23815905 25:0.59961605 26:0.32619724 27:0.60423344 28:0.57708365 29:0.34417811 30:0.57363766 31:0.30819255 32:0.31858647 33:0.66982543 34:0.60916078 35:0.6069752 36:0.49144053 37:0.24976902 38:0.55444878 39:0.71504557 40:0.30611593 41:0.5554859 42:0.43240803 43:0.86679983 44:0.66851473 45:0.72133535 46:0.48261952 47:0.62056702 48:0.64000928 49:0.36330649 50:0.3906987 51:0.36340606 52:0.74955773 53:0.64386499 54:0.57135981 55:0.567505 56:0.58705205 57:0.53459352 58:0.27566442 59:0.85981244 60:0.53766024 61:0.31594181 62:0.57395065 63:0.30594143 64:0.72767538 
0 0 0 0 0 0 0 0 0 0 0 0 0 0 0 0 0.5879698166766928 0 0 0 0.4575921197673797 0 0 0 0 0.8049904556656935 0 0.3511776018083438 0 0 0 1:0.73812759 2:0.40779918 3:0.63072503 4:0.57490605 5:0.4973079 6:0.47484109 7:0.59550607 8:0.40741333 9:0.589082 10:0.27392474 11:0.49214721 12:0.35000822 13:0.38843518 14:0.44128895 15:0.33570173 16:0.57735896 17:0.69272768 18:0.38604236 19:0.59191805 20:0.61963576 21:0.48546597 22:0.38580751 23:0.43401819 24:0.29603356 25:0.36066571 26:0.68278664 27:0.87133878 28:0.51491421 29:0.52140862 30:0.43355903 31:0.56192434 32:0.5534513 33:0.46161097 34:0.19054276 35:0.50324494 36:0.43466967 37:0.35184857 38:0.59879643 39:0.68929631 40:0.36638853 41:0.49233884 42:0.39849323 43:0.2706638 44:0.38709897 45:0.78484344 46:0.29053643 47:0.50839102 48:0.53043562 49:0.53412724 50:0.4090471 51:0.21869171 52:0.65165931 53:0.92461091 54:0.27156013 55:0.43286082 56:0.65740335 57:0.38669774 58:0.37924984 59:0.67479831 60:0.55992007 61:0.28127879 62:0.70151281 63:0.39461407 64:0.64879638 
0.3850444308334238 0 0 0 0 0 0 0 0 0 0.1773972961946705 0.9965878756443837 0 0.9175757318540148 0 0 0 0 0 0 0 0 0 0 0 0 0 0 0 0 0 1:0.58793169 2:0.38537011 3:0.45441341 4:0.52940369 5:0.40593657 6:0.60569417 7:0.65508622 8:0.37474856 9:0.5158605 10:0.3505874 11:0.48081464 12:0.48710421 13:0.37279028 14:0.4398272 15:0.47973472 16:0.68258941 17:0.68398845 18:0.49208543 19:0.57985282 20:0.80612695 21:0.49554086 22:0.25920776 23:0.42196038 24:0.33075187 25:0.60014248 26:0.64784449 27:0.82466811 28:0.53316969 29:0.43467057 30:0.42457664 31:0.56926942 32:0.58185923 33:0.48164091 34:0.19267188 35:0.52695912 36:0.53282219 37:0.34601995 38:0.56267792 39:0.6894877 40:0.4452844 41:0.58444577 42:0.35851571 43:0.22539933 44:0.33885488 45:0.83140928 46:0.23956591 47:0.49807096 48:0.50540894 49:0.51635063 50:0.42551947 51:0.21859422 52:0.65789104 53:0.85824978 54:0.24218847 55:0.44219473 56:0.68316972 57:0.42205909 58:0.44637692 59:0.64665502 60:0.59508419 61:0.21110505 62:0.67022163 63:0.42795467 64:0.69097054 
0 0 1.274214557377751 0 0 0 0 0 0 0 0 0 0 0 0 0 0 0 0 0 0 0 0 0 0 0 0 0 0 0 0 1:0.63312256 2:0.42988101 3:0.75073671 4:0.25766924 5:0.42920232 6:0.49313629 7:0.53689927 8:0.51451457 9:0.45807764 10:0.39115977 11:0.68634772 12:0.40639979 13:0.35718912 14:0.61492652 15:0.65007466 16:0.56939739 17:0.53425342 18:0.38590485 19:0.41834861 20:0.43747669 21:0.44973224 22:0.32315859 23:0.54456145 24:0.27506131 25:0.51062655 26:0.48134348 27:0.56088352 28:0.60697514 29:0.2321616 30:0.62788868 31:0.22737071 32:0.49903065 33:0.40656671 34:0.49675119 35:0.42215598 36:0.47413114 37:0.46932006 38:0.49577132 39:0.6646508 40:0.37754506 41:0.68071169 42:0.43780535 43:0.42588606 44:0.69974005 45:0.82446462 46:0.44732171 47:0.613671 48:0.53189915 49:0.47776884 50:0.59298223 51:0.4565326 52:0.72131604 53:0.6649034 54:0.59105611 55:0.58758473 56:0.47632736 57:0.51335919 58:0.16232128 59:0.75860131 60:0.56556976 61:0.37169141 62:0.59490001 63:0.30787063 64:0.71504903 
0 0 0 0 0 0 0 0 0 0 0 0 0 0 0 0 0 0 0 0 0 0 0 0 0 0 0 0 0.3152279456113716 0 0 1:0.50748485 2:0.47354501 3:0.42707571 4:0.64764601 5:0.46963441 6:0.41838849 7:0.46643588 8:0.48986658 9:0.50331378 10:0.5329051 11:0.58945215 12:0.44428918 13:0.54798859 14:0.64125377 15:0.38792944 16:0.45619589 17:0.83644176 18:0.41322026 19:0.33419743 20:0.28175426 21:0.4785659 22:0.57711232 23:0.51345658 24:0.44660869 25:0.57227731 26:0.34786004 27:0.43455753 28:0.46376243 29:0.77252668 30:0.29167181 31:0.45749566 32:0.73561352 33:0.59155411 34:0.44904724 35:0.75389004 36:0.37072945 37:0.53224272 38:0.61413497 39:0.53129363 40:0.55138427 41:0.7232995 42:0.54890585 43:0.3857443 44:0.67132252 45:0.71431494 46:0.30360484 47:0.38648406 48:0.58389658 49:0.35849696 50:0.53462547 51:0.53853041 52:0.64067256 53:0.67261475 54:0.55099064 55:0.56951773 56:0.50726181 57:0.4859302 58:0.2763077 59:0.63054955 60:0.48431185 61:0.48420551 62:0.75150508 63:0.3742466 64:0.87013823 
0 0 0.4344648730054563 0 0 0 0 0 0 0 0 0 0 0 0 0 0 0.3245909231476738 0 0 0 0 0 0 0 0 0 0 0 0 0 1:0.53202933 2:0.50501019 3:0.44709456 4:0.57212627 5:0.48577547 6:0.46638581 7:0.47426295 8:0.42666835 9:0.5739795 10:0.48268902 11:0.52775794 12:0.51667136 13:0.52379221 14:0.69320679 15:0.43767655 16:0.56250685 17:0.69684535 18:0.36455637 19:0.29665107 20:0.32022616 21:0.42611638 22:0.50894773 23:0.54829878 24:0.43100426 25:0.62572688 26:0.36235136 27:0.35741597 28:0.64922905 29:0.71809387 30:0.25345245 31:0.4476935 32:0.72457123 33:0.70871842 34:0.59532678 35:0.64854938 36:0.38377878 37:0.56449223 38:0.59761328 39:0.45317948 40:0.56213427 41:0.71402431 42:0.53653044 43:0.4204644 44:0.63918179 45:0.64736044 46:0.30425608 47:0.35671991 48:0.53022838 49:0.36666736 50:0.5388273 51:0.56791466 52:0.66785747 53:0.61016881 54:0.58789706 55:0.55042124 56:0.47171339 57:0.5132817 58:0.28034917 59:0.71325481 60:0.50036293 61:0.50080907 62:0.72898084 63:0.36432976 64:0.89634424 
0 0 0 0 0 0 0 0 0 0 0 0 0 0 0 0 0 0 0 0 0 0 0 0 0 0.3217711055238445 0.8078672395375921 0 0 0 0 1:0.45892769 2:0.59465432 3:0.42593715 4:0.447983 5:0.50464708 6:0.66118538 7:0.35644171 8:0.63728827 9:0.57942569 10:0.44377947 11:0.5160265 12:0.49772471 13:0.47543105 14:0.65807444 15:0.31087759 16:0.41122609 17:0.50432438 18:0.37633875 19:0.69643575 20:0.46560594 21:0.36307564 22:0.53938556 23:0.64494735 24:0.36540151 25:0.64933294 26:0.40570793 27:0.44274858 28:0.4919 29:0.66187036 30:0.26009992 31:0.64423805 32:0.67475599 33:0.71712989 34:0.49388486 35:0.7484144 36:0.44755229 37:0.59290558 38:0.60986161 39:0.55982953 40:0.62947392 41:0.68890417 42:0.56887037 43:0.33696347 44:0.52375919 45:0.70717818 46:0.26342651 47:0.40093067 48:0.57484436 49:0.42007473 50:0.52987272 51:0.60340971 52:0.67548543 53:0.67530334 54:0.56574911 55:0.58864379 56:0.53554147 57:0.44929546 58:0.2473913 59:0.53845596 60:0.51402879 61:0.49757659 62:0.70294011 63:0.3312389 64:0.8246913 
0 0 0.6673250965376404 0 0 0 0 0 0.54393185042898 0 0 0 0 0 0 0 0 1.8487688258519 0 0 0 0 0 0 0 0.5875304880519369 0.5472554849559242 0 0 0 0 1:0.51486582 2:0.54447329 3:0.46582866 4:0.48581734 5:0.41307175 6:0.54015273 7:0.54277903 8:0.57925439 9:0.52195859 10:0.39290869 11:0.54476273 12:0.5073846 13:0.48722079 14:0.7068938 15:0.28903812 16:0.30185789 17:0.63095737 18:0.47897568 19:0.55820048 20:0.38359883 21:0.43619546 22:0.71228844 23:0.63921702 24:0.44600937 25:0.55298805 26:0.54252285 27:0.4634037 28:0.43546939 29:0.49838248 30:0.19337413 31:0.46158591 32:0.68877 33:0.6160208 34:0.51107645 35:0.72522885 36:0.43390933 37:0.55421567 38:0.63991553 39:0.46935841 40:0.61844391 41:0.71818137 42:0.61497355 43:0.29729289 44:0.59716266 45:0.70969594 46:0.32940486 47:0.35317579 48:0.53513277 49:0.43334427 50:0.55223066 51:0.61810333 52:0.68278337 53:0.62692076 54:0.61947882 55:0.5675509 56:0.55167633 57:0.49530977 58:0.18914284 59:0.58849549 60:0.54497951 61:0.52537328 62:0.70621258 63:0.32113123 64:0.85832846 
0 0 0 0 0 0 0 0 0 0 0 0 0 0 0 0 0 0 0 0 0 0 0 2.373994637758401 0 0 0 0 0 0 0 1:0.5375362 2:0.57206702 3:0.48515019 4:0.46996227 5:0.25595257 6:0.30627975 7:0.47853994 8:0.37947524 9:0.51759124 10:0.37548998 11:0.59962642 12:0.59251243 13:0.40113625 14:0.68477321 15:0.36114165 16:0.47921154 17:0.66417748 18:0.49231622 19:0.26727313 20:0.41500649 21:0.32493725 22:0.57919043 23:0.53557408 24:0.53342807 25:0.44170013 26:0.56623483 27:0.42551512 28:0.58410805 29:0.73157352 30:0.26657087 31:0.38341486 32:0.60864741 33:0.60342509 34:0.47547933 35:0.6125288 36:0.38716415 37:0.69043738 38:0.60684341 39:0.4028371 40:0.60364121 41:0.70680994 42:0.60760939 43:0.14905091 44:0.60405898 45:0.66303051 46:0.45484999 47:0.40861356 48:0.54629165 49:0.45277864 50:0.49308127 51:0.55008519 52:0.68690878 53:0.57056564 54:0.49808174 55:0.5651769 56:0.55635959 57:0.4971334 58:0.25710508 59:0.58827674 60:0.50130641 61:0.50360328 62:0.78418714 63:0.39535183 64:0.90359396 
1.191440065602947 1.205615787308911 0 0 0 0 0 0 0.2797348842085357 0 0 0 0 0 0 0 0 0 0 0 2.257701176685619 0.09548825005723288 0 0 0 0 0 0 0.0007010197323734876 0 0 1:0.45760739 2:0.55119538 3:0.43317717 4:0.59159088 5:0.20387593 6:0.28927472 7:0.39427543 8:0.49284455 9:0.53310645 10:0.39916027 11:0.5863626 12:0.54977292 13:0.49130166 14:0.74435478 15:0.38353831 16:0.45672706 17:0.6439575 18:0.5585171 19:0.42318398 20:0.37926072 21:0.40819821 22:0.66359699 23:0.52842301 24:0.56037945 25:0.50887156 26:0.49099103 27:0.43675882 28:0.6702404 29:0.69059312 30:0.2990686 31:0.40071297 32:0.68102115 33:0.56360418 34:0.45378584 35:0.68814981 36:0.34489521 37:0.66907382 38:0.62847883 39:0.50198871 40:0.62012714 41:0.65907663 42:0.61018813 43:0.26690426 44:0.58228809 45:0.65661627 46:0.36022571 47:0.34716421 48:0.49944746 49:0.41112834 50:0.47966874 51:0.6137923 52:0.66710556 53:0.61704856 54:0.5278188 55:0.58302575 56:0.5594728 57:0.49041685 58:0.20574804 59:0.58042413 60:0.451572 61:0.51604116 62:0.75799793 63:0.3627784 64:0.87541455 
0 0 0 0 0 0 0 0 0 0 0 0 0 0 0 0 0 0 0 0 0 0 1.243811535847527 0 0 0 0 0 0 0 0 1:0.44659686 2:0.53918839 3:0.31558219 4:0.58825886 5:0.35303414 6:0.43574142 7:0.35954556 8:0.39570749 9:0.54114288 10:0.4300561 11:0.54973102 12:0.56746835 13:0.45735857 14:0.64541745 15:0.30789232 16:0.40873504 17:0.60149598 18:0.57658404 19:0.53156519 20:0.47565654 21:0.39932296 22:0.62215763 23:0.58113652 24:0.51564717 25:0.57643479 26:0.38297683 27:0.34647724 28:0.6065166 29:0.65337199 30:0.28455448 31:0.57645166 32:0.69603056 33:0.6556434 34:0.53613961 35:0.70403904 36:0.38959432 37:0.61917913 38:0.56758475 39:0.54894239 40:0.62727994 41:0.67938429 42:0.56563902 43:0.31790006 44:0.56399512 45:0.68684214 46:0.36367565 47:0.40624404 48:0.5120998 49:0.36399531 50:0.48875347 51:0.61600602 52:0.69226575 53:0.5988571 54:0.54223853 55:0.59023696 56:0.5708645 57:0.46928313 58:0.16236499 59:0.55121535 60:0.48548305 61:0.46987265 62:0.71790445 63:0.36736575 64:0.87064725 
0 0 0 0 0 0 0 0 0 0 0 0 0 0 0 0 0 0 0 0 0 1.590010172007956 0 0 0 0 0 0 0 0 0 1:0.45739278 2:0.45537165 3:0.39508399 4:0.43518761 5:0.35554248 6:0.33176115 7:0.38907805 8:0.5582217 9:0.53884149 10:0.46017736 11:0.57574207 12:0.64140677 13:0.48474851 14:0.53152341 15:0.32252762 16:0.51323307 17:0.57513201 18:0.39168811 19:0.33152106 20:0.4154506 21:0.25778946 22:0.46885979 23:0.59086591 24:0.38686928 25:0.45281702 26:0.42884079 27:0.5046671 28:0.78065205 29:0.64047015 30:0.34662241 31:0.51754338 32:0.66447818 33:0.72129565 34:0.6365689 35:0.60959822 36:0.5204922 37:0.62849063 38:0.60409254 39:0.51174986 40:0.54841894 41:0.6372661 42:0.63993239 43:0.37643284 44:0.56111068 45:0.62830901 46:0.23684157 47:0.36701033 48:0.56303185 49:0.41356075 50:0.52664196 51:0.59227055 52:0.69543856 53:0.52247411 54:0.59346044 55:0.56395495 56:0.50230324 57:0.51978374 58:0.20842308 59:0.68020308 60:0.48445266 61:0.50319874 62:0.75008464 63:0.33436239 64:0.90342468 
0 0 0 0 0 0 0 0 0 0 0 1.050708405918988 0 0.6433818544129331 0 0 0 0 0 0 0 0.6955108142265113 0 0 0 0 0 0 0 0 0 1:0.35372469 2:0.73088038 3:0.77043158 4:0.52980453 5:0.32820898 6:0.45975211 7:0.41417593 8:0.59565002 9:0.49548012 10:0.46200785 11:0.58812106 12:0.5778563 13:0.38689247 14:0.56474996 15:0.40784585 16:0.4833056 17:0.45822078 18:0.41965288 19:0.44353658 20:0.6084069 21:0.44507033 22:0.64621437 23:0.54434311 24:0.38097948 25:0.34413919 26:0.4975175 27:0.39925203 28:0.35275438 29:0.87173831 30:0.32915604 31:0.48401928 32:0.71031189 33:0.63498896 34:0.56773609 35:0.74420118 36:0.52110565 37:0.64232528 38:0.58349484 39:0.53251868 40:0.64976639 41:0.58984268 42:0.61565989 43:0.26643097 44:0.55281085 45:0.63068724 46:0.39478934 47:0.33660173 48:0.52268046 49:0.45777178 50:0.51805723 51:0.54675776 52:0.64676559 53:0.60429657 54:0.39082435 55:0.50414091 56:0.70348841 57:0.32652205 58:0.30817237 59:0.38043359 60:0.5027318 61:0.35500801 62:0.8405785 63:0.35804045 64:0.83056688 
0 0 0 0 0 0 0 0 0 0 0 0 0 0 0 0 0 0 0 0 0 0 0 0 0 0.00244883097831237 0 0 0 0 0 1:0.30742174 2:0.40515453 3:0.47086614 4:0.34388727 5:0.59380543 6:0.54329216 7:0.37459213 8:0.72222972 9:0.5413847 10:0.4594532 11:0.47967646 12:0.5928579 13:0.4678244 14:0.48760474 15:0.39728287 16:0.49741116 17:0.5833146 18:0.31924781 19:0.35656732 20:0.40855721 21:0.31178093 22:0.34679538 23:0.59534621 24:0.43235782 25:0.45884016 26:0.58374774 27:0.45161021 28:0.69791126 29:0.52252722 30:0.20486349 31:0.46186301 32:0.71285665 33:0.65169412 34:0.6180234 35:0.68657768 36:0.44971237 37:0.64863861 38:0.55658078 39:0.42259437 40:0.5787546 41:0.72147101 42:0.63359445 43:0.27862871 44:0.54494524 45:0.66126257 46:0.36822745 47:0.44665989 48:0.50625831 49:0.39409363 50:0.55196512 51:0.57400382 52:0.74072117 53:0.55604309 54:0.63181597 55:0.55981493 56:0.51955104 57:0.55688304 58:0.22094601 59:0.68763429 60:0.5657118 61:0.54111928 62:0.68817085 63:0.29432008 64:0.88254797 
0 0 0 0 0.1074672282430968 0 0 0 0 0 0 0 0 0 0 0 0 0 0 0 0 0 0 0 0 0 0 0 0 0 0 1:0.48449072 2:0.32582536 3:0.36622751 4:0.59075612 5:0.47683239 6:0.6226936 7:0.28650331 8:0.5151754 9:0.51788509 10:0.44827166 11:0.56532419 12:0.39162961 13:0.43725777 14:0.55786371 15:0.44220471 16:0.23608637 17:0.79170996 18:0.24908389 19:0.49833778 20:0.34132028 21:0.41008493 22:0.65523976 23:0.59775275 24:0.44835845 25:0.50605857 26:0.4050346 27:0.3559635 28:0.58526701 29:0.68796515 30:0.31767389 31:0.55413234 32:0.59156626 33:0.53909826 34:0.6311028 35:0.62309873 36:0.44036663 37:0.76531225 38:0.63359797 39:0.61778867 40:0.54286426 41:0.7189213 42:0.55386204 43:0.4209519 44:0.59246725 45:0.67445356 46:0.26202562 47:0.35824531 48:0.57518786 49:0.37759492 50:0.48116088 51:0.61131942 52:0.66528302 53:0.65784305 54:0.52324247 55:0.60794699 56:0.52268237 57:0.45160195 58:0.21709526 59:0.60831088 60:0.48864236 61:0.51499939 62:0.7006014 63:0.33398229 64:0.86429656 
0 0 0 0 0 0 0 0 0 0 0 0 0 0 0 0 0 0 0 0 0 0 0 0 0.4819832462510322 0 0 0 0 0 0 1:0.44223008 2:0.37237367 3:0.33773342 4:0.59797215 5:0.48583007 6:0.62812293 7:0.28871715 8:0.48960686 9:0.55768788 10:0.46909958 11:0.59121138 12:0.38095862 13:0.44457027 14:0.57664561 15:0.45975944 16:0.26271212 17:0.80310035 18:0.25949782 19:0.48866838 20:0.3535341 21:0.45134544 22:0.64956921 23:0.58565909 24:0.454739 25:0.50078285 26:0.39410016 27:0.36501157 28:0.58953899 29:0.67091233 30:0.32121149 31:0.55792356 32:0.59706312 33:0.53187245 34:0.62243325 35:0.63894564 36:0.43882602 37:0.74154061 38:0.65144938 39:0.61745983 40:0.55911565 41:0.71892595 42:0.54785734 43:0.43127197 44:0.59556901 45:0.68908125 46:0.2619358 47:0.35813978 48:0.57510066 49:0.37396371 50:0.48238021 51:0.59953624 52:0.67126697 53:0.64602631 54:0.52718467 55:0.60634381 56:0.53408301 57:0.45437714 58:0.2204535 59:0.60806674 60:0.47112566 61:0.52118266 62:0.70464474 63:0.33556196 64:0.86415523 
0 0 0 0 1.666632058791356 0.07355599555861995 0 2.031111019910943 0.1749429934903935 0 0 0 0 0.7341356935057887 0 0 0 0 0 0 0 0 0 0 0 0 0 1.514716798042336 0 2.602739027319092 0 1:0.42158189 2:0.38985392 3:0.57740545 4:0.43176496 5:0.41410607 6:0.54550356 7:0.22067395 8:0.58977985 9:0.579593 10:0.40169078 11:0.65744251 12:0.46756592 13:0.38231489 14:0.6114834 15:0.59540206 16:0.44617882 17:0.65042871 18:0.3875536 19:0.43580118 20:0.43971819 21:0.39590648 22:0.57139653 23:0.58434337 24:0.35745293 25:0.41570929 26:0.41933 27:0.46801195 28:0.59511369 29:0.58883655 30:0.25522426 31:0.49233961 32:0.72833943 33:0.63437927 34:0.63242161 35:0.64723641 36:0.34708393 37:0.5832575 38:0.59640872 39:0.63609934 40:0.4645316 41:0.66770673 42:0.49750414 43:0.49272975 44:0.61825538 45:0.64315307 46:0.29006982 47:0.35629958 48:0.54622602 49:0.41618484 50:0.52531004 51:0.54268366 52:0.66101718 53:0.61951077 54:0.5899508 55:0.58573622 56:0.46211186 57:0.50080186 58:0.28548646 59:0.67080462 60:0.48934305 61:0.56803262 62:0.69949251 63:0.33053532 64:0.87754661 
0 0 0 0 0 1.839707675152881 0 0 0 0 0.2312213860093542 0 0 0 0 0 0 0 1.199403710605133 0 0 0 0 0 0 0 0 0 0 0 0 1:0.56252348 2:0.67856807 3:0.49204385 4:0.63903379 5:0.50115246 6:0.45110169 7:0.59987903 8:0.52043235 9:0.56932575 10:0.4663395 11:0.56559324 12:0.62283641 13:0.47663599 14:0.60780531 15:0.43709308 16:0.3679035 17:0.56713516 18:0.53460628 19:0.44901127 20:0.25197431 21:0.49767324 22:0.63493693 23:0.60956919 24:0.42151207 25:0.50529742 26:0.41112795 27:0.53900903 28:0.45440173 29:0.66978395 30:0.17187373 31:0.40977949 32:0.73879164 33:0.48355773 34:0.48062372 35:0.74831939 36:0.42420459 37:0.52147245 38:0.65242034 39:0.53266239 40:0.56232625 41:0.63957661 42:0.56229246 43:0.34736359 44:0.6547752 45:0.61830097 46:0.25375727 47:0.28237206 48:0.56817174 49:0.44747993 50:0.59794521 51:0.56304145 52:0.57188255 53:0.76863039 54:0.54481351 55:0.5340367 56:0.5720315 57:0.48864871 58:0.30748671 59:0.55489552 60:0.54219687 61:0.52508366 62:0.80488843 63:0.30704653 64:0.8699832 
0 0 0 0 0 0 0 0 0 0 0 0 0 0 0 0 0 0 0 0 0 0 0 0 0.4056561514040984 0 0 0 0 0 0 1:0.45089826 2:0.59392947 3:0.40304536 4:0.53353328 5:0.40158108 6:0.3471252 7:0.49931049 8:0.48908329 9:0.57869124 10:0.35110196 11:0.52433801 12:0.52973688 13:0.5316661 14:0.66750884 15:0.40547836 16:0.51724887 17:0.45572951 18:0.48158744 19:0.46062899 20:0.41892913 21:0.33699915 22:0.5566178 23:0.61726505 24:0.45964232 25:0.65654129 26:0.53064722 27:0.35688511 28:0.68931085 29:0.62502384 30:0.37496156 31:0.43345672 32:0.68361837 33:0.63026899 34:0.56731904 35:0.72630841 36:0.41710526 37:0.74652117 38:0.64744234 39:0.49314606 40:0.64476365 41:0.70682764 42:0.61320651 43:0.31246606 44:0.55441272 45:0.69423044 46:0.414123 47:0.36584175 48:0.56293714 49:0.41643536 50:0.4869228 51:0.58460987 52:0.68829578 53:0.5664891 54:0.60032922 55:0.55859137 56:0.55474234 57:0.54681784 58:0.15050878 59:0.62618732 60:0.50396287 61:0.51730913 62:0.73576826 63:0.3846212 64:0.9053098 
0 0 0 0 0.3246800792821621 0.2223370202354916 0 0 0 0 0 0 0 0 0 0 0 0 0 0 0 0 0 0 0 0 0 0 0 0 0 1:0.57519603 2:0.60120064 3:0.51883245 4:0.55738819 5:0.39998761 6:0.27438214 7:0.49745646 8:0.42431504 9:0.54730415 10:0.37003133 11:0.56603193 12:0.61093467 13:0.33998653 14:0.58090544 15:0.3337135 16:0.41434839 17:0.71732104 18:0.49904311 19:0.32686728 20:0.42372456 21:0.25928646 22:0.69876915 23:0.62786585 24:0.57296586 25:0.50064301 26:0.50930405 27:0.40706021 28:0.51110405 29:0.77377635 30:0.31687015 31:0.33942196 32:0.65431005 33:0.62237233 34:0.48789454 35:0.62851107 36:0.42569348 37:0.67126167 38:0.7010482 39:0.48225814 40:0.57034785 41:0.70034081 42:0.64168924 43:0.21244301 44:0.63379687 45:0.61595619 46:0.40093288 47:0.38824558 48:0.54286623 49:0.43390879 50:0.47029954 51:0.57988286 52:0.73303568 53:0.58831942 54:0.47872809 55:0.52063519 56:0.54058981 57:0.46649534 58:0.27725053 59:0.63685578 60:0.47411436 61:0.4390313 62:0.74161476 63:0.38144711 64:0.86864734 
0 0 0 2.013107951354307 0 0 0 0 0 0 0 0 0 0 0 0 0 0 0 0 0 0 0 0 0 0 0 0 0 0 0 1:0.57420391 2:0.57112867 3:0.49124143 4:0.5111568 5:0.38917062 6:0.36357459 7:0.42126542 8:0.40829089 9:0.55727971 10:0.40216917 11:0.51129824 12:0.52861798 13:0.47482902 14:0.70720559 15:0.4167136 16:0.49614242 17:0.62935579 18:0.46028575 19:0.31047457 20:0.45306602 21:0.34647346 22:0.63574916 23:0.53544456 24:0.4629738 25:0.63635182 26:0.51957101 27:0.40359184 28:0.63387191 29:0.6509012 30:0.39782014 31:0.46992999 32:0.69565368 33:0.66845447 34:0.49309316 35:0.73666155 36:0.38077104 37:0.72848904 38:0.63848424 39:0.51088756 40:0.63795561 41:0.73507196 42:0.63203084 43:0.33425722 44:0.59817141 45:0.67762583 46:0.46705708 47:0.37874207 48:0.57179248 49:0.41199034 50:0.51045316 51:0.58675367 52:0.74092668 53:0.61661464 54:0.57967454 55:0.53355205 56:0.49266952 57:0.55944031 58:0.19294076 59:0.64753067 60:0.50060236 61:0.5114553 62:0.73147017 63:0.42207295 64:0.91442609 
0 0 0 0 0.8185878066128905 0 0 0 0 0 0 0 0 0 0 0 0 0 0 0 0 0 0 0 0 0 0 0 0 0 0 1:0.34236762 2:0.6036576 3:0.52137601 4:0.47625464 5:0.45746803 6:0.48870599 7:0.42426229 8:0.71729869 9:0.59998196 10:0.59943801 11:0.44371259 12:0.59651589 13:0.47353542 14:0.45143497 15:0.23331216 16:0.47013426 17:0.79530931 18:0.35349658 19:0.49723846 20:0.28047442 21:0.50587499 22:0.50275016 23:0.62483793 24:0.40985626 25:0.58421195 26:0.41243631 27:0.56355357 28:0.67060101 29:0.66763985 30:0.34619677 31:0.61761385 32:0.61595351 33:0.61154246 34:0.54936516 35:0.59819663 36:0.47665566 37:0.60862744 38:0.61772478 39:0.59230471 40:0.5341512 41:0.68852335 42:0.65250647 43:0.27541366 44:0.56962043 45:0.72888654 46:0.29436758 47:0.36861435 48:0.54816031 49:0.28876469 50:0.49889368 51:0.55267859 52:0.69635594 53:0.64762318 54:0.47326955 55:0.56121045 56:0.50849867 57:0.48400536 58:0.26758134 59:0.64321899 60:0.50676602 61:0.40911683 62:0.71787971 63:0.33594066 64:0.82088339 
0 0 0 0 0 0 0 0 0 0 0 0 0 0 0 0 0 0.1738353962331529 0 0 0 0 0 0 0 0 0 0 0 0 0.8079717970039817 1:0.64354074 2:0.55355656 3:0.7115944 4:0.43409708 5:0.46495825 6:0.37477326 7:0.48682839 8:0.45065984 9:0.59588385 10:0.41492072 11:0.63629508 12:0.52655703 13:0.39061141 14:0.65643859 15:0.41824833 16:0.47863439 17:0.75640285 18:0.42333832 19:0.35782573 20:0.49271846 21:0.2850008 22:0.68941134 23:0.54975086 24:0.47225463 25:0.34016925 26:0.58703268 27:0.41108888 28:0.47048098 29:0.72530085 30:0.22178683 31:0.32617903 32:0.62008113 33:0.62942106 34:0.46368545 35:0.65729952 36:0.47546247 37:0.6210143 38:0.6587702 39:0.38198832 40:0.49073026 41:0.7299158 42:0.66338646 43:0.20450212 44:0.63006473 45:0.71309149 46:0.44860983 47:0.36446595 48:0.55388039 49:0.46057862 50:0.49373147 51:0.53262711 52:0.73811287 53:0.55780005 54:0.46931547 55:0.51268786 56:0.55485052 57:0.47625154 58:0.26446798 59:0.67198092 60:0.52244169 61:0.40370381 62:0.72954983 63:0.37206897 64:0.85405922 
0.1469817552748839 0 0 0 0 0 0 0 0 0 0 0 0 0 0 0 0 0 0 0 0 0 0 0 0 0 0 0 0 0 0 1:0.50973123 2:0.53111923 3:0.56136417 4:0.45031711 5:0.58071172 6:0.43438694 7:0.51816958 8:0.6636759 9:0.60658354 10:0.53803158 11:0.49503815 12:0.44695842 13:0.44606209 14:0.48529321 15:0.45304263 16:0.43569463 17:0.70476747 18:0.24734785 19:0.2895599 20:0.46147403 21:0.4098646 22:0.62817681 23:0.61208504 24:0.34337163 25:0.52605575 26:0.54964894 27:0.52990133 28:0.49891788 29:0.80457044 30:0.40324321 31:0.59853488 32:0.55273664 33:0.76629174 34:0.48424163 35:0.44094566 36:0.59097242 37:0.61468863 38:0.56519455 39:0.48471165 40:0.4840706 41:0.75766194 42:0.63785261 43:0.2267548 44:0.57654393 45:0.58637041 46:0.24004944 47:0.33330515 48:0.50291717 49:0.3707085 50:0.50958413 51:0.50966465 52:0.69690979 53:0.53666496 54:0.37272713 55:0.48391744 56:0.45936769 57:0.45032653 58:0.33663806 59:0.75999278 60:0.54446143 61:0.26455855 62:0.72638404 63:0.4484258 64:0.8287515 
0 0 0 0 0 0 0 0 0 0 0 0 0 0 0 0 0 0 0.4258831295437212 0 0 0 0 0 0 0 0 0 0 0 0 1:0.51794773 2:0.63876498 3:0.41488934 4:0.45247307 5:0.38238245 6:0.29167452 7:0.46325517 8:0.3622807 9:0.5864979 10:0.39140776 11:0.5053615 12:0.6206252 13:0.42514887 14:0.74489826 15:0.47685963 16:0.57840586 17:0.58515614 18:0.44739497 19:0.32211027 20:0.42946538 21:0.29451564 22:0.57389492 23:0.59004188 24:0.5027113 25:0.61499935 26:0.52910405 27:0.28238875 28:0.65832657 29:0.75842971 30:0.32104793 31:0.40283534 32:0.68385541 33:0.66728431 34:0.57557213 35:0.74419224 36:0.4111453 37:0.70417911 38:0.61416471 39:0.48185495 40:0.66910815 41:0.69393331 42:0.60694903 43:0.27463233 44:0.58102769 45:0.6566503 46:0.44336376 47:0.37861466 48:0.5582841 49:0.42011485 50:0.45377117 51:0.60214686 52:0.67878503 53:0.56632257 54:0.54079401 55:0.5277583 56:0.57277495 57:0.48906079 58:0.21283463 59:0.57369751 60:0.49614587 61:0.49307728 62:0.76154029 63:0.41519648 64:0.91993004 
0 0 0 0 0 0 0 0 0 0 0 0 0 0 0 0 0 0 0 0 0 0.2576279213455522 0.343303050821181 0 0 0 0 0 0 0 0 1:0.45144102 2:0.60170722 3:0.41023618 4:0.44092667 5:0.41063723 6:0.3671366 7:0.44378757 8:0.40516734 9:0.49876261 10:0.39686665 11:0.50249261 12:0.51948845 13:0.37293336 14:0.60702652 15:0.39775908 16:0.47277969 17:0.47611773 18:0.47883013 19:0.39235967 20:0.50601906 21:0.38890985 22:0.56128311 23:0.52065033 24:0.47193104 25:0.65578407 26:0.48714072 27:0.34396803 28:0.58943421 29:0.68727332 30:0.36840403 31:0.51746881 32:0.75344706 33:0.69466025 34:0.51834595 35:0.76268214 36:0.45135662 37:0.72089028 38:0.59380949 39:0.51735932 40:0.63235044 41:0.70231324 42:0.59100115 43:0.30701819 44:0.5189926 45:0.67956817 46:0.40704712 47:0.42339027 48:0.49965402 49:0.45958963 50:0.48927906 51:0.5778054 52:0.64366508 53:0.57916409 54:0.57305962 55:0.53910905 56:0.58462 57:0.54260755 58:0.14229251 59:0.56920278 60:0.50459635 61:0.49683306 62:0.73258847 63:0.37727383 64:0.8853361 
0 0 0 0 0 0 0 0 0 0 0 0 0 0 0 0 0 0 0 0 0 0 0 0 1.494598942303315 0 0 0 0.7992616176903329 0 0 1:0.61674064 2:0.45391688 3:0.32618514 4:0.50181717 5:0.38904133 6:0.45392218 7:0.55037981 8:0.48457277 9:0.49840879 10:0.3394683 11:0.57503957 12:0.46743765 13:0.51788986 14:0.70460403 15:0.26825148 16:0.3900227 17:0.63061434 18:0.49146241 19:0.48475486 20:0.46273085 21:0.40916231 22:0.67576474 23:0.56260604 24:0.49559057 25:0.60780048 26:0.53973669 27:0.48298305 28:0.55901933 29:0.64984661 30:0.38677257 31:0.41110876 32:0.65554929 33:0.70903695 34:0.41754535 35:0.71850353 36:0.44550264 37:0.7453627 38:0.64314735 39:0.56585902 40:0.56710476 41:0.6789332 42:0.5973677 43:0.26721728 44:0.54063815 45:0.65241379 46:0.37394014 47:0.40291777 48:0.56379682 49:0.47977424 50:0.50721371 51:0.60878181 52:0.72307354 53:0.61377674 54:0.52757752 55:0.56563717 56:0.51058608 57:0.49410564 58:0.24291584 59:0.68437344 60:0.46573088 61:0.4264124 62:0.70408005 63:0.38894618 64:0.84336257 
0 0 0 0 0.1573102776113151 0.2073366613943649 0 0 0 0 0 0 0 0 0 0 0 0 0 0 0 0 0 0 0 0.8768151427658974 0 0 0 0 0 1:0.36781555 2:0.5148024 3:0.66114026 4:0.60608345 5:0.49707469 6:0.62804633 7:0.45978513 8:0.66431642 9:0.61747062 10:0.30804071 11:0.66285044 12:0.42445159 13:0.47658914 14:0.65964746 15:0.37943417 16:0.44565731 17:0.69158649 18:0.31525505 19:0.58422071 20:0.41604283 21:0.37558687 22:0.52956164 23:0.55698669 24:0.45351824 25:0.45439929 26:0.52594715 27:0.43556008 28:0.53517854 29:0.62332326 30:0.19027618 31:0.55894178 32:0.70511568 33:0.55552346 34:0.64518088 35:0.70361269 36:0.37376931 37:0.52752626 38:0.62637073 39:0.65911919 40:0.53170913 41:0.63520664 42:0.60170525 43:0.35015523 44:0.62942171 45:0.54957497 46:0.2718316 47:0.36440828 48:0.56440991 49:0.37723657 50:0.43885404 51:0.5905962 52:0.69938701 53:0.71022326 54:0.50234652 55:0.54835933 56:0.45953065 57:0.48854023 58:0.25328925 59:0.67568272 60:0.50343293 61:0.48658189 62:0.64661437 63:0.31280166 64:0.82267427 
0 0 0 0 0 0 0 0 0 0 0 0 0.009832297917962732 0 0 0 0.3583881678402838 0 0 0 0 0 0 0 0 0 0.124543602498328 0 0 0 0 1:0.49875274 2:0.55999511 3:0.62857991 4:0.45650256 5:0.59133577 6:0.36083722 7:0.49793425 8:0.58259684 9:0.54703224 10:0.48029536 11:0.55395216 12:0.52171165 13:0.27115437 14:0.50224054 15:0.37710115 16:0.50592583 17:0.67886716 18:0.21949725 19:0.41231635 20:0.40155539 21:0.50009918 22:0.61376828 23:0.64034945 24:0.31001025 25:0.55689305 26:0.42428416 27:0.5707978 28:0.43411094 29:0.82117921 30:0.28348669 31:0.61051017 32:0.71645117 33:0.68845475 34:0.49472803 35:0.40645036 36:0.4126415 37:0.62868369 38:0.54545629 39:0.61614197 40:0.51057529 41:0.71990997 42:0.64293557 43:0.23429815 44:0.55195636 45:0.58058977 46:0.30665031 47:0.36769524 48:0.48517346 49:0.39685589 50:0.45401177 51:0.43278629 52:0.64074725 53:0.62860399 54:0.35007954 55:0.47848743 56:0.49348146 57:0.43209639 58:0.26583719 59:0.71632379 60:0.54001749 61:0.26229334 62:0.68158466 63:0.46254852 64:0.78500628 
0 0 0 0 0 0 0 0 0 0 0 0 0 0 0 0 0 1.186560372625381 0 0 0 0 2.233129047439794 0 0 0 0 0 0 0 0 1:0.45824593 2:0.56433392 3:0.49527377 4:0.40384993 5:0.38880593 6:0.48910856 7:0.43688026 8:0.49367276 9:0.60650605 10:0.57079494 11:0.52553004 12:0.43293911 13:0.31603605 14:0.4471156 15:0.56437242 16:0.45915344 17:0.63809592 18:0.30488649 19:0.34032452 20:0.40010202 21:0.43578821 22:0.5645802 23:0.53167385 24:0.22441913 25:0.57924104 26:0.56504476 27:0.57958889 28:0.59615374 29:0.78299063 30:0.34337083 31:0.66533375 32:0.61148733 33:0.63779283 34:0.44288379 35:0.41021213 36:0.48648754 37:0.75892198 38:0.48357663 39:0.53283328 40:0.57629126 41:0.68611073 42:0.63944286 43:0.2629905 44:0.47141644 45:0.58093917 46:0.33328021 47:0.31830823 48:0.42628261 49:0.39412975 50:0.46686941 51:0.37659332 52:0.68763089 53:0.63761997 54:0.30194262 55:0.48164976 56:0.46935803 57:0.46087357 58:0.24852936 59:0.63509858 60:0.60531116 61:0.27064037 62:0.74403924 63:0.49921098 64:0.83003867 
0.7222641818827452 0 0 0.860485439879056 0 0 0 0 0 0 0 0.9798931858199768 0.5740538443499079 0 0 0 0 0 0.1766918429728432 0 0 0 0.4542265058029434 0 0.7420770182531772 0 0 0 0 0 0 1:0.42310742 2:0.50756109 3:0.56894934 4:0.58464038 5:0.3626852 6:0.43950737 7:0.48254684 8:0.7607373 9:0.72291297 10:0.50862795 11:0.6295405 12:0.53446382 13:0.58780783 14:0.46881625 15:0.40132353 16:0.33051908 17:0.51342678 18:0.22748917 19:0.47349688 20:0.19361542 21:0.55019873 22:0.46488696 23:0.51697403 24:0.29910579 25:0.32467836 26:0.5893392 27:0.61523199 28:0.84372336 29:0.55105048 30:0.37996083 31:0.52245694 32:0.63666952 33:0.53467643 34:0.3047491 35:0.5332092 36:0.42917547 37:0.63525975 38:0.55792481 39:0.70965809 40:0.57049781 41:0.694098 42:0.60360551 43:0.3438755 44:0.40811187 45:0.63655525 46:0.29096776 47:0.28465021 48:0.4370665 49:0.35974121 50:0.48177707 51:0.50887817 52:0.66442192 53:0.72456819 54:0.50420344 55:0.50571895 56:0.52650768 57:0.60313314 58:0.30910113 59:0.62181503 60:0.57644361 61:0.41581139 62:0.74065566 63:0.36901727 64:0.85312009 
1.325282159073065 1.205129317189796 0.6434384006004149 0 0 1.303831579273727 3.077202464428317 1.324270071968417 1.717632862995065 0.1728764945496268 0 1.708190768577469 1.47468272788731 1.255104009971039 1.182631392619453 2.104873597942656 0 0.4865830315066089 1.230783947337603 0.7772047718373181 1.023581775758732 0 0 0 1.898803310755691 0 1.914151520429937 0 0.5141179501367898 0 0 1:0.60997134 2:0.51250386 3:0.52479851 4:0.34296486 5:0.39318165 6:0.35174447 7:0.29313442 8:0.47423324 9:0.41104096 10:0.35041648 11:0.5391382 12:0.5624814 13:0.24383374 14:0.52815151 15:0.60920203 16:0.57177037 17:0.37554553 18:0.29761612 19:0.28818253 20:0.63696104 21:0.19567013 22:0.56344658 23:0.72349918 24:0.49634513 25:0.46205375 26:0.56783962 27:0.40132344 28:0.63960755 29:0.71182668 30:0.50004673 31:0.49684489 32:0.52778518 33:0.84198123 34:0.51217288 35:0.31107643 36:0.50692004 37:0.93299192 38:0.57879627 39:0.48587465 40:0.55035555 41:0.7838015 42:0.55243641 43:0.29625735 44:0.50293976 45:0.64189321 46:0.40233758 47:0.40791422 48:0.54546291 49:0.5442304 50:0.51228863 51:0.5932979 52:0.74526751 53:0.39733756 54:0.40619093 55:0.54392028 56:0.39597255 57:0.4396137 58:0.27725124 59:0.6214425 60:0.47703984 61:0.33550197 62:0.72374523 63:0.48138389 64:0.82887638 
0 0 0 0 0.443082000590015 0 0 0 0 0 0.2956834149925135 0.8970849211461005 0 0 0 0 0 0 0 0 0 0 0.1823262772172203 0 0 0 0 0 0 0 0 1:0.6346733 2:0.54008001 3:0.36914486 4:0.55244261 5:0.27048236 6:0.40509099 7:0.3826142 8:0.50467926 9:0.74186611 10:0.42519027 11:0.35342947 12:0.42912152 13:0.43990231 14:0.33974186 15:0.29114679 16:0.49108666 17:0.54890507 18:0.27321967 19:0.46845016 20:0.36172298 21:0.37065044 22:0.50029713 23:0.62874591 24:0.18964525 25:0.52389389 26:0.50264543 27:0.42255557 28:0.52652115 29:0.62888515 30:0.47600129 31:0.6097306 32:0.69642663 33:0.69682008 34:0.47625354 35:0.55081999 36:0.30719659 37:0.57899511 38:0.69732726 39:0.68762171 40:0.49722844 41:0.70249677 42:0.56887776 43:0.57218754 44:0.45699632 45:0.73446816 46:0.33871484 47:0.35191569 48:0.45345357 49:0.33010152 50:0.46157077 51:0.48992115 52:0.69822466 53:0.69493294 54:0.47527292 55:0.47606006 56:0.59242767 57:0.54573667 58:0.28704649 59:0.66975713 60:0.47969317 61:0.41799298 62:0.73010582 63:0.36895189 64:0.88814259 
0 0 0 0 0.08529964621276495 0 0 0 0 0 0 0 0 0 0 0 0 0 0 0 0 0 0 0 0 0 0 0 0 0 0 1:0.62987167 2:0.66203874 3:0.74066269 4:0.45421377 5:0.58992392 6:0.5122605 7:0.54761577 8:0.68070465 9:0.61941957 10:0.56275767 11:0.53554773 12:0.55647558 13:0.52699316 14:0.56685901 15:0.44494951 16:0.33593851 17:0.66156924 18:0.19353569 19:0.33872741 20:0.25691092 21:0.44953483 22:0.73214072 23:0.65841484 24:0.43215516 25:0.45777124 26:0.54844892 27:0.59064674 28:0.41022435 29:0.66026783 30:0.32158691 31:0.41162604 32:0.62560332 33:0.63158882 34:0.51134694 35:0.52684498 36:0.57527453 37:0.58239019 38:0.64272642 39:0.54058784 40:0.44388416 41:0.74182373 42:0.68437791 43:0.22880602 44:0.64010233 45:0.55204594 46:0.26231179 47:0.31919783 48:0.50822383 49:0.41905636 50:0.49315399 51:0.57992643 52:0.65329707 53:0.58681262 54:0.37084773 55:0.41922981 56:0.45715749 57:0.46656683 58:0.29926717 59:0.7412414 60:0.49190158 61:0.28727958 62:0.74825692 63:0.37220204 64:0.80833769 
0.4086733782159583 0.07062942945212154 1.403736953057854 0 0.2500377759064819 0 0 0.9843119218478366 0 1.126052735064168 0 0 0 0 0 0 0 1.769451293283107 2.15049957195198 0 0 0 0 1.69990060992904 0 0 0 0 0.6682089963149586 0.2110755857653738 3.166086681814901 1:0.46040478 2:0.55806953 3:0.56112981 4:0.67620492 5:0.39979666 6:0.42233825 7:3.9025188e-16 8:0.63402832 9:0.62598681 10:0.55767721 11:0.48529333 12:0.66089076 13:0.46335727 14:0.37544602 15:0.45283267 16:0.4407832 17:0.26782936 18:0.32075953 19:0.70173246 20:0.69287938 21:0.4756254 22:0.47609374 23:0.6764338 24:0.24144951 25:0.42217365 26:0.4168832 27:0.37902838 28:0.59138626 29:0.48333845 30:0.45138827 31:0.53444302 32:0.5588975 33:0.74543071 34:0.78673804 35:0.56193966 36:0.45346841 37:0.65290731 38:0.59550858 39:0.47667435 40:0.66089863 41:0.60921681 42:0.55945671 43:0.56367171 44:0.55982882 45:0.59546191 46:0.29769242 47:0.36854711 48:0.70346069 49:0.57064688 50:0.60721117 51:0.68015647 52:0.62960786 53:0.50957853 54:0.57593673 55:0.69256908 56:0.51327258 57:0.42294598 58:0.2657584 59:0.64569455 60:0.47391057 61:0.49328855 62:0.80680418 63:0.3165952 64:0.8512482 
0 0 0 0 0 0 0 0 0 0 0 0 0 0.5228037190740056 0 0.3267271721476248 0 0 0 0 0 0 0 0 0 0 0 0 0 0 0 1:0.62276453 2:0.41178891 3:0.51670569 4:0.35072964 5:0.54148948 6:0.35257781 7:0.33043107 8:0.38410643 9:0.64022005 10:0.58086634 11:0.59305394 12:0.45034409 13:0.31286949 14:0.42008698 15:0.56886125 16:0.59158134 17:0.6240688 18:0.20421492 19:0.34543583 20:0.5154407 21:0.41411334 22:0.6722272 23:0.51221955 24:0.26384199 25:0.53275472 26:0.45815143 27:0.51505166 28:0.42488071 29:0.8263284 30:0.35656247 31:0.59522545 32:0.57676709 33:0.79632539 34:0.49288392 35:0.51632005 36:0.57727665 37:0.71192217 38:0.63000518 39:0.57487178 40:0.46534929 41:0.70252085 42:0.60933566 43:0.27239531 44:0.54497564 45:0.60395992 46:0.22881211 47:0.32218271 48:0.53293663 49:0.45281985 50:0.48617697 51:0.50061524 52:0.66712028 53:0.52840328 54:0.33083549 55:0.44932392 56:0.42383406 57:0.38994393 58:0.29227909 59:0.67686129 60:0.54363859 61:0.3294946 62:0.750512 63:0.40764099 64:0.79457641 
0 0 0 0 0 0 0 0 0.08373089979392968 0 0 0 0 0 0 0 0 0 0 0 0 0 0 0.02981871792361035 0 0 0 0 0.1710679794237058 0 0 1:0.4641307 2:0.49543062 3:0.56231982 4:0.54949296 5:0.59197974 6:0.3964197 7:0.50378984 8:0.59347528 9:0.55615419 10:0.45939282 11:0.36458793 12:0.56060666 13:0.28820911 14:0.581191 15:0.35158205 16:0.3336896 17:0.74075139 18:0.31149745 19:0.33355618 20:0.30926034 21:0.50649256 22:0.63421988 23:0.67518961 24:0.49535689 25:0.5441553 26:0.52040023 27:0.52366358 28:0.41412485 29:0.76912695 30:0.32880658 31:0.44641536 32:0.64585721 33:0.71715277 34:0.48735169 35:0.50612754 36:0.3699992 37:0.6234355 38:0.60567594 39:0.58277702 40:0.49245566 41:0.69144768 42:0.62136436 43:0.20570502 44:0.57060957 45:0.56344563 46:0.25822812 47:0.37451169 48:0.51486313 49:0.38548696 50:0.4712745 51:0.57800192 52:0.64203215 53:0.57142627 54:0.37379652 55:0.53425193 56:0.5018782 57:0.43357614 58:0.28547385 59:0.68697357 60:0.4877789 61:0.30772045 62:0.70033062 63:0.37616113 64:0.81335658 
2.256676176681049 1.216693563228283 4.340117748630711 4.151306072535985 2.616374957351566 2.603447760774781 0 0 1.71503307977343 3.331699695763788 2.665206823348947 0.1800825337951116 0.163586708936184 0.5143375446033649 0 0 0 2.082380024447233 1.118914929701233 1.553563800783596 0.03236426113481067 0 0.8518537391060275 1.824824018454094 0 1.390513323961647 0 0.5457120425406726 0 0 0.2651405983775882 1:0.4384636 2:0.5527373 3:0.45484164 4:0.29406118 5:0.4187665 6:0.44894007 7:0.18380305 8:0.51160389 9:0.30121976 10:0.41113958 11:0.5512777 12:0.42282924 13:0.24099188 14:0.43088874 15:0.60627919 16:0.50371844 17:0.50743091 18:0.36077183 19:0.37422913 20:0.66937166 21:0.42334017 22:0.55786598 23:0.6760245 24:0.45994458 25:0.55342126 26:0.55465823 27:0.39597765 28:0.53390461 29:0.72358853 30:0.55781078 31:0.41591507 32:0.54766387 33:0.89256608 34:0.37961656 35:0.28540993 36:0.44378236 37:0.85106218 38:0.53002369 39:0.56082094 40:0.51240456 41:0.77980602 42:0.61312175 43:0.27936214 44:0.482667 45:0.67478025 46:0.43556631 47:0.39233348 48:0.54495662 49:0.54289091 50:0.5249005 51:0.54797488 52:0.83943397 53:0.42957899 54:0.46515852 55:0.50965887 56:0.38034669 57:0.39797288 58:0.28600818 59:0.60573888 60:0.5138725 61:0.31747767 62:0.71246469 63:0.48608291 64:0.80783916 
0 0 0 0 0 0 0 0 0 0 0 0 0.1064526487752406 0 0.64809187449146 0 0.6445307570304896 0.3032541634716485 0 0 0 0 0 0 0.7247742894116294 0 0 0.7537570885551886 0 0 1.092233588863866 1:0.57343918 2:0.56166172 3:0.60539049 4:0.29941744 5:0.37647855 6:0.31067097 7:0.41581288 8:0.44438729 9:0.38718721 10:0.47495669 11:0.57238024 12:0.41289032 13:0.28103307 14:0.68310755 15:0.64299935 16:0.61985976 17:0.54758745 18:0.30207166 19:0.33492324 20:0.71768296 21:0.36387241 22:0.63513386 23:0.6966784 24:0.50371164 25:0.55490464 26:0.6302945 27:0.3683711 28:0.55732769 29:0.73498917 30:0.4044531 31:0.45165196 32:0.62105089 33:0.82484072 34:0.52133256 35:0.47720739 36:0.56565052 37:0.79956698 38:0.54974037 39:0.49272001 40:0.54364824 41:0.74706131 42:0.6338796 43:0.28075606 44:0.53153729 45:0.709328 46:0.43992409 47:0.3963905 48:0.5776642 49:0.56971204 50:0.50365204 51:0.53538221 52:0.7483834 53:0.41440615 54:0.48034993 55:0.60272533 56:0.46137223 57:0.39659035 58:0.2513032 59:0.61270505 60:0.49720532 61:0.35551804 62:0.72091264 63:0.50195551 64:0.83259988 
0 0 0 0 0 0 0 1.457914005342854 0.9590626493986862 1.800904520983946 0.5854603422936635 0 0.5298334736310671 0 0.6050309394130235 1.189828766812465 0 0 0 1.560102927502734 0 2.088510043857281 0 0 0 0 0 0 0.2098092699798576 0.6846335439992676 0 1:0.40975884 2:0.50779378 3:0.46809244 4:0.48482904 5:0.47037822 6:0.43639538 7:0.61525178 8:0.54958034 9:0.48760623 10:0.53028858 11:0.37909156 12:0.52520627 13:0.4222911 14:0.92673111 15:0.49814197 16:0.53577602 17:0.5934177 18:0.47701752 19:0.38674888 20:0.28334069 21:0.39055943 22:0.64557445 23:0.7861805 24:0.58192766 25:0.4675428 26:0.4491652 27:0.45736748 28:0.50833255 29:0.72444433 30:0.19969596 31:0.26909673 32:0.66903704 33:0.64454776 34:0.56233925 35:0.71591544 36:0.46720105 37:0.47501451 38:0.63190824 39:0.44433078 40:0.57833844 41:0.75711536 42:0.66012621 43:0.27280492 44:0.66016436 45:0.59105182 46:0.34695545 47:0.37652045 48:0.64196002 49:0.36783463 50:0.42054012 51:0.5640015 52:0.6801995 53:0.57093793 54:0.48828691 55:0.49907783 56:0.52513725 57:0.44083369 58:0.25322315 59:0.70991248 60:0.47161722 61:0.31989557 62:0.75623071 63:0.44663247 64:0.82600433 
0 0 0 0 0 0 0 0 0 0 0 0.780896155488674 0 1.74824372538151 0 0 0 0 0 0 0 0 0 0 0 0 0 0 0 0 0 1:0.53839374 2:0.71469593 3:0.54956543 4:0.43039221 5:0.47576636 6:0.43517801 7:0.37093949 8:0.51880193 9:0.61201888 10:0.51365602 11:0.48113441 12:0.42730662 13:0.41410702 14:0.48181176 15:0.43151727 16:0.44366744 17:0.66852826 18:0.31749457 19:0.2713069 20:0.41930589 21:0.39247066 22:0.57808107 23:0.58104557 24:0.20643321 25:0.57410538 26:0.51461655 27:0.58116537 28:0.48786363 29:0.81347781 30:0.43245837 31:0.64914036 32:0.5554533 33:0.71313345 34:0.42403939 35:0.4511562 36:0.49779928 37:0.75958699 38:0.52650124 39:0.52910781 40:0.58740497 41:0.68235326 42:0.64365983 43:0.29102522 44:0.44035292 45:0.53771907 46:0.31940094 47:0.30117708 48:0.48879841 49:0.41213471 50:0.50948751 51:0.4084366 52:0.69386816 53:0.59515125 54:0.28218371 55:0.47253367 56:0.43984976 57:0.4453651 58:0.27476904 59:0.66864067 60:0.57919121 61:0.31404787 62:0.76098013 63:0.46943891 64:0.82207239 
1.076533925210979 0.7498107766675136 0 0 0 0 0.4000565813431745 0 0 0 1.061625801668922 0 0 0 1.134002242890185 0 1.406574757845971 0 0 0 0.9708055320339753 0 0 0 0 1.714343698192065 0 0 1.795308365287406 0 0.4284802214227463 1:0.30685747 2:0.4149822 3:0.51222366 4:0.5033958 5:0.31656832 6:0.49072063 7:0.049666449 8:0.69923079 9:0.67581761 10:0.62741786 11:0.43286148 12:0.4772405 13:0.39376774 14:0.43272063 15:0.33679393 16:0.5462566 17:0.14917545 18:0.48256379 19:0.73594272 20:0.64385146 21:0.36395711 22:0.37317744 23:0.72593528 24:0.29419151 25:0.49941069 26:0.42580703 27:0.27541667 28:0.62257606 29:0.50374198 30:0.43317246 31:0.61486769 32:0.58767658 33:0.79883039 34:0.65661263 35:0.4962447 36:0.40513027 37:0.61228836 38:0.63434863 39:0.49284706 40:0.60864836 41:0.62585551 42:0.603957 43:0.49318352 44:0.55915433 45:0.64557797 46:0.29233938 47:0.42592975 48:0.68041319 49:0.52406019 50:0.55720347 51:0.70208442 52:0.70652014 53:0.5486607 54:0.53789395 55:0.69614649 56:0.4853718 57:0.41325361 58:0.2541343 59:0.72782815 60:0.44660082 61:0.37802991 62:0.69046551 63:0.32481369 64:0.77712685 
0 0 0 0 0 0 1.281689586576911 0 1.474010081845055 0 0 0 0 0 0 0.524936154584229 0 0 1.185745193722501 0.3094437148826862 0 0 0 0 0 0 0 2.187092418059628 0 2.783285479174683 0 1:0.51068676 2:0.4178437 3:0.52335835 4:0.54516488 5:0.42001858 6:0.43412989 7:0.087666541 8:0.64346254 9:0.62444603 10:0.55423927 11:0.45090052 12:0.58349138 13:0.4784514 14:0.35613742 15:0.58588946 16:0.55075264 17:0.21096763 18:0.38574743 19:0.55319667 20:0.72860414 21:0.33427668 22:0.39376953 23:0.79297364 24:0.25900501 25:0.3968417 26:0.42029673 27:0.40362629 28:0.69652486 29:0.41151744 30:0.46774948 31:0.59142548 32:0.56293237 33:0.77023977 34:0.74286085 35:0.50159973 36:0.4730877 37:0.64615786 38:0.5934518 39:0.47225296 40:0.63132435 41:0.70271993 42:0.525011 43:0.47208115 44:0.57808894 45:0.58196867 46:0.38697171 47:0.4093039 48:0.73109078 49:0.55749267 50:0.5861032 51:0.63199431 52:0.58170813 53:0.5085631 54:0.53356683 55:0.66452008 56:0.49761671 57:0.40213352 58:0.23705763 59:0.68771708 60:0.47066656 61:0.44420159 62:0.73265803 63:0.3282246 64:0.79525769 
0 0 0 0 0 0.06139700351794602 0 0.3191909096168639 0 0 0 0 0 0 0 0 0 0 0 0.3024306596314503 0 0.2492936367760694 0 0 0 0 0.3383851189926689 0 0 0 0 1:0.40862712 2:0.4781495 3:0.59351414 4:0.55907059 5:0.3737714 6:0.50576437 7:0.2035265 8:0.73530245 9:0.62139106 10:0.44438216 11:0.43685752 12:0.52287579 13:0.56498104 14:0.51813293 15:0.24406284 16:0.35697263 17:0.20770022 18:0.49209291 19:0.55640733 20:0.58047849 21:0.40316048 22:0.34484896 23:0.85506183 24:0.30493465 25:0.36848545 26:0.35905883 27:0.41464147 28:0.6607663 29:0.43573546 30:0.31641012 31:0.72023809 32:0.79294938 33:0.7825827 34:0.59921128 35:0.41173828 36:0.4264591 37:0.68889832 38:0.46213934 39:0.56889248 40:0.63337028 41:0.62784022 42:0.61461455 43:0.43351573 44:0.53423524 45:0.63261676 46:0.40977579 47:0.39577001 48:0.67850804 49:0.44983566 50:0.56226188 51:0.58513576 52:0.62382376 53:0.62785149 54:0.53432518 55:0.64806682 56:0.54710722 57:0.43633845 58:0.25273868 59:0.67936468 60:0.46030578 61:0.37976986 62:0.74025577 63:0.32952604 64:0.7984696 
0 0 0 0 0.05822364101586782 0 0 0 0 0 0 0 0 0 0 0 0 0 0 0 0 0 0 0 0 0 0 0 0 0 0 1:0.33965686 2:0.45109603 3:0.43914822 4:0.50823605 5:0.64492625 6:0.4624345 7:0.48481876 8:0.68374532 9:0.63376111 10:0.52469379 11:0.47172335 12:0.65118307 13:0.40675941 14:0.58093566 15:0.4388721 16:0.40157405 17:0.83299553 18:0.3750174 19:0.47830796 20:0.19716898 21:0.50476742 22:0.60599756 23:0.70726305 24:0.57611018 25:0.60644907 26:0.38075572 27:0.50943023 28:0.47907615 29:0.61174083 30:0.28289452 31:0.41836703 32:0.5582124 33:0.68441629 34:0.60702556 35:0.63578475 36:0.39138111 37:0.57974458 38:0.64217985 39:0.65611327 40:0.46527496 41:0.62923008 42:0.63863009 43:0.2551474 44:0.56877983 45:0.5736326 46:0.22570297 47:0.38214403 48:0.575652 49:0.34481752 50:0.46850869 51:0.62372488 52:0.69730872 53:0.65697861 54:0.42581978 55:0.56286907 56:0.50703853 57:0.46210262 58:0.28561717 59:0.71220452 60:0.49649498 61:0.3410114 62:0.71516526 63:0.34865969 64:0.78305787 
0 0 0 0 0 0 0 0 0 0 0 0 0 0 0 0 0 0 0 0 0 0 0 0.3246455224237187 0 0 0 0 0 0 0 1:0.55375278 2:0.47450885 3:0.5608328 4:0.51248628 5:0.6756202 6:0.40233904 7:0.53543162 8:0.53442305 9:0.63128054 10:0.49361795 11:0.51512903 12:0.65939534 13:0.43451959 14:0.5858019 15:0.47369376 16:0.38585955 17:0.80528271 18:0.2464619 19:0.31192809 20:0.2404753 21:0.54022813 22:0.68736398 23:0.55776966 24:0.50491947 25:0.55369389 26:0.44001403 27:0.55515349 28:0.44515473 29:0.71287453 30:0.27254468 31:0.399993 32:0.6142199 33:0.67220736 34:0.49830922 35:0.58112663 36:0.37074071 37:0.63828528 38:0.6420179 39:0.59622818 40:0.52538228 41:0.62508637 42:0.5982039 43:0.28073573 44:0.55651569 45:0.62136406 46:0.27750394 47:0.35753807 48:0.53808409 49:0.44877222 50:0.53290313 51:0.59234315 52:0.62601018 53:0.64861387 54:0.39860591 55:0.57435071 56:0.49189794 57:0.48560789 58:0.29624039 59:0.65956497 60:0.50390226 61:0.34984758 62:0.74776697 63:0.36073887 64:0.81621152 
0 0 0 0 0 0 0.5580450006354606 0 0 0 0 0 0 0 0 0 0 0 0.2355008980488561 0 0 0 0 0 0 0 0 0 0 0 0 1:0.51445138 2:0.5754528 3:0.53541368 4:0.56610924 5:0.42230484 6:0.4717423 7:0.35143897 8:0.56539458 9:0.62364519 10:0.44706455 11:0.46218112 12:0.45059103 13:0.3469075 14:0.50821751 15:0.5179795 16:0.35790205 17:0.74162078 18:0.35028282 19:0.34146014 20:0.39591607 21:0.40473929 22:0.56328529 23:0.53976291 24:0.23005733 25:0.56692988 26:0.48471153 27:0.57057256 28:0.43919158 29:0.75836188 30:0.32939592 31:0.6409961 32:0.6271919 33:0.65511179 34:0.44044447 35:0.51275051 36:0.45018882 37:0.70607054 38:0.49613646 39:0.558994 40:0.58938009 41:0.70480615 42:0.58579683 43:0.30682403 44:0.43870378 45:0.54335141 46:0.26863894 47:0.31339768 48:0.53220266 49:0.42797673 50:0.53388786 51:0.38357159 52:0.63008916 53:0.62672895 54:0.34148479 55:0.5036065 56:0.46208885 57:0.47282207 58:0.28711149 59:0.62376308 60:0.58672816 61:0.3437534 62:0.76690596 63:0.39366126 64:0.81608838 
0 0 0 0 0 0 0 0 0 0 0 0 0 0 0 0 0 0 0 0 1.861896031829761 0 0 0 0 0 0 0 0 0 0 1:0.43822467 2:0.45610234 3:0.54076219 4:0.50499159 5:0.4009448 6:0.559982 7:0.66237032 8:0.19530028 9:0.52956939 10:0.45786789 11:0.56886113 12:0.50087863 13:0.48476711 14:0.4117468 15:0.70915592 16:0.57114661 17:0.60946172 18:0.47696877 19:0.50489783 20:0.62425983 21:0.30688673 22:0.44246128 23:0.44375521 24:0.50297594 25:0.45819995 26:0.66594231 27:0.79828113 28:0.37725523 29:0.38523948 30:0.41421837 31:0.55981565 32:0.37873438 33:0.59303963 34:0.36386907 35:0.55425495 36:0.60895288 37:0.45986795 38:0.60537869 39:0.53787977 40:0.33984062 41:0.34122819 42:0.35907143 43:0.17555758 44:0.39953142 45:0.68957901 46:0.20601645 47:0.4804368 48:0.52292043 49:0.56250983 50:0.41714856 51:0.28435469 52:0.65395826 53:0.85002732 54:0.33144581 55:0.50999737 56:0.63910192 57:0.42277858 58:0.32381541 59:0.63825846 60:0.48413491 61:0.35958973 62:0.70638376 63:0.29343683 64:0.64982647 
0 0 0 0 0 0 0.5546181211325012 0 0 0 0.8935152496662874 0 0.6609209439667922 0 0.8375497259140778 0.6942911770741247 0 0 0.9282928046759846 0 0 0 0 0 0 0 0 0 0 0 0 1:0.74085671 2:0.35004801 3:0.44094586 4:0.48738804 5:0.25069478 6:0.62829524 7:0.77876687 8:0.34216392 9:0.51277441 10:0.60025501 11:0.38877675 12:0.505431 13:0.61221904 14:0.41518965 15:0.4214673 16:0.45230362 17:0.69247246 18:0.49218839 19:0.54526007 20:0.71320242 21:0.39533067 22:0.39571694 23:0.67756826 24:0.41920584 25:0.63109547 26:0.75265986 27:0.835702 28:0.42159367 29:0.33714259 30:0.64162695 31:0.2716608 32:0.57405537 33:0.55549747 34:0.3052648 35:0.6447444 36:0.41689083 37:0.34695694 38:0.69509339 39:0.43703952 40:0.39047787 41:0.63719672 42:0.50230896 43:0.25288635 44:0.44434124 45:0.76264584 46:0.22624837 47:0.53855532 48:0.52613872 49:0.3958621 50:0.453217 51:0.3225694 52:0.85899824 53:0.706379 54:0.49374661 55:0.4434227 56:0.45042843 57:0.61333871 58:0.30619079 59:0.87810951 60:0.55042797 61:0.33042622 62:0.55959916 63:0.4807353 64:0.77556282 
0 0.4929014487815467 0 0 0.0211772236642111 1.994127673887886 0 0 0 0 0 0 0 1.580073232700153 0 0 0 0 0 0.08949375231864298 0 1.529912129520875 0.3055626288076745 0 0 0 0 0 0 0 0 1:0.78457659 2:0.4925482 3:0.62440836 4:0.57955134 5:0.34731767 6:0.42321822 7:0.56018734 8:0.26843238 9:0.67536694 10:0.51015139 11:0.49490854 12:0.30224162 13:0.44743189 14:0.26135513 15:0.65545982 16:0.37300637 17:0.58871686 18:0.6650337 19:0.51324022 20:0.6214807 21:0.3366313 22:0.16124389 23:0.38204226 24:0.27024186 25:0.51926386 26:0.63048118 27:0.68528116 28:0.45293325 29:0.42144871 30:0.4143478 31:0.56165487 32:0.4121843 33:0.48438513 34:0.19932975 35:0.68801194 36:0.63011044 37:0.50944096 38:0.46623132 39:0.50449544 40:0.42245817 41:0.53053677 42:0.38624197 43:0.31140801 44:0.39636374 45:0.66484845 46:0.218352 47:0.36027893 48:0.53281736 49:0.65007341 50:0.53144449 51:0.33727157 52:0.60932982 53:0.96906 54:0.52624923 55:0.48257586 56:0.53462803 57:0.6982668 58:0.29051185 59:0.62774336 60:0.63973624 61:0.48808998 62:0.63446897 63:0.26353535 64:0.66302902 
0.6506072314012883 0 0.8562139608756165 0 0.6755146765207598 0 0 0 0 0 0 0 0 0.3739118424869267 0 0 0 0 0 0 0 0 0.0730210136687139 0 0.6699467968930062 0 0 0 0 0 0 1:0.66175264 2:0.28945881 3:0.14392844 4:0.41488653 5:0.59081388 6:0.72401285 7:0.6062519 8:0.52362901 9:0.76328206 10:0.68343341 11:0.51341397 12:0.437253 13:0.69883764 14:0.46353969 15:0.22642186 16:0.35555345 17:0.45105413 18:0.40172768 19:0.078761287 20:0.4174343 21:0.38931254 22:0.40878373 23:0.60745591 24:0.43908304 25:0.48778343 26:0.60576093 27:0.7599861 28:0.67574263 29:0.38601404 30:0.70642877 31:0.46596414 32:0.5519346 33:0.84467852 34:0.49908495 35:0.74415666 36:0.42541972 37:0.41840103 38:0.51572263 39:0.62348646 40:0.33883524 41:0.492966 42:0.57717091 43:0.69598562 44:0.71756268 45:0.65409672 46:0.54409999 47:0.60897088 48:0.51848662 49:0.28825057 50:0.3964358 51:0.38203406 52:0.88351768 53:0.67556459 54:0.46924397 55:0.61587411 56:0.55308717 57:0.52336431 58:0.24994773 59:0.8213014 60:0.53830385 61:0.26357147 62:0.61087114 63:0.439601 64:0.72732621 
0 0 0 0 0 0 0 0 0 0 0 0 0 0 0 0 0 0 0.1984963003511334 0.3104363564809108 0 0 0 2.491346760949148 0 0 0 0 0.831447230743387 0 0 1:0.67026323 2:0.32330525 3:0.55148268 4:0.34044665 5:0.66099179 6:0.64351857 7:0.44012275 8:0.67634898 9:0.7748161 10:0.52273589 11:0.57300395 12:0.47283295 13:0.4912408 14:0.43966198 15:0.39520818 16:0.38859987 17:0.56145972 18:0.47887838 19:0.14642797 20:0.48049229 21:0.45126066 22:0.49168074 23:0.51391345 24:0.38317284 25:0.53420329 26:0.55122441 27:0.76049989 28:0.61857158 29:0.43349165 30:0.52587116 31:0.6382708 32:0.28499913 33:0.80560231 34:0.61126757 35:0.70072943 36:0.39649123 37:0.29257473 38:0.48358831 39:0.68718076 40:0.4572725 41:0.32159424 42:0.46640283 43:0.64037055 44:0.62251902 45:0.49448988 46:0.47454789 47:0.51384908 48:0.70700133 49:0.38910156 50:0.2702086 51:0.33909491 52:0.69509256 53:0.7739085 54:0.27555034 55:0.63444251 56:0.63102561 57:0.41603708 58:0.3276675 59:0.66941381 60:0.60977608 61:0.21409543 62:0.64773512 63:0.40800416 64:0.60389566 
0.8718442266858641 0 0 0 0 0 0.5946454535555221 0 0 0 0 0.6461564544400189 0.5793614462548907 0 0 0 0.3436183108681136 0.04466227953805474 0.04080536604988949 0 0 0.5198233149854883 0 0.4435124786369888 0 0 0.8464043689596159 0.2746831316466782 0 0 0 1:0.5465188 2:0.51495516 3:0.32866845 4:0.48899287 5:0.82136804 6:0.60654014 7:0.41080061 8:0.68750137 9:0.7225185 10:0.43111101 11:0.77017599 12:0.33702949 13:0.49761105 14:0.31094477 15:0.49647811 16:0.22595762 17:0.55278933 18:0.58201891 19:0.12767909 20:0.28247723 21:0.43949127 22:0.28962851 23:0.34548309 24:0.27100372 25:0.52039701 26:0.56355935 27:0.73689091 28:0.46887589 29:0.3556017 30:0.43071201 31:0.65914917 32:0.27263197 33:0.70935291 34:0.56019199 35:0.71380395 36:0.57042474 37:0.39874011 38:0.40626335 39:0.58648688 40:0.42301354 41:0.38227287 42:0.35790604 43:0.68070871 44:0.53573775 45:0.5076986 46:0.34807503 47:0.37596878 48:0.65099555 49:0.56247264 50:0.45740849 51:0.36616862 52:0.51373607 53:0.84383488 54:0.57648498 55:0.68330574 56:0.57490069 57:0.59257126 58:0.25951043 59:0.70098531 60:0.62881327 61:0.38170797 62:0.70205951 63:0.22974984 64:0.59875989 
0.4022692009943453 0 0 0 0 0 0 0 0 0 0 0 0 0 0 0 0 0 0 0 0 0 0.08306365577364502 0 0 0 0 0 0.9131676834690134 0 0 1:0.57342607 2:0.37259561 3:0.42504236 4:0.39771315 5:0.47723141 6:0.59263611 7:0.41882545 8:0.48312193 9:0.71166384 10:0.47563386 11:0.6303522 12:0.45360443 13:0.69733047 14:0.2810424 15:0.3793014 16:0.38176844 17:0.35723093 18:0.45859891 19:0.10968783 20:0.24082719 21:0.46960336 22:0.35364634 23:0.42166701 24:0.36752549 25:0.51797444 26:0.40364343 27:0.81180435 28:0.53115004 29:0.33493564 30:0.6572696 31:0.52822679 32:0.14694278 33:0.88433403 34:0.41670278 35:0.64507699 36:0.55891252 37:0.50508052 38:0.53931528 39:0.73405397 40:0.40699866 41:0.27523658 42:0.41229197 43:0.54854745 44:0.59962261 45:0.56281078 46:0.40220952 47:0.48214087 48:0.62902999 49:0.44398987 50:0.38907671 51:0.44967479 52:0.6054498 53:0.73789817 54:0.32515875 55:0.66250473 56:0.6000284 57:0.37327603 58:0.27353767 59:0.68097073 60:0.49853039 61:0.24259801 62:0.63684106 63:0.25978136 64:0.58097589 
0 0 0 0 0 0 0 0 0 0 0 0 0 0 0 0 0 0 0 0 0 0 0 0 0 1.058807393547379 0 0 0 0 0 1:0.63016689 2:0.23552786 3:0.34317374 4:0.48748916 5:0.36734813 6:0.67181754 7:0.61152762 8:0.53892654 9:0.53866053 10:0.62110698 11:0.43851396 12:0.50449312 13:0.55679548 14:0.50900924 15:0.40050083 16:0.43426609 17:0.49717733 18:0.28467205 19:0.32620415 20:0.49484912 21:0.47033653 22:0.45142311 23:0.66157109 24:0.45489717 25:0.42863905 26:0.62061971 27:0.68204647 28:0.416365 29:0.23789147 30:0.5404771 31:0.47483277 32:0.63980144 33:0.82107753 34:0.29094732 35:0.54105747 36:0.5270769 37:0.32006061 38:0.5132643 39:0.53880399 40:0.31755203 41:0.62454677 42:0.50643045 43:0.40333211 44:0.54441005 45:0.76577139 46:0.38033113 47:0.49951449 48:0.49290752 49:0.40407863 50:0.52649862 51:0.45549759 52:0.82645696 53:0.64770168 54:0.58443534 55:0.61952066 56:0.42778033 57:0.58355606 58:0.23054267 59:0.85074377 60:0.5622685 61:0.31087565 62:0.66449898 63:0.44851145 64:0.8176266 
0 0 0 0 0 0 0 2.150827864986947 0 0 0 0 0 0 0 0 0 0 0 0 0 0 0 0 0 0 0 0 0 0 0 1:0.70855176 2:0.44034058 3:0.62126964 4:0.54663759 5:0.44458506 6:0.40596345 7:0.71248698 8:0.44200251 9:0.61996144 10:0.36139813 11:0.38438991 12:0.42946628 13:0.54402369 14:0.56349975 15:0.66307682 16:0.56125188 17:0.63244957 18:0.47943768 19:0.42957056 20:0.70227724 21:0.42151856 22:0.48737034 23:0.56482154 24:0.46134928 25:0.50095671 26:0.6866293 27:0.70917237 28:0.44483727 29:0.52013493 30:0.51950085 31:0.50417715 32:0.51582366 33:0.5333336 34:0.24563211 35:0.63483351 36:0.41540444 37:0.43188089 38:0.56469369 39:0.64971071 40:0.43484256 41:0.52713323 42:0.48084146 43:0.27710775 44:0.46663064 45:0.65838069 46:0.28550351 47:0.53382331 48:0.48920256 49:0.44924527 50:0.4126443 51:0.21297847 52:0.72929054 53:0.84581369 54:0.26340377 55:0.45580739 56:0.56840461 57:0.48887324 58:0.33882916 59:0.69863218 60:0.56975204 61:0.38168022 62:0.63773853 63:0.44740659 64:0.66722393 
0 0 0 0 0 0 0 0 0 0 1.963523740124417 0 0 0.2119884685553507 0 0 0 0 0 0 3.160337766081105 0.2554958990300692 0 0 0 0 0 0 0 0 0 1:0.59147096 2:0.54237807 3:0.39324009 4:0.45221764 5:0.49411893 6:0.61206079 7:0.48871472 8:0.43443248 9:0.51819468 10:0.35281956 11:0.33033875 12:0.46587107 13:0.55994123 14:0.31453738 15:0.55888313 16:0.27931866 17:0.66598523 18:0.53940862 19:0.34710574 20:0.48829439 21:0.50902265 22:0.39034322 23:0.41851899 24:0.21165724 25:0.42284098 26:0.52464545 27:0.71006459 28:0.39796039 29:0.34884784 30:0.39649919 31:0.70938212 32:0.64332741 33:0.61820894 34:0.38752896 35:0.48562106 36:0.56624752 37:0.64324754 38:0.32287666 39:0.63301635 40:0.42289275 41:0.47935632 42:0.31291389 43:0.39342815 44:0.44093165 45:0.63649875 46:0.29985598 47:0.36917868 48:0.60642689 49:0.67560345 50:0.61541402 51:0.35070252 52:0.51366657 53:0.87635183 54:0.5388242 55:0.54330009 56:0.64872438 57:0.66633147 58:0.22935875 59:0.66481584 60:0.59160829 61:0.40076432 62:0.7784884 63:0.17519397 64:0.66842562 
0 0 0 0 0 0 0.5682788296520824 0 0.5113034632408344 0.4800063897824484 0 0 0.4237550133092556 0 0 0 0 0 0.2196079168418938 0 0 0 2.492774744402182 0 0 0 0.4681501482607464 0 0 0 0 1:0.82588661 2:0.44504738 3:0.61236584 4:0.36252815 5:0.43284419 6:0.46707597 7:0.57295287 8:0.6272288 9:0.41385448 10:0.54459155 11:0.48594481 12:0.54780287 13:0.39689854 14:0.59057319 15:0.66663653 16:0.27883533 17:0.41645032 18:0.41396809 19:0.18510289 20:0.49580097 21:0.46337298 22:0.53743273 23:0.61996567 24:0.38817385 25:0.29664582 26:0.74124861 27:0.64257574 28:0.49193752 29:0.32492608 30:0.57020855 31:0.28694293 32:0.4704777 33:0.54166257 34:0.35518241 35:0.52864295 36:0.47301552 37:0.50680846 38:0.5168668 39:0.46350509 40:0.29912359 41:0.60906655 42:0.59503251 43:0.49836123 44:0.67895371 45:0.72552055 46:0.5298835 47:0.54036981 48:0.44194815 49:0.46443555 50:0.59534883 51:0.48645183 52:0.82177931 53:0.55539495 54:0.63946259 55:0.56326085 56:0.34822375 57:0.57744372 58:0.18540564 59:0.87643135 60:0.60332227 61:0.32569695 62:0.61233211 63:0.41324884 64:0.7931481 
0 0 0 0 0 0 0 0 0 0 0 0 0.4262206998312946 0 0 0 0 0.9185173428549684 0.9343983056686751 0 0 0.09692589515390501 0 0 0.6422821995164024 0 0.1123278322496129 0 0 0 0 1:0.66706818 2:0.63875753 3:0.77097183 4:0.41086918 5:0.41860378 6:0.44078258 7:0.6772179 8:0.8878383 9:0.4234682 10:0.42306173 11:0.71653754 12:0.46646518 13:0.26951832 14:0.62020153 15:0.87884283 16:0.31835446 17:0.71683645 18:0.40032074 19:0.16467634 20:0.39768025 21:0.57582963 22:0.32449871 23:0.54938102 24:0.34573588 25:0.21795957 26:0.48144367 27:0.74708992 28:0.54274553 29:0.29445112 30:0.56431484 31:0.48875192 32:0.29500592 33:0.56802541 34:0.48757556 35:0.5307191 36:0.65265763 37:0.55306721 38:0.53880233 39:0.51933092 40:0.37420496 41:0.44853243 42:0.46129736 43:0.36969367 44:0.60650939 45:0.60514092 46:0.2888875 47:0.50684214 48:0.54319584 49:0.59873354 50:0.51267499 51:0.47105125 52:0.50028521 53:0.66299886 54:0.36569747 55:0.68128616 56:0.51420784 57:0.31477913 58:0.31224108 59:0.58743876 60:0.54855341 61:0.20451435 62:0.70121902 63:0.25118637 64:0.63659251 
0 1.94838897319076 0.09681775429189203 0 0.7916204097182019 1.211229090971974 0 0.3432634329503764 0.2819990010057101 1.31010686045259 0 0 0 0 2.285023025099258 0 0.1790819014999868 0 0 0.915236799806148 0 0.2955137816928361 0 1.856199097404785 0.6749445032424267 1.788666617038065 0.8405117271263243 1.690738651448057 0 1.619697707810906 0 1:0.61801165 2:0.5371021 3:0.63722223 4:0.51350188 5:0.41188765 6:0.23083045 7:0.64616883 8:0.59186506 9:0.43259797 10:0.45643732 11:0.5273971 12:0.51390147 13:0.33470729 14:0.33755016 15:0.88238829 16:0.16909456 17:0.56248242 18:0.48982167 19:0.19175296 20:0.44734383 21:0.44434932 22:0.37752232 23:0.37001473 24:0.26092562 25:0.31212363 26:0.5812335 27:0.71703941 28:0.43769673 29:0.3416113 30:0.34569201 31:0.49199599 32:0.4236069 33:0.45682451 34:0.43614906 35:0.45978153 36:0.70296049 37:0.54773337 38:0.35166407 39:0.50133574 40:0.38363096 41:0.5192942 42:0.43888214 43:0.40760151 44:0.55321741 45:0.64025921 46:0.41937622 47:0.39562628 48:0.59318721 49:0.71162945 50:0.57774699 51:0.42369545 52:0.51972312 53:0.76226121 54:0.56874472 55:0.64743602 56:0.50261062 57:0.57266515 58:0.18557273 59:0.58356214 60:0.66443455 61:0.41446811 62:0.69801843 63:0.23678988 64:0.64656973 
0 0 0 3.257122416642023 0 0 0 0 0 0 0 0 0 0 0 0 0 0 0 0 0 0 0 0 0 0 2.241201137737804 0 0.1387771007233208 0.9732112680186833 0.8869667509450901 1:0.75121856 2:0.38261536 3:0.69654113 4:0.31693226 5:0.43904406 6:0.30835947 7:0.61743701 8:0.52704167 9:0.52443242 10:0.36897928 11:0.48823494 12:0.39179114 13:0.51077485 14:0.43176103 15:0.59373003 16:0.26612976 17:0.65179276 18:0.49747193 19:0.41353282 20:0.47803488 21:0.50989491 22:0.44356033 23:0.54880416 24:0.32791209 25:0.49339914 26:0.5872941 27:0.57801259 28:0.6470238 29:0.44252917 30:0.61872679 31:0.5132466 32:0.44077629 33:0.44879168 34:0.53118825 35:0.51602572 36:0.44391769 37:0.65525317 38:0.44277951 39:0.57816279 40:0.49215606 41:0.57450509 42:0.57385927 43:0.34469697 44:0.58951986 45:0.56368685 46:0.46249646 47:0.54278898 48:0.53963238 49:0.45144737 50:0.45009816 51:0.42733976 52:0.67705709 53:0.78193861 54:0.44178298 55:0.6142813 56:0.42732635 57:0.46426713 58:0.21244891 59:0.72813565 60:0.64463019 61:0.33404708 62:0.60376239 63:0.35338762 64:0.64804971 
1.963939084155404 0.00946684016005447 0 0 1.128555624305351 0 0 1.091307854137375 2.449546594809489 2.001580014510512 0.9222901460226457 0 0 0 0 0.3378420171561995 0 0.100804112076173 0 0 0.2476449613853081 1.080982701897049 1.626158154515158 0 0.1062490912407712 0.1066314283710171 0.5306595801987182 0 0 0 0.4457632763996803 1:0.74132675 2:0.72958416 3:0.79926038 4:0.40813169 5:0.52070057 6:0.31379655 7:0.72404647 8:0.59065002 9:0.45118663 10:0.32319909 11:0.56638116 12:0.43058765 13:0.56074691 14:0.38779056 15:0.79590237 16:0.24351634 17:0.64110076 18:0.47156256 19:0.37538439 20:0.37594828 21:0.3852936 22:0.45567265 23:0.50847828 24:0.24865338 25:0.31602719 26:0.64328563 27:0.63195312 28:0.38937902 29:0.42770857 30:0.36859846 31:0.43114471 32:0.27122813 33:0.45168659 34:0.5859099 35:0.46715462 36:0.61870944 37:0.73752064 38:0.49689931 39:0.61470777 40:0.52697903 41:0.35768646 42:0.50259751 43:0.22751154 44:0.55241489 45:0.61552095 46:0.55828714 47:0.47681919 48:0.6308341 49:0.54433596 50:0.48682696 51:0.31437144 52:0.44880608 53:0.72119856 54:0.2804431 55:0.50685513 56:0.70844114 57:0.20398854 58:0.35358906 59:0.38251305 60:0.60553825 61:0.22800191 62:0.79538727 63:0.27693927 64:0.55785286 
0 0 0 0 0 0 0 0 0 0.0871050412756236 0 0 0.1862325088658772 0 0.01857150369163807 0 0 0 0 0 0 0 0 0 0 0 0 0 0 0 0 1:0.5739392 2:0.54578823 3:0.71344358 4:0.32598186 5:0.55719107 6:0.40435803 7:0.64251685 8:0.43158269 9:0.47783828 10:0.39872405 11:0.797297 12:0.36652359 13:0.28768885 14:0.54485792 15:0.7883907 16:0.36839229 17:0.54026181 18:0.31744736 19:0.49416217 20:0.38324758 21:0.43549496 22:0.4404943 23:0.6181367 24:0.26412749 25:0.43360874 26:0.43497983 27:0.53131986 28:0.5342111 29:0.41201138 30:0.4784013 31:0.17504261 32:0.45790261 33:0.39380157 34:0.50695622 35:0.39220539 36:0.56440687 37:0.46800154 38:0.52550024 39:0.64371848 40:0.31870636 41:0.55982709 42:0.36617064 43:0.41119799 44:0.65683311 45:0.7907474 46:0.43370286 47:0.60123587 48:0.56049395 49:0.43473342 50:0.55641973 51:0.46878675 52:0.59784836 53:0.65011805 54:0.56752658 55:0.55033833 56:0.44826481 57:0.5398044 58:0.26386511 59:0.66217655 60:0.52964473 61:0.35153204 62:0.63103032 63:0.24452581 64:0.70875949 
0 0 0 0 0 0 0 0 0 0.03099981174092803 0 0 0 0 0 0 0 0 0 0 0 0 0 0 0 0 0 0 0 0 0 1:0.56814867 2:0.55679148 3:0.42477465 4:0.47425237 5:0.49001414 6:0.64551151 7:0.74119467 8:0.59600806 9:0.50107074 10:0.28089857 11:0.45831144 12:0.46162724 13:0.42459637 14:0.29048643 15:0.61792928 16:0.4582327 17:0.4873659 18:0.54224676 19:0.60498989 20:0.24315549 21:0.59452128 22:0.41762221 23:0.48218617 24:0.36063123 25:0.36960152 26:0.63675135 27:0.74863303 28:0.31115514 29:0.35137069 30:0.5189724 31:0.53410321 32:0.56677383 33:0.69680023 34:0.46666214 35:0.49247935 36:0.68445396 37:0.76556033 38:0.44786826 39:0.75535911 40:0.53095877 41:0.43082127 42:0.41616824 43:0.19670881 44:0.51560241 45:0.63189447 46:0.33899727 47:0.47213453 48:0.73985708 49:0.54100198 50:0.47919616 51:0.30017734 52:0.48786619 53:0.75863612 54:0.27785993 55:0.57602048 56:0.74370027 57:0.31876209 58:0.31706896 59:0.48790887 60:0.55812496 61:0.18089153 62:0.83598065 63:0.27331886 64:0.61824632 
0 0.7669242389766582 0 0 0 0 0 0 0 0 0 0 0 0 0 0 0 0 0 0 0 0 0 0 0 0 0 0 0 0 1.628235334410483 1:0.53042746 2:0.28580919 3:0.45701084 4:0.42268217 5:0.6931259 6:0.65737075 7:0.4352611 8:0.7794739 9:0.68110377 10:0.5841403 11:0.74887508 12:0.49347836 13:0.57927507 14:0.42848697 15:0.35679302 16:0.45135725 17:0.33642635 18:0.51548678 19:0.28930315 20:0.41915244 21:0.41391107 22:0.37341401 23:0.56698972 24:0.3470934 25:0.52250093 26:0.51258218 27:0.67441499 28:0.67712682 29:0.34124964 30:0.5854162 31:0.55521005 32:0.18571547 33:0.74148834 34:0.61954176 35:0.47975951 36:0.51570082 37:0.59177834 38:0.53404444 39:0.71502608 40:0.51063865 41:0.4636541 42:0.51946503 43:0.59016544 44:0.64171469 45:0.48803362 46:0.59651303 47:0.52256912 48:0.70968527 49:0.44851151 50:0.30535448 51:0.40246028 52:0.75327402 53:0.71791142 54:0.30835196 55:0.53569335 56:0.55625087 57:0.3916187 58:0.28973126 59:0.77733231 60:0.62180394 61:0.214458 62:0.63264799 63:0.45185068 64:0.61787027 
0 1.204774067117898 0 0 0 0 0 0 0 0 0 0 0.3906214299265505 0 0 0 0 0 0 0 0 0 0 0 0 0 0.969432054205427 0 0 0 0 1:0.49003777 2:0.23170902 3:0.36399177 4:0.42759973 5:0.59173715 6:0.55548304 7:0.49947125 8:0.69694459 9:0.59656936 10:0.55991352 11:0.61232102 12:0.58515304 13:0.64941621 14:0.23992568 15:0.24592908 16:0.44634646 17:0.3185603 18:0.57645875 19:0.2529346 20:0.37456051 21:0.35425484 22:0.41154897 23:0.65438896 24:0.50507474 25:0.4255169 26:0.40278524 27:0.77840805 28:0.51111835 29:0.28726274 30:0.74256486 31:0.45254928 32:0.35447261 33:0.8766095 34:0.64218903 35:0.54679894 36:0.47556779 37:0.62916028 38:0.60332054 39:0.79808033 40:0.37623549 41:0.31840274 42:0.51600856 43:0.54908812 44:0.68560761 45:0.65091497 46:0.47594905 47:0.64753014 48:0.61598402 49:0.37814224 50:0.30758116 51:0.4351725 52:0.74530166 53:0.63116074 54:0.35822791 55:0.57319111 56:0.58949763 57:0.3098684 58:0.20621699 59:0.68889439 60:0.46297967 61:0.26135007 62:0.6360327 63:0.35222521 64:0.67425001 
0 0 0 0 0.003966085712613049 0 0 0 0 0.5041591711435577 0 0 0 0 0 0 0 0 0 0.590971981599546 0 0 0 0 0.01048083666443023 0 0 0 0 0 0 1:0.62781996 2:0.28050503 3:0.2859621 4:0.72166944 5:0.4476231 6:0.60815173 7:0.60302299 8:0.17922701 9:0.37599257 10:0.38232547 11:0.3505598 12:0.47709751 13:0.49194974 14:0.28535438 15:0.54610252 16:0.5263291 17:0.56162059 18:0.44453478 19:0.79977071 20:0.21305794 21:0.31437004 22:0.30560258 23:0.69418627 24:0.37647754 25:0.36196974 26:0.52235353 27:0.56585884 28:0.38576269 29:0.40213707 30:0.42561963 31:0.45374271 32:0.4926855 33:0.7317906 34:0.45171583 35:0.54639757 36:0.50063229 37:0.62812221 38:0.48938939 39:0.71341294 40:0.47290179 41:0.64098275 42:0.31982723 43:0.32673368 44:0.51990581 45:0.79602462 46:0.4003635 47:0.52889067 48:0.71029198 49:0.55161607 50:0.53876841 51:0.42361176 52:0.59662074 53:0.7508269 54:0.45281604 55:0.54171216 56:0.6972025 57:0.48641601 58:0.32454014 59:0.6657235 60:0.50323063 61:0.30499354 62:0.7687974 63:0.28123382 64:0.71266609 
0 0 0 0 0.236432185415821 0 0 0 0 0 0 0 0 0 0 0 0 0 0 0 0 0 0 0 0 0 0 0 0 0 0 1:0.52965403 2:0.4611434 3:0.37154523 4:0.49585319 5:0.30457473 6:0.43506536 7:0.49663889 8:0.55906069 9:0.52373165 10:0.48119205 11:0.61433059 12:0.33595723 13:0.51342398 14:0.65587479 15:0.49105996 16:0.54160881 17:0.57068443 18:0.36575291 19:0.72104031 20:0.54384959 21:0.39737585 22:0.39332449 23:0.6817534 24:0.38269666 25:0.36050028 26:0.43861306 27:0.67948222 28:0.49705505 29:0.40251946 30:0.59127307 31:0.41320309 32:0.79293758 33:0.64509171 34:0.35267657 35:0.53416097 36:0.42122725 37:0.63713658 38:0.62015599 39:0.7567426 40:0.50743532 41:0.77676672 42:0.52682364 43:0.3310357 44:0.53057957 45:0.77229935 46:0.51538682 47:0.54854482 48:0.60601032 49:0.38492709 50:0.42988357 51:0.41465536 52:0.91067016 53:0.71810663 54:0.39628372 55:0.49940658 56:0.57031661 57:0.4007889 58:0.27549791 59:0.78720289 60:0.55888391 61:0.21613392 62:0.62968028 63:0.52334094 64:0.68078327 
0 0 0 0 0 0 0 0 0 0 0 0 0 0 0 0 0 0 0 0 0 0 0 0 0 0 0 0.184415951199615 0 0 0 1:0.55762142 2:0.50276804 3:0.34111592 4:0.45139572 5:0.40887281 6:0.26963648 7:0.40737158 8:0.38243675 9:0.51060438 10:0.45811114 11:0.53986818 12:0.61526966 13:0.41225797 14:0.41930178 15:0.2891326 16:0.65234071 17:0.56283033 18:0.4971464 19:0.53341401 20:0.62139052 21:0.37145963 22:0.38393176 23:0.58383721 24:0.45143428 25:0.45541686 26:0.42873663 27:0.64606333 28:0.73372263 29:0.34152216 30:0.37201443 31:0.43793848 32:0.67434978 33:0.73020715 34:0.43492827 35:0.4999249 36:0.34648335 37:0.61995775 38:0.49752471 39:0.55955708 40:0.46580422 41:0.68801242 42:0.54142827 43:0.23545296 44:0.60422301 45:0.68851846 46:0.47587657 47:0.49354655 48:0.56733882 49:0.44465885 50:0.55328369 51:0.45793909 52:0.82856417 53:0.71475476 54:0.48329362 55:0.6357789 56:0.50469005 57:0.50013745 58:0.2039014 59:0.84656507 60:0.51126891 61:0.36693019 62:0.64679193 63:0.39699358 64:0.77021271 
0 0 0 0 0 0 0.7713238110507079 0 0 0 0 0 0 0 0 0 0 0 0 0 0 0 0 0 0 0 0 0 0 0 0 1:0.59973311 2:0.72865665 3:0.62066799 4:0.44103754 5:0.3908107 6:0.40297973 7:0.25972021 8:0.42199585 9:0.51079953 10:0.34459969 11:0.51366222 12:0.436854 13:0.50024688 14:0.42344204 15:0.51741707 16:0.49579576 17:0.58856291 18:0.42885751 19:0.5410167 20:0.39523017 21:0.45936391 22:0.58277118 23:0.62477219 24:0.45902675 25:0.30066961 26:0.52661562 27:0.63815671 28:0.43008682 29:0.22404204 30:0.53078347 31:0.57213974 32:0.64213222 33:0.63268298 34:0.51580876 35:0.4861581 36:0.41384044 37:0.75471127 38:0.51060504 39:0.6209597 40:0.68919325 41:0.66261142 42:0.53432536 43:0.28330562 44:0.52488065 45:0.67481375 46:0.5919019 47:0.44087821 48:0.68422168 49:0.49421418 50:0.54460728 51:0.36859021 52:0.74670941 53:0.79587603 54:0.35426286 55:0.52459103 56:0.55485982 57:0.45963016 58:0.15696849 59:0.66635722 60:0.62408596 61:0.37105983 62:0.78958726 63:0.44857693 64:0.6898126 
