svm_type c_svc
kernel_type rbf
gamma 0.09
nr_class 2
total_sv 31
rho 0.380053
label 130430101 130430102
probA -4.14556
probB 0.0515805
nr_sv 9 22
SV
8.009535803967779 1:0.096851148 2:0.67828113 3:0.092102446 4:0.44880837 5:0.95800841 6:0.60549575 7:0.60097188 8:0.042474113 9:0.42451036 10:0.56090528 11:0.67139018 12:0.59265053 13:0.83664072 14:0.31508464 15:0.64246494 16:0.76347047 17:0.46070644 18:0.30986741 19:0.53331655 20:0.24388985 21:0.24333735 
10 1:0.57011443 2:0.16783555 3:0.43779328 4:0.30373636 5:0.28174835 6:0.3931284 7:0.53822267 8:0.60882455 9:0.69399029 10:0.37769473 11:0.59984177 12:0.62069994 13:0.20392698 14:0.81093955 15:0.20595881 16:0.49419272 17:0.4656592 18:0.26508018 19:0.40404171 20:0.256661 21:0.11502508 
0.2551072078978149 1:0.81555158 2:0.5820663 3:0.24539924 4:0.54785824 5:0.62077367 6:0.32005942 7:0.76633912 8:0.42755964 9:0.78729653 10:0.48087201 11:0.55020809 12:0.72674477 13:0.65397549 14:1.1190759e-15 15:0.20368607 16:0.78663772 17:0.62527817 18:0.34884879 19:0.51038241 20:0.35599509 21:0.10860994 
2.554081819536385 1:0.38875097 2:0.50913191 3:0.61870217 4:0.62437665 5:0.44731939 6:0.29273954 7:0.044024467 8:0.66259938 9:0.409991 10:0.55238444 11:0.6951558 12:0.42981049 13:0.20889729 14:0.59559697 15:0.24101752 16:0.68231243 17:0.51862216 18:0.13738947 19:0.42947662 20:0.32088575 21:0.085329972 
0.2361587459219674 1:0.50786817 2:0.44368193 3:0.45129967 4:0.3176403 5:0.31838286 6:0.57176799 7:0.63681465 8:0.48122215 9:0.50243527 10:0.037884798 11:0.48993778 12:0.47595519 13:0.38192242 14:0.5676772 15:0.17919329 16:0.39309424 17:0.38069668 18:0.28911766 19:0.39914882 20:0.42282316 21:0.099679492 
2.998722554708989 1:0.58305216 2:0.73725754 3:0.22568257 4:0.71668595 5:0.45635507 6:0.34138122 7:0.94068003 8:0.15334882 9:0.66948569 10:0.67336071 11:0.50377345 12:0.7877003 13:0.55679083 14:1 15:0.44352692 16:0 17:0.39257792 18:0.2470528 19:0.39584437 20:0.4373911 21:0.080497399 
1.580321703097843 1:5.1527614e-16 2:0.042216737 3:0.075773478 4:0.50706309 5:0.94102263 6:0.4884716 7:0.62316418 8:0.30199587 9:0.34138602 10:0.39771321 11:0.53783864 12:0.63265026 13:0.70309949 14:0.78354603 15:0.86812025 16:0.31003121 17:0.86686897 18:0.77235925 19:1 20:0.82341737 21:0.42622098 
7.181744305918792 1:0.83075726 2:0.66310859 3:1 4:0.33836001 5:0.1986616 6:0.48407218 7:0.59938067 8:0.32940537 9:0.13150781 10:0.25676715 11:0.5249933 12:0.77912664 13:0.74715203 14:0.52103823 15:0.78822291 16:0.37832019 17:0.68893874 18:0.67451859 19:0.64774328 20:0.68370211 21:0.36028352 
0.03441932926919741 1:0.23386653 2:0.12923658 3:0.55237335 4:0.61479861 5:0.50624835 6:0.70162952 7:0.88621444 8:0.45994782 9:0.33781564 10:0.33198258 11:0 12:0.43074679 13:0.3231287 14:0.50796992 15:0.22938792 16:0.63188666 17:0.6948337 18:0.27941725 19:0.53250647 20:0.60671604 21:0.14829245 
-3.156344102679912 1:0.76093447 2:0.61343366 3:0.24780768 4:0.44433668 5:0.5361262 6:0.78880662 7:0.49645197 8:7.7196042e-16 9:0.31277233 10:0.66471016 11:0.55736053 12:0.55232733 13:0.12921244 14:0.51749766 15:0.25242639 16:0.49344167 17:0.41338456 18:1 19:0.29464462 20:0.023654753 21:0.72390455 
-0.01016656768352088 1:0.099451795 2:0.56349558 3:0.55437374 4:0.56881064 5:0.39892384 6:0.32157657 7:0.56041497 8:0.92630541 9:0.82314277 10:0.22739285 11:0.3857367 12:0.73927778 13:0.22541103 14:0.44877028 15:0.40167499 16:0.38949114 17:0 18:0.77066743 19:0.36790848 20:0.15330516 21:0.81492954 
-0.7519758919987507 1:0.099451795 2:0.56349558 3:0.55437374 4:0.56881064 5:0.39892384 6:0.32157657 7:0.56041497 8:0.92630541 9:0.82314277 10:0.22739285 11:0.3857367 12:0.73927778 13:0.22541103 14:0.44877028 15:0.40167499 16:0.38949114 17:0 18:0.77066743 19:0.36790848 20:0.15330516 21:0.81492954 
-0.001324743911963741 1:0.4699339 2:0.68347591 3:0.40558252 4:0.52665085 5:0.91959858 6:0.27663404 7:1 8:0.78882945 9:0.033656113 10:0.15926568 11:0.85820812 12:0.8527115 13:0.12276256 14:0.73559117 15:0.040099379 16:0.53979844 17:0.91572243 18:0.33423206 19:0.36519048 20:0.089559637 21:0.78086782 
-0.2595403093406294 1:0.4699339 2:0.68347591 3:0.40558252 4:0.52665085 5:0.91959858 6:0.27663404 7:1 8:0.78882945 9:0.033656113 10:0.15926568 11:0.85820812 12:0.8527115 13:0.12276256 14:0.73559117 15:0.040099379 16:0.53979844 17:0.91572243 18:0.33423206 19:0.36519048 20:0.089559637 21:0.78086782 
-0.001532867118297158 1:0.66628242 2:0 3:0.31533563 4:0.49693003 5:0.26457575 6:0.40327317 7:0.66757798 8:0.30991778 9:0.79053968 10:9.0481588e-17 11:0.78589058 12:0.54604399 13:0.33176762 14:0.63432807 15:0.65331894 16:0.35010353 17:1 18:0.28171742 19:0.27381387 20:0 21:0.73619407 
-3.458322787671373 1:0.66628242 2:0 3:0.31533563 4:0.49693003 5:0.26457575 6:0.40327317 7:0.66757798 8:0.30991778 9:0.79053968 10:9.0481588e-17 11:0.78589058 12:0.54604399 13:0.33176762 14:0.63432807 15:0.65331894 16:0.35010353 17:1 18:0.28171742 19:0.27381387 20:0 21:0.73619407 
-3.164262641198851 1:0.52356684 2:0.45203862 3:0.54899532 4:0.42944488 5:0.79719436 6:0.83711249 7:0.64182806 8:0.82126772 9:0.5391199 10:0.30380261 11:0.78584236 12:0.4635838 13:0.8676948 14:0.89988661 15:0.47351035 16:0.58122051 17:0.30700994 18:0.34156382 19:0.51050657 20:0.24455531 21:0.78660929 
-0.004665358702763509 1:0.52201384 2:0.57565361 3:0.2491961 4:0.14581558 5:0.072503917 6:0.14516538 7:0.87682867 8:0.41020349 9:0.077420264 10:0.47094306 11:0.18113562 12:0.42464152 13:0.43699706 14:0.78940427 15:0.61645377 16:0.90778083 17:0.23730607 18:0.1851147 19:0.51320779 20:0.053084519 21:0.80572516 
-1.735492214071263 1:0.52201384 2:0.57565361 3:0.2491961 4:0.14581558 5:0.072503917 6:0.14516538 7:0.87682867 8:0.41020349 9:0.077420264 10:0.47094306 11:0.18113562 12:0.42464152 13:0.43699706 14:0.78940427 15:0.61645377 16:0.90778083 17:0.23730607 18:0.1851147 19:0.51320779 20:0.053084519 21:0.80572516 
-0.009130781040987376 1:0.32905743 2:1 3:0.33676553 4:0.13738956 5:0.43396565 6:0.4318088 7:0.31454343 8:0.23868589 9:0.79000801 10:0.097365893 11:0.6788044 12:0.53328979 13:0.5121693 14:0.71125859 15:0.63015544 16:0.22465469 17:0.62680507 18:0.13062994 19:0.63493758 20:0.031949755 21:0.80478662 
-3.328996347739256 1:0.32905743 2:1 3:0.33676553 4:0.13738956 5:0.43396565 6:0.4318088 7:0.31454343 8:0.23868589 9:0.79000801 10:0.097365893 11:0.6788044 12:0.53328979 13:0.5121693 14:0.71125859 15:0.63015544 16:0.22465469 17:0.62680507 18:0.13062994 19:0.63493758 20:0.031949755 21:0.80478662 
-1.456450048779801 1:0.61922973 2:0.45491007 3:0.5506106 4:0.48623395 5:0.3300457 6:0.41731057 7:0.76289314 8:0.67402691 9:0.40812895 10:0.8257457 11:0.21224192 12:0.58798742 13:0.46981502 14:0.36606881 15:0.27328381 16:0.22672291 17:0.63397539 18:0.17317431 19:0.66270339 20:0.021567918 21:0.78318089 
-0.03773274912190159 1:0.54078376 2:0.46743259 3:0.43623117 4:0.4365012 5:0.64580351 6:0.78851831 7:0.61932999 8:0.49248722 9:0.39644733 10:0.86749792 11:0.43241701 12:0.59243381 13:0.51445264 14:0.45812532 15:0.36329278 16:0.43283564 17:0.60422397 18:0.15288818 19:0.59162742 20:0.095242277 21:0.79461867 
-1.24004996905175 1:0.54078376 2:0.46743259 3:0.43623117 4:0.4365012 5:0.64580351 6:0.78851831 7:0.61932999 8:0.49248722 9:0.39644733 10:0.86749792 11:0.43241701 12:0.59243381 13:0.51445264 14:0.45812532 15:0.36329278 16:0.43283564 17:0.60422397 18:0.15288818 19:0.59162742 20:0.095242277 21:0.79461867 
-0.006667521840904043 1:0.2879914 2:0.26263016 3:0.65269148 4:0.71359962 5:0.40540493 6:0.10910638 7:0.47315717 8:0.054983899 9:0.28962734 10:0.75532442 11:1 12:0.5627929 13:1 14:0.76040536 15:0.092610843 16:0.54058379 17:0.32679296 18:0.4036409 19:0.41985673 20:0.20784478 21:0.73138851 
-4.318848810618686 1:0.2879914 2:0.26263016 3:0.65269148 4:0.71359962 5:0.40540493 6:0.10910638 7:0.47315717 8:0.054983899 9:0.28962734 10:0.75532442 11:1 12:0.5627929 13:1 14:0.76040536 15:0.092610843 16:0.54058379 17:0.32679296 18:0.4036409 19:0.41985673 20:0.20784478 21:0.73138851 
-1.080361179409872 1:0.49535403 2:0.3351357 3:0.4363108 4:0.70910472 5:0.52114105 6:0.52813089 7:0.54245019 8:0.14624567 9:0.22788395 10:0.23103058 11:0.74021971 12:0.95255208 13:0 14:0.25296804 15:0.80387026 16:0.44786373 17:0.009174264 18:0 19:0.55513608 20:0.73236406 21:1 
-0.004137875824206611 1:0.6246106 2:0.36521825 3:0 4:1.0641631e-15 5:0.38344249 6:0.52136856 7:0.38965774 8:0.7071504 9:0.52367628 10:0.7586543 11:0.6549145 12:0.8883853 13:0.45644155 14:0.79913396 15:0 16:0.41125122 17:0.47398868 18:0.30082336 19:0.45763779 20:1 21:0.848584 
-1.651209770581846 1:0.6246106 2:0.36521825 3:0 4:1.0641631e-15 5:0.38344249 6:0.52136856 7:0.38965774 8:0.7071504 9:0.52367628 10:0.7586543 11:0.6549145 12:0.8883853 13:0.45644155 14:0.79913396 15:0 16:0.41125122 17:0.47398868 18:0.30082336 19:0.45763779 20:1 21:0.848584 
-5.091401832913844 1:0.43416771 2:0.61439073 3:0.45641801 4:0.51166415 5:0.57369798 6:0.41157106 7:0.53937954 8:0.43699583 9:0.40204278 10:0.44364855 11:0.30574772 12:0.61406451 13:0.69965541 14:0.47032467 15:0.54988289 16:0.45180771 17:0.70303398 18:0.27772337 19:0.00076191069 20:0.75862926 21:0.79739112 
-2.081477099018397 1:0.64565194 2:0.61685228 3:0.77598149 4:0.54429179 5:0.4496797 6:0.48622191 7:0.85637105 8:0.25257012 9:1 10:0.46174881 11:0.53724217 12:0.6093533 13:0.22682677 14:0.94759405 15:0.15545458 16:1 17:0.55326217 18:0.3267557 19:0.5561406 20:0.92137533 21:0.83007038 
