svm_type c_svc
kernel_type rbf
gamma 0.09
nr_class 2
total_sv 116
rho 1.96964
label 130130102 130130103
probA -5.2545
probB 0.181831
nr_sv 46 70
SV
4.394776743287748 1:0.30539799 2:0.44253045 3:0.22129667 4:0.48463434 5:0.34883907 6:0.21734327 7:0.66394448 8:0.61520261 9:0.45186722 10:0.36372948 11:0.46122894 12:0.54214424 13:0.3584756 14:0.5628888 15:0.40115106 16:0.5337044 17:0.41526151 18:0.75813156 19:0.6442135 20:0.50240242 21:0.60955781 22:0.53483438 23:0.79571366 24:1 25:0.49431926 26:0.98839444 27:0.52950859 28:0.10065841 29:0.59015203 30:0.56868863 31:0.4281632 32:0.15981761 33:0.32417211 34:0.49268675 35:0.73073882 36:0.70700836 37:0.52975214 38:0.54722118 39:0.38423753 40:0.64498103 41:0.67760253 42:0.45536023 43:0.48307431 44:0.29504296 45:0.34530604 46:0.82370335 47:0.65353775 48:0.60325325 49:0.39300379 50:0.39819872 51:0.49090841 52:0.80428565 53:0.3424499 54:0.47770432 55:0.68773121 56:0.64736432 
0.7366799274867949 1:0.4781684 2:0.69689542 3:0.32852569 4:0.90776336 5:0.46428841 6:0.52757061 7:0.61102492 8:0.57801682 9:0.37058586 10:0.56894213 11:0.4342747 12:0.64221412 13:0.44860786 14:0.78362209 15:0.56225628 16:0.5610494 17:0.29431725 18:0.23403525 19:0.72123736 20:0.50547814 21:0.29197124 22:0.63315189 23:0.51604199 24:0.6067661 25:0.61639607 26:0.61200696 27:0.4555102 28:0.34522465 29:0.39952743 30:0.5163489 31:0.29979524 32:0.36713526 33:0.42895624 34:0.1922629 35:0.54210734 36:0.49180576 37:0.46038145 38:0.54487163 39:0.72258526 40:0.42916125 41:0.52501947 42:0.57600427 43:0.49439031 44:0.33940077 45:0.67932689 46:0.60027647 47:0.39391106 48:0.90925759 49:0.13902801 50:0.27266043 51:0.56792545 52:0.42394617 53:0.35023263 54:0.4657129 55:0.051628359 56:0.54808486 
0.1002550836756622 1:0.34478837 2:0.94174886 3:0.53215867 4:0.53699219 5:0.45214343 6:0.10874009 7:0.67876738 8:0.15340966 9:0.48311886 10:0.25979698 11:0.43835557 12:0.55207497 13:0.42113009 14:0.58638877 15:0.32552403 16:0.30200928 17:0.30251366 18:0.73366129 19:0.6438064 20:0.46824217 21:0.48590153 22:0.4815135 23:0.42923784 24:0.75544107 25:0.36207381 26:0.51670438 27:0.46421427 28:0.39351612 29:0.20479861 30:0.49590346 31:0.38293782 32:0.5164277 33:0.47705221 34:0.35622182 35:0.6498608 36:0.6063419 37:0.49301741 38:0.40582711 39:0.6021477 40:0.40635392 41:0.82388818 42:0.52535123 43:0.55536574 44:0.45958716 45:0.38888916 46:0.73060161 47:0.54386842 48:0.61660379 49:0.16547914 50:0.12708345 51:0.49907887 52:0.21326408 53:0.29598203 54:0.27727529 55:0.029183717 56:0.44187939 
1.375659779469188 1:0.8125996 2:0.70567453 3:0.40290236 4:0.59938204 5:0.24290229 6:0.2372081 7:0.46940178 8:0.36069486 9:0.42832199 10:0.45648587 11:0.42390627 12:0.57054335 13:0.44440505 14:0.41363153 15:0.44065121 16:0.36875835 17:0.36797002 18:0.56837201 19:0.63668627 20:0.42942595 21:0.3664653 22:0.52482659 23:0.37652898 24:0.54934436 25:0.43741387 26:0.55585301 27:0.44612378 28:0.42522544 29:0.60087878 30:0.34459051 31:0.38777268 32:0.54725492 33:0.52983695 34:0.452384 35:0.47965294 36:0.43317956 37:0.46877718 38:0.33578667 39:0.56783736 40:0.32393283 41:0.62864119 42:0.55826962 43:0.47425979 44:0.44324982 45:0.60840905 46:0.54842716 47:0.55278111 48:0.82427996 49:0.16722834 50:0.21847817 51:0.43955609 52:0.2709904 53:0.35346553 54:0.34854987 55:0.052241471 56:0.42470732 
3.494691543657259 1:0.53791869 2:0.61865497 3:0.46649304 4:0.34064296 5:0.33155599 6:0.23686413 7:0.81246513 8:0.35410953 9:0.78028208 10:0.3714532 11:0.44164109 12:0.33084396 13:0.77727854 14:0.38222983 15:0.36110762 16:0.43054101 17:0.35028657 18:0.52859783 19:0.85970086 20:0.26191011 21:0.29472473 22:0.48151687 23:0.32840222 24:0.54169488 25:0.45836639 26:0.39380553 27:0.38647968 28:0.32576841 29:0.41555351 30:0.41271728 31:0.44980595 32:0.57262921 33:0.6062876 34:0.37754056 35:0.58332962 36:0.64690971 37:0.37580991 38:0.58901531 39:0.61684656 40:0.24172778 41:0.77727115 42:0.60293192 43:0.50506914 44:0.56924641 45:0.49752825 46:0.69494998 47:0.64719331 48:0.74176395 49:0.17077713 50:0.21281986 51:0.3782011 52:0.14550887 53:0.32511353 54:0.27590197 55:6.4142528e-16 56:0.46902573 
1.818394657530093 1:0.39537424 2:0.68576664 3:0.59189641 4:0.53633386 5:0.45850158 6:0.52345622 7:0.62654322 8:0.61108553 9:0.72122455 10:0.58734822 11:0.44827512 12:0.73631245 13:0.65827638 14:0.60337424 15:0.57891113 16:0.39202109 17:0.4305256 18:0.48535955 19:0.68336123 20:0.44010463 21:0.43546566 22:0.54958975 23:0.36115119 24:0.29001895 25:0.45491102 26:0.58616275 27:0.49920848 28:0.5066449 29:0.54038215 30:0.45893717 31:0.53994679 32:0.45360163 33:0.70028275 34:0.23591444 35:0.61071563 36:0.28971338 37:0.50384283 38:0.54363269 39:0.61520028 40:0.35902524 41:0.76707256 42:0.43975601 43:0.55831498 44:0.59856951 45:0.55084532 46:0.63727671 47:0.54594082 48:0.74582952 49:0.1284129 50:0.18723199 51:0.46932516 52:0.23736951 53:0.37963718 54:0.33405659 55:0.039331116 56:0.44158545 
0.1754444684360412 1:0.48192963 2:0.38711807 3:0.48159328 4:0.47054923 5:0.96479511 6:0.6036765 7:0.26085114 8:0.65706563 9:0.36145344 10:0.62279761 11:0.60572636 12:0.24024102 13:0.40066689 14:0.50892401 15:0.46396017 16:0.39678717 17:0.59018505 18:0.21372697 19:0.14229332 20:0.25730956 21:0.68302131 22:0.28791121 23:0.32917491 24:0.3462317 25:0.40269932 26:0.58219421 27:0.80957812 28:0.37571415 29:0.37965545 30:0.66318351 31:0.52367014 32:0.34593976 33:0.48746926 34:0.33809122 35:0.64399958 36:0.64566159 37:0.44374165 38:0.21143167 39:0.51964194 40:0.62033194 41:0.77687466 42:0.43185747 43:0.56454837 44:0.37870473 45:0.62399185 46:0.49553445 47:0.53059614 48:0.58226758 49:0.28110939 50:0.40371406 51:0.87795401 52:0.27911279 53:0.30006596 54:0.47711706 55:0.17831007 56:0.53139836 
0.8369481828635589 1:0.53266692 2:0.23569547 3:0.20729943 4:0.31736758 5:0.81512481 6:0.31143236 7:0.42917132 8:0.62514806 9:0.076045386 10:0.76803052 11:0.70442986 12:0.51849037 13:0.62798214 14:0.20968565 15:0.3804611 16:0.18132161 17:0.65008461 18:0.49315485 19:0.4776597 20:0.34691796 21:0.21009099 22:0.62290502 23:0.40971687 24:0.3453576 25:0.51743764 26:0.59028763 27:0.77004755 28:0.35520723 29:0.4394435 30:0.19957773 31:0.22730917 32:0.46135899 33:0.24770857 34:0.68119127 35:0.74432772 36:0.5060609 37:0.64468753 38:0.74071318 39:0.57883382 40:0.61798614 41:0.3137182 42:0.37838352 43:0.59144747 44:0.30718511 45:0.48034847 46:0.63602901 47:0.21674259 48:0.69165671 49:0.68161881 50:0.22130108 51:1 52:0.25357655 53:0.38891011 54:0.15809612 55:0.62321091 56:0.56833869 
0.5713442641788781 1:0.86332405 2:0.55886996 3:0.76474369 4:0.71892554 5:0.71434033 6:0.48601207 7:0.83856392 8:0.23393609 9:0.38401902 10:0.41986924 11:0.32107502 12:0.40230352 13:0.72318661 14:0.52020603 15:0.79430825 16:0.76596123 17:0.57803845 18:0.45720467 19:0.40877038 20:0.26698658 21:0.62326729 22:0.49292779 23:0.53870618 24:0.19920324 25:0.45520714 26:0.69340253 27:0.57090068 28:0.63098162 29:0.92151463 30:0.25069407 31:0.53073758 32:0.5991742 33:0.640854 34:0.4561027 35:0.623146 36:0.59350199 37:0.18768117 38:0.51037836 39:0.42040673 40:0.64182705 41:0.51225954 42:0.50039387 43:0.39167359 44:0.62958628 45:0.20594959 46:0.57139403 47:0.82872963 48:0.72203314 49:0.41311669 50:0.71611178 51:0.28526106 52:0.70671046 53:0.36117423 54:0.55088681 55:0.77253413 56:0.74776381 
0.8681086699257482 1:0.57732618 2:0.61822993 3:0.53701353 4:0.59194249 5:0.65430665 6:0.57159752 7:0.66064572 8:0.54187322 9:0.33500084 10:0.78014249 11:0.50020736 12:0.5570243 13:0.47066316 14:0.54389685 15:0.3655822 16:0.70334089 17:0.39156684 18:0.55241561 19:0.63242745 20:0.75611442 21:0.58337218 22:0.76548225 23:0.56892681 24:0.641478 25:0.28554749 26:0.47204792 27:0.44308823 28:0.45320064 29:0.4988237 30:0.58067024 31:0.54587573 32:0.4171508 33:0.59165096 34:0.73238379 35:0.52153742 36:0.85633916 37:0.42949152 38:0.31984544 39:0.44241107 40:0.59019852 41:0.14105347 42:0.62063998 43:0.57561958 44:0.94510865 45:0.53713828 46:0.67157686 47:0.72755206 48:0.62771845 49:0.075046152 50:0.38169843 51:0.76202124 52:0.51440394 53:0.53151822 54:0.57909846 55:0.51028895 56:0.63830596 
0.5359245553011687 1:0.42852119 2:0.66273874 3:0.53932673 4:0.59266567 5:0.51289338 6:0.51491523 7:0.61188322 8:0.59877694 9:0.26898566 10:0.86883432 11:0.48023891 12:0.44430706 13:0.3792029 14:0.62298763 15:0.27626166 16:0.66980797 17:0.32771683 18:0.58687997 19:0.60309392 20:0.7689234 21:0.59001034 22:0.74040079 23:0.65774113 24:0.61714911 25:0.27403319 26:0.42108995 27:0.446585 28:0.45729628 29:0.57012254 30:0.54918683 31:0.53769147 32:0.39409241 33:0.61069119 34:0.72282523 35:0.54479742 36:0.83367425 37:0.45818862 38:0.39227003 39:0.45809668 40:0.62551123 41:0.19297603 42:0.65694898 43:0.6523096 44:0.86545426 45:0.57166255 46:0.63284314 47:0.71011007 48:0.69857281 49:0.031198446 50:0.39140737 51:0.75155669 52:0.48316199 53:0.50349575 54:0.58333796 55:0.49680457 56:0.63696927 
1.146611519374434 1:0.5094499 2:0.47382277 3:0.74808037 4:0.40447181 5:0.31154281 6:0.38903794 7:0.57055306 8:0.58312404 9:0.74664104 10:0.85728532 11:0.76119852 12:0.45597535 13:0.34218737 14:0.60812193 15:0.74503452 16:0.38238147 17:0.60288841 18:0.35791716 19:0.21646406 20:0.63554984 21:0.67183131 22:0.39890361 23:0.56653017 24:0.62745792 25:0.41182235 26:0.52226526 27:0.36409184 28:0.2701399 29:0.87517983 30:0.072646566 31:0.091328323 32:0.26988545 33:0.35451508 34:0.56383234 35:0.54747522 36:0.64739913 37:0.46588641 38:0.53086424 39:0.45589295 40:0.7179029 41:0.33473366 42:0.49875313 43:0.11113358 44:0.36522019 45:0.2042736 46:0.62049645 47:0.30841109 48:0.9504506 49:0.45412159 50:0.42265412 51:0.37145406 52:0.7564773 53:0.33609438 54:0.38342479 55:0.48500052 56:0.77429211 
2.037550473991055 1:0.39663556 2:0.53611648 3:0.69115943 4:0.57181746 5:0.82596922 6:0.49505997 7:0.34796885 8:0.45832258 9:0.77631617 10:0.49180946 11:0.58544213 12:0.57011539 13:0.23686664 14:0.32906985 15:0.54955524 16:0.43470785 17:0.43345803 18:0.72560418 19:0.60775948 20:0.54697478 21:0.444662 22:0.3716495 23:0.52559978 24:0.65325683 25:0.4528046 26:0.73264563 27:0.30204284 28:0.63884705 29:0.27386495 30:0.035288736 31:0.93182296 32:0.29089126 33:0.51988423 34:0.82087022 35:0.70176882 36:0.37231374 37:0.28643849 38:0.20983386 39:0.82148069 40:0.70021451 41:0.40533859 42:0.58693337 43:0.43232733 44:0.53572452 45:0.45708731 46:0.60015517 47:8.2915012e-16 48:0.79247266 49:0.16560559 50:0.604828 51:0.50556028 52:0.33546963 53:0.3468304 54:0.70231372 55:0.19673604 56:0.69961315 
1.602863747381581 1:0.50188571 2:0.7585361 3:0.50389296 4:0.3830913 5:0.63236308 6:0.44638392 7:0.51504642 8:0.53911406 9:0.7649433 10:0.58372587 11:0.48227492 12:0.5875532 13:0.41222563 14:0.24235637 15:0.57989091 16:0.35155198 17:0.39014927 18:0.61918777 19:0.62515664 20:0.45836234 21:0.34626696 22:0.28993565 23:0.45861906 24:0.68283731 25:0.46207586 26:0.74477947 27:0.19791755 28:0.572164 29:0.427073 30:0 31:0.73037314 32:0.35172209 33:0.56463408 34:0.85247856 35:0.67320883 36:0.27316344 37:0.27888727 38:0.32459626 39:0.83691806 40:0.6042943 41:0.47410145 42:0.51392448 43:0.43868196 44:0.6684106 45:0.39087337 46:0.6025871 47:0.096069098 48:0.76226962 49:0.17636971 50:0.59312451 51:0.43844393 52:0.26968271 53:0.3589178 54:0.68675852 55:0.16609626 56:0.69024372 
3.498034600564734 1:0.38103026 2:0.36312214 3:0.24608734 4:0.49389333 5:0.49573526 6:0.42664012 7:0.47348654 8:0.27943528 9:0.76821166 10:0.83661646 11:0.62306297 12:0.37635827 13:0.59212166 14:0.48043737 15:0.56983 16:0.3187269 17:0.31970736 18:0.43727875 19:0.42838192 20:0.16869825 21:0.28534594 22:0.62705654 23:0.28625116 24:0.37237713 25:0.13434544 26:0.71808356 27:0.3431797 28:0.6139999 29:0.45316544 30:0.64130777 31:0.039762158 32:0.59511805 33:0.57040107 34:0.61719507 35:0.67397803 36:0.34454152 37:0.60983545 38:0.51900476 39:0.31480664 40:0.62698317 41:0.25929061 42:0.38795006 43:0.45658857 44:0.27207783 45:0.82487237 46:0.26401216 47:0.6054287 48:0.86588448 49:0.31760418 50:0.42583072 51:0.48656732 52:0.71925998 53:0.33734226 54:0.30796519 55:0.63397014 56:0.50633854 
0.5668106908250671 1:0.39077634 2:0.50597739 3:0.64692742 4:0.64165759 5:0.63033825 6:0.39528158 7:0.12252185 8:0.39923099 9:0.31026232 10:0.65019095 11:0.87565416 12:0.54010212 13:0.2799632 14:0.52454305 15:0.64653468 16:0.50040108 17:0.35610372 18:0.4727726 19:0.49827769 20:0.20443045 21:0.38837424 22:0.3704747 23:0.32125357 24:0.73000836 25:0.56939465 26:0.74400699 27:0.23176984 28:0.58514583 29:0.33015856 30:0.54435974 31:0.49036688 32:0.76749706 33:0.56813574 34:0.69378984 35:0.55103207 36:0.43587884 37:0.48356214 38:0.71044195 39:0.34607643 40:0.6448043 41:0.29336292 42:0.39760646 43:0.43259022 44:0.24549775 45:0.69307423 46:0.38585511 47:0.61034763 48:0.9075889 49:0.42782107 50:0.36368001 51:0.51915592 52:0.76705801 53:0.3895995 54:0.37098986 55:0.60800368 56:0.5346601 
3.659916018746106 1:0.62446463 2:0.51312113 3:0.64681083 4:0.33725682 5:0.60873258 6:0.57361364 7:0.77476984 8:0.53343558 9:0.35331592 10:0.85549068 11:0.60337824 12:0.45798334 13:0.3117941 14:0.57131845 15:0.43690336 16:0.38515434 17:0.27145058 18:0.42027622 19:0.41064313 20:0.53535825 21:0.56619543 22:0.57061148 23:0.36465302 24:0.46710598 25:0.28648642 26:0.5266782 27:0.40204346 28:0.39926526 29:0.26368758 30:0.40477291 31:0.4463436 32:0.35482332 33:0.570548 34:0.75321096 35:0.48989189 36:0.96294081 37:0.43645164 38:0.11346776 39:0.57661146 40:0.53487128 41:0.15820271 42:0.73223513 43:0.70089513 44:0.94559228 45:0.47293907 46:0.45412806 47:0.62708032 48:0.63281721 49:0.11253378 50:0.40988007 51:0.81340337 52:0.60159832 53:0.56935006 54:0.62987 55:0.52611631 56:0.65091032 
0.09320488386462733 1:0.39109224 2:0.43321839 3:0.52128977 4:0.48535559 5:0.62625802 6:0.62011796 7:0.60249317 8:0.42377585 9:0.53746736 10:0.40639552 11:0.86834985 12:0.45692626 13:0.16310799 14:0.64491761 15:0.35580567 16:0.63068688 17:0.57773709 18:0.36744577 19:0.3565205 20:0.39128494 21:0.28212312 22:0.33672237 23:0.26526648 24:0.4595705 25:0.53642583 26:0.66565138 27:0.3509239 28:0.54386085 29:0.18709391 30:0.37182578 31:0.25358695 32:0.64447534 33:0.65193158 34:0.83789706 35:0.60179365 36:0.4801774 37:0.65363669 38:0.38017735 39:0.60050315 40:0.1196149 41:0.29117823 42:0.7395727 43:0.79289091 44:0.70525795 45:0.2836498 46:0.51397961 47:0.66022497 48:0.75482494 49:0.32844338 50:0.50312012 51:0.76022303 52:0.86134374 53:0.41408357 54:0.29190242 55:0.64093435 56:0.51671296 
0.06099599043421226 1:0.58407408 2:0.72703212 3:0.47566995 4:0.3095963 5:0.91406572 6:0.68764502 7:0.39601415 8:0.49337161 9:0.34946701 10:0.65499234 11:0.40323725 12:0.62783957 13:0.03731861 14:0.68980765 15:0.63333958 16:0.70415968 17:0.54070747 18:0.53024185 19:0.18408395 20:0.62421441 21:0.67618787 22:0.33343259 23:0.50362837 24:0.25527626 25:0.62807316 26:0.93634403 27:0.65480667 28:0.52108979 29:0.50123346 30:0.48793331 31:0.51322246 32:0.65836209 33:0.36005053 34:0.70259082 35:0.6002019 36:0.24596806 37:0.50281721 38:0.60967916 39:0.53918028 40:0.42482823 41:0.53930676 42:0.41400763 43:0.89302593 44:0.54449505 45:0.56411612 46:0.61718762 47:0.54446727 48:0.81200731 49:0.37964594 50:0.23720463 51:0.64370638 52:0.49879903 53:0.50480068 54:0.13652664 55:0.65042019 56:0.46506116 
0.06642848354219698 1:0.83884382 2:0.52485317 3:0.38526148 4:0.34227011 5:0.44438261 6:0.43601638 7:0.63955075 8:0.45211199 9:0.55771166 10:0.99054694 11:0.37755403 12:0.43504214 13:0.53353143 14:0.56209451 15:0.40811121 16:0.28077126 17:0.39039403 18:0.074292682 19:0.38525254 20:0.44065931 21:0.19722173 22:0.38938603 23:0.31587681 24:0.40583163 25:0.36082074 26:0.45433995 27:0.49903449 28:0.44642383 29:0.23370999 30:0.66254061 31:0.3565115 32:0.53090066 33:0.57699454 34:0.37017864 35:0.73098487 36:0.24943238 37:0.40801334 38:0.54490495 39:0.26454359 40:0.50946063 41:0.21139672 42:0.56004786 43:0.4443953 44:0.26900375 45:0.78812581 46:0.67678702 47:0.54197478 48:0.62812072 49:0.30137497 50:0.26408404 51:0.35518363 52:0.60557467 53:0.39847013 54:0.25503391 55:0.59128642 56:0.54215729 
0.8526863049450638 1:0.36511177 2:0.62617099 3:0.59708321 4:0.40725741 5:0.82509792 6:0.5793649 7:0.32662392 8:0.61024773 9:0.16871795 10:0.70099628 11:0.73799407 12:0.52757108 13:0.24637255 14:0.62830544 15:0.40825209 16:0.45027554 17:0.55317068 18:0.74152792 19:0.56785727 20:0.15424542 21:0.37678513 22:0.46338457 23:0.43364844 24:0.69166076 25:0.38909644 26:1 27:0.40696886 28:0.46057147 29:0.46356764 30:0.84125322 31:0.29537287 32:0.60696977 33:0.66083866 34:0.36089012 35:0.5285632 36:0.55728263 37:0.40927789 38:0.96513343 39:0.273431 40:0.45471376 41:0.3967168 42:0.12564117 43:0.66689056 44:0.62946415 45:0.60920817 46:0.60515112 47:0.38017634 48:0.5276475 49:0.44663766 50:0.069247231 51:0.56100762 52:0.60039937 53:0.28651625 54:0.3623473 55:0.70108718 56:0.4832741 
1.607162428814551 1:0.19711997 2:0.52859831 3:0.48605195 4:0.46125248 5:0.56932473 6:0.51181263 7:0.63805169 8:0.67774087 9:0.52713376 10:0.69949812 11:0.75059301 12:0.70219922 13:0.70301795 14:0.50275403 15:0.49076083 16:0.56151813 17:0.40525275 18:0.54850513 19:0.55546254 20:0.71805084 21:0.60186779 22:0.38373837 23:0.73228127 24:0.49358439 25:0.58011454 26:0.5179171 27:0.68800217 28:0.34834674 29:0.19428766 30:0.53304684 31:0.43926913 32:0.70571184 33:0.66141027 34:0.21954779 35:0.63004482 36:0.5173322 37:0.36937723 38:0.81571835 39:0.36608592 40:0.41562828 41:0.54366064 42:0.27469841 43:0.81263894 44:0.46987864 45:0.67085731 46:0.49930188 47:0.50369591 48:0.36652747 49:0.41940618 50:0.30625194 51:0.44424751 52:0.78755075 53:0.33767152 54:0.33491656 55:0.71043003 56:0.5442577 
1.051599926040914 1:0.3199985 2:0.49251992 3:0.68161219 4:0.96775532 5:0.42351887 6:0.44029188 7:0.69425768 8:0.40552551 9:0.5495863 10:0.81920195 11:0.36969787 12:0.46945912 13:0.34588826 14:0.3410129 15:0.66691691 16:0.39987063 17:0.66271681 18:0.85453153 19:0.46350557 20:0.56365943 21:0.26005718 22:0.35823715 23:0.75516427 24:0.20282537 25:0.1626469 26:0.6394642 27:0.29696447 28:0.51068878 29:0.66616607 30:0.70387429 31:0.25861338 32:0.53914338 33:0.46322015 34:0.75163352 35:0.58492619 36:0.21775854 37:0.30743352 38:0.51448971 39:0.68348688 40:0.78812277 41:0.15822631 42:0.50133461 43:0.60972917 44:0.3175185 45:0.70546383 46:0.54870087 47:0.5304516 48:0.73903507 49:0.3873378 50:0.17705123 51:0.57740587 52:0.47744021 53:0.3695403 54:0.23960581 55:0.64147085 56:0.50265002 
5.649566953661849 1:0.054219626 2:0.70758641 3:0.59877044 4:0.53148687 5:0.50290203 6:0.24647415 7:0.56472242 8:0.37898883 9:0.42584103 10:0.41585883 11:0.68948764 12:0.60257125 13:0.57242274 14:0.79584855 15:0.35167709 16:0.41374233 17:0.49324557 18:0.59353364 19:0.40076283 20:0.43957359 21:0.65056336 22:0.40660283 23:0.31768239 24:0.65283465 25:0.19497831 26:0.80335301 27:0.53617108 28:0.41444203 29:0.65456879 30:0.73648828 31:0.65818715 32:0.4340688 33:0.64017099 34:0.21696563 35:0.64668721 36:0.27702534 37:0.319096 38:0.32377726 39:0.3567203 40:0.38494951 41:0.41156849 42:0.44884869 43:0.64185631 44:0.54725075 45:0.68322873 46:0.50711799 47:0.85075635 48:0.70972037 49:0.50450456 50:0.14328551 51:0.2034388 52:0.27434215 53:0.44731486 54:0.36168423 55:0.63158941 56:0.48629281 
2.85782157899208 1:0.47945291 2:0.52217007 3:0.67865092 4:0.53022444 5:0.58407676 6:0.65796667 7:0.4941524 8:0.4778468 9:0.51384515 10:0.63353872 11:0.23366739 12:0.75980985 13:0.5857774 14:0.59086204 15:0.48842427 16:0.38409784 17:0.31724301 18:0.55699784 19:0.46177921 20:0.2790226 21:0.31406733 22:0.47326869 23:0.62429166 24:0.66233009 25:0.42032087 26:0.60954303 27:0.34911641 28:0.54871529 29:0.42814288 30:0.771249 31:0.39343381 32:0.72771645 33:0.78728563 34:0.26526871 35:0.48551995 36:0.44608611 37:0.57528001 38:0.7079407 39:0.47437832 40:0.52031022 41:0.004499448 42:0.50903201 43:0.39479542 44:0.28351805 45:0.79246652 46:0.74224681 47:0.4475418 48:0.63387364 49:0.3587867 50:0.29159328 51:0.60068494 52:0.64404613 53:0.4451392 54:0.35267267 55:0.57947403 56:0.50735462 
0.2240674480281467 1:0.25032771 2:0.26529449 3:0.81902826 4:0.41826558 5:0.56969815 6:0.56211483 7:0.35113734 8:0.1620661 9:0.44055009 10:0.79721022 11:0.54834712 12:0.46680477 13:0.6791802 14:0.5381155 15:0.69534057 16:0.48022237 17:0.60697436 18:0.58819652 19:0.39976424 20:0.51912189 21:0.64667922 22:0.55299115 23:0.2705597 24:0.67564303 25:0.58956742 26:0.55770701 27:0.41591859 28:0.2106338 29:0.32217076 30:0.3935746 31:0.25280178 32:0.52124095 33:0.71602714 34:0.55561131 35:0.61777544 36:0.70273608 37:0.17858282 38:0.62247288 39:0.69086939 40:0.58301246 41:0.55928022 42:0.7866351 43:0.9289183 44:0.40731198 45:0.32212582 46:0.5758307 47:0.68357921 48:0.26259452 49:0.37808993 50:0.44292256 51:0.81214857 52:0.25675249 53:0.3960616 54:0.26103249 55:0.71157986 56:0.60687989 
0.8725907964992718 1:0.39020178 2:0.034234703 3:0.31537691 4:0.48653656 5:0.69101959 6:0.072265469 7:0.35026518 8:0.41812438 9:0.80514234 10:0.59156311 11:0.70701474 12:0.84189558 13:0.35214865 14:0.76211041 15:0.055637531 16:0.6908502 17:0.75347924 18:0.87862402 19:0.92214799 20:1 21:0.41969049 22:0.365163 23:0.5486849 24:0.43954656 25:0.3709152 26:0.94003975 27:0.52560562 28:0.59195292 29:0.51452667 30:0.49758595 31:0.41633302 32:0.49522078 33:0.4631055 34:0.46939415 35:0.65443075 36:0.70182949 37:0.39478472 38:0.54014677 39:0.61773485 40:0.23475759 41:0.33986786 42:0.37420353 43:0.58048022 44:0.36580825 45:0.6258164 46:0.50037295 47:0.50624061 48:0.53698498 49:0.56751996 50:0.27168342 51:0.44272292 52:0.69404626 53:0.35998937 54:0.44485185 55:0.89976007 56:0.64551556 
1.145509727872501 1:0.28180495 2:0.65607131 3:0.49652311 4:0.61306643 5:0.5970735 6:0.34652233 7:0.56757498 8:0.60336292 9:0.096352234 10:0.65906543 11:0.61852038 12:0.24926557 13:0.61326182 14:0.3379136 15:0.41062379 16:0.29890478 17:0.55458617 18:0.45189178 19:0.14462833 20:0.64144164 21:0.52745181 22:0.45224941 23:0.46438664 24:0.30035082 25:0.36533043 26:0.53793555 27:0.6365816 28:0.34375784 29:0.43494648 30:0.12859334 31:0.58021313 32:0.041148666 33:0.5259769 34:0.28868815 35:0.7572028 36:0.28205398 37:0.56410873 38:0.11489315 39:0.62505871 40:0.61713576 41:0.7174468 42:0.81207502 43:0.87437707 44:0.59554183 45:0.55042195 46:0.38818452 47:0.6541754 48:0.81692874 49:0.38418552 50:0.79747188 51:0.43998471 52:0.59152931 53:0.30482325 54:0.54320717 55:0.81357849 56:0.79037923 
2.511541176171573 1:0.78612828 2:0.57155555 3:0.86918181 4:0.41651088 5:0.20128354 6:0.8376708 7:0.53854555 8:0.60009956 9:0.78053403 10:0.76046395 11:0.51182729 12:0.57636362 13:0.38565889 14:0.38915738 15:0.25230056 16:0.40303567 17:0.24868315 18:0.27370512 19:0.49449506 20:0.4915899 21:0.86706316 22:0.15077479 23:0.45109808 24:0.71346647 25:0.35882613 26:0.75856715 27:0.38010645 28:0.60886812 29:0.35357872 30:0.83790362 31:0.54952431 32:0.13660398 33:0.80695873 34:0.67461699 35:0.56250262 36:0.35388884 37:0.046015687 38:0.72427303 39:0.28045338 40:0.42337829 41:0.35096097 42:0.49761999 43:0.53202736 44:0.59307092 45:0.6049065 46:0.64954609 47:0.48792836 48:0.75708127 49:0.25677782 50:0.34331 51:0.24562374 52:0.69200373 53:0.2687481 54:0.52349347 55:0.40016785 56:0.56967878 
3.600958924767121 1:0.6663087 2:0.65311378 3:0.59154916 4:0.72329003 5:0.54384023 6:0.71622056 7:0.51328194 8:0.3484363 9:0.45055822 10:0.47966158 11:0.53936905 12:0.53485775 13:0.62112451 14:0.34577727 15:0.31362808 16:0.48175523 17:0.41243562 18:0.41896209 19:0.36476871 20:0.31484687 21:0.83492935 22:0.4007273 23:0.6084584 24:0.20897137 25:0.41661641 26:0.90871286 27:0.56455147 28:0.66587228 29:0.46795848 30:0.63278395 31:0.62573361 32:0.3554627 33:0.99331254 34:0.73108459 35:0.50341743 36:0.087089956 37:0.23764484 38:0.51339018 39:0.34945425 40:0.39628819 41:0.25337669 42:0.19576378 43:0.56746775 44:0.60404354 45:0.46945235 46:0.53619701 47:0.69462109 48:0.53727788 49:0.42327395 50:0.21756297 51:0.39060843 52:0.57259905 53:0.28116098 54:0.39518997 55:0.39901859 56:0.4098348 
0.6806341314994921 1:0.82204002 2:0.48889849 3:0.70834571 4:0.35308588 5:0.38745189 6:0.67863524 7:0.59363407 8:0.2983146 9:0.40053478 10:0.71724868 11:0.41896477 12:0.35725436 13:0.39053175 14:0.40937471 15:0.10551812 16:0.55072153 17:0.33581111 18:0.46669185 19:0.72270739 20:0.40068328 21:0.89474654 22:0.2013559 23:0.37304518 24:0.30774441 25:0.27251956 26:0.80515194 27:0.32396621 28:0.70533985 29:0.55259633 30:0.47856003 31:0.60066956 32:0.70483148 33:0.86183482 34:0.86166787 35:0.55565506 36:0.33055839 37:0.33311352 38:0.73824221 39:0.25981361 40:0.48490292 41:0.24187596 42:0.052761201 43:0.67709094 44:0.63883775 45:0.4658742 46:0.52568477 47:0.5941326 48:0.84603876 49:0.29023355 50:0.37285203 51:0.48002678 52:0.59162039 53:0.30206615 54:0.33485699 55:0.38776547 56:0.49470049 
3.635429958284506 1:0.42302698 2:0.34202972 3:0.4393287 4:0.51953149 5:0.2878046 6:0.62871093 7:0.76319408 8:0.39431354 9:0.70321339 10:0.39403948 11:0.54044831 12:0.46132791 13:0.31891885 14:0.3751055 15:0.54461557 16:0.43348932 17:0.46263862 18:0.18683936 19:0.25236243 20:0.45191097 21:0.71982318 22:0.23813072 23:0.44681761 24:0.70613122 25:0.35131446 26:0.54682839 27:0.63147384 28:0.66196734 29:0.31609026 30:0.84219247 31:0.6384365 32:0.061012406 33:0.59895647 34:0.55456769 35:0.49544677 36:0.27828366 37:0.13443667 38:0.37553748 39:0.4975993 40:0.452353 41:0.16299804 42:0.37450543 43:0.42042154 44:0.47919956 45:0.76298279 46:0.57238662 47:0.3972747 48:0.73553568 49:0.23071833 50:0.27377206 51:0.40636572 52:0.701213 53:0.4049004 54:0.48484948 55:0.65864795 56:0.51123035 
2.109404390549866 1:0.64786047 2:0.38911194 3:0.46118939 4:0.51571405 5:0.60982728 6:0.4032912 7:0.46111491 8:0.65637434 9:0.49021044 10:0.51160431 11:0.78615737 12:0.37735027 13:0.52823442 14:0.7047199 15:0.69395 16:0.31155974 17:0.82201231 18:0.75513679 19:0.28133038 20:0.60052931 21:0.4527787 22:0.52753162 23:0.33945554 24:0.5164305 25:0.42195421 26:0.78013867 27:0.65564889 28:0.38403264 29:0.69662434 30:0.56498522 31:0.68097675 32:0.37609899 33:0.46958157 34:0.62418848 35:0.77159101 36:0.45563188 37:0.59332055 38:0.41068676 39:0.68074447 40:0.47563037 41:0.94062096 42:0.68247503 43:0.45067343 44:0.48203149 45:0.54586744 46:0.76564872 47:0.58135659 48:0.65094906 49:0.19924933 50:0.2623696 51:0.35397926 52:0.59806067 53:0.5294553 54:0.39461237 55:0.99623412 56:0.6250571 
3.958547585176885 1:0.9498018 2:0.47102481 3:0.40529388 4:0.76434064 5:0.68205988 6:0.59282035 7:0.45428836 8:0.4171353 9:0.72635877 10:0.51598239 11:0.76356995 12:0.68776637 13:0.32614565 14:0.22806159 15:0.35368642 16:0.5417313 17:0.088744678 18:0.65166134 19:0.15199031 20:0.47823113 21:0.35980493 22:0.3230637 23:0.62078267 24:0.47797108 25:0.66577256 26:0.55442548 27:0.76333129 28:0.59259766 29:0.3993375 30:0.6965434 31:0.8023172 32:0.38868505 33:0.4747164 34:0.77774131 35:0.53817677 36:0.13961564 37:0.49334064 38:0.80009067 39:0.56553268 40:0.63440663 41:0.58234543 42:0.48672178 43:0.93366718 44:0.81652766 45:0.68231064 46:0.70872748 47:0.57339519 48:0.62392277 49:0.34042296 50:0.54035228 51:0.78523844 52:0.2569963 53:0.52879572 54:0.66668648 55:0.70379597 56:0.58870161 
2.974932532839845 1:0.45664474 2:0.58230138 3:0.65571374 4:0.45405445 5:0.59111029 6:0.40782958 7:0.32036793 8:0.4213677 9:0.54878509 10:0.83174467 11:0.56692296 12:0.48200127 13:0.21615314 14:0.64626324 15:0.40247887 16:0.29634693 17:0.57087886 18:0.6214605 19:0.32918715 20:0.58812791 21:0.81440371 22:0.53061634 23:0.53184378 24:0.39722216 25:0.35309318 26:0.5696345 27:0.37959152 28:0.67311078 29:0.86630148 30:0.6390329 31:0.48451617 32:0.84916538 33:0.46228215 34:0.38755053 35:0.63029516 36:0.40151072 37:0.53982472 38:0.26097554 39:0.22684668 40:0.37261069 41:0.52758259 42:0.78106904 43:0.38122585 44:0.71842653 45:0.39065894 46:0.69945133 47:0.48493615 48:0.41787025 49:0.75805962 50:0.41811296 51:0.71381152 52:0.20225342 53:0.22041368 54:0.59410131 55:0.46104687 56:0.58701235 
0.3667914059671166 1:0.63589317 2:0.28185189 3:0.56792694 4:0.55823797 5:0.68320614 6:0.36456627 7:0.44073707 8:0.54924774 9:0.64888388 10:0.5703035 11:0.23113003 12:0.3069503 13:0.2870371 14:0.56359524 15:0.30501163 16:0.59645748 17:0.41473132 18:0.3950198 19:0.28554276 20:0.57524145 21:0.26238289 22:0.18519084 23:0.59744126 24:0.37206194 25:0.40670356 26:0.73138684 27:0.41087115 28:0.87052983 29:0.94233346 30:0.57368624 31:0.28201064 32:0.51806891 33:0.084746256 34:0.56671441 35:0.74936301 36:0.42545345 37:0.47768414 38:0.12507418 39:0.64148641 40:0.37116143 41:0.25618681 42:0.43957078 43:0.20865448 44:0.5932321 45:0.40746245 46:0.62520027 47:0.45466492 48:0.42031008 49:0.41096693 50:0.53939682 51:0.52265823 52:0.77562022 53:0.17000991 54:0.52981591 55:0.43813619 56:0.60876989 
3.107108599277513 1:0.41680181 2:0.82798797 3:0.54799563 4:0.31651944 5:0.61580515 6:0.28216502 7:0.42086905 8:0.4560447 9:0.55921924 10:0.89513421 11:0.82753503 12:0.43781757 13:0.30213472 14:0.71945405 15:0.45124471 16:0.51290542 17:0.57150215 18:0.56514847 19:0.5592491 20:0.088872559 21:0.84768474 22:0.41777933 23:0.59794211 24:0.33800694 25:0.43351811 26:0.50312519 27:0.42064002 28:0.58224398 29:0.49204838 30:0.61923802 31:0.41100416 32:0.56256086 33:0.6770615 34:0.64362228 35:0.65594405 36:0.53493667 37:0.50051433 38:0.63724196 39:0.41365069 40:0.55452961 41:0.70548499 42:0.35564581 43:0.67792612 44:0.81741011 45:0.28162858 46:0.6622808 47:0.34931326 48:0.34021616 49:0.44929686 50:0.27454123 51:0.39887848 52:0.46711546 53:0.1634699 54:0.58615124 55:0.47499314 56:0.60526621 
0.9662379554970675 1:0.40216658 2:1 3:0.44205752 4:0.61797905 5:0.60558558 6:0.51056391 7:0.37336338 8:0.52078056 9:0.55271292 10:0.47726431 11:0.35213414 12:0.59412795 13:0.72500443 14:0.21974638 15:0.65570372 16:0.64600778 17:0.35052118 18:0.46701902 19:0.54315114 20:0.58794463 21:0.4614372 22:0.3094728 23:0.43239599 24:0.60590351 25:0.77322125 26:0.69194806 27:0.60478067 28:0.54488462 29:0.11954656 30:0.60379153 31:0.29055202 32:0.52032864 33:0.61412364 34:0.40601531 35:0.92241728 36:0.48197246 37:0.32685739 38:0.30189446 39:0.51024568 40:0.49163026 41:0.46934125 42:0.10692419 43:0.57669032 44:0.78383142 45:0.3597708 46:0.60633487 47:0.30850115 48:0.33200285 49:0.27086768 50:0.64705485 51:0.63121355 52:0.67134577 53:0.19337253 54:0.6542148 55:0.48980972 56:0.68572503 
3.513808838012979 1:0.69398379 2:0.44618613 3:0.67051357 4:0.6395613 5:0.88673544 6:0.33595508 7:0.67747569 8:0.17756177 9:0.64011747 10:0.32112497 11:0.88228256 12:0.64885998 13:0.24779741 14:0.58861893 15:0.38697851 16:0.18245706 17:0.55734468 18:0.3841027 19:0.62409788 20:0.29929587 21:0.54761028 22:0.64311552 23:0.25427023 24:0.28055045 25:0.39210388 26:0.67074305 27:0.54554975 28:0.37106976 29:0.68829638 30:0.66483915 31:0.43433878 32:0.34496069 33:0.56132215 34:0.67547458 35:0.52579415 36:0.52665067 37:0.17753494 38:0.46265256 39:0.73063785 40:0.26240915 41:0.44116917 42:0.63656771 43:0.64049077 44:0.35804942 45:0.50081652 46:0.74798769 47:0.45262042 48:0.4296928 49:0.82127351 50:0.63792348 51:0.69761884 52:0.59099352 53:0.19262269 54:0.70426768 55:0.41341594 56:0.62901151 
0.9103193893164813 1:0.22889097 2:0.37397572 3:0.67563331 4:0.55343342 5:0.59598732 6:0.33516935 7:0.74031502 8:0.24613371 9:0.5422101 10:0.51644188 11:1 12:0.68455106 13:0.4338218 14:0.35369626 15:0.48355383 16:0.55763835 17:0.38328061 18:0.61211008 19:0.67073762 20:0.42969739 21:0.47741252 22:0.27426335 23:0.28606415 24:0.49988192 25:0.50146568 26:0.52401251 27:0.35205832 28:0.48329061 29:0.68203139 30:0.6567691 31:0.4469983 32:0.3667599 33:0.61695182 34:0.69391268 35:0.59110075 36:0.49539131 37:0.32608017 38:0.2988078 39:0.59378082 40:0.34762412 41:0.47591525 42:0.7217983 43:0.49126771 44:0.29179668 45:0.62055349 46:0.73767143 47:0.54812574 48:0.38906202 49:0.57496142 50:0.58535552 51:0.72063386 52:0.3815867 53:0.37663522 54:0.79103732 55:0.53696442 56:0.69174963 
2.826003145737137 1:0.22297378 2:0.36241588 3:0.27915195 4:0.44247136 5:0.50193077 6:0.59880406 7:0.41884404 8:0.61548108 9:0.78406477 10:0.64021552 11:0.47509181 12:0.79705781 13:0.2782416 14:0.32865408 15:0.22224252 16:0.32396069 17:0.39638159 18:0.15879804 19:0.38169497 20:0.41951799 21:0.60395736 22:0.58011454 23:0.3522 24:0.63506061 25:0.27132443 26:0.17567304 27:0.34872302 28:0.2432089 29:0.28500915 30:0.79285729 31:0.81885326 32:0.57254261 33:0.48882994 34:0.54788184 35:0.59219277 36:0.3620376 37:0.23141211 38:0.57292193 39:0.52735978 40:0.32431123 41:0.37442288 42:0.90111023 43:0.7846418 44:0.3692432 45:0.22020623 46:0.82882577 47:0.28524825 48:0.59908444 49:0.59788764 50:0.41733643 51:0.50315416 52:0.36724097 53:0.31803712 54:0.38051826 55:0.57983398 56:0.64790887 
4.415805354914856 1:0.35195231 2:0.38778237 3:0.36759776 4:0.29515228 5:0.61482555 6:0.10009933 7:0.27938074 8:0.80089134 9:0.19002001 10:0.8522839 11:0.6117416 12:0.25146914 13:0.27882183 14:0.88730496 15:0.50416255 16:0.54070336 17:0.25484255 18:0.49243474 19:0.49533081 20:0.2999481 21:0.49437115 22:0.47369525 23:0.37554175 24:0.37389991 25:0.57628685 26:0.31553447 27:0.47773999 28:0.75570732 29:0.39176178 30:0.30059132 31:0.39744857 32:0.67350101 33:0.54377079 34:0.48970518 35:0.37102318 36:0.6569531 37:0.45975012 38:0.4776541 39:0.48978671 40:0.42415628 41:0.30294052 42:0.31322643 43:0.50269097 44:0.55687648 45:0.30110645 46:0.77215338 47:0.32213032 48:0.25254878 49:0.6070075 50:0.44982859 51:0.48556927 52:0.54678369 53:0.21963291 54:0.57779819 55:0.4931615 56:0.68634439 
0.1488410662714884 1:0.43180755 2:0.011389858 3:0.053318534 4:0.20419079 5:0.58628839 6:0.44631654 7:0.66908437 8:0.50386697 9:0.87131852 10:0.74258536 11:0.52110261 12:0.31453761 13:0.73277569 14:0.48220354 15:0.28273457 16:0.31089488 17:0.60206038 18:0.35502085 19:0.45410636 20:0.16597213 21:0.37319788 22:1 23:0.26301706 24:0.62081641 25:0.17460668 26:0.81275046 27:0.40733868 28:0.4980168 29:0.4809508 30:0.59529811 31:0.2246149 32:0.1602674 33:0.55440056 34:0.53209615 35:0.80876166 36:0.26955056 37:0.56635904 38:0.29888043 39:0.38936955 40:0.78101027 41:0.55990082 42:0.50911093 43:0.60118914 44:0.34980872 45:0.82290655 46:0.37734482 47:0.60787761 48:0.82694668 49:0.35527271 50:0.65537697 51:0.4302716 52:0.63874578 53:0.50641662 54:0.48248425 55:0.78101474 56:0.79263204 
5.078916406923418 1:0.37304103 2:0.71385878 3:0.59726596 4:0.33184901 5:0.53276259 6:0.29423782 7:0.53013641 8:0.17609544 9:0.33976731 10:0.41878042 11:0.51142758 12:0.31612313 13:0.42928451 14:0.22299667 15:0.74366462 16:0.66126496 17:0.2755287 18:0.29822448 19:0.74567819 20:0.18106675 21:0.54174536 22:0.1867626 23:0.61755675 24:0.44405448 25:0.63091034 26:0.57448411 27:0.46472934 28:0.7664637 29:0.27689135 30:0.76386863 31:0.17942348 32:0.43386951 33:0.58039135 34:0.43452665 35:0.75606072 36:0.56829846 37:0.62865859 38:0.19053046 39:0.62795901 40:0.57014269 41:0.128583 42:0.5601421 43:0.15863873 44:0.72634161 45:0.22414242 46:0.56660342 47:0.64086616 48:0.43371484 49:0.48585004 50:0.61609387 51:0.59067321 52:0.57928687 53:0.34327376 54:0.60145175 55:0.63023704 56:0.64794236 
0.49915947527481 1:0.46474409 2:0.77450013 3:0.47107923 4:0.39864841 5:0.29223457 6:0.29201522 7:0.27016166 8:0.53812146 9:0.63683981 10:0.63661039 11:0.40420005 12:0.63050354 13:0.50172049 14:0.44827813 15:0.77656502 16:0.72975099 17:0.30638942 18:0.43446064 19:0.39961407 20:0.4133991 21:0.59285462 22:0.21291588 23:0.75022084 24:0.79584402 25:0.503694 26:0.61700714 27:0.18817751 28:0.68638599 29:0.533764 30:0.79613411 31:0.21133581 32:0.56297767 33:0.56640804 34:0.51550883 35:0.72795218 36:0.49303976 37:0.38475367 38:0.31699166 39:0.61065465 40:0.65757656 41:0.14975822 42:0.40981171 43:7.2427405e-17 44:0.64895672 45:0.088218562 46:0.58266449 47:0.57942569 48:0.36049572 49:0.45802101 50:0.62664288 51:0.63482648 52:0.59778833 53:0.30783996 54:0.61170048 55:0.50453752 56:0.66287184 
1.207192146222404 1:0.33746189 2:0.52451938 3:0.49378306 4:0.42399937 5:0.51145053 6:0.56106782 7:0.70393968 8:0.4583762 9:0.40244797 10:0.90060169 11:0.65026253 12:0.40020087 13:0.2425606 14:0.33479539 15:0.66449499 16:0.67683816 17:0.3909305 18:0.47673056 19:0.43220043 20:0.39287835 21:0.73407793 22:0.26104382 23:0.4818202 24:0.50193942 25:0.68094498 26:0.49437687 27:0.45486474 28:0.53748554 29:0.37316808 30:0.28615493 31:0.65408868 32:0.8629784 33:0.31471941 34:0.74333441 35:0.65986532 36:0.59043777 37:0.36201996 38:0.44390082 39:0.58390343 40:0.7738561 41:0.49610656 42:0.55783629 43:0.61870462 44:0.4143168 45:0.60399431 46:0.96871805 47:0.46819302 48:0.51330495 49:0.50598776 50:0.47575462 51:0.41797349 52:0.38525039 53:0.39226437 54:0.45917931 55:0.52518344 56:0.7666384 
-0.001259604284595505 1:0.59842134 2:0.30073601 3:0.18943323 4:0.55257356 5:0.40048227 6:0.44286948 7:0.49650303 8:0.45364329 9:0.44445127 10:0.37176588 11:0.73671621 12:0.63207865 13:0.30965826 14:0.11671767 15:0.5331344 16:1 17:0.66211855 18:0.24139346 19:0.53058732 20:0.42177039 21:0.53361565 22:0.15002136 23:0.49554008 24:0.61442482 25:0.36198938 26:0.72564524 27:0.023094701 28:0.46247491 29:0.49395475 30:0.56313467 31:0.24529956 32:0.2360681 33:0.92593622 34:0.12138256 35:0.87109286 36:0.42569911 37:0.43632168 38:0.51680732 39:0.58374316 40:0.34333912 41:0.54934335 42:0.1129401 43:0.68944705 44:0.70044827 45:0.30390063 46:0.76636732 47:0.52645439 48:0.97705424 49:0.60626161 50:0.50570613 51:0.88103104 52:0.094683103 53:0.42026752 54:0.96131796 55:0.84240246 56:0.40085581 
-2.230608006092926 1:0.59842134 2:0.30073601 3:0.18943323 4:0.55257356 5:0.40048227 6:0.44286948 7:0.49650303 8:0.45364329 9:0.44445127 10:0.37176588 11:0.73671621 12:0.63207865 13:0.30965826 14:0.11671767 15:0.5331344 16:1 17:0.66211855 18:0.24139346 19:0.53058732 20:0.42177039 21:0.53361565 22:0.15002136 23:0.49554008 24:0.61442482 25:0.36198938 26:0.72564524 27:0.023094701 28:0.46247491 29:0.49395475 30:0.56313467 31:0.24529956 32:0.2360681 33:0.92593622 34:0.12138256 35:0.87109286 36:0.42569911 37:0.43632168 38:0.51680732 39:0.58374316 40:0.34333912 41:0.54934335 42:0.1129401 43:0.68944705 44:0.70044827 45:0.30390063 46:0.76636732 47:0.52645439 48:0.97705424 49:0.60626161 50:0.50570613 51:0.88103104 52:0.094683103 53:0.42026752 54:0.96131796 55:0.84240246 56:0.40085581 
-0.002055233722814324 1:0.30624646 2:0.30748531 3:0.50187427 4:0.63481045 5:0.5351373 6:0.49195701 7:0.47308895 8:0.55208051 9:0.58180964 10:0.78478867 11:0.50946289 12:0.69211477 13:0.40291056 14:0.46370092 15:0.18799317 16:0.73434085 17:0.31157589 18:0.20170198 19:0.4570075 20:0.42368054 21:0.38120779 22:0.73562062 23:0.50154895 24:0.40250355 25:0.69023055 26:0.26677865 27:0.51780587 28:0.55310911 29:0.87479371 30:0.28004315 31:0.36260316 32:0.66585839 33:0.97581553 34:0.83513194 35:0.62557089 36:0.21683677 37:0.2148989 38:0.46102291 39:0.58751106 40:0.19346426 41:0.64174598 42:0.38920358 43:0.15057771 44:0.39107376 45:0.7036435 46:0.63048011 47:0.55659217 48:0.70190871 49:0.31514445 50:0.18517247 51:0.46377644 52:0.59198505 53:0.40062547 54:0.70950133 55:0.77870578 56:0.2327517 
-2.530993431731574 1:0.30624646 2:0.30748531 3:0.50187427 4:0.63481045 5:0.5351373 6:0.49195701 7:0.47308895 8:0.55208051 9:0.58180964 10:0.78478867 11:0.50946289 12:0.69211477 13:0.40291056 14:0.46370092 15:0.18799317 16:0.73434085 17:0.31157589 18:0.20170198 19:0.4570075 20:0.42368054 21:0.38120779 22:0.73562062 23:0.50154895 24:0.40250355 25:0.69023055 26:0.26677865 27:0.51780587 28:0.55310911 29:0.87479371 30:0.28004315 31:0.36260316 32:0.66585839 33:0.97581553 34:0.83513194 35:0.62557089 36:0.21683677 37:0.2148989 38:0.46102291 39:0.58751106 40:0.19346426 41:0.64174598 42:0.38920358 43:0.15057771 44:0.39107376 45:0.7036435 46:0.63048011 47:0.55659217 48:0.70190871 49:0.31514445 50:0.18517247 51:0.46377644 52:0.59198505 53:0.40062547 54:0.70950133 55:0.77870578 56:0.2327517 
-0.1703697917083919 1:0.3008697 2:0.29942331 3:0.59794313 4:0.53157991 5:0.63473582 6:0.38244411 7:0.59548891 8:0.66934913 9:1 10:0.84379041 11:0.99593019 12:0.56988865 13:0.22491461 14:0.5304718 15:0.39805573 16:0.59080571 17:0.45299152 18:0.55931997 19:0.58674502 20:0 21:0.5958612 22:0.39807138 23:0.4454996 24:0.90540612 25:0.4391436 26:0.37707987 27:0.43048015 28:0.44238871 29:0.62445408 30:0.76894331 31:0.62645054 32:0.78191817 33:0.68127298 34:0.083695129 35:0.63676894 36:0.84263211 37:0.27525234 38:0.51206011 39:0.89292455 40:0.92321587 41:0.48369297 42:0.077928782 43:0.70109266 44:0.32755578 45:0.36562264 46:0.31307876 47:0.66240257 48:1 49:0.43936259 50:0.7533682 51:0.32705843 52:0.33479747 53:0.46990162 54:0.61513728 55:0.88671386 56:0.3933067 
-2.084235664082073 1:0.6784305 2:0.77993453 3:0.49377042 4:0.33519566 5:0.51495129 6:0.63975495 7:0.37994418 8:0.39070705 9:0.44645011 10:0.40247968 11:0.40521088 12:0.43918189 13:0.27258611 14:0.74810171 15:0.46367666 16:0.53021032 17:0.70885974 18:0.5817399 19:0.57713097 20:0.64305532 21:0.60168338 22:0.65434659 23:0.64638561 24:0.57981151 25:0.58811718 26:0.53462762 27:0.4175562 28:0.34136522 29:0.18799694 30:0.57995558 31:0.20882833 32:0.53433901 33:0.60659969 34:0.41097718 35:0.29084679 36:0.52691579 37:0.28672424 38:0.62456733 39:0.35082763 40:0.66100687 41:0.72526193 42:0.12678631 43:0.21983674 44:0.68816954 45:0.57952029 46:0.59969604 47:0.45830426 48:0.86049432 49:0.58904982 50:0.4715701 51:0.76221895 52:0.29784864 53:0.42526612 54:1 55:0.68801242 56:0.39049742 
-0.0002196453412743693 1:0.45571929 2:0.34573001 3:0.77505046 4:0.54242128 5:0.46924207 6:0.50086987 7:0 8:0.59711933 9:0.70782375 10:0.72621334 11:0.55252099 12:0.54326642 13:0.60845429 14:0.38398072 15:0.37011638 16:0.40839797 17:0.16070729 18:0.49355078 19:0.48643181 20:0.43484843 21:0.24077971 22:0.34180412 23:0.4623501 24:0.51297307 25:1 26:0.36775586 27:0.5208227 28:0.83682489 29:0.51234341 30:0.5729847 31:0.6347788 32:0.29593292 33:0.14734863 34:0.29057759 35:0.23380381 36:1 37:0.50365216 38:0.60756916 39:0.58468187 40:0.48449063 41:0.64306492 42:0.30793199 43:0.75532347 44:0.45074481 45:0.5750218 46:0.58593589 47:0.49233335 48:0.95537281 49:0.52767354 50:0.57142329 51:0.72523171 52:0.33336854 53:0.48321158 54:0.72737575 55:0.74810046 56:0.34759617 
-0.1975650992998657 1:0.45571929 2:0.34573001 3:0.77505046 4:0.54242128 5:0.46924207 6:0.50086987 7:0 8:0.59711933 9:0.70782375 10:0.72621334 11:0.55252099 12:0.54326642 13:0.60845429 14:0.38398072 15:0.37011638 16:0.40839797 17:0.16070729 18:0.49355078 19:0.48643181 20:0.43484843 21:0.24077971 22:0.34180412 23:0.4623501 24:0.51297307 25:1 26:0.36775586 27:0.5208227 28:0.83682489 29:0.51234341 30:0.5729847 31:0.6347788 32:0.29593292 33:0.14734863 34:0.29057759 35:0.23380381 36:1 37:0.50365216 38:0.60756916 39:0.58468187 40:0.48449063 41:0.64306492 42:0.30793199 43:0.75532347 44:0.45074481 45:0.5750218 46:0.58593589 47:0.49233335 48:0.95537281 49:0.52767354 50:0.57142329 51:0.72523171 52:0.33336854 53:0.48321158 54:0.72737575 55:0.74810046 56:0.34759617 
-0.8383447129817558 1:0.53948718 2:0.47854105 3:0.46968505 4:0.44006816 5:0.47351429 6:0.13309056 7:0.54496467 8:0.65294659 9:0.82511961 10:0.56968433 11:0.50073022 12:0.58420402 13:0.6329298 14:0.26999763 15:0.28166491 16:0.60405284 17:0.56676167 18:0.26170331 19:0.35407165 20:0.38133368 21:0.45885018 22:0.52794731 23:0.57919675 24:0.29260641 25:0.34626076 26:0.76076043 27:0.52157581 28:0.60018194 29:0.37184516 30:0.58483732 31:0.6645509 32:0.512393 33:0.56406796 34:0.68043786 35:0.65587658 36:0.65515059 37:0.3078728 38:0.62166017 39:0.60817099 40:0.63383186 41:0.74335718 42:0.52610725 43:0.34136268 44:0.87924331 45:0.9909609 46:0.81191903 47:0.44888347 48:0.61487985 49:0.40462193 50:0.85293937 51:0.55876601 52:0.6117366 53:0.4287287 54:0.27141133 55:0.49792513 56:0.10953697 
-0.002875166016703545 1:0.53976518 2:0.57582808 3:0.59092361 4:0.38231832 5:0.4981105 6:0.34962153 7:0.77135289 8:0.81938523 9:0.2994996 10:0.90829748 11:0.56730425 12:0.36603358 13:0.11464672 14:0.47179714 15:0.37679464 16:0.32416865 17:0.5198459 18:0.55966836 19:0.6560055 20:0.49985036 21:0.49265251 22:0.2438686 23:0.4045831 24:0.23639424 25:0.23543663 26:0.72858268 27:0.38508633 28:0.70635176 29:0.62334889 30:0.60567176 31:0.51634365 32:0.62316179 33:0.54466707 34:0.45771194 35:0.54512346 36:0.55770338 37:0.35174829 38:0.73914361 39:0.68047452 40:0.61871272 41:0.64356107 42:0.44870386 43:0.37279674 44:0.90573102 45:0.93520635 46:0.80248177 47:0.39185312 48:0.6932556 49:0.34211662 50:0.77669525 51:0.54225796 52:0.59505421 53:0.36587507 54:0.34525281 55:0.4751187 56:0.12872411 
-1.13619664315401 1:0.53976518 2:0.57582808 3:0.59092361 4:0.38231832 5:0.4981105 6:0.34962153 7:0.77135289 8:0.81938523 9:0.2994996 10:0.90829748 11:0.56730425 12:0.36603358 13:0.11464672 14:0.47179714 15:0.37679464 16:0.32416865 17:0.5198459 18:0.55966836 19:0.6560055 20:0.49985036 21:0.49265251 22:0.2438686 23:0.4045831 24:0.23639424 25:0.23543663 26:0.72858268 27:0.38508633 28:0.70635176 29:0.62334889 30:0.60567176 31:0.51634365 32:0.62316179 33:0.54466707 34:0.45771194 35:0.54512346 36:0.55770338 37:0.35174829 38:0.73914361 39:0.68047452 40:0.61871272 41:0.64356107 42:0.44870386 43:0.37279674 44:0.90573102 45:0.93520635 46:0.80248177 47:0.39185312 48:0.6932556 49:0.34211662 50:0.77669525 51:0.54225796 52:0.59505421 53:0.36587507 54:0.34525281 55:0.4751187 56:0.12872411 
-0.002125135907469041 1:0.50976288 2:0.49317524 3:0.48672622 4:0.50331396 5:0.53019547 6:0.70985872 7:0.39821497 8:0.26030248 9:0.76321054 10:0.27762151 11:0.71009964 12:0.22508451 13:0.18655224 14:0.73586845 15:0.32551569 16:0.40213585 17:0.51920927 18:0.39617878 19:0.514377 20:0.39424995 21:0.59228313 22:0.86270171 23:0.42779678 24:0.72645986 25:0.64819849 26:0.80897075 27:0.32714817 28:0.42386165 29:0.50505233 30:0.40937039 31:0.57758373 32:0.41737711 33:0.48597205 34:0.45304397 35:0.62502819 36:0.53287196 37:0.47164232 38:0.17942211 39:0.52792734 40:0.72882789 41:0.25458422 42:0.39319354 43:0.40512189 44:0.66305047 45:0.57302946 46:0.53152418 47:0.48267752 48:0.35889596 49:0.60671568 50:0.4195191 51:0.52245569 52:0.47124255 53:0.42298993 54:0.044001024 55:0.61013854 56:0.064063407 
-3.952061599546835 1:0.50976288 2:0.49317524 3:0.48672622 4:0.50331396 5:0.53019547 6:0.70985872 7:0.39821497 8:0.26030248 9:0.76321054 10:0.27762151 11:0.71009964 12:0.22508451 13:0.18655224 14:0.73586845 15:0.32551569 16:0.40213585 17:0.51920927 18:0.39617878 19:0.514377 20:0.39424995 21:0.59228313 22:0.86270171 23:0.42779678 24:0.72645986 25:0.64819849 26:0.80897075 27:0.32714817 28:0.42386165 29:0.50505233 30:0.40937039 31:0.57758373 32:0.41737711 33:0.48597205 34:0.45304397 35:0.62502819 36:0.53287196 37:0.47164232 38:0.17942211 39:0.52792734 40:0.72882789 41:0.25458422 42:0.39319354 43:0.40512189 44:0.66305047 45:0.57302946 46:0.53152418 47:0.48267752 48:0.35889596 49:0.60671568 50:0.4195191 51:0.52245569 52:0.47124255 53:0.42298993 54:0.044001024 55:0.61013854 56:0.064063407 
-1.844327348937258 1:0.56071907 2:0.56104839 3:0.55502963 4:0.83233124 5:0.43599755 6:0.24250236 7:0.65681237 8:0.70949101 9:0.44230825 10:0.5017516 11:0.51752174 12:0.70241451 13:0.14285283 14:0.87188321 15:0.36752516 16:0.41087577 17:0.31931606 18:0.49133804 19:0.58068961 20:0.74148029 21:0.65380651 22:0.54889011 23:0.29490483 24:0.92217201 25:0.30888644 26:0.54105413 27:0.24842283 28:0.65438777 29:0.57358658 30:0.68332553 31:0.47315729 32:0.4425548 33:0.58590901 34:0.61001199 35:0.66682523 36:0.46008983 37:0.40720776 38:0.20112137 39:0.57455772 40:0.78658074 41:0.59132499 42:0.42979032 43:0.50711 44:0.3616994 45:0.64223087 46:0.27333024 47:0.53776658 48:0.36887097 49:0.69436473 50:0.4644334 51:0.49551094 52:0.49863738 53:0.42001885 54:0.091170236 55:0.6511538 56:0.021990312 
-0.0004031169184208576 1:0.30821237 2:0.75961298 3:0.75870436 4:0.41953844 5:0.46089536 6:0.35089055 7:0.55938059 8:0.45526114 9:0.65192997 10:0.41745663 11:0.36193946 12:0.53015947 13:0.68514347 14:0.17492267 15:0.42345935 16:0.49127209 17:0.23657757 18:0.30309701 19:0.46964592 20:0.70043838 21:0.60758114 22:0.47901219 23:0.67260915 24:0.88400173 25:0.59946525 26:0.57473367 27:0.46767259 28:0.57846117 29:0.43022886 30:0.58970129 31:0.27311721 32:0.39426935 33:0.40608364 34:0.93718702 35:0.51142287 36:0.43146431 37:0.34416553 38:0.46931529 39:0.57592684 40:0.68927228 41:0.7448312 42:0.40893781 43:0.69959921 44:0.42997366 45:0.41963351 46:0.44927523 47:0.44057706 48:0.59182847 49:0.59373164 50:0.62806386 51:0.59996217 52:0.45271674 53:0.41261744 54:0.042737901 55:0.69572276 56:0.042297702 
-0.541273196015122 1:0.30821237 2:0.75961298 3:0.75870436 4:0.41953844 5:0.46089536 6:0.35089055 7:0.55938059 8:0.45526114 9:0.65192997 10:0.41745663 11:0.36193946 12:0.53015947 13:0.68514347 14:0.17492267 15:0.42345935 16:0.49127209 17:0.23657757 18:0.30309701 19:0.46964592 20:0.70043838 21:0.60758114 22:0.47901219 23:0.67260915 24:0.88400173 25:0.59946525 26:0.57473367 27:0.46767259 28:0.57846117 29:0.43022886 30:0.58970129 31:0.27311721 32:0.39426935 33:0.40608364 34:0.93718702 35:0.51142287 36:0.43146431 37:0.34416553 38:0.46931529 39:0.57592684 40:0.68927228 41:0.7448312 42:0.40893781 43:0.69959921 44:0.42997366 45:0.41963351 46:0.44927523 47:0.44057706 48:0.59182847 49:0.59373164 50:0.62806386 51:0.59996217 52:0.45271674 53:0.41261744 54:0.042737901 55:0.69572276 56:0.042297702 
-8.976001064089526e-05 1:0.31359676 2:0.66017878 3:0.71914351 4:0.60028714 5:0.50972331 6:0.35934579 7:0.7564913 8:0.75735527 9:0.52088082 10:0.71687627 11:0.66804028 12:0.48484668 13:0.63301539 14:0.62455529 15:0.23544937 16:0.32714757 17:0.27582532 18:0.62152004 19:0.30385509 20:0.2497284 21:0.44646654 22:0.56990498 23:0.42766106 24:0.71187419 25:0.39551333 26:0.56309813 27:0.83596498 28:0.25311917 29:0.26605105 30:0.64819866 31:0.29707268 32:0.12298822 33:0.94583392 34:0.48918781 35:0.71008527 36:0.48072672 37:0.50561225 38:0.36587253 39:0.42418709 40:0.3342303 41:0.091239244 42:0.26836565 43:0.32171074 44:0.54577786 45:0.35483828 46:0.88508379 47:0.21489963 48:0.73324919 49:0.39192322 50:0.81301636 51:0.4235183 52:0.47452509 53:0.48695639 54:0.30890107 55:0.54102433 56:0.28551596 
-4.955961836784371 1:0.31359676 2:0.66017878 3:0.71914351 4:0.60028714 5:0.50972331 6:0.35934579 7:0.7564913 8:0.75735527 9:0.52088082 10:0.71687627 11:0.66804028 12:0.48484668 13:0.63301539 14:0.62455529 15:0.23544937 16:0.32714757 17:0.27582532 18:0.62152004 19:0.30385509 20:0.2497284 21:0.44646654 22:0.56990498 23:0.42766106 24:0.71187419 25:0.39551333 26:0.56309813 27:0.83596498 28:0.25311917 29:0.26605105 30:0.64819866 31:0.29707268 32:0.12298822 33:0.94583392 34:0.48918781 35:0.71008527 36:0.48072672 37:0.50561225 38:0.36587253 39:0.42418709 40:0.3342303 41:0.091239244 42:0.26836565 43:0.32171074 44:0.54577786 45:0.35483828 46:0.88508379 47:0.21489963 48:0.73324919 49:0.39192322 50:0.81301636 51:0.4235183 52:0.47452509 53:0.48695639 54:0.30890107 55:0.54102433 56:0.28551596 
-0.0006654274442589728 1:0.59896111 2:0.44808534 3:0.46470779 4:0.12269853 5:0.37085193 6:0.25198099 7:0.74941117 8:0.32421112 9:0.54933017 10:0.52578634 11:0.34261906 12:0.5001682 13:0.13600315 14:0.7051962 15:0.69122314 16:0.80337906 17:0.55204588 18:0.42075911 19:0.20678103 20:0.5682267 21:0.47340554 22:0.56485569 23:0.51323295 24:0.38949785 25:0.45213109 26:0.77172148 27:0.39510989 28:0.27525303 29:0.37018055 30:0.49159229 31:0.84772611 32:0.54643387 33:0.8471579 34:0.68067729 35:0.48852211 36:0.81862628 37:0.50139618 38:0.89920956 39:0.36736315 40:0.16473924 41:0.39635342 42:0.42743391 43:0.5192154 44:0.5345999 45:0.21716279 46:0.40851367 47:0.4992671 48:0.38868454 49:0.25808764 50:0.65145457 51:0.076411463 52:0.17730294 53:0.54369116 54:0.69481629 55:0.43530571 56:0.24169119 
-1.524813686885058 1:0.59896111 2:0.44808534 3:0.46470779 4:0.12269853 5:0.37085193 6:0.25198099 7:0.74941117 8:0.32421112 9:0.54933017 10:0.52578634 11:0.34261906 12:0.5001682 13:0.13600315 14:0.7051962 15:0.69122314 16:0.80337906 17:0.55204588 18:0.42075911 19:0.20678103 20:0.5682267 21:0.47340554 22:0.56485569 23:0.51323295 24:0.38949785 25:0.45213109 26:0.77172148 27:0.39510989 28:0.27525303 29:0.37018055 30:0.49159229 31:0.84772611 32:0.54643387 33:0.8471579 34:0.68067729 35:0.48852211 36:0.81862628 37:0.50139618 38:0.89920956 39:0.36736315 40:0.16473924 41:0.39635342 42:0.42743391 43:0.5192154 44:0.5345999 45:0.21716279 46:0.40851367 47:0.4992671 48:0.38868454 49:0.25808764 50:0.65145457 51:0.076411463 52:0.17730294 53:0.54369116 54:0.69481629 55:0.43530571 56:0.24169119 
-0.1558966716850638 1:0.65324819 2:0.46583939 3:0.42100778 4:0.58433986 5:0.57126075 6:0.38654423 7:0.64936864 8:0.51503873 9:0.58112919 10:0.45103166 11:0.58443409 12:0.44911385 13:0.6059975 14:0.53578478 15:0.50488615 16:0.55424762 17:0.57257938 18:0.67935961 19:0.48098329 20:0.26189569 21:0.45226455 22:0.39198527 23:0.45038369 24:0.27938253 25:0.6058315 26:0.48434061 27:0.38820404 28:0.23248549 29:0.10244896 30:0.47636521 31:0.788845 32:0.27535257 33:0.42760548 34:0.54344893 35:0.6146484 36:0.60472441 37:0.5689792 38:0.14441131 39:0.48421758 40:0.44101536 41:0.37510562 42:0.32971105 43:0.27237335 44:0.49965921 45:0.6376009 46:0.59444773 47:0.47026753 48:0.43440595 49:0.64803624 50:0.41246986 51:0.567904 52:0.54229516 53:0.40568781 54:0.058370844 55:0.57124239 56:0.032887787 
-0.001761583143349332 1:0.59586388 2:0.35899651 3:0.62433136 4:0.54836267 5:0.86571437 6:0.85594219 7:0.46321151 8:0.6383099 9:0.57794833 10:0.48347905 11:0.4949272 12:0.86581767 13:0.36101478 14:0.65851206 15:0.79523742 16:0.55758381 17:0.13194849 18:0.62795371 19:0.63410181 20:0.32659394 21:0.6197477 22:0.49696976 23:0.19638814 24:0.45076257 25:0.33331215 26:0.44638774 27:0.38329849 28:0.27702796 29:0.74012357 30:0.42960122 31:0.2349522 32:0.38637272 33:0.75527269 34:0.20248789 35:0.5532068 36:0.36559132 37:0.19952527 38:0.58819318 39:0.45617062 40:0.42458004 41:0.38658968 42:0.85345542 43:0.53910506 44:0.65185982 45:0.66245353 46:0.66537416 47:0.59560663 48:0.50088048 49:0.20203441 50:0.76926088 51:0.5947386 52:0.66737902 53:0.42119503 54:0.37264383 55:0.52327514 56:0.091310874 
-1.380049270951337 1:0.59586388 2:0.35899651 3:0.62433136 4:0.54836267 5:0.86571437 6:0.85594219 7:0.46321151 8:0.6383099 9:0.57794833 10:0.48347905 11:0.4949272 12:0.86581767 13:0.36101478 14:0.65851206 15:0.79523742 16:0.55758381 17:0.13194849 18:0.62795371 19:0.63410181 20:0.32659394 21:0.6197477 22:0.49696976 23:0.19638814 24:0.45076257 25:0.33331215 26:0.44638774 27:0.38329849 28:0.27702796 29:0.74012357 30:0.42960122 31:0.2349522 32:0.38637272 33:0.75527269 34:0.20248789 35:0.5532068 36:0.36559132 37:0.19952527 38:0.58819318 39:0.45617062 40:0.42458004 41:0.38658968 42:0.85345542 43:0.53910506 44:0.65185982 45:0.66245353 46:0.66537416 47:0.59560663 48:0.50088048 49:0.20203441 50:0.76926088 51:0.5947386 52:0.66737902 53:0.42119503 54:0.37264383 55:0.52327514 56:0.091310874 
-2.768857196533272 1:0.34563908 2:0.8337003 3:0.29680526 4:0.21486883 5:0.65825647 6:0.56971359 7:0.2532596 8:0.30673361 9:0.53750187 10:0.62723988 11:0.36795366 12:0.74942386 13:0.15866981 14:0.47630817 15:0.60241121 16:0.55924755 17:0.13179035 18:0.55244541 19:0.43296361 20:0.70071203 21:0.80493164 22:0.17750987 23:0.49880311 24:0.71071237 25:0.27835611 26:0.40017939 27:0.57542527 28:0.4940058 29:0.64627403 30:0.54122466 31:0.35251048 32:0.56920362 33:0.62936056 34:9.4105487e-16 35:0.76832104 36:0.48811311 37:0.27502868 38:0.40097985 39:0.58636975 40:0.34507194 41:0.35857016 42:0.81183523 43:0.52890134 44:0.65934449 45:0.62637824 46:0.61305583 47:0.45897058 48:0.51992828 49:0.27660918 50:0.84919745 51:0.53872013 52:0.65696335 53:0.39952061 54:0.47116899 55:0.52672315 56:0.14715521 
-0.0001555281210343838 1:0.38368526 2:0.61343801 3:0.76054525 4:0.65324998 5:0.45879707 6:0.51395434 7:0.69909382 8:0.71115404 9:0.77145523 10:0.78185648 11:0.66958547 12:0.70876962 13:0.1785544 14:0.39047071 15:0.91378993 16:0.48000997 17:0.7937699 18:0.23449251 19:0.41994742 20:0.28907692 21:0.37734589 22:0.4958649 23:0.41631001 24:0.72350818 25:0.2714518 26:0.60390693 27:0.66746813 28:0.46888071 29:0.47557119 30:0.55992913 31:1 32:0.46062881 33:0.31054515 34:0.72100496 35:0.9843899 36:0.58383757 37:0.45427275 38:0.58125657 39:0.44139171 40:8.1981996e-17 41:0.78701234 42:0.46973094 43:0.63681042 44:0.59484911 45:0.24727587 46:0.5793224 47:0.63088161 48:0.42928192 49:0.10841752 50:0.378517 51:0.56562358 52:0.53657633 53:0.38483542 54:0.57428247 55:0.57085973 56:0.058674123 
-0.5826970721999195 1:0.38368526 2:0.61343801 3:0.76054525 4:0.65324998 5:0.45879707 6:0.51395434 7:0.69909382 8:0.71115404 9:0.77145523 10:0.78185648 11:0.66958547 12:0.70876962 13:0.1785544 14:0.39047071 15:0.91378993 16:0.48000997 17:0.7937699 18:0.23449251 19:0.41994742 20:0.28907692 21:0.37734589 22:0.4958649 23:0.41631001 24:0.72350818 25:0.2714518 26:0.60390693 27:0.66746813 28:0.46888071 29:0.47557119 30:0.55992913 31:1 32:0.46062881 33:0.31054515 34:0.72100496 35:0.9843899 36:0.58383757 37:0.45427275 38:0.58125657 39:0.44139171 40:8.1981996e-17 41:0.78701234 42:0.46973094 43:0.63681042 44:0.59484911 45:0.24727587 46:0.5793224 47:0.63088161 48:0.42928192 49:0.10841752 50:0.378517 51:0.56562358 52:0.53657633 53:0.38483542 54:0.57428247 55:0.57085973 56:0.058674123 
-0.0006639867424563867 1:0.44947827 2:0.59743607 3:0.67956525 4:0.50130707 5:0.51592869 6:0.4970347 7:0.69646317 8:0.34072104 9:0.56332982 10:0.42273694 11:0.65131295 12:0.47098979 13:0.80103564 14:0.53081274 15:0.23414427 16:0.10182986 17:0.5036025 18:0.29860413 19:0.49642402 20:0.78324687 21:0.86953765 22:0.17926517 23:0.37317571 24:0.32339153 25:0.27782476 26:0.67750227 27:0.38964373 28:0.64179027 29:0.382027 30:0.078742296 31:0.14271076 32:0.28277063 33:0.5240972 34:0.48031673 35:0.65272844 36:0.44912708 37:0.36239308 38:0.63519973 39:0.70845187 40:0.34799215 41:0.28229082 42:0.19292638 43:0.78072196 44:0.1298999 45:0.88009185 46:0.86599708 47:0.61842114 48:0.3273015 49:0.22060663 50:0.42791811 51:0.66163325 52:0.45342529 53:0.5907985 54:0.76541841 55:0.54194826 56:0.27977824 
-3.764727288264721 1:0.44947827 2:0.59743607 3:0.67956525 4:0.50130707 5:0.51592869 6:0.4970347 7:0.69646317 8:0.34072104 9:0.56332982 10:0.42273694 11:0.65131295 12:0.47098979 13:0.80103564 14:0.53081274 15:0.23414427 16:0.10182986 17:0.5036025 18:0.29860413 19:0.49642402 20:0.78324687 21:0.86953765 22:0.17926517 23:0.37317571 24:0.32339153 25:0.27782476 26:0.67750227 27:0.38964373 28:0.64179027 29:0.382027 30:0.078742296 31:0.14271076 32:0.28277063 33:0.5240972 34:0.48031673 35:0.65272844 36:0.44912708 37:0.36239308 38:0.63519973 39:0.70845187 40:0.34799215 41:0.28229082 42:0.19292638 43:0.78072196 44:0.1298999 45:0.88009185 46:0.86599708 47:0.61842114 48:0.3273015 49:0.22060663 50:0.42791811 51:0.66163325 52:0.45342529 53:0.5907985 54:0.76541841 55:0.54194826 56:0.27977824 
-0.001323419553897527 1:0.3152853 2:0.43573424 3:0.39008898 4:0.2396808 5:0.68573684 6:0.3415294 7:0.68354976 8:0.69790727 9:7.2531365e-17 10:0.37258807 11:0.50845945 12:0.67027974 13:0.48014575 14:0.52478015 15:0.47497818 16:0.58347434 17:0.1434907 18:0.37273353 19:0.37441853 20:0.059109621 21:0.54224342 22:0.44513074 23:0.050077509 24:0.53482157 25:0.10092913 26:0.50743407 27:0.10820045 28:0.31195906 29:0.36603004 30:0.33243358 31:0.3508682 32:0.3470608 33:0 34:0.63567495 35:0.64323843 36:0.47038883 37:0.3888126 38:0.047907166 39:0.50866705 40:0.38588256 41:0.84755278 42:0.30540138 43:0.40223843 44:0.51324946 45:0.65805012 46:0.36251986 47:0.56148696 48:0.60109663 49:0.19688495 50:0.30142334 51:0.43165055 52:0.74448502 53:0.34354988 54:0.80991817 55:0.71110821 56:0.24724771 
-0.1562766569036302 1:0.3152853 2:0.43573424 3:0.39008898 4:0.2396808 5:0.68573684 6:0.3415294 7:0.68354976 8:0.69790727 9:7.2531365e-17 10:0.37258807 11:0.50845945 12:0.67027974 13:0.48014575 14:0.52478015 15:0.47497818 16:0.58347434 17:0.1434907 18:0.37273353 19:0.37441853 20:0.059109621 21:0.54224342 22:0.44513074 23:0.050077509 24:0.53482157 25:0.10092913 26:0.50743407 27:0.10820045 28:0.31195906 29:0.36603004 30:0.33243358 31:0.3508682 32:0.3470608 33:0 34:0.63567495 35:0.64323843 36:0.47038883 37:0.3888126 38:0.047907166 39:0.50866705 40:0.38588256 41:0.84755278 42:0.30540138 43:0.40223843 44:0.51324946 45:0.65805012 46:0.36251986 47:0.56148696 48:0.60109663 49:0.19688495 50:0.30142334 51:0.43165055 52:0.74448502 53:0.34354988 54:0.80991817 55:0.71110821 56:0.24724771 
-1.757344214926897 1:0.30929232 2:0.45507416 3:0.97920614 4:0.020655198 5:0.24679044 6:0.32434422 7:0.46520826 8:0.2527273 9:0.63258588 10:0.75331038 11:0.8463251 12:0.37907296 13:0.51434827 14:0.43607417 15:0.40602675 16:0.68232805 17:0.16665369 18:0.65040123 19:0.42518476 20:0.20057373 21:0.57612759 22:0.47381178 23:0.53297102 24:0.24377488 25:0.302623 26:0.64314604 27:0.44248688 28:0.15699327 29:0.42765477 30:0.60377443 31:0.50564981 32:0.62537187 33:0.056891806 34:0.59450674 35:0.74139661 36:0.48291698 37:0.26947713 38:0.47264567 39:0.67737192 40:0.34034553 41:0.70921785 42:0.62172103 43:0.58209306 44:0.51596373 45:0.3669585 46:0.61059755 47:0.47688037 48:0.34939256 49:0.18552177 50:0.16045645 51:0.58292264 52:0.72958386 53:0.38483003 54:0.6408208 55:0.68565696 56:0.12609428 
-1.33627650489282 1:0.69297278 2:0.3210445 3:0.2614187 4:0.26345128 5:0.5917328 6:0.44683251 7:0.70132434 8:0.47333032 9:0.36935028 10:0.77304834 11:0.82683682 12:0.58648175 13:0.34620467 14:0.50464338 15:0.55728304 16:0.29573894 17:0.14490406 18:0.33807132 19:0.69405764 20:0.27543974 21:0.70103163 22:0.61769164 23:0.75583839 24:0.67171305 25:0.41957042 26:0.73130578 27:0.51240855 28:1 29:0.21105717 30:0.36740199 31:0.43351296 32:0.75299245 33:0.44456273 34:0.17980199 35:0.81616175 36:0.31349707 37:0.38900107 38:0.38926926 39:0.21047811 40:0.65032405 41:0.46808767 42:0.53070945 43:0.27623349 44:0.27882031 45:0.3078981 46:0.76318109 47:0.4024989 48:0.70084196 49:0.22738709 50:0.49571475 51:0.72808367 52:0.54960901 53:0.57397878 54:0.66184235 55:0.668181 56:0.1647325 
-0.3463903003784867 1:0.31822461 2:0.91277725 3:0.35654625 4:0.652179 5:0.67198342 6:0.54472232 7:0.65584356 8:0.50293696 9:0.54788244 10:0.40247101 11:0.72572708 12:0.38590449 13:0.32875079 14:0.18034129 15:0.023300976 16:0.36262253 17:0.75897527 18:0.54528189 19:0.47799411 20:0.16797529 21:0.65332073 22:0.71744752 23:0.96902871 24:0.33418384 25:0.37579846 26:0.51733845 27:0.50156224 28:0.50897604 29:0.72373956 30:0.44875589 31:0.5536828 32:0.75923073 33:0.5180921 34:0.30241346 35:0.56488407 36:0.58835065 37:0.67933744 38:0.77863353 39:0.62762171 40:0.41063187 41:0.19217104 42:0.68713927 43:0.38075259 44:0.29006377 45:0.51290756 46:0.51170039 47:0.16246408 48:0.25764751 49:0.29833943 50:0.61953515 51:0.44338581 52:0.41848707 53:0.52950329 54:0.65284449 55:0.62800115 56:0.16065474 
-0.0006826299362835558 1:0.42830941 2:0.69195342 3:0.56330854 4:0.49220121 5:0.5389154 6:0.35475788 7:0.29381239 8:0.63992912 9:0.28992236 10:0.61880028 11:0.77322912 12:0.093818992 13:0.43019605 14:0.33902192 15:0.53345668 16:0.38787115 17:0.48925838 18:0.73304689 19:0.56872284 20:0.61677599 21:0.24570736 22:0.18772748 23:0.76672894 24:0.51129907 25:0.31471199 26:0.32399762 27:0.35704675 28:0.61277467 29:0.66066277 30:0.66951638 31:0.21164003 32:0.45375469 33:0.75496989 34:0.39711091 35:0.84647888 36:0.57068771 37:0.77964401 38:0.59483618 39:0.37218112 40:0.32948512 41:0.5271371 42:0.94421238 43:0.55683303 44:0.25541657 45:0.64569348 46:0.47360593 47:0.45450434 48:0.16168617 49:0.23882964 50:0.40984854 51:0.37575379 52:0.35102761 53:0.44862673 54:0.33355069 55:0.5880124 56:1.4237345e-16 
-0.7373282833221597 1:0.42830941 2:0.69195342 3:0.56330854 4:0.49220121 5:0.5389154 6:0.35475788 7:0.29381239 8:0.63992912 9:0.28992236 10:0.61880028 11:0.77322912 12:0.093818992 13:0.43019605 14:0.33902192 15:0.53345668 16:0.38787115 17:0.48925838 18:0.73304689 19:0.56872284 20:0.61677599 21:0.24570736 22:0.18772748 23:0.76672894 24:0.51129907 25:0.31471199 26:0.32399762 27:0.35704675 28:0.61277467 29:0.66066277 30:0.66951638 31:0.21164003 32:0.45375469 33:0.75496989 34:0.39711091 35:0.84647888 36:0.57068771 37:0.77964401 38:0.59483618 39:0.37218112 40:0.32948512 41:0.5271371 42:0.94421238 43:0.55683303 44:0.25541657 45:0.64569348 46:0.47360593 47:0.45450434 48:0.16168617 49:0.23882964 50:0.40984854 51:0.37575379 52:0.35102761 53:0.44862673 54:0.33355069 55:0.5880124 56:1.4237345e-16 
-0.004552780086444515 1:0.34269753 2:0.35758603 3:0.58782691 4:0.51942146 5:0.71454191 6:0.47264501 7:0.75121862 8:0.33382475 9:0.24007857 10:0.92661083 11:0.7807858 12:0.58213109 13:0.62675148 14:0.49290052 15:0.56702244 16:0.26310721 17:0.46631372 18:0.69566971 19:0.63841271 20:0.42431685 21:0.51401681 22:0.41222939 23:0.48187885 24:0.3745099 25:0.72865731 26:0.52226037 27:0.25461125 28:0.54852337 29:0.6046142 30:0.8411209 31:0.55867779 32:0.29733816 33:0.30975375 34:0.5807361 35:0.71648568 36:0.40016371 37:0.35454971 38:0.530213 39:0.42377475 40:0.49446708 41:0.28269377 42:0.43029484 43:0.50907964 44:0.74707019 45:0.37711608 46:0.70534992 47:0.91649842 48:0.78036183 49:0.34331059 50:0.47745889 51:1.3120607e-15 52:0.35330293 53:0.20726982 54:0.61129755 55:0.26411819 56:0.37319094 
-6.477894873255273 1:0.34269753 2:0.35758603 3:0.58782691 4:0.51942146 5:0.71454191 6:0.47264501 7:0.75121862 8:0.33382475 9:0.24007857 10:0.92661083 11:0.7807858 12:0.58213109 13:0.62675148 14:0.49290052 15:0.56702244 16:0.26310721 17:0.46631372 18:0.69566971 19:0.63841271 20:0.42431685 21:0.51401681 22:0.41222939 23:0.48187885 24:0.3745099 25:0.72865731 26:0.52226037 27:0.25461125 28:0.54852337 29:0.6046142 30:0.8411209 31:0.55867779 32:0.29733816 33:0.30975375 34:0.5807361 35:0.71648568 36:0.40016371 37:0.35454971 38:0.530213 39:0.42377475 40:0.49446708 41:0.28269377 42:0.43029484 43:0.50907964 44:0.74707019 45:0.37711608 46:0.70534992 47:0.91649842 48:0.78036183 49:0.34331059 50:0.47745889 51:1.3120607e-15 52:0.35330293 53:0.20726982 54:0.61129755 55:0.26411819 56:0.37319094 
-2.801990830060319 1:0.48296538 2:0.49061435 3:0.28143778 4:0.62618965 5:0.73049521 6:0.52810127 7:0.60726815 8:0.43512639 9:0.432933 10:0.84110421 11:0.74733174 12:0.60376215 13:0.43106627 14:0.30744788 15:0.354671 16:0.16365583 17:0.40916893 18:0.54123098 19:0.51944298 20:0.57620102 21:0.51031059 22:0.31833649 23:0.50208378 24:0.22535636 25:0.65324813 26:0.44081053 27:0.26213858 28:0.62262207 29:0.45788014 30:0.80426532 31:0.51616365 32:0.27771175 33:0.26220536 34:0.53569782 35:0.75143832 36:0.53843665 37:0.4072755 38:0.52086025 39:0.31600115 40:0.50905001 41:0.22956948 42:0.36502388 43:0.43861017 44:0.88133252 45:0.38583061 46:0.71198261 47:1 48:0.7129181 49:0.40684104 50:0.46114314 51:0.066177368 52:0.3332206 53:0.21030588 54:0.62880087 55:0.28825316 56:0.37357876 
-3.249264252128213 1:0.47436261 2:0.58822536 3:0.46162239 4:0.75641376 5:0.44471878 6:0.55148941 7:0.21930863 8:0.54641485 9:0.94983035 10:0.57620603 11:0.23635995 12:0.32423428 13:0.060384173 14:0.67894089 15:0.44247431 16:0.31208131 17:0.58316231 18:0.48443657 19:0.27453852 20:0.069197081 21:0.37139544 22:0.26317054 23:0.40604979 24:0.6160574 25:0.58476895 26:0.65330565 27:0.5659827 28:0.74367177 29:0.66519439 30:0.55007887 31:0.42128175 32:0.051819183 33:0.18692529 34:1 35:0.69207144 36:0.76323217 37:0.38947588 38:0.50795937 39:0.053817686 40:0.30038875 41:0.63079095 42:0.60562122 43:0.61251867 44:0.51877683 45:0.64397627 46:0.8649857 47:0.40197781 48:0.72207499 49:0.44922069 50:0.17407401 51:0.58667207 52:0.23803233 53:0.51423252 54:0.70081967 55:0.62689632 56:0.25364262 
-0.6420833407188156 1:0.22982009 2:0.77695978 3:0.55804718 4:0.38647801 5:0.5611136 6:0.72850519 7:0.6901195 8:0.68344796 9:0.68799722 10:0.84459096 11:0.62703633 12:0.53086454 13:0.68756753 14:0.42459327 15:0.75665534 16:0.74235797 17:0.42146677 18:0.4717283 19:0.46655986 20:0.53149986 21:1 22:0.44020796 23:0.22621387 24:0.28155249 25:0.30599207 26:0.79778433 27:0.44564646 28:0.67734933 29:0.85629749 30:0.51838517 31:0.33025905 32:0.66922683 33:0.77344066 34:0.61305231 35:0.57360095 36:0.76375794 37:0.67807335 38:0.36355168 39:0.65759718 40:0.52935123 41:0.53209633 42:1 43:0.66916245 44:0.28401777 45:0.55976015 46:0.50615644 47:0.44021842 48:0.81333649 49:0.59782988 50:0.38782123 51:0.50404972 52:0.21776149 53:0.21719684 54:0.59848231 55:0.76342928 56:0.20933461 
-1.721772803977297 1:0.21742691 2:0.52524143 3:0.43190137 4:0.83688277 5:0.61877429 6:0.45071968 7:0.53792518 8:0.37107587 9:0.47392595 10:0.52858603 11:0.52307761 12:0.23828849 13:0.44279242 14:0.29463339 15:0.67152572 16:0.33024567 17:0.24183975 18:0.42275974 19:0.45928994 20:0.54679567 21:0.65567911 22:0.50789577 23:0.16085146 24:0.4643707 25:0.09894722 26:0.7061947 27:0.54163325 28:0.48167351 29:0.57742405 30:0.53490722 31:0.74270231 32:0.80674523 33:0.41346952 34:0.36938038 35:0.35958204 36:0.39333642 37:0.6389516 38:0.33429259 39:0.45506331 40:0.24641165 41:0.52707475 42:0.29815644 43:0.32425135 44:0.71857184 45:0.22399552 46:0.65429884 47:0.48988506 48:0.72618282 49:0.43542013 50:0.38015804 51:0.60828996 52:0.39862585 53:0.40504232 54:0.62752604 55:0.8686645 56:0.16404891 
-0.002438465738847426 1:0.42690617 2:0.63670188 3:0.45301965 4:0.3278324 5:0.65751219 6:0.46326593 7:0.9544571 8:0.57989901 9:0.3462584 10:0.60500187 11:0.70132929 12:0.49100024 13:0.26335174 14:0.31776083 15:0.77609766 16:0.6708619 17:0.42140642 18:0.47963935 19:0.49277744 20:0.59424937 21:0.4051345 22:0.47506121 23:0.4352591 24:0.70039505 25:0.62317282 26:0.87793118 27:0.23973195 28:0.41042945 29:0.70063066 30:0.84380633 31:0.38492423 32:0.51638824 33:0.59835052 34:0.67944044 35:0.47001749 36:0.70686448 37:0.45784429 38:0.15030187 39:0.70241797 40:0.57491231 41:0.27991542 42:0.9526462 43:0.62847191 44:0.18836208 45:0.64874858 46:0.69984818 47:0.26386237 48:0.75742453 49:0.62091643 50:0.45653003 51:0.40119576 52:0.30465609 53:0.27483773 54:0.73491567 55:0.69916558 56:0.30324927 
-3.023672716698387 1:0.42690617 2:0.63670188 3:0.45301965 4:0.3278324 5:0.65751219 6:0.46326593 7:0.9544571 8:0.57989901 9:0.3462584 10:0.60500187 11:0.70132929 12:0.49100024 13:0.26335174 14:0.31776083 15:0.77609766 16:0.6708619 17:0.42140642 18:0.47963935 19:0.49277744 20:0.59424937 21:0.4051345 22:0.47506121 23:0.4352591 24:0.70039505 25:0.62317282 26:0.87793118 27:0.23973195 28:0.41042945 29:0.70063066 30:0.84380633 31:0.38492423 32:0.51638824 33:0.59835052 34:0.67944044 35:0.47001749 36:0.70686448 37:0.45784429 38:0.15030187 39:0.70241797 40:0.57491231 41:0.27991542 42:0.9526462 43:0.62847191 44:0.18836208 45:0.64874858 46:0.69984818 47:0.26386237 48:0.75742453 49:0.62091643 50:0.45653003 51:0.40119576 52:0.30465609 53:0.27483773 54:0.73491567 55:0.69916558 56:0.30324927 
-0.7562062083798535 1:0.58663899 2:0.86572021 3:0.53873456 4:0.46743223 5:0.93758619 6:0.35700557 7:0.26044708 8:0.52159345 9:0.19488744 10:0.6888082 11:0.6104688 12:0.58344322 13:0.5025667 14:0.50554878 15:0.26118037 16:0.80809742 17:0.19508819 18:0.46649459 19:0.59668159 20:0.85456026 21:0.46155438 22:0.68576235 23:0.63341761 24:0.58057433 25:0.42060038 26:0.56307149 27:0.50704467 28:0.36484739 29:0.44214579 30:0.57019162 31:0.68706799 32:0.44070229 33:0.49746835 34:0.50907266 35:0.74475092 36:0.40951318 37:0.59881473 38:0.92628735 39:0.77597666 40:0.48081046 41:0.31819406 42:0.32268739 43:0.3213 44:0.33250418 45:0.31664532 46:0.60930806 47:0.61012435 48:0.43923402 49:0.60307986 50:0.25440586 51:0.6068905 52:0.67387915 53:0.032191634 54:0.77242845 55:0.50396311 56:0.16333164 
-0.5313946786836488 1:0.68916309 2:0.7278077 3:0.50914359 4:0.20155711 5:0.29193431 6:0.52482569 7:0.41024178 8:0.4286887 9:0.27571008 10:0.24001452 11:0.60068196 12:0.47212017 13:0.63340211 14:0.60323888 15:0.44570252 16:0.30604973 17:0.81684834 18:0.57732958 19:0.53775382 20:0.1601844 21:0.38954663 22:0.49141055 23:0.67057157 24:0.81988949 25:0.053565834 26:2.8644465e-16 27:0.14876935 28:0.85729766 29:0.5471136 30:0.67989367 31:0.75907135 32:0.44020906 33:0.601421 34:0.94260848 35:0.79584795 36:0.48427066 37:0.26182279 38:0.53197539 39:0.76059085 40:0.47611758 41:0.27098334 42:0.46641141 43:0.60645992 44:0.2806561 45:0.58904856 46:0.79188383 47:0.48737773 48:0.64427114 49:0.41583741 50:0.23793603 51:0.38578662 52:0.54946417 53:0.4194251 54:0.67837691 55:0.76087195 56:0.21548478 
-0.002540152037247393 1:0.39266479 2:0.71117365 3:0.64084291 4:0.5216378 5:0.57721156 6:0.076635256 7:0.50140995 8:0.53587484 9:0.80395299 10:0.53160441 11:0.35818046 12:0.65637767 13:0.62937033 14:0.37858361 15:0.4998714 16:0.24977997 17:0.36972699 18:0.13128673 19:0.34112245 20:0.61943871 21:0.75784659 22:0.49908078 23:0.50197226 24:0.467372 25:0.1895082 26:0.63664782 27:0.32610881 28:0.25639397 29:0.21351947 30:0.50635505 31:0.72299087 32:0.33769411 33:0.67949331 34:0.65323305 35:0.7894094 36:0.75009298 37:0.26116011 38:0.41313827 39:0.78035951 40:0.74385911 41:0.36372545 42:0.54978907 43:0.43603697 44:0.42607439 45:0.26102138 46:0.67611355 47:0.55699718 48:0.72239906 49:0.56173509 50:0.34749392 51:0.50770456 52:0.60157079 53:0.07701882 54:0.66974354 55:0.49245864 56:0.21684466 
-2.4995824724236 1:0.39266479 2:0.71117365 3:0.64084291 4:0.5216378 5:0.57721156 6:0.076635256 7:0.50140995 8:0.53587484 9:0.80395299 10:0.53160441 11:0.35818046 12:0.65637767 13:0.62937033 14:0.37858361 15:0.4998714 16:0.24977997 17:0.36972699 18:0.13128673 19:0.34112245 20:0.61943871 21:0.75784659 22:0.49908078 23:0.50197226 24:0.467372 25:0.1895082 26:0.63664782 27:0.32610881 28:0.25639397 29:0.21351947 30:0.50635505 31:0.72299087 32:0.33769411 33:0.67949331 34:0.65323305 35:0.7894094 36:0.75009298 37:0.26116011 38:0.41313827 39:0.78035951 40:0.74385911 41:0.36372545 42:0.54978907 43:0.43603697 44:0.42607439 45:0.26102138 46:0.67611355 47:0.55699718 48:0.72239906 49:0.56173509 50:0.34749392 51:0.50770456 52:0.60157079 53:0.07701882 54:0.66974354 55:0.49245864 56:0.21684466 
-0.002952721121055229 1:0.3038398 2:0.65159208 3:0.78743201 4:0.37969363 5:0.75998521 6:0.35792655 7:0.45712739 8:0.49874586 9:0.66526175 10:0.251082 11:0.29913971 12:0.59565622 13:0.58704686 14:0.60896915 15:0.30714968 16:0.46901909 17:0.57295376 18:0.69514197 19:0.55453455 20:0.44402593 21:0.12825136 22:0.40953618 23:0.431622 24:0.50590199 25:0.069944352 26:0.5508666 27:0.43171263 28:0.8915804 29:0.35788003 30:0.42380434 31:0.74167997 32:0.34167004 33:0.86534226 34:0.51873034 35:0.40789753 36:0.64043385 37:0.40251368 38:0.41462967 39:0.81673217 40:0.56031144 41:0.37400603 42:0.251957 43:0.67149472 44:0.46782297 45:0.45314705 46:0.71780759 47:0.72836924 48:0.72343767 49:0.45487991 50:0.2877256 51:0.47236666 52:0.55994838 53:0.40643463 54:0.66143286 55:0.85525483 56:0.22354048 
-2.473251718947751 1:0.3038398 2:0.65159208 3:0.78743201 4:0.37969363 5:0.75998521 6:0.35792655 7:0.45712739 8:0.49874586 9:0.66526175 10:0.251082 11:0.29913971 12:0.59565622 13:0.58704686 14:0.60896915 15:0.30714968 16:0.46901909 17:0.57295376 18:0.69514197 19:0.55453455 20:0.44402593 21:0.12825136 22:0.40953618 23:0.431622 24:0.50590199 25:0.069944352 26:0.5508666 27:0.43171263 28:0.8915804 29:0.35788003 30:0.42380434 31:0.74167997 32:0.34167004 33:0.86534226 34:0.51873034 35:0.40789753 36:0.64043385 37:0.40251368 38:0.41462967 39:0.81673217 40:0.56031144 41:0.37400603 42:0.251957 43:0.67149472 44:0.46782297 45:0.45314705 46:0.71780759 47:0.72836924 48:0.72343767 49:0.45487991 50:0.2877256 51:0.47236666 52:0.55994838 53:0.40643463 54:0.66143286 55:0.85525483 56:0.22354048 
-0.0008904399645614665 1:0.42616332 2:0.61736876 3:0.21200971 4:0.4989869 5:0.62589842 6:0.072165266 7:0.34157252 8:0.47588158 9:0.44754255 10:0.85769087 11:0.37748992 12:0.4400059 13:0.54249811 14:0.80591619 15:0.10961252 16:0.2448111 17:0.62075889 18:0.42792395 19:0.67275518 20:0.26080802 21:0.98190022 22:0 23:0.53051376 24:0.072995245 25:0.43148753 26:0.44873318 27:0.77701735 28:0.27271703 29:0.45954499 30:0.47139043 31:0.62125731 32:0.37168193 33:0.43002629 34:0.62393075 35:0.4796316 36:0.49984634 37:0.63154244 38:0.44096491 39:0.72178006 40:0.53063613 41:0.45866397 42:0.62027419 43:0.38925469 44:0.50642675 45:0.095412731 46:0.63521707 47:0.47554839 48:0.91647708 49:0.3938016 50:0.48581958 51:0.63885152 52:0.48176554 53:0.39868072 54:0.61940283 55:0.7591843 56:0.24784234 
-2.308033803867699 1:0.42616332 2:0.61736876 3:0.21200971 4:0.4989869 5:0.62589842 6:0.072165266 7:0.34157252 8:0.47588158 9:0.44754255 10:0.85769087 11:0.37748992 12:0.4400059 13:0.54249811 14:0.80591619 15:0.10961252 16:0.2448111 17:0.62075889 18:0.42792395 19:0.67275518 20:0.26080802 21:0.98190022 22:0 23:0.53051376 24:0.072995245 25:0.43148753 26:0.44873318 27:0.77701735 28:0.27271703 29:0.45954499 30:0.47139043 31:0.62125731 32:0.37168193 33:0.43002629 34:0.62393075 35:0.4796316 36:0.49984634 37:0.63154244 38:0.44096491 39:0.72178006 40:0.53063613 41:0.45866397 42:0.62027419 43:0.38925469 44:0.50642675 45:0.095412731 46:0.63521707 47:0.47554839 48:0.91647708 49:0.3938016 50:0.48581958 51:0.63885152 52:0.48176554 53:0.39868072 54:0.61940283 55:0.7591843 56:0.24784234 
-0.001191852761344631 1:0.3777675 2:0.81133288 3:0.48451823 4:0.49196309 5:0.68199027 6:0.51144099 7:0.26145911 8:0.56321937 9:0.28825447 10:0.56791669 11:0.57440835 12:0.47338855 13:0.49526101 14:0.5073573 15:0.44678846 16:0.45851439 17:0.6289168 18:0.47073323 19:0.64139789 20:0.38951209 21:0.65218371 22:0.52200162 23:0.39420751 24:0.52249402 25:0.53101355 26:0.96415645 27:0.64612406 28:0.48143122 29:0.39374167 30:0.34705892 31:0.39014918 32:0.87457377 33:0.70999688 34:0.54517061 35:0.96973675 36:0.51976705 37:0.0298534 38:0.14561455 39:0.24806884 40:0.58854502 41:0.58118343 42:0.47628281 43:0.96829343 44:0.51910436 45:0.55742043 46:0.66059119 47:0.67123914 48:0.95676124 49:0.61293674 50:0.3752687 51:0.15466882 52:0.30661875 53:0.35836983 54:0.49912763 55:0.59055996 56:0.23702012 
-1.408429906785672 1:0.3777675 2:0.81133288 3:0.48451823 4:0.49196309 5:0.68199027 6:0.51144099 7:0.26145911 8:0.56321937 9:0.28825447 10:0.56791669 11:0.57440835 12:0.47338855 13:0.49526101 14:0.5073573 15:0.44678846 16:0.45851439 17:0.6289168 18:0.47073323 19:0.64139789 20:0.38951209 21:0.65218371 22:0.52200162 23:0.39420751 24:0.52249402 25:0.53101355 26:0.96415645 27:0.64612406 28:0.48143122 29:0.39374167 30:0.34705892 31:0.39014918 32:0.87457377 33:0.70999688 34:0.54517061 35:0.96973675 36:0.51976705 37:0.0298534 38:0.14561455 39:0.24806884 40:0.58854502 41:0.58118343 42:0.47628281 43:0.96829343 44:0.51910436 45:0.55742043 46:0.66059119 47:0.67123914 48:0.95676124 49:0.61293674 50:0.3752687 51:0.15466882 52:0.30661875 53:0.35836983 54:0.49912763 55:0.59055996 56:0.23702012 
-0.1281873042913872 1:0.91061956 2:0.3735871 3:0.43896466 4:0.56633133 5:0.53783149 6:0.35411537 7:0.54821694 8:0.68378055 9:0.10349355 10:0.62352878 11:0.50938499 12:0.58436346 13:0.20527096 14:0.2795814 15:0.59589612 16:0.42947578 17:0.31629911 18:0.52267265 19:0.92792684 20:0.58235449 21:0.30355787 22:0.27531984 23:0.65104872 24:0.62338352 25:0.27266842 26:0.72736931 27:0.86559737 28:0.36543047 29:0.2724787 30:0.27205101 31:0.68641168 32:0.82242888 33:0.72331572 34:0.65525997 35:0.58286715 36:0.68561518 37:0.099639043 38:0.014302743 39:0.33002955 40:0.08039546 41:0.33511233 42:0.63397169 43:0.74599439 44:0.28665215 45:0.63940859 46:0.76969767 47:0.42621312 48:0.7744078 49:0.72316152 50:0.26173007 51:0.29256225 52:0.47541443 53:0.36471322 54:0.59395599 55:0.65041864 56:0.18193868 
-0.001787566058374204 1:0.78753102 2:0.53004295 3:0.51164651 4:0.43984637 5:0.49822208 6:0.071592554 7:0.61305046 8:0.69249886 9:0.85742778 10:0.92575616 11:0.65552443 12:0.44381526 13:0.76303041 14:0.38780907 15:0.26163206 16:0.71308309 17:0.39358208 18:0.52549458 19:0.5922156 20:0.49466532 21:0.22510605 22:0.49378335 23:0.48405713 24:0.69100213 25:0.25017905 26:0.54104543 27:0.62066531 28:0.51129878 29:0.56119716 30:0.31184006 31:0.63024747 32:0.70785761 33:0.52670258 34:0.46508762 35:0.21099302 36:0.3047806 37:0.64983577 38:0 39:0.1837084 40:0.77588254 41:0.40660936 42:0.42847654 43:0.94279903 44:0.38115707 45:0.50635093 46:0.74102294 47:0.59461147 48:0.49963415 49:0.34459972 50:0.41175106 51:0.54761523 52:0.57500398 53:0.24528831 54:0.66819596 55:0.34367564 56:0.17512041 
-1.917422495741442 1:0.78753102 2:0.53004295 3:0.51164651 4:0.43984637 5:0.49822208 6:0.071592554 7:0.61305046 8:0.69249886 9:0.85742778 10:0.92575616 11:0.65552443 12:0.44381526 13:0.76303041 14:0.38780907 15:0.26163206 16:0.71308309 17:0.39358208 18:0.52549458 19:0.5922156 20:0.49466532 21:0.22510605 22:0.49378335 23:0.48405713 24:0.69100213 25:0.25017905 26:0.54104543 27:0.62066531 28:0.51129878 29:0.56119716 30:0.31184006 31:0.63024747 32:0.70785761 33:0.52670258 34:0.46508762 35:0.21099302 36:0.3047806 37:0.64983577 38:0 39:0.1837084 40:0.77588254 41:0.40660936 42:0.42847654 43:0.94279903 44:0.38115707 45:0.50635093 46:0.74102294 47:0.59461147 48:0.49963415 49:0.34459972 50:0.41175106 51:0.54761523 52:0.57500398 53:0.24528831 54:0.66819596 55:0.34367564 56:0.17512041 
-0.001085216982388244 1:0.50925159 2:0.52379465 3:0.76495427 4:0.48121098 5:0.43285629 6:1 7:0.46422148 8:0.5770936 9:0.4170123 10:0.35352409 11:0.50457519 12:0.15662885 13:0.090571523 14:0.15274835 15:0.27315187 16:0.26967323 17:0.51657033 18:0.6614691 19:0.57742387 20:0.31809333 21:0.51746601 22:0.1446422 23:0.50499725 24:0.64208508 25:0.32423982 26:0.31741077 27:0.66945744 28:0.055859327 29:0.57303554 30:0.45157751 31:0.55577105 32:0.4085308 33:0.61111838 34:0.52401441 35:0.84236699 36:0.81998008 37:0.62550557 38:0.50834495 39:0.41296273 40:0.85833782 41:0.58050203 42:0.31696227 43:0.37904406 44:0.26802352 45:0.51565224 46:0.60625923 47:0.48504874 48:0.85701603 49:0.31418321 50:0.4249914 51:0.53166682 52:0.8425082 53:0.19063513 54:0.68395483 55:0.38380077 56:0.25614551 
-0.8156758823519928 1:0.50925159 2:0.52379465 3:0.76495427 4:0.48121098 5:0.43285629 6:1 7:0.46422148 8:0.5770936 9:0.4170123 10:0.35352409 11:0.50457519 12:0.15662885 13:0.090571523 14:0.15274835 15:0.27315187 16:0.26967323 17:0.51657033 18:0.6614691 19:0.57742387 20:0.31809333 21:0.51746601 22:0.1446422 23:0.50499725 24:0.64208508 25:0.32423982 26:0.31741077 27:0.66945744 28:0.055859327 29:0.57303554 30:0.45157751 31:0.55577105 32:0.4085308 33:0.61111838 34:0.52401441 35:0.84236699 36:0.81998008 37:0.62550557 38:0.50834495 39:0.41296273 40:0.85833782 41:0.58050203 42:0.31696227 43:0.37904406 44:0.26802352 45:0.51565224 46:0.60625923 47:0.48504874 48:0.85701603 49:0.31418321 50:0.4249914 51:0.53166682 52:0.8425082 53:0.19063513 54:0.68395483 55:0.38380077 56:0.25614551 
-0.7872937919662238 1:0.76946509 2:0.81750476 3:0.47053874 4:0.93954998 5:0.22574352 6:0.42250237 7:0.12780102 8:0.64267427 9:0.47182545 10:0.84799552 11:0.72041708 12:0.5134477 13:0.46608999 14:0.417887 15:0.73756778 16:0.47208214 17:0.49185622 18:0.61244184 19:0.33237267 20:0.37086812 21:0.37514028 22:0.95399445 23:0.22200036 24:0.22530939 25:0.40916121 26:0.60820687 27:0.27672207 28:0.48311818 29:0.16780007 30:0.60579318 31:0.39984685 32:0.49326724 33:0.56213963 34:0.48847547 35:0.47088146 36:0.24247059 37:0.45269316 38:0.41345918 39:0.69968891 40:0.32410413 41:0.82209706 42:0.32807764 43:0.53314275 44:0.70204973 45:0.37935996 46:0.6456269 47:0.5039649 48:0.63049775 49:0.2254931 50:0.38632351 51:0.64606267 52:0.75362641 53:0.3417317 54:0.58413255 55:0.82915038 56:0.17925605 
-2.902730832642337 1:0.537458 2:0.28377399 3:0.54084474 4:0.54643166 5:0.41012663 6:0.64932477 7:0.36980236 8:0.70115823 9:0.72524977 10:0.54727632 11:0.87495112 12:0.2704868 13:0.95905066 14:0.6269567 15:0.38530874 16:0.327025 17:0.17123632 18:0.44931361 19:0.3858943 20:0.81759322 21:0.42535761 22:0.27925345 23:0.65341449 24:0.14885542 25:0.43574575 26:0.88324219 27:0.3274819 28:0.24075234 29:0.59480762 30:0.53891867 31:0.64054042 32:0.74038708 33:0.68500733 34:0.47539151 35:0.58014262 36:0.2739172 37:0.57382166 38:0.6165244 39:0.70576513 40:0.58203202 41:0.51164764 42:0.64479774 43:0.70273155 44:0.95234436 45:0.29590827 46:0.54313594 47:0.28848135 48:0.54174781 49:1 50:0.03285557 51:0.37014937 52:0.98830497 53:1 54:0.77619231 55:0.043829363 56:0.42173705 
-0.0009299880842728384 1:0.39230499 2:0.45013961 3:0.49366495 4:0.81442499 5:0.71290845 6:0.27496371 7:0.934874 8:0.2376765 9:0.51785266 10:0.62423515 11:0 12:0.56674641 13:0.25142717 14:0.46503404 15:0.61785167 16:0.95256662 17:0.60819685 18:0.44797045 19:0.69994277 20:0.038106598 21:0.5893389 22:0.51903552 23:0.41453126 24:0.80630422 25:0.43894979 26:0.3557792 27:0.62032163 28:0.72046506 29:0.14999954 30:0.71778029 31:0.23893742 32:0.29657465 33:0.40520212 34:0.26024127 35:0.68317831 36:0.49508247 37:0.53172201 38:0.59731698 39:0.65747511 40:0.61690313 41:0.60437864 42:0.83910614 43:0.81790513 44:0.60747665 45:0.41112596 46:0.73134744 47:0.29751727 48:0.51577997 49:0.75668949 50:0.010547154 51:0.2973235 52:1 53:0.87805057 54:0.84941548 55:0.015701406 56:0.48525631 
-3.520284980275147 1:0.39230499 2:0.45013961 3:0.49366495 4:0.81442499 5:0.71290845 6:0.27496371 7:0.934874 8:0.2376765 9:0.51785266 10:0.62423515 11:0 12:0.56674641 13:0.25142717 14:0.46503404 15:0.61785167 16:0.95256662 17:0.60819685 18:0.44797045 19:0.69994277 20:0.038106598 21:0.5893389 22:0.51903552 23:0.41453126 24:0.80630422 25:0.43894979 26:0.3557792 27:0.62032163 28:0.72046506 29:0.14999954 30:0.71778029 31:0.23893742 32:0.29657465 33:0.40520212 34:0.26024127 35:0.68317831 36:0.49508247 37:0.53172201 38:0.59731698 39:0.65747511 40:0.61690313 41:0.60437864 42:0.83910614 43:0.81790513 44:0.60747665 45:0.41112596 46:0.73134744 47:0.29751727 48:0.51577997 49:0.75668949 50:0.010547154 51:0.2973235 52:1 53:0.87805057 54:0.84941548 55:0.015701406 56:0.48525631 
-0.05625828772059938 1:0.41503868 2:0.11147461 3:0.38172814 4:0.36513615 5:0.66466016 6:0.42495939 7:0.55594814 8:0.36205736 9:0.66975093 10:0.75930834 11:0.25337201 12:0.51113081 13:0.27607548 14:0 15:0.39482412 16:0.41125947 17:0.13214609 18:0.57292402 19:0.10849028 20:0.2975949 21:0.47190854 22:0.49875259 23:0.46266812 24:0.32500419 25:0.41334224 26:0.69373184 27:0.22622013 28:0.44137892 29:0.34850815 30:0.34720463 31:0.37010744 32:0.39441103 33:0.80247182 34:0.6330713 35:0.73822302 36:0.41362369 37:0.64831322 38:0.7571665 39:0.59818494 40:0.95493239 41:0.45983714 42:0.61096239 43:0.553931 44:0.33992353 45:0.39308533 46:0.64003146 47:0.55100888 48:0.60391074 49:0.32839644 50:0.28152162 51:0.61389047 52:0.73726165 53:0.10934597 54:0.62080246 55:0.49158782 56:0.13582006 
-0.001385469613051925 1:0.31545153 2:0.33583057 3:0.36566526 4:0.40753031 5:0 6:0.41572005 7:0.26540717 8:0.24725051 9:0.28803003 10:0.735762 11:0.81893891 12:0.7019428 13:0.12805127 14:0.096317805 15:0.48628122 16:0.48243949 17:0.35211954 18:0.74751669 19:0.29425213 20:0.25990683 21:0.92750698 22:0.60894459 23:0.31401265 24:0.5254972 25:0.31306797 26:0.59317982 27:0.63194525 28:0.62090647 29:0.20372437 30:0.49060899 31:0.37313139 32:0.39955741 33:0.55475843 34:0.68022299 35:0.24245557 36:0.37904477 37:0.35084245 38:0.43996784 39:0.42958909 40:0.78648275 41:0.28715682 42:0.31875959 43:0.65576202 44:0.56644243 45:0.49546739 46:0.68317473 47:0.42769974 48:0.50429916 49:0.34536216 50:0.41319749 51:0.28957695 52:0.50317371 53:0.18846631 54:0.63497257 55:0.40206343 56:0.25904799 
-4.599601349500067 1:0.31545153 2:0.33583057 3:0.36566526 4:0.40753031 5:0 6:0.41572005 7:0.26540717 8:0.24725051 9:0.28803003 10:0.735762 11:0.81893891 12:0.7019428 13:0.12805127 14:0.096317805 15:0.48628122 16:0.48243949 17:0.35211954 18:0.74751669 19:0.29425213 20:0.25990683 21:0.92750698 22:0.60894459 23:0.31401265 24:0.5254972 25:0.31306797 26:0.59317982 27:0.63194525 28:0.62090647 29:0.20372437 30:0.49060899 31:0.37313139 32:0.39955741 33:0.55475843 34:0.68022299 35:0.24245557 36:0.37904477 37:0.35084245 38:0.43996784 39:0.42958909 40:0.78648275 41:0.28715682 42:0.31875959 43:0.65576202 44:0.56644243 45:0.49546739 46:0.68317473 47:0.42769974 48:0.50429916 49:0.34536216 50:0.41319749 51:0.28957695 52:0.50317371 53:0.18846631 54:0.63497257 55:0.40206343 56:0.25904799 
-1.813596263903795 1:0.50952727 2:0.59088022 3:0.43103027 4:0.31358641 5:0.40712899 6:0.70645636 7:0.53968394 8:0.49675465 9:0.36267686 10:0.7516126 11:0.24615479 12:0.6360783 13:0.57444954 14:0.34851167 15:0.49997589 16:0.47674626 17:0.46360439 18:0.69774455 19:0.042316485 20:0.20230433 21:0.19964579 22:0.34447172 23:0.60792029 24:0.23611711 25:0.48842695 26:0.731107 27:0.45626047 28:0.56160492 29:0.15619288 30:0.52841592 31:0.43878606 32:0.88557929 33:0.77544177 34:0.5551613 35:0.42332467 36:0.50940877 37:0.25595307 38:0.42059395 39:0.63513303 40:0.3366769 41:0.68164831 42:0.70769745 43:0.44937533 44:0.39170581 45:0.70648485 46:0.64793658 47:0.75904238 48:0.65065128 49:0.4665176 50:0.57806557 51:0.42892608 52:0.63739026 53:0.39284122 54:0.59666264 55:0.71902138 56:0.21272694 
-8.632789541429082e-05 1:0.59372181 2:0.71740973 3:0.53179395 4:0.23422071 5:0.60871923 6:0.63288581 7:0.24289186 8:0.29865825 9:0.91042787 10:0.6666286 11:0.58306146 12:0.54030085 13:0.73778021 14:0.64363474 15:0.65132678 16:0.35041094 17:0.10547097 18:0.40166354 19:0.98315179 20:0.00029136508 21:0.45147836 22:0.44819066 23:0.42883632 24:0.58563793 25:0.56869638 26:0.6289047 27:0.62921923 28:0.32551354 29:0.34736663 30:0.78238773 31:0.6125263 32:0.57932383 33:0.47220635 34:0.73601925 35:0.6017949 36:0.24343929 37:0.65682811 38:0.47468114 39:0.49569425 40:0.66742021 41:0.13916947 42:0.69874048 43:0.56255907 44:0.77241147 45:0.56232077 46:0.64535308 47:0.45698661 48:0.56714147 49:0.34028074 50:0.48057595 51:0.39083225 52:0.44101474 53:0.3285163 54:0.73693687 55:0.77774894 56:0.2359802 
-2.568240778515563 1:0.59372181 2:0.71740973 3:0.53179395 4:0.23422071 5:0.60871923 6:0.63288581 7:0.24289186 8:0.29865825 9:0.91042787 10:0.6666286 11:0.58306146 12:0.54030085 13:0.73778021 14:0.64363474 15:0.65132678 16:0.35041094 17:0.10547097 18:0.40166354 19:0.98315179 20:0.00029136508 21:0.45147836 22:0.44819066 23:0.42883632 24:0.58563793 25:0.56869638 26:0.6289047 27:0.62921923 28:0.32551354 29:0.34736663 30:0.78238773 31:0.6125263 32:0.57932383 33:0.47220635 34:0.73601925 35:0.6017949 36:0.24343929 37:0.65682811 38:0.47468114 39:0.49569425 40:0.66742021 41:0.13916947 42:0.69874048 43:0.56255907 44:0.77241147 45:0.56232077 46:0.64535308 47:0.45698661 48:0.56714147 49:0.34028074 50:0.48057595 51:0.39083225 52:0.44101474 53:0.3285163 54:0.73693687 55:0.77774894 56:0.2359802 
-1.121151500815188 1:0.54310715 2:0.30520302 3:1 4:0.58407938 5:0.66457969 6:0.4218722 7:0.57978511 8:0.23403071 9:0.44317541 10:0.5922066 11:0.69691259 12:0.44784677 13:0.19114882 14:0.69593281 15:0.53151339 16:0.45754251 17:0.49312693 18:0.26074681 19:0.60705692 20:0.41927487 21:0.29945365 22:0.33141926 23:0.66913325 24:0.84959507 25:0.34275892 26:0.59904152 27:0.40522471 28:0 29:0.22291581 30:0.84531856 31:0.36268643 32:0.75258332 33:0.7120586 34:0.71398222 35:0.52585888 36:0.31509319 37:0.38989222 38:0.32736644 39:0.51241171 40:0.65648514 41:0.50712329 42:0.52358961 43:0.50798804 44:0.57717687 45:0.57553202 46:0.69527334 47:0.46863374 48:0.82489097 49:0.23668766 50:0.43238941 51:0.32649475 52:0.52925795 53:0.37512699 54:0.72789174 55:0.73872072 56:0.25605518 
-1.262545163681076 1:0.41205826 2:0.69218701 3:0.28592211 4:0.26227772 5:0.76971662 6:0.10156224 7:0.91069686 8:0.32417768 9:0.645455 10:0.47478577 11:0.90171915 12:0.27241829 13:0.40334922 14:0.84785986 15:0.72749019 16:0.46616074 17:0 18:0.62027651 19:0.35624143 20:0.29883143 21:0.33068204 22:0.37228811 23:0.57514787 24:0.75518471 25:0.51847595 26:0.56168097 27:0.34383824 28:0.57952732 29:0.91951799 30:0.33185461 31:0.54969835 32:0.28733513 33:0.7403453 34:0.76269901 35:0.56808555 36:0.57991618 37:0.43136945 38:0.44378552 39:0.329586 40:0.48507071 41:0.49935672 42:0.24600214 43:0.64267564 44:0.59976357 45:0.6119253 46:0.88838404 47:0.59327775 48:0.36695188 49:0.49117374 50:0.25279438 51:0.57346517 52:0.7176317 53:0.27920532 54:0.76873595 55:0.62113661 56:0.16594276 
