svm_type c_svc
kernel_type rbf
gamma 0.09
nr_class 2
total_sv 21
rho -0.704535
label 130660102 130660103
probA -3.6448
probB -0.0956948
nr_sv 10 11
SV
3.567739524482852 1:0.41069648 2:0.36981085 3:0.63917142 4:0.47885379 5:0.88157737 6:0.47600392 7:0.47174761 8:0.61965781 9:0.49991468 10:0.50432175 11:0 12:0.65222043 13:0 14:0.8419292 15:0.54162115 16:0.42938715 17:0.31307447 
0.8241088810433285 1:0.00810658 2:0.38984841 3:0.56573647 4:0.48412001 5:0.12885459 6:0.16504522 7:0.33629543 8:0.22036223 9:0.66291225 10:0.5711416 11:0.59179783 12:0.49382365 13:0.32280296 14:0.30814356 15:0.75144124 16:0.89851046 17:0.044818446 
3.120436554870661 1:0.44144508 2:0.32996735 3:0.65718174 4:0.50337207 5:0.22627036 6:0.37853402 7:1 8:0.83243519 9:0.5770601 10:0.67838186 11:0.30566153 12:0 13:0.71358317 14:0.63011074 15:0.76391745 16:0.27831179 17:0.23125869 
2.063938038366379 1:0.64241773 2:0.36269298 3:0.54331326 4:0.47880948 5:0.91586441 6:0.52286881 7:0.31571048 8:0.34929675 9:0.44352207 10:0.71521115 11:0.67780691 12:0.24742292 13:0.78875017 14:0.34717497 15:1 16:0.73469746 17:2.3085677e-16 
9.655901252482286 1:0.53592187 2:0.35077259 3:0.70749456 4:0.40671104 5:0.54935068 6:0.49431315 7:0.51188278 8:0.44331282 9:0.49972034 10:0.32589579 11:0.18073821 12:0.2877771 13:0.55288744 14:0 15:0.18297428 16:0.67081577 17:0.26574057 
4.851412399888424 1:0.45637655 2:0.32954255 3:0.56240666 4:0.28065065 5:0.51181948 6:0.42728591 7:0.96245474 8:0.46437925 9:0.61706567 10:0.94307333 11:0.13097763 12:1 13:0.87585044 14:0.18087567 15:0.60951686 16:0.6829809 17:0.27261654 
7.121878783869136 1:0.44145286 2:0.27972499 3:0.50915015 4:0.32902646 5:0.45946133 6:0.29178613 7:0.32122847 8:0.97332424 9:0.33324113 10:1 11:1 12:0.57549548 13:0.38134375 14:0.24240324 15:0.22997968 16:0.30036634 17:0.2712 
4.870820506931416 1:0.36013418 2:0.3541913 3:0.57262206 4:0.56914848 5:0.54835069 6:0.27053472 7:0.47507977 8:0.30160525 9:0.46444219 10:0.76592267 11:0.45691943 12:0.43341491 13:1 14:1 15:1.1040134e-15 16:0.9165076 17:0.32517788 
3.283276438785359 1:0.31733903 2:0.30908054 3:0.58682442 4:0.9138698 5:0.36496338 6:0.8152706 7:0.76057321 8:0.16642019 9:0.56946343 10:0.35391015 11:0.85587412 12:0.68289542 13:0.66938955 14:0.45620584 15:0.45456076 16:0.077059463 17:0.34132567 
4.88278532187854 1:0.39040825 2:0.32243735 3:0.71576214 4:0.23464988 5:0.26550245 6:0.22270429 7:0 8:0.38132438 9:0.28324577 10:0.34629866 11:0.13566908 12:0.60375077 13:0.96920079 14:0.48058879 15:0.62202144 16:1.3043588e-15 17:0.30511397 
-0.6140667177704974 1:0.49986193 2:0.2058949 3:0.64219189 4:0.80213273 5:0.28101784 6:0.79211438 7:0.34131959 8:0.40552664 9:0.034413822 10:0.64017975 11:0.32521844 12:0.51422119 13:0.38411206 14:0.45790431 15:0.6731481 16:0.8961302 17:0.67255038 
-1.484100375001344 1:0.0072335978 2:0.32239622 3:0.86851102 4:0 5:0.75327396 6:0.7545343 7:0.35983038 8:0.98716396 9:0.57339984 10:0.24608453 11:0.82430542 12:0.55215818 13:0.79402721 14:0.64133561 15:0.56659144 16:0.68167621 17:0.70996869 
-3.208380182459452 1:0.52324533 2:0.26594877 3:0.43805265 4:0.31615749 5:0.84273481 6:0.24590692 7:0.29398319 8:0.39412838 9:1 10:0.27542439 11:0.58354723 12:0.5099473 13:0.62381864 14:0.51281083 15:0.47324973 16:0.632918 17:0.75395989 
-2.341070174224763 1:0.39618036 2:0.0058713513 3:0.97448945 4:0.61117524 5:0.64437771 6:0.82049203 7:0.29719326 8:0.69566202 9:0.3739132 10:0.65795088 11:0.34003001 12:0.46482307 13:0.67074627 14:0.31325844 15:0.56948376 16:0.82584417 17:0.72790802 
-6.32968672321809 1:0.76084656 2:0.6585207 3:0.22136816 4:0.7777797 5:0.27907515 6:4.7316859e-16 7:0.89904684 8:0.50508326 9:0.29339299 10:0.62987047 11:0.33874521 12:0.46663022 13:0.49728742 14:0.36666659 15:0.47426665 16:0.35834605 17:0.81276774 
-7.379052056167564 1:0.5214197 2:0.50885522 3:0.77657592 4:0.67516398 5:0.63991237 6:0.069878951 7:0.38076234 8:0.79444331 9:0.28350747 10:0.51625395 11:0.44717053 12:0.49075189 13:0.80718851 14:0.15316531 15:0.59462637 16:0.71641749 17:0.66349691 
-3.586680362438342 1:0.50985754 2:0.16547544 3:0.48925307 4:1 5:0.63555485 6:0.36739466 7:0.22857225 8:0.96830028 9:0.35043254 10:0.4749614 11:0.31509313 12:0.65088695 13:0.92723519 14:0.2909801 15:0.64821696 16:0.66109455 17:0.60029733 
-0.8609516018597139 1:0.009333373 2:0.22125219 3:0.30604723 4:0.15660226 5:0.11822598 6:0.49101874 7:0.78528327 8:0.49708056 9:0 10:0.33733326 11:0.56398183 12:0.46888664 13:0.65038329 14:0.46676153 15:0.64080274 16:0.94312996 17:0.65114892 
-6.136425520522551 1:0.2849423 2:0.56681007 3:0.47498697 4:0.11910226 5:0.30567899 6:1 7:0.55297995 8:0.53957427 9:0.47450781 10:0.68900567 11:0.22327559 12:0.52361393 13:0.54985476 14:0.4715482 15:0.50284249 16:0.61787003 17:0.78192741 
-6.874367653724353 1:0.063760355 2:0.24866635 3:0.65585721 4:0.29355612 5:0.49081272 6:0.37382972 7:0.41807389 8:0.41361055 9:0.50828004 10:0.83721721 11:0.52274847 12:0.38258615 13:0.67052633 14:0.26662931 15:0.46921572 16:0.43529823 17:0.85430872 
-5.42751633521171 1:0.78218621 2:0.013314539 3:0.40562645 4:0.14791492 5:0.28973424 6:0.59549481 7:0.27019262 8:0.35786054 9:0.728064 10:0.44064915 11:0.64066243 12:0.44014385 13:0.51215935 14:0.48114091 15:0.50954318 16:0.63786513 17:0.71833962 
