svm_type c_svc
kernel_type rbf
gamma 0.09
nr_class 2
total_sv 26
rho 1.09317
label 130650102 130650103
probA -3.88689
probB -0.0193692
nr_sv 10 16
SV
9.614657398664425 1:0.8276372 2:0.52723002 3:0.70668411 4:0.66638201 5:0.51040888 6:0.36061451 7:0.47728789 8:0.46249717 9:0.48744473 10:0.30766299 11:0.46748117 12:0.548244 13:0.44403404 14:0.37913635 15:0.052041832 
6.179492133406626 1:0.6629141 2:0.27071118 3:0.92457563 4:0.97424579 5:0.54292732 6:0.50308001 7:0.43689722 8:0.6807161 9:0.52863753 10:0.4661254 11:0.40708011 12:0.26199779 13:0.76156223 14:0.63845551 15:0.12089088 
1.31577416309186 1:0.74108273 2:0.29119512 3:0.90667355 4:0.87789071 5:0.33130872 6:0.4960413 7:0.48491353 8:0.76851928 9:0.51965475 10:0.44447243 11:0.4688091 12:0.27434087 13:0.74819756 14:0.70032054 15:0.11968785 
3.503884457493561 1:0.1597041 2:0.20227718 3:0.13706091 4:0.41219765 5:0.76888353 6:0.31983334 7:0.3781167 8:0.34821913 9:0.23947105 10:0.4146131 11:0.45224494 12:0.49120069 13:0.42034423 14:0.63543648 15:0.62268478 
10 1:0.5913381 2:0.28806069 3:0.18312807 4:0.52447468 5:0.69536549 6:0.55758053 7:0.39194465 8:0.39823321 9:0.28658399 10:0.35478067 11:0.83891541 12:0.50918823 13:0.51064277 14:0.47583741 15:0.74424791 
3.510476454963477 1:0.24009049 2:0.46144322 3:0.3266063 4:0.4278928 5:0.80040902 6:0.41236344 7:0.30516529 8:0.27565885 9:0.29927388 10:0.60038304 11:0.55549443 12:0.70707023 13:0.57128483 14:0.71039617 15:0.50994021 
9.366637042140834 1:0.43111867 2:0.46093735 3:1.6137591e-15 4:0.61684191 5:0.56875616 6:0.44389346 7:0.3633391 8:0.42000514 9:0.20762001 10:0.30243099 11:0.68414772 12:0.61223084 13:0.52257967 14:0.53943843 15:0.62994605 
2.231973572267415 1:0.56737238 2:0.37589383 3:0.71098113 4:0.70123279 5:0.46044168 6:0.32644078 7:0.21664663 8:0.58331138 9:0.72317189 10:0.81318152 11:0.9382441 12:0.086389162 13:0.074468136 14:0.30770576 15:0.98287278 
10 1:0.70904201 2:0.39274698 3:0.77212644 4:0.62007469 5:0.40216836 6:0.24837337 7:0.2778604 8:0.73503828 9:0.85602468 10:0.82795292 11:0.98306119 12:0.071468174 13:0.048810519 14:0.3035697 15:1 
10 1:0.45128903 2:0.30953243 3:0.48111245 4:0.42400774 5:0.69724858 6:0.45728645 7:0.4529787 8:0.33915019 9:0.44826272 10:0.53259164 11:0.47250593 12:0.53850776 13:0.65403211 14:0.60509437 15:0.39772344 
-0.000114999462009899 1:0.70228618 2:0.18035255 3:0.32368362 4:0.68724769 5:0.47013363 6:0.15586738 7:0.51997203 8:0.85221487 9:0.66457659 10:0.41259122 11:0.55884498 12:1 13:0.57796085 14:0.61504859 15:0.77561438 
-3.325545386665879 1:0.70228618 2:0.18035255 3:0.32368362 4:0.68724769 5:0.47013363 6:0.15586738 7:0.51997203 8:0.85221487 9:0.66457659 10:0.41259122 11:0.55884498 12:1 13:0.57796085 14:0.61504859 15:0.77561438 
-10 1:0.70228618 2:0.18035255 3:0.32368362 4:0.68724769 5:0.47013363 6:0.15586738 7:0.51997203 8:0.85221487 9:0.66457659 10:0.41259122 11:0.55884498 12:1 13:0.57796085 14:0.61504859 15:0.77561438 
-0.0001122982558330508 1:0.34937584 2:0.1727335 3:0.53840286 4:0.92550039 5:0.75896508 6:0.45254025 7:0.67134881 8:0.0095422016 9:1 10:0.21648593 11:0.66030258 12:0.30487651 13:0.67557359 14:0.54282963 15:0.83568674 
-9.479968528568175 1:0.34937584 2:0.1727335 3:0.53840286 4:0.92550039 5:0.75896508 6:0.45254025 7:0.67134881 8:0.0095422016 9:1 10:0.21648593 11:0.66030258 12:0.30487651 13:0.67557359 14:0.54282963 15:0.83568674 
-6.320138761074517 1:0.52309471 2:0.72350806 3:0.94574857 4:0.28950268 5:0.8277173 6:0.41855431 7:0.30286205 8:0.18755095 9:0.56136078 10:0.75873047 11:0.46588913 12:0.70037925 13:0.72184306 14:0.40807718 15:0.75366408 
-0.0001311301643851223 1:0.90304917 2:0.78999192 3:0.33527422 4:0.30938971 5:0.53220379 6:0.51656622 7:0.72898144 8:0.54807597 9:0.67930967 10:0.53105849 11:0.09054178 12:0.36493927 13:0.36815086 14:0.6937412 15:0.65234888 
-7.645249261479082 1:0.90304917 2:0.78999192 3:0.33527422 4:0.30938971 5:0.53220379 6:0.51656622 7:0.72898144 8:0.54807597 9:0.67930967 10:0.53105849 11:0.09054178 12:0.36493927 13:0.36815086 14:0.6937412 15:0.65234888 
-0.0002153306800860586 1:0.644256 2:0.56982464 3:0.72776443 4:0.57181138 5:0.41032788 6:1 7:0.35847041 8:0.35588673 9:0.17380665 10:0.18729511 11:0.70814353 12:0.72827137 13:0.40833902 14:0.54738373 15:0.83365458 
-2.073590187616198 1:0.644256 2:0.56982464 3:0.72776443 4:0.57181138 5:0.41032788 6:1 7:0.35847041 8:0.35588673 9:0.17380665 10:0.18729511 11:0.70814353 12:0.72827137 13:0.40833902 14:0.54738373 15:0.83365458 
-10 1:0.644256 2:0.56982464 3:0.72776443 4:0.57181138 5:0.41032788 6:1 7:0.35847041 8:0.35588673 9:0.17380665 10:0.18729511 11:0.70814353 12:0.72827137 13:0.40833902 14:0.54738373 15:0.83365458 
-3.917873762953809e-05 1:0.27122015 2:0.17977713 3:0.83575994 4:0.67810011 5:0.48769566 6:0.26612189 7:0.49297476 8:0.39283559 9:0.31787968 10:0.44674376 11:0 12:0.29815513 13:0.22451364 14:0.66840994 15:0.7830559 
-5.836650308650677 1:0.27122015 2:0.17977713 3:0.83575994 4:0.67810011 5:0.48769566 6:0.26612189 7:0.49297476 8:0.39283559 9:0.31787968 10:0.44674376 11:0 12:0.29815513 13:0.22451364 14:0.66840994 15:0.7830559 
-0.0003629010323551044 1:1 2:0.20826875 3:0.62206256 4:0.6153059 5:0.7939657 6:0.06750349 7:0.55689555 8:0.49032119 9:1.2537643e-15 10:0.43326586 11:0.62818128 12:0.22418326 13:0.64059711 14:0.18588017 15:0.89005613 
-1.040776949641369 1:1 2:0.20826875 3:0.62206256 4:0.6153059 5:0.7939657 6:0.06750349 7:0.55689555 8:0.49032119 9:1.2537643e-15 10:0.43326586 11:0.62818128 12:0.22418326 13:0.64059711 14:0.18588017 15:0.89005613 
-10 1:1 2:0.20826875 3:0.62206256 4:0.6153059 5:0.7939657 6:0.06750349 7:0.55689555 8:0.49032119 9:1.2537643e-15 10:0.43326586 11:0.62818128 12:0.22418326 13:0.64059711 14:0.18588017 15:0.89005613 
