svm_type c_svc
kernel_type rbf
gamma 0.09
nr_class 2
total_sv 10
rho 0.329574
label 130200102 130200103
probA -3.34606
probB -0.270759
nr_sv 5 5
SV
10 1:0.26930425 2:0.40209123 3:0.7670691 4:1 5:0.93309021 6:1.5862851e-16 7:0.60647541 8:0.25579 
4.068403038080358 1:1 2:0.7527436 3:0.40920016 4:0.72943914 5:0.53760368 6:0.11946184 7:0.38884968 8:0.27782661 
2.194743612284554 1:0.010641507 2:0.34854227 3:0.51356864 4:0.43653893 5:0.44890454 6:0.15155129 7:0.10992634 8:0.38101244 
9.414479768648203 1:0.53889686 2:1 3:0.9188838 4:0.32850456 5:0.73711658 6:0.46757498 7:0.2047133 8:0.37872046 
10 1:0.24445616 2:0.31235164 3:0.092553906 4:0.66141897 5:0.6100055 6:0.31018522 7:0.082642294 8:0.48473221 
-10 1:0.21081552 2:0.27092984 3:0.526528 4:0.14242132 5:0.94810075 6:0.18070567 7:0.76857316 8:0.10190415 
-10 1:0.53567481 2:0.95428646 3:0.04700375 4:0.83064896 5:1 6:0.37267476 7:0.60349631 8:0.072543867 
-8.744290529800191 1:1.2300254e-15 2:0.6719811 3:0.37531772 4:0.77470112 5:0.66547811 6:1 7:0.26000965 8:0.12449971 
-6.552981042166275 1:0.24713494 2:0.59131616 3:0.77148443 4:0.73678935 5:0 6:0.31239775 7:0.93722034 8:4.5450713e-16 
-0.3803548470466411 1:0.69043982 2:0.49384803 3:0.21336856 4:0 5:0.47386628 6:0.37786719 7:0.82641637 8:0.16265079 
