svm_type c_svc
kernel_type rbf
gamma 0.09
nr_class 2
total_sv 59
rho 0.252704
label 130970101 130970102
probA -4.43423
probB 0.481935
nr_sv 30 29
SV
7.255197123677682 1:0.76089984 2:0.77650177 3:0.8732577 4:0.3435055 5:0.78871065 6:0.67115802 7:0.51260012 8:0.17264023 9:0.45475009 10:0.69054312 11:0.62966698 12:0.33670241 13:0.28558534 14:0.38861823 15:0.89625168 16:0.58589858 17:0.41846409 18:0.65102661 19:0.49765095 20:0.40307158 21:0.90893233 22:0.60677409 23:0.7437467 24:0.30197254 25:0.10975211 26:0.55076623 27:0.48137891 28:0.70022357 29:0.38722107 30:0.31460729 31:0.72801286 32:0.76133639 
8.944822669096769 1:0.61294329 2:0.79277045 3:0.43424168 4:0.362019 5:0.74590498 6:0.67095733 7:0.64106709 8:0.42296574 9:0.061434139 10:0.41454077 11:0.39787531 12:0.64362311 13:0.60039073 14:0.40083155 15:0.33777717 16:0.49672246 17:0.41054797 18:0.53907764 19:0 20:0.54987502 21:0.11259017 22:0.41086188 23:0.51177728 24:0.54199213 25:0.44875702 26:0.49326482 27:0.70574158 28:0.95388842 29:0.73408538 30:0.50074315 31:0.80688184 32:0.71170276 
2.515736300182474 1:0.68526816 2:0.71200353 3:0.22106878 4:0.63366783 5:0.34620178 6:0.72778153 7:0.45268565 8:0.43292695 9:0.90189892 10:0.6219306 11:7.6250303e-17 12:0.14404225 13:0 14:0.49689585 15:0.36450869 16:0.31954527 17:0.41313779 18:0.47805941 19:0.23488548 20:0.54182953 21:0.11576962 22:0.89846748 23:0.23593408 24:0.65352762 25:0.56279576 26:0.4273847 27:0.69294852 28:0.92484909 29:0.71879083 30:0.33832285 31:0.93273228 32:0.63576949 
6.520400279797987 1:0.72125435 2:0.57595438 3:0.33488572 4:0.79667246 5:0.80859518 6:0.40536267 7:0.4789902 8:0.060705293 9:0.51685274 10:0.5143007 11:0.65827703 12:0.70542669 13:0.32206279 14:0.38269693 15:0.79817307 16:0.27861354 17:0.3686285 18:0.55391562 19:0.97013068 20:0.21815242 21:0.21111858 22:0.59388965 23:0.53144544 24:0.72921681 25:0.71086067 26:0.55309665 27:0.81799865 28:0.9162845 29:0.61194414 30:0.44435129 31:0.80211687 32:0.71136087 
3.016230229256014 1:0.47706524 2:0.54809332 3:0.46571994 4:0.46978572 5:0.45307508 6:0.51949948 7:0.34170333 8:0.3192099 9:0.90903187 10:0.83023059 11:0.23082431 12:0.40985876 13:0.12642498 14:0.71839309 15:0.61035627 16:0.47263989 17:0.66121697 18:0.53340065 19:0.81825167 20:0.57080758 21:0.43962801 22:0.67249286 23:0.68239021 24:0.78019708 25:0.57595068 26:0.62714207 27:0.51150352 28:0.93266153 29:0.67616212 30:0.28997511 31:0.90877831 32:0.67058599 
2.235619365628207 1:0.64536297 2:0.78450418 3:0.32048765 4:0.45305738 5:0.62870407 6:0.34511524 7:0.36876562 8:0.33828357 9:0.2248303 10:0.20944554 11:0.6621365 12:0.28973991 13:0.38384899 14:0.51467049 15:0.51263213 16:0.23895745 17:0.65771979 18:0.63260376 19:0.5063501 20:0.93219745 21:0.76774848 22:0.42492071 23:0.80385101 24:0.34613737 25:0.28888574 26:0.32103696 27:0.68055499 28:0.63986784 29:0.87434977 30:0.55354226 31:0.85848135 32:0.67752874 
8.376753387196478 1:0.62901717 2:0.6353175 3:0.45818743 4:0.23917548 5:0.33688229 6:0.59971935 7:0.83444071 8:0.41838822 9:0.34919026 10:1 11:0.45434874 12:0.42440921 13:0.50768691 14:0.40358204 15:0.79606384 16:0.46574411 17:0.56280911 18:0.32730868 19:0.13534848 20:0.33097005 21:0.66786659 22:0.67211533 23:0.46988973 24:0.28659278 25:0.36878562 26:0.58675349 27:0.51230329 28:0.6266042 29:0.65186733 30:0.54650933 31:0.81959426 32:0.67073029 
5.599112737308473 1:0.4091759 2:0.69049186 3:0.43152052 4:0.61567491 5:0.55108678 6:0.33079916 7:0.71430939 8:0.44168276 9:0.33379269 10:0.46513543 11:0.42141739 12:0.60471684 13:0.30190724 14:0.61989576 15:0.50387079 16:0.36356953 17:0.70060265 18:0.57312262 19:0.4076426 20:0.35786712 21:0.98622096 22:0.43910041 23:0.07548885 24:0.24960208 25:0.35528412 26:0.32657367 27:0.40813318 28:0.82918233 29:0.64213496 30:0.53343612 31:0.8105709 32:0.72405523 
5.52223988705862 1:0.75649768 2:0.65000749 3:0.47829121 4:0.65117264 5:0.30726996 6:0.64504391 7:0.12253926 8:0.4240309 9:0.48263511 10:0.46694908 11:0.335033 12:0.96958244 13:0.35526159 14:0.50737357 15:0.22116634 16:3.9716631e-16 17:0.65848118 18:0.1287518 19:0.47316554 20:0.64782131 21:0.80695039 22:0.26068193 23:0.88617581 24:0.73156798 25:0.44317985 26:0.72070837 27:0.66362101 28:0.34967107 29:0.37166214 30:0.67871016 31:0.54395354 32:0.82541108 
4.365349430849392 1:0.42152783 2:0.83885974 3:0.82461977 4:0.50741112 5:0.55361146 6:0.32222152 7:0.3414169 8:0.19430631 9:0.61960709 10:0.58099502 11:0.33919063 12:0.80148274 13:0.43771487 14:0.48189986 15:0.63108885 16:0.65795016 17:0.45805365 18:0.65597397 19:0.47404444 20:0.63102865 21:0.2079886 22:0.38348818 23:0.47323307 24:0.62867188 25:0.21166989 26:0.64524877 27:0.74570078 28:0.4192706 29:0.026151897 30:0.59578961 31:0.49197915 32:0.84087086 
3.731679225001141 1:2.0675049e-16 2:0.43608329 3:0.29731014 4:0.64137983 5:0.36607856 6:0.49564055 7:0.47846377 8:0.35390532 9:0.5448491 10:0.078145236 11:0.4832294 12:0.63173914 13:0.73865634 14:0.60667843 15:0.59797674 16:0.33825022 17:0.3499721 18:0.52185333 19:0.43673804 20:0.34956443 21:0.3453269 22:0.33942276 23:0.28071973 24:0.58505487 25:0.46812466 26:0.39480892 27:0.50673938 28:0.81775582 29:0.29040438 30:0.80553883 31:0.50605398 32:0.84124649 
10 1:2.0675049e-16 2:0.43608329 3:0.29731014 4:0.64137983 5:0.36607856 6:0.49564055 7:0.47846377 8:0.35390532 9:0.5448491 10:0.078145236 11:0.4832294 12:0.63173914 13:0.73865634 14:0.60667843 15:0.59797674 16:0.33825022 17:0.3499721 18:0.52185333 19:0.43673804 20:0.34956443 21:0.3453269 22:0.33942276 23:0.28071973 24:0.58505487 25:0.46812466 26:0.39480892 27:0.50673938 28:0.81775582 29:0.29040438 30:0.80553883 31:0.50605398 32:0.84124649 
0.2838458344838384 1:0.69018042 2:0.76406711 3:0.27430898 4:0.30098096 5:0 6:0.32379508 7:0.58698756 8:0.47132787 9:0.77826953 10:0.29321077 11:0.7654478 12:0.68903655 13:0.35541546 14:0.28326139 15:0.58406836 16:0.22096725 17:0.5125193 18:0.65216404 19:0.76975089 20:0.75569928 21:0.4180063 22:0.25327063 23:0.70634151 24:0.27288333 25:0.2665258 26:0.55944175 27:0.56090873 28:0.51668429 29:0.10730141 30:0.5669865 31:0.51017785 32:0.78020573 
3.643139106266848 1:0.63212651 2:0.82739919 3:0.87236881 4:0.5601871 5:0.87536651 6:0.78833234 7:0 8:0.45614401 9:0.61996657 10:0.23521248 11:0.46271461 12:0.47792187 13:0.39653736 14:0.63421351 15:0.51071697 16:0.4254863 17:0.68739831 18:0.56494224 19:0.18236159 20:0.42563364 21:0.60803407 22:0.53327823 23:0.59272593 24:0.4894852 25:0.43284935 26:0.6232385 27:0.66725481 28:0.45397183 29:0.42860693 30:0.65027708 31:0.59620595 32:0.86847615 
1.199812994560181 1:0.83363456 2:0.5557605 3:0.34199211 4:1 5:0.80550569 6:0.48629922 7:0.56855673 8:0.25110307 9:0.29426399 10:0.49633965 11:0.26318094 12:0.35142246 13:0.61894488 14:0.40285459 15:0.70524907 16:0.49017629 17:0.5476979 18:0.60984093 19:0.88638258 20:0.45283851 21:0.39889279 22:0.48214895 23:0.62032342 24:0.24599726 25:0.67785114 26:0.61433637 27:0.81634796 28:0.48372197 29:0.34723243 30:0.37218422 31:0.73302984 32:0.68790483 
0.1520035114118793 1:0.83837539 2:0.72301453 3:0.57521617 4:0.45860758 5:0.46953478 6:0.91648757 7:0.38208178 8:1 9:0.52721262 10:0.52524495 11:0.73404557 12:0.87983966 13:0.69912356 14:0.54523385 15:0.56431133 16:0.54811871 17:0.48302996 18:0.53835046 19:0.38570353 20:0.34362 21:0.28566083 22:0.33491257 23:0.13272426 24:0.55208856 25:0.61386156 26:0.48300838 27:0.51453686 28:0.91954052 29:0.25112262 30:0.58969712 31:0.58240646 32:0.86578381 
1.617724939544301 1:0.83837539 2:0.72301453 3:0.57521617 4:0.45860758 5:0.46953478 6:0.91648757 7:0.38208178 8:1 9:0.52721262 10:0.52524495 11:0.73404557 12:0.87983966 13:0.69912356 14:0.54523385 15:0.56431133 16:0.54811871 17:0.48302996 18:0.53835046 19:0.38570353 20:0.34362 21:0.28566083 22:0.33491257 23:0.13272426 24:0.55208856 25:0.61386156 26:0.48300838 27:0.51453686 28:0.91954052 29:0.25112262 30:0.58969712 31:0.58240646 32:0.86578381 
0.0114751321169899 1:0.45559961 2:0.557289 3:0.41007918 4:0.28871033 5:0.39408234 6:0.43553138 7:0.79976666 8:0.19262046 9:0.64654398 10:0.57045329 11:0.84311801 12:0.31627318 13:0.58781576 14:0.43162367 15:0.69408309 16:0.63840747 17:0.45916396 18:0.44402599 19:0.15987931 20:0.19113076 21:0.43854448 22:0.78073877 23:0.81962311 24:0.69647884 25:0.58251888 26:0.37744355 27:0.61158395 28:0.80422658 29:0.27991211 30:0.65545475 31:0.52437824 32:0.86741555 
2.693653951043405 1:0.45559961 2:0.557289 3:0.41007918 4:0.28871033 5:0.39408234 6:0.43553138 7:0.79976666 8:0.19262046 9:0.64654398 10:0.57045329 11:0.84311801 12:0.31627318 13:0.58781576 14:0.43162367 15:0.69408309 16:0.63840747 17:0.45916396 18:0.44402599 19:0.15987931 20:0.19113076 21:0.43854448 22:0.78073877 23:0.81962311 24:0.69647884 25:0.58251888 26:0.37744355 27:0.61158395 28:0.80422658 29:0.27991211 30:0.65545475 31:0.52437824 32:0.86741555 
0.1095672162226328 1:0.93494493 2:0.28456703 3:0.39749351 4:0.59161621 5:0.95723355 6:0.27521321 7:0.75789291 8:0.32498413 9:0.40621108 10:0.44207802 11:0.49403811 12:0.56031054 13:0.53549784 14:0.63045877 15:0.41151157 16:0.45867795 17:0.6826179 18:0.31598204 19:0.051264737 20:0.14949538 21:0.44849563 22:0.56758678 23:0.52473676 24:0.72259474 25:0.61400205 26:0.40525764 27:0.7129218 28:0.58261335 29:0.40720406 30:0.65578234 31:0.6767174 32:0.81099063 
3.111168671371133 1:0.93494493 2:0.28456703 3:0.39749351 4:0.59161621 5:0.95723355 6:0.27521321 7:0.75789291 8:0.32498413 9:0.40621108 10:0.44207802 11:0.49403811 12:0.56031054 13:0.53549784 14:0.63045877 15:0.41151157 16:0.45867795 17:0.6826179 18:0.31598204 19:0.051264737 20:0.14949538 21:0.44849563 22:0.56758678 23:0.52473676 24:0.72259474 25:0.61400205 26:0.40525764 27:0.7129218 28:0.58261335 29:0.40720406 30:0.65578234 31:0.6767174 32:0.81099063 
0.1382516641703709 1:0.66952193 2:0.37675568 3:0.63237464 4:0.6008566 5:0.71900129 6:0.1452893 7:0.5896759 8:0.49364609 9:0.35049573 10:0.39857882 11:0.64882624 12:0.32315528 13:0.40354666 14:0.70116127 15:0.79008365 16:0.27523971 17:0.34932053 18:0.59722912 19:0.31811774 20:0.63621348 21:0.58042026 22:0.31027544 23:0.43289176 24:0.46441615 25:0.68352944 26:0.6485377 27:0.60828567 28:0.75578231 29:0.48445183 30:0.5318833 31:0.25427011 32:0.012982597 
7.351799239568787 1:0.66952193 2:0.37675568 3:0.63237464 4:0.6008566 5:0.71900129 6:0.1452893 7:0.5896759 8:0.49364609 9:0.35049573 10:0.39857882 11:0.64882624 12:0.32315528 13:0.40354666 14:0.70116127 15:0.79008365 16:0.27523971 17:0.34932053 18:0.59722912 19:0.31811774 20:0.63621348 21:0.58042026 22:0.31027544 23:0.43289176 24:0.46441615 25:0.68352944 26:0.6485377 27:0.60828567 28:0.75578231 29:0.48445183 30:0.5318833 31:0.25427011 32:0.012982597 
6.735761948050837 1:0.46893409 2:0.44506493 3:0.70692122 4:0.55216151 5:0.62825501 6:0.53949523 7:0.59800422 8:0.50204343 9:0.34665248 10:0.56794757 11:0.7755239 12:0.31116161 13:0.61764926 14:0.30255815 15:0.6829114 16:0.26371315 17:0.36998257 18:0.49798283 19:0.20124303 20:0.43125576 21:0.47697359 22:0.40541679 23:0.40626505 24:0.61296088 25:0.5667932 26:0.80449516 27:0.58086979 28:0.70962864 29:0.48833042 30:0.51837343 31:0.20102432 32:0.012638257 
6.488360919982048 1:0.57408333 2:0.37067628 3:0.33817995 4:0.40150481 5:0.60509592 6:0.9829725 7:0.47774774 8:0.091936283 9:0.36242023 10:0.49904019 11:0.47463763 12:0.59604502 13:0.33442947 14:0.27429149 15:0.45523977 16:0.1792524 17:0.66656065 18:0.62148309 19:0.095581725 20:0.34274882 21:0.21571663 22:0.36502698 23:0.28130028 24:0.5570122 25:0.5080322 26:0.63339084 27:0.54973876 28:0.66036916 29:0.40140125 30:0.48120132 31:0.19271842 32:0.08728563 
10 1:0.57408333 2:0.37067628 3:0.33817995 4:0.40150481 5:0.60509592 6:0.9829725 7:0.47774774 8:0.091936283 9:0.36242023 10:0.49904019 11:0.47463763 12:0.59604502 13:0.33442947 14:0.27429149 15:0.45523977 16:0.1792524 17:0.66656065 18:0.62148309 19:0.095581725 20:0.34274882 21:0.21571663 22:0.36502698 23:0.28130028 24:0.5570122 25:0.5080322 26:0.63339084 27:0.54973876 28:0.66036916 29:0.40140125 30:0.48120132 31:0.19271842 32:0.08728563 
0.0001239122638657382 1:0.54062474 2:0.56882793 3:0.37506843 4:0.54061139 5:0.8892014 6:0.37004083 7:0.54885989 8:0.56739962 9:0.67670017 10:0.30371812 11:0.83681732 12:0.58226627 13:0.11955766 14:0.54608053 15:0.62697607 16:1 17:0.3879669 18:0.18362874 19:0.86428684 20:0.25814003 21:0.90624917 22:0.7939055 23:0.61505628 24:0.59180039 25:0.47383457 26:0.53424954 27:0.59897208 28:0.61091852 29:0.91086048 30:0.87680846 31:0.33980766 32:0.18451616 
4.247064066772825 1:0.54062474 2:0.56882793 3:0.37506843 4:0.54061139 5:0.8892014 6:0.37004083 7:0.54885989 8:0.56739962 9:0.67670017 10:0.30371812 11:0.83681732 12:0.58226627 13:0.11955766 14:0.54608053 15:0.62697607 16:1 17:0.3879669 18:0.18362874 19:0.86428684 20:0.25814003 21:0.90624917 22:0.7939055 23:0.61505628 24:0.59180039 25:0.47383457 26:0.53424954 27:0.59897208 28:0.61091852 29:0.91086048 30:0.87680846 31:0.33980766 32:0.18451616 
5.309677500936326 1:0.33503497 2:0.50678468 3:0.314266 4:0.42901847 5:0.24383262 6:0.7268917 7:0.44736001 8:0.30697185 9:0.3955442 10:0.36402065 11:0.07501708 12:0.55917728 13:0.64012748 14:0.40716657 15:0.54622155 16:0.52125025 17:0.71501219 18:0.47734001 19:0.64737463 20:0.44450641 21:0.46764386 22:0.95340794 23:0.32946867 24:0.44510594 25:0.40164191 26:0.22129153 27:0.74173582 28:0.6061787 29:0.38718951 30:0.39288214 31:0.356906 32:0.042753913 
6.743784822094559 1:0.11100425 2:0.47856951 3:0.21734682 4:0.49977985 5:0.7198351 6:0.60155505 7:0.53112864 8:0.33646122 9:0.44691086 10:0.51382667 11:0.62786269 12:0.40509969 13:0.08110477 14:0.78173399 15:0.6658147 16:0.4968057 17:0.7478047 18:0.48350206 19:0.54624969 20:0.54642254 21:0.34900883 22:0.36845738 23:0.025342492 24:0.4550918 25:0.34607738 26:0.91446567 27:0.64737719 28:0 29:0.93840569 30:0.66642928 31:0.8559413 32:0.66028047 
-0.02830045368296811 1:0.62474161 2:0.56073195 3:0.41428894 4:0.3784813 5:0.49988291 6:0.37991789 7:0.53631622 8:0.41450775 9:0.43588737 10:0.47277939 11:0.41311756 12:0.48368967 13:0.53850639 14:0.21302021 15:0.80659908 16:0.42206034 17:0.53526467 18:0.45034957 19:0.37767529 20:0.50972652 21:0.81837636 22:0.78279722 23:0.11929513 24:0.41371158 25:0.95340711 26:0.595864 27:0.80601358 28:0.29738224 29:0.49756026 30:0.26839489 31:0.31412044 32:0.8711952 
-6.144860122816887 1:0.40789276 2:0.74107867 3:0.46111095 4:0.55356497 5:0.71900529 6:0.32187125 7:0.25766492 8:0.59326488 9:0.37359554 10:0.74677587 11:0.56786764 12:0.36543772 13:0.49336323 14:0.34750733 15:0.7284683 16:0.41003659 17:0.8259539 18:0.52886617 19:0.17261292 20:0.33055082 21:0.57165849 22:0.42454422 23:0.28550255 24:0.65037948 25:0.20868753 26:0.32126036 27:0.80447143 28:0.7522887 29:0.45707849 30:0.46849027 31:0.091881782 32:0.90612024 
-1.502522463303876 1:0.48934084 2:0.37454265 3:0.5320093 4:0.55281752 5:0.57300431 6:0.33783624 7:0.32848474 8:0.3688716 9:0.27575186 10:0.67676353 11:0.5655309 12:0.4614276 13:0.2008459 14:0.41457513 15:0.060183622 16:0.54473269 17:0.64027661 18:0.52821249 19:0.57138509 20:0.5229193 21:0.31903091 22:0.48072037 23:0.66462737 24:0 25:0.75320667 26:0.27276617 27:0.59407949 28:0.79529327 29:0.61730713 30:0.4006204 31:0.12073312 32:0.89593518 
-1.440662102490579 1:0.44716325 2:0.79961264 3:0.56053531 4:0.51755381 5:0.78938043 6:0.41969678 7:0.57975578 8:0.54451394 9:0.49817082 10:0.67883408 11:0.43377796 12:0.30069342 13:0.44948298 14:0.17611851 15:0.48670217 16:0.37524903 17:0.7711547 18:0.44513789 19:0.3082262 20:0.37850443 21:0.68267 22:0.38654554 23:0.25942865 24:0.66904485 25:0.14359422 26:0.20248909 27:0.7869221 28:0.72410333 29:0.511913 30:0.41404182 31:1.9315235e-05 32:0.88476425 
-5.945659773364737 1:0.62322217 2:0.63131958 3:0.58323115 4:0.31860229 5:0.5097878 6:0.70200998 7:0.59818625 8:0.34369323 9:0.48812976 10:0.32290658 11:0.4778595 12:0.27611604 13:0.46172959 14:0.74016118 15:0.48571625 16:0.092888705 17:0.11921192 18:0.60356051 19:0.67791688 20:0.19476902 21:0.61971068 22:0.28772974 23:0.3777616 24:0.51377922 25:0.56794089 26:0.11599056 27:0.76900584 28:0.41406918 29:0.74710417 30:0.4541128 31:0.26475084 32:0.87251318 
-9.182178825816445 1:0.68341601 2:0.4021765 3:0.82473844 4:0.74443209 5:0.57184446 6:1 7:0.67510307 8:0.0054833246 9:0.43590736 10:0.44872999 11:0.29612899 12:0.63219953 13:0.48705119 14:0.47920099 15:0.4298439 16:0.67664671 17:0.42936653 18:0.4182955 19:0.23250999 20:0.71015173 21:0.40329272 22:0.66292804 23:0.35696968 24:0.35575578 25:0.52550262 26:0.73770565 27:0.7341336 28:0.8440693 29:0.5715279 30:0.53293592 31:0.23067024 32:0.90051103 
-0.6951936073394891 1:0.27272028 2:0.62107593 3:0.36634392 4:0.41805777 5:1 6:0.51042444 7:0.60905832 8:0.30002737 9:0.21526629 10:0.59793955 11:0.51885515 12:0.45265168 13:0.25479573 14:0.4136816 15:0.48151901 16:0.17137513 17:0.64821774 18:0.50077033 19:0.678967 20:0.5489614 21:0.7239455 22:0.9192903 23:0.28405005 24:0.68841779 25:0.46619722 26:0.86148757 27:0.64731932 28:0.96696293 29:0.32306448 30:0.45323265 31:0.1280999 32:0.99051166 
-2.05325151043962 1:0.5885762 2:0.33708906 3:0.42007297 4:0.57468092 5:0.53425473 6:0.68744332 7:0.49299216 8:0.36744046 9:0.4110406 10:0.21286286 11:0.48481584 12:0.31984663 13:0.43798283 14:0.50594294 15:0.68360054 16:0.41774935 17:0.45930159 18:0.57824439 19:0.90727919 20:0.72383487 21:0.49298668 22:0.50470346 23:0.2411281 24:0.57084626 25:0.44367835 26:0.8677085 27:0.56601751 28:0.75273168 29:1 30:0.86210835 31:0.31745574 32:0.8830964 
-0.9990032709039838 1:0.4346025 2:0.60512793 3:0.38872275 4:0.3564572 5:0.98588961 6:0.45979404 7:0.48425022 8:0.47833085 9:0.40496841 10:0.57286721 11:0.51603872 12:0.44428 13:0.31813693 14:0.57316989 15:0.39442286 16:0.27270648 17:0.73674595 18:0.54862642 19:0.56960285 20:0.62132359 21:0.60021973 22:0.94297498 23:0.26392922 24:0.7436409 25:0.48016721 26:0.8818503 27:0.61640972 28:0.96754378 29:0.23149131 30:0.49476865 31:0.1167192 32:0.9850198 
-1.755613893738494 1:0.7865454 2:0.95302391 3:0.63956034 4:0.47000915 5:0.33850813 6:0.63707042 7:0.57814139 8:0.38199106 9:0.41446227 10:0.67398083 11:0.4283548 12:0.63420492 13:0.12950915 14:0.29667068 15:0.49797338 16:0.48087212 17:0.22403394 18:0.45477295 19:0.46683487 20:0.41200063 21:0.41799289 22:0.63908011 23:0.4050689 24:0.38022074 25:0.68408191 26:0.83280534 27:0.49824899 28:0.68509048 29:0.88198602 30:0.78700995 31:0.22279857 32:0.86435485 
-1.029960528855113 1:0.72377217 2:0.84063464 3:0.17435543 4:0.47297373 5:0.37456462 6:0.6360994 7:0.33592969 8:0.49786198 9:0.57969278 10:0.14775124 11:0.74973446 12:0.3387855 13:0.64143646 14:0.57527131 15:0.60572284 16:0.28815877 17:0.85185027 18:0.22088876 19:0.55731243 20:0.30849406 21:0.097567156 22:0.58950496 23:0.35987785 24:0.029137606 25:0.44207427 26:0.85269463 27:0.82667929 28:0.84421188 29:0.72348344 30:0.37998018 31:0.1482178 32:0.81589979 
-0.8453909160009462 1:0.51338112 2:0.45785129 3:0.83380163 4:0.30557856 5:0.77520055 6:0.56551147 7:0.56961125 8:0.06074699 9:0.77070367 10:0.1967404 11:0.45347428 12:0.67829472 13:0.59482545 14:0.51384342 15:0.56969529 16:0.48724559 17:0.48785809 18:0.25157106 19:0.24952339 20:0.64827603 21:0.7631765 22:0.2810522 23:0.22949134 24:0.20772545 25:0.59766263 26:0.69139546 27:0.75444347 28:0.69299567 29:0.7742883 30:0.3577857 31:0.21531275 32:0.81264085 
-2.144172764721348 1:0.61020237 2:0.99043292 3:0.39120913 4:0.31156412 5:0.34103933 6:0.5130946 7:0.5754267 8:0.28332514 9:0.57415098 10:0 11:0.54217291 12:0.37453172 13:0.55017257 14:0.56883109 15:0.59994584 16:0.28842938 17:0.7018472 18:0.25382692 19:0.43913949 20:0.15118077 21:0.24407719 22:0.73202556 23:0.45082748 24:0.11606323 25:0.48476252 26:0.90886647 27:0.82271135 28:0.86167544 29:0.68580401 30:0.3637746 31:0.14398716 32:0.86843711 
-5.943200837793604 1:0.51957387 2:0.66061455 3:0.46782696 4:0.52903074 5:0.52404344 6:0.51369286 7:0.28657198 8:0.26151669 9:0.420333 10:0.60033292 11:0.51591796 12:0.45608351 13:0.13287054 14:0.38247174 15:0.90184826 16:0.49386033 17:0.6163137 18:0.22288993 19:0.53291595 20:0.42928141 21:0.097315527 22:0.19658023 23:0.35682958 24:0.87074631 25:0.11729786 26:0.074904628 27:0.33090535 28:0.4530609 29:0.62632555 30:0.14194295 31:0.20909972 32:0.82147473 
-1.626374198802878 1:0.81997204 2:0.55216569 3:0.25947842 4:0.32452261 5:0.46868575 6:0.67438853 7:0.63298309 8:0.28419006 9:0.22047095 10:0.18295069 11:0.7810362 12:0.44845566 13:0.43385038 14:0.42523488 15:0.83457756 16:0.2471662 17:0.63497943 18:0.25506371 19:0.74663681 20:0.5043146 21:0.27483946 22:0.55287075 23:0.35390109 24:0.83174586 25:0.37936196 26:1 27:0.32121292 28:0.7214818 29:0.42633906 30:0.048497885 31:0.24841069 32:0.81633651 
-1.734510574378137 1:0.71821737 2:0.23213845 3:0.31630078 4:0.44818491 5:0.70250058 6:0.59589261 7:0.029236557 8:0.81772834 9:0.32937938 10:0.015663911 11:0.27423763 12:0.086514704 13:0.12330551 14:0.60393339 15:0.8028965 16:0.64085871 17:0.32003471 18:0.6326856 19:0.16607632 20:0.79379934 21:0.86804557 22:0.62009096 23:0.58142126 24:0.58082587 25:0.41278437 26:0.68150634 27:0.62191588 28:0.86093163 29:0.28555328 30:0.37762079 31:0.17076279 32:0.92299712 
-2.547569381021313 1:0.52792102 2:0.37541634 3:0.4412587 4:0.74472821 5:0.56637782 6:0.16643599 7:0.60152656 8:0.52054393 9:0.54679883 10:0.78460914 11:0.51341999 12:0.52472657 13:0.79510671 14:0.56077772 15:0.38820064 16:0.38554305 17:0.2326801 18:0.61258656 19:0.60481799 20:0.22557069 21:0.54421604 22:0.39001241 23:0.32044286 24:0.55576593 25:0.088042885 26:0.86548573 27:0.58984232 28:0.47515255 29:0.48647088 30:0.28176942 31:0.80842721 32:0.74751151 
-1.03276145135964 1:0.5295434 2:0.84724724 3:0.51403689 4:0.76406735 5:0.81805384 6:0.48859569 7:0.72790217 8:0.69424385 9:0.78604054 10:0.31420028 11:0.65992045 12:0.45159361 13:0.33534753 14:0.37020737 15:0.071508557 16:0.55709064 17:0.80112481 18:0.78268033 19:0.25568029 20:0.34599721 21:0.40314698 22:0.90511733 23:0.56624717 24:0.17582597 25:0.46242389 26:0.46232536 27:0.63537252 28:0.43717861 29:0.66643888 30:0.34774581 31:0.4195829 32:0.68821532 
-10 1:0.4202573 2:0.45733523 3:0.64580047 4:0.55735904 5:0.81498498 6:0.49005902 7:0.59826791 8:0.47391596 9:0.44901091 10:0.45600131 11:0.23658554 12:0.68082637 13:0.3626042 14:0.70861638 15:0.91940683 16:0.22515951 17:0.12795416 18:0.56085342 19:0.28874773 20:0.67756349 21:0.45176631 22:0.86726022 23:0.59316629 24:0.52559888 25:0.32649389 26:0.40106431 27:0.63467985 28:0.82902771 29:0.85876787 30:0.37163702 31:0.88703847 32:0.75413918 
-10 1:0.62758017 2:0.26823714 3:0.73808151 4:0.54152036 5:0.32837602 6:0.42185771 7:0.7333473 8:0.38134068 9:0.28148377 10:0.30503735 11:0.78022343 12:0.80458206 13:0.60562575 14:0.64265144 15:0.68825108 16:0.49441126 17:0.38958618 18:0.67457253 19:0.48363531 20:0.55432552 21:0.13239993 22:0.65708429 23:0.25949472 24:0.59658593 25:0.40530244 26:0.60746694 27:0.67496091 28:0.56425536 29:0.85899848 30:0.52084988 31:0.74118382 32:0.8307091 
-5.868116590349521 1:0.61786693 2:0.36708716 3:0.37309301 4:0.42536557 5:0.96458578 6:0.040656999 7:0.31367052 8:0.22718984 9:1 10:0.24790575 11:0.47897106 12:0.28354865 13:1 14:0.36686134 15:0.027164869 16:0.39486441 17:0.44186077 18:0.38331422 19:0.57655323 20:0.42351151 21:0.33997816 22:0.33905533 23:0 24:0.61660546 25:0.40897995 26:0.55772054 27:0.070870541 28:0.51856548 29:0.5768491 30:0.1692436 31:0.73463309 32:0.63357365 
-0.5409439350337352 1:0.5668295 2:0 3:0.4247241 4:4.1893802e-16 5:0.81451893 6:0.41256526 7:0.42377156 8:0.84439427 9:0.87540901 10:0.41882932 11:0.242221 12:0.10893266 13:0.66675282 14:0.25725308 15:0 16:0.39098376 17:0.6196143 18:0.40751278 19:0.65287876 20:0.35126245 21:0.035558395 22:0.34794083 23:0.49060223 24:0.63385338 25:0.57076472 26:0.78883827 27:6.8792098e-16 28:0.23700899 29:0.88373506 30:0.48335463 31:0.52334172 32:0.69622171 
-4.788470477483529 1:0.51067531 2:0.33177879 3:0.24394058 4:0.51229233 5:0.51495326 6:0.29225838 7:0.60346687 8:0.5273695 9:0.42956638 10:0.88770169 11:0.27177599 12:0.48790118 13:0.82910424 14:0.74244475 15:0.65879852 16:0.41992676 17:0.2801134 18:0.36923745 19:0.35157982 20:0.35562101 21:0.28014335 22:0.44133538 23:0.33599848 24:0.32509524 25:0.12621942 26:0.89360255 27:0.70707262 28:0.48345503 29:0.85036391 30:0.56829029 31:0.79764903 32:0.6839425 
-0.07163838621723127 1:0.47795528 2:0.71578652 3:0.062840402 4:0.77833825 5:0.89230651 6:0.37385628 7:0.40766576 8:0.64587885 9:0.52261496 10:0.56623167 11:0.51422089 12:0.46063891 13:0.36144555 14:0.64540118 15:0.90154183 16:0.4985531 17:0 18:0.67977524 19:0.62800324 20:0.58814698 21:0.77405632 22:0.65024084 23:0.57964802 24:0.33072215 25:0.22981526 26:0.49361512 27:0.53139114 28:0.55839735 29:0.30565491 30:0.502123 31:0.52356166 32:0.87527496 
-10 1:0.34039217 2:0.54730654 3:0.12162346 4:0.46433955 5:0.3050755 6:0.7871654 7:0.34826407 8:0.40727648 9:0.23632301 10:0.69994217 11:0.66568607 12:0.51029843 13:0.45863575 14:0.18741688 15:0.32148859 16:0.26443177 17:0.32286713 18:0.41837519 19:0.17194763 20:0.35539731 21:0.21301323 22:0.82551366 23:0.39046556 24:0.42763925 25:0.44824567 26:0.57609332 27:0.30922639 28:0.66829795 29:0.45661184 30:0.66576082 31:0.37859628 32:0.8124972 
-10 1:0.30998781 2:0.59446752 3:0.32768512 4:0.75629777 5:0.66046482 6:0.73129755 7:0.46608591 8:0.3659153 9:0.27090889 10:0.46378493 11:0.49039429 12:0.2750819 13:0.69486606 14:0.29240027 15:0.85296184 16:0.15153997 17:0.29933143 18:0.48906493 19:0.29080936 20:0.2109267 21:0.42092374 22:0.63799989 23:0.77293956 24:0.27333722 25:0.41035655 26:0.64963782 27:0.29100987 28:0.69052762 29:0.66226208 30:0.60505152 31:0.52944583 32:0.81461853 
-10 1:0.61712599 2:0.73254383 3:0 4:0.45626402 5:0.54392612 6:0.60844988 7:0.40312761 8:0.20204043 9:0.71748865 10:0.40719301 11:0.56059927 12:0.89424294 13:0.34229654 14:0.64210403 15:0.33275244 16:0.39361823 17:0.7274667 18:0.85704499 19:0.20342125 20:0.30788788 21:0.83201849 22:0.45204863 23:0.48203799 24:0.55903292 25:0.31517974 26:0.46195185 27:0.53142524 28:0.59536797 29:0.46264836 30:0.3735061 31:0.26191628 32:0.054443475 
-10 1:0.44827548 2:0.64332259 3:0.37591958 4:0.50374359 5:0.74661732 6:0.62550831 7:0.66146016 8:0.2893472 9:0.56006002 10:0.57676667 11:0.36179477 12:0.9523223 13:0.50244224 14:0.45389849 15:0.75531399 16:0.3953228 17:0.7222712 18:0.87804633 19:0.21888149 20:0.47093934 21:0.8243438 22:0.40520656 23:0.51475281 24:0.69281715 25:0.67717099 26:0.78077775 27:0.61865664 28:0.52337128 29:0.5070489 30:0.45215008 31:0.24381012 32:2.0485775e-16 
-10 1:0.6074394 2:0.43927491 3:0.26912531 4:0.48233762 5:0.57334942 6:0.39475459 7:0.48413268 8:0.17547511 9:0.42030224 10:0.66829157 11:0.52322817 12:0.88047522 13:0.2077966 14:0.72405934 15:0.63462794 16:0.43807524 17:0.68319315 18:0.93933582 19:0.21230686 20:0.38547221 21:0.71545869 22:0.39577696 23:0.6383357 24:0.65852773 25:0.62853521 26:0.71183956 27:0.68790948 28:0.6402728 29:0.53230792 30:0.47590312 31:0.2352165 32:0.01294273 
