svm_type c_svc
kernel_type rbf
gamma 0.09
nr_class 2
total_sv 18
rho -0.142926
label 130350102 130350103
probA -3.54991
probB 0.586938
nr_sv 6 12
SV
8.680295538534379 1:0 2:0.71962154 3:0.55367279 4:0.83411109 5:0.33524364 6:0.22602773 7:0.92768943 8:0.46725112 9:0.38607037 10:0.4789044 11:0.61995918 12:0.5694949 13:0.480353 14:0.077958785 15:0.82296926 16:0.73450148 
4.672456058950714 1:0.57264602 2:0.63468552 3:0.48228532 4:0.12787473 5:2.1927208e-16 6:1 7:0.77853382 8:0.68206406 9:1 10:0.76930881 11:0.60714519 12:0.47364968 13:0.38743654 14:0.17426611 15:0.65902174 16:0.77234149 
0.9042319133111567 1:0.30115595 2:0.40225801 3:0.61018836 4:0.89255089 5:0.29834673 6:0.80109936 7:0.66970402 8:0.14758436 9:0.78491622 10:0.17923623 11:0.52119231 12:0.38423556 13:0.5231961 14:0.18039389 15:0.91295248 16:0.77069438 
4.858119146047758 1:0.74555069 2:0.49521437 3:0.73359334 4:2.4934789e-16 5:0.4710865 6:0.49079612 7:0 8:1 9:0.10395802 10:0.45662555 11:0.35467148 12:0.040767632 13:0.59413809 14:0.26221773 15:0.78779364 16:0.66486579 
5.212590482316869 1:1 2:0.53659934 3:0.22163078 4:0.86631465 5:0.35428748 6:0.52620333 7:0.60143238 8:0.59759396 9:0.25815225 10:0.65088522 11:0.82875609 12:0.38847354 13:0.70257014 14:0.22109 15:0.82647645 16:0.75415748 
1.923708515507614 1:0.50813401 2:0.68510497 3:0.47119483 4:0.58657151 5:0.6233269 6:1.4382291e-16 7:0.64512599 8:0.43401119 9:0.48466954 10:0.61463076 11:0.8263548 12:0.030509366 13:0.52135938 14:0.13651691 15:0.76471841 16:0.69387573 
-1.554742152908426 1:0.57097918 2:0.57687008 3:0.43406978 4:0.77412415 5:0.57709926 6:0.61302006 7:0.61151081 8:0.56796503 9:0.21201687 10:0.55778146 11:0.55579692 12:0.51102263 13:0.21570767 14:0.52864486 15:0.058761932 16:0.87287068 
-3.723747369424446 1:0.4827354 2:0.68906301 3:0.38031372 4:0.79715043 5:0.45658278 6:0.5895071 7:0.67566735 8:0.60345769 9:0.34643015 10:0.49132627 11:0.55172157 12:0.52194852 13:0.11070511 14:0.56928664 15:0.082281716 16:0.85326624 
-2.044593083150965 1:0.24532175 2:0.46869385 3:0 4:0.82570332 5:0.24709047 6:0.2603274 7:0.65755433 8:0.71617037 9:0.2875883 10:0.6634419 11:0.72344327 12:0.34695402 13:1 14:0.73374301 15:0.41619164 16:0.82151365 
-1.678134010242059 1:0.56668282 2:0.69835055 3:0.55090374 4:0.70167118 5:0.34184703 6:0.49783102 7:0.33384609 8:0.31726196 9:0.40798062 10:0.2680926 11:0.88092303 12:0.29270837 13:0.9011873 14:0.81140327 15:0.48299545 16:0.88223374 
-0.6349138232931824 1:0.32888517 2:0.50085503 3:0.34961054 4:1 5:0.30723372 6:0.21410614 7:0.72734845 8:0.57634121 9:0.2008007 10:0.47220615 11:0.85736036 12:0.20436338 13:0.91452193 14:0.79694688 15:0.42136461 16:0.90607429 
-2.3377536795374 1:0.94768095 2:0.74735284 3:0.23574306 4:0.73488235 5:0.044711854 6:0.34381551 7:0.44212976 8:0.5160498 9:0.43893015 10:0.70320153 11:0.63282657 12:0.66946322 13:0.97601134 14:0.60393322 15:0.40400571 16:0.8947264 
-6.273742839377544 1:0.023462564 2:0.64803821 3:1 4:0.32649112 5:0.1579307 6:0.31621733 7:0.45484972 8:0.5387764 9:0.48980293 10:0.64076138 11:0.4458524 12:0.75107455 13:0.72407073 14:0.47775474 15:0.37304184 16:0.88156426 
-3.777133563178449 1:0.85669589 2:0.52936584 3:0.58951688 4:0.53245479 5:0.49512792 6:0.029155742 7:0.94175112 8:0.65719265 9:0.89601964 10:0.3269884 11:0.36847407 12:0.42804268 13:0.90135854 14:0.69337392 15:0.54139954 16:0.76413387 
-1.641298579144363 1:0.3150844 2:0.75637758 3:0.57557893 4:0.34302494 5:0.41296628 6:0.54729742 7:0.56409472 8:0.51741195 9:0.63435781 10:0.69976914 11:0.37388423 12:0.047857743 13:0.48493513 14:0.54098099 15:0.07019408 16:0.11507533 
-0.06989845655155953 1:0.49409512 2:0.73253644 3:0.85029757 4:0.60229135 5:0.18874753 6:0.35131124 7:0.76833326 8:0.87421519 9:0.25606772 10:0.31060022 11:0.68611014 12:0.41499549 13:0.64851743 14:0.45010677 15:0.063001819 16:0.021939386 
-0.4896214926197764 1:0.38931641 2:0.49272436 3:0.52618116 4:0.1029555 5:0.18877877 6:0.41189933 7:0.86416602 8:0.4894236 9:9.0928468e-16 10:0.49174187 11:0.42146793 12:0.058641672 13:0.52139926 14:0.60522562 15:0.0052364971 16:0.054562297 
-2.025822605240321 1:0.63763493 2:0.41257662 3:0.19080618 4:0.70165503 5:0.59382677 6:0.51420957 7:0.31568742 8:0.65970105 9:0.69733757 10:0.45050424 11:0.59010237 12:0.63579154 13:0.6816479 14:0.41481668 15:0.1870335 16:0.067755178 
