svm_type c_svc
kernel_type rbf
gamma 0.09
nr_class 2
total_sv 63
rho 0.257919
label 131180101 131180102
probA -4.62664
probB -0.0363
nr_sv 32 31
SV
4.404989181419259 1:0.29809913 2:0.27712643 3:0.43549472 4:0.40696499 5:0.31464472 6:0.35722578 7:0.69651979 8:0.6172958 9:0.25877661 10:0.74430019 11:0.46674445 12:0.1673585 13:0.62865269 14:0.81591159 15:0.33941674 16:0.55708134 17:0.56897289 18:0.49884057 19:0.74953306 20:0.45121041 21:0.32313874 22:0.42215323 23:0.4559727 24:0.60719138 25:0.45591262 26:0.39351246 27:0.40766889 28:0.50803596 29:0.12054215 30:0.77210259 31:0.3486169 32:0.74046582 33:0.69627225 34:0.60297519 35:0.93962681 
5.016824613527392 1:0.6279732 2:0.38785475 3:0.4374927 4:0.45687276 5:0.76483595 6:0.44293365 7:0.42751619 8:0.91545033 9:0.39589545 10:0.28393888 11:0.72428608 12:0.1492838 13:0.82860649 14:0.63231492 15:0.6483404 16:0.53426272 17:0.31191024 18:0.52515525 19:0.33413294 20:0.7487269 21:0.33437049 22:0.80684882 23:0.44307387 24:0.25503793 25:0.48800954 26:0.49142316 27:0.40447545 28:0.54616457 29:0.23543285 30:0.7027396 31:0.45414719 32:0.76927966 33:0.69201934 34:0.5829975 35:0.92742527 
8.763343057095849 1:0.44847557 2:0.78602129 3:0.50961804 4:1 5:0.41740113 6:0.68290085 7:0.35899681 8:0.77966762 9:0.47606599 10:0.45415893 11:0.57586634 12:0.65691376 13:0.54451847 14:0.43571192 15:0.35392129 16:0.36688474 17:0.52468133 18:0.42678893 19:0.62832683 20:0.62320328 21:0.2500186 22:0.46524227 23:0.49970019 24:0.52332318 25:0.55749071 26:0.61956125 27:0.58277237 28:0.72199208 29:0.092397742 30:0.76708078 31:0.31264329 32:0.83141291 33:0.76545757 34:0.61426431 35:0.92831087 
3.358828494831648 1:0.51501256 2:0.30201158 3:0.47793671 4:0.6318028 5:0.46073407 6:0.52298439 7:0.5506978 8:0.96566916 9:0.19237249 10:0.41121161 11:0.74745405 12:0.29122448 13:0.56607956 14:0.64451504 15:0.55138558 16:0.59683621 17:0.23916629 18:0.21089171 19:0.44175497 20:0.38717049 21:0.39314196 22:0.85843909 23:0.46759015 24:0.32112497 25:0.6072681 26:0.41342941 27:0.37884048 28:0.68505776 29:0.23413968 30:0.64960676 31:0.42826316 32:0.82525319 33:0.83509213 34:0.60593486 35:0.90097219 
5.641186629949718 1:0.5435831 2:0.45392457 3:0.86398977 4:0.52202809 5:0.76592481 6:0.80034071 7:0.54752004 8:0.54506636 9:0.47440994 10:0.7269358 11:0.44903046 12:0.64193559 13:0.66240126 14:0.22100991 15:0.42737377 16:0.7237224 17:0.49408358 18:0.53402436 19:0.59258515 20:0.7964322 21:0.48829716 22:0.80328602 23:0.88265193 24:0.81555098 25:0.52223134 26:0.43657482 27:0.35520422 28:0.65617198 29:0.62362373 30:0.58344984 31:0.38348028 32:0.32108158 33:0.67340189 34:0.96726054 35:0.89847851 
1.553440212852535 1:0.3696897 2:0.51561713 3:0.67606753 4:0.52722567 5:0.57427216 6:0.49921176 7:0.61963505 8:0.59118426 9:0.2866334 10:0.48331141 11:0.69107431 12:0.52717537 13:0.33050159 14:0.31168345 15:0.41907853 16:0.71234328 17:0.6109947 18:0.35621583 19:0.53079194 20:0.56373268 21:0.44853634 22:0.86208141 23:1 24:0.61319739 25:0.50138426 26:0.49187344 27:0.44307932 28:0.56636888 29:0.61821115 30:0.65537858 31:0.39979357 32:0.34687001 33:0.73127705 34:0.93450105 35:0.87477404 
0.0104614683888486 1:0.61214072 2:0.54184216 3:0.77964705 4:0.80381066 5:0.72753376 6:0.5834893 7:0.7297948 8:0.4784264 9:0.56964082 10:0.25798476 11:0.54529274 12:0.25632584 13:0.51508695 14:0.46956351 15:0.46383223 16:0.68196994 17:0.21962166 18:0.43951315 19:0.58603084 20:0.59478509 21:0.43436638 22:0.90011632 23:0.85628623 24:0.61380357 25:0.70313406 26:0.42154911 27:0.38868013 28:0.72182983 29:0.67233849 30:0.76312178 31:0.45093113 32:0.36587119 33:0.73791379 34:1 35:0.8294192 
2.324616541327151 1:0.59335047 2:0.79490525 3:0.72512048 4:0.54910374 5:0.37111384 6:0.93207806 7:0.61358792 8:0 9:0.20070001 10:0.92933381 11:0.56709802 12:0.57025176 13:0.5970915 14:0.4496417 15:0.26039895 16:0.33985549 17:0.60413748 18:0.67997706 19:0.91614276 20:0.33375186 21:0.39221448 22:0.594468 23:0.59901184 24:0.86430663 25:0.8514992 26:0.73622966 27:2.8914875e-16 28:0.77205825 29:0.35532257 30:0.52686065 31:0.33250171 32:0.16902056 33:0.74451393 34:0.81722116 35:0.93097073 
2.140039488313473 1:0.75786179 2:0.25718823 3:0.41728711 4:0.4666819 5:0.39981374 6:0.38967538 7:0.5097298 8:0.48420611 9:0.78334272 10:0.20610999 11:0.50456476 12:0.5292933 13:0.78007072 14:0.55817795 15:0.56605691 16:8.5720089e-16 17:0.67530727 18:0.43830624 19:0.59497917 20:0.37605262 21:0.52203196 22:0.22626066 23:0.57078797 24:0.26557776 25:0.99911517 26:0.43739358 27:0.18952936 28:0.29327956 29:0.20055769 30:0.50937301 31:0.098781705 32:0.30149063 33:0.15785103 34:0.406046 35:0.83817112 
5.952673701474216 1:0.43464822 2:0.49927768 3:0.57904315 4:0.45525572 5:0.44203615 6:0.52447367 7:0.66214192 8:0.62525016 9:0.26378685 10:0.50909942 11:0.73103994 12:0.50725347 13:0.55918771 14:0.43950379 15:0.38563031 16:0.77769279 17:0.46746185 18:0.53931004 19:0.72357315 20:0.29471377 21:9.0827851e-16 22:0.8617059 23:0.26624814 24:0.16852371 25:0.95003539 26:0.64912629 27:0.1878662 28:0.62948692 29:0.4628264 30:0.60397947 31:0.33418471 32:0.46261558 33:0.097204007 34:0.1042118 35:0.86392707 
3.296432813103755 1:0.26799485 2:0.36530459 3:0.17201418 4:0.30723614 5:0.445665 6:0.77786511 7:0.50883102 8:0.13565831 9:0.30484864 10:0.45723915 11:0.36253896 12:0.44114745 13:0.47256041 14:0.36392328 15:0.55298877 16:0.70798331 17:0.40361908 18:0.5344823 19:0.45850882 20:0.54182494 21:0.031675972 22:0.54892653 23:0.36093757 24:0.31472486 25:0.75856555 26:0.75948566 27:0.15167068 28:0.63412011 29:0.48346558 30:0.51772261 31:0.33757561 32:0.41474164 33:0.035783067 34:0.15394969 35:0.83429182 
3.056596356392246 1:0.54118133 2:0.48121202 3:0.85268354 4:0.47969183 5:0.3570379 6:0.069385402 7:0.82016391 8:0.39727986 9:0.40082589 10:0.50675708 11:0.56779009 12:0.6233837 13:0.81823575 14:0.45484477 15:0.73065996 16:0.56527275 17:0.16845632 18:0.61869562 19:0.41341907 20:0.62903172 21:0.76194096 22:0.16259167 23:0.44916847 24:0.17982677 25:0.77768564 26:0.39330629 27:0.21089086 28:0.075893387 29:0.45185468 30:0.76275897 31:0.11976854 32:0.39627844 33:0.17263666 34:0.50162268 35:0.84471929 
2.932864993083049 1:0.28379551 2:0.38541442 3:0.46159837 4:0.59054643 5:0.72879958 6:0.65210456 7:0.54200625 8:0.73070031 9:0.64746195 10:0.61622012 11:0.78550458 12:0.46015143 13:0.78978306 14:0.20537725 15:0.69520539 16:0.6966356 17:0.51032871 18:0.41507065 19:0.47770417 20:0.44946468 21:0.3515785 22:0.57231361 23:0.497632 24:0.47329986 25:0.62121779 26:0.73799443 27:0.42181358 28:0.095898524 29:0.61372107 30:0.25926119 31:0.35593158 32:0.73398536 33:0.60447216 34:0.50877714 35:0.89630771 
3.907659846600878 1:0.6569947 2:0.26848081 3:0.83307415 4:0.92851388 5:0.48239529 6:0.78478116 7:0.42500994 8:0.48515251 9:0.65647149 10:0.50508964 11:0.36128891 12:0.76614219 13:0.67722738 14:0.58449727 15:0.51456916 16:0.48103335 17:0.46117601 18:0.37006226 19:0.58607733 20:0.28590533 21:0.44933951 22:0.67959899 23:0.75061202 24:0.3532691 25:0.5187915 26:0.64287227 27:0.41086644 28:0.18662362 29:0.5763669 30:0.24028672 31:0.34855807 32:0.73558891 33:0.63298577 34:0.46721154 35:0.90635341 
1.405447256066123 1:0.10042064 2:0.54672217 3:0.44859269 4:0.43558028 5:0.60687095 6:0.48779792 7:0.54755253 8:0.35989588 9:0.65490818 10:0.63461119 11:0.79501617 12:0.50796258 13:0.67330295 14:0.19506802 15:0.57977039 16:0.67966014 17:0.47083768 18:0.3528524 19:0.47972211 20:0.18464655 21:0.62999743 22:0.74156088 23:0.44406459 24:0.52713078 25:0.25259796 26:0.39373538 27:0.51449639 28:0.72245121 29:0.78647768 30:0.69588649 31:0.40644339 32:0.59181774 33:0.20671326 34:0.39899236 35:0.82317275 
3.749528844061401 1:0.61941952 2:0.54881227 3:0.86987019 4:0.6343056 5:0.35955226 6:0.38426039 7:0.52206433 8:0.52517545 9:0.42520911 10:0.64408386 11:0.45744318 12:0.18846753 13:0.69934434 14:0.75048554 15:0.61278427 16:0.73267782 17:0.26180714 18:0.297387 19:0.22254162 20:0.11348709 21:0.38887653 22:0.71390605 23:0.52236217 24:0.69609499 25:0.32177863 26:0.71599883 27:0.44504628 28:0.34453854 29:0.62643862 30:0.36748603 31:0.29675528 32:0.65536785 33:0.44374001 34:0.4135119 35:0.89215416 
1.501603951877616 1:0.46360901 2:0.73814046 3:0.25942296 4:0.33964947 5:0.35950753 6:0.17920832 7:0.5039385 8:0.59376508 9:0.52067834 10:0.37747875 11:0.83548903 12:0.40168953 13:0.61371976 14:0.97636968 15:0.55297834 16:0.64620006 17:0.81520373 18:0.63649046 19:0.40592003 20:0.76089382 21:0.59779006 22:0.67400676 23:0.43142319 24:0.39527091 25:0.56248266 26:0.30862489 27:0.45799807 28:0.77629918 29:0.99454057 30:0.6679697 31:0.57449687 32:0.52037913 33:0.38612723 34:0.5568521 35:0.97406596 
6.809066683991225 1:0.73074937 2:0.85595047 3:0.5014987 4:0.46387562 5:0.71641201 6:0 7:0.55707836 8:0.47275981 9:0.87331736 10:0.53165793 11:0.71535283 12:0.58189064 13:0.41864756 14:0.32690921 15:0.29948962 16:0.81122524 17:0.53543329 18:0.5627777 19:0.77899623 20:0.66939837 21:0.51420575 22:0.63848597 23:0.16316374 24:0.96040112 25:0.67649567 26:0.56528926 27:0.49083498 28:0.74040133 29:0.69708127 30:0.37503916 31:0.34366158 32:0.81970251 33:0.44016653 34:0.52859151 35:0.916538 
1.360539144341311 1:0.62000817 2:0.65606695 3:0.56334811 4:0.72929317 5:0.83402681 6:0.4733268 7:0.57274342 8:0.82666939 9:0.8922857 10:0.51558042 11:0.34803537 12:0.46026775 13:0.65979904 14:0.56700277 15:0.36048234 16:0.50157738 17:0.49521846 18:0.71270728 19:0.43715426 20:0.76867926 21:0.275397 22:0.3648189 23:0.42464414 24:0.96535277 25:0.64392 26:0.45558774 27:0.42227378 28:0.14642391 29:0.6623255 30:0.2559256 31:0.3208479 32:0.76309431 33:0.45886114 34:0.50877202 35:0.88947272 
0.115040747959393 1:9.5935005e-17 2:0.45111975 3:0.3995769 4:0.59856361 5:0.58407456 6:0.39806658 7:0.15277821 8:0.62169468 9:0.2566202 10:0.32722655 11:0.66409045 12:0.43226835 13:0.62354565 14:0.94505322 15:0.5241189 16:0.48523098 17:0.61966836 18:0.56223828 19:0.17106126 20:0.65644926 21:0.57658541 22:0.82679904 23:0.58807415 24:0.75444341 25:0.4434135 26:0.47976801 27:0.38580045 28:0.25431409 29:0.55926734 30:0.30471861 31:0.31086978 32:0.60985231 33:0.46655986 34:0.6158371 35:0.88601577 
10 1:0.69302255 2:0.3666285 3:0.55139381 4:0.75668395 5:0.26235473 6:0.86645728 7:0.69898051 8:0.5425185 9:0.49798635 10:0.42619962 11:0.60181838 12:0.64002746 13:0.73010492 14:0.47833863 15:0.60438251 16:0.46576381 17:0.39131057 18:0.62683392 19:0.4246853 20:0.51376629 21:0.2659066 22:0.71069443 23:0.73525304 24:0.30714533 25:0.21370849 26:0.53000486 27:0.67693818 28:0.67634249 29:0.7950834 30:0.62335968 31:0.50317246 32:0.60592872 33:0.29950809 34:0.22969125 35:0.86001205 
2.71571912253288 1:0.65122133 2:0.9356367 3:0.43750969 4:0.65961516 5:0.47322828 6:0.71502978 7:0.55756062 8:0.67155069 9:0.083077654 10:0.37060553 11:0.46130118 12:0.52370965 13:0.51904881 14:0.52427995 15:0.43234041 16:0.66147739 17:0.63067085 18:0.1158793 19:0.48546296 20:0.73187613 21:0.34282026 22:0.81296712 23:0.77145445 24:0.1681613 25:0.33925861 26:0.60001969 27:0.52822924 28:0 29:0.43359643 30:0.16872354 31:0.35663095 32:0.77708191 33:0.57367617 34:0.43948054 35:0.82310802 
3.964770955357044 1:0.88317901 2:0.90130132 3:0.72209358 4:0.53845942 5:0.47954449 6:0.30228096 7:0.30648065 8:0.32025522 9:0.50602901 10:0.96413141 11:0.77157927 12:0.58784038 13:0.52072155 14:0.81042767 15:0.58221257 16:0.64743638 17:0.26182917 18:0.834737 19:0.59202403 20:0.42843473 21:0.21110424 22:0.43694565 23:0.274685 24:0.54877484 25:0.31414479 26:0.61355978 27:0.42573819 28:0.33932942 29:0.6216805 30:0.63663268 31:0.3571704 32:0.73274893 33:0.4571133 34:0.39958739 35:0.92810684 
4.982723359366849 1:0.36737677 2:0.50704789 3:0.81585729 4:0.35376769 5:0.64573234 6:0.42865673 7:0.44391707 8:0.54109633 9:0.1499767 10:0.59525377 11:0.47544003 12:0.49773049 13:0.38139606 14:0.67729163 15:0.52922404 16:0.61584282 17:0.44084784 18:0.58040136 19:0.67398918 20:0.71620226 21:0.43931454 22:0.56634796 23:0.87620038 24:0.54071331 25:0.73971188 26:0.51977342 27:0.4115617 28:0.30145344 29:0.55949777 30:0.72368562 31:0.80579555 32:0.62645024 33:0.4426876 34:0.27902338 35:0.06056188 
6.5367865798691 1:0.51909173 2:0.58305752 3:0.65759104 4:0.44377699 5:0.37022746 6:0.88614947 7:0.46782309 8:0.67518526 9:0.5517925 10:0.7972064 11:0.34387368 12:0.36764911 13:0.96909577 14:0.68941826 15:0.45406285 16:0.62348431 17:0.28243047 18:0.63994455 19:0.51615375 20:0.4681578 21:0.5043357 22:0.71072406 23:0.096121773 24:0.60889494 25:0.68696344 26:0.54198766 27:0.42582434 28:0.49920589 29:0.37851694 30:0.73366386 31:0.73921818 32:0.59909445 33:0.63548625 34:0.41155273 35:0.090121306 
0.3479949959319974 1:0.58880508 2:0.61639673 3:0.67949259 4:0.82044369 5:0.6449517 6:0.45828152 7:0.72258097 8:0.33236566 9:0.52208036 10:0.498604 11:0.63070089 12:0.57823533 13:0.91794533 14:0.84868097 15:0.86028469 16:0.45978945 17:0.46064538 18:0.38209873 19:0.35678947 20:0.53622538 21:0.44563946 22:0.89957082 23:0.296516 24:0.48740089 25:0.85468042 26:0.27618319 27:0.40106803 28:0.64100683 29:0.068384781 30:0.41454181 31:0.95383495 32:0.57852882 33:0.71740597 34:0.42540753 35:0.19015111 
9.051388843871479 1:0.42128387 2:0.14135724 3:0.32321367 4:0.69491935 5:5.3500639e-16 6:0.56511706 7:0.29791516 8:0.75303322 9:0.68395519 10:0.70024741 11:0.89837033 12:0.48368499 13:0.55246609 14:0.054451384 15:0.36228639 16:0.58516389 17:0.36244467 18:0.53253597 19:0.51191086 20:0.55916876 21:0.45475647 22:0.59464753 23:0.41016632 24:0.5605973 25:0.58094746 26:0.76804113 27:0.61250305 28:0.12410293 29:0.7399345 30:0.71829653 31:0.71362162 32:0.44524899 33:0.65697724 34:0.55762029 35:0.20533468 
7.42144709624758 1:0.67447209 2:0.72615474 3:0.42692569 4:0.49682647 5:0.79585403 6:0.80583847 7:0.54082894 8:0.49461246 9:0.36478975 10:0.36327159 11:0.3940331 12:0.41799471 13:0.59901941 14:0.45432034 15:0.38855425 16:0.37537813 17:0.15205623 18:0.26247022 19:0.6547389 20:0.81691861 21:0.36280349 22:0.32179379 23:0.7185114 24:0.47259483 25:0.71127689 26:0.56238228 27:0.63064164 28:0.36347899 29:0.55679798 30:0.74985158 31:0.7818141 32:0.60505432 33:0.42940193 34:0.29553393 35:0.08984673 
5.169390112347207 1:0.40429789 2:0.54827178 3:0.77276093 4:0.10606492 5:0.38420793 6:0.64096034 7:0.50900298 8:0.92575371 9:0.40885705 10:0.47177082 11:0.52307367 12:0.60993475 13:0.70373815 14:0.36737373 15:0.31487253 16:0.4466373 17:0.52998394 18:0.53877711 19:0.53731602 20:0.59625953 21:0.48173252 22:0.5571264 23:0.34139973 24:0.24370226 25:0.21504775 26:0.37038165 27:0.3944279 28:0.24774268 29:0.62521559 30:0.55794072 31:0.54980117 32:0.19714375 33:0.70914614 34:0.76781881 35:0.23310621 
6.45926928826499 1:0.50633675 2:0.48625976 3:0.60237515 4:0.41237757 5:0.69318938 6:0.81586254 7:0.2475868 8:0.87719339 9:0.26349789 10:0.46179548 11:0.58857477 12:0.48743099 13:0.45453164 14:0.41435021 15:0.32783589 16:0.58603776 17:0.50404036 18:0.48605382 19:0.72243619 20:0.32131034 21:0.46524951 22:0.42278337 23:0.13003954 24:0.42755666 25:0.20152265 26:0.24439663 27:0.2837334 28:0.46238795 29:0.43478742 30:0.30564067 31:0.60003567 32:0.41015369 33:0.62358809 34:0.56514722 35:0.16894321 
10 1:0.45160621 2:0.63623291 3:0.58939433 4:0.54100448 5:0.66671538 6:0.45497894 7:0.71051848 8:0.84772164 9:0.2869238 10:0.62342066 11:0.38855234 12:0.52918977 13:0.75388205 14:0.41230032 15:0.51625693 16:0.38276219 17:0.3039889 18:0.46217427 19:0.53084517 20:0.61415154 21:0.73922795 22:0.54733866 23:0.48899764 24:0.66875547 25:0.68353885 26:0.53442806 27:0.50062025 28:0.71907967 29:0.28772485 30:0.37084118 31:0.68308264 32:0.51426762 33:0.33297506 34:0.21062338 35:0.12991388 
8.248461530054364 1:0.65438151 2:0.29345861 3:0.70240855 4:0.77274245 5:0.54363525 6:0.76195246 7:0.4318226 8:0.65791631 9:0.41699815 10:0.38101494 11:0.10887668 12:0.63443774 13:0.54851174 14:0.53673047 15:0.27192858 16:0.61188191 17:0.61480767 18:0.34523523 19:0.61933678 20:0.15423985 21:0.46589395 22:0.59426653 23:0.57177901 24:0.58703446 25:0.72245193 26:0.53716427 27:0.31385696 28:0.68385541 29:0.47201365 30:0.56207162 31:0.24322011 32:0.48370561 33:0 34:0.11719164 35:0.81580997 
-5.109451639750509 1:0.42461681 2:0.69400954 3:0.77651101 4:0.40798628 5:0.7633611 6:0.55841696 7:0.94425029 8:0.78969651 9:0.41027859 10:0.60329479 11:0.60122269 12:0.26846072 13:0.79027653 14:0.60158491 15:0.11661215 16:0.92504174 17:0.62376529 18:0.24184081 19:0.48390269 20:0.72521275 21:0.11076731 22:0.37115097 23:0.41759345 24:0.32984361 25:0.49200684 26:0.50605524 27:0.47764868 28:0.52825201 29:0.70756483 30:0.75929266 31:0.45789886 32:0.5603354 33:0.53163731 34:0.044816475 35:0.85285807 
-6.125175582495603 1:0.51528549 2:0.55864203 3:0.44935557 4:0.22569533 5:0.28338423 6:0.75104326 7:0.35599497 8:0.57310736 9:0.34465781 10:0.94808823 11:0.85211563 12:0.10348622 13:0.62636054 14:0.31646439 15:0.61562997 16:0.44598916 17:0.4000679 18:0.78336781 19:0.73377901 20:0.68824863 21:0.45424753 22:0.56947482 23:0.63128197 24:0.44407973 25:0.69370335 26:0.66320598 27:0.76563174 28:0.8954109 29:0.022193661 30:0.24630603 31:0.20156404 32:0.5944519 33:0.42981321 34:0.18910564 35:0.33478603 
-5.496268418361522 1:0.62659585 2:0.54630995 3:0.5381034 4:0.5554086 5:0.29687509 6:0.7295981 7:0.26964128 8:0.58967644 9:0.63507384 10:0.84928608 11:0.25667492 12:0.285133 13:0.63559073 14:0.79085386 15:0.86659056 16:0.63995993 17:0.60507816 18:0.43235785 19:0.11895764 20:0.59920758 21:0.29790229 22:0.68971592 23:0.65944904 24:0.85686195 25:0.34645751 26:0.49084631 27:0.42652979 28:0.32737362 29:0.41673452 30:0.86068237 31:0.36499345 32:0 33:0.55015606 34:0.48866069 35:0.73284608 
-1.525494483554445 1:0.42518049 2:0.91417134 3:0.49058649 4:0.68504512 5:0.38629815 6:0.55075967 7:0.36579955 8:0.71875709 9:0.40584579 10:0.43232897 11:0.83386523 12:1 13:0.55955577 14:0.65612048 15:0.45707253 16:0.8024044 17:0.36112702 18:0.17701434 19:0.87831849 20:0.41073093 21:1 22:0.52256161 23:0.72757822 24:0.53283948 25:0.65535098 26:0.28313202 27:0.44689742 28:0.26735315 29:0.24083343 30:0.72898144 31:0.37214613 32:0.49365893 33:0.59377784 34:0.22921626 35:0.81755674 
-1.895257406818182 1:0.48232293 2:0.64365011 3:0.7179715 4:0.4453482 5:0.79309481 6:0.60928863 7:0.54957962 8:0.42595208 9:0.72495139 10:0.39455009 11:0.6022855 12:0.12736407 13:0.57460386 14:0.48741668 15:1 16:0.37622914 17:0.5204373 18:0.41890168 19:0.63403594 20:0.40296274 21:0.42454877 22:0.54095876 23:0.49732342 24:0.45218244 25:0.50518966 26:0.30386117 27:0.56253791 28:0.44656992 29:0.37367353 30:0.93852776 31:0.46219066 32:0.43900278 33:0.48695296 34:0.10299867 35:0.916287 
-10 1:0.5227446 2:0.28493744 3:0.55065536 4:0.59043819 5:0.59309733 6:0.92794794 7:0.51085734 8:0.67315251 9:0.36017621 10:0.39344087 11:0.71017587 12:0.59347904 13:0.85337973 14:0.015551251 15:0.73897475 16:0.55762279 17:0.14643146 18:0.64352101 19:0.45646408 20:0.47275624 21:0.042375617 22:0.362688 23:0.2627041 24:0.70427549 25:0.77766514 26:0.39372256 27:0.33419502 28:0.39538032 29:0.6768114 30:0.43301171 31:0.30834445 32:0.37375492 33:0.50341743 34:0.30426204 35:0.76677489 
-5.452936072259241 1:0.60799366 2:0.87920511 3:0.96246713 4:0.66281933 5:0.2938056 6:0.63700914 7:0.5555228 8:1 9:0.21481076 10:0.34231672 11:0.41345799 12:0.56218928 13:0.73160559 14:0 15:0.54917097 16:0.91147345 17:0.2007582 18:0.62135011 19:0.4664548 20:0.83860332 21:0.34078068 22:0.26693162 23:0.50179005 24:0.75396228 25:0.85230511 26:0.49276823 27:0.47792992 28:0.21260382 29:0.60520113 30:0.57660502 31:0.43400389 32:0.55877161 33:0.59705371 34:0.14741099 35:0.78487158 
-3.289093923143499 1:0.59323418 2:0.58374113 3:0.6078577 4:0.48600098 5:0.21388595 6:0.56005454 7:0.63107342 8:0.46752483 9:0.31651986 10:0.32871708 11:0.68712264 12:0.47615868 13:0.56427443 14:0.44858372 15:0.46383855 16:0.3732627 17:0.3716279 18:0.45487982 19:0.60806191 20:0.059846696 21:0.2892971 22:0.52334011 23:0.66644549 24:0.65022504 25:0.42181966 26:0.54487449 27:0.30453685 28:0.63687372 29:0.81133205 30:0.53806233 31:0.61102897 32:0.5459587 33:0.9734385 34:0.14564948 35:1 
-4.529429675401738 1:0.51493222 2:0.27518716 3:0.66341972 4:0.90725005 5:0.41352659 6:0.44556892 7:0.28108227 8:0.48107919 9:0.53908449 10:0.50113696 11:0.80202383 12:0.67762971 13:0.80678147 14:0.54086661 15:0.60121763 16:0.4817858 17:0.59004509 18:0.65226114 19:0.63737571 20:0.5331465 21:0.49658814 22:0.47182983 23:0.57094908 24:0.47982901 25:0.52026588 26:0.40944883 27:0.55037695 28:0.63641584 29:0.68568897 30:0.67357016 31:0.51621377 32:0.40051186 33:0.73772973 34:0.32129246 35:0.88899583 
-10 1:0.42016852 2:0.31693876 3:0.49300909 4:0.48404327 5:0.70308185 6:1 7:0.69861007 8:0.39342993 9:0.32772598 10:0.69194311 11:0.71695316 12:0.20260532 13:0.71168065 14:0.79433483 15:0.26249534 16:0.62789172 17:0.47245273 18:0.54547298 19:0.56626815 20:0.54465395 21:0.43532592 22:0.52805269 23:0.32265499 24:0.368139 25:0.51841748 26:0.27443612 27:0.40186122 28:0.56384903 29:0.79250395 30:0.63609582 31:0.61759204 32:0.5208745 33:0.62991679 34:0.097753532 35:0.88342893 
-7.920347272378425 1:0.56243789 2:0.66825515 3:0.50823587 4:0.51699334 5:0.51913232 6:0.58916986 7:0.71765667 8:0.4432953 9:0.63435954 10:0.43777388 11:0.74192321 12:0.41921625 13:0.52926832 14:0.41228938 15:0.58001113 16:0.12817006 17:0.585136 18:0.27960223 19:0.83467239 20:0.80338919 21:0.57128626 22:0.99076653 23:0.26078567 24:0.69711602 25:0.27445784 26:0.94672346 27:0.69680941 28:0.22526737 29:0.13342771 30:0.75636369 31:0.4681583 32:0.48440346 33:0.60396093 34:0.12296996 35:0.79339623 
-2.506699987834993 1:0.30261043 2:0.51783103 3:0.64799571 4:0.30284712 5:0.29426867 6:0.5080027 7:0.60132867 8:0.63331437 9:0.22902663 10:0.1939742 11:0.2367245 12:0.58542138 13:0.51287544 14:0.53697336 15:0.35904285 16:0.42678753 17:0.051092979 18:1 19:0.90737796 20:0.82649249 21:0.57255745 22:0.9972921 23:0.51331061 24:0.4586449 25:0.64047611 26:0.47766277 27:0.21167247 28:0.35417625 29:0.41458538 30:0.54421115 31:0.55969888 32:0.57968581 33:0.76480806 34:0.1452982 35:0.87257475 
-6.375221093721268 1:0.80553901 2:0.44817975 3:0.4398483 4:0.54331386 5:0.63241231 6:0.35611936 7:0.35670358 8:0.80361217 9:0.54301262 10:0.87943709 11:0.51600689 12:0.31315446 13:0.57377404 14:0.74297059 15:0.25195271 16:0.81565708 17:0.43706524 18:0.33260021 19:0.29180267 20:0.62381351 21:0.36072692 22:0.76981294 23:0.44823533 24:0.67981267 25:0.45948207 26:0.47902516 27:0.26555306 28:0.35436213 29:0.48236907 30:0.77683508 31:0.42278129 32:0.13916172 33:0.58816737 34:0.42616469 35:0.69352841 
-1.748387357509998 1:0.42332157 2:0.15676887 3:0.72695202 4:0.4981907 5:0.28957424 6:0.26041669 7:0.46386579 8:0.6901769 9:0.45856759 10:0.77154505 11:0.41732109 12:0.66140974 13:0.65668583 14:0.76111585 15:0.51794821 16:0.44860402 17:0.51715839 18:0.34233969 19:0.64558029 20:0.80593252 21:0.65910327 22:0.41397437 23:0.66144472 24:0.60107666 25:0.46026653 26:0.56518966 27:0.47173697 28:0.89367729 29:0.66544348 30:0.67739004 31:0.64932323 32:0.56524909 33:0.75872988 34:0.1756365 35:0.8532083 
-1.354633056615273 1:0.4274179 2:0.43644416 3:0.94935298 4:0.5429315 5:0.28700757 6:0.85330206 7:0.61420238 8:0.62365061 9:0.54145139 10:0.5687657 11:0.74529564 12:0.52849793 13:0.75153995 14:0.36359057 15:0.58331561 16:0.68663061 17:0.69119054 18:0.083031259 19:0.69108754 20:0.39725164 21:0.6218437 22:0.27761036 23:0.59016198 24:0.37710601 25:0.39504373 26:0.26333496 27:0.55175912 28:0.64816469 29:0.60367393 30:0.76045007 31:0.50867987 32:0.5063442 33:0.7367304 34:0.21267658 35:0.88100588 
-9.422990415548512 1:0.52535939 2:0.5630216 3:0.63767672 4:0.70224875 5:0.21978883 6:0.75171858 7:0.3100006 8:0.7313633 9:0.81439441 10:0.39477733 11:0.20927973 12:0.62015772 13:0.40751943 14:0.5102275 15:0.40221569 16:0.58328694 17:0.62273622 18:0.73240405 19:0.57799286 20:0.5417614 21:0.5468986 22:0.60634202 23:0.80901068 24:0.27656403 25:0.6953159 26:0.32034364 27:0.45258141 28:0.6013934 29:0.58949631 30:0.4453795 31:0.59983522 32:0.71967918 33:0.90152436 34:0.24258827 35:0.97324955 
-0.9312854901077235 1:0.50319415 2:0.39415812 3:0.48896787 4:0.42067555 5:0.40893725 6:0.81608474 7:0.70390552 8:0.55666411 9:0.11088142 10:0.67317891 11:0.71400774 12:0.6523031 13:0.46782878 14:0.71645033 15:0.48456058 16:0.89583099 17:0.44955277 18:0.14793441 19:0.55574059 20:0.5712145 21:0.85140425 22:0.49805573 23:0.34934831 24:0.87726283 25:0.5190599 26:0.54471552 27:0.45762604 28:0.19364445 29:0.25541767 30:0.43572736 31:0.44379902 32:0.57737905 33:0.92878127 34:0.31004709 35:0.8996948 
-3.340030573421443 1:0.50327253 2:0.29024604 3:0.5609082 4:0.82937139 5:0.89157724 6:0.51405692 7:0.55256587 8:0.9380213 9:0.30979106 10:0.30582157 11:0.41065028 12:0.46554315 13:0.72998089 14:0.59905893 15:0.64315295 16:0.588067 17:0.34052527 18:0.37295687 19:1 20:0.43450782 21:0.68171859 22:0.3526935 23:0.55754071 24:0.44480827 25:0.43670729 26:0.72677433 27:0.2716921 28:0.46338582 29:0.59120607 30:0.81915432 31:0.23399352 32:0.68675518 33:0.72279352 34:0.2755059 35:0.16617405 
-1.390298295483274 1:0.88878387 2:0.63948911 3:0.62560588 4:0.32875696 5:0.54851431 6:0.65256333 7:0.7013061 8:0.58788526 9:0.33313367 10:0.55233312 11:0.52905315 12:0.52420652 13:0.5856238 14:0.56478238 15:0.27204558 16:0.56974751 17:0.53631949 18:0.49848667 19:0.3264814 20:0.35222957 21:0.69362658 22:0.99755287 23:0.39405707 24:0.75881279 25:0.74615091 26:0.57247812 27:0.26005837 28:0.48403293 29:0.89586079 30:0.69934285 31:0.20726328 32:0.72988188 33:0.78813505 34:0.28185633 35:0.15080439 
-1.644620034279223 1:0.60863388 2:0.78732282 3:0.64335001 4:0.61179996 5:0.59838098 6:0.57042271 7:0.61166775 8:0.75770491 9:0.5443126 10:0.45011464 11:0.69064641 12:0.21044607 13:0.52698749 14:0.57142574 15:0.61667174 16:0.56178093 17:0.38622355 18:0.58848518 19:0.88014239 20:0.39632252 21:0.33801368 22:0.61495769 23:0.64533764 24:0.33331296 25:0.024569321 26:0.5189141 27:0.26221317 28:0.60597968 29:0.35947144 30:0.37875754 31:0.14563122 32:0.59351099 33:0.6314674 34:0.29310849 35:0.14927819 
-8.924874935978686 1:0.39223501 2:0.57463485 3:0.21234986 4:0.65936989 5:0.62925762 6:0.19084398 7:0.5564034 8:0.75364435 9:0.61590284 10:0.56008399 11:4.9395007e-16 12:0.84311092 13:0.63794756 14:0.53378439 15:0.44781721 16:0.58434635 17:0.22918028 18:0.5740875 19:0.80131745 20:0.34500325 21:0.30381417 22:0.64927226 23:0.33885744 24:0.24121787 25:0.65397763 26:0.59541357 27:0.87559211 28:0.13321532 29:0.92076284 30:0.76211327 31:0.32907245 32:0.34273711 33:0.83580005 34:0.69749808 35:0.27830908 
-1.58600128713721 1:1 2:0.52257937 3:0.67883778 4:0.081782132 5:0.61481649 6:0.47371 7:0 8:0.48967379 9:0.43142876 10:0.33244184 11:0.4174149 12:0.52327693 13:0.84060943 14:0.723957 15:0.37670216 16:0.57425469 17:0.48857909 18:0.18124753 19:0.8016482 20:0.21716508 21:0.43211326 22:0.53838027 23:0.36138853 24:0.42333812 25:0.75837588 26:0.46306363 27:0.84027332 28:0.43120036 29:0.6538012 30:0.57586282 31:0.19226536 32:0.59837729 33:0.78387433 34:0.45873347 35:0.27312574 
-1.465476021728279 1:0.48950484 2:0.54941148 3:0.78561944 4:0.51869559 5:0.77054816 6:0.50304765 7:0.57581991 8:0.54228944 9:0.2779586 10:0.28804579 11:0.73863864 12:0.4968183 13:0.30571157 14:0.18230872 15:0.51852214 16:0.1457684 17:0.79952854 18:0.2941862 19:0 20:0.55877143 21:0.41016701 22:0.55525315 23:0.16410908 24:0.43540531 25:0.79310316 26:0.64409131 27:0.32192713 28:0.2583411 29:0.73355246 30:0.62222546 31:0.094394766 32:0.7028991 33:0.91890103 34:0.35981441 35:0.20961122 
-1.045873668193764 1:0.71202475 2:0.62376493 3:0.72121251 4:0.037643798 5:0.28076893 6:0.48856029 7:0.60227174 8:0.3261399 9:0.086437337 10:0.39086989 11:0.37596023 12:0.66940594 13:0.97755879 14:0.34145311 15:0.10564522 16:0.55764616 17:0.67334813 18:0.52527893 19:0.61428237 20:0.55090243 21:0.37093189 22:0.69655979 23:0.41747141 24:0.42594486 25:0.18116927 26:0.32150859 27:0.8147974 28:0.4132081 29:0.71460044 30:0.38100994 31:0.16636564 32:0.21396661 33:0.8268618 34:0.66726059 35:0.27860096 
-5.603234067311447 1:0.49610445 2:0.55070764 3:0.69455862 4:0.65791929 5:0.16035512 6:0.67464244 7:0.65317172 8:0.75577897 9:0.44904998 10:0.4558844 11:0.56822705 12:0.40682742 13:1.6561175e-15 14:0.4099853 15:0.33443326 16:0.42284432 17:0.27077708 18:0.41834611 19:0.61919379 20:0.43987656 21:0.38048825 22:0.72575146 23:0.12959473 24:0.32706326 25:0.6628111 26:0.44080153 27:0.69583076 28:0.80176473 29:0.41244289 30:0.31922916 31:0.19616534 32:0.50743324 33:0.57886809 34:0.2594533 35:0.29552671 
-6.502887807879145 1:0.50083804 2:0.48120865 3:0.49441126 4:0.65723532 5:0.40059042 6:0.15064687 7:0.37399101 8:0.77760059 9:0.30885631 10:0.56571954 11:0.40978152 12:0.4473024 13:0.70416224 14:0.36387774 15:0.2721903 16:0.49005535 17:0.54346544 18:0.39880186 19:0.35054547 20:0.59934837 21:0.51768994 22:0.5562622 23:0.83972836 24:0.53722113 25:0.68683785 26:0.28271261 27:0.18913114 28:0.54034674 29:0.43045533 30:0.43026859 31:0.23328118 32:0.62673491 33:0.56548548 34:0.23294099 35:0.13421528 
-6.543230531806391 1:0.6287778 2:0.22865492 3:0.5649901 4:0.46147016 5:0.51425326 6:0.51756305 7:0.21633947 8:0.33645692 9:0.22323555 10:0.27801284 11:0.74443191 12:0.63947099 13:0.80483383 14:0.60968471 15:0.31349349 16:0.80520105 17:0.14237784 18:0.53628147 19:0.48218611 20:0.82564533 21:0.2870003 22:0.63761753 23:0.61510414 24:0.72148031 25:0.62126189 26:0.73360425 27:0.73542702 28:0.82356304 29:0.35425034 30:0.58565044 31:0.25139058 32:0.6255182 33:0.44402751 34:0.24932824 35:0.24022821 
-10 1:0.68006122 2:0.63072491 3:0.65218079 4:0.75320876 5:0.82323515 6:0.60787892 7:0.3977434 8:0.47624904 9:0.37503016 10:0.59912658 11:0.31652391 12:0.60937488 13:0.43797544 14:0.47268885 15:0.66821325 16:0.50835627 17:0.45964047 18:0.37758005 19:0.58206856 20:0.51612335 21:0.3933911 22:0.81708759 23:0.60409057 24:0.55700374 25:0.17102842 26:0.40742707 27:0.28073391 28:0.71316141 29:0.3240906 30:0.44921833 31:0.13647294 32:0.5575093 33:0.48355883 34:0.31830701 35:0.21700463 
-0.5803125345362584 1:0.51517284 2:0.79130375 3:0.56039244 4:0.5045405 5:0.29693487 6:0.75881827 7:0.48348528 8:0.58879584 9:0.75881535 10:0.32704306 11:0.42897001 12:0.11072673 13:0.59932554 14:0.35803804 15:0.37057048 16:0.75338495 17:0.62144351 18:0.60916358 19:0.1455413 20:0.46282652 21:0.52071691 22:0.83352876 23:0.9596895 24:0.45022544 25:0.51872563 26:0.57570082 27:0.54730368 28:0.74857986 29:0.12504043 30:0.35362673 31:0.24472789 32:0.54283303 33:0.48888013 34:0.22406569 35:0.25806493 
-9.657879440078437 1:0.33455843 2:0.55077446 3:0.47315153 4:0.61107236 5:0.56385607 6:0.3053053 7:0.58587331 8:0.65628761 9:0.61116439 10:0.67075062 11:0.85355717 12:0.6683653 13:0.76600766 14:0.29027054 15:0.1130122 16:0.76215231 17:0.34488904 18:0.42651597 19:0.58289272 20:0.42935771 21:0.73846555 22:0.59781742 23:0.54032856 24:0.4066759 25:0.73600078 26:0.82595468 27:0.28867906 28:0.53642845 29:0.24075015 30:0.53824091 31:0.26518303 32:0.25371385 33:0.53270113 34:0.28303701 35:0.87528813 
-0.2317448371660659 1:0.63011646 2:0.4307647 3:0.27522579 4:0.48817068 5:0.58946651 6:0.17526254 7:0.53708321 8:0.85968405 9:0.38231787 10:0.24151047 11:0.7156983 12:0.49893272 13:0.64987874 14:0.44807619 15:0.3011044 16:0.60674638 17:0.6505518 18:0.55967063 19:0.62823004 20:0.31513968 21:0.52737284 22:0.76177049 23:0.59427649 24:0.51854539 25:0.91692501 26:0.7296167 27:0.29668143 28:0.40400881 29:0.08020094 30:0.53830129 31:0.23805605 32:0.28326526 33:0.58526736 34:0.21975869 35:0.8545869 
