svm_type c_svc
kernel_type rbf
gamma 0.09
nr_class 2
total_sv 7
rho 0.548714
label 130220101 130220103
probA -2.73551
probB -0.0672635
nr_sv 2 5
SV
7.821626698287515 1:0.38497108 2:0.67396307 3:0.33407319 4:0.3657735 5:0.33175352 6:0 
9.988808041353032 1:0.38497108 2:0.67396307 3:0.33407319 4:0.3657735 5:0.33175352 6:0 
-7.370324904806366 1:0.21758476 2:0.8920877 3:0.49560824 4:0.16256478 5:0.52044123 6:0.79640305 
-6.043800366410854 1:0.49918801 2:0 3:0.094300069 4:0.34838602 5:0.55463725 6:0.71268696 
-0.8122132933291061 1:0.23826835 2:0.31779024 3:0.77038556 4:1 5:1 6:0.67489237 
-2.242163506283503 1:0.3735655 2:0.92654043 3:0.24500813 4:0.63928378 5:0.15631166 6:0.93176126 
-1.341932668810714 1:0 2:0.71115756 3:1 4:0.08183226 5:0.10461119 6:0.79690486 
